{"layer1.0.weight": [[[[-0.15811380743980408, -0.11125651001930237, 0.09014272689819336, -0.18594466149806976, -0.22936588525772095], [0.07187744230031967, -0.2030934989452362, 0.03070525825023651, 0.10743830353021622, 0.2221333384513855], [0.1811923384666443, 0.11854276061058044, 0.11190871894359589, 0.10548064857721329, -0.12227635830640793], [-0.08700244873762131, 0.1215583086013794, -0.1553538292646408, -0.17741480469703674, -0.010760245844721794], [-0.009802754037082195, 0.1303064227104187, -0.03736887127161026, -0.03603560850024223, 0.16656073927879333]]], [[[0.19346994161605835, -0.15406249463558197, -0.09416987001895905, 0.10550574213266373, -0.006373553071171045], [0.1472265124320984, -0.059505920857191086, -0.13257089257240295, -0.09510767459869385, 0.13529054820537567], [0.11164916306734085, -0.23039785027503967, -0.05164647474884987, 0.1513400673866272, 0.12205387651920319], [0.02148546278476715, -0.19337381422519684, -0.07482728362083435, 0.2009349912405014, 0.05596158653497696], [0.037737201899290085, -0.2300870269536972, 0.19006222486495972, 0.07503584027290344, -0.17584820091724396]]], [[[0.19727455079555511, -0.006153637543320656, -0.1884448379278183, -0.2647622525691986, -0.17722965776920319], [0.1267668604850769, 0.14611811935901642, -0.19892731308937073, -0.17137280106544495, 0.11179104447364807], [0.0031884287018328905, -0.15588590502738953, -0.05509743466973305, 0.21377618610858917, -0.049959827214479446], [-0.014673491939902306, -0.07604126632213593, 0.1433788239955902, -0.14530792832374573, 0.0939798504114151], [0.09084257483482361, -0.12770786881446838, 0.08795454353094101, -0.09582629799842834, 0.018620816990733147]]], [[[-0.09352336823940277, 0.09076766669750214, 0.02607843466103077, 0.017489435151219368, 0.11633826047182083], [0.07733987271785736, -0.2483801245689392, -0.0992601066827774, -0.05846663936972618, -0.0006538983434438705], [-0.155879408121109, -0.23802003264427185, -0.16518966853618622, -0.0050261253491044044, -0.09162119030952454], [0.022263988852500916, -0.23795515298843384, 0.12701204419136047, 0.18494997918605804, -0.005649397149682045], [-0.05247288942337036, -0.12789274752140045, -0.031352121382951736, 0.08623232692480087, -0.22374644875526428]]], [[[0.052995048463344574, -0.2176111340522766, 0.11407287418842316, 0.06413181126117706, -0.011078509502112865], [0.039127156138420105, 0.17231665551662445, 0.05363551899790764, -0.07675058394670486, -0.13780426979064941], [-0.10370393097400665, -0.20142096281051636, -0.07987690716981888, 0.12255428731441498, 0.20811277627944946], [0.010393760167062283, 0.011336660012602806, -0.2079409509897232, 0.01711965911090374, 0.19284415245056152], [-0.06103554368019104, 0.1810050755739212, 0.11471379548311234, -0.07756315916776657, -0.1360810399055481]]], [[[0.027458984404802322, 0.05365792289376259, -0.14275798201560974, 0.10295728594064713, -0.04793731868267059], [-0.05616692453622818, 0.022539060562849045, 0.05583204701542854, -0.07241425663232803, 0.011227132752537727], [-0.06746500730514526, 0.14701469242572784, -0.06920954585075378, -0.12619371712207794, 0.1989484429359436], [-0.0004623937711585313, 0.1506354957818985, -0.21032218635082245, 0.23037907481193542, -0.1678556203842163], [0.1113380417227745, -0.22905375063419342, 0.15661665797233582, 0.05262566730380058, -0.17784030735492706]]], [[[-0.21522247791290283, 0.11611618101596832, 0.009950323961675167, 0.04258803278207779, 0.01136665791273117], [-0.05294365435838699, -0.054919179528951645, 0.11015237122774124, -0.11786019057035446, -0.26213371753692627], [0.04969838634133339, 0.09159114956855774, 0.11899195611476898, 0.018948297947645187, -0.18159429728984833], [0.09009027481079102, 0.09681563079357147, 0.059478018432855606, -0.11248096078634262, 0.046469345688819885], [-0.21146678924560547, 0.1421089470386505, -0.03407333046197891, -0.02353854663670063, 0.09056196361780167]]], [[[-0.21880687773227692, 0.1264863908290863, -0.20153984427452087, 0.1451551616191864, -0.06220853328704834], [-0.06016271561384201, -0.04655162990093231, -0.014062725938856602, -0.012966910377144814, -0.12259462475776672], [0.0694444552063942, 0.022339174523949623, -0.007772549521178007, -0.05828884243965149, 0.0907907634973526], [0.14139755070209503, 0.07350791245698929, 0.14203965663909912, 0.013106909580528736, -0.018414994701743126], [0.0575777031481266, -0.16121578216552734, -0.05419069156050682, -0.07710428535938263, 0.18136194348335266]]], [[[-0.09731324017047882, -0.0036262264475226402, -0.11345765739679337, 0.10998759418725967, 0.10426352918148041], [-0.01230886671692133, -0.01541987806558609, -0.11004100739955902, 0.2902493178844452, -0.1301857829093933], [-0.1146809533238411, -0.1812162846326828, 0.1918361932039261, 0.2148510366678238, -0.15694251656532288], [0.1511700451374054, 0.012573540210723877, 0.19668139517307281, -0.12879212200641632, -0.19784004986286163], [-0.07623138278722763, 0.1364433616399765, -0.046691883355379105, 0.13920710980892181, -0.14105401933193207]]], [[[-0.20270033180713654, -0.10936500877141953, -0.006890072487294674, 0.16637682914733887, 0.1773250699043274], [0.13517266511917114, 0.16851608455181122, 0.15534070134162903, -0.029680175706744194, -0.06576322764158249], [-0.007863753475248814, -0.1138286367058754, -0.2010963410139084, -0.2048146277666092, -0.16121125221252441], [0.0327676497399807, 0.12756064534187317, 0.1363312304019928, 0.032582253217697144, -0.14435872435569763], [0.0037953462451696396, -0.08908968418836594, -0.024954255670309067, 0.04392467811703682, 0.15458494424819946]]], [[[-0.1247279942035675, -0.054187629371881485, 0.14833249151706696, 0.08444374799728394, 0.10028994083404541], [-0.0647771954536438, 0.08711642771959305, -0.17259612679481506, 0.10890188813209534, 0.07534348219633102], [-0.0740896686911583, -0.03637503832578659, -0.12668432295322418, 0.04354701563715935, 0.015632539987564087], [0.08377018570899963, 0.1520412117242813, -0.21338237822055817, 0.021398887038230896, 0.006575864739716053], [0.16121599078178406, 0.09025505185127258, -0.27548569440841675, -0.06172434985637665, 0.09797775000333786]]], [[[0.16762544214725494, 0.0978206992149353, -0.25176680088043213, 0.10403727740049362, -0.09234443306922913], [-0.19390743970870972, 0.1563069224357605, -0.05489340424537659, 0.09346635639667511, -0.05801507458090782], [-0.13774891197681427, -0.02044217847287655, 0.18078085780143738, 0.020726947113871574, -0.025981437414884567], [0.015473279170691967, -0.014589841477572918, 0.20525358617305756, -0.12549085915088654, -0.1758175939321518], [0.05947151035070419, 0.0036863847635686398, 0.10660240799188614, -0.18122228980064392, 0.08599164336919785]]], [[[-0.11986415833234787, -0.14010965824127197, -0.04244104027748108, 0.018866347149014473, 0.1907162070274353], [0.16143964231014252, 0.09736928343772888, 0.11086951196193695, -0.013382239267230034, 0.20467999577522278], [-0.10977454483509064, 0.01945841684937477, -0.04732826352119446, 0.09654279798269272, 0.2416490763425827], [-0.04352020472288132, 0.15926063060760498, -0.17297446727752686, -0.06347299367189407, 0.23705324530601501], [0.11633939296007156, 0.02370261400938034, 0.1845034658908844, -0.026740871369838715, 0.07457432895898819]]], [[[0.04466776177287102, 0.043153151869773865, 0.15675310790538788, -0.21382488310337067, -0.08163558691740036], [0.1825624406337738, 0.06502169370651245, 0.036432042717933655, 0.06860151886940002, 0.07435876876115799], [-0.0935835912823677, 0.09762310236692429, -0.06727072596549988, -0.1888861358165741, 0.2238507717847824], [-0.1757531464099884, 0.05197305232286453, -0.16989988088607788, -0.006988608278334141, 0.12514247000217438], [0.10191069543361664, -0.2615014612674713, 0.056171633303165436, -0.07739637047052383, -0.00023625364701729268]]], [[[0.0021533204708248377, 0.18493981659412384, -0.0299540963023901, 0.07154722511768341, -0.12817607820034027], [-0.19478493928909302, -0.12550629675388336, 0.07351456582546234, -0.1405811309814453, -0.21822553873062134], [-0.23477384448051453, 0.06734269857406616, 0.07939225435256958, -0.015454655513167381, 0.2115381360054016], [-0.11426886916160583, 0.03879234567284584, 0.00453517260029912, -0.07307332754135132, 0.21421073377132416], [0.10927697271108627, -0.039605122059583664, -0.05495382845401764, 0.18085680902004242, -0.021142341196537018]]], [[[0.1461958885192871, -0.0973246768116951, -0.12915511429309845, -0.1814773678779602, 0.07662570476531982], [-0.0991206094622612, -0.17912347614765167, -0.40758341550827026, -0.239946186542511, 0.05722465738654137], [0.07937625795602798, -0.2836094796657562, -0.3836385905742645, -0.19713492691516876, -0.013245992362499237], [-0.07694405317306519, 0.0705086812376976, -0.17321567237377167, -0.061436425894498825, 0.04299897700548172], [-0.07145452499389648, 0.14055776596069336, 0.07591266185045242, 0.06780293583869934, 0.11812739074230194]]]], "layer1.0.bias": [-0.010511435568332672, 0.15298238396644592, 0.028658492490649223, -0.13858753442764282, -0.09201864153146744, -0.06553597748279572, -0.1708175092935562, 0.02407546155154705, -0.18011759221553802, 0.23490770161151886, -0.09584759920835495, -0.1185365691781044, 0.1381624937057495, -0.033474914729595184, 0.019881395623087883, 0.1676117181777954], "layer1.1.weight": [1.0260748863220215, 0.9961280822753906, 1.1056177616119385, 1.0990973711013794, 0.9446395039558411, 0.9996170401573181, 0.9436013102531433, 0.9514363408088684, 1.0737495422363281, 0.8343203663825989, 1.0019887685775757, 0.8813881874084473, 0.8076841235160828, 0.9508931636810303, 1.0497562885284424, 1.12542724609375], "layer1.1.bias": [-0.08044186234474182, -0.004376318771392107, -0.1994505673646927, -0.23699654638767242, -0.09921016544103622, -0.10074367374181747, -0.07523109763860703, -0.06877254694700241, 0.04620792716741562, -0.22357633709907532, -0.004686841741204262, 0.005844551138579845, -0.2734730541706085, -0.04852687194943428, -0.15446779131889343, -0.3409111797809601], "layer1.1.running_mean": [-0.01789560727775097, 0.15750007331371307, -0.09362336993217468, -0.41663452982902527, -0.08398528397083282, -0.07152815163135529, -0.21068991720676422, 0.017096038907766342, -0.17202799022197723, 0.22838722169399261, -0.0794801339507103, -0.12758494913578033, 0.4356951117515564, -0.039873961359262466, -0.023647552356123924, -0.2796311378479004], "layer1.1.running_var": [0.009541530162096024, 0.02923797443509102, 0.04422243312001228, 0.11754229664802551, 0.005412199068814516, 0.0038225336465984583, 0.0179597157984972, 0.007075692526996136, 0.017861563712358475, 0.006166922859847546, 0.016240926459431648, 0.010795407928526402, 0.1280013918876648, 0.012075069360435009, 0.017791815102100372, 0.3340136408805847], "layer1.1.num_batches_tracked": 39026, "layer2.0.weight": [[[[-0.11336061358451843, -0.030470486730337143, 0.09724921733140945, 0.025929251685738564, 0.04588799551129341], [-0.043169766664505005, -0.01624433882534504, -0.04567933455109596, -0.011607334017753601, -0.09440043568611145], [-0.009099743328988552, -0.014250705949962139, -0.027576491236686707, -0.02548815682530403, -0.029980165883898735], [-0.04155147448182106, -0.04215815290808678, 0.09046413004398346, 0.07431454956531525, 0.09137233346700668], [-0.02223104238510132, -0.11740663647651672, -0.004136892035603523, 0.000255704449955374, 0.023483512923121452]], [[0.08620312809944153, 0.034902360290288925, -0.004048796836286783, -0.12062198668718338, -0.06717754900455475], [0.007757846266031265, 0.03703905642032623, 0.02935410477221012, 0.0036919426638633013, 0.007092980667948723], [-0.0008738116594031453, 0.05409746244549751, 0.04056653752923012, -0.06637115031480789, -0.06310156732797623], [0.07704400271177292, 0.09771575033664703, 0.05423050746321678, 0.050523966550827026, 0.001710306154564023], [0.03783925250172615, -0.0041525522246956825, 0.061286162585020065, 0.0626516044139862, 0.03173983842134476]], [[-0.047870371490716934, -0.05039028823375702, 0.08645378798246384, 0.12211591750383377, 0.06451968848705292], [0.020818404853343964, 0.08809322118759155, -0.0027561623137444258, 0.042345259338617325, 0.062398429960012436], [-0.007129553705453873, -0.06250479817390442, -0.04266110435128212, 0.05121955648064613, 0.0155728068202734], [0.005086795426905155, -0.03842730075120926, 0.01265533734112978, 0.04162435233592987, 0.15135227143764496], [0.024966396391391754, -0.010879941284656525, -0.03065468557178974, 0.10760816186666489, 0.06541149318218231]], [[0.07391510903835297, -0.06021270528435707, -0.14583581686019897, -0.030302032828330994, 0.03930891305208206], [0.09489280730485916, 0.051047053188085556, -0.01734013669192791, 0.006075054872781038, 0.01468275859951973], [0.09856783598661423, 0.05074788257479668, -0.0035623149015009403, -0.016367284581065178, -0.013862915337085724], [0.042433496564626694, 0.04577385634183884, 0.010655319318175316, 0.017829714342951775, 0.07924953103065491], [0.08809223771095276, 0.14333313703536987, 0.009103653952479362, 0.09060102701187134, 0.04980922490358353]], [[-0.02848214842379093, -0.04953043535351753, 0.03945348411798477, -0.0714644193649292, -0.020700868219137192], [-0.006482401862740517, 0.031805381178855896, -0.02876954711973667, -0.02627585083246231, -0.09721818566322327], [-0.03934004157781601, -0.06478996574878693, -0.01938539184629917, 0.03334939479827881, -0.013747153803706169], [-0.004094680771231651, 0.057031821459531784, -0.0218347180634737, 0.06878631561994553, -0.006743990816175938], [0.03556467965245247, -0.014395618811249733, -0.007465645205229521, -0.03716070577502251, -0.026468101888895035]], [[0.0064604864455759525, -0.01286372635513544, 0.009694729000329971, -0.04045359790325165, -0.01921236887574196], [0.06174280866980553, 0.052405551075935364, 0.0815063863992691, -0.0416654609143734, -0.005514482501894236], [-0.005618642549961805, 0.018963705748319626, -0.02368050254881382, -0.08850259333848953, -0.005268322769552469], [-0.012896150350570679, 0.006240178365260363, -0.03131667897105217, -0.08708498626947403, -0.06265906989574432], [0.08000482618808746, 0.017578812316060066, -0.031033830717206, 0.000420953962020576, 0.00817796215415001]], [[0.048866961151361465, -0.04628727212548256, 0.01239112950861454, -0.03984680399298668, 0.044422704726457596], [-0.0016356499399989843, -0.012921236455440521, -0.05303402990102768, 0.04139944911003113, 0.0058652847073972225], [-0.10025443136692047, -0.028229188174009323, 0.017072858288884163, -0.04195963218808174, -0.011936300434172153], [-0.027487775310873985, -0.05138944089412689, 0.11589232832193375, 0.0018458131235092878, -0.06670650094747543], [0.007597304414957762, -0.1576833426952362, 0.008877109736204147, 0.04885048046708107, -0.0038885842077434063]], [[-0.06751644611358643, -0.16766276955604553, -0.024130042642354965, 0.05818544700741768, 0.028465542942285538], [-0.15967167913913727, -0.034517012536525726, -0.0720592513680458, 0.04065932333469391, -0.05019598454236984], [-0.08880271017551422, 0.006529267877340317, -0.011620656587183475, 0.04015990346670151, -0.06345950812101364], [-0.1362929493188858, -0.06763624399900436, -1.9016233636648394e-06, 0.03197958692908287, 0.023932769894599915], [-0.0939980074763298, -0.11811031401157379, 0.05828014016151428, -0.0012627950636669993, -0.03251635655760765]], [[-0.062401093542575836, -0.041582174599170685, -0.09490921348333359, 0.021816439926624298, 0.020522547885775566], [0.07056760042905807, -0.03942113369703293, -0.039236921817064285, -0.013464015908539295, -0.015666868537664413], [0.044149838387966156, -0.04209339991211891, 0.019306177273392677, -0.06727445870637894, -0.02563694305717945], [0.05662102997303009, 0.01674281805753708, -0.04366135597229004, -0.03276229277253151, -0.04447551071643829], [0.05550600588321686, 0.04268305003643036, -0.146837055683136, 0.019861683249473572, 0.010389306582510471]], [[-0.035482119768857956, 0.008620431646704674, -0.06586312502622604, -0.048687197268009186, 0.03172275796532631], [0.042782366275787354, -0.0627005398273468, -0.023927951231598854, -0.011579765938222408, -0.055766064673662186], [-0.01078072004020214, 0.08888289332389832, 0.01485062949359417, 0.06574320048093796, -0.001788223860785365], [-0.005337510257959366, -0.024920940399169922, 0.040547482669353485, 0.030651817098259926, 0.014932386577129364], [-0.096758171916008, -0.03670385852456093, -0.05385313555598259, -0.007418274879455566, 0.06221570074558258]], [[0.08549662679433823, 0.016208019107580185, -0.0588810034096241, -0.1342461109161377, 0.0459778867661953], [0.01631157286465168, 0.06060682609677315, -0.03127772733569145, -0.0547613687813282, -0.021996157243847847], [0.09286412596702576, 0.10350391268730164, 0.050014883279800415, 0.023021725937724113, 0.07147243618965149], [0.15234272181987762, 0.04853734001517296, -0.06916297972202301, -0.11869952082633972, -0.08340287208557129], [0.02440655417740345, 0.04729617387056351, -0.04115789383649826, -0.06738633662462234, -0.018408123403787613]], [[-0.0031489126849919558, 0.05800322815775871, 0.0518156997859478, -0.045252520591020584, 0.06462164968252182], [0.06268242746591568, -0.02329704910516739, 0.03762071579694748, -0.042308371514081955, -0.013351689092814922], [-0.023848818615078926, -0.030027572065591812, -0.030495474115014076, -0.0217372365295887, -0.04076463729143143], [-0.051761846989393234, -0.06223863735795021, 0.016582347452640533, 0.014571787789463997, 0.014613635838031769], [-0.04367871955037117, -0.1525029093027115, -0.03155208006501198, -0.006151638459414244, -0.021534966304898262]], [[0.04907270893454552, -0.0202199537307024, -0.08563888818025589, 0.06309641897678375, 0.026516573503613472], [0.040279362350702286, -0.0625654011964798, -0.009304574690759182, -0.006920493207871914, 0.04945695772767067], [0.043353352695703506, -0.09767719358205795, -0.0686568021774292, 0.01459005568176508, -0.027875903993844986], [0.04055155813694, -0.004412830341607332, -0.00610662205144763, 0.07979707419872284, -0.006152298767119646], [0.034274622797966, -0.02005092240869999, 0.02082297019660473, 0.01502540335059166, 0.03396875783801079]], [[-0.0473722480237484, -0.05611849203705788, -0.0173040721565485, -0.07741934806108475, -0.017198733985424042], [0.033551204949617386, -0.07577148079872131, 0.0006012571393512189, 0.051941465586423874, 0.03721641004085541], [-0.019514817744493484, -0.025851326063275337, -0.06799674034118652, 0.007219047285616398, -0.010532465763390064], [-0.05224789306521416, -0.004190733656287193, -0.0038133535999804735, -0.05945119261741638, -0.09620534628629684], [0.0077840848825871944, 0.012905815616250038, 0.059279873967170715, 0.001861498225480318, 0.03606157749891281]], [[0.03558606281876564, 0.03031482920050621, 0.039617180824279785, 0.010571523569524288, 0.007690716069191694], [-0.04160013422369957, 0.022829528898000717, -0.008302232250571251, 0.0892462432384491, -0.059722356498241425], [-0.027600528672337532, 0.009398609399795532, -0.03139691427350044, 0.02461383305490017, 0.007297187577933073], [-0.020041322335600853, 0.025715701282024384, 0.04515720158815384, -0.008428393863141537, -0.0028848503716289997], [0.09698391705751419, 0.1026475802063942, -0.05362783744931221, -0.013439127244055271, -0.06162715330719948]], [[-0.039926983416080475, -0.02548159845173359, -0.03920658305287361, -0.03339703008532524, -1.6981017324724235e-05], [-0.023940952494740486, 0.027679378166794777, -0.008750180713832378, 0.027473263442516327, -0.005906536243855953], [0.04314856231212616, -0.04312659427523613, -0.11137060821056366, 0.03454839810729027, 0.05786828696727753], [-0.010309587232768536, -0.04307955875992775, -0.06701260805130005, 0.02773456461727619, 0.11175350099802017], [0.015140004456043243, -0.03301478549838066, 0.02920842356979847, 0.09256920218467712, 0.07315248996019363]]], [[[0.08204709738492966, -0.020637832581996918, -0.03304624930024147, -0.06445787101984024, -0.05942273885011673], [0.11509694159030914, 0.056553371250629425, 0.03742571920156479, -0.04945666342973709, 0.06385228782892227], [-0.0479000061750412, -0.0362328477203846, -0.08182978630065918, -0.01126045547425747, 0.06129429116845131], [-0.0033188452944159508, 0.005143120884895325, 0.031030964106321335, -0.013151117600500584, -0.05299104377627373], [-0.03450494259595871, 0.07747947424650192, 0.0646752193570137, 0.08465316891670227, 0.03343813493847847]], [[0.012970464304089546, -0.028145629912614822, 0.018968675285577774, -0.010482885874807835, -0.014279952272772789], [0.0025411457754671574, -0.07565610855817795, -0.024218853563070297, -0.015838056802749634, 0.013008545152842999], [0.02986433170735836, 0.022924408316612244, 0.002794557483866811, -0.07419824600219727, -0.07905258983373642], [-0.06263593584299088, -0.029023492708802223, -0.024789215996861458, -0.013141999021172523, -0.0723385438323021], [-0.05273614823818207, -0.02513520047068596, 0.12211083620786667, -0.04174640402197838, -0.136579692363739]], [[-0.00471683731302619, -0.018547384068369865, -0.07641046494245529, -0.11671825498342514, -0.12909342348575592], [-0.028477327898144722, -0.0184983741492033, 0.003352327272295952, 0.003816424636170268, -0.06731622666120529], [-8.74751276569441e-05, -0.0659928098320961, -0.053864821791648865, -0.05893132463097572, -0.07689996808767319], [-0.0970078706741333, -0.028953654691576958, 0.10276047885417938, 0.014648289419710636, -0.07599443942308426], [-0.042477983981370926, -0.05759193375706673, 0.05262579396367073, -0.05513707175850868, 0.004780744202435017]], [[-0.037107035517692566, 0.04415380582213402, -0.02863437496125698, -0.024257438257336617, -0.01581704430282116], [0.02042754366993904, 0.04200807958841324, -0.028440827503800392, 0.017204783856868744, 0.013943463563919067], [-0.08099627494812012, 0.0334317572414875, -0.10995055735111237, -0.011725758202373981, -0.06828385591506958], [0.017513267695903778, 0.0014262049226090312, 0.008870245888829231, 0.044489964842796326, -0.006679825950413942], [0.03748553618788719, -0.07536543160676956, -0.0023402036167681217, 0.028939368203282356, 0.0039782351814210415]], [[0.07673600316047668, 0.054838310927152634, -0.11345476657152176, 0.050980597734451294, 0.0038172982167452574], [0.11610126495361328, 0.02893485501408577, 0.04282006621360779, -0.06901189684867859, 0.06455488502979279], [0.0008415118209086359, 0.07329358905553818, 0.01077965460717678, -0.176468163728714, -0.11859852075576782], [-0.12559513747692108, 0.05897920951247215, 0.01809990592300892, -0.03726818412542343, -0.08819790929555893], [-0.033313944935798645, 0.028226297348737717, 0.06868840008974075, -0.05177364870905876, -0.08717571943998337]], [[-0.03222982957959175, -0.03403545543551445, 0.08453106880187988, 0.039515282958745956, 0.12209278345108032], [0.07965968549251556, -0.08228234946727753, 0.06746567040681839, -0.039105672389268875, 0.06311439722776413], [-0.005341446027159691, -0.022921966388821602, 0.06409230828285217, -0.025908859446644783, 0.059702929109334946], [-0.005426750984042883, -0.017566939815878868, -0.0022308153565973043, 0.025769904255867004, -0.07539545744657516], [0.04057469218969345, 0.02320694364607334, 0.06440532207489014, -0.004285973496735096, -0.016478054225444794]], [[0.007192469667643309, -0.034945689141750336, 0.01457743439823389, 0.049672551453113556, 0.04472126439213753], [0.004739167634397745, -0.002645056927576661, -0.0091406824067235, 0.06139840558171272, 0.05988415703177452], [-0.053767696022987366, -0.13001465797424316, -0.023529725149273872, -0.07634244859218597, -0.019367661327123642], [-0.05993945524096489, -0.07931580394506454, 0.014377343468368053, 0.10983604937791824, -0.06637158244848251], [-0.06555778533220291, -0.03477242588996887, 0.030196959152817726, -0.004002428613603115, 0.02539130300283432]], [[0.018742769956588745, 0.025488734245300293, -0.10211186856031418, -0.1253194361925125, -0.061763059347867966], [0.07628768682479858, 0.019584093242883682, -0.10802271217107773, -0.06413830816745758, -0.028129316866397858], [0.014761722646653652, 0.049014054238796234, 0.012720925733447075, -0.10930578410625458, 0.03394366055727005], [-0.007229522801935673, 0.005074636545032263, 0.0009897192940115929, -0.04302256926894188, -0.04506877437233925], [0.03406677767634392, -0.0546625480055809, 0.0034215699415653944, -0.018616557121276855, -0.03176745027303696]], [[-0.007026547100394964, 0.08694936335086823, 0.04871602728962898, 0.03784700483083725, 0.07172204554080963], [-0.03233546391129494, 0.06973615288734436, 0.06910369545221329, -0.01656670682132244, 0.058782219886779785], [-0.0471738800406456, -0.012742848135530949, 0.016941674053668976, -0.05249081552028656, 0.029142696410417557], [-0.10640649497509003, -0.07501117885112762, -0.029828570783138275, -0.05897415429353714, -0.013098505325615406], [0.05626774579286575, 0.0433737188577652, 0.08474809676408768, -0.021677430719137192, -0.10981681197881699]], [[0.011645936407148838, 0.01898808218538761, 0.04751414433121681, -0.03451067581772804, -0.06814869493246078], [0.03452962264418602, -0.011653050780296326, -0.019870486110448837, 0.04392193257808685, 0.05849704518914223], [-0.031194301322102547, -0.023715192452073097, -0.028241392225027084, 0.01603011228144169, -0.0627904087305069], [-0.042001642286777496, 0.03949349373579025, 0.039363354444503784, 0.04752717539668083, 0.08323997259140015], [0.010524637997150421, 0.03626421093940735, 0.04476986080408096, 0.018922554329037666, 0.048763208091259]], [[-0.06011754274368286, 0.022811276838183403, -0.036210283637046814, 0.03809567540884018, -0.07468843460083008], [0.04819474369287491, 0.007559486664831638, -0.0906386449933052, -0.06019217148423195, 0.02872762829065323], [0.029108433052897453, 0.08148764818906784, -0.05969874933362007, -0.09063887596130371, -0.0012255695182830095], [-0.05784693360328674, 0.10199598222970963, -0.019181642681360245, -0.07644928991794586, 0.0293812807649374], [0.001661564689129591, 0.06422039121389389, 0.14309896528720856, -0.039872411638498306, 0.021072877570986748]], [[0.025852711871266365, -0.05352327600121498, -0.0237665306776762, -0.0016442537307739258, 0.04267413541674614], [-0.04451405629515648, -0.03199174255132675, 0.058177217841148376, 0.034979283809661865, 0.010087614879012108], [-0.10954134166240692, -0.06734973937273026, -0.03507143631577492, 0.023828063160181046, -0.07160655409097672], [-0.07908495515584946, -0.07321689277887344, 0.07219649106264114, -0.002800056943669915, 0.012099005281925201], [-0.10369081050157547, -0.011386950500309467, 0.03984393551945686, 0.09472069889307022, 0.05029186233878136]], [[-0.08430257439613342, -0.0379701629281044, 0.08676087111234665, 0.03530846908688545, 0.05892680957913399], [-0.021831659600138664, 0.10270930081605911, 0.06948849558830261, 0.07924112677574158, -0.009965925477445126], [-0.025407683104276657, -0.0009976868750527501, 0.0460171215236187, 0.01533917523920536, 0.000494723382871598], [-0.06627963483333588, 0.030721403658390045, 0.027112683281302452, -0.05108810216188431, -0.04731804504990578], [-0.1066332459449768, -0.024149214848876, 0.07475784420967102, -0.012965738773345947, -0.08346731960773468]], [[-0.03228089585900307, 0.010938028804957867, 0.11704663932323456, -0.027297403663396835, 0.01583133079111576], [-0.05142996460199356, 0.0007746175397187471, 0.08751332014799118, 0.002979889279231429, -0.0020880880765616894], [-0.07966610044240952, 0.027138790115714073, 0.0574474111199379, -0.060879576951265335, -0.009144283831119537], [-0.14070142805576324, 0.024940157309174538, 0.023023612797260284, 0.005945766344666481, -0.02860167808830738], [-0.03621087223291397, 0.04618890956044197, 0.07092718034982681, -0.032784733921289444, -0.05397210642695427]], [[0.09940885752439499, 0.0153759540989995, -0.04910653457045555, -0.017264142632484436, -0.06137556582689285], [0.0865175873041153, 0.10857424885034561, -0.013901100493967533, -0.04201727733016014, 0.0904153510928154], [0.060354698449373245, 0.06662869453430176, -0.018386714160442352, -0.0014779565390199423, -0.04757240414619446], [0.05023029074072838, 0.0007664953009225428, 0.07809105515480042, -0.027720553800463676, -0.03963557630777359], [0.17292936146259308, -0.00270961900241673, 0.08696480840444565, 0.07974069565534592, -0.08809378743171692]], [[0.03535814955830574, -0.05869303271174431, -0.05230174586176872, -0.06541446596384048, -0.10097215324640274], [0.04654446989297867, -0.02922685816884041, -0.04487843066453934, -0.01407549623399973, 0.041648708283901215], [0.024187829345464706, -0.06023097783327103, -0.0471593476831913, -0.06487194448709488, 0.03812498226761818], [-0.050904519855976105, -0.04619615525007248, -0.0801304429769516, 0.025104237720370293, 0.020376019179821014], [-0.05061756819486618, -0.014508525840938091, 0.005790503695607185, 0.0001950272126123309, -0.01206919550895691]]], [[[0.030599070712924004, 0.0018145324429497123, -0.10855134576559067, -0.11574193835258484, -0.028485050424933434], [0.07004675269126892, -0.05205334350466728, -0.06076693534851074, -0.011871433816850185, 0.002702949335798621], [0.0030437037348747253, -0.05183633044362068, -0.10456576943397522, -0.01598978228867054, 0.015266642905771732], [-0.03822895139455795, -0.03189776465296745, -0.13771973550319672, -0.046552132815122604, -0.03503938764333725], [0.003698035841807723, 0.013098818250000477, -0.07150842994451523, 0.04898930713534355, 0.024877158924937248]], [[-0.036032892763614655, -0.04987592250108719, 0.06367844343185425, 0.07319032400846481, 0.06050357595086098], [-0.043703772127628326, -0.008128488436341286, 0.10121455788612366, 0.019179604947566986, 0.024069083854556084], [-0.027760276570916176, 0.021708475425839424, 0.08416905254125595, 0.004509941209107637, -0.06159307807683945], [-0.0761825293302536, -0.018787866458296776, 0.12920477986335754, -0.018973352387547493, 0.007996868342161179], [-0.014494316652417183, -0.07300335168838501, 0.08624698221683502, -0.001207622466608882, -0.023229030892252922]], [[-0.08256377279758453, -0.11275134235620499, -0.048677343875169754, -0.04617791622877121, 0.007401281036436558], [0.015273496508598328, 0.05127367004752159, 0.03567417711019516, -0.06500488519668579, -0.028827864676713943], [0.08730768412351608, -0.06469892710447311, -0.09697573632001877, 0.019968412816524506, 0.060777172446250916], [-0.07297685742378235, -0.06383833289146423, -0.1364230364561081, -0.04457297921180725, 0.11568478494882584], [-0.04691079258918762, -0.04543356969952583, -0.09292267262935638, -0.0020310431718826294, 0.09258084744215012]], [[-0.07222983241081238, -0.0632648691534996, -0.009704649448394775, 0.031516317278146744, -0.02406175248324871], [-0.028236202895641327, -0.06132741644978523, 0.042648497968912125, -0.004300602711737156, 0.029614094644784927], [-0.04392083361744881, -0.013491236604750156, 0.03905680030584335, 0.07451315969228745, -0.04271533340215683], [0.023451590910553932, 0.04784918949007988, 0.07001864910125732, 0.01946953684091568, 0.06623866409063339], [-0.07553624361753464, -0.0281522199511528, 0.002681297715753317, -0.031785398721694946, -0.0022740508429706097]], [[0.01751522161066532, -0.03278442472219467, 0.0263457540422678, 0.006215006113052368, 0.07637138664722443], [0.05173584446310997, 0.019264979287981987, -0.03323167935013771, -0.014596511609852314, 0.03507780656218529], [-0.013907969929277897, 0.05987877398729324, 0.030496401712298393, 0.017748823389410973, -0.07164203375577927], [0.04360697418451309, -0.07549382746219635, -0.02873309515416622, -0.04788624867796898, -0.05586223304271698], [0.004113411996513605, -0.07300934940576553, -0.024413419887423515, -0.05185142159461975, -0.09144265204668045]], [[0.04451417177915573, 0.053731922060251236, -0.06363747268915176, -0.0027194544672966003, -0.05570877343416214], [0.08288450539112091, 0.03460917994379997, -0.0036407802253961563, -0.007384455297142267, -0.014556990936398506], [0.013307265937328339, -0.07938632369041443, -0.056416481733322144, -0.005357612390071154, 0.021944411098957062], [-0.02048589661717415, -0.03273538872599602, -0.0747373104095459, 0.045577146112918854, -0.0767449140548706], [0.06571578979492188, -0.006925913970917463, -0.08724159747362137, -0.031101787462830544, 0.019571246579289436]], [[0.03250152990221977, 0.08499500900506973, -0.04285874962806702, 0.018798258155584335, -0.029616789892315865], [0.021404799073934555, 0.003915420733392239, -0.0001012359352898784, 0.03974229097366333, 0.10565785318613052], [0.013279168866574764, -0.03470424935221672, 0.045809052884578705, -0.010850275866687298, 0.07072535902261734], [-0.03620370104908943, -0.009265817701816559, 0.04766888543963432, 0.018337279558181763, -0.04078976809978485], [0.049150437116622925, 0.0066169798374176025, 0.10746096074581146, 0.006868742872029543, -0.042857345193624496]], [[0.027378203347325325, -0.1118818074464798, -0.03337757661938667, -0.017606360837817192, 0.06426168233156204], [0.0455755740404129, 0.07204073667526245, 0.014897441491484642, 0.041988495737314224, 0.05609019473195076], [0.03736855089664459, 0.07280158996582031, 0.003396827494725585, -0.004783226642757654, 0.022975226864218712], [0.05628197640180588, -0.017994096502661705, -0.03638444095849991, 0.021874841302633286, -0.04492178559303284], [-0.024414055049419403, -0.016826797276735306, 0.016032585874199867, 0.03823143616318703, 0.04780557006597519]], [[0.07974590361118317, 0.02093757688999176, -0.008330821990966797, 0.004991684574633837, -0.005983393639326096], [0.06697763502597809, -0.030923103913664818, -0.0051023284904658794, 0.07092118263244629, 0.10186043381690979], [-0.029941881075501442, 0.011307538487017155, -0.000797390763182193, 0.021664012223482132, 0.08805980533361435], [-0.01793842203915119, 0.05188935250043869, 0.13220714032649994, 0.012632885947823524, 0.005372591782361269], [0.08080755174160004, 0.08158770948648453, 0.09968921542167664, 0.0042238011956214905, 0.01597994938492775]], [[0.05126136541366577, -0.009475537575781345, -0.05627588927745819, -0.0974864810705185, 0.003887644037604332], [0.0069065154530107975, -0.07136700302362442, -0.07638487219810486, 0.010984851978719234, -0.0006317762890830636], [0.032336313277482986, 0.054321128875017166, 0.004043403547257185, -0.10601779073476791, 0.01000300608575344], [0.016034452244639397, -0.015012622810900211, -0.07024410367012024, -0.01864330843091011, 0.09298411011695862], [0.01613091677427292, 0.00164181855507195, -0.1251164823770523, -0.07100645452737808, 0.09294161200523376]], [[-0.04363268241286278, -0.07974312454462051, 0.04925061762332916, -0.015012665651738644, -0.0055165463127195835], [-0.17159037292003632, -0.05284890905022621, 0.08461171388626099, 0.03530984744429588, 0.10640913993120193], [-0.053360313177108765, -0.07155877351760864, 0.07158446311950684, -0.07663717120885849, -0.01542535051703453], [0.04036814346909523, 0.009156817570328712, 0.08546610921621323, 0.002744717290624976, -0.008371622301638126], [-0.06774701178073883, 0.016999348998069763, 0.055269863456487656, -0.07132599502801895, -0.03450058400630951]], [[-0.02588835544884205, -0.010336250998079777, -0.03927906975150108, -0.02036367356777191, -0.0769658014178276], [0.027792850509285927, -0.10269151628017426, 0.004359457176178694, -0.044291961938142776, 0.006155268754810095], [-0.007216514553874731, -0.11561410874128342, 0.07536976784467697, 0.057786982506513596, -0.01620253175497055], [0.04426489770412445, -0.04516294226050377, 0.043424274772405624, 0.09810027480125427, -0.06526912748813629], [0.06751910597085953, -0.014075737446546555, 0.057097066193819046, 0.03204264119267464, -0.043485719710588455]], [[0.01268082670867443, -0.026611898094415665, -0.05065983161330223, -0.06736081093549728, -0.027671227231621742], [-0.05017184466123581, 0.03337704762816429, -0.11603452265262604, -0.06757377833127975, 0.01695871911942959], [-0.07107114791870117, 0.029029719531536102, -0.11104342341423035, -0.08648864179849625, 0.037305332720279694], [-0.009869959205389023, 0.06460519134998322, -0.10580164194107056, -0.0004269912024028599, 0.05235987529158592], [-0.022970013320446014, 0.041545767337083817, -0.060123272240161896, -0.08031371980905533, 0.0002962182043120265]], [[-0.012272799387574196, 0.03794799745082855, -0.008799920789897442, 0.08069551736116409, 0.04264672473073006], [0.022645128890872, 0.16660800576210022, -0.08686508983373642, 0.0021091639064252377, -0.025671759620308876], [0.0605304129421711, 0.07992710173130035, 0.09656041115522385, -0.007331363391131163, -0.046702153980731964], [-0.008576560765504837, 0.016070444136857986, 0.037615757435560226, -0.030869707465171814, 0.02366669848561287], [-0.11557751148939133, 0.05236570164561272, 0.009499963372945786, -0.09899122267961502, -0.012911691330373287]], [[0.06432005017995834, -0.033422790467739105, -0.06429138034582138, 0.04304869472980499, 0.020727500319480896], [0.0031068497337400913, -0.058026041835546494, -0.04312155023217201, -0.012198005802929401, -0.06401501595973969], [-0.004554509185254574, -0.048101481050252914, -0.09547369182109833, 0.03095182031393051, 0.059190358966588974], [0.04931560531258583, -0.06530217826366425, -0.055880241096019745, 0.07735087722539902, -0.11694472283124924], [0.09746720641851425, -0.0017615261022001505, -0.012982811778783798, 0.06054678559303284, 0.0005383256357163191]], [[0.018891941756010056, 0.09759179502725601, 0.09633443504571915, 0.048818085342645645, -0.017987504601478577], [0.040298111736774445, 0.08874154835939407, 0.12566210329532623, 0.07983790338039398, -0.03855763375759125], [-0.03853188827633858, 0.05240898206830025, -0.011096443049609661, -0.018872080370783806, -0.014208207838237286], [0.09960341453552246, 0.04203937575221062, -0.024899888783693314, -0.10995776206254959, 0.03778461739420891], [0.06222141161561012, -0.02146720141172409, -0.03306587040424347, 0.012265688739717007, 0.040086567401885986]]], [[[-0.06465248763561249, 0.10198169946670532, 0.06282181292772293, -0.053943097591400146, 0.07941800355911255], [0.018511347472667694, -0.07417164742946625, -0.002122648525983095, -0.08766330778598785, 0.012498221360147], [0.004384857602417469, -0.045104917138814926, -0.06244201585650444, -0.0089294807985425, 0.007482051849365234], [0.07014086842536926, -0.025927500799298286, -0.01577647775411606, -0.01903432048857212, 0.09549228101968765], [0.047584470361471176, 0.0268876776099205, -0.043867480009794235, 0.01157707441598177, 0.018027961254119873]], [[-0.1128460168838501, 0.0006277836509980261, -0.019233305007219315, 0.05548439547419548, 0.01882977969944477], [-0.019543932750821114, -0.09939722716808319, 0.004935210105031729, 0.10372380167245865, 0.03759365901350975], [0.030228648334741592, -0.031323324888944626, 0.009970156475901604, -0.03375721350312233, -0.037379153072834015], [0.08800516277551651, -0.03429930657148361, -0.02682650089263916, 0.04747234284877777, 0.037711236625909805], [0.00991751253604889, -0.02935125306248665, 0.07494509965181351, -0.01697952300310135, 0.10754385590553284]], [[-0.008738533593714237, -0.016504211351275444, -0.07426216453313828, 0.07123290002346039, 0.022002045065164566], [-0.034768398851156235, 0.017312703654170036, -0.07557789236307144, 0.027373576536774635, 0.010739077813923359], [0.011513842269778252, 0.06872743368148804, 0.006727688480168581, -0.0796663835644722, -0.10923538357019424], [-0.002240127185359597, -0.011541735380887985, 0.033754538744688034, 0.11261281371116638, 0.05237798020243645], [-0.06615299731492996, -0.06524519622325897, -0.007765181828290224, -0.010214690119028091, 0.0011469232849776745]], [[-0.08474495261907578, 0.09400071948766708, -0.16378936171531677, -0.0007948581478558481, -0.023641830310225487], [-0.029432248324155807, 0.00479796202853322, -0.07497414201498032, 0.059340108186006546, 0.03381587937474251], [-0.00370576954446733, 0.031164541840553284, -0.08035818487405777, -0.102415069937706, -0.009894583374261856], [0.03965379670262337, -0.0640501081943512, -0.1010415107011795, -0.023027608171105385, 0.004105043597519398], [-0.019009901210665703, 0.005568280350416899, -0.01781441830098629, 0.024723563343286514, -0.007716445252299309]], [[-0.03261135518550873, -0.02490478940308094, 0.059590864926576614, 0.034190744161605835, 0.006955187767744064], [-0.03743550181388855, 0.061676330864429474, 0.07955621927976608, 0.022631552070379257, -0.03086927905678749], [0.03022308275103569, 0.03272412344813347, -0.11115465313196182, -0.02011382393538952, 0.03784732520580292], [0.011617394164204597, -0.010979164391756058, 0.013105833902955055, -0.008051265962421894, 0.014964953996241093], [0.060848262161016464, -0.07223882526159286, 0.06457561254501343, -0.008033908903598785, -0.027867356315255165]], [[0.0012479103170335293, -0.02074131928384304, 0.004767134319990873, -0.0018443316221237183, 0.03827669098973274], [0.11482390016317368, -0.06370674073696136, -0.007553170435130596, -0.013384964317083359, 0.02731085568666458], [-0.06307902187108994, 0.08401023596525192, -0.030590033158659935, -0.06324810534715652, -0.07068653404712677], [-0.027745729312300682, 0.05085957795381546, 0.1311165690422058, 0.05871952697634697, -0.08165247738361359], [-0.021359847858548164, 0.017707092687487602, 0.03633491322398186, 0.05787326768040657, 0.0648512914776802]], [[-0.008489392697811127, -0.05049368739128113, 0.06549651175737381, -0.041389960795640945, 0.09603670984506607], [0.03746824339032173, 0.016161905601620674, -0.011240337044000626, 0.03851596638560295, -0.0004014240694232285], [-0.13246406614780426, -0.05462885648012161, 0.05981696769595146, 0.02244330756366253, 0.0001855377631727606], [0.023472527042031288, 0.06117667257785797, -0.012940332293510437, 0.00862788688391447, 0.06508708745241165], [-0.013123341836035252, 1.7335878510493785e-06, -0.05347117409110069, -0.08220118284225464, 0.052023567259311676]], [[0.08642478287220001, 0.07669398933649063, -0.002782366005703807, -0.01784643903374672, -0.016169607639312744], [0.012373373843729496, 0.012123788706958294, -0.023180585354566574, -0.11743538826704025, 0.009892047382891178], [-0.03167309612035751, 0.046433378010988235, -0.002164953388273716, -0.019513022154569626, -0.01935672201216221], [-0.010530741885304451, -0.0018686701077967882, 0.022972404956817627, 0.05220684036612511, 0.09498000890016556], [-0.03772041201591492, 0.07522915303707123, -0.034527409821748734, 0.013400926254689693, -0.059460267424583435]], [[-0.09572291374206543, 0.15177850425243378, 0.15463364124298096, 0.011901643127202988, -0.01570233888924122], [-0.031655870378017426, 0.10309621691703796, -0.040581636130809784, 0.09170261025428772, 0.0013468407560139894], [0.06331615149974823, 0.03666679561138153, 0.029176905751228333, 0.01691071130335331, -0.05143860727548599], [0.044608257710933685, -0.03613509610295296, -0.023500896990299225, -0.12327820807695389, -0.043864838778972626], [0.012631015852093697, 0.04089127480983734, -0.024847621098160744, -0.051782988011837006, -0.04587560147047043]], [[-0.01357365120202303, -0.05789749696850777, -0.09981788694858551, 0.013076930306851864, 0.0164977815002203], [-0.06798552721738815, 0.0123140849173069, -0.05779298394918442, -0.009309952147305012, 0.056797873228788376], [-0.04974469915032387, -0.07034521549940109, -0.030060887336730957, 0.04690990969538689, 0.0844181478023529], [-0.052334096282720566, -0.036717966198921204, -0.09562690556049347, -0.11330357193946838, -0.03468416631221771], [-0.00655853608623147, -0.02820831723511219, -0.04920633137226105, -0.004096933640539646, -0.012053783051669598]], [[-0.09039577841758728, -0.05712766572833061, -0.052396465092897415, -0.062399059534072876, -0.06041363999247551], [-0.058278586715459824, -0.04677644744515419, -0.0023548416793346405, 0.0581405945122242, 0.015435642562806606], [-0.061226315796375275, -0.049171317368745804, -0.03854464739561081, 0.019574586302042007, 0.024948203936219215], [-0.01931653916835785, 0.0036652476992458105, 0.05828458443284035, -0.06476306170225143, -0.10191190242767334], [0.022552676498889923, 0.03410421684384346, 0.030382607132196426, 0.06387418508529663, -0.03999052196741104]], [[-0.08776295185089111, -0.011818612925708294, -0.05912228673696518, -0.034608885645866394, 0.012766947969794273], [-0.0002797727065626532, -0.005162153858691454, -0.07873500883579254, -0.026297874748706818, -0.06046106666326523], [0.008042328990995884, 0.026952913030982018, 0.047384295612573624, -0.08712272346019745, -0.04694177582859993], [-0.02918563038110733, -0.053253330290317535, -0.026205141097307205, -0.06463439762592316, 0.03209958225488663], [-0.020112957805395126, -0.07661914080381393, 0.01704055443406105, -0.014452572911977768, -0.024974685162305832]], [[0.0370357446372509, 0.0167609341442585, 0.008065415546298027, 0.042935561388731, -0.008898934349417686], [-0.050494056195020676, -0.019310999661684036, 0.026380030438303947, -0.009858248755335808, -0.02071552537381649], [-0.06290212273597717, -0.10137157887220383, -0.054412826895713806, 0.005907395388931036, -0.03883995860815048], [0.008940532803535461, -0.060261666774749756, -0.018758464604616165, -0.10881978273391724, -0.09949593245983124], [-0.0673440471291542, -0.06130316108465195, -0.04005567729473114, -0.0878535658121109, -0.01903223618865013]], [[-0.03795702010393143, -0.061408039182424545, 0.041160017251968384, -0.004663042724132538, 0.012435387820005417], [0.04055780917406082, -0.005699736066162586, 0.06550486385822296, 0.05515754595398903, 0.0020305062644183636], [-0.006670789327472448, -0.0013015891890972853, -0.026119494810700417, -0.050508156418800354, -0.02329745888710022], [-0.03974192962050438, -0.00038394288276322186, 0.015236945822834969, -0.014114524237811565, -0.0806698203086853], [0.00016432281699962914, 0.01607448048889637, 0.09462335705757141, 0.03198832646012306, 0.04431409016251564]], [[-0.04525519907474518, 0.05440395325422287, 0.07434938848018646, 0.04689404368400574, -0.015204867348074913], [0.03094281256198883, -0.0017929564928635955, -0.0744449645280838, 0.015329668298363686, -0.0223044753074646], [0.03614506125450134, -0.018106704577803612, -0.06785915046930313, -0.15312103927135468, -0.05795278027653694], [-0.006483763922005892, -0.00808514654636383, 0.039267320185899734, 0.10502421855926514, 0.06889057904481888], [0.07213842868804932, -0.04628617316484451, 0.024833910167217255, -0.02119327336549759, 0.04110080376267433]], [[0.029699500650167465, 0.058318011462688446, -0.08578497916460037, -0.0031633013859391212, -0.09184956550598145], [-0.007473721168935299, 0.020510422065854073, -0.07280295342206955, -0.01654060184955597, -0.029019419103860855], [0.02820398099720478, -0.020691735669970512, -0.1445332020521164, 0.06900745630264282, -0.03782295435667038], [-0.07291147857904434, -0.11904016137123108, -0.15410169959068298, -0.0021833970677107573, -0.026866737753152847], [-0.05672962963581085, -0.052788928151130676, -0.056597866117954254, -0.09026747196912766, -0.14598944783210754]]], [[[-0.0002742772630881518, 0.04866402968764305, 0.09995121508836746, 0.07534562051296234, -0.028318125754594803], [0.044508401304483414, -0.06115533411502838, -0.00118289387319237, 0.0433647446334362, -0.02296418696641922], [0.003095450811088085, 0.09155958890914917, 0.08672502636909485, -0.0008959134574979544, -0.06714272499084473], [-0.04432088881731033, 0.042252056300640106, 0.007252005860209465, 0.03724350407719612, 0.06957351416349411], [-0.03864648938179016, 0.05915898457169533, 0.048525188118219376, -0.021279791370034218, 0.015997188165783882]], [[0.025193940848112106, 0.017497651278972626, 0.027461528778076172, 0.05243852362036705, 0.0009130787220783532], [0.017318949103355408, 0.04253566637635231, -0.013401646167039871, 0.022833039984107018, -0.05909306928515434], [-0.0025242911651730537, -0.07194897532463074, -0.024074828252196312, -0.04755140095949173, 1.4465385902440175e-06], [-0.020166784524917603, -0.012376259081065655, -0.08516590297222137, -0.07711125910282135, 0.04139263182878494], [0.002207966288551688, 0.07246353477239609, 0.046056728810071945, -0.08180021494626999, 0.0021869477350264788]], [[0.021250665187835693, -0.030590839684009552, 0.014047564938664436, 0.11856013536453247, 0.03650835528969765], [-0.02225777506828308, -0.0037881690077483654, -0.08081244677305222, -0.032298922538757324, -0.0055850413627922535], [-0.02676423452794552, 0.032067593187093735, -0.0403268076479435, 0.006503105163574219, 0.0010857254965230823], [0.019469086080789566, 0.060176003724336624, 0.05901318043470383, 0.020368438214063644, -0.05907326191663742], [-0.0018311644671484828, 0.02925388514995575, -0.06341387331485748, 0.012062979862093925, 0.027258198708295822]], [[0.028073996305465698, 0.011220508255064487, -0.02727672830224037, -0.0031261008698493242, 0.033913515508174896], [0.03434698283672333, -0.01355666108429432, -0.055984579026699066, -0.015779975801706314, 0.08101861923933029], [-0.07125704735517502, -0.05447112396359444, -0.13265448808670044, -0.029388966038823128, 0.10367093980312347], [0.016160592436790466, 0.025185147300362587, -0.0005786240799352527, 0.006283339578658342, -0.00830914918333292], [0.08875878155231476, -0.012816338799893856, -0.08445098996162415, -0.012443307787179947, 0.03837289288640022]], [[0.0007367461803369224, -0.047513097524642944, 0.005921607371419668, 0.1304178088903427, 0.09586133062839508], [-0.0453115738928318, -0.06481684744358063, 0.03189313784241676, 0.08576224744319916, 0.053573496639728546], [-0.016285056248307228, -0.008965774439275265, -0.05098056420683861, -0.04152384400367737, -0.01966046169400215], [0.007250506430864334, -0.0542321614921093, -0.09308459609746933, -0.014209066517651081, -0.027426840737462044], [-0.003578783478587866, 0.019551826640963554, -0.032291579991579056, -0.05547585338354111, -0.0425381064414978]], [[-0.012954086996614933, -0.044986542314291, 0.052201587706804276, 0.024117959663271904, 0.012693356722593307], [-0.07268129289150238, -0.06810742616653442, -0.04365778714418411, -0.09960529953241348, -0.066623754799366], [-0.043220244348049164, -0.03254414722323418, -0.0051084705628454685, 0.03476954996585846, -0.09786056727170944], [-0.02052760310471058, -0.017913449555635452, -0.12018102407455444, 0.037098538130521774, -0.028728166595101357], [-0.11237862706184387, -0.003162685316056013, 0.025541292503476143, 0.03574637696146965, 0.05466272681951523]], [[-0.11720233410596848, 0.011126358062028885, 0.07884006947278976, -0.02881840243935585, 0.0032832720316946507], [0.025815730914473534, -0.03885031118988991, -0.03909960389137268, 0.008430316112935543, 0.07635306566953659], [0.05392559990286827, 0.07150045782327652, 0.0021353396587073803, 0.036667682230472565, 0.06035584956407547], [0.08676600456237793, 0.041082512587308884, -0.005793936084955931, -0.0021829777397215366, -0.019237592816352844], [-0.023206355050206184, 0.02215440571308136, 0.0024550731759518385, -0.002267934149131179, -0.01301918737590313]], [[-0.048922937363386154, 0.041173823177814484, -0.06430520117282867, 0.024079356342554092, -0.061868537217378616], [0.05497957766056061, -0.07867396622896194, -0.061468347907066345, 0.025026237592101097, -0.0839570090174675], [0.08938750624656677, 0.07236091792583466, 0.11522703617811203, 0.03143558278679848, -0.03602367267012596], [0.0728633776307106, 0.04240013286471367, 0.08056098967790604, -0.0005121687427163124, 0.04042902588844299], [0.037737566977739334, -0.02308226190507412, 0.04730641841888428, 0.07847987860441208, -0.12013427168130875]], [[-0.04093972593545914, -0.05582238361239433, 0.1220453754067421, -0.032217055559158325, 0.07378285378217697], [-0.04048721492290497, -0.1325293332338333, -0.03098510019481182, -0.05390128120779991, 0.11646932363510132], [0.0990748405456543, -0.19123266637325287, -0.022641336545348167, -0.037675488740205765, 0.09583204239606857], [-0.019154846668243408, -0.12085908651351929, -0.07476969808340073, -0.10347234457731247, -0.027380870655179024], [0.04599074274301529, -0.04451997950673103, 0.046475850045681, -0.04852459207177162, -0.03285720571875572]], [[0.05105147510766983, 0.0975048765540123, 0.07435892522335052, 0.03081468679010868, -0.09662488847970963], [0.06986237317323685, 0.006664191372692585, -0.039802905172109604, -0.08503872901201248, 0.0610659122467041], [-0.02180098555982113, 0.08010958880186081, 0.05236099660396576, 0.040265463292598724, 0.01741005852818489], [-0.023058993741869926, -0.08134695142507553, 0.053706031292676926, 0.01801936887204647, -0.02954208292067051], [-0.01930755190551281, -0.043506428599357605, 0.07440603524446487, -0.0032326867803931236, -0.020493634045124054]], [[-0.050463199615478516, -0.10282786935567856, 0.030391816049814224, 0.02323424071073532, -0.10062463581562042], [-0.014411481097340584, -0.0962006151676178, -0.12086473405361176, -0.0364978201687336, 0.03641606867313385], [0.04444863647222519, -0.06990797817707062, 0.0347692035138607, 0.012137352488934994, -0.0571916401386261], [0.10812561213970184, -0.04460080340504646, -0.012909667566418648, -0.008565256372094154, -0.026569651439785957], [0.11598628759384155, -0.09602240473031998, -0.057745311409235, 0.051839351654052734, -0.06487489491701126]], [[-0.046398330479860306, 0.0717749074101448, 0.04623035341501236, 0.0947922021150589, 0.06822917610406876], [0.07387725263834, 0.007723120506852865, -0.01542330626398325, 0.13559964299201965, 0.031800754368305206], [-0.0015374062350019813, -0.0024355484638363123, -0.08143392950296402, 0.006286219228059053, 0.013815680518746376], [-0.014931841753423214, 0.04873243346810341, -0.023168550804257393, 0.015096161514520645, -0.03348448872566223], [0.0474688857793808, 0.03627660870552063, 0.08454083651304245, -0.04792908579111099, -0.03064791113138199]], [[-0.02939939685165882, -0.018270790576934814, -0.018957819789648056, 0.02533186972141266, 0.04453890770673752], [0.046049170196056366, -0.011090571992099285, 0.04186863824725151, 0.040808022022247314, 0.051676392555236816], [-0.03625085949897766, 0.014458289369940758, -0.10900702327489853, -0.05384643375873566, -0.0031488959211856127], [-0.056850966066122055, -0.09831604361534119, -0.05856552720069885, -0.04630934074521065, -0.03474755957722664], [0.01251766737550497, 0.009639805182814598, -0.04810689017176628, -0.0203324593603611, 0.0071275378577411175]], [[-0.017118295654654503, 0.009180435910820961, 0.0027824542485177517, 0.08398851007223129, 0.009571481496095657], [-0.09460614621639252, -0.0229311715811491, 0.02283036708831787, -0.05548984557390213, -0.055110856890678406], [0.08868429064750671, 0.02114454284310341, 0.00511417118832469, -0.05242457240819931, -0.019696230068802834], [0.0010799422161653638, -0.051962219178676605, -0.04590991884469986, -0.02371484786272049, 0.06227235496044159], [0.02358570136129856, -0.03877394273877144, -0.07626707851886749, -0.09853639453649521, 0.020869361236691475]], [[-0.0015508310170844197, 0.05703715234994888, -0.03273620456457138, -0.06970354169607162, -0.04172547906637192], [0.0047666034661233425, -0.0030678308103233576, -0.046068280935287476, -0.09777457267045975, -0.023669695481657982], [0.02581322379410267, 0.014701147563755512, -0.09043236821889877, 0.022507814690470695, 0.13340580463409424], [0.011604110710322857, 0.06993106007575989, 0.08842620253562927, -0.018159445375204086, -0.014713888987898827], [-0.0932706966996193, 0.098536416888237, -0.03670744225382805, -0.08014579862356186, -0.05283879488706589]], [[-0.03558867797255516, 0.03225323557853699, -0.0006937931175343692, 0.028940977528691292, -0.017147311940789223], [0.024437744170427322, 0.0720297247171402, 0.06509167701005936, 0.11599627137184143, 0.03623104840517044], [0.04970354586839676, -0.019129766151309013, -0.00544896861538291, 0.14151756465435028, 0.0544571615755558], [0.03544914349913597, -0.058515094220638275, 0.04122336953878403, 0.022434765473008156, 0.07444684952497482], [0.030994143337011337, -0.056833237409591675, -0.048988815397024155, 0.02223113738000393, 0.03740557283163071]]], [[[0.06353770196437836, 0.04766080155968666, -0.09121189266443253, -0.05465836822986603, -0.11276866495609283], [-0.0008566044853068888, -0.008351488970220089, 0.06795724481344223, -0.08324199169874191, -0.04541325196623802], [0.03613744676113129, 0.09072539210319519, -0.10800161212682724, -0.07198932021856308, -0.008717479184269905], [0.010371983982622623, -0.03217608854174614, -0.08641860634088516, -0.011289211921393871, 0.035797733813524246], [0.010049751028418541, 0.09144497662782669, -0.1042356789112091, 0.060606446117162704, 0.03512199968099594]], [[0.065006323158741, -0.05696884170174599, -0.04281982034444809, 0.024612709879875183, 0.06866394728422165], [0.03989807888865471, -0.0561240054666996, -0.0028985324315726757, -0.03873162344098091, -0.09969835728406906], [-0.0009220995707437396, 0.01534044649451971, -0.08052992820739746, -0.07246747612953186, -0.05313350260257721], [-0.07723554223775864, 0.0880524069070816, -0.0253117885440588, -0.08710519969463348, 0.013991394080221653], [-0.011140916496515274, 0.03915233165025711, 0.02281782403588295, -0.013179165311157703, -0.008799927309155464]], [[0.12789109349250793, -0.026199743151664734, -0.035195961594581604, 0.05529090762138367, -0.017913803458213806], [-0.03379712626338005, 0.06825687736272812, 0.02707626298069954, -0.06379279494285583, -0.11679470539093018], [0.07717472314834595, 0.020750747993588448, -0.08277885615825653, -0.07940919697284698, -0.007698963861912489], [-0.005474332254379988, 0.024966586381196976, 0.10595723986625671, -0.04896042123436928, -0.019810553640127182], [0.02043413557112217, -0.017039930447936058, 0.047327060252428055, 0.02364073507487774, 0.0510953888297081]], [[-0.040140941739082336, 0.009255977347493172, -0.041832346469163895, 0.034045927226543427, -0.033077605068683624], [0.05221438407897949, 0.04021386057138443, 0.007436236832290888, 0.01174071803689003, -0.014406654052436352], [0.029419638216495514, 0.01635233499109745, -0.03033580631017685, 0.02333753928542137, 0.039053626358509064], [-0.08193180710077286, -0.01657222956418991, -0.03373321518301964, 0.0469331294298172, 0.05169159173965454], [0.02198990248143673, -0.010487600229680538, -0.03941139578819275, 0.06909675896167755, -0.015505456365644932]], [[0.045192424207925797, -0.03285494074225426, 0.059510741382837296, 0.003681723028421402, -0.021735001355409622], [0.01232741866260767, 0.09652335196733475, 0.0702156201004982, 0.0015361877158284187, 0.13651636242866516], [0.05723473057150841, 0.008559918031096458, 0.078224778175354, -0.033534422516822815, 0.05695207789540291], [-0.030232468619942665, -0.019999368116259575, -0.025808876380324364, -0.0326278991997242, 0.0382467545568943], [0.00854276493191719, 0.00998203456401825, -0.030362699180841446, 0.08765854686498642, -0.02617127262055874]], [[-0.035255733877420425, -0.14800098538398743, -0.007883257232606411, 0.025928761810064316, 0.05476246401667595], [-0.07050439715385437, -0.02858245000243187, 0.037531185895204544, 0.12840668857097626, 0.05703694373369217], [0.023731982335448265, -0.07187878340482712, -0.0869077518582344, 0.0007892970461398363, -0.037070102989673615], [0.07856258749961853, 0.025948477908968925, 0.06174447014927864, -0.053586069494485855, -0.06470644474029541], [-0.02917960286140442, -0.014048897661268711, -0.06116791069507599, -0.03748294338583946, -0.03811146691441536]], [[-0.020098282024264336, 0.053970832377672195, 0.006678735371679068, -0.10575927793979645, 0.004331056494265795], [-0.01989073120057583, -0.1297679841518402, -0.08461237698793411, -0.03157655522227287, 0.02598617412149906], [-0.00020830910943914205, 0.05022812262177467, -0.007854689843952656, 0.024223558604717255, 0.041223812848329544], [0.06549397110939026, 0.032905273139476776, 0.007648505736142397, 0.0257949847728014, -0.08063486218452454], [-0.05430065840482712, -0.010401182807981968, -0.0010198914678767323, -0.0434369295835495, -0.06336343288421631]], [[-0.0028638788498938084, -0.02934558130800724, -0.07252362370491028, -0.0018297289498150349, 0.02331044152379036], [-0.05758129432797432, 0.0570664219558239, -0.01875665970146656, 0.026706265285611153, 0.039319541305303574], [-0.0060095516964793205, 0.07188361883163452, -0.019294755533337593, -0.05879078805446625, -0.09766513854265213], [-0.020376671105623245, -0.05756009742617607, 0.027725206688046455, 0.11934094876050949, -0.030130969360470772], [0.045135386288166046, -0.0059279086999595165, 0.04104236513376236, -0.0605003722012043, 0.0028900906909257174]], [[-0.11458701640367508, -0.05507384613156319, -0.007448896765708923, 0.09456951916217804, 0.10622848570346832], [-0.09293503314256668, 0.10089826583862305, -0.008899757638573647, 0.07482035458087921, 0.013095823116600513], [-0.08417642116546631, -0.09653466194868088, -0.015461449511349201, 0.08606819808483124, -0.026918798685073853], [0.034035034477710724, 0.0719112753868103, 0.0416194424033165, 0.011651978828012943, 0.007031201384961605], [-0.08552123606204987, -0.0025126729160547256, 0.007037762086838484, 0.023694664239883423, 0.049927808344364166]], [[-0.012537197209894657, 0.06431053578853607, 0.05182601138949394, 0.0009617062169127166, -0.021155735477805138], [0.0703742578625679, 0.009825880639255047, -0.008302612230181694, 0.048666536808013916, 0.02783590741455555], [-0.00788143090903759, 0.11244391649961472, 0.05114077031612396, 0.008233209140598774, -0.03289793059229851], [-0.010662044398486614, -0.06113569810986519, -0.020686525851488113, 0.010780669748783112, 0.002515086904168129], [0.014635728672146797, 0.03882472589612007, -0.017269182950258255, -0.05805659294128418, -0.057501353323459625]], [[-0.02236507460474968, -0.06534535437822342, -0.03529683127999306, -0.08715078234672546, -0.09982217848300934], [-0.031492602080106735, 0.022145230323076248, -0.0798429623246193, -0.06924791634082794, 0.0644213855266571], [0.06289807707071304, 0.015468459576368332, -0.012568427249789238, -0.030547352507710457, 0.016976866871118546], [-0.02397136390209198, -0.13666211068630219, -0.10534198582172394, -0.09579730033874512, 0.04195578396320343], [0.06609150022268295, -0.008817418478429317, 0.05066043883562088, -0.0601801760494709, 0.05479676276445389]], [[0.0002561035507824272, -0.07665503025054932, -0.026739908382296562, 0.05713798478245735, -0.043564118444919586], [-0.007537384983152151, 0.08793085068464279, 0.031110061332583427, 0.007268468849360943, 0.03838652744889259], [0.08165887743234634, -0.14573490619659424, -0.0019514859886839986, 0.02897883951663971, -0.0044068810530006886], [-0.020213887095451355, -0.038910381495952606, -0.04916396737098694, -0.06821530312299728, -0.1362455040216446], [0.001291851163841784, -0.053749874234199524, 0.04393640160560608, -0.013737451285123825, -0.06419561803340912]], [[-0.010532556101679802, 0.021367691457271576, 0.02381359227001667, -0.01640326902270317, -0.014581594616174698], [-0.03394035995006561, -0.005635471548885107, -0.01739942468702793, -0.03668086975812912, -0.024080079048871994], [-0.013507281430065632, 0.02962639182806015, -0.03668132796883583, -0.02731931023299694, 0.025917712599039078], [0.013793377205729485, -0.022725213319063187, -0.0077864923514425755, 0.017351746559143066, -0.00019902121857739985], [0.025019856169819832, 0.006051232106983662, -0.0316135510802269, 0.01598568819463253, 0.04415247216820717]], [[-0.05669199302792549, -0.12869030237197876, -0.17754559218883514, -0.02154967188835144, -0.0953841432929039], [-0.08032984286546707, -0.10529076308012009, -0.03471425175666809, 0.041785310953855515, 0.1484658420085907], [0.014933688566088676, 0.03286276012659073, -0.004241059068590403, 0.06686322391033173, 0.06224844604730606], [0.0155649334192276, 0.055995870381593704, -0.009884226135909557, 0.09056126326322556, -0.026015356183052063], [0.04447475075721741, -0.042939674109220505, -0.03773098811507225, 0.05737219378352165, 0.05870850011706352]], [[-0.050790008157491684, -0.009045852348208427, 0.03152180463075638, 0.01887284219264984, 0.01670241914689541], [0.011218681000173092, 0.045251451432704926, 0.11871159076690674, 0.01587671972811222, -0.05917944386601448], [0.0064611248672008514, 0.013118631206452847, -0.01067923754453659, -0.04193279892206192, -0.06595999747514725], [0.009533814154565334, 0.0685453936457634, 0.09621872752904892, 0.043743111193180084, 0.037687599658966064], [0.006651991978287697, -0.034828487783670425, 0.015329953283071518, 0.015514113940298557, -0.01343824528157711]], [[0.08246272802352905, 0.1541633903980255, 0.0452071949839592, 0.09205475449562073, -0.005065079778432846], [0.09207260608673096, 0.09493812173604965, -0.01718251220881939, 0.020829977467656136, -0.017517173662781715], [-0.01425356324762106, -0.0030205040238797665, 0.009624164551496506, 0.05923353508114815, 0.03465694561600685], [0.02623913623392582, -0.04649331793189049, 0.04102770611643791, 0.1126629114151001, 0.13811497390270233], [-0.004991926718503237, -0.06235189735889435, -0.027591489255428314, 0.0070003364235162735, 0.01502359751611948]]], [[[-0.021157070994377136, -0.022259434685111046, 0.04958943650126457, 0.01694599725306034, 0.04510493576526642], [0.014304897747933865, -0.06991348415613174, 0.07754100114107132, -0.015423194505274296, -0.011378904804587364], [-0.10756126046180725, 0.034491658210754395, 0.12926003336906433, 0.10469529777765274, 0.04452810063958168], [-0.07780953496694565, -0.13422104716300964, 0.05489712953567505, -0.0614515021443367, -0.020158367231488228], [-0.053740233182907104, 0.1108655259013176, -0.04816928133368492, -0.08702767640352249, -0.00473471125587821]], [[0.02500639110803604, 0.05509592965245247, -0.0734567865729332, -0.07277849316596985, -0.015817930921912193], [0.048167742788791656, 0.023220600560307503, 0.011042427271604538, -0.0375860333442688, -0.09776586294174194], [0.025347484275698662, 0.07847634702920914, 0.07119787484407425, 0.005367236211895943, -0.06123073026537895], [0.01141788624227047, -0.00038780461181886494, 0.1488410085439682, 0.08800965547561646, -0.018768344074487686], [-0.0027315944898873568, 0.015322729013860226, 0.014191476628184319, 0.019455302506685257, 0.06971532106399536]], [[0.00274996692314744, -0.036208633333444595, -0.08768182247877121, 0.11532996594905853, -0.023689378052949905], [0.021202746778726578, -0.04629858583211899, -0.06795335561037064, 0.05285557359457016, 0.041281960904598236], [0.0652410164475441, 0.025089168921113014, 0.052496377378702164, 0.04118386656045914, 0.04607602581381798], [0.014210665598511696, -0.08367239683866501, -0.017710402607917786, 0.04258567467331886, -0.021862560883164406], [-0.04428713768720627, -0.005178493447601795, 0.0012779590906575322, -0.06878205388784409, 0.013306860812008381]], [[0.014249926432967186, 0.030188260599970818, -0.07269145548343658, -0.051542073488235474, 0.03591414541006088], [-0.03392765298485756, -0.04992498829960823, -0.057961322367191315, 0.03392866253852844, 0.03541183099150658], [-0.037956830114126205, 0.052920226007699966, -0.1172851026058197, -0.037405796349048615, -0.007681352086365223], [-0.0669957846403122, -0.052635569125413895, -0.08972439169883728, 0.03226188197731972, -0.13857553899288177], [-0.039672382175922394, -0.02345491573214531, -0.011191068217158318, 0.12642231583595276, 0.013884058222174644]], [[0.043635014444589615, -0.011520041152834892, -0.04073859751224518, -0.07123862951993942, -0.0656290203332901], [0.001681785681284964, -0.059286486357450485, -0.05383291468024254, -0.06270461529493332, -0.060224197804927826], [-0.0310142170637846, -0.019033195450901985, 0.01515965722501278, -0.08479343354701996, -0.07591823488473892], [-0.048511091619729996, -0.08465912938117981, 0.16421650350093842, -0.03210768476128578, -0.030681973323225975], [-0.11646230518817902, -0.056991662830114365, 0.048250604420900345, -0.01486994605511427, -0.09750890731811523]], [[-0.002461245283484459, -0.06319385021924973, 0.0017098871758207679, -0.04431898146867752, -0.08512109518051147], [0.029417511075735092, 0.03192341327667236, -0.07800953090190887, -0.08612548559904099, -0.05503377690911293], [-0.07334382832050323, 0.06077773869037628, -0.136612206697464, -0.1418059766292572, -0.12172506749629974], [0.004009682219475508, 0.01984754577279091, -0.06920622289180756, -0.0472661629319191, -0.06381401419639587], [0.026055047288537025, 0.01129154209047556, 0.00658990116789937, -0.01668695919215679, 0.013736962340772152]], [[0.05782376229763031, -0.011729271151125431, 0.012695497833192348, -0.09835660457611084, -0.0671759843826294], [-0.014563688077032566, -0.04666268453001976, 0.08316656947135925, 0.004325468093156815, -0.029477471485733986], [-0.03804975375533104, -0.12551487982273102, -0.006243937648832798, 0.05647807568311691, 0.042343620210886], [-0.034526314586400986, 0.0329616479575634, 0.017917653545737267, 0.061454888433218, -0.00798865407705307], [-0.042703237384557724, -0.007605710066854954, 0.01938755437731743, 0.06357744336128235, 0.06240111216902733]], [[-0.012958836741745472, 0.048303645104169846, -0.04427947476506233, -0.060807086527347565, -0.020687023177742958], [-0.03780515864491463, -0.020600365474820137, -0.015980225056409836, -0.07466674596071243, 0.021276630461215973], [-0.07026281952857971, -0.007263615727424622, 0.07668528705835342, 0.11808328330516815, 0.07457077503204346], [-0.16236679255962372, -0.12111352384090424, 0.0864885225892067, -0.005682008340954781, 0.05978565663099289], [0.009241415187716484, -0.016716333106160164, 0.018768224865198135, 0.029393881559371948, -0.033199992030858994]], [[-0.012970530427992344, -0.08337433636188507, -0.03268064931035042, -0.08680757135152817, -0.05084069073200226], [0.09931980073451996, 0.04216032847762108, 0.05938364565372467, -0.07162684947252274, 0.010328144766390324], [0.00709222536534071, 0.06858894973993301, -0.005327077582478523, -0.05022245645523071, -0.09338357299566269], [0.0073678805492818356, 0.044582948088645935, 0.007503317669034004, -0.018198339268565178, -0.06398935616016388], [-0.019412994384765625, -0.024409176781773567, -0.04950788617134094, 0.04522760957479477, -0.007855884730815887]], [[-0.01721581444144249, -0.036359842866659164, 0.012141541577875614, -0.08188039809465408, -0.07370017468929291], [0.00937266182154417, 0.012586462311446667, -0.011316312476992607, 0.01588311232626438, -0.001447976683266461], [-0.03964124619960785, -0.050735779106616974, -0.026668386533856392, 0.06049991026520729, 0.133511021733284], [-0.03993494063615799, 0.0813477411866188, -0.0046552433632314205, 0.11058688908815384, 0.07188978046178818], [0.015623158775269985, 0.009312468580901623, 0.04319170489907265, -0.02031674049794674, 0.0026114010252058506]], [[0.01617717184126377, -0.047719910740852356, -0.026455484330654144, 0.020594781264662743, 0.05924674868583679], [0.08639910817146301, -0.055737897753715515, 0.012666518799960613, -0.07836481183767319, 0.06904920190572739], [0.030476033687591553, 0.04053450748324394, 0.0848248302936554, -0.06426860392093658, -0.07906707376241684], [0.12084940820932388, 0.07410534471273422, 0.11869511008262634, 0.013303885236382484, -0.1369534432888031], [0.05088783800601959, 0.016735956072807312, 0.11693251878023148, 0.1033954992890358, 0.005751845892518759]], [[0.018686342984437943, -0.03960873559117317, 0.015703417360782623, -0.06309044361114502, 0.017781579867005348], [-0.0058118621818721294, 0.03936615586280823, -0.05996674671769142, 0.006980707868933678, -0.03864321485161781], [0.00865459255874157, 0.0838768407702446, 0.03468995913863182, -0.02966509386897087, -0.054713133722543716], [-0.05813300982117653, 0.061322201043367386, -0.009439334273338318, 0.0025570234283804893, 0.010020080022513866], [0.015896957367658615, -0.055391550064086914, -0.06822903454303741, -0.057465776801109314, -0.02059600129723549]], [[0.015782956033945084, -0.011501154862344265, 0.006408059503883123, -0.02564327046275139, -0.0598498173058033], [-0.0375516451895237, 0.016342036426067352, -0.0164090096950531, -0.04470823332667351, 0.0036096263211220503], [-0.02776443213224411, -0.017821403220295906, -0.07194075733423233, -0.020537318661808968, 0.009216961450874805], [-0.10205695778131485, -0.06168808788061142, 0.06323570758104324, -0.05633435770869255, 0.021354733034968376], [-0.03696281090378761, -0.0773719996213913, 0.05510193854570389, -0.0002985684550367296, 0.00026260330923832953]], [[-0.0029940293170511723, 0.012232554145157337, -0.04817337542772293, 0.033035214990377426, -0.020678384229540825], [0.0628277063369751, 0.017990179359912872, 0.02376827783882618, 0.03508622199296951, -0.08024749159812927], [-0.01575511321425438, -0.09198463708162308, 0.07225438952445984, -0.0024209930561482906, -0.07681930810213089], [-0.02429354190826416, 0.014531738124787807, 0.10208714753389359, 0.06722104549407959, -0.02058267965912819], [0.008152243681252003, -0.049800723791122437, 0.03689565137028694, 0.07451634109020233, 0.08121994882822037]], [[0.09733515977859497, 0.0489693284034729, 0.002339023631066084, 0.017324289306998253, 0.013704728335142136], [0.01822625659406185, 0.05607951432466507, 0.023453734815120697, -0.02479076012969017, 0.056762322783470154], [-0.032646652311086655, 0.05817660689353943, -0.01667931117117405, 0.007766501046717167, 0.05249682813882828], [0.07016582787036896, -0.05199853703379631, 0.012290185317397118, -0.005748520139604807, -0.010846655815839767], [1.974447150132619e-05, 0.07862009108066559, -0.010543379001319408, 0.011657391674816608, -0.0013661421835422516]], [[-0.02282327599823475, 0.0029428962152451277, -0.008116823621094227, 0.0012321558315306902, 0.03454216197133064], [0.03420986980199814, -0.027330083772540092, -0.06309206783771515, 0.05873613804578781, 0.05520690605044365], [-0.01676267571747303, -0.06252453476190567, -0.08444685488939285, -0.04611549526453018, -0.08457700163125992], [-0.02325236238539219, -0.05707012489438057, -0.07566463947296143, -0.0486699640750885, -0.09766480326652527], [-0.02137722447514534, -0.05201982334256172, 0.025311462581157684, -0.0881076455116272, -0.10925952345132828]]], [[[-0.012549842707812786, -0.03206541761755943, 0.02129070833325386, -0.003968005999922752, 0.003467217553406954], [0.05998484045267105, 0.019945776090025902, 0.03780188038945198, 0.022229118272662163, 0.006108725909143686], [-0.026573549956083298, 0.05501200258731842, -0.10884932428598404, -0.019119352102279663, 0.0697413980960846], [-0.00557215791195631, 0.035937365144491196, -0.11763999611139297, -0.035159554332494736, 0.05244186893105507], [-0.069455087184906, -0.010778488591313362, 0.040876831859350204, 0.10879238694906235, -0.05394452065229416]], [[-0.058449286967515945, 0.048591453582048416, 0.05782336741685867, -0.015897266566753387, 0.040291979908943176], [-0.018269238993525505, -0.0009459748398512602, -0.06501596421003342, -0.028950387611985207, -0.02576148882508278], [0.02197992242872715, -0.06374264508485794, 0.031423863023519516, -0.08488558232784271, -0.10050686448812485], [0.13440388441085815, 0.0033829633612185717, 0.10538735240697861, 0.0031686786096543074, 0.020138384774327278], [0.07528703659772873, 0.0438440665602684, -0.11876598745584488, 0.0903407484292984, 0.04614437744021416]], [[-0.046107664704322815, -0.01919424720108509, 0.06738141924142838, -0.06210492551326752, -0.054895080626010895], [-0.09872082620859146, -0.07818014174699783, 0.051312148571014404, -0.001242541242390871, -0.07277344167232513], [-0.0736907497048378, -0.08707485347986221, -0.03461725264787674, -0.029253458604216576, -0.01520728413015604], [-0.10378686338663101, 0.04584387689828873, -0.03529958054423332, -0.00601150281727314, -0.06851520389318466], [-0.07405459880828857, 0.037656210362911224, -0.14502198994159698, 0.004083261825144291, -0.07482703030109406]], [[-0.014737706631422043, 0.12843333184719086, 0.02701251022517681, 0.04468099772930145, 0.07987675815820694], [-0.0007141251116991043, 0.009529940783977509, -0.09830217063426971, -0.01239385362714529, -0.008373390883207321], [0.027023576200008392, 0.04154003784060478, 0.0023590761702507734, 0.07351835072040558, -0.08444549143314362], [-0.010384215041995049, -0.032475776970386505, 0.04281805083155632, 0.021110178902745247, -0.03870277851819992], [0.02596653625369072, 0.011164464987814426, -0.06250803917646408, 0.001942400704137981, 0.0719030350446701]], [[-0.044241782277822495, -0.05344473943114281, -0.058245085179805756, 0.003677560016512871, -0.008150674402713776], [-0.02375001460313797, -0.0768878385424614, -0.11313778162002563, -0.006910994183272123, -0.08594097942113876], [-0.08100713789463043, -0.023277832195162773, -0.046021051704883575, -0.08757077902555466, -0.02052193507552147], [-0.06939996778964996, -0.13745997846126556, 0.06471189111471176, -0.016948720440268517, -0.10648541152477264], [0.07375765591859818, 0.03304899483919144, -0.00582417007535696, 0.11448165774345398, -0.0651165246963501]], [[-0.08045557886362076, -0.061825916171073914, 0.008764361031353474, 0.0035246515180915594, -0.021266857162117958], [0.03322698548436165, 0.056579384952783585, -0.002470346400514245, -0.04845703765749931, -0.03131509944796562], [0.07063841819763184, 0.0486069954931736, 0.12359659373760223, -0.07930449396371841, -0.09162387996912003], [0.10067078471183777, -0.034696247428655624, 0.02083771489560604, 0.046154703944921494, 0.007711197715252638], [0.041728537529706955, 0.0043751271441578865, -0.11245109885931015, -0.034365009516477585, 0.03685000538825989]], [[-0.017950093373656273, -0.0017387995030730963, -0.009117698296904564, -0.025735804811120033, 0.013768128119409084], [-0.042128607630729675, 0.07252632081508636, -0.05886668711900711, 0.004424137528985739, -0.019748495891690254], [-0.0299979355186224, 0.06931927055120468, -0.04460407793521881, -0.030973942950367928, 0.031399667263031006], [0.1614868938922882, 0.15033428370952606, -0.05859500542283058, 0.12583044171333313, 0.010096143931150436], [0.018637459725141525, -0.10710598528385162, 0.02478758804500103, 0.06673350185155869, 0.012732320465147495]], [[-0.05462315306067467, 0.007646241225302219, -0.008048729039728642, -0.007895833812654018, 0.00543315801769495], [-0.008225902915000916, -0.0043231407180428505, 0.05636020004749298, -0.012911145575344563, 0.02378769963979721], [-0.03963622823357582, -0.059431083500385284, 0.09235238283872604, 0.03140682354569435, -0.013407731428742409], [-0.058573294430971146, 0.01741858385503292, -0.05962821841239929, 0.0883466824889183, 0.010098179802298546], [-0.04858808219432831, -0.04252791404724121, 0.021561168134212494, 0.10624446719884872, -0.028970949351787567]], [[0.029377389699220657, 0.027925997972488403, -0.03789201378822327, 0.05307421460747719, 0.11451882869005203], [-0.01634315401315689, 0.030368855223059654, -0.043187934905290604, -0.05204052850604057, -0.012657171115279198], [0.07907156646251678, 0.056312065571546555, -0.09093016386032104, 0.09557482600212097, 0.026091430336236954], [0.13718311488628387, 0.013492285273969173, -0.0069917114451527596, 0.10863779485225677, 0.004393441136926413], [0.006028773263096809, -0.055221013724803925, 0.05991107225418091, 0.07944289594888687, 0.032463353127241135]], [[0.005463490262627602, -0.052387919276952744, -0.021083448082208633, -0.015304282307624817, 0.09136907011270523], [-0.04492708668112755, -0.03273513913154602, 0.0449172779917717, 0.016411663964390755, 0.03320373594760895], [-0.0011181696318089962, -0.03650866821408272, 0.02820761874318123, -0.05804166570305824, -0.0663825199007988], [-0.00652184896171093, 0.06854046881198883, -0.05720759183168411, -0.03701965883374214, 0.027414236217737198], [-0.019623085856437683, 0.061654698103666306, 0.094153992831707, -0.040993377566337585, -0.057085562497377396]], [[-0.025339826941490173, -0.021469933912158012, -0.07592436671257019, -0.01427996065467596, 0.015191690064966679], [-0.01750335656106472, -0.046148888766765594, -0.0360444076359272, -0.11767221242189407, 0.004000470042228699], [-0.01817338727414608, 0.003168692346662283, 0.06433574110269547, 0.016967037692666054, -0.010613745078444481], [0.052383244037628174, -0.05904187634587288, 0.011709949932992458, 0.039794620126485825, -0.027336714789271355], [0.012924275361001492, -0.16982965171337128, -0.07721604406833649, 0.04959161952137947, -0.018096014857292175]], [[0.04867440089583397, -0.04849890619516373, 0.06349227577447891, 0.037945184856653214, 0.05879741534590721], [-0.04407127574086189, -0.0686502531170845, -0.0850195437669754, 0.023132115602493286, 0.07039619237184525], [0.02682996541261673, 0.0894760936498642, -0.07573486119508743, 0.08375687897205353, -0.0005083988653495908], [-0.01283384021371603, -0.05822131037712097, -0.04540485888719559, 0.08462801575660706, -0.013321773149073124], [-0.10022535920143127, -0.07028911262750626, 0.016237961128354073, 0.009742065332829952, 0.03909630700945854]], [[0.004543752875179052, -0.023515064269304276, -0.10708632320165634, -0.04179658740758896, -0.028890548273921013], [0.06276705861091614, 0.053262725472450256, 0.007038797251880169, -0.030265143141150475, 0.02288394793868065], [0.07599898427724838, 0.044557422399520874, 0.0013965015532448888, 0.0035745869390666485, 0.03787333890795708], [0.007063524331897497, 0.02799586020410061, 0.09992373734712601, -0.01952539198100567, 0.01904180459678173], [-0.10321642458438873, 0.018180878832936287, 0.02265395037829876, -0.016682332381606102, 0.0035941663663834333]], [[0.08788194507360458, 0.03149858117103577, -0.08004847168922424, -0.02138616517186165, -0.03886577486991882], [0.08475549519062042, -0.017807552590966225, -0.03884904459118843, 0.025948774069547653, -0.02839185856282711], [-0.024853935465216637, 0.0272054523229599, 0.02866317890584469, -0.03592408448457718, -0.10753022134304047], [0.01757325604557991, 0.0324033685028553, 0.019507160410284996, 0.11813618242740631, -0.046623680740594864], [-0.0007341828313656151, 0.07993556559085846, -0.09018990397453308, -0.0020371845457702875, -0.06939855217933655]], [[-0.07013943791389465, -0.036418188363313675, 0.03341924771666527, 0.015493781305849552, 0.051660552620887756], [-0.0025182925164699554, 0.0653417780995369, -0.00850541703402996, 0.03217988461256027, -0.006284273695200682], [0.030232997611165047, -0.00826758798211813, 0.02531144767999649, 0.049528297036886215, -0.07418505847454071], [0.004170337226241827, -0.0470743328332901, -0.04626208916306496, 0.10183769464492798, 0.02553609386086464], [-0.0019624039996415377, 0.1373462975025177, 0.039624132215976715, -0.04186775162816048, -0.02815885841846466]], [[0.041316770017147064, 0.029708173125982285, -0.050807852298021317, 0.0030771817546337843, 0.003763923654332757], [-0.00046714875497855246, -0.06367792189121246, -0.08353948593139648, -0.021339625120162964, 0.03675343096256256], [0.012828180566430092, -0.007728277239948511, 0.028533970937132835, -0.08478804677724838, 0.013662871904671192], [-0.09793145209550858, 0.0451456643640995, 0.03967118635773659, -0.12361687421798706, -0.032998546957969666], [0.013336853124201298, -0.017349252477288246, 0.050676070153713226, -0.0009018112323246896, 0.02315344847738743]]], [[[0.03194155916571617, 0.10414190590381622, -0.06515802443027496, -0.03631722927093506, -0.07501707971096039], [0.054877351969480515, 0.1073344349861145, -0.03664900362491608, -0.026891792193055153, -0.041061677038669586], [-0.04836905747652054, 0.027567313984036446, -0.024426940828561783, 0.11873213946819305, 0.059647608548402786], [0.050148170441389084, 0.041551005095243454, 0.052922703325748444, -0.014888771809637547, -0.04421241581439972], [0.021995175629854202, 0.0925985798239708, 0.04303207993507385, -0.012748420238494873, -0.055547237396240234]], [[-0.09276609122753143, -0.07739516347646713, -0.028169406577944756, -0.10886653512716293, 0.07948941737413406], [-0.048649776726961136, -0.016552994027733803, -0.0004377083096187562, -0.05353814736008644, 0.046141352504491806], [-0.07689574360847473, -0.05350485071539879, 0.08024419099092484, -0.011239688843488693, 0.004477757029235363], [0.009425817988812923, -0.004984930623322725, 0.0734037309885025, 0.048293378204107285, 0.015696754679083824], [-0.06340073049068451, -0.04243689030408859, -0.034257370978593826, 0.06529425829648972, 0.027079183608293533]], [[-0.07996860891580582, -0.03028278425335884, -0.08742743730545044, 0.0012659975327551365, -0.0419534370303154], [-0.05259009823203087, -0.0019180491799488664, -0.007634799927473068, -0.07554054260253906, -0.053016066551208496], [-0.05729314684867859, -0.03404027596116066, -0.008141024969518185, -0.021902330219745636, -0.09366615861654282], [0.013862394727766514, 0.006391941104084253, 0.00011079481191700324, -0.06350410729646683, -0.08664656430482864], [-0.10561007261276245, 0.06837339699268341, -0.10574264079332352, -0.07040362805128098, -0.060022760182619095]], [[-4.646726665669121e-05, 0.08523286879062653, -0.007138181943446398, 0.04135492816567421, -0.013252325356006622], [-0.0072799562476575375, -0.01807253621518612, -0.013622801750898361, -0.010071426630020142, -0.06465046107769012], [-0.02659229002892971, 0.006570771336555481, 0.05903010815382004, -0.012469823472201824, -0.040782585740089417], [-0.034420546144247055, -0.012100830674171448, 0.013160442933440208, -0.04161766543984413, 0.08614186942577362], [-0.009595067240297794, 0.010833201929926872, 0.015228347852826118, -0.02950538508594036, 0.011803575791418552]], [[-0.011319871060550213, 0.006937284953892231, 0.0489332377910614, -0.06884544342756271, -0.07521354407072067], [0.01350861694663763, -0.036709800362586975, -0.04480002075433731, 0.01532288920134306, -0.07920670509338379], [0.03835194185376167, 0.016142001375555992, -0.01781265251338482, 0.011329874396324158, -0.13406333327293396], [-0.02734222449362278, -0.0002700857585296035, -0.027403444051742554, -0.03240888565778732, -0.06211329624056816], [-0.06021787226200104, 0.03202143311500549, -0.029648544266819954, -0.00547694880515337, 0.001520079094916582]], [[-0.1349760740995407, 0.009078449569642544, -0.009224418550729752, -0.038780633360147476, -0.038972046226263046], [0.02475978620350361, 0.03490462526679039, 0.06796018034219742, -0.06538280844688416, -0.02147296816110611], [-0.022422660142183304, -0.002626716857776046, 0.16508546471595764, 0.036197517067193985, 0.031734004616737366], [0.0009744956041686237, 0.05899038910865784, -0.021020902320742607, 0.13183113932609558, -0.023983048275113106], [-0.0477643720805645, 0.11103323847055435, -0.015123894438147545, -0.018480218946933746, -0.06652222573757172]], [[0.04144077003002167, 0.03594524413347244, 0.013433728367090225, -0.026919113472104073, 0.044371142983436584], [-0.019458096474409103, 0.07273721694946289, -0.000991893233731389, -0.04752127826213837, 0.030902832746505737], [-0.07875656336545944, -0.05111832544207573, -0.08300893008708954, 0.07329358160495758, -0.030275773257017136], [-0.007428825367242098, -0.04374517500400543, -0.003052076557651162, 0.040832240134477615, 0.05044341832399368], [0.009737564250826836, 0.015938568860292435, -0.04946232959628105, -0.004625770263373852, -0.06310839205980301]], [[0.06540368497371674, 0.028641579672694206, -0.0031901828479021788, -0.046637386083602905, -0.052969470620155334], [0.014186727814376354, 0.10484465956687927, 0.09907782822847366, 0.00038298123399727046, 0.032105810940265656], [-0.0829167366027832, -0.017323171719908714, 0.02525886334478855, -0.027502702549099922, -0.0060508777387440205], [0.05559633672237396, 0.06223369017243385, 0.06079984828829765, -0.0319964662194252, -0.059352975338697433], [0.09163414686918259, 0.12115781009197235, 0.14091986417770386, -0.0025751497596502304, 0.021033288910984993]], [[-0.08025917410850525, -0.04647683724761009, 0.010655106045305729, -0.11251073330640793, 0.03372453525662422], [-0.02416551113128662, 0.034860748797655106, -0.07293274253606796, 0.012060088105499744, 0.057825420051813126], [-0.06695646047592163, -0.02168061025440693, -0.0831088125705719, -0.025721069425344467, 0.030196165665984154], [-0.01296504121273756, -0.06684483587741852, 0.0974569171667099, 0.07539505511522293, 0.019963139668107033], [0.016899824142456055, -0.04832969605922699, 0.0814172700047493, 0.048150718212127686, -0.0016766670159995556]], [[0.06930159032344818, 0.07911811769008636, 0.060558829456567764, 0.017783118411898613, -0.03463992848992348], [0.002269442891702056, 0.07277107238769531, 0.041144583374261856, -0.013080154545605183, -0.05494535341858864], [0.13727732002735138, 0.028962677344679832, -0.05475533381104469, -0.11485922336578369, -0.07984766364097595], [-0.06415248662233353, 0.02096651867032051, -0.09183948487043381, -0.06669820100069046, 0.03568447381258011], [-0.0479617603123188, 0.016132330521941185, -0.006300873588770628, -0.08262542635202408, -0.05039389431476593]], [[-0.05462520197033882, -0.05038159713149071, 0.03359150141477585, 0.04730755090713501, -0.07603669911623001], [-0.04222109913825989, -0.07674851268529892, -0.05166243761777878, 0.011150075122714043, 0.013778669759631157], [-0.09182119369506836, -0.05254838615655899, -0.002759631024673581, 0.0664106234908104, -0.02515260875225067], [0.010101785883307457, -0.07592082768678665, -0.008058929815888405, -0.00401885574683547, -0.07663948088884354], [0.018677175045013428, -0.0135803809389472, 0.053929731249809265, -0.03444581851363182, -0.000441144744399935]], [[0.004189237020909786, -0.007199034560471773, 0.04184123873710632, 0.0052100252360105515, -0.054748911410570145], [0.03471650555729866, 0.06579171866178513, -0.005059096496552229, -0.0042601581662893295, -0.07950318604707718], [-0.004054756835103035, -0.010487367399036884, 0.0030548537615686655, 0.08570501953363419, 0.019928889349102974], [0.011321448720991611, -0.06266234070062637, 0.014273770153522491, 0.017736664041876793, 0.055627185851335526], [-0.007924606092274189, -0.00912159401923418, 0.05584007501602173, -0.0471913106739521, -0.11472535133361816]], [[0.07479557394981384, 0.010678740218281746, 0.029326455667614937, -0.01784353516995907, -0.08105427771806717], [0.020397920161485672, -0.012159000150859356, 0.023063955828547478, -0.036937955766916275, -0.03097919188439846], [0.01744619756937027, 0.03921922668814659, -0.022024640813469887, -0.09293977916240692, -0.03975873440504074], [-0.14689591526985168, -0.031841788440942764, -0.03952670842409134, -2.3716111172689125e-05, 0.005579952150583267], [-0.11965255439281464, -0.025756854563951492, -0.03199320659041405, -0.04115340858697891, 0.031016072258353233]], [[-0.05904281511902809, 0.03806900233030319, -0.0006478290306404233, 0.012911233119666576, -0.01238800399005413], [-0.08238757401704788, 0.04083198681473732, 0.009914853610098362, -0.025144383311271667, 0.07898836582899094], [-0.07094749063253403, -0.04628761112689972, -0.010044913738965988, -0.004245603457093239, 0.02862667292356491], [0.04407777264714241, 0.01595248468220234, 0.05896363407373428, 0.06931177526712418, -0.027800265699625015], [0.03138766437768936, 0.02123095653951168, -0.018344301730394363, 0.09330426901578903, -0.10344762355089188]], [[-0.036313995718955994, 0.04030880331993103, 0.032625216990709305, -0.020372336730360985, -0.041683346033096313], [0.1100136861205101, -0.0006662271334789693, 0.005194098223000765, -0.09654207527637482, -0.05375183746218681], [-0.0637272298336029, -0.018516533076763153, 0.06705159693956375, -0.05164505913853645, 0.019031444564461708], [-0.018898850306868553, -0.03854985907673836, -0.014284048229455948, -0.02434019185602665, 0.04768388718366623], [-0.0005193830584175885, 0.0794031098484993, 0.087009958922863, 0.07144437730312347, -0.037339355796575546]], [[-0.03473467752337456, 0.0006414081435650587, -0.037246279418468475, 0.046694763004779816, -0.05717915669083595], [0.025168366730213165, -0.05846172198653221, -0.008581711910665035, -0.04382014647126198, -0.1007000058889389], [-0.028704188764095306, -0.023308664560317993, 0.0013799041043967009, -0.03572088107466698, -0.07529505342245102], [0.03687348589301109, -0.04014277085661888, -0.06770766526460648, -0.12747325003147125, -0.03043612651526928], [0.0280072670429945, -0.06638970226049423, -0.06714078038930893, -0.014689669944345951, 0.010977097786962986]]], [[[0.10461530834436417, 0.09552638232707977, 0.014826077036559582, -0.024547111243009567, -0.06324777752161026], [0.008934897370636463, -0.042323462665081024, -0.04605361074209213, 0.07001087814569473, -0.030448827892541885], [0.05076327919960022, 0.032429039478302, 0.03698417916893959, -0.050642311573028564, -0.006892048288136721], [0.08766765147447586, -0.013575461693108082, -0.02189815603196621, -0.07962659746408463, 0.016334932297468185], [0.03291818127036095, -0.0017920740647241473, -0.09075776487588882, 0.01185888983309269, -0.019539278000593185]], [[-0.08287662267684937, -0.0274906437844038, 0.0015324625419452786, 0.029076481238007545, 0.07762745767831802], [-0.05412307754158974, -0.03769785165786743, -0.09524531662464142, 0.04948917031288147, 0.04675372317433357], [0.024627070873975754, -0.02426411770284176, -0.04536869004368782, 0.020476466044783592, 0.06889520585536957], [-0.02565714716911316, -0.12424053251743317, -0.06292703002691269, -0.004880105145275593, -0.028401225805282593], [-0.1021348312497139, -0.07442392408847809, -0.0026752715930342674, -0.004576309584081173, -0.06804266571998596]], [[-0.05676846578717232, -0.07855444401502609, 0.04502534121274948, 0.010034279897809029, 0.10428577661514282], [-0.10532765835523605, -0.0375155471265316, 0.03730477765202522, 0.0449259988963604, -0.04039085656404495], [-0.08823565393686295, -0.010758762247860432, 0.06783140450716019, -0.05469869449734688, -0.08197499811649323], [-0.047324977815151215, 0.017568325623869896, -0.01682840846478939, -0.03421339392662048, -0.05837682634592056], [-0.09182456880807877, -0.06942489743232727, -0.03495628759264946, -0.006623728200793266, 0.009878862649202347]], [[-0.02677065320312977, 0.00737891998142004, -0.06031499803066254, 0.08123119920492172, 0.07508108764886856], [-0.026920367032289505, -0.0018796424847096205, 0.015255574136972427, 0.005327391903847456, 0.15258049964904785], [-0.06584807485342026, -0.025729821994900703, -0.09895725548267365, 0.04231887310743332, 0.054039351642131805], [0.034439556300640106, -0.029752487316727638, -0.05859017372131348, 0.0118330717086792, 0.0250526275485754], [-0.037985749542713165, -0.08322390168905258, -0.08482696115970612, 0.015177995897829533, -0.0894131138920784]], [[0.009905489161610603, 0.029080195352435112, 0.06514287739992142, 0.08667977899312973, -0.022316357120871544], [0.09034718573093414, 0.0347977839410305, 0.00340052368119359, 0.026134498417377472, -0.015653951093554497], [0.08567382395267487, -0.015944303944706917, -0.02376003935933113, 0.03343474119901657, 0.04015582799911499], [0.03095351904630661, -0.09585832059383392, -0.09612637758255005, 0.006120832171291113, 0.004008118528872728], [0.037772249430418015, -0.022069476544857025, 0.03497110679745674, 0.06043049693107605, -0.0421314537525177]], [[0.07345964014530182, -0.005012291017919779, -0.0786142498254776, 0.014122813940048218, 0.05659895017743111], [0.03910760208964348, 0.04841464385390282, -0.026795659214258194, 0.043064363300800323, 0.02704613097012043], [-0.036197688430547714, 0.008741120807826519, -0.056342460215091705, 0.041690632700920105, 0.0023051185999065638], [0.04634111002087593, 0.017518894746899605, -0.054937902837991714, 0.09020902961492538, -0.020360738039016724], [-0.013843354769051075, 0.03570197522640228, -0.04500375688076019, 0.042700160294771194, 0.038886141031980515]], [[-0.0237771887332201, -0.016309332102537155, 0.02396797575056553, -0.00891484972089529, -0.10695363581180573], [0.023397570475935936, -0.012140012346208096, -0.03130340576171875, -0.1110251247882843, 0.09277534484863281], [0.0007588501321151853, 0.09753689914941788, -0.031909581273794174, -0.10542009770870209, 0.03998260572552681], [-0.04201791062951088, 0.04487138241529465, 0.01601751521229744, -0.03426908329129219, -0.033898547291755676], [-0.03582917898893356, -0.05930561572313309, 0.028616229072213173, -0.08041509240865707, 0.06847751140594482]], [[0.011446380987763405, 0.011204228736460209, -0.016685698181390762, -0.007042217534035444, -0.03674798458814621], [-0.05448215827345848, -0.027588358148932457, -0.04109525680541992, 0.03396839648485184, -0.0788482204079628], [0.047889113426208496, -0.0086258789524436, -0.028761444613337517, 0.027913222089409828, -0.07956939190626144], [0.0431065633893013, 0.07960640639066696, -0.012722387909889221, -0.006402367260307074, -0.058789096772670746], [0.027876658365130424, 0.06951408833265305, 0.012750344350934029, -0.07920180261135101, -0.10066276788711548]], [[0.0018411808414384723, 0.019703146070241928, 0.05421309918165207, -0.012995573692023754, -0.01340170856565237], [0.038323283195495605, -0.03264783322811127, -0.14804360270500183, -0.0016938814660534263, 0.13241004943847656], [0.07861831039190292, -0.037899091839790344, -0.09294769912958145, 0.14999493956565857, 0.08043374866247177], [0.02341637946665287, -0.05167635902762413, -0.03984686732292175, 0.033625829964876175, 0.037814538925886154], [0.0657830461859703, -0.051410526037216187, 0.016712456941604614, 0.009372163563966751, -0.05864671990275383]], [[-0.012974760495126247, 0.03160122036933899, 0.026100119575858116, -0.06774025410413742, -0.07953547686338425], [-0.04878844693303108, -0.014239851385354996, 0.019293533638119698, -0.16296716034412384, -0.008915412239730358], [-0.03231734037399292, -0.11169439554214478, -0.06952489912509918, 0.013963560573756695, 0.059495214372873306], [-0.07229891419410706, -0.03655756264925003, 0.03645417466759682, 0.03441639617085457, -0.03947265073657036], [-0.027593944221735, 0.06556186079978943, -0.010494144633412361, -0.009294104762375355, -0.02693427912890911]], [[-0.08491764217615128, -0.026596112176775932, 0.025305885821580887, 0.011445418931543827, -0.04038587957620621], [-0.0013167110737413168, -0.11661746352910995, -0.039494626224040985, 0.05121466889977455, 0.014163101091980934], [-0.0034858649596571922, -0.06301460415124893, 0.10776387155056, 0.05841957777738571, 0.005833469796925783], [-0.08902306109666824, -0.010122289881110191, -0.006174205802381039, -0.01725229062139988, 0.04026905819773674], [0.01973375491797924, 0.03605954349040985, 0.057612814009189606, 0.015469441190361977, -0.01692446880042553]], [[-0.11218810826539993, 0.017079610377550125, 0.056580498814582825, 0.021936791017651558, -0.030788570642471313], [-0.06798702478408813, 0.043809570372104645, 0.03981936722993851, -0.07330173254013062, 0.09395739436149597], [0.1178850531578064, 0.08409598469734192, 0.08844958990812302, -0.023874536156654358, -0.004506897646933794], [0.06506886333227158, -0.0396505706012249, -0.017711972817778587, -0.07239780575037003, 0.052963096648454666], [0.07667791843414307, 0.017108069732785225, 0.017242835834622383, -0.024691233411431313, -0.03227442130446434]], [[-0.03254866972565651, -0.01215345412492752, 0.11374778300523758, 0.024329107254743576, 0.053592000156641006], [0.036779746413230896, 0.029206307604908943, -0.004266135860234499, -0.004467947408556938, -0.015423520468175411], [0.0009055614355020225, -0.015894057229161263, -0.048622120171785355, 0.04765314608812332, 0.02490927278995514], [-0.05002559348940849, -0.02530982904136181, -0.02406669780611992, 0.02491065487265587, -0.024008361622691154], [-0.0033221712801605463, -0.15282538533210754, -0.10647248476743698, -0.03674731031060219, -0.02128780074417591]], [[-0.04099754989147186, 0.06231282651424408, 0.0676453560590744, -0.080951027572155, 0.0244253221899271], [0.07177957892417908, 0.022204618901014328, -0.07803575694561005, 0.017178917303681374, 0.008102093823254108], [0.004566327203065157, 0.040929846465587616, -0.07655778527259827, -0.09108618646860123, -0.04070723429322243], [-0.028622591868042946, -0.029201433062553406, -0.07532626390457153, -0.07307879626750946, -0.021318936720490456], [-0.025741569697856903, 0.03616323322057724, 0.007133845705538988, 0.0006290313904173672, 0.08699390292167664]], [[-0.015952618792653084, -0.021894408389925957, -0.012899890542030334, -0.045467354357242584, -0.088944211602211], [0.042317066341638565, 0.03630269318819046, -0.1011693924665451, 0.04430676996707916, 0.01499635074287653], [0.0776074156165123, 0.025609755888581276, 0.01894085668027401, 0.10373742878437042, 0.05716270953416824], [0.006141206249594688, 0.022402964532375336, 0.041419874876737595, 0.02162710204720497, -0.036456771194934845], [-0.1005474105477333, -0.03292424976825714, 0.026287103071808815, -0.018633611500263214, -0.004065036773681641]], [[-0.05209392309188843, 0.019728699699044228, 0.029311293736100197, 0.05540933832526207, 0.06504616886377335], [0.0025147872511297464, 