{"layer1.0.weight": [[[[-0.15361705422401428, -0.10316217690706253, 0.09338756650686264, -0.17980866134166718, -0.2207372933626175], [0.07376889884471893, -0.1982692927122116, 0.03393226116895676, 0.11208195239305496, 0.23081804811954498], [0.1827675998210907, 0.12415888905525208, 0.11509378999471664, 0.10958641022443771, -0.11640962213277817], [-0.08492980152368546, 0.12856008112430573, -0.15271486341953278, -0.1740778684616089, 0.0010639405809342861], [-0.009982272982597351, 0.1369200497865677, -0.035798486322164536, -0.03410742059350014, 0.17487157881259918]]], [[[0.19000498950481415, -0.15672846138477325, -0.09555608779191971, 0.10511964559555054, -0.0061616841703653336], [0.1445283740758896, -0.06047772243618965, -0.13114234805107117, -0.09324348717927933, 0.13547274470329285], [0.10800729691982269, -0.23170006275177002, -0.05098625272512436, 0.15220126509666443, 0.12226562947034836], [0.018985304981470108, -0.19423198699951172, -0.07464423775672913, 0.2036053091287613, 0.059728749096393585], [0.03628043457865715, -0.2295568436384201, 0.1930374652147293, 0.08017945289611816, -0.17160315811634064]]], [[[0.2011745721101761, -0.0036472794599831104, -0.18731527030467987, -0.2628558278083801, -0.17591209709644318], [0.12742163240909576, 0.14554189145565033, -0.19880454242229462, -0.16975271701812744, 0.11369290202856064], [0.004304227884858847, -0.15609543025493622, -0.05403134226799011, 0.21543259918689728, -0.047695159912109375], [-0.012286371551454067, -0.07399138808250427, 0.1459171026945114, -0.14342662692070007, 0.09589852392673492], [0.0942101925611496, -0.12409872561693192, 0.09156297147274017, -0.09284429252147675, 0.02136744186282158]]], [[[-0.093560591340065, 0.09055894613265991, 0.025496210902929306, 0.01805613934993744, 0.11781111359596252], [0.07816943526268005, -0.24753588438034058, -0.09860794991254807, -0.05606439709663391, 0.002745538018643856], [-0.15708114206790924, -0.23843738436698914, -0.1654285341501236, -0.00230608438141644, -0.08856986463069916], [0.022054582834243774, -0.23782722651958466, 0.12699070572853088, 0.18862614035606384, -0.0020857248455286026], [-0.052169375121593475, -0.12767577171325684, -0.03128792718052864, 0.08942175656557083, -0.22047309577465057]]], [[[0.0428597591817379, -0.22771082818508148, 0.10651245713233948, 0.05902969464659691, -0.012716629542410374], [0.038435760885477066, 0.16817058622837067, 0.045283641666173935, -0.07780969887971878, -0.13821017742156982], [-0.10532929748296738, -0.20822149515151978, -0.08766485750675201, 0.11420393735170364, 0.20432913303375244], [0.007764010224491358, 0.003392227925360203, -0.21666398644447327, 0.011280734091997147, 0.18975144624710083], [-0.06791925430297852, 0.17055350542068481, 0.10362397134304047, -0.09084335714578629, -0.14467178285121918]]], [[[0.04193764552474022, 0.0585833303630352, -0.1500285416841507, 0.10261189937591553, -0.04938199743628502], [-0.05089703947305679, 0.024272557348012924, 0.05243898555636406, -0.07156866043806076, 0.009329072199761868], [-0.06710348278284073, 0.14608606696128845, -0.07325782626867294, -0.12420099973678589, 0.20341207087039948], [-0.002811663318425417, 0.14622393250465393, -0.21609260141849518, 0.23490631580352783, -0.1607971340417862], [0.09861911833286285, -0.2366863340139389, 0.14780502021312714, 0.04789956286549568, -0.17615163326263428]]], [[[-0.21354670822620392, 0.11905395239591599, 0.01577906683087349, 0.0459415465593338, 0.017101794481277466], [-0.04928404837846756, -0.051927708089351654, 0.11564131826162338, -0.11590085178613663, -0.2590177655220032], [0.05184287950396538, 0.09582111984491348, 0.12208489328622818, 0.019235972315073013, -0.17823176085948944], [0.09139345586299896, 0.09705021232366562, 0.06222696602344513, -0.11062432825565338, 0.05081422999501228], [-0.2092856615781784, 0.14471803605556488, -0.030267614871263504, -0.020409036427736282, 0.09406337141990662]]], [[[-0.21568317711353302, 0.1282300055027008, -0.19994117319583893, 0.14842940866947174, -0.058541662991046906], [-0.05712336674332619, -0.046614475548267365, -0.015910625457763672, -0.012220241129398346, -0.12038785219192505], [0.06988584995269775, 0.023567412048578262, -0.009675939567387104, -0.06075233966112137, 0.08976277709007263], [0.14044511318206787, 0.07691998779773712, 0.1411696821451187, 0.011764873750507832, -0.019298754632472992], [0.05948993191123009, -0.16229557991027832, -0.056799646466970444, -0.07714451849460602, 0.18401993811130524]]], [[[-0.09207482635974884, 0.0022218257654458284, -0.11188302934169769, 0.11358208954334259, 0.1052045151591301], [-0.004559142980724573, -0.009621119126677513, -0.10778914391994476, 0.29398056864738464, -0.12883368134498596], [-0.11384513229131699, -0.18082459270954132, 0.1901124268770218, 0.214541956782341, -0.1609886884689331], [0.14980566501617432, 0.009944976307451725, 0.1925845891237259, -0.13353031873703003, -0.20300334692001343], [-0.08299428969621658, 0.13064245879650116, -0.052387118339538574, 0.13237826526165009, -0.14784015715122223]]], [[[-0.20350602269172668, -0.10788284242153168, -0.004032921977341175, 0.17230850458145142, 0.18460935354232788], [0.13590024411678314, 0.17173567414283752, 0.15881408751010895, -0.021638108417391777, -0.05707671865820885], [-0.00496011134237051, -0.1096452921628952, -0.19621384143829346, -0.19891226291656494, -0.15701469779014587], [0.035766080021858215, 0.1312885582447052, 0.1407935917377472, 0.03560357540845871, -0.14109444618225098], [0.004590349271893501, -0.08572091162204742, -0.019108911976218224, 0.045957520604133606, 0.155512735247612]]], [[[-0.1312950700521469, -0.06167326867580414, 0.1462656408548355, 0.0857444703578949, 0.10118519514799118], [-0.06969756633043289, 0.08104602992534637, -0.17348337173461914, 0.10994243621826172, 0.07336948812007904], [-0.08089742809534073, -0.04492906853556633, -0.1305035650730133, 0.042644619941711426, 0.015144613571465015], [0.0757816731929779, 0.1427907645702362, -0.21630436182022095, 0.021349085494875908, 0.006945115048438311], [0.14963360130786896, 0.08253851532936096, -0.2797221541404724, -0.06348420679569244, 0.10044270008802414]]], [[[0.17314131557941437, 0.09730545431375504, -0.2547238767147064, 0.10493064671754837, -0.09021352231502533], [-0.18928420543670654, 0.1557023674249649, -0.0547952763736248, 0.09314902871847153, -0.05746162310242653], [-0.13630440831184387, -0.024190936237573624, 0.17834582924842834, 0.019909106194972992, -0.025401972234249115], [0.015375183895230293, -0.01823900081217289, 0.2013249546289444, -0.12938852608203888, -0.1770818531513214], [0.059323057532310486, 0.0020122528076171875, 0.10477545112371445, -0.1841553896665573, 0.08560255914926529]]], [[[-0.118909552693367, -0.14011816680431366, -0.04412129893898964, 0.017471494153141975, 0.19043368101119995], [0.16169686615467072, 0.09648264944553375, 0.10912029445171356, -0.014611729420721531, 0.2047663927078247], [-0.10937057435512543, 0.019011782482266426, -0.0491444356739521, 0.09566973149776459, 0.24149899184703827], [-0.04288310930132866, 0.15953324735164642, -0.1741577535867691, -0.06406177580356598, 0.23710066080093384], [0.1176849827170372, 0.024624276906251907, 0.18402357399463654, -0.02643093280494213, 0.07533884793519974]]], [[[0.05002578720450401, 0.04532767832279205, 0.15677642822265625, -0.21532730758190155, -0.08404096961021423], [0.1898827999830246, 0.06944718956947327, 0.036738086491823196, 0.06474044173955917, 0.06916399300098419], [-0.08794514089822769, 0.10207170993089676, -0.06483203917741776, -0.19171138107776642, 0.21677838265895844], [-0.1729152798652649, 0.05122588574886322, -0.16902796924114227, -0.00953332707285881, 0.12026151269674301], [0.10271141678094864, -0.2633891999721527, 0.05173400789499283, -0.08265837281942368, -0.004619445651769638]]], [[[0.000833401340059936, 0.17766106128692627, -0.029747575521469116, 0.06823516637086868, -0.1283319890499115], [-0.19640645384788513, -0.13117176294326782, 0.07209328562021255, -0.14380469918251038, -0.21998555958271027], [-0.23785223066806793, 0.062411125749349594, 0.07685629278421402, -0.016895154491066933, 0.2111562043428421], [-0.11943375319242477, 0.03233717009425163, 0.004004229791462421, -0.07445685565471649, 0.2135346680879593], [0.10261597484350204, -0.04765665531158447, -0.05650869011878967, 0.17845375835895538, -0.021099649369716644]]], [[[0.14648501574993134, -0.09724806249141693, -0.12884142994880676, -0.18156222999095917, 0.0780508816242218], [-0.09891676902770996, -0.1789746880531311, -0.4072318971157074, -0.2395191788673401, 0.05813273414969444], [0.07915890216827393, -0.2837340831756592, -0.3833155333995819, -0.19656743109226227, -0.011802533641457558], [-0.07714571058750153, 0.07072919607162476, -0.17210444808006287, -0.060060080140829086, 0.045471012592315674], [-0.07080329209566116, 0.14079715311527252, 0.07687442749738693, 0.06959052383899689, 0.12078183889389038]]]], "layer1.0.bias": [-0.010511203669011593, 0.15298239886760712, 0.028658505529165268, -0.13858751952648163, -0.09201858192682266, -0.06553607434034348, -0.1708175241947174, 0.0240752175450325, -0.18011753261089325, 0.23490768671035767, -0.09584759920835495, -0.11853654682636261, 0.1381624937057495, -0.0334748849272728, 0.019881470128893852, 0.1676117181777954], "layer1.1.weight": [1.026137113571167, 0.9946164488792419, 1.1077744960784912, 1.098585605621338, 0.9433263540267944, 1.0020323991775513, 0.9448406100273132, 0.9549225568771362, 1.0710960626602173, 0.8340520262718201, 1.0004390478134155, 0.8816025257110596, 0.8084151744842529, 0.9492166638374329, 1.0500166416168213, 1.1239092350006104], "layer1.1.bias": [-0.0794370174407959, -0.005726984702050686, -0.19765736162662506, -0.23804742097854614, -0.1004289984703064, -0.09907656162977219, -0.07411962747573853, -0.06757448613643646, 0.04814307019114494, -0.22337321937084198, -0.0054006208665668964, 0.006111190188676119, -0.2734443247318268, -0.04824577271938324, -0.15572185814380646, -0.34378600120544434], "layer1.1.running_mean": [0.011053181253373623, 0.16168983280658722, -0.1075068861246109, -0.46535706520080566, -0.11558603495359421, -0.08584130555391312, -0.1974453330039978, 0.0235610231757164, -0.17164939641952515, 0.25352659821510315, -0.09087512642145157, -0.13182583451271057, 0.4929109513759613, -0.04365567862987518, -0.04320188984274864, -0.3611399233341217], "layer1.1.running_var": [0.010732823982834816, 0.024542784318327904, 0.04188825935125351, 0.12320159375667572, 0.006606669165194035, 0.004510817117989063, 0.01513035036623478, 0.007516507990658283, 0.01575436256825924, 0.007359122857451439, 0.015369500033557415, 0.009848620742559433, 0.13754263520240784, 0.01273375004529953, 0.02002440020442009, 0.3552734851837158], "layer1.1.num_batches_tracked": 39026, "layer2.0.weight": [[[[-0.11368049681186676, -0.030912349000573158, 0.09702152758836746, 0.0260526891797781, 0.04626312851905823], [-0.0443432480096817, -0.017016736790537834, -0.045259617269039154, -0.011071579530835152, -0.09451795369386673], [-0.009438471868634224, -0.014321614988148212, -0.02720460295677185, -0.02539173886179924, -0.02932581678032875], [-0.04223413020372391, -0.04273226484656334, 0.08967602998018265, 0.07362458854913712, 0.0905475914478302], [-0.02242027036845684, -0.11800532042980194, -0.004984088242053986, 0.00013913035218138248, 0.023108143359422684]], [[0.08572874218225479, 0.03539569303393364, -0.004909273236989975, -0.12060242891311646, -0.06666986644268036], [0.00737741868942976, 0.03756998851895332, 0.028316019102931023, 0.0037764234002679586, 0.007662578951567411], [-0.0007207722519524395, 0.05412253737449646, 0.039914146065711975, -0.06627046316862106, -0.0624941810965538], [0.07672874629497528, 0.09686074405908585, 0.053415779024362564, 0.05067826062440872, 0.002245180308818817], [0.03757843002676964, -0.004608420189470053, 0.06091037392616272, 0.06317462772130966, 0.031542327255010605]], [[-0.04788918420672417, -0.05025344714522362, 0.08675702661275864, 0.1225823387503624, 0.06490496546030045], [0.02086777240037918, 0.0882534310221672, -0.0024300594814121723, 0.04228080436587334, 0.06236981600522995], [-0.0067550865933299065, -0.06305661797523499, -0.04227795824408531, 0.05164101719856262, 0.015618700534105301], [0.004251998849213123, -0.03953494876623154, 0.012786488980054855, 0.041756514459848404, 0.1514432579278946], [0.02440662495791912, -0.0112160574644804, -0.030816461890935898, 0.10793846845626831, 0.0655938908457756]], [[0.07426837831735611, -0.059824686497449875, -0.14563532173633575, -0.029920363798737526, 0.03952586650848389], [0.09531102329492569, 0.05154607072472572, -0.0174332894384861, 0.006350844167172909, 0.014899098314344883], [0.09915968030691147, 0.050926294177770615, -0.003736969316378236, -0.0161244235932827, -0.013717028312385082], [0.042798589915037155, 0.04543967545032501, 0.010237503796815872, 0.01792108453810215, 0.07946296781301498], [0.08847182244062424, 0.14316971600055695, 0.009019344113767147, 0.09091099351644516, 0.049917593598365784]], [[-0.02881845459342003, -0.049579840153455734, 0.03940896689891815, -0.0712142065167427, -0.020332956686615944], [-0.006294995080679655, 0.032061729580163956, -0.029393622651696205, -0.025709670037031174, -0.09686923027038574], [-0.03880930691957474, -0.0649680495262146, -0.01954958587884903, 0.03350119665265083, -0.013454199768602848], [-0.0040941969491541386, 0.057176053524017334, -0.022860808297991753, 0.06834440678358078, -0.005487855523824692], [0.035932715982198715, -0.014245240949094296, -0.008228057995438576, -0.03689463809132576, -0.02621857263147831]], [[0.0048037185333669186, -0.01378669310361147, 0.009872403927147388, -0.040223076939582825, -0.01936717890202999], [0.059759292751550674, 0.051532331854104996, 0.08208344876766205, -0.04134372994303703, -0.006035874132066965], [-0.00725725619122386, 0.018852533772587776, -0.023504843935370445, -0.08781524002552032, -0.004905732814222574], [-0.014075635001063347, 0.005383096169680357, -0.031017975881695747, -0.08711964637041092, -0.06325723230838776], [0.0786282941699028, 0.0168111901730299, -0.030969133600592613, 0.001018287381157279, 0.007702766451984644]], [[0.048685092478990555, -0.04609507694840431, 0.012160534970462322, -0.040062494575977325, 0.04470696672797203], [-0.0022269170731306076, -0.012870862148702145, -0.053193528205156326, 0.041544150561094284, 0.00579089717939496], [-0.10131342709064484, -0.027634792029857635, 0.017348341643810272, -0.04209114611148834, -0.012272446416318417], [-0.02814633399248123, -0.050897251814603806, 0.11550528556108475, 0.001967179123312235, -0.06718435138463974], [0.007205424830317497, -0.1571647822856903, 0.009504878893494606, 0.048947419971227646, -0.0043345424346625805]], [[-0.0677260234951973, -0.16829779744148254, -0.02433977648615837, 0.058419737964868546, 0.029252229258418083], [-0.15981854498386383, -0.03576649725437164, -0.07258904725313187, 0.04125908389687538, -0.04961036890745163], [-0.08885492384433746, 0.005687173455953598, -0.011418971233069897, 0.03995874151587486, -0.06338632106781006], [-0.1362588256597519, -0.06797554343938828, -0.0007635276997461915, 0.031775012612342834, 0.023483095690608025], [-0.09406803548336029, -0.11796698719263077, 0.058559395372867584, -0.0008883175323717296, -0.03229078650474548]], [[-0.06326864659786224, -0.04080628231167793, -0.09507116675376892, 0.022072067484259605, 0.019792277365922928], [0.06919454038143158, -0.03867620602250099, -0.039180368185043335, -0.013273133896291256, -0.016483666375279427], [0.04359212890267372, -0.04049931839108467, 0.01925693266093731, -0.06741618365049362, -0.025942878797650337], [0.05695740878582001, 0.017642652615904808, -0.04378662258386612, -0.03306945785880089, -0.04515545815229416], [0.055836308747529984, 0.04272209852933884, -0.14690515398979187, 0.019279608502984047, 0.010193407535552979]], [[-0.03590656444430351, 0.00882326066493988, -0.06556814163923264, -0.049310699105262756, 0.03169994801282883], [0.04233062267303467, -0.0632176324725151, -0.02459843084216118, -0.011663930490612984, -0.056166619062423706], [-0.012411091476678848, 0.08779887109994888, 0.014721646904945374, 0.06536740064620972, -0.0018641995266079903], [-0.005416361149400473, -0.02507021464407444, 0.04003395512700081, 0.031081359833478928, 0.015468854457139969], [-0.0972883552312851, -0.03751415014266968, -0.05419982224702835, -0.008247232995927334, 0.06138157844543457]], [[0.08520594239234924, 0.01565929874777794, -0.05914030596613884, -0.13408316671848297, 0.045828927308321], [0.015833336859941483, 0.05928153917193413, -0.031909529119729996, -0.054430216550827026, -0.02176903747022152], [0.09307156503200531, 0.102396160364151, 0.04916610196232796, 0.022946540266275406, 0.07195605337619781], [0.1532757431268692, 0.04819076135754585, -0.06977156549692154, -0.11885758489370346, -0.08301244676113129], [0.02529669925570488, 0.047320928424596786, -0.04190274327993393, -0.06740663945674896, -0.018078869208693504]], [[-0.0038987870793789625, 0.05829912796616554, 0.052037544548511505, -0.044674091041088104, 0.06460592150688171], [0.061648864299058914, -0.023398621007800102, 0.038125231862068176, -0.04268608242273331, -0.013395263813436031], [-0.024744316935539246, -0.029391327872872353, -0.030129611492156982, -0.02181372232735157, -0.04078841209411621], [-0.052182409912347794, -0.06210698187351227, 0.01712239347398281, 0.014783114194869995, 0.013772963546216488], [-0.04384935274720192, -0.15266473591327667, -0.031184744089841843, -0.006178876850754023, -0.021272223442792892]], [[0.04854258522391319, -0.020580381155014038, -0.08601002395153046, 0.062435731291770935, 0.02602112479507923], [0.03980729356408119, -0.06266197562217712, -0.009456316009163857, -0.007123362738639116, 0.049273185431957245], [0.04334133863449097, -0.09764344990253448, -0.06869276612997055, 0.014360069297254086, -0.027950920164585114], [0.040675174444913864, -0.004311184864491224, -0.006235849112272263, 0.07945772260427475, -0.006234991364181042], [0.03465249389410019, -0.019790293648838997, 0.020860927179455757, 0.015074249356985092, 0.03418843820691109]], [[-0.04693014547228813, -0.05577268451452255, -0.01710500195622444, -0.077190101146698, -0.016770660877227783], [0.03476022928953171, -0.07642542570829391, -0.00032574025681242347, 0.05184236168861389, 0.03752214089035988], [-0.018027879297733307, -0.026443080976605415, -0.06875644624233246, 0.007030472159385681, -0.009687543846666813], [-0.052402231842279434, -0.005132349673658609, -0.003992401994764805, -0.05905592069029808, -0.09585093706846237], [0.00778734078630805, 0.011769747361540794, 0.058719225227832794, 0.001261149998754263, 0.03587821498513222]], [[0.036265429109334946, 0.03047289326786995, 0.03936481475830078, 0.011332453228533268, 0.008443937636911869], [-0.041009996086359024, 0.023544518277049065, -0.008243715390563011, 0.0892936959862709, -0.059531740844249725], [-0.026579512283205986, 0.01012756023555994, -0.032117512077093124, 0.02400408498942852, 0.007122129667550325], [-0.01954684406518936, 0.02631509117782116, 0.04417330399155617, -0.00857469905167818, -0.002964015118777752], [0.0971740111708641, 0.10330830514431, -0.053840816020965576, -0.01341657992452383, -0.06129140406847]], [[-0.03945317491889, -0.0254294965416193, -0.03891092538833618, -0.033005502074956894, 0.00024304196995217353], [-0.023333551362156868, 0.02778618223965168, -0.008719091303646564, 0.02767525240778923, -0.005694243125617504], [0.04387715831398964, -0.04334636777639389, -0.11142314225435257, 0.03472401946783066, 0.057970546185970306], [-0.009767990559339523, -0.04340044781565666, -0.0671406164765358, 0.02785986103117466, 0.11193089187145233], [0.015523477457463741, -0.03312389925122261, 0.02931329235434532, 0.09278041869401932, 0.07316941022872925]]], [[[0.08120299130678177, -0.021328136324882507, -0.03405975177884102, -0.0643557757139206, -0.060213759541511536], [0.11455552279949188, 0.05538134649395943, 0.03584591671824455, -0.049893707036972046, 0.06396517157554626], [-0.04828658327460289, -0.03651027753949165, -0.08173429220914841, -0.01172700896859169, 0.06015201658010483], [-0.0035789913963526487, 0.004612864460796118, 0.030592061579227448, -0.014349186792969704, -0.05424635484814644], [-0.03497997298836708, 0.07676144689321518, 0.06407228857278824, 0.08367200940847397, 0.03221653401851654]], [[0.012569796293973923, -0.02913043275475502, 0.018799571320414543, -0.01028828602284193, -0.013739416375756264], [0.0016057747416198254, -0.07597653567790985, -0.024592243134975433, -0.015819476917386055, 0.012715557590126991], [0.029136184602975845, 0.022764597088098526, 0.0017924468265846372, -0.07468518614768982, -0.07946015149354935], [-0.06290460377931595, -0.029241470620036125, -0.02579856477677822, -0.01329457014799118, -0.07242485880851746], [-0.053073834627866745, -0.025468839332461357, 0.12124593555927277, -0.04178979620337486, -0.13708141446113586]], [[-0.004937408026307821, -0.01908888854086399, -0.07647315412759781, -0.11737921833992004, -0.12861643731594086], [-0.028754672035574913, -0.018806718289852142, 0.0032815965823829174, 0.003921344876289368, -0.0675906240940094], [-1.612606502021663e-05, -0.06604568660259247, -0.054374270141124725, -0.05911649391055107, -0.0773254930973053], [-0.09709248691797256, -0.02892027050256729, 0.10265018045902252, 0.014673749916255474, -0.07654362171888351], [-0.04269619286060333, -0.05794554948806763, 0.05276695638895035, -0.05479715019464493, 0.00427321856841445]], [[-0.037321582436561584, 0.04412813484668732, -0.02853686548769474, -0.024163424968719482, -0.015621790662407875], [0.020114874467253685, 0.04182366281747818, -0.028306107968091965, 0.017141081392765045, 0.013789278455078602], [-0.08141088485717773, 0.03333180770277977, -0.10972262918949127, -0.011614392511546612, -0.06830073148012161], [0.017191842198371887, 0.0012896715197712183, 0.009016461670398712, 0.04462415724992752, -0.006431558169424534], [0.03722367435693741, -0.07530001550912857, -0.0020732481498271227, 0.029461944475769997, 0.0043851519003510475]], [[0.07646606117486954, 0.053854260593652725, -0.11422249674797058, 0.05158540606498718, 0.00463327718898654], [0.1147906482219696, 0.02907176874577999, 0.04210492968559265, -0.06889452040195465, 0.06426729261875153], [0.0002711529959924519, 0.07285918295383453, 0.009806635789573193, -0.17719651758670807, -0.11881297826766968], [-0.12558916211128235, 0.058473680168390274, 0.016901779919862747, -0.03755563870072365, -0.08874435722827911], [-0.03393266350030899, 0.027200020849704742, 0.06786397844552994, -0.052547555416822433, -0.08758024126291275]], [[-0.0328720360994339, -0.03455033525824547, 0.08425460755825043, 0.03916511684656143, 0.1229235827922821], [0.07869715988636017, -0.08308368921279907, 0.06617124378681183, -0.03935716673731804, 0.06330990791320801], [-0.006094071082770824, -0.023254457861185074, 0.06454648077487946, -0.027338987216353416, 0.05920005962252617], [-0.005830781999975443, -0.017757343128323555, -0.0021998167503625154, 0.025086015462875366, -0.07585544139146805], [0.04020445793867111, 0.022165076807141304, 0.06368674337863922, -0.005471179261803627, -0.016843223944306374]], [[0.006920300889760256, -0.03527124226093292, 0.014398499391973019, 0.049423184245824814, 0.04466375708580017], [0.004446796141564846, -0.00331092718988657, -0.009548399597406387, 0.060842107981443405, 0.059872351586818695], [-0.054098941385746, -0.13054320216178894, -0.02393498830497265, -0.07713516056537628, -0.01952531188726425], [-0.06038544327020645, -0.07961906492710114, 0.014501639641821384, 0.10915571451187134, -0.06697303056716919], [-0.06572211533784866, -0.03507600352168083, 0.0303088016808033, -0.004813820589333773, 0.024548618122935295]], [[0.01825038529932499, 0.02547561377286911, -0.10286647826433182, -0.1255253255367279, -0.06235891953110695], [0.0756932869553566, 0.018703438341617584, -0.10883492976427078, -0.06408204138278961, -0.028325319290161133], [0.014465930871665478, 0.04922160878777504, 0.012243786826729774, -0.10933756083250046, 0.03318749740719795], [-0.007447294890880585, 0.005147760733962059, 0.000606130575761199, -0.04373377934098244, -0.046211499720811844], [0.033526383340358734, -0.0551588274538517, 0.0027253301814198494, -0.019242476671934128, -0.03247983753681183]], [[-0.007526047993451357, 0.08656110614538193, 0.04827647656202316, 0.03787805140018463, 0.07288365066051483], [-0.03254212811589241, 0.06900842487812042, 0.06862136721611023, -0.01705976203083992, 0.060103170573711395], [-0.048276420682668686, -0.012843606993556023, 0.016602955758571625, -0.05306002125144005, 0.028861796483397484], [-0.10690509527921677, -0.07437928766012192, -0.030031342059373856, -0.06026463210582733, -0.013419341295957565], [0.05603012070059776, 0.04326535761356354, 0.08374270051717758, -0.0229815524071455, -0.11006519198417664]], [[0.01108601875603199, 0.01824735663831234, 0.04727372154593468, -0.03442108631134033, -0.06832920014858246], [0.03472786769270897, -0.012019109912216663, -0.02076798863708973, 0.04378166422247887, 0.058394115418195724], [-0.031522490084171295, -0.02459905669093132, -0.029219886288046837, 0.015603624284267426, -0.06293459236621857], [-0.042914241552352905, 0.038112822920084, 0.0387810543179512, 0.04665679112076759, 0.08168565481901169], [0.01030809711664915, 0.03614185377955437, 0.04490821808576584, 0.0186401829123497, 0.0485725961625576]], [[-0.06038798391819, 0.022812495008111, -0.0359090156853199, 0.03812330216169357, -0.07504601031541824], [0.04780074208974838, 0.007516860496252775, -0.09090419858694077, -0.06082651764154434, 0.028222892433404922], [0.028979957103729248, 0.08106235414743423, -0.05965830385684967, -0.09067538380622864, -0.0022713139187544584], [-0.05822410807013512, 0.10152462124824524, -0.01932849921286106, -0.07664245367050171, 0.02819279208779335], [0.0018390865297988057, 0.0636739656329155, 0.14275838434696198, -0.04064599424600601, 0.02070501446723938]], [[0.025594666600227356, -0.053958844393491745, -0.023766305297613144, -0.0021972779650241137, 0.04327632859349251], [-0.04492657631635666, -0.03351563215255737, 0.058649852871894836, 0.034309640526771545, 0.010314646176993847], [-0.10950062423944473, -0.06781653314828873, -0.03492496535181999, 0.022769708186388016, -0.07224000990390778], [-0.07931417971849442, -0.07315056025981903, 0.07270485162734985, -0.003872187342494726, 0.010995758697390556], [-0.10344269126653671, -0.01192513108253479, 0.03971749544143677, 0.09429007768630981, 0.04930325597524643]], [[-0.0843869149684906, -0.03796200081706047, 0.08672408014535904, 0.03533286973834038, 0.059069085866212845], [-0.022030478343367577, 0.10264898091554642, 0.06930360198020935, 0.07930825650691986, -0.009884785860776901], [-0.025545069947838783, -0.0010956693440675735, 0.04592239484190941, 0.01537796575576067, 0.0004887062823399901], [-0.06612829864025116, 0.030737586319446564, 0.026869220659136772, -0.05129658058285713, -0.04735300689935684], [-0.10666925460100174, -0.024265220388770103, 0.07452141493558884, -0.013213997706770897, -0.08349503576755524]], [[-0.03322803974151611, 0.010001948103308678, 0.11692865192890167, -0.02711200900375843, 0.016432171687483788], [-0.05177086964249611, 4.341010935604572e-05, 0.08733972162008286, 0.0031883104238659143, -0.00238956231623888], [-0.08019085973501205, 0.026201613247394562, 0.05710209906101227, -0.06113586202263832, -0.008876499719917774], [-0.14126737415790558, 0.024619782343506813, 0.022396452724933624, 0.005990977399051189, -0.028530152514576912], [-0.036711759865283966, 0.0460122711956501, 0.0704316720366478, -0.033384136855602264, -0.05415394529700279]], [[0.09901977330446243, 0.015406434424221516, -0.04928881675004959, -0.016751613467931747, -0.061016056686639786], [0.08539490401744843, 0.10839884728193283, -0.013650902546942234, -0.04178720712661743, 0.09014806896448135], [0.0598590262234211, 0.06655371934175491, -0.01869211718440056, -0.0016036072047427297, -0.04783640801906586], [0.04957320913672447, 0.00029420977807603776, 0.0775589793920517, -0.02833510749042034, -0.03955564275383949], [0.17218486964702606, -0.003773327451199293, 0.08646562695503235, 0.07917694002389908, -0.08806109428405762]], [[0.03525623306632042, -0.05882378667593002, -0.05206853896379471, -0.06562711298465729, -0.10115382820367813], [0.046377912163734436, -0.029250547289848328, -0.04478607699275017, -0.014378119260072708, 0.0413777194917202], [0.023902691900730133, -0.06019908934831619, -0.04702725261449814, -0.06519026309251785, 0.03792653977870941], [-0.05125579610466957, -0.046225130558013916, -0.0801435261964798, 0.025049591436982155, 0.020387694239616394], [-0.05100467801094055, -0.01463425811380148, 0.005885047372430563, 0.0003624098899308592, -0.011855908669531345]]], [[[0.031525030732154846, 0.0035700423177331686, -0.10809575021266937, -0.11551541090011597, -0.028367727994918823], [0.07132931798696518, -0.05140939727425575, -0.060391977429389954, -0.010803324170410633, 0.0031137014739215374], [0.004471376538276672, -0.05179213359951973, -0.10360189527273178, -0.01578224077820778, 0.014813794754445553], [-0.03766287490725517, -0.03174707666039467, -0.13814523816108704, -0.046902135014534, -0.035182222723960876], [0.004074845463037491, 0.013028095476329327, -0.07156256586313248, 0.049260541796684265, 0.024310899898409843]], [[-0.03561019524931908, -0.049685634672641754, 0.0632115826010704, 0.07332146912813187, 0.06016657501459122], [-0.04315320402383804, -0.008042534813284874, 0.10032648593187332, 0.019066141918301582, 0.0240588691085577], [-0.027486898005008698, 0.021481050178408623, 0.08269564062356949, 0.004023103043437004, -0.06102344021201134], [-0.0763750895857811, -0.019428851082921028, 0.12708374857902527, -0.019062479957938194, 0.00804747175425291], [-0.01498094480484724, -0.07326729595661163, 0.0849914476275444, -0.0012750844471156597, -0.022770043462514877]], [[-0.08300576359033585, -0.11263155937194824, -0.04872250184416771, -0.0455995574593544, 0.00746493972837925], [0.014698105864226818, 0.05143449082970619, 0.035446446388959885, -0.0645766630768776, -0.028855469077825546], [0.0872795432806015, -0.06497042626142502, -0.09728863090276718, 0.02014312334358692, 0.06114959716796875], [-0.07362552732229233, -0.0648282840847969, -0.1371699869632721, -0.04453514516353607, 0.11537439376115799], [-0.04731859639286995, -0.04631222411990166, -0.0934978723526001, -0.0015004558954387903, 0.0926404520869255]], [[-0.07175712287425995, -0.06330075114965439, -0.009757067076861858, 0.03155168518424034, -0.024003129452466965], [-0.0282063577324152, -0.06155220791697502, 0.04205077141523361, -0.004731778986752033, 0.02965017408132553], [-0.044065482914447784, -0.013803796842694283, 0.03844111040234566, 0.07424039393663406, -0.042698998004198074], [0.022969642654061317, 0.04731326550245285, 0.06905390322208405, 0.01929520070552826, 0.06600537151098251], [-0.07562766224145889, -0.028567971661686897, 0.0022761067375540733, -0.03201381489634514, -0.002252876991406083]], [[0.018299654126167297, -0.0326763279736042, 0.025487685576081276, 0.006610829848796129, 0.07639577984809875], [0.052378084510564804, 0.01872493512928486, -0.03316968306899071, -0.015447708778083324, 0.03481287881731987], [-0.013368908315896988, 0.0590323805809021, 0.027998769655823708, 0.016210366040468216, -0.07191027700901031], [0.04361831396818161, -0.07615667581558228, -0.03061509132385254, -0.04882238060235977, -0.05639394000172615], [0.003837273921817541, -0.07268667221069336, -0.02562742307782173, -0.05301184207201004, -0.09169193357229233]], [[0.043899741023778915, 0.05386045202612877, -0.06370216608047485, -0.002768296515569091, -0.05645743012428284], [0.0822654664516449, 0.03465772420167923, -0.002922885352745652, -0.006958424113690853, -0.015428091399371624], [0.013287651352584362, -0.07974430918693542, -0.05651509761810303, -0.004752470646053553, 0.020010976120829582], [-0.02004723809659481, -0.03364274278283119, -0.07486367970705032, 0.046043556183576584, -0.07793547213077545], [0.06539415568113327, -0.007505648769438267, -0.08671862632036209, -0.03093147464096546, 0.01896512694656849]], [[0.033186234533786774, 0.08548431843519211, -0.042291976511478424, 0.019007395952939987, -0.029570238664746284], [0.02260037325322628, 0.003928280435502529, 0.0006598964682780206, 0.040034420788288116, 0.10549253970384598], [0.013859797269105911, -0.035027503967285156, 0.04666757211089134, -0.010327469557523727, 0.07045604288578033], [-0.03654410317540169, -0.010088702663779259, 0.04800782352685928, 0.018362555652856827, -0.04175358638167381], [0.04888556897640228, 0.005734809674322605, 0.10789009183645248, 0.007767764385789633, -0.04339265450835228]], [[0.027567613869905472, -0.11113935708999634, -0.03252727910876274, -0.017366856336593628, 0.06473446637392044], [0.045985907316207886, 0.07241547107696533, 0.01514392253011465, 0.04227767884731293, 0.05651106312870979], [0.037875398993492126, 0.07277140766382217, 0.0035108118318021297, -0.005197405815124512, 0.022486984729766846], [0.05644088238477707, -0.018097078427672386, -0.036952998489141464, 0.02162819355726242, -0.045373763889074326], [-0.02460474707186222, -0.016917595639824867, 0.015558316372334957, 0.03863713517785072, 0.0477120615541935]], [[0.08040378242731094, 0.021146010607481003, -0.008151432499289513, 0.0033070703502744436, -0.006005518138408661], [0.06763003021478653, -0.030317239463329315, -0.0049813780933618546, 0.07019642740488052, 0.10180813819169998], [-0.030367741361260414, 0.011516887694597244, -7.864861254347488e-05, 0.02043544501066208, 0.08761990815401077], [-0.018526893109083176, 0.051576681435108185, 0.13183557987213135, 0.011335311457514763, 0.004119433928281069], [0.0808635875582695, 0.08124493807554245, 0.09970852732658386, 0.0042131207883358, 0.01471621636301279]], [[0.05168500170111656, -0.009117170237004757, -0.055511534214019775, -0.0969778373837471, 0.004285997245460749], [0.007028208579868078, -0.0712025836110115, -0.07618237286806107, 0.011482744477689266, 6.656307959929109e-05], [0.03288117051124573, 0.05509044602513313, 0.004612216260284185, -0.10569395124912262, 0.010141800157725811], [0.01617087423801422, -0.014569839462637901, -0.07018885016441345, -0.019148116931319237, 0.09258317947387695], [0.016588056460022926, 0.001619937364012003, -0.12470287829637527, -0.07128027081489563, 0.09274192154407501]], [[-0.043595779687166214, -0.07998622953891754, 0.04867372661828995, -0.015389794483780861, -0.005612843669950962], [-0.17139451205730438, -0.05355849862098694, 0.08392412960529327, 0.034971147775650024, 0.10693127661943436], [-0.052985526621341705, -0.07296497374773026, 0.07057996094226837, -0.07741294801235199, -0.015531242825090885], [0.04047514870762825, 0.008178716525435448, 0.0831618383526802, 0.0012581003829836845, -0.008235129527747631], [-0.06762456148862839, 0.017198314890265465, 0.054128631949424744, -0.07211484760046005, -0.03418253734707832]], [[-0.025313137099146843, -0.01017829217016697, -0.03865082934498787, -0.02067047357559204, -0.0768156424164772], [0.028087181970477104, -0.10265935212373734, 0.005120899528264999, -0.04401983320713043, 0.005603198427706957], [-0.007677905261516571, -0.11565260589122772, 0.07591229677200317, 0.057687386870384216, -0.017425695434212685], [0.043399009853601456, -0.04583580791950226, 0.04399990662932396, 0.09811243414878845, -0.06611830741167068], [0.06770696491003036, -0.014942468143999577, 0.058112043887376785, 0.03256351873278618, -0.04441453516483307]], [[0.012911452911794186, -0.02661406248807907, -0.05117828771471977, -0.06785988062620163, -0.027968144044280052], [-0.04989604279398918, 0.033390533179044724, -0.11653778702020645, -0.06821957975625992, 0.01655210368335247], [-0.07092908024787903, 0.029100997373461723, -0.11146115511655807, -0.08737242966890335, 0.03687679395079613], [-0.009761936962604523, 0.06470084935426712, -0.1063368022441864, -0.0010982854291796684, 0.05208786576986313], [-0.022787053138017654, 0.04177673161029816, -0.06055081635713577, -0.08101765811443329, 2.450213833071757e-05]], [[-0.012634648941457272, 0.038458339869976044, -0.00892074778676033, 0.0803929790854454, 0.043540894985198975], [0.021805038675665855, 0.16618920862674713, -0.08714326471090317, 0.0018479821737855673, -0.02425781823694706], [0.06067510321736336, 0.07980134338140488, 0.09612908214330673, -0.007212600205093622, -0.045828111469745636], [-0.009029646404087543, 0.015033748932182789, 0.037008099257946014, -0.03131147101521492, 0.023946350440382957], [-0.11631257832050323, 0.05141745135188103, 0.009472806937992573, -0.09896733611822128, -0.012321056798100471]], [[0.06523123383522034, -0.033483609557151794, -0.06420614570379257, 0.043244071304798126, 0.021040331572294235], [0.0050454470328986645, -0.05777880549430847, -0.043279774487018585, -0.013322697021067142, -0.06449604779481888], [-0.0036431546323001385, -0.04844041168689728, -0.09659300744533539, 0.030216019600629807, 0.05858178809285164], [0.04924614727497101, -0.06592324376106262, -0.056946586817502975, 0.07629254460334778, -0.11735101044178009], [0.09754965454339981, -0.0018400570843368769, -0.01309927273541689, 0.059652917087078094, 0.00012779685494024307]], [[0.018807463347911835, 0.0977146103978157, 0.09646318852901459, 0.04901961609721184, -0.017744870856404305], [0.040133316069841385, 0.08853211253881454, 0.12532612681388855, 0.07990878075361252, -0.03861489146947861], [-0.0388115718960762, 0.052019912749528885, -0.011426308192312717, -0.019080303609371185, -0.014116058126091957], [0.09908922016620636, 0.04134369269013405, -0.025529149919748306, -0.1101716160774231, 0.03774908930063248], [0.06194787472486496, -0.02190527319908142, -0.0333535261452198, 0.012142063118517399, 0.0402350053191185]]], [[[-0.06432215124368668, 0.10238076001405716, 0.06295153498649597, -0.05360138788819313, 0.07953006774187088], [0.019292380660772324, -0.07421344518661499, -0.0018171637784689665, -0.0888824462890625, 0.011237423866987228], [0.004190278705209494, -0.04535107687115669, -0.06266217678785324, -0.009744546376168728, 0.0055600921623408794], [0.0705295279622078, -0.02564065530896187, -0.015681371092796326, -0.020172351971268654, 0.09390839189291], [0.0479256846010685, 0.026268664747476578, -0.043085724115371704, 0.011829963885247707, 0.017773790284991264]], [[-0.11331550031900406, 0.0006260178633965552, -0.019354963675141335, 0.05420519784092903, 0.01824244111776352], [-0.020449664443731308, -0.09870363771915436, 0.0028267691377550364, 0.10327153652906418, 0.03671234846115112], [0.029530147090554237, -0.031088532879948616, 0.008113780058920383, -0.03379695490002632, -0.037859540432691574], [0.0876934602856636, -0.03414973244071007, -0.028797615319490433, 0.04817090928554535, 0.03621136024594307], [0.010429279878735542, -0.02944418601691723, 0.07341213524341583, -0.016367800533771515, 0.10634706169366837]], [[-0.008696981705725193, -0.015768004581332207, -0.07331538200378418, 0.07195641845464706, 0.021757230162620544], [-0.03499876707792282, 0.01801246404647827, -0.07520511746406555, 0.027541091665625572, 0.010429085232317448], [0.011683839373290539, 0.06927022337913513, 0.0072177704423666, -0.07944069057703018, -0.10948346555233002], [-0.001960260793566704, -0.01113329827785492, 0.034564509987831116, 0.11359382420778275, 0.05232752859592438], [-0.06608355790376663, -0.0656508058309555, -0.007509307935833931, -0.009543165564537048, 0.0006581369088962674]], [[-0.08498357236385345, 0.09389404952526093, -0.16355089843273163, -0.0005061502452008426, -0.02371002733707428], [-0.029936762526631355, 0.004713946487754583, -0.07492750883102417, 0.059880953282117844, 0.03390321880578995], [-0.0038275241386145353, 0.031111866235733032, -0.08033618330955505, -0.10201939195394516, -0.009697472676634789], [0.03920625150203705, -0.06397856771945953, -0.1012224555015564, -0.022577449679374695, 0.004211985971778631], [-0.019521476700901985, 0.00568529823794961, -0.018139274790883064, 0.024969616904854774, -0.00790473259985447]], [[-0.032528992742300034, -0.025325436145067215, 0.05861615389585495, 0.032134003937244415, 0.0060696713626384735], [-0.037964075803756714, 0.06265201419591904, 0.07841029763221741, 0.021724622696638107, -0.03172968700528145], [0.0315609835088253, 0.03202073276042938, -0.11125282198190689, -0.021647347137331963, 0.03761313483119011], [0.00998380035161972, -0.011523575522005558, 0.011716299690306187, -0.009068727493286133, 0.013897661119699478], [0.06025385111570358, -0.07310520112514496, 0.063346266746521, -0.009478375315666199, -0.029044050723314285]], [[0.002699436154216528, -0.019782884046435356, 0.005458714906126261, -0.002951965667307377, 0.036430757492780685], [0.11549990624189377, -0.06262874603271484, -0.008716161362826824, -0.014283852651715279, 0.026111597195267677], [-0.06342432647943497, 0.0851890817284584, -0.03056139312684536, -0.06353916972875595, -0.07112409174442291], [-0.029259931296110153, 0.05027030035853386, 0.13164721429347992, 0.0583111047744751, -0.08390752226114273], [-0.02304183691740036, 0.016650380566716194, 0.03677604719996452, 0.05768362805247307, 0.06471431255340576]], [[-0.008291507139801979, -0.05009741708636284, 0.06603509932756424, -0.041976820677518845, 0.09472621977329254], [0.03786730766296387, 0.01598419062793255, -0.01087251678109169, 0.03766538202762604, -0.0013465664815157652], [-0.13315117359161377, -0.054396238178014755, 0.059929847717285156, 0.021270859986543655, -0.001697875326499343], [0.023186586797237396, 0.061739664524793625, -0.012464034371078014, 0.007990526966750622, 0.06366609781980515], [-0.01495201326906681, -8.556019020034e-05, -0.05257711187005043, -0.08280344307422638, 0.05143311619758606]], [[0.087061807513237, 0.07708974182605743, -0.0025620150845497847, -0.017507504671812057, -0.016826381906867027], [0.013830817304551601, 0.012362543493509293, -0.023457862436771393, -0.11742379516363144, 0.009144032374024391], [-0.03210562840104103, 0.046806760132312775, -0.002871043048799038, -0.019921651110053062, -0.02122589945793152], [-0.009577155113220215, -0.002177546499297023, 0.02290370687842369, 0.05122516304254532, 0.09305520355701447], [-0.03739616274833679, 0.07468679547309875, -0.034175220876932144, 0.013295699842274189, -0.05924070253968239]], [[-0.09589855372905731, 0.15152519941329956, 0.15485705435276031, 0.010817592963576317, -0.01752915419638157], [-0.031148502603173256, 0.10321053862571716, -0.04048775136470795, 0.08980024605989456, -0.001011822372674942], [0.062226712703704834, 0.03776969760656357, 0.0289955772459507, 0.015957044437527657, -0.05372599884867668], [0.04332214966416359, -0.03530052304267883, -0.02341523766517639, -0.1239677369594574, -0.04464411735534668], [0.010059884749352932, 0.041589587926864624, -0.02596314623951912, -0.053046684712171555, -0.04767567664384842]], [[-0.013359145261347294, -0.05811480060219765, -0.10001817345619202, 0.013437886722385883, 0.01711167022585869], [-0.06701362133026123, 0.012024274095892906, -0.05762788653373718, -0.009482832625508308, 0.05638512969017029], [-0.049929626286029816, -0.07027415186166763, -0.03104162961244583, 0.045981042087078094, 0.08248794078826904], [-0.05204491689801216, -0.03578641265630722, -0.0947614535689354, -0.11310292780399323, -0.034315090626478195], [-0.007927297614514828, -0.029171297326683998, -0.04920550808310509, -0.0048898053355515, -0.013370255008339882]], [[-0.09041516482830048, -0.056880827993154526, -0.0537681020796299, -0.06275051832199097, -0.06182844564318657], [-0.0571209117770195, -0.04648388549685478, -0.002900873776525259, 0.057490210980176926, 0.01398984994739294], [-0.060146819800138474, -0.049652326852083206, -0.03922441601753235, 0.018223663792014122, 0.02418542467057705], [-0.01892777532339096, 0.0017339133191853762, 0.05721770226955414, -0.06592157483100891, -0.10226919502019882], [0.02261064574122429, 0.031821273267269135, 0.028700189664959908, 0.06256464868783951, -0.040458034723997116]], [[-0.08728291839361191, -0.011682135052978992, -0.0580691397190094, -0.03511950373649597, 0.011568843387067318], [-0.00010433894931338727, -0.0049834479577839375, -0.07754254341125488, -0.027951693162322044, -0.061582423746585846], [0.008641161024570465, 0.0283140130341053, 0.04881911352276802, -0.08813882619142532, -0.04837885499000549], [-0.029430648311972618, -0.052966587245464325, -0.02501058019697666, -0.06600329279899597, 0.030942387878894806], [-0.021814001724123955, -0.07681248337030411, 0.018461646512150764, -0.01529230922460556, -0.025302940979599953]], [[0.03651503100991249, 0.01614236645400524, 0.0073685357347130775, 0.041947659105062485, -0.009374302811920643], [-0.050897467881441116, -0.019614413380622864, 0.0256150234490633, -0.010989158414304256, -0.021563595160841942], [-0.06324481964111328, -0.10178665816783905, -0.0552593432366848, 0.004967347253113985, -0.0394882932305336], [0.008441053330898285, -0.06069829314947128, -0.019582798704504967, -0.1099560484290123, -0.1004999428987503], [-0.06744275987148285, -0.06160271540284157, -0.040669605135917664, -0.08871440589427948, -0.019720757380127907]], [[-0.038312435150146484, -0.060330845415592194, 0.04014930874109268, -0.005111419130116701, 0.01168548222631216], [0.040240537375211716, -0.005534640979021788, 0.06458660215139389, 0.05516655743122101, 0.0014238781295716763], [-0.006442442070692778, -0.002114318311214447, -0.02791394665837288, -0.05119980126619339, -0.024257102981209755], [-0.03945372626185417, -0.0010640714317560196, 0.014631339348852634, -0.0141841359436512, -0.08206068724393845], [0.0010614236816763878, 0.014648746699094772, 0.09444063156843185, 0.031112365424633026, 0.042513422667980194]], [[-0.04499923437833786, 0.05571797117590904, 0.07434502989053726, 0.046857498586177826, -0.01636926829814911], [0.030970405787229538, -0.0014599759597331285, -0.07440455257892609, 0.014895424246788025, -0.022206658497452736], [0.035511624068021774, -0.01807439886033535, -0.06780386716127396, -0.1537093073129654, -0.05821492150425911], [-0.006645870395004749, -0.007839190773665905, 0.03975075110793114, 0.10511559993028641, 0.06863788515329361], [0.07059471309185028, -0.04643338918685913, 0.02434440702199936, -0.0217033252120018, 0.04062817245721817]], [[0.029482420533895493, 0.058468762785196304, -0.08556292951107025, -0.0027833529748022556, -0.09190580248832703], [-0.007730938494205475, 0.020426234230399132, -0.072674460709095, -0.016034763306379318, -0.028992675244808197], [0.028158731758594513, -0.020694216713309288, -0.144591823220253, 0.06920484453439713, -0.03813452646136284], [-0.07317212224006653, -0.11914035677909851, -0.15385626256465912, -0.0017370575806125998, -0.02675439789891243], [-0.057000771164894104, -0.05319423973560333, -0.056467052549123764, -0.09006176888942719, -0.1463487148284912]]], [[[0.0008282290073111653, 0.05016664043068886, 0.10010037571191788, 0.07591573148965836, -0.02717640809714794], [0.04540485888719559, -0.06075052544474602, -0.0019884363282471895, 0.04474373906850815, -0.02214711904525757], [0.004571217577904463, 0.09296198189258575, 0.08783533424139023, -0.0002495845255907625, -0.06740299612283707], [-0.04349939897656441, 0.04210769385099411, 0.007711774203926325, 0.038034770637750626, 0.06998208165168762], [-0.03767060115933418, 0.059750158339738846, 0.04998617246747017, -0.020530467852950096, 0.01635451428592205]], [[0.025121740996837616, 0.01819131150841713, 0.027137575671076775, 0.05173671990633011, 0.000849222531542182], [0.01701490208506584, 0.042870424687862396, -0.01341736875474453, 0.022362636402249336, -0.06003640964627266], [-0.0035688988864421844, -0.07179746776819229, -0.023971349000930786, -0.04828738048672676, -0.0006183622172102332], [-0.021661097183823586, -0.01165513414889574, -0.08508666604757309, -0.0777822881937027, 0.040908753871917725], [0.001447454560548067, 0.07362374663352966, 0.045466795563697815, -0.08183565735816956, 0.002241080394014716]], [[0.02219952829182148, -0.02973731979727745, 0.01430412195622921, 0.11890244483947754, 0.03669887036085129], [-0.021989021450281143, -0.003388989018276334, -0.08074641972780228, -0.03203918784856796, -0.005043193697929382], [-0.02629273012280464, 0.03231115639209747, -0.04039023071527481, 0.007191982585936785, 0.001763919834047556], [0.019366120919585228, 0.06047631427645683, 0.058954011648893356, 0.02034609206020832, -0.059022653847932816], [-0.0018184925429522991, 0.029783030971884727, -0.06345673650503159, 0.012360304594039917, 0.02750837802886963]], [[0.02810853347182274, 0.011321942321956158, -0.02732732892036438, -0.0031872065737843513, 0.03411562740802765], [0.03421229124069214, -0.013571135699748993, -0.05604904517531395, -0.015890564769506454, 0.08110281080007553], [-0.07165040075778961, -0.0544140562415123, -0.13263872265815735, -0.0294574536383152, 0.10391675680875778], [0.015427496284246445, 0.02517552487552166, -0.0006336602964438498, 0.005879777483642101, -0.008285537362098694], [0.0884343832731247, -0.012510844506323338, -0.08449897170066833, -0.01255227904766798, 0.03853348642587662]], [[0.0015047702472656965, -0.04638886824250221, 0.005285074468702078, 0.13023298978805542, 0.09580830484628677], [-0.044939007610082626, -0.06373271346092224, 0.03279918432235718, 0.08570811152458191, 0.05339765548706055], [-0.016986528411507607, -0.008957026526331902, -0.04980866238474846, -0.041366562247276306, -0.02080128900706768], [0.006658378057181835, -0.054207757115364075, -0.0924692153930664, -0.014767645858228207, -0.028178473934531212], [-0.0037778057157993317, 0.01949200965464115, -0.0319862924516201, -0.05546657741069794, -0.04244275018572807]], [[-0.011692994274199009, -0.0439855121076107, 0.053807906806468964, 0.025049574673175812, 0.012344278395175934], [-0.07153772562742233, -0.06701070815324783, -0.042309314012527466, -0.09793686121702194, -0.06703882664442062], [-0.04217628389596939, -0.031545933336019516, -0.004252498038113117, 0.03474576026201248, -0.09834736585617065], [-0.02093329280614853, -0.0182096678763628, -0.12016535550355911, 0.03724764287471771, -0.028816914185881615], [-0.11246021836996078, -0.002781865419819951, 0.025781523436307907, 0.03557375818490982, 0.05539428070187569]], [[-0.11687371879816055, 0.01108386367559433, 0.07933986186981201, -0.028041962534189224, 0.0030978780705481768], [0.026211028918623924, -0.03913460299372673, -0.038541581481695175, 0.008380085229873657, 0.07602478563785553], [0.05462293326854706, 0.07162080705165863, 0.0029353005811572075, 0.03691702336072922, 0.05941406637430191], [0.08784806728363037, 0.041119884699583054, -0.005477745085954666, -0.0021435257513076067, -0.01956380531191826], [-0.022435950115323067, 0.021096549928188324, 0.003424011869356036, -0.0020820002537220716, -0.013521130196750164]], [[-0.04828449338674545, 0.042572975158691406, -0.06396784633398056, 0.02434799075126648, -0.061624739319086075], [0.05532117933034897, -0.07786824554204941, -0.061689067631959915, 0.024661919102072716, -0.08421669900417328], [0.0895213633775711, 0.07354390621185303, 0.1152113750576973, 0.03141286224126816, -0.036193475127220154], [0.07322965562343597, 0.043113335967063904, 0.08061017096042633, -0.0001778087462298572, 0.0400516539812088], [0.03764459863305092, -0.023877406492829323, 0.04782598093152046, 0.07854586839675903, -0.1204165667295456]], [[-0.03998955711722374, -0.055693697184324265, 0.1231236681342125, -0.03229602798819542, 0.07261986285448074], [-0.040244992822408676, -0.13206902146339417, -0.03060959093272686, -0.053531795740127563, 0.11480039358139038], [0.09960217028856277, -0.19123169779777527, -0.022548431530594826, -0.03741370886564255, 0.09372477233409882], [-0.020033597946166992, -0.12170851975679398, -0.07426366209983826, -0.10353965312242508, -0.027677301317453384], [0.04456624016165733, -0.04403064399957657, 0.04718223959207535, -0.0491073839366436, -0.032862208783626556]], [[0.05075158551335335, 0.09718574583530426, 0.07496725022792816, 0.03189916908740997, -0.09611155837774277], [0.07140320539474487, 0.007320473901927471, -0.03922232985496521, -0.08459871262311935, 0.06119782105088234], [-0.021464191377162933, 0.08158021420240402, 0.05362390726804733, 0.041585005819797516, 0.01811516471207142], [-0.023000692948698997, -0.08111099153757095, 0.05361778661608696, 0.017508728429675102, -0.030247461050748825], [-0.019400840625166893, -0.04416290298104286, 0.07494506239891052, -0.003076206659898162, -0.020445842295885086]], [[-0.05014266446232796, -0.10301368683576584, 0.029963284730911255, 0.022095784544944763, -0.1007724329829216], [-0.014019429683685303, -0.09532550722360611, -0.12119646370410919, -0.03737235814332962, 0.035483308136463165], [0.043595749884843826, -0.069584421813488, 0.03488994017243385, 0.01124049536883831, -0.058142054826021194], [0.1072404533624649, -0.04481852427124977, -0.013317187316715717, -0.009108460508286953, -0.027047637850046158], [0.1155976951122284, -0.09591476619243622, -0.05787952244281769, 0.05116824433207512, -0.06572859734296799]], [[-0.045515671372413635, 0.07166305929422379, 0.04722757264971733, 0.09435688704252243, 0.06715109199285507], [0.07373299449682236, 0.007533223368227482, -0.014256427064538002, 0.13615188002586365, 0.03126130253076553], [-0.0007013721042312682, -0.0022858434822410345, -0.0811002254486084, 0.006638390477746725, 0.013350745663046837], [-0.014475325122475624, 0.04788488149642944, -0.022450899705290794, 0.015223105438053608, -0.034090183675289154], [0.04793437570333481, 0.03661627322435379, 0.08569526672363281, -0.047806303948163986, -0.030775228515267372]], [[-0.029383473098278046, -0.018197476863861084, -0.01888967491686344, 0.025032125413417816, 0.04422107711434364], [0.04603742063045502, -0.010807541199028492, 0.04162534326314926, 0.04035069793462753, 0.05125405266880989], [-0.03633692488074303, 0.014594200998544693, -0.1092941164970398, -0.054200246930122375, -0.0034218989312648773], [-0.05686941370368004, -0.09843647480010986, -0.05868799611926079, -0.04648028314113617, -0.03478538244962692], [0.012522950768470764, 0.00966614205390215, -0.048077844083309174, -0.020486943423748016, 0.007050924934446812]], [[-0.01684075966477394, 0.009674344211816788, 0.0017010817537084222, 0.0831904485821724, 0.00959165021777153], [-0.09417799860239029, -0.021912721917033195, 0.02258394844830036, -0.055750638246536255, -0.05486981198191643], [0.08879663795232773, 0.022199183702468872, 0.005573665257543325, -0.0519319549202919, -0.019917529076337814], [0.0006338874227367342, -0.051178187131881714, -0.04680706188082695, -0.023800702765583992, 0.0618511363863945], [0.024229828268289566, -0.03829801455140114, -0.07640718668699265, -0.09861377626657486, 0.020817473530769348]], [[-0.000956044823396951, 0.057868655771017075, -0.032488249242305756, -0.0695335865020752, -0.042431384325027466], [0.0046446798369288445, -0.0029989650938659906, -0.045563045889139175, -0.09784744679927826, -0.024303633719682693], [0.025778494775295258, 0.014080367051064968, -0.08997545391321182, 0.023077325895428658, 0.13346785306930542], [0.011218871921300888, 0.06932481378316879, 0.0885816141963005, -0.01829347386956215, -0.01521672960370779], [-0.09330501407384872, 0.0977301076054573, -0.03682941943407059, -0.08041276782751083, -0.05258532240986824]], [[-0.03537445515394211, 0.03248646482825279, -0.0006288863951340318, 0.02887667343020439, -0.016765164211392403], [0.024304784834384918, 0.07219626754522324, 0.06508893519639969, 0.1159844845533371, 0.03648292273283005], [0.049444179981946945, -0.019097136333584785, -0.005513159092515707, 0.14150376617908478, 0.05475325137376785], [0.03514023497700691, -0.058392059057950974, 0.04125272482633591, 0.022325774654746056, 0.07442822307348251], [0.03090812638401985, -0.05657673254609108, -0.04916731268167496, 0.022280005738139153, 0.03764732554554939]]], [[[0.06334071606397629, 0.046795740723609924, -0.09217569977045059, -0.05595208331942558, -0.11261588335037231], [-0.0006696353084407747, -0.008500772528350353, 0.06836815923452377, -0.082332082092762, -0.0446479432284832], [0.0357784666121006, 0.09165508300065994, -0.1075446680188179, -0.0714867115020752, -0.01023012213408947], [0.011773685924708843, -0.032315902411937714, -0.08712347596883774, -0.011337180621922016, 0.035318829119205475], [0.010388894937932491, 0.09088189899921417, -0.10429641604423523, 0.06025112792849541, 0.03505108132958412]], [[0.06444108486175537, -0.05590592697262764, -0.043080203235149384, 0.024654701352119446, 0.06839586794376373], [0.04001463204622269, -0.055228475481271744, -0.0020971454214304686, -0.038474202156066895, -0.10000404715538025], [-0.00040222040843218565, 0.015970461070537567, -0.0795886293053627, -0.07278706133365631, -0.0531364306807518], [-0.07705370336771011, 0.08821725845336914, -0.025196276605129242, -0.08781830221414566, 0.013902408070862293], [-0.011490984819829464, 0.03963403031229973, 0.022429008036851883, -0.013828224502503872, -0.008679776452481747]], [[0.12760116159915924, -0.025634681805968285, -0.03553161397576332, 0.055169735103845596, -0.01796906813979149], [-0.03341340273618698, 0.06914275884628296, 0.02744152955710888, -0.06338748335838318, -0.11688754707574844], [0.07753284275531769, 0.0209596399217844, -0.08262015134096146, -0.07933640480041504, -0.006826451513916254], [-0.005373052321374416, 0.02480795793235302, 0.10539617389440536, -0.04876871779561043, -0.01960873231291771], [0.02023470588028431, -0.017010893672704697, 0.04674191027879715, 0.0237834844738245, 0.05111965909600258]], [[-0.040638890117406845, 0.009110590443015099, -0.041852373629808426, 0.03370337560772896, -0.033261775970458984], [0.052187640219926834, 0.04011862725019455, 0.007486243732273579, 0.011530368588864803, -0.014426098205149174], [0.029465483501553535, 0.015895629301667213, -0.030321532860398293, 0.02283249795436859, 0.039084240794181824], [-0.08203175663948059, -0.016981370747089386, -0.03387411683797836, 0.04635448753833771, 0.05163678899407387], [0.021628299728035927, -0.010736257769167423, -0.03959447890520096, 0.06826271116733551, -0.015741955488920212]], [[0.044642962515354156, -0.03311057388782501, 0.059228744357824326, 0.0029628262855112553, -0.021412178874015808], [0.011733651161193848, 0.09646205604076385, 0.07069754600524902, 0.0015024285530671477, 0.1342732012271881], [0.05786442756652832, 0.008775036782026291, 0.07752138376235962, -0.03376055881381035, 0.05608075484633446], [-0.029846524819731712, -0.020292753353714943, -0.026013201102614403, -0.03322608023881912, 0.038107872009277344], [0.008281907066702843, 0.010534250177443027, -0.030292708426713943, 0.0869831070303917, -0.02696351893246174]], [[-0.035083308815956116, -0.1484016478061676, -0.008666004054248333, 0.024681774899363518, 0.05281578749418259], [-0.06987708806991577, -0.029287736862897873, 0.038219235837459564, 0.12753280997276306, 0.05682362988591194], [0.025496555492281914, -0.07152526080608368, -0.08704982697963715, 0.0004793366533704102, -0.03867296501994133], [0.07926003634929657, 0.025513816624879837, 0.060819584876298904, -0.054624658077955246, -0.06572046875953674], [-0.028645137324929237, -0.013635755516588688, -0.06225410848855972, -0.038093287497758865, -0.039127763360738754]], [[-0.019254261627793312, 0.05362265557050705, 0.00665997713804245, -0.10594318062067032, 0.00407782569527626], [-0.019438058137893677, -0.12986187636852264, -0.08435482531785965, -0.030909905210137367, 0.02612427808344364], [0.00017818108608480543, 0.05053076520562172, -0.007954378612339497, 0.024470951408147812, 0.04048653692007065], [0.06634834408760071, 0.032953303307294846, 0.00794609822332859, 0.026066694408655167, -0.08144783228635788], [-0.05409259721636772, -0.011047128587961197, -0.0012393852230161428, -0.04319863021373749, -0.0642840564250946]], [[-0.0032119068782776594, -0.029585760086774826, -0.07279622554779053, -0.0023040599189698696, 0.023096604272723198], [-0.05891755223274231, 0.05616220831871033, -0.018448689952492714, 0.026526324450969696, 0.039829425513744354], [-0.00633736839517951, 0.07199067622423172, -0.01962430775165558, -0.05918004363775253, -0.09847258031368256], [-0.01981079764664173, -0.05671467259526253, 0.027320032939314842, 0.1191687285900116, -0.030335938557982445], [0.045081425458192825, -0.005798417143523693, 0.04107208177447319, -0.06027214974164963, 0.0025734021328389645]], [[-0.11472228169441223, -0.0557415634393692, -0.007200940046459436, 0.0934637263417244, 0.10551866888999939], [-0.09312868863344193, 0.10062135756015778, -0.008362112566828728, 0.07495293021202087, 0.012495269067585468], [-0.08379987627267838, -0.09634356945753098, -0.014003879390656948, 0.0858878567814827, -0.028484806418418884], [0.03540567308664322, 0.0720953568816185, 0.04264841973781586, 0.010740582831203938, 0.006162331905215979], [-0.08547719568014145, -0.0035312192048877478, 0.00678022438660264, 0.022523127496242523, 0.04911581799387932]], [[-0.012356305494904518, 0.06380743533372879, 0.051472146064043045, 0.0007716325926594436, -0.022033942863345146], [0.06960025429725647, 0.009475138038396835, -0.008691122755408287, 0.048993632197380066, 0.029283147305250168], [-0.00857349019497633, 0.1124514564871788, 0.05202365666627884, 0.00895736925303936, -0.03299853578209877], [-0.00989481620490551, -0.0596981979906559, -0.020257258787751198, 0.011104599572718143, 0.0024076036643236876], [0.014951622113585472, 0.03821426257491112, -0.017851274460554123, -0.05796289071440697, -0.05829570069909096]], [[-0.022427963092923164, -0.06553974002599716, -0.03570141643285751, -0.08741680532693863, -0.10053147375583649], [-0.031746961176395416, 0.02135704644024372, -0.07985357940196991, -0.06913948059082031, 0.06389052420854568], [0.0632018968462944, 0.015400362201035023, -0.012585347518324852, -0.030058477073907852, 0.016116272658109665], [-0.023308759555220604, -0.13622578978538513, -0.10535712540149689, -0.09619878232479095, 0.04144836589694023], [0.06679698824882507, -0.008781920187175274, 0.05058269947767258, -0.061041440814733505, 0.05412613973021507]], [[0.0011131532955914736, -0.07668972760438919, -0.02677972801029682, 0.05694937705993652, -0.0442345030605793], [-0.006891225930303335, 0.08813892304897308, 0.031288329511880875, 0.0082587581127882, 0.037895042449235916], [0.08258119225502014, -0.1453951895236969, -0.001679092412814498, 0.02912040613591671, -0.004799406044185162], [-0.019361799582839012, -0.03950336575508118, -0.04894323647022247, -0.06753713637590408, -0.13754168152809143], [0.0019464315846562386, -0.05425839498639107, 0.043613251298666, -0.014149467460811138, -0.06531990319490433]], [[-0.010799074545502663, 0.021111611276865005, 0.023459097370505333, -0.01662454754114151, -0.014731151983141899], [-0.03400212153792381, -0.005671534221619368, -0.01736624538898468, -0.03687846288084984, -0.024466199800372124], [-0.013792491517961025, 0.029498079791665077, -0.036733485758304596, -0.0275126826018095, 0.025571290403604507], [0.01367190107703209, -0.022695589810609818, -0.007778585888445377, 0.01711612567305565, -0.00011979309056187049], [0.024807538837194443, 0.0060044326819479465, -0.03161974623799324, 0.015925781801342964, 0.0443069264292717]], [[-0.05688547343015671, -0.12831850349903107, -0.1781640201807022, -0.022410085424780846, -0.09592033922672272], [-0.07976215332746506, -0.10560079663991928, -0.03431906923651695, 0.04070909693837166, 0.14823569357395172], [0.015562194399535656, 0.03316603973507881, -0.004231192637234926, 0.06607171893119812, 0.0622587725520134], [0.016278715804219246, 0.05713649094104767, -0.010256156325340271, 0.09007511287927628, -0.026362048462033272], [0.044274892657995224, -0.04268096014857292, -0.038030292838811874, 0.05654669180512428, 0.058664094656705856]], [[-0.051407620310783386, -0.009504484012722969, 0.03199092671275139, 0.018470527604222298, 0.016997138038277626], [0.011340607888996601, 0.045350082218647, 0.11969466507434845, 0.015973331406712532, -0.05960288643836975], [0.007087036967277527, 0.013392860069870949, -0.011192161589860916, -0.04222012311220169, -0.06670133024454117], [0.009957737289369106, 0.06917933374643326, 0.09608662873506546, 0.04351872578263283, 0.03714737668633461], [0.006578153930604458, -0.03471033647656441, 0.015011326409876347, 0.01512830052524805, -0.013842925429344177]], [[0.08211773633956909, 0.15438875555992126, 0.04525529220700264, 0.09200455993413925, -0.0050848135724663734], [0.09194554388523102, 0.09530158340930939, -0.016986588016152382, 0.020637188106775284, -0.01725083962082863], [-0.014207923784852028, -0.0032211383804678917, 0.009357948787510395, 0.058796778321266174, 0.034758806228637695], [0.025984356179833412, -0.04661541432142258, 0.04075310379266739, 0.11244270950555801, 0.1381947547197342], [-0.005328619387000799, -0.06230108067393303, -0.02791895531117916, 0.006724030710756779, 0.014938279055058956]]], [[[-0.02168447896838188, -0.023046618327498436, 0.04878891259431839, 0.016563275828957558, 0.04520324617624283], [0.013646678999066353, -0.07090972363948822, 0.07778461277484894, -0.015542933717370033, -0.010330998338758945], [-0.10754387825727463, 0.034729182720184326, 0.12912990152835846, 0.10449351370334625, 0.043687622994184494], [-0.07813592255115509, -0.1350112110376358, 0.05484047904610634, -0.06156159192323685, -0.019166933372616768], [-0.053664978593587875, 0.11097642034292221, -0.048210691660642624, -0.08650694787502289, -0.0045829289592802525]], [[0.02437400631606579, 0.0548960380256176, -0.07334333658218384, -0.07226680964231491, -0.016869762912392616], [0.04737737774848938, 0.023694699630141258, 0.011353733018040657, -0.037329647690057755, -0.09907466173171997], [0.025281202048063278, 0.07902155071496964, 0.07167129218578339, 0.005514945834875107, -0.06185867637395859], [0.011792653240263462, 0.00036115088732913136, 0.14894263446331024, 0.08857658505439758, -0.018922939896583557], [-0.0032070674933493137, 0.015766479074954987, 0.01415370311588049, 0.020431233569979668, 0.06966311484575272]], [[0.003253958420827985, -0.03588530421257019, -0.08772572129964828, 0.11528726667165756, -0.023732895031571388], [0.02167299948632717, -0.04544859752058983, -0.06806422770023346, 0.052726440131664276, 0.04085279256105423], [0.06531156599521637, 0.025501200929284096, 0.05188550427556038, 0.040687479078769684, 0.0454537495970726], [0.014334731735289097, -0.08368878066539764, -0.01807536371052265, 0.04257781058549881, -0.021645529195666313], [-0.04432326927781105, -0.005126845091581345, 0.0011970482300966978, -0.06852036714553833, 0.013651498593389988]], [[0.01493445597589016, 0.030964162200689316, -0.07201217114925385, -0.05119779706001282, 0.03555159270763397], [-0.03344764932990074, -0.049191392958164215, -0.05754370987415314, 0.03409625589847565, 0.035044144839048386], [-0.03775300458073616, 0.05331810936331749, -0.11732488125562668, -0.0373162217438221, -0.008124910295009613], [-0.06667262315750122, -0.05213606730103493, -0.0898345410823822, 0.032211124897003174, -0.13865719735622406], [-0.03948184847831726, -0.02321971021592617, -0.011224894784390926, 0.1263868361711502, 0.013762368820607662]], [[0.04247686266899109, -0.011499962769448757, -0.04034390300512314, -0.07026185840368271, -0.06517618894577026], [0.0009343191632069647, -0.05898645520210266, -0.053026776760816574, -0.062008026987314224, -0.06026731804013252], [-0.03161937743425369, -0.019594911485910416, 0.015210996381938457, -0.08555346727371216, -0.07613124698400497], [-0.04735428839921951, -0.08412646502256393, 0.16484437882900238, -0.031434834003448486, -0.03137630969285965], [-0.11598005890846252, -0.05639122053980827, 0.04884753003716469, -0.013765314593911171, -0.09673073887825012]], [[-0.0036970984656363726, -0.06420005112886429, 0.0008452596957795322, -0.04439129680395126, -0.08457181602716446], [0.028316320851445198, 0.03164271265268326, -0.07866697758436203, -0.08557596802711487, -0.05426233634352684], [-0.07435356825590134, 0.05961522459983826, -0.13644498586654663, -0.1418052464723587, -0.12119791656732559], [0.003654462518170476, 0.020698796957731247, -0.0686788409948349, -0.04571548476815224, -0.0630161464214325], [0.025606798008084297, 0.011616234667599201, 0.006722580175846815, -0.01583823189139366, 0.014843751676380634]], [[0.05771593004465103, -0.011848954483866692, 0.012305663898587227, -0.09882690757513046, -0.06747302412986755], [-0.014483407139778137, -0.04686140641570091, 0.08294931054115295, 0.004102067556232214, -0.029174596071243286], [-0.03808918222784996, -0.12548920512199402, -0.006226800382137299, 0.05637850984930992, 0.042501937597990036], [-0.03463984280824661, 0.0330166332423687, 0.018505537882447243, 0.062083110213279724, -0.0075396327301859856], [-0.04265541210770607, -0.007529576309025288, 0.019688885658979416, 0.06414850801229477, 0.06299597769975662]], [[-0.013558217324316502, 0.0477653369307518, -0.04485489800572395, -0.06112956255674362, -0.021252255886793137], [-0.037977010011672974, -0.020433111116290092, -0.01606505922973156, -0.07482419162988663, 0.022046804428100586], [-0.07080499082803726, -0.007458127103745937, 0.07650889456272125, 0.11816899478435516, 0.07425548136234283], [-0.16255567967891693, -0.12038806080818176, 0.08751039206981659, -0.004918819293379784, 0.06014886870980263], [0.009721443988382816, -0.01659548655152321, 0.019295742735266685, 0.029527271166443825, -0.03294828534126282]], [[-0.012984971515834332, -0.08402472734451294, -0.03270186483860016, -0.08700919896364212, -0.05100998654961586], [0.09814050048589706, 0.041170231997966766, 0.05971802398562431, -0.07088250666856766, 0.01021722424775362], [0.005853152833878994, 0.06886298954486847, -0.005234684329479933, -0.04910089075565338, -0.09367971867322922], [0.00712962169200182, 0.045316752046346664, 0.008745787665247917, -0.0173414945602417, -0.06402287632226944], [-0.018961336463689804, -0.023710142821073532, -0.048502109944820404, 0.046608421951532364, -0.007696704939007759]], [[-0.017315488308668137, -0.03631574288010597, 0.01241261139512062, -0.08184520900249481, -0.07401204109191895], [0.008984877727925777, 0.012146951630711555, -0.012406467460095882, 0.015090066939592361, -0.0012976782163605094], [-0.04079137742519379, -0.05102255195379257, -0.02650301717221737, 0.06119459494948387, 0.1330101639032364], [-0.04089890047907829, 0.08081483840942383, -0.005173312500119209, 0.1106123998761177, 0.072147436439991], [0.015841513872146606, 0.010297420434653759, 0.04398953542113304, -0.019676465541124344, 0.0024523434694856405]], [[0.015969108790159225, -0.04762778431177139, -0.02636728622019291, 0.020455026999115944, 0.05913625285029411], [0.08584679663181305, -0.05602025240659714, 0.012925583869218826, -0.07840833812952042, 0.06917320191860199], [0.02990969456732273, 0.04030637815594673, 0.08546359091997147, -0.06419598311185837, -0.07860039174556732], [0.12068023532629013, 0.07389853894710541, 0.11928471177816391, 0.013288178481161594, -0.13723188638687134], [0.05116712674498558, 0.016955282539129257, 0.1175626888871193, 0.1038072481751442, 0.005822440143674612]], [[0.018595051020383835, -0.04050767794251442, 0.015120728872716427, -0.06353063881397247, 0.018300998955965042], [-0.005876179784536362, 0.03839971125125885, -0.06054369732737541, 0.006769916042685509, -0.03830728679895401], [0.008621900342404842, 0.08313272893428802, 0.03426903858780861, -0.02971179224550724, -0.0540713295340538], [-0.05844398960471153, 0.06098532676696777, -0.008903381414711475, 0.0033219712786376476, 0.010468496941030025], [0.01588897407054901, -0.05540319159626961, -0.06800688803195953, -0.05675571411848068, -0.019634129479527473]], [[0.014808564446866512, -0.012006500735878944, 0.006092365365475416, -0.025932036340236664, -0.0601978562772274], [-0.03835563734173775, 0.015825407579541206, -0.01662231609225273, -0.044705383479595184, 0.0035012911539524794], [-0.028494056314229965, -0.018047790974378586, -0.07170992344617844, -0.020484400913119316, 0.00904043484479189], [-0.10235749930143356, -0.061622995883226395, 0.06351839005947113, -0.05616908520460129, 0.021377917379140854], [-0.03735237941145897, -0.07736945152282715, 0.05533458665013313, -0.0002147857885574922, 0.00031526421662420034]], [[-0.0036096074618399143, 0.012008089572191238, -0.04820821061730385, 0.03257133811712265, -0.021299077197909355], [0.061935510486364365, 0.01783476024866104, 0.023700032383203506, 0.0338590033352375, -0.08093776553869247], [-0.01613682322204113, -0.09248661994934082, 0.07137104868888855, -0.004000518471002579, -0.07717525959014893], [-0.024258239194750786, 0.014401018619537354, 0.10280023515224457, 0.06748069822788239, -0.020601332187652588], [0.008132648654282093, -0.04929698258638382, 0.038007479161024094, 0.07564560323953629, 0.08187747746706009]], [[0.09690728783607483, 0.0492885485291481, 0.0026946666184812784, 0.017699630931019783, 0.013532505370676517], [0.017725009471178055, 0.05700033903121948, 0.024807285517454147, -0.024018410593271255, 0.05671093240380287], [-0.03197109326720238, 0.058553729206323624, -0.016530275344848633, 0.007579157594591379, 0.05240585282444954], [0.07093093544244766, -0.05110873654484749, 0.012248259969055653, -0.004937008023262024, -0.011047468520700932], [0.0006369261536747217, 0.0790247991681099, -0.010588718578219414, 0.012220839969813824, -0.0009959987364709377]], [[-0.022296927869319916, 0.003582956735044718, -0.0077714333310723305, 0.0013604105915874243, 0.03441496938467026], [0.03450319916009903, -0.02642643451690674, -0.06269371509552002, 0.058618247509002686, 0.054963771253824234], [-0.016580529510974884, -0.06218826398253441, -0.08450497686862946, -0.046203821897506714, -0.08467777818441391], [-0.02298269048333168, -0.0566929467022419, -0.07560167461633682, -0.04872206225991249, -0.09766196459531784], [-0.021208735182881355, -0.05182092264294624, 0.025278501212596893, -0.08810169249773026, -0.10929322242736816]]], [[[-0.012027966789901257, -0.03184306249022484, 0.019804105162620544, -0.005226483102887869, 0.0023055612109601498], [0.05875259265303612, 0.018452906981110573, 0.03664118051528931, 0.02131628431379795, 0.0046030390076339245], [-0.02729659527540207, 0.05404325947165489, -0.10856988281011581, -0.01902702823281288, 0.06922697275876999], [-0.005700492300093174, 0.03644997999072075, -0.1170690581202507, -0.035094402730464935, 0.05331718549132347], [-0.06978943943977356, -0.011643114499747753, 0.04134494066238403, 0.10946003347635269, -0.053515903651714325]], [[-0.05839121341705322, 0.048474326729774475, 0.05673419311642647, -0.01655465178191662, 0.04173199459910393], [-0.017664257436990738, -0.0002815270854625851, -0.06649592518806458, -0.029906807467341423, -0.024441346526145935], [0.022019656375050545, -0.06286263465881348, 0.030068544670939445, -0.08512354642152786, -0.09900610148906708], [0.13361793756484985, 0.0034878933802247047, 0.10489264875650406, 0.002493388019502163, 0.022013893350958824], [0.07387051731348038, 0.043414659798145294, -0.11891572922468185, 0.08931633085012436, 0.04747804254293442]], [[-0.04565323889255524, -0.019335191696882248, 0.06724295765161514, -0.06155325472354889, -0.05426974594593048], [-0.09898363053798676, -0.07816990464925766, 0.050947364419698715, -0.00017803165246732533, -0.07267606258392334], [-0.0727643296122551, -0.0868600532412529, -0.034744761884212494, -0.027709586545825005, -0.013710054568946362], [-0.103242427110672, 0.04597663879394531, -0.03508211672306061, -0.005038649309426546, -0.06671997904777527], [-0.07414986938238144, 0.038201216608285904, -0.14564743638038635, 0.004660565871745348, -0.07345590740442276]], [[-0.015111064538359642, 0.12842348217964172, 0.02701062522828579, 0.044884588569402695, 0.08042299747467041], [-0.0007492430740967393, 0.009376490488648415, -0.0984298586845398, -0.012230569496750832, -0.00780448829755187], [0.026980962604284286, 0.041566066443920135, 0.0021289526484906673, 0.07373544573783875, -0.08402800559997559], [-0.010336906649172306, -0.032329171895980835, 0.04312104731798172, 0.02145102433860302, -0.038181956857442856], [0.026081517338752747, 0.010997931472957134, -0.06219141557812691, 0.0020653228275477886, 0.07200813293457031]], [[-0.044506508857011795, -0.05414644628763199, -0.059083808213472366, 0.003452297765761614, -0.0072889369912445545], [-0.023420708253979683, -0.07569870352745056, -0.11344220489263535, -0.007948805578052998, -0.0856061652302742], [-0.08089715242385864, -0.022281451150774956, -0.0462990328669548, -0.0870293453335762, -0.020765138790011406], [-0.06997593492269516, -0.13864721357822418, 0.06508225202560425, -0.016201965510845184, -0.10474763065576553], [0.07327039539813995, 0.03260239586234093, -0.005934639368206263, 0.11467167735099792, -0.06448522210121155]], [[-0.08054828643798828, -0.061648670583963394, 0.008185653947293758, 0.005464617162942886, -0.02096482180058956], [0.03362198919057846, 0.05724490061402321, -0.002648981288075447, -0.04764220491051674, -0.03205918148159981], [0.07230966538190842, 0.05034549534320831, 0.12470449507236481, -0.07849565893411636, -0.0919869914650917], [0.10172678530216217, -0.035150542855262756, 0.020054148510098457, 0.04505844786763191, 0.0074958354234695435], [0.04099694639444351, 0.004768496844917536, -0.11209110170602798, -0.034651290625333786, 0.037410277873277664]], [[-0.017298530787229538, -0.002092624781653285, -0.008628187701106071, -0.025704238563776016, 0.011594543233513832], [-0.04187782108783722, 0.07076001912355423, -0.058194879442453384, 0.005853267852216959, -0.021061522886157036], [-0.028945598751306534, 0.06879562139511108, -0.04352685064077377, -0.028055083006620407, 0.03222477436065674], [0.16226980090141296, 0.1503884494304657, -0.05774731561541557, 0.12857481837272644, 0.010581559501588345], [0.01868567056953907, -0.10735363513231277, 0.024138696491718292, 0.06791776418685913, 0.01274013426154852]], [[-0.05450201779603958, 0.007239429745823145, -0.00983448326587677, -0.00914232712239027, 0.0040673729963600636], [-0.010170768946409225, -0.00582836614921689, 0.054993268102407455, -0.013898988254368305, 0.021750522777438164], [-0.039761945605278015, -0.05876394361257553, 0.09334550052881241, 0.03215693682432175, -0.012087265960872173], [-0.05925516039133072, 0.01725989207625389, -0.05956904962658882, 0.08900543302297592, 0.011105747893452644], [-0.048929911106824875, -0.04278998449444771, 0.02128598280251026, 0.10664543509483337, -0.028461987152695656]], [[0.029202217236161232, 0.027391623705625534, -0.03809024393558502, 0.053985901176929474, 0.11207389831542969], [-0.01646919921040535, 0.0298928115516901, -0.043220944702625275, -0.05050216615200043, -0.016001608222723007], [0.07929592579603195, 0.057349853217601776, -0.09132882952690125, 0.09735935181379318, 0.023333296179771423], [0.13824009895324707, 0.015232461504638195, -0.008206967264413834, 0.11059587448835373, 0.0017562389839440584], [0.006883868016302586, -0.05585852265357971, 0.058817774057388306, 0.07911078631877899, 0.030478380620479584]], [[0.005694452673196793, -0.05122153460979462, -0.020033596083521843, -0.014871017076075077, 0.09022057801485062], [-0.045289043337106705, -0.0348929837346077, 0.04384438320994377, 0.017556309700012207, 0.03341735899448395], [-0.0008106083841994405, -0.0367913581430912, 0.028602348640561104, -0.05817914381623268, -0.0666511282324791], [-0.00586523674428463, 0.07071958482265472, -0.05604197457432747, -0.03493333235383034, 0.02781318500638008], [-0.019600333645939827, 0.06113947927951813, 0.09337814152240753, -0.04196087270975113, -0.05761832371354103]], [[-0.02487947791814804, -0.021887099370360374, -0.07757528871297836, -0.014622575603425503, 0.016815446317195892], [-0.01737825758755207, -0.04588675498962402, -0.03802962601184845, -0.1187555342912674, 0.005743289366364479], [-0.0183931365609169, 0.004357906989753246, 0.06423540413379669, 0.016018837690353394, -0.00945339910686016], [0.05140330269932747, -0.05841099098324776, 0.011744314804673195, 0.037816595286130905, -0.026473138481378555], [0.012115280143916607, -0.17055392265319824, -0.07710143178701401, 0.04730020835995674, -0.01797652244567871]], [[0.049773409962654114, -0.049501802772283554, 0.06358284503221512, 0.039044227451086044, 0.05774269253015518], [-0.04364967346191406, -0.06900576502084732, -0.0840257927775383, 0.024694344028830528, 0.06940000504255295], [0.028518225997686386, 0.08929024636745453, -0.07432083040475845, 0.08654716610908508, -0.0005227705114521086], [-0.012485687620937824, -0.05776452273130417, -0.04535994678735733, 0.08629065752029419, -0.013181040994822979], [-0.1003839373588562, -0.0703907459974289, 0.015451888553798199, 0.010836011730134487, 0.03889850527048111]], [[0.004407444968819618, -0.02335779182612896, -0.10731883347034454, -0.04274190962314606, -0.02913656458258629], [0.06231718510389328, 0.05323496460914612, 0.006505344528704882, -0.031738054007291794, 0.022031297907233238], [0.07552409172058105, 0.04437556490302086, 0.0006397266406565905, 0.0020251767709851265, 0.03648300841450691], [0.0065877195447683334, 0.027574652805924416, 0.09939359873533249, -0.020803824067115784, 0.01799992471933365], [-0.10382134467363358, 0.017467552796006203, 0.02192533202469349, -0.017566369846463203, 0.0029673767276108265]], [[0.08843027800321579, 0.03149120509624481, -0.0812225490808487, -0.021107066422700882, -0.03733326122164726], [0.08496620506048203, -0.017662413418293, -0.04005786031484604, 0.026261581107974052, -0.028047753497958183], [-0.024782024323940277, 0.02707049623131752, 0.02888222225010395, -0.03492904454469681, -0.10735753178596497], [0.018678387627005577, 0.03244554623961449, 0.019921712577342987, 0.11891959607601166, -0.04639653488993645], [-0.0015060438308864832, 0.07972543686628342, -0.09076660126447678, -0.0010489998385310173, -0.06949155777692795]], [[-0.0713440403342247, -0.03757792338728905, 0.031798385083675385, 0.014071683399379253, 0.050927694886922836], [-0.0038767382502555847, 0.06530888378620148, -0.009727760218083858, 0.030391700565814972, -0.006704139057546854], [0.031352974474430084, -0.008440741337835789, 0.0267830491065979, 0.04958315193653107, -0.07361479103565216], [0.004418023396283388, -0.04780464246869087, -0.0460723415017128, 0.10218089073896408, 0.02652011252939701], [-0.002241158625110984, 0.1365610659122467, 0.03950506076216698, -0.041542910039424896, -0.027421431615948677]], [[0.040994688868522644, 0.029494721442461014, -0.05102846398949623, 0.003447704715654254, 0.004077729303389788], [-0.0004377852310426533, -0.06375853717327118, -0.08384104818105698, -0.020904995501041412, 0.03731641173362732], [0.012839733622968197, -0.007608507759869099, 0.02854386530816555, -0.08417243510484695, 0.01450311578810215], [-0.09803472459316254, 0.04516366496682167, 0.039733000099658966, -0.12323885411024094, -0.0323026105761528], [0.013073684647679329, -0.017424477264285088, 0.050444137305021286, -0.001054650405421853, 0.023045171052217484]]], [[[0.03200433403253555, 0.10433948040008545, -0.06513606011867523, -0.03611191734671593, -0.07528956234455109], [0.054732546210289, 0.10848777741193771, -0.036355454474687576, -0.02618761546909809, -0.042176503688097], [-0.04860260337591171, 0.028347397223114967, -0.024231690913438797, 0.12030430138111115, 0.059569280594587326], [0.04964509606361389, 0.041211891919374466, 0.053252704441547394, -0.015158568508923054, -0.04343662038445473], [0.02091396041214466, 0.0919017493724823, 0.04235270619392395, -0.01335627306252718, -0.055606942623853683]], [[-0.0913344994187355, -0.07869445532560349, -0.02862059697508812, -0.10912761092185974, 0.07943795621395111], [-0.04708092287182808, -0.01734740659594536, -0.0005067730671726167, -0.05409723520278931, 0.046411432325839996], [-0.07497145980596542, -0.054023388773202896, 0.08001033961772919, -0.01153909508138895, 0.004917128011584282], [0.011096594855189323, -0.005505100358277559, 0.07301053404808044, 0.048529524356126785, 0.0161016583442688], [-0.06220300868153572, -0.04367588087916374, -0.03393225744366646, 0.06569264084100723, 0.027031216770410538]], [[-0.08079187572002411, -0.030746493488550186, -0.08697675913572311, 0.002020956249907613, -0.04195055365562439], [-0.05368049070239067, -0.002317352918908, -0.007142337504774332, -0.07483711838722229, -0.05296586453914642], [-0.05808359757065773, -0.034609705209732056, -0.007746541406959295, -0.02093789353966713, -0.09297607839107513], [0.0133356349542737, 0.005630633793771267, -0.00011082494165748358, -0.0631503239274025, -0.08610627055168152], [-0.10575757920742035, 0.06721659749746323, -0.10648048669099808, -0.0706988200545311, -0.06018965318799019]], [[-0.00041507583227939904, 0.08446312695741653, -0.007471091579645872, 0.041480883955955505, -0.012773397378623486], [-0.007671946659684181, -0.018781226128339767, -0.014113548211753368, -0.01008125301450491, -0.06407017260789871], [-0.02659761719405651, 0.006035131867974997, 0.05870337039232254, -0.012608258053660393, -0.04015076160430908], [-0.034521978348493576, -0.012852397747337818, 0.012613831087946892, -0.041903056204319, 0.08626186102628708], [-0.009857245720922947, 0.010182762518525124, 0.014502016827464104, -0.02994224801659584, 0.011325005441904068]], [[-0.01046340074390173, 0.007140969391912222, 0.049048300832509995, -0.06889452040195465, -0.07489422708749771], [0.015102623961865902, -0.036166977137327194, -0.044485095888376236, 0.014914063736796379, -0.07940468937158585], [0.039526719599962234, 0.017551202327013016, -0.018566232174634933, 0.011473612859845161, -0.13432864844799042], [-0.027275802567601204, -0.0010365074267610908, -0.02808263525366783, -0.03267030417919159, -0.06141948699951172], [-0.0599120669066906, 0.031693097203969955, -0.02991572953760624, -0.004776250571012497, 0.0017828306881710887]], [[-0.13391931354999542, 0.009854680858552456, -0.008232401683926582, -0.038361258804798126, -0.03998834639787674], [0.025535639375448227, 0.035667531192302704, 0.06927230209112167, -0.06542257964611053, -0.02220184914767742], [-0.02135813608765602, -0.001825547544285655, 0.16632330417633057, 0.03724370896816254, 0.03131117299199104], [0.0012243823148310184, 0.05948776751756668, -0.02270195633172989, 0.13235703110694885, -0.024942917749285698], [-0.04837975651025772, 0.11049823462963104, -0.01422419585287571, -0.0183685552328825, -0.06612178683280945]], [[0.04161522537469864, 0.03736008331179619, 0.013764489442110062, -0.02747919224202633, 0.04313661530613899], [-0.019866719841957092, 0.07397039234638214, -0.0008171651279553771, -0.04735931009054184, 0.029670357704162598], [-0.07957524806261063, -0.0504879429936409, -0.082013800740242, 0.07411127537488937, -0.03044634684920311], [-0.008282797411084175, -0.04322488605976105, -0.0025438698939979076, 0.04062023013830185, 0.050312258303165436], [0.008506141602993011, 0.015950780361890793, -0.049903638660907745, -0.0045045786537230015, -0.0630764439702034]], [[0.0664784237742424, 0.028994103893637657, -0.0032655182294547558, -0.04716416448354721, -0.053455911576747894], [0.014632424339652061, 0.10488932579755783, 0.09901804476976395, 0.00026466549024917185, 0.03161238133907318], [-0.0833936259150505, -0.01708173379302025, 0.025681305676698685, -0.026929819956421852, -0.005790816619992256], [0.055174894630908966, 0.061810534447431564, 0.06128358468413353, -0.03211921080946922, -0.05891099572181702], [0.0913090631365776, 0.12104278057813644, 0.14060814678668976, -0.003142812754958868, 0.02107827737927437]], [[-0.07821765542030334, -0.04607491195201874, 0.010618042200803757, -0.1132676750421524, 0.032735880464315414], [-0.023430515080690384, 0.03537461906671524, -0.07225412875413895, 0.010925769805908203, 0.057123515754938126], [-0.06571190059185028, -0.0211939737200737, -0.08219477534294128, -0.026965999975800514, 0.029913414269685745], [-0.012517803348600864, -0.06657783687114716, 0.09792321175336838, 0.0752093568444252, 0.01975972391664982], [0.01699216477572918, -0.04798583313822746, 0.08118794113397598, 0.04858773946762085, -0.002037589205428958]], [[0.07067824900150299, 0.08006556332111359, 0.06048185005784035, 0.017174750566482544, -0.03532135486602783], [0.001981941284611821, 0.07204475998878479, 0.04090161621570587, -0.013322322629392147, -0.054313886910676956], [0.13663411140441895, 0.028675338253378868, -0.05488456040620804, -0.11468019336462021, -0.0792769119143486], [-0.06393999606370926, 0.021527891978621483, -0.09178102016448975, -0.06659338623285294, 0.03562828525900841], [-0.048664696514606476, 0.015910189598798752, -0.006868482567369938, -0.08334407955408096, -0.050428006798028946]], [[-0.05362752079963684, -0.04949710890650749, 0.03276323899626732, 0.04752339422702789, -0.07591471821069717], [-0.04123475402593613, -0.0764021947979927, -0.05233357474207878, 0.011786356568336487, 0.013551617041230202], [-0.0909460037946701, -0.051998261362314224, -0.0034915804862976074, 0.0668632760643959, -0.02577865868806839], [0.011260413564741611, -0.07570558786392212, -0.008275454863905907, -0.004267293494194746, -0.07697689533233643], [0.0196787528693676, -0.013727630488574505, 0.05370548367500305, -0.03452664241194725, -0.0007525028195232153]], [[0.0037642449606209993, -0.00587376719340682, 0.04239659011363983, 0.005739289801567793, -0.05586666613817215], [0.03429356589913368, 0.06729134917259216, -0.004053028300404549, -0.00402273191139102, -0.08038695901632309], [-0.003693324513733387, -0.00949576124548912, 0.004297781735658646, 0.08662363141775131, 0.019757356494665146], [0.010483973659574986, -0.06242169067263603, 0.014551326632499695, 0.018437037244439125, 0.05569631606340408], [-0.009180018678307533, -0.00952244270592928, 0.05513091757893562, -0.04719213396310806, -0.11489129066467285]], [[0.07526436448097229, 0.010888424701988697, 0.029111597687005997, -0.018144940957427025, -0.08071202784776688], [0.020914506167173386, -0.011784366331994534, 0.022906629368662834, -0.037283092737197876, -0.030871247872710228], [0.017824091017246246, 0.03982006013393402, -0.022110870108008385, -0.09322316199541092, -0.03987368941307068], [-0.14677360653877258, -0.03140517696738243, -0.039245519787073135, -3.503431435092352e-05, 0.0057417890056967735], [-0.11955545842647552, -0.02532043866813183, -0.031738970428705215, -0.04104090854525566, 0.031181341037154198]], [[-0.05890272557735443, 0.03837386146187782, -0.001406366121955216, 0.0127245569601655, -0.011955669149756432], [-0.08127981424331665, 0.04132620617747307, 0.00969724077731371, -0.025313854217529297, 0.07877494394779205], [-0.0703507736325264, -0.045371200889348984, -0.010402755811810493, -0.004326970316469669, 0.028197146952152252], [0.04459105804562569, 0.016378989443182945, 0.05854574590921402, 0.06953006982803345, -0.029112963005900383], [0.03038707934319973, 0.020830579102039337, -0.01772303320467472, 0.09321421384811401, -0.10385419428348541]], [[-0.036469876766204834, 0.03967064991593361, 0.031939391046762466, -0.021272877231240273, -0.04109368100762367], [0.10956684499979019, -0.0010439474135637283, 0.00454697385430336, -0.09701265394687653, -0.053883910179138184], [-0.06313956528902054, -0.018345026299357414, 0.06705726683139801, -0.05098521336913109, 0.019246183335781097], [-0.019365405663847923, -0.03871895745396614, -0.014982027001678944, -0.024230804294347763, 0.048005957156419754], [-0.0011236302088946104, 0.07933460175991058, 0.08691277354955673, 0.07136451452970505, -0.03730697184801102]], [[-0.035422183573246, -0.00021277397172525525, -0.03739575669169426, 0.04697248339653015, -0.05687270686030388], [0.024673892185091972, -0.05916174501180649, -0.008723967708647251, -0.04346374422311783, -0.10026564449071884], [-0.02903059683740139, -0.023989301174879074, 0.001031289342790842, -0.03542114794254303, -0.0749398022890091], [0.036741551011800766, -0.04079127684235573, -0.06819427013397217, -0.1275041252374649, -0.030514510348439217], [0.02779301442205906, -0.0670463964343071, -0.06747379899024963, -0.015048729255795479, 0.010791302658617496]]], [[[0.1046648621559143, 0.09653310477733612, 0.014451553113758564, -0.024546729400753975, -0.06390891969203949], [0.00917878095060587, -0.042199380695819855, -0.04504203051328659, 0.07018706202507019, -0.030193110927939415], [0.05061003565788269, 0.03223684802651405, 0.037061434239149094, -0.05035780370235443, -0.007454437669366598], [0.08697783946990967, -0.015185789205133915, -0.02282828651368618, -0.08081744611263275, 0.014361079782247543], [0.03326929733157158, -0.0024785054847598076, -0.0906004011631012, 0.01104220375418663, -0.020364612340927124]], [[-0.08204957842826843, -0.02695315331220627, 0.001699700835160911, 0.029661448672413826, 0.07798828929662704], [-0.05318496376276016, -0.037331487983465195, -0.0954168289899826, 0.049811139702796936, 0.0469948835670948], [0.025772420689463615, -0.024471182376146317, -0.04553382843732834, 0.020427487790584564, 0.06882540881633759], [-0.026059910655021667, -0.12426353245973587, -0.06259036809206009, -0.005083687137812376, -0.028417320922017097], [-0.10268154740333557, -0.07445560395717621, -0.0026670752558857203, -0.004568175412714481, -0.06785725057125092]], [[-0.05609021708369255, -0.07889994978904724, 0.044928185641765594, 0.009850721806287766, 0.10392214357852936], [-0.10489106923341751, -0.037764761596918106, 0.037489861249923706, 0.0449424646794796, -0.04003409296274185], [-0.08787966519594193, -0.010855657048523426, 0.06777697056531906, -0.054664526134729385, -0.08201077580451965], [-0.047309208661317825, 0.016701284795999527, -0.017204614356160164, -0.03472019359469414, -0.05860041454434395], [-0.0919402539730072, -0.06973302364349365, -0.0349113866686821, -0.006539515219628811, 0.00963134877383709]], [[-0.02645300142467022, 0.007451390381902456, -0.060296546667814255, 0.0814148485660553, 0.07506062835454941], [-0.026391085237264633, -0.0016563537064939737, 0.015400656498968601, 0.005720396991819143, 0.15310564637184143], [-0.06524939835071564, -0.025714347139000893, -0.0986926481127739, 0.042602185159921646, 0.05448415130376816], [0.03451790288090706, -0.030176125466823578, -0.05873557925224304, 0.011572577059268951, 0.025205478072166443], [-0.03796067461371422, -0.08361271023750305, -0.08515612035989761, 0.015090225264430046, -0.08929235488176346]], [[0.01014086976647377, 0.029775472357869148, 0.06573189049959183, 0.087089903652668, -0.021774038672447205], [0.09139366447925568, 0.03594163805246353, 0.0032212487421929836, 0.026415687054395676, -0.015756778419017792], [0.08646385371685028, -0.014954587444663048, -0.023903314024209976, 0.032549478113651276, 0.039075519889593124], [0.030915655195713043, -0.09579221159219742, -0.09605172276496887, 0.006263692397624254, 0.0028161811642348766], [0.03816669434309006, -0.021941501647233963, 0.03497490659356117, 0.06050747632980347, -0.04271551966667175]], [[0.07403278350830078, -0.004674049094319344, -0.0782240703701973, 0.014928079210221767, 0.05718667060136795], [0.03893088549375534, 0.0496906116604805, -0.02658548392355442, 0.04390408471226692, 0.027181100100278854], [-0.035915885120630264, 0.008748741820454597, -0.05642709881067276, 0.04112538695335388, 0.003108646720647812], [0.04452485963702202, 0.01715632900595665, -0.05499881133437157, 0.08940821141004562, -0.019834961742162704], [-0.015209250152111053, 0.03562294691801071, -0.04512941092252731, 0.04362118989229202, 0.03895582631230354]], [[-0.023046156391501427, -0.01628156565129757, 0.024578312411904335, -0.008630405180156231, -0.10706909745931625], [0.023933373391628265, -0.011621298268437386, -0.03072456642985344, -0.11075297743082047, 0.09262020140886307], [8.997027907753363e-05, 0.09746518731117249, -0.032186880707740784, -0.10558511316776276, 0.039389390498399734], [-0.041717831045389175, 0.04445630684494972, 0.01596584916114807, -0.03449544310569763, -0.03514108806848526], [-0.03589561954140663, -0.059927165508270264, 0.029263097792863846, -0.08040378242731094, 0.06785494834184647]], [[0.012730756774544716, 0.011823602952063084, -0.015903672203421593, -0.006851615849882364, -0.036621976643800735], [-0.054217878729104996, -0.027550624683499336, -0.04070665314793587, 0.03389330208301544, -0.07877716422080994], [0.04697609320282936, -0.009716934524476528, -0.02937752939760685, 0.026889203116297722, -0.08011212199926376], [0.04249255731701851, 0.0795435905456543, -0.013384737074375153, -0.007547152228653431, -0.06041252613067627], [0.027416013181209564, 0.06905680149793625, 0.012330897152423859, -0.07952268421649933, -0.10100877285003662]], [[0.0021599966567009687, 0.021243035793304443, 0.054544005542993546, -0.012427786365151405, -0.014155722223222256], [0.03800061717629433, -0.031630437821149826, -0.1475880891084671, -0.0013916546013206244, 0.13141611218452454], [0.07751884311437607, -0.03635084629058838, -0.09383565187454224, 0.14984266459941864, 0.07927107810974121], [0.023093655705451965, -0.05114147067070007, -0.03978847339749336, 0.03317936509847641, 0.03684605658054352], [0.06482772529125214, -0.05123809725046158, 0.016707194969058037, 0.00858756061643362, -0.05896864831447601]], [[-0.012679657898843288, 0.032099079340696335, 0.02655339613556862, -0.06670496612787247, -0.07861734926700592], [-0.048360928893089294, -0.013577355071902275, 0.020305821672081947, -0.16207139194011688, -0.00840034894645214], [-0.03290046378970146, -0.11262556165456772, -0.07044028490781784, 0.013362699188292027, 0.05910074710845947], [-0.07246563583612442, -0.03618336096405983, 0.03602314367890358, 0.03400568291544914, -0.04059634730219841], [-0.027943134307861328, 0.0649297758936882, -0.010410962626338005, -0.009562291204929352, -0.027366306632757187]], [[-0.08471202850341797, -0.026179391890764236, 0.02653791382908821, 0.012048236094415188, -0.03995809704065323], [-0.0009635126334615052, -0.11652041226625443, -0.03822439908981323, 0.05170673504471779, 0.014655178412795067], [-0.0034194320905953646, -0.0631614550948143, 0.10824272036552429, 0.05806325003504753, 0.005577844101935625], [-0.08911986649036407, -0.010608484037220478, -0.005919697694480419, -0.017754217609763145, 0.039194583892822266], [0.019739210605621338, 0.035643938928842545, 0.05742765963077545, 0.014519697986543179, -0.01729298196732998]], [[-0.11197756230831146, 0.01762939803302288, 0.05703577771782875, 0.02199821174144745, -0.03157708793878555], [-0.067986860871315, 0.04421422630548477, 0.04034542664885521, -0.073117196559906, 0.09356654435396194], [0.11781921982765198, 0.0848369374871254, 0.08832257241010666, -0.02419283241033554, -0.005424909759312868], [0.06498102098703384, -0.04025446996092796, -0.017904547974467278, -0.07278705388307571, 0.05225406587123871], [0.07649838924407959, 0.017105571925640106, 0.017643412575125694, -0.024527356028556824, -0.03271333873271942]], [[-0.03257215395569801, -0.012002821080386639, 0.11391045153141022, 0.024485379457473755, 0.053594689816236496], [0.03693705424666405, 0.02926742099225521, -0.0044267247430980206, -0.0045519317500293255, -0.015747901052236557], [0.0007914758753031492, -0.015914669260382652, -0.04853670671582222, 0.04764561727643013, 0.02478710189461708], [-0.05043559893965721, -0.02554222196340561, -0.02430064044892788, 0.024535933509469032, -0.024440033361315727], [-0.0038808598183095455, -0.1533922702074051, -0.10720495134592056, -0.03746320679783821, -0.021972231566905975]], [[-0.03974248096346855, 0.06238951161503792, 0.06840336322784424, -0.08044855296611786, 0.02531779184937477], [0.07246299088001251, 0.022335235029459, -0.0775495171546936, 0.017383847385644913, 0.008421403355896473], [0.00469388160854578, 0.041409414261579514, -0.07589881867170334, -0.0919228196144104, -0.04104142636060715], [-0.028262339532375336, -0.028834329918026924, -0.07548456639051437, -0.07345833629369736, -0.021313756704330444], [-0.02491583302617073, 0.03631415590643883, 0.00725379167124629, 0.0007868054090067744, 0.08727128058671951]], [[-0.014875121414661407, -0.02162078581750393, -0.012347962707281113, -0.04518746957182884, -0.0887966975569725], [0.0431734174489975, 0.0365767665207386, -0.10056847333908081, 0.04456227272748947, 0.015018358826637268], [0.07786698639392853, 0.02551167830824852, 0.01875511184334755, 0.10337920486927032, 0.056811824440956116], [0.006240715738385916, 0.021868057548999786, 0.04068214073777199, 0.02140861190855503, -0.036776352673769], [-0.10016559809446335, -0.032926615327596664, 0.02617480978369713, -0.01884642243385315, -0.004615205805748701]], [[-0.05188533663749695, 0.019656958058476448, 0.029284203425049782, 0.055326808243989944, 0.06509693711996078], [0.00294588808901608, 0.025563256815075874, 0.0527055449783802, 