{"layer1.0.weight": [[[[-0.12200459837913513, -0.06485901772975922, 0.1023414209485054, -0.2990223169326782, -0.2674161493778229], [0.14143827557563782, -0.12311655282974243, 0.05441533774137497, -0.0106620192527771, 0.17836874723434448], [0.2796294689178467, 0.2354520857334137, 0.13448938727378845, 0.024211600422859192, -0.11268499493598938], [0.06599262356758118, 0.3045647144317627, -0.037099987268447876, -0.1405760943889618, 0.06552372872829437], [0.153178870677948, 0.36513590812683105, 0.09014937281608582, -0.03782372549176216, 0.242529958486557]]], [[[0.1695757955312729, -0.19999179244041443, -0.06969933211803436, 0.13721522688865662, 0.014706742949783802], [0.09168785065412521, -0.11580558121204376, -0.10257017612457275, -0.06314079463481903, 0.14451521635055542], [0.04899952560663223, -0.2636697292327881, -0.012390077114105225, 0.16015438735485077, 0.13151521980762482], [-0.05259101465344429, -0.22895333170890808, -0.037844836711883545, 0.19730207324028015, 0.06008706986904144], [0.0078083183616399765, -0.26618847250938416, 0.2258131355047226, 0.06167738139629364, -0.18129447102546692]]], [[[0.1875062882900238, -0.0707000195980072, -0.2106303870677948, -0.2687312066555023, -0.1740873157978058], [0.10834090411663055, 0.05064103752374649, -0.25428640842437744, -0.19337671995162964, 0.0997229740023613], [0.007258138619363308, -0.23757626116275787, -0.1362113207578659, 0.19163058698177338, -0.06902581453323364], [-0.03355466574430466, -0.160439133644104, 0.05492743104696274, -0.1475750058889389, 0.07684555649757385], [0.03634586185216904, -0.22883129119873047, -0.024132557213306427, -0.09007380902767181, 0.012116551399230957]]], [[[-0.15166646242141724, 0.11739620566368103, -0.03356899321079254, -0.018741149455308914, 0.08329033851623535], [0.0034490451216697693, -0.23228543996810913, -0.16674953699111938, -0.0992797315120697, -0.05069829151034355], [-0.21088819205760956, -0.21597178280353546, -0.218563050031662, -0.023116622120141983, -0.11860860884189606], [-0.02495938539505005, -0.20547188818454742, 0.08698567748069763, 0.17422999441623688, -0.022327527403831482], [-0.11048118025064468, -0.09127898514270782, -0.07920455187559128, 0.06112394481897354, -0.24409568309783936]]], [[[0.011461105197668076, -0.22653700411319733, 0.1803792268037796, 0.1067875474691391, 0.11517788469791412], [0.02777155116200447, 0.1904628425836563, 0.158113032579422, 0.005913391709327698, -0.004983618855476379], [-0.10895025730133057, -0.19327546656131744, 0.031812384724617004, 0.23597504198551178, 0.38108405470848083], [0.049661777913570404, 0.028874555602669716, -0.10093684494495392, 0.11311914771795273, 0.3607468903064728], [-0.02139442414045334, 0.2351517677307129, 0.19073648750782013, 0.015911221504211426, 0.04115304350852966]]], [[[-0.1914607137441635, -0.29255351424217224, -0.40620100498199463, -0.13630318641662598, -0.08579400181770325], [-0.2598510682582855, -0.2475598305463791, -0.18469735980033875, -0.2592792510986328, 0.047604989260435104], [-0.32424426078796387, -0.16824769973754883, -0.3390745222568512, -0.28306278586387634, 0.3280402421951294], [-0.25345104932785034, -0.1788240671157837, -0.4727818965911865, 0.05164313316345215, -0.20031055808067322], [-0.01927301287651062, -0.43699491024017334, 0.04422329366207123, -0.0034232214093208313, -0.16737927496433258]]], [[[-0.21599218249320984, 0.1618645191192627, 0.02289917692542076, 0.0667451024055481, 0.059387363493442535], [-0.056843437254428864, 0.0009620487689971924, 0.126106858253479, -0.07824170589447021, -0.22755464911460876], [0.05845702439546585, 0.15313149988651276, 0.14650537073612213, 0.0639345720410347, -0.14537812769412994], [0.07814759016036987, 0.1553947627544403, 0.0744321420788765, -0.08871452510356903, 0.062083806842565536], [-0.2292565405368805, 0.12299931049346924, -0.14792615175247192, -0.07250123471021652, 0.04901990294456482]]], [[[-0.11603927612304688, 0.08869403600692749, -0.3262569010257721, 0.08217450976371765, -0.06527236104011536], [0.03771461918950081, -0.0402732715010643, -0.09164857864379883, -0.06218220666050911, -0.1413174569606781], [0.299602210521698, 0.09971451014280319, 0.009712942875921726, -0.061609260737895966, 0.11348918080329895], [0.34873735904693604, 0.17128929495811462, 0.16162899136543274, 0.03236517682671547, 0.02487795427441597], [0.27943816781044006, -0.04615389555692673, 0.00991876795887947, -0.04103139042854309, 0.24375852942466736]]], [[[-0.04778106510639191, 0.05420726537704468, -0.12105488032102585, 0.049063555896282196, -0.021760404109954834], [0.025775842368602753, 0.03637435659766197, -0.1397937536239624, 0.2551426887512207, -0.27495962381362915], [-0.07449818402528763, -0.1504916101694107, 0.12822674214839935, 0.13482175767421722, -0.32635408639907837], [0.2019183337688446, 0.0005672276020050049, 0.06664091348648071, -0.22115403413772583, -0.3873232305049896], [-0.033713966608047485, 0.14544659852981567, -0.16411148011684418, 0.07217808067798615, -0.29665306210517883]]], [[[-0.12284435331821442, -0.056829988956451416, 0.10345448553562164, 0.20025472342967987, 0.2525978684425354], [0.13790276646614075, 0.12862375378608704, 0.25099045038223267, -0.0026632938534021378, -0.008443795144557953], [-0.008468326181173325, -0.14492565393447876, -0.09015610814094543, -0.1779700666666031, -0.13260245323181152], [0.04372455179691315, 0.12964114546775818, 0.3018840551376343, 0.08427029103040695, -0.1301962435245514], [0.01520431600511074, -0.11071991175413132, 0.10076670348644257, 0.11525575816631317, 0.22868995368480682]]], [[[-0.11141891032457352, -0.023640040308237076, 0.11354967951774597, 0.10442301630973816, 0.15987032651901245], [-0.046148259192705154, 0.137192040681839, -0.17735028266906738, 0.11138813942670822, 0.08886802196502686], [-0.079578697681427, 0.01997564360499382, -0.13000604510307312, 0.038180772215127945, 0.029746977612376213], [0.039991945028305054, 0.1735948771238327, -0.25247424840927124, 0.004223255440592766, 0.011904164217412472], [0.1453745812177658, 0.1422928273677826, -0.3125688135623932, -0.061891913414001465, 0.14539854228496552]]], [[[0.35982412099838257, 0.2589314579963684, -0.10902807116508484, 0.19177621603012085, -0.005954667925834656], [-0.05115261673927307, 0.26728200912475586, 0.035227082669734955, 0.1421036422252655, -0.029006771743297577], [-0.03127404302358627, 0.04954531043767929, 0.24972563982009888, 0.051807962357997894, -0.0060897096991539], [0.146875262260437, 0.06477803736925125, 0.26071834564208984, -0.14071951806545258, -0.1678646057844162], [0.20009413361549377, 0.08420001715421677, 0.14152580499649048, -0.2012244611978531, 0.10134895145893097]]], [[[-0.06632649898529053, -0.1311355084180832, -0.03413049876689911, 0.0281387846916914, 0.20868676900863647], [0.19655930995941162, 0.08768799155950546, 0.10783885419368744, -0.011102020740509033, 0.21723730862140656], [-0.07593490183353424, 0.009049737825989723, -0.05447567254304886, 0.09892783313989639, 0.24834497272968292], [-0.011245880275964737, 0.14392554759979248, -0.18379345536231995, -0.07348648458719254, 0.23723766207695007], [0.14471134543418884, 0.01224830374121666, 0.16667050123214722, -0.038956865668296814, 0.07093898206949234]]], [[[0.15089541673660278, 0.060842469334602356, 0.2003975361585617, -0.1305585354566574, -0.017153576016426086], [0.3824176788330078, 0.0730161964893341, 0.005601508542895317, 0.07510245591402054, 0.065945103764534], [0.10894480347633362, 0.07840222865343094, -0.16727206110954285, -0.21111223101615906, 0.23537881672382355], [0.02464418113231659, 0.03489476814866066, -0.27308109402656555, -0.0013202163390815258, 0.14137020707130432], [0.28935664892196655, -0.27637872099876404, 0.006972316652536392, -0.03060711920261383, 0.019609544426202774]]], [[[0.0005642904434353113, 0.17148694396018982, -0.03706899285316467, 0.09051753580570221, -0.057994239032268524], [-0.18494397401809692, -0.12612701952457428, 0.09655044227838516, -0.11239485442638397, -0.14523085951805115], [-0.2098798155784607, 0.1388872116804123, 0.13889175653457642, 0.032887235283851624, 0.2795231342315674], [-0.09026700258255005, 0.09484387934207916, 0.07582858204841614, 0.0012235864996910095, 0.2879595160484314], [0.1424497663974762, 0.017496202141046524, 0.02491387352347374, 0.2586594223976135, 0.061211295425891876]]], [[[0.1106693297624588, -0.10280122607946396, -0.1334761083126068, -0.17867563664913177, 0.09136537462472916], [-0.12647730112075806, -0.18133655190467834, -0.41120976209640503, -0.23765625059604645, 0.06845898926258087], [0.06246612221002579, -0.28092044591903687, -0.3874381482601166, -0.1967788189649582, 0.002669047564268112], [-0.09602424502372742, 0.07297014445066452, -0.17952539026737213, -0.05434003099799156, 0.05829071253538132], [-0.095288947224617, 0.13224583864212036, 0.0659811794757843, 0.05973660200834274, 0.11577978730201721]]]], "layer1.0.bias": [-0.010498473420739174, 0.15279480814933777, 0.028623154386878014, -0.13841672241687775, -0.09190502762794495, -0.06545545160770416, -0.1706073135137558, 0.0240461528301239, -0.17989476025104523, 0.2346183955669403, -0.09572958946228027, -0.11839065700769424, 0.13799257576465607, -0.0334339402616024, 0.019857274368405342, 0.16740548610687256], "layer1.1.weight": [1.0202606916427612, 1.028978705406189, 1.140600323677063, 1.0628379583358765, 0.9626034498214722, 0.9763892889022827, 0.9340248703956604, 0.9182835817337036, 1.1513115167617798, 0.7540241479873657, 0.9872049689292908, 0.8684487342834473, 0.8190428614616394, 0.9417585134506226, 1.0780653953552246, 1.0791399478912354], "layer1.1.bias": [-0.07806715369224548, -0.007693494204431772, -0.1802491843700409, -0.2926831543445587, -0.0954112708568573, -0.11199583858251572, -0.07757920026779175, -0.11944596469402313, 0.07797282934188843, -0.24581466615200043, 0.004110011737793684, -0.0165628083050251, -0.2786816358566284, -0.07700697332620621, -0.1441483348608017, -0.38348454236984253], "layer1.1.running_mean": [-0.029067376628518105, 0.14590536057949066, -0.11441274732351303, -0.4741371273994446, -0.060073502361774445, -0.07612349092960358, -0.21734961867332458, 0.022054240107536316, -0.1969498246908188, 0.2309418022632599, -0.06781294196844101, -0.11109792441129684, 0.4994463622570038, -0.061921849846839905, -0.039555858820676804, -0.3721255958080292], "layer1.1.running_var": [0.010601497255265713, 0.02865471877157688, 0.04477711766958237, 0.12727026641368866, 0.00688526127487421, 0.004130638670176268, 0.018238868564367294, 0.00788211077451706, 0.017428822815418243, 0.007346020545810461, 0.01683923974633217, 0.011528350412845612, 0.13973775506019592, 0.014446535147726536, 0.019555917009711266, 0.3605402410030365], "layer1.1.num_batches_tracked": 39000, "layer2.0.weight": [[[[-0.10907462984323502, -0.05575447529554367, 0.07374105602502823, 0.00033973902463912964, 0.03533673658967018], [-0.054990313947200775, -0.04963149502873421, -0.05832839012145996, -0.020269017666578293, -0.1071089506149292], [-0.013721231371164322, -0.020288212224841118, -0.018013032153248787, -0.006585046648979187, -0.03513118997216225], [-0.04766250401735306, -0.06677555292844772, 0.07792221009731293, 0.0567723885178566, 0.07675915211439133], [-0.03269071877002716, -0.132542222738266, -0.004636548459529877, -0.0056723603047430515, 0.015206824988126755]], [[0.07545442134141922, 0.04815290495753288, -0.033473335206508636, -0.11503008008003235, -0.07427619397640228], [-0.0040769316256046295, 0.031687118113040924, 0.0015224404633045197, 0.0032783295027911663, -0.01018163375556469], [-0.014128953218460083, 0.05151499807834625, 0.008923955261707306, -0.05570671707391739, -0.08207109570503235], [0.06574074923992157, 0.08538621664047241, 0.019422035664319992, 0.0665472149848938, -0.010410957038402557], [0.039182815700769424, -0.022749528288841248, 0.02514079213142395, 0.07222438603639603, 0.02637024037539959]], [[-0.040453437715768814, -0.06193692982196808, 0.06638533622026443, 0.11860745400190353, 0.06952867656946182], [0.03186545521020889, 0.07950973510742188, -0.021699922159314156, 0.04185210168361664, 0.0638156309723854], [0.008089407347142696, -0.0653081089258194, -0.05403508245944977, 0.05988471582531929, 0.018267447128891945], [0.02008017897605896, -0.05772019922733307, -0.0022684335708618164, 0.057562194764614105, 0.14979718625545502], [0.045733146369457245, -0.0252666175365448, -0.046739399433135986, 0.11358997225761414, 0.06566610187292099]], [[0.06672070175409317, -0.053600918501615524, -0.1467219740152359, -0.03744864836335182, 0.04221632331609726], [0.09173126518726349, 0.05892499163746834, -0.01617005467414856, 0.003550077322870493, 0.02249842882156372], [0.10239750146865845, 0.07056744396686554, -0.005233775824308395, -0.015311071649193764, -0.0017006685957312584], [0.04451969638466835, 0.06630729138851166, 0.010647112503647804, 0.008736740797758102, 0.08632609248161316], [0.09371257573366165, 0.1602782905101776, 0.005435114726424217, 0.0831945464015007, 0.05855804309248924]], [[-0.055917367339134216, -0.044501449912786484, 0.03666619211435318, -0.07303761690855026, -0.02222643606364727], [-0.029442213475704193, 0.023636864498257637, -0.03800521418452263, -0.029284877702593803, -0.10325537621974945], [-0.07582905888557434, -0.0554085336625576, -0.03954917937517166, 0.014908883720636368, -0.029181569814682007], [-0.046449337154626846, 0.06740377098321915, -0.035199690610170364, 0.051920242607593536, -0.02071613073348999], [0.0055803339928388596, 0.003353419713675976, -0.02549406699836254, -0.051214106380939484, -0.03076508641242981]], [[0.020807819440960884, -0.02504824474453926, 0.005021742545068264, -0.04008977860212326, -0.007513967342674732], [0.07898467034101486, 0.025913480669260025, 0.083192378282547, -0.034565869718790054, 0.0010231048800051212], [0.006096566561609507, 0.0024970844388008118, -0.013014085590839386, -0.07362505048513412, -0.0034832870587706566], [-0.009013176895678043, -0.013798858039081097, -0.03406419977545738, -0.06844799965620041, -0.05845072865486145], [0.08990489691495895, 0.0031983619555830956, -0.03436243161559105, 0.014936056919395924, 0.0018424466252326965]], [[0.027779247611761093, -0.06266853958368301, 0.013084681704640388, -0.05892086401581764, 0.03430703282356262], [-0.035749346017837524, -0.029415275901556015, -0.05363680049777031, 0.021172497421503067, -0.008899593725800514], [-0.14221127331256866, -0.02990603633224964, 0.03759706765413284, -0.047510359436273575, -0.016645196825265884], [-0.06646452099084854, -0.06253217160701752, 0.1256161481142044, -0.0155716547742486, -0.0733063593506813], [-0.03347793594002724, -0.16851654648780823, 0.027222760021686554, 0.04184354841709137, -0.01383062731474638]], [[-0.05984777957201004, -0.1759088933467865, -0.04219481721520424, 0.03579935431480408, 0.017805343493819237], [-0.1687839925289154, -0.0441933237016201, -0.07987712323665619, 0.028323881328105927, -0.06003569811582565], [-0.0834556296467781, 0.012846942991018295, 0.00020038429647684097, 0.047300588339567184, -0.0646301656961441], [-0.12741689383983612, -0.07464977353811264, -0.014401809312403202, 0.019657911732792854, 0.020201297476887703], [-0.08470699936151505, -0.11682227998971939, 0.053055234253406525, -0.009269686415791512, -0.046755436807870865]], [[-0.08303680270910263, -0.07402846217155457, -0.08927928656339645, 0.0055491384118795395, 0.014957556501030922], [0.019972462207078934, -0.07105914503335953, -0.03701315075159073, -0.02667113207280636, -0.029053842648863792], [-0.008529320359230042, -0.0888855904340744, 0.054463744163513184, -0.09782974421977997, -0.045867860317230225], [0.0018309466540813446, -0.016022276133298874, -0.017019692808389664, -0.05277038738131523, -0.06850434094667435], [-0.00244782492518425, 0.025823362171649933, -0.12320099771022797, -0.002884466201066971, -0.011947831138968468]], [[-0.03629902005195618, 0.009812416508793831, -0.0627417266368866, -0.05669504031538963, 0.027647195383906364], [0.014079313725233078, -0.08135850727558136, -0.02715006098151207, -0.02252577804028988, -0.06329025328159332], [-0.035401660948991776, 0.061118364334106445, 0.03030923753976822, 0.07430639863014221, -0.008202353492379189], [-0.018754001706838608, -0.031473610550165176, 0.035749681293964386, 0.013379475101828575, 0.006625833921134472], [-0.11060626804828644, -0.0591670498251915, -0.05857933312654495, -0.01194729469716549, 0.05416712909936905]], [[0.0921730324625969, 0.026309939101338387, -0.06600183993577957, -0.1348726600408554, 0.03324219584465027], [0.011740077286958694, 0.050730157643556595, -0.05743568763136864, -0.04898843914270401, -0.030901748687028885], [0.08904801309108734, 0.08375799655914307, 0.015890099108219147, 0.030056998133659363, 0.05717133730649948], [0.13456150889396667, 0.044407449662685394, -0.09806416928768158, -0.11587977409362793, -0.09687395393848419], [0.006713639944791794, 0.04389696195721626, -0.06416886299848557, -0.06628149002790451, -0.02859688177704811]], [[0.0011172317899763584, 0.03564005345106125, 0.054743506014347076, -0.04939093068242073, 0.06942681223154068], [0.05071510747075081, -0.038882892578840256, 0.04673698544502258, -0.04574622958898544, -0.0052306558936834335], [-0.03733593970537186, -0.04620145261287689, -0.0025151073932647705, -0.03402676433324814, -0.0395968034863472], [-0.06892767548561096, -0.08466418087482452, 0.027387307956814766, 0.014641894027590752, 0.0062912870198488235], [-0.06613276898860931, -0.16713093221187592, -0.023329706862568855, -0.027422059327363968, -0.031153257936239243]], [[0.038540951907634735, -0.008485527709126472, -0.08491268008947372, 0.0655502900481224, 0.027684131637215614], [0.029254138469696045, -0.054348766803741455, -0.013300837948918343, -0.006345686968415976, 0.04866713285446167], [0.028642412275075912, -0.08030939847230911, -0.074190653860569, 0.014582757838070393, -0.029511742293834686], [0.02248680591583252, 0.010763682425022125, -0.012438460253179073, 0.07448605448007584, -0.009603062644600868], [0.01975640282034874, -0.008183993399143219, 0.015578674152493477, 0.013635197654366493, 0.033567097038030624]], [[-0.043308522552251816, -0.05571834743022919, -0.01943276822566986, -0.07255569100379944, -0.010453470051288605], [0.04015599936246872, -0.08139623701572418, -0.0066891880705952644, 0.04552777111530304, 0.0326785072684288], [-0.016986113041639328, -0.025561144575476646, -0.07948604971170425, -0.010342727415263653, -0.026716001331806183], [-0.04865958169102669, -0.01579153910279274, -0.009818564169108868, -0.06040791794657707, -0.10593479126691818], [0.01922762393951416, 0.0031324438750743866, 0.04658407345414162, 0.005226021632552147, 0.029771696776151657]], [[0.00587099976837635, 0.026241185143589973, 0.020268578082323074, -0.004243046045303345, -0.0009411126375198364], [-0.0748516172170639, 0.020097823813557625, -0.024774793535470963, 0.07031892985105515, -0.07359977811574936], [-0.06802938878536224, 0.04842004179954529, -0.03600677475333214, 0.008752448484301567, 0.007509217597544193], [-0.051503248512744904, 0.049884721636772156, 0.039156537503004074, -0.025016114115715027, -0.0038635055534541607], [0.08482827991247177, 0.13079878687858582, -0.06101806461811066, -0.03411242365837097, -0.062152616679668427]], [[-0.03655491769313812, -0.02579856477677822, -0.04683929309248924, -0.03893157094717026, 0.003865951905027032], [-0.018044069409370422, 0.028380565345287323, -0.013171536847949028, 0.025018949061632156, -0.0037537221796810627], [0.056668978184461594, -0.03838043287396431, -0.11974183470010757, 0.036444392055273056, 0.06843893229961395], [0.006407071836292744, -0.033020518720149994, -0.07095537334680557, 0.028495820239186287, 0.11966480314731598], [0.034238070249557495, -0.02466702274978161, 0.021586235612630844, 0.09121157974004745, 0.07810807228088379]]], [[[0.07731053978204727, -0.026417281478643417, -0.04533851891756058, -0.0832747220993042, -0.07451986521482468], [0.10933034121990204, 0.049535516649484634, 0.020211856812238693, -0.07938726991415024, 0.04400656372308731], [-0.048017386347055435, -0.03998394310474396, -0.09502598643302917, -0.033584725111722946, 0.03803297504782677], [-0.0035886073019355536, 0.003379194065928459, 0.02294526807963848, -0.03196396306157112, -0.058025751262903214], [-0.03194868937134743, 0.06781574338674545, 0.05871099606156349, 0.06754761189222336, 0.017248529940843582]], [[0.018921969458460808, -0.05519919469952583, 0.03312487527728081, -0.03600224107503891, -0.015154525637626648], [0.00630183145403862, -0.0966298058629036, -0.02294168807566166, -0.04794856160879135, 0.005225184373557568], [0.02994890883564949, 0.0007052198052406311, 0.0029819582123309374, -0.10579276084899902, -0.0874897912144661], [-0.061003126204013824, -0.04500196501612663, -0.016633611172437668, -0.03909258544445038, -0.08452604711055756], [-0.05196407064795494, -0.03225237503647804, 0.1299668401479721, -0.06384430825710297, -0.14783699810504913]], [[0.004194526467472315, -0.016858812421560287, -0.07770409435033798, -0.14228713512420654, -0.126028910279274], [-0.01977219432592392, -0.014401942491531372, -0.002697777235880494, -0.025723055005073547, -0.0705384612083435], [0.008030288852751255, -0.06436392664909363, -0.056989025324583054, -0.08738762140274048, -0.07923037558794022], [-0.09507972002029419, -0.028771305456757545, 0.1023203581571579, -0.011466224677860737, -0.0822293609380722], [-0.04025319963693619, -0.05424436926841736, 0.05814777687191963, -0.07309792935848236, -0.0004229368641972542]], [[-0.02533770352602005, 0.049927107989788055, -0.013974560424685478, -0.02392921783030033, -0.02416398376226425], [0.03311675786972046, 0.05122097209095955, -0.01678352989256382, 0.014592194929718971, 0.0066462187096476555], [-0.07038258016109467, 0.03845348209142685, -0.09905293583869934, -0.015166991390287876, -0.07802582532167435], [0.02776765264570713, 0.007657681591808796, 0.02119385451078415, 0.04401339963078499, -0.013283426873385906], [0.0497572161257267, -0.06957561522722244, 0.008842498064041138, 0.028262758627533913, -0.0017407583072781563]], [[0.08771292120218277, 0.04284139350056648, -0.10369328409433365, 0.05567989498376846, -0.0008684969507157803], [0.12605121731758118, 0.018205072730779648, 0.04889974743127823, -0.0741758719086647, 0.052468474954366684], [0.005668384954333305, 0.057971447706222534, 0.005593380890786648, -0.18048310279846191, -0.12213598191738129], [-0.11754608154296875, 0.042351122945547104, 0.02523008920252323, -0.04389283433556557, -0.09408660233020782], [-0.033208683133125305, 0.0049066971987485886, 0.07194863259792328, -0.05574754253029823, -0.09381915628910065]], [[-0.03389282524585724, -0.018155787140130997, 0.06419720500707626, 0.011568592861294746, 0.11618643254041672], [0.08200688660144806, -0.07302181422710419, 0.04492691531777382, -0.07349339872598648, 0.05977147817611694], [-0.009418350644409657, -0.02606799267232418, 0.040602460503578186, -0.060394369065761566, 0.05972924083471298], [-0.01405850239098072, -0.019692305475473404, -0.018755346536636353, -0.005279092118144035, -0.07344070076942444], [0.027592100203037262, 0.013578588142991066, 0.06024634838104248, -0.036940086632966995, -0.016484707593917847]], [[-0.0036918041296303272, -0.0673164576292038, -0.01374989002943039, 0.04750237986445427, 0.04807935282588005], [-0.004736528266221285, -0.03006020560860634, -0.03372354432940483, 0.05548033118247986, 0.06071833521127701], [-0.06695801764726639, -0.15724006295204163, -0.046557627618312836, -0.08736947923898697, -0.020157983526587486], [-0.07827302813529968, -0.0989387109875679, -0.007388044148683548, 0.092261403799057, -0.06571752578020096], [-0.07364094257354736, -0.0422418937087059, 0.012914342805743217, -0.01998065412044525, 0.02390523999929428]], [[0.02137945033609867, 0.026748578995466232, -0.10622166097164154, -0.13807380199432373, -0.08135654032230377], [0.08385536819696426, 0.0271822027862072, -0.10631117969751358, -0.07480877637863159, -0.04785457253456116], [0.021853024140000343, 0.053880661725997925, 0.02026061713695526, -0.11828085780143738, 0.01656930521130562], [-0.00016424385830760002, 0.010278528556227684, 0.00029049947625026107, -0.051996875554323196, -0.06007875129580498], [0.03897468000650406, -0.05311156436800957, 0.0020243176259100437, -0.023783722892403603, -0.03692203760147095]], [[-0.007701481226831675, 0.06937556713819504, 0.008811458945274353, 0.04777524247765541, 0.07467791438102722], [-0.04151225835084915, 0.05676976591348648, 0.01649376004934311, -0.023090360686182976, 0.06385630369186401], [-0.047929584980010986, -0.030569786205887794, -0.04139050841331482, -0.06558884680271149, 0.0315314382314682], [-0.10833475738763809, -0.09602294862270355, -0.07820449769496918, -0.06995498389005661, -0.007010232657194138], [0.05030728131532669, 0.025550231337547302, 0.05411998927593231, -0.02722535841166973, -0.10919559746980667]], [[0.017075810581445694, 0.015123935416340828, 0.04512709006667137, -0.029823455959558487, -0.06829999387264252], [0.033341191709041595, -0.02385416440665722, -0.03640950098633766, 0.03353572264313698, 0.05016651377081871], [-0.03183097764849663, -0.03157529979944229, -0.03323356807231903, 0.006317555904388428, -0.06760786473751068], [-0.044933073222637177, 0.03722007945179939, 0.02574433758854866, 0.035923175513744354, 0.07534873485565186], [0.0072530657052993774, 0.030075769871473312, 0.024557888507843018, 0.009927889332175255, 0.05042687803506851]], [[-0.04241615906357765, 0.02761470340192318, -0.014379307627677917, 0.023658432066440582, -0.07733002305030823], [0.057291463017463684, 0.009625551290810108, -0.07952597737312317, -0.08587707579135895, 0.016645396128296852], [0.035130005329847336, 0.08633995056152344, -0.05363459140062332, -0.12273445725440979, -0.018081586807966232], [-0.05187784135341644, 0.10755820572376251, -0.010650461539626122, -0.10266322642564774, 0.01893332228064537], [0.002470191102474928, 0.058211799710989, 0.14624448120594025, -0.05343431234359741, 0.009570447728037834]], [[0.022636238485574722, -0.05400817468762398, -0.04306537285447121, -0.0121745141223073, 0.04675178974866867], [-0.04612310603260994, -0.03423723950982094, 0.03270818665623665, 0.013050699606537819, 0.0099269924685359], [-0.119206503033638, -0.07719524204730988, -0.05726126581430435, -0.005890935659408569, -0.07607053220272064], [-0.08851541578769684, -0.07870718836784363, 0.05292172729969025, -0.023451387882232666, 0.002671179361641407], [-0.10460122674703598, -0.01647009141743183, 0.032118167728185654, 0.08449159562587738, 0.037187978625297546]], [[-0.08557070791721344, -0.05509442463517189, 0.09152790904045105, 0.040042340755462646, 0.06125705689191818], [-0.024591317400336266, 0.08309421688318253, 0.07061716914176941, 0.08229923248291016, -0.010330507531762123], [-0.026919255033135414, -0.01761445589363575, 0.04382454603910446, 0.01948683150112629, 0.002442429307848215], [-0.06699386239051819, 0.01502896100282669, 0.022909484803676605, -0.04728889465332031, -0.04462099075317383], [-0.10854820162057877, -0.034861039370298386, 0.07332445681095123, -0.00847446545958519, -0.07966554909944534]], [[-0.019348066300153732, 0.027313603088259697, 0.11621954292058945, -0.039138924330472946, 0.019771842285990715], [-0.040116261690855026, 0.004904887173324823, 0.06949492543935776, -0.016742324456572533, -0.01614823378622532], [-0.06932763010263443, 0.03232857584953308, 0.03575211018323898, -0.07941688597202301, -0.02339446172118187], [-0.13701599836349487, 0.03049464337527752, 0.004056358709931374, -0.014082813635468483, -0.04009607434272766], [-0.031613368541002274, 0.040575262159109116, 0.04298634082078934, -0.062375508248806, -0.06577621400356293]], [[0.08800794929265976, -0.0055908020585775375, -0.03836580738425255, -0.018390577286481857, -0.07811136543750763], [0.08637716621160507, 0.0911223292350769, 0.003692684695124626, -0.04021846503019333, 0.07596747577190399], [0.05963166430592537, 0.047186024487018585, -0.003806907683610916, -0.004152656067162752, -0.05982808396220207], [0.039335671812295914, -0.015242986381053925, 0.09225717186927795, -0.027833953499794006, -0.05433659628033638], [0.1646711230278015, -0.009785149246454239, 0.10260315239429474, 0.07963716238737106, -0.09452004730701447]], [[0.04402943328022957, -0.048124223947525024, -0.04707139730453491, -0.07601483911275864, -0.10959525406360626], [0.05693734437227249, -0.01637517847120762, -0.037462085485458374, -0.02183450385928154, 0.036369018256664276], [0.033483292907476425, -0.04958464577794075, -0.039441730827093124, -0.07228443026542664, 0.03171898052096367], [-0.04221060872077942, -0.03588561713695526, -0.07391439378261566, 0.01734253391623497, 0.015044450759887695], [-0.04157174006104469, -0.0030637672170996666, 0.013002479448914528, -0.007198503240942955, -0.015949402004480362]]], [[[-0.0037504788488149643, 0.010758436284959316, -0.10679662972688675, -0.10320422053337097, -0.012488709762692451], [0.0833984985947609, -0.023257989436388016, -0.0478876568377018, 0.01619088649749756, 0.04212065413594246], [0.011600001715123653, -0.041617099195718765, -0.11135436594486237, -0.014240861870348454, 0.015171005390584469], [-0.03417900949716568, -0.027462458238005638, -0.14597457647323608, -0.043944817036390305, -0.035291653126478195], [-0.01032048836350441, 0.01161170843988657, -0.08788734674453735, 0.04388587549328804, 0.021062614396214485]], [[-0.04945961758494377, -0.0321100614964962, 0.1139163076877594, 0.0697898343205452, 0.07688798755407333], [-0.050998128950595856, 0.020724670961499214, 0.1603267788887024, 0.0027779601514339447, 0.052043452858924866], [-0.04012754559516907, 0.04846486449241638, 0.1314697563648224, -0.01086517609655857, -0.014643453061580658], [-0.0709533840417862, 0.006523638963699341, 0.17435254156589508, -0.020717089995741844, 0.05951545760035515], [-0.004791754297912121, -0.04846803843975067, 0.10959289968013763, -0.004988126456737518, 0.020065035670995712]], [[-0.11331415921449661, -0.09549631178379059, -0.045714154839515686, -0.0386616513133049, 0.03511522337794304], [-0.015237156301736832, 0.07796595245599747, 0.04591672867536545, -0.05709319934248924, -0.002434929832816124], [0.05555105209350586, -0.03544864431023598, -0.0968058854341507, 0.02244429476559162, 0.10125242173671722], [-0.09340905398130417, -0.04584452137351036, -0.1359224170446396, -0.045432232320308685, 0.14879080653190613], [-0.05793125182390213, -0.03297269716858864, -0.09678219258785248, -0.0023982275743037462, 0.11792968958616257]], [[-0.0861494317650795, -0.08376814424991608, -0.01999620720744133, 0.023387562483549118, -0.026073111221194267], [-0.03733343631029129, -0.0826587975025177, 0.030949939042329788, -0.01615404337644577, 0.026691433042287827], [-0.05734740570187569, -0.03655323386192322, 0.030544579029083252, 0.06510966271162033, -0.04756366088986397], [0.009677357971668243, 0.024512290954589844, 0.05746844410896301, 0.0005962029099464417, 0.054858289659023285], [-0.08324588090181351, -0.042227283120155334, -0.0037418839056044817, -0.037991005927324295, -0.007639307528734207]], [[0.01946987211704254, -0.04826876148581505, 0.03566109016537666, 0.001014509703963995, 0.07279949635267258], [0.052200544625520706, 0.008747643791139126, -0.0040768906474113464, -0.02412843331694603, 0.039001788944005966], [-0.013484166003763676, 0.0426977314054966, 0.048020798712968826, 0.017420006915926933, -0.06814002990722656], [0.04981452599167824, -0.07907364517450333, 0.0014001596719026566, -0.06133680045604706, -0.04640737920999527], [0.009360901080071926, -0.07935639470815659, -0.016700588166713715, -0.05701495707035065, -0.07267916202545166]], [[0.0390443317592144, 0.08352258056402206, -0.0472833551466465, 0.035728659480810165, -0.018533263355493546], [0.08612775802612305, 0.06272081285715103, -0.013708071783185005, 0.02224930189549923, 0.004073275253176689], [0.003545510582625866, -0.02094053104519844, -0.07219774276018143, 0.009041748009622097, 0.053126413375139236], [-0.008455852046608925, 0.011392787098884583, -0.05924246460199356, 0.07981835305690765, -0.04298868030309677], [0.0841231644153595, 0.020570171996951103, -0.09852297604084015, -0.018900129944086075, 0.03171776980161667]], [[0.04236416146159172, 0.10316123068332672, -0.02515910193324089, 0.036305300891399384, -0.028576910495758057], [0.04747889190912247, 0.0354960560798645, 0.026576310396194458, 0.07009810209274292, 0.11914367228746414], [0.048657894134521484, -0.004235247150063515, 0.06144465506076813, 0.022011559456586838, 0.07477907091379166], [-0.015904199331998825, 0.007355746813118458, 0.05655550956726074, 0.041976384818553925, -0.029331572353839874], [0.06657421588897705, 0.015165399760007858, 0.10646550357341766, 0.02058381587266922, -0.04383415728807449]], [[-0.012325933203101158, -0.12347716093063354, -0.03886110335588455, -0.017663542181253433, 0.06416352093219757], [0.03218439593911171, 0.05940757691860199, 0.0030427901074290276, 0.055000051856040955, 0.06844044476747513], [0.02060757949948311, 0.06115367263555527, -0.012530029751360416, -0.014398731291294098, 0.011560166254639626], [0.03591924160718918, -0.03728149086236954, -0.06201852485537529, 0.019023390486836433, -0.055431243032217026], [-0.051612045615911484, -0.044347066432237625, -0.018612774088978767, 0.019536364823579788, 0.022428426891565323]], [[0.13262608647346497, 0.0396365225315094, 0.006055018864572048, 0.045520249754190445, -0.003684407565742731], [0.1585751175880432, -0.004496481269598007, 0.014734841883182526, 0.14473780989646912, 0.0852183923125267], [0.05365308001637459, 0.03232676163315773, 0.014337149448692799, 0.07647991180419922, 0.07711770385503769], [0.03668440133333206, 0.06832005828619003, 0.1450962871313095, 0.07143539190292358, 0.006577223539352417], [0.13520702719688416, 0.08629569411277771, 0.09709582477807999, 0.04766863211989403, 0.011886585503816605]], [[0.03698853775858879, -0.013687942177057266, -0.051599252969026566, -0.0879339650273323, 0.01626819558441639], [0.028837773948907852, -0.05015558749437332, -0.061338119208812714, 0.04500976577401161, 0.024752940982580185], [0.04714445397257805, 0.06298154592514038, 0.020590845495462418, -0.10015689581632614, 0.0031557022593915462], [0.018583057448267937, -0.016185518354177475, -0.07334191352128983, -0.009085187688469887, 0.08923488110303879], [0.031359538435935974, 0.00912471953779459, -0.11443883925676346, -0.054807037115097046, 0.09627225250005722]], [[-0.07062733918428421, -0.08189466595649719, 0.04608078673481941, -0.03473750501871109, -0.0006211823783814907], [-0.18349261581897736, -0.029643774032592773, 0.09082093834877014, 0.017638081684708595, 0.1294635385274887], [-0.05632144212722778, -0.07396597415208817, 0.0852821096777916, -0.0857497900724411, -0.006412285380065441], [0.04027186334133148, 0.009216389618813992, 0.08893945068120956, -0.009155146777629852, 0.004919060505926609], [-0.06722208857536316, 0.023406261578202248, 0.05400734022259712, -0.07821565866470337, -0.01093781553208828]], [[-0.009625062346458435, 0.008218328468501568, -0.041968248784542084, 0.0005131140351295471, -0.06756455451250076], [0.047208573669195175, -0.08606502413749695, -0.005066481418907642, -0.009388066828250885, 0.006701723672449589], [0.008059533312916756, -0.09453228116035461, 0.05280943959951401, 0.07739266008138657, -0.011841835454106331], [0.05744345113635063, -0.028536278754472733, 0.029531311243772507, 0.11804437637329102, -0.06097448617219925], [0.08800722658634186, -0.00414001289755106, 0.041152674704790115, 0.05149906128644943, -0.04536990448832512]], [[0.018546396866440773, -0.029096784070134163, -0.03754971921443939, -0.06931401789188385, -0.031528398394584656], [-0.038864005357027054, 0.03399515897035599, -0.09080306440591812, -0.07047347724437714, 0.010575192980468273], [-0.057023048400878906, 0.03218458592891693, -0.083110511302948, -0.08662457019090652, 0.03607206046581268], [0.0026639290153980255, 0.06564911454916, -0.08298395574092865, -0.0016365734627470374, 0.05091869831085205], [-0.01955825835466385, 0.03442404791712761, -0.046916257590055466, -0.08313997834920883, 0.0002501315902918577]], [[-0.01638483814895153, 0.054177045822143555, -0.008871739730238914, 0.08129362761974335, 0.04648074507713318], [0.002391394227743149, 0.17279016971588135, -0.09301215410232544, 0.005142378620803356, -0.023298921063542366], [0.052061017602682114, 0.09690985828638077, 0.06862400472164154, -0.01207773294299841, -0.049493275582790375], [-0.014217939227819443, 0.03547264635562897, 0.037083350121974945, -0.0001117810606956482, 0.04847254604101181], [-0.11096389591693878, 0.07073205709457397, 0.015765484422445297, -0.0704713761806488, 0.010891115292906761]], [[0.05855633318424225, -0.05125139653682709, -0.05032580345869064, 0.0392521508038044, 0.012705782428383827], [0.0003566076047718525, -0.08229412883520126, -0.01748688519001007, -0.027868010103702545, -0.08002719283103943], [-0.008188284002244473, -0.0673956498503685, -0.09117764979600906, 0.01427144929766655, 0.05034041777253151], [0.04030274972319603, -0.08490685373544693, -0.04779067263007164, 0.05568309873342514, -0.12752225995063782], [0.0936366394162178, -0.023085137829184532, -0.005463272333145142, 0.04101034253835678, -0.008074861019849777]], [[-0.0055237822234630585, 0.0835757628083229, 0.08024758100509644, 0.043449245393276215, -0.013587897643446922], [0.017392508685588837, 0.07470133900642395, 0.10575050115585327, 0.07018765062093735, -0.03408125042915344], [-0.060851797461509705, 0.0419013649225235, -0.026218602433800697, -0.025260360911488533, -0.007969875819981098], [0.07815475761890411, 0.02946620061993599, -0.04431771859526634, -0.12076239287853241, 0.041779112070798874], [0.045971550047397614, -0.0332644060254097, -0.046298760920763016, 0.0076669566333293915, 0.04425302520394325]]], [[[-0.05221398547291756, 0.15516297519207, 0.12758733332157135, -0.011997446417808533, 0.09245745092630386], [0.004013971425592899, -0.06601924449205399, -0.012366238981485367, -0.10099368542432785, 0.015275090001523495], [-0.026654954999685287, -0.05361844226717949, -0.08016505837440491, -0.005136766470968723, 0.011300435289740562], [0.04531440511345863, -0.034334637224674225, -0.043193183839321136, -0.019229760393500328, 0.08483702689409256], [0.0352344810962677, 0.01411345973610878, -0.07364560663700104, 0.002801920287311077, 0.02396402694284916]], [[-0.057586126029491425, 0.0020111508201807737, 0.026448147371411324, 0.02384306490421295, 0.039427220821380615], [0.025117145851254463, -0.1115724965929985, 0.05118771642446518, 0.08692295849323273, 0.05419962853193283], [0.05960617586970329, -0.03888874873518944, 0.059455372393131256, -0.05351380258798599, -0.038538608700037], [0.11900930106639862, -0.03547926992177963, 0.029885543510317802, 0.04298410564661026, 0.04884307458996773], [0.031032796949148178, -0.02979852817952633, 0.11738718301057816, -0.02659735269844532, 0.11369336396455765]], [[0.0015582647174596786, 0.01187470369040966, -0.05031893402338028, 0.05184584856033325, 0.03822924941778183], [-0.03667207434773445, 0.021508144214749336, -0.03184108808636665, 0.03138574957847595, 0.024704981595277786], [0.0012224400416016579, 0.0715256780385971, 0.03750481456518173, -0.07331346720457077, -0.10373155027627945], [-0.015410472638905048, -0.02197229117155075, 0.05991396680474281, 0.11487018316984177, 0.06775068491697311], [-0.07753442227840424, -0.06440401077270508, 0.022282710298895836, 0.001623246818780899, 0.0152820385992527]], [[-0.10238280892372131, 0.07738546282052994, -0.16300101578235626, 0.017270132899284363, -0.0130301583558321], [-0.045701514929533005, -0.00619075633585453, -0.0745646208524704, 0.0797598659992218, 0.04606891795992851], [-0.027100820094347, 0.01404326781630516, -0.09537212550640106, -0.0976051539182663, -0.008414408192038536], [0.024709302932024002, -0.07289101183414459, -0.11140825599431992, -0.021846923977136612, 0.0030179652385413647], [-0.026744892820715904, 0.000998754519969225, -0.01602792739868164, 0.03254116326570511, 0.001787017099559307]], [[0.008880745619535446, -0.030566057190299034, 0.07370909303426743, 0.043276697397232056, 0.004990886896848679], [-0.011871209368109703, 0.038049064576625824, 0.08248019218444824, 0.01173141784965992, -0.030081793665885925], [0.04651616886258125, 0.008635051548480988, -0.0986490324139595, -0.032601580023765564, 0.014562470838427544], [0.02765045315027237, -0.01907413639128208, -0.0009861066937446594, -0.008616509847342968, 0.010453054681420326], [0.07073253393173218, -0.09949025511741638, 0.06300109624862671, -0.009529211558401585, -0.03674466907978058]], [[-0.0399085208773613, -0.019297363236546516, -0.048068173229694366, -0.051657114177942276, 0.007125755771994591], [0.07852008938789368, -0.05913187563419342, -0.05328620597720146, -0.0561165027320385, 0.012978930026292801], [-0.10502076894044876, 0.05224490165710449, -0.062190718948841095, -0.10543461889028549, -0.0851384699344635], [-0.07564860582351685, 0.02832861617207527, 0.11448754370212555, 0.025057148188352585, -0.08283496648073196], [-0.04700213298201561, 0.021271951496601105, 0.04035976901650429, 0.025401119142770767, 0.0501527301967144]], [[0.023340869694948196, -0.003837868571281433, 0.08638419210910797, -0.007944811135530472, 0.11425085365772247], [0.05248430371284485, 0.030286824330687523, -0.008500920608639717, 0.05324603244662285, -0.005289227701723576], [-0.12519288063049316, -0.03166937828063965, 0.058920565992593765, 0.041269995272159576, -0.006553313694894314], [0.03655505180358887, 0.07379715889692307, -0.016824517399072647, 0.03670069947838783, 0.06906015425920486], [0.011801051907241344, 0.012731906957924366, -0.06476958096027374, -0.07465341687202454, 0.051237691193819046]], [[0.08891880512237549, 0.11144265532493591, 0.06083408743143082, 0.013615410774946213, -0.012663375586271286], [-0.002621370367705822, -0.009755976498126984, -0.026918470859527588, -0.12709060311317444, 0.001187100075185299], [-0.0643300861120224, 0.012745339423418045, -0.022162146866321564, -0.017411356791853905, -0.02437821961939335], [-0.04695452004671097, -0.0316002331674099, -0.0013720151036977768, 0.05591300129890442, 0.08992840349674225], [-0.05466613546013832, 0.05364780128002167, -0.07187948375940323, 0.003431634046137333, -0.05712420493364334]], [[-0.08611936867237091, 0.19900499284267426, 0.14387750625610352, 0.034446295350790024, -0.024061376228928566], [-0.003371177241206169, 0.15887847542762756, -0.08429354429244995, 0.118252694606781, -0.018886316567659378], [0.07373485714197159, 0.0702153891324997, 0.0008014794439077377, 0.051292695105075836, -0.07062102109193802], [0.059284064918756485, -0.012128211557865143, -0.0366615355014801, -0.10065896064043045, -0.06733855605125427], [0.037211935967206955, 0.05361905321478844, -0.03382759541273117, -0.03804254159331322, -0.05076893791556358]], [[0.0005023526027798653, -0.028341632336378098, -0.040194906294345856, 0.05123790353536606, 0.014233045279979706], [-0.07051055878400803, 0.024633271619677544, -0.0438351035118103, 0.006277204491198063, 0.053632572293281555], [-0.036864347755908966, -0.062304191291332245, -0.032789960503578186, 0.05233423784375191, 0.07819124311208725], [-0.06238008663058281, -0.04214725270867348, -0.09343764930963516, -0.11815187335014343, -0.043047334998846054], [-0.0021886578761041164, -0.016993988305330276, -0.05794472619891167, -0.0019332861993461847, -0.022767450660467148]], [[-0.06797365099191666, -0.07281152904033661, -0.0015031583607196808, -0.0530596598982811, -0.044293276965618134], [-0.029566414654254913, -0.05509428307414055, 0.041798558086156845, 0.03032337874174118, 0.032431285828351974], [-0.03966743126511574, -0.060643270611763, -0.004552658647298813, 0.009432140737771988, 0.04171758145093918], [-0.013284722343087196, -0.0009193252772092819, 0.0763343796133995, -0.07319997996091843, -0.09084681421518326], [0.024335848167538643, 0.021647056564688683, 0.04926556348800659, 0.06067033112049103, -0.025176335126161575]], [[-0.09917832911014557, 0.03322434425354004, -0.08238089829683304, -0.05020041763782501, 0.016637451946735382], [-0.006217797752469778, 0.009661952964961529, -0.11008617281913757, -0.03244414180517197, -0.0649486780166626], [-0.01708691194653511, 0.03651484102010727, 0.0314202643930912, -0.0852901041507721, -0.048617299646139145], [-0.03820662945508957, -0.04647158831357956, -0.029964525252580643, -0.059356532990932465, 0.04745516926050186], [-0.005471929907798767, -0.0650317594408989, 0.02079547755420208, -0.007426830939948559, -0.012458425015211105]], [[0.057642918080091476, -0.008230229839682579, 0.008700097911059856, 0.038111746311187744, -0.010799734853208065], [-0.027594830840826035, -0.044079165905714035, 0.021334484219551086, -0.020527534186840057, -0.01967196725308895], [-0.04030190780758858, -0.11822792142629623, -0.05549025535583496, -0.0030403677374124527, -0.04340636357665062], [0.026624441146850586, -0.07411511242389679, -0.02232189103960991, -0.11983035504817963, -0.10650920867919922], [-0.054421164095401764, -0.07024221867322922, -0.04093119502067566, -0.0967719703912735, -0.025627586990594864]], [[-0.0015543065965175629, -0.043597254902124405, 0.030230969190597534, -0.0012506202328950167, 0.02854669839143753], [0.05242480710148811, 0.011272100731730461, 0.07525929063558578, 0.06126944348216057, 0.017873035743832588], [0.005175526719540358, 0.008498425595462322, -0.022959331050515175, -0.052720196545124054, -0.025201959535479546], [-0.03842299431562424, 0.008367353118956089, 0.021102281287312508, -0.008463075384497643, -0.06913390010595322], [-0.013391575776040554, 0.01293438021093607, 0.08676553517580032, 0.030736582353711128, 0.04134358838200569]], [[-0.0018119551241397858, 0.06381390988826752, 0.08402787894010544, 0.05153074860572815, -0.020570766180753708], [0.04627271741628647, -0.029304713010787964, -0.0767119750380516, 0.019474763423204422, -0.027160974219441414], [0.029927078634500504, -0.03740886226296425, -0.073029063642025, -0.15538714826107025, -0.07983913272619247], [-0.006382121238857508, -0.03304089978337288, 0.025002840906381607, 0.10713892430067062, 0.0600704699754715], [0.08568832278251648, -0.06034402921795845, 0.020110957324504852, -0.023870909586548805, 0.02648426964879036]], [[0.0075589753687381744, 0.05292319878935814, -0.08259646594524384, 0.0014318376779556274, -0.0830528736114502], [-0.025227025151252747, 0.009665187448263168, -0.06707338243722916, -0.0033227726817131042, -0.01597006991505623], [0.004193637520074844, -0.039949119091033936, -0.15333589911460876, 0.07145974040031433, -0.03198845684528351], [-0.0944477766752243, -0.1393328309059143, -0.16337871551513672, -0.0036341361701488495, -0.023621970787644386], [-0.06822453439235687, -0.058233633637428284, -0.057776160538196564, -0.08704904466867447, -0.14011013507843018]]], [[[0.005686209071427584, 0.04276547580957413, 0.08711163699626923, 0.059707991778850555, -0.02402758225798607], [0.045042604207992554, -0.061417486518621445, -0.005116571206599474, 0.041568584740161896, -0.01559654250741005], [0.010012369602918625, 0.10925549268722534, 0.08222880959510803, -0.01434199046343565, -0.07161720842123032], [-0.046644847840070724, 0.03668782114982605, -0.008863485418260098, 0.034075427800416946, 0.058217644691467285], [-0.036011703312397, 0.06134877726435661, 0.04194270819425583, -0.02215232141315937, 0.016678784042596817]], [[0.020298728719353676, 0.018413858488202095, 0.007479391992092133, 0.03208973631262779, -0.019777948036789894], [0.018922483548521996, 0.04010723903775215, -0.03289506211876869, -0.003481375053524971, -0.0784238800406456], [0.011222722008824348, -0.06384997814893723, -0.037321388721466064, -0.06348677724599838, -0.01826617494225502], [-0.005730374716222286, 0.012226797640323639, -0.08410746604204178, -0.09598318487405777, 0.019526410847902298], [0.013212031684815884, 0.10176616162061691, 0.05007541924715042, -0.10132431238889694, -0.01736070215702057]], [[0.03223644942045212, -0.02044987678527832, 0.016147684305906296, 0.10897517204284668, 0.035898517817258835], [-0.010070880874991417, 0.012714900076389313, -0.07811496406793594, -0.046899858862161636, -0.009014533832669258], [-0.014859044924378395, 0.053619135171175, -0.04029661789536476, -0.008946722373366356, -0.008323363959789276], [0.02479303628206253, 0.08404739201068878, 0.0632357969880104, 0.005408725701272488, -0.06524825096130371], [0.0072158752009272575, 0.05269540101289749, -0.0581367090344429, 0.004487714730203152, 0.024783501401543617]], [[0.022816704586148262, 0.015182926319539547, -0.018202517181634903, 0.00780573021620512, 0.033711548894643784], [0.02555283159017563, -0.013502138666808605, -0.051542554050683975, -0.00986049510538578, 0.07695423066616058], [-0.08534156531095505, -0.06339117139577866, -0.1331193745136261, -0.024602334946393967, 0.10003197193145752], [0.0019093789160251617, 0.010168515145778656, -0.004219545517116785, 0.002904993947595358, -0.014460002072155476], [0.07952491194009781, -0.022511612623929977, -0.08367518335580826, -0.012109621427953243, 0.03704692795872688]], [[-0.005515659227967262, -0.06506471335887909, -0.0007498189806938171, 0.12936784327030182, 0.09162148833274841], [-0.06148967519402504, -0.08194780349731445, 0.027216270565986633, 0.07955139130353928, 0.04629247263073921], [-0.013171556405723095, -0.021220408380031586, -0.0554109551012516, -0.03712493181228638, -0.025222308933734894], [0.0061737531796097755, -0.053270287811756134, -0.08364741504192352, -0.013207965530455112, -0.035980552434921265], [-0.0027762525714933872, 0.015657052397727966, -0.02697901986539364, -0.06044960021972656, -0.05737495422363281]], [[0.010889705270528793, -0.023866474628448486, 0.04428114369511604, 0.01883516274392605, 0.033100683242082596], [-0.056046225130558014, -0.056499600410461426, -0.060981009155511856, -0.10570892691612244, -0.05253562331199646], [-0.026780981570482254, -0.02693859674036503, -0.024562809616327286, 0.015168871730566025, -0.09360567480325699], [-0.007825681939721107, -0.013483908027410507, -0.14189724624156952, 0.014971408993005753, -0.03628349304199219], [-0.09269224107265472, 0.004475722089409828, 0.0027962662279605865, 0.013277143239974976, 0.04035092517733574]], [[-0.10378562659025192, -0.0037563135847449303, 0.05534207075834274, -0.04765702039003372, -0.002723021898418665], [0.033759262412786484, -0.0498531349003315, -0.06284330785274506, -0.008904187008738518, 0.06004177778959274], [0.07772736251354218, 0.07657527178525925, -0.011521591804921627, 0.023093290627002716, 0.04971817880868912], [0.10753630101680756, 0.047828298062086105, -0.016860848292708397, -0.012711189687252045, -0.02683216892182827], [0.00588696263730526, 0.02174147590994835, -0.0018724175170063972, -0.0026447889395058155, -0.021216372027993202]], [[-0.05047595500946045, 0.0335918627679348, -0.07405935227870941, 0.011339563876390457, -0.050795648247003555], [0.04436257854104042, -0.08593113720417023, -0.058401525020599365, 0.023269949480891228, -0.0814354419708252], [0.07259856909513474, 0.07311689108610153, 0.11712166666984558, 0.025184208527207375, -0.04796887934207916], [0.0467427521944046, 0.035140275955200195, 0.07650555670261383, -0.011406170204281807, 0.031317949295043945], [0.022670160979032516, -0.02564644068479538, 0.04957262799143791, 0.07477100938558578, -0.11982481926679611]], [[-0.026133060455322266, -0.0709255114197731, 0.07653257250785828, -0.04049409553408623, 0.059026651084423065], [-0.03129762411117554, -0.15143223106861115, -0.0747225284576416, -0.061949972063302994, 0.1039850190281868], [0.14341625571250916, -0.1989336758852005, -0.05265088751912117, -0.05052889138460159, 0.0880129262804985], [0.03154308348894119, -0.13165439665317535, -0.09756284207105637, -0.10292444378137589, -0.04077877104282379], [0.09456703066825867, -0.0555097758769989, 0.03663211688399315, -0.05049906298518181, -0.05071895569562912]], [[0.06067141517996788, 0.10292176902294159, 0.060872018337249756, 0.024586275219917297, -0.09622260928153992], [0.06240502744913101, -0.005972132086753845, -0.0495905727148056, -0.09482308477163315, 0.053196944296360016], [-0.013165650889277458, 0.08523783832788467, 0.05315837636590004, 0.04102692753076553, 0.016816286370158195], [-0.02036971040070057, -0.08142811805009842, 0.04630018025636673, 0.008993544615805149, -0.03984597697854042], [-0.0091986283659935, -0.042322639375925064, 0.07498694211244583, 0.0021655794698745012, -0.02457866072654724]], [[-0.054952189326286316, -0.10718519985675812, 0.017583532258868217, -0.005028443410992622, -0.11259439587593079], [-0.024003205820918083, -0.11378505080938339, -0.13385385274887085, -0.05812319740653038, 0.022172175347805023], [0.04247117042541504, -0.06678631901741028, 0.02815980091691017, -0.0017129052430391312, -0.07095968723297119], [0.1132635846734047, -0.036769527941942215, -0.022796232253313065, -0.019001200795173645, -0.04163415729999542], [0.12730872631072998, -0.07608427107334137, -0.05641517415642738, 0.04083278775215149, -0.08101595193147659]], [[-0.0319155752658844, 0.07005135715007782, 0.0317949615418911, 0.09385361522436142, 0.06996851414442062], [0.08063656836748123, 0.004796110559254885, -0.032882437109947205, 0.12739349901676178, 0.03008151985704899], [0.011526688933372498, -0.0023477820213884115, -0.09759484231472015, -0.01371011696755886, 0.01140911690890789], [0.0044503724202513695, 0.04898923262953758, -0.035796619951725006, 0.0076377494260668755, -0.03950643166899681], [0.07071984559297562, 0.03627220541238785, 0.0782591849565506, -0.04614570364356041, -0.03254225105047226]], [[-0.038684312254190445, -0.03740863502025604, -0.029050717130303383, 0.017388250678777695, 0.039235662668943405], [0.03944483771920204, -0.027437299489974976, 0.03577860817313194, 0.03476685658097267, 0.04842060059309006], [-0.042192522436380386, -0.0013206442818045616, -0.11258538067340851, -0.05646548047661781, -0.004953054711222649], [-0.06020782142877579, -0.11117786914110184, -0.063031867146492, -0.04976765438914299, -0.04069634899497032], [0.010479126125574112, 0.001280447468161583, -0.049606747925281525, -0.024926289916038513, -0.0003917934373021126]], [[-0.01440214179456234, -0.0016534393653273582, -0.0020523134153336287, 0.06953717023134232, 0.00030641816556453705], [-0.09358832985162735, -0.04318177327513695, 0.0046533700078725815, -0.07944916933774948, -0.0624580942094326], [0.0966544821858406, 0.0138587336987257, -0.0008498099632561207, -0.06980918347835541, -0.03570641204714775], [0.011696366593241692, -0.04445264860987663, -0.048621825873851776, -0.0403856560587883, 0.048615287989377975], [0.032983362674713135, -0.030238062143325806, -0.07489794492721558, -0.11075907945632935, 0.013145366683602333]], [[-0.01685495302081108, 0.02951517328619957, -0.02906959503889084, -0.07135044038295746, -0.03488893061876297], [-0.0096731660887599, -0.022645030170679092, -0.048896823078393936, -0.09695760905742645, -0.025807887315750122], [0.00983315147459507, -0.0014974325895309448, -0.09350430965423584, 0.024115178734064102, 0.13155725598335266], [-0.005928197875618935, 0.05595780164003372, 0.08868055790662766, -0.022732023149728775, -0.024803919717669487], [-0.10193052887916565, 0.08619026839733124, -0.028093114495277405, -0.08525572717189789, -0.06459863483905792]], [[-0.03664005920290947, 0.037365227937698364, 0.008421357721090317, 0.03280048817396164, -0.013417800888419151], [0.02297290787100792, 0.07610958814620972, 0.07323671132326126, 0.11331293731927872, 0.03371776267886162], [0.04581183195114136, -0.018408333882689476, 0.0024050534702837467, 0.14063100516796112, 0.05324647203087807], [0.029146071523427963, -0.06108279898762703, 0.04469231143593788, 0.017410779371857643, 0.07020950317382812], [0.026328198611736298, -0.05683610588312149, -0.046722106635570526, 0.01773662306368351, 0.038660477846860886]]], [[[0.042596325278282166, 0.025994569063186646, -0.12261367589235306, -0.06491942703723907, -0.1404268592596054], [-0.014999978244304657, -0.03141336143016815, 0.07464469969272614, -0.05887444317340851, -0.017007846385240555], [-0.01335107535123825, 0.0014614984393119812, -0.14687174558639526, -0.06360645592212677, -0.011624982580542564], [0.016649466007947922, -0.03941302001476288, -0.09677678346633911, 0.014265703968703747, 0.04741621017456055], [0.018491098657250404, 0.09584543108940125, -0.1056319996714592, 0.06887596845626831, 0.0364445224404335]], [[0.04505397006869316, -0.03633347153663635, -0.005196325480937958, -3.2335519790649414e-05, 0.0938875824213028], [0.02592502161860466, -0.04294407740235329, 0.05814412236213684, -0.05443551763892174, -0.04716087877750397], [-0.014232591725885868, 0.0018513789400458336, -0.028472281992435455, -0.09511353075504303, 0.006745133548974991], [-0.08665675669908524, 0.06507235020399094, 0.01180751621723175, -0.1115405485033989, 0.051984865218400955], [-0.0191296748816967, 0.005379974842071533, 0.04786781221628189, -0.04029059037566185, 0.014313486404716969]], [[0.11385417729616165, -0.03450186923146248, -0.05445526912808418, 0.044839851558208466, -5.14741986989975e-05], [-0.0420195497572422, 0.06138137727975845, 0.023787900805473328, -0.06576313078403473, -0.08602351695299149], [0.06418800354003906, -0.0013953689485788345, -0.09817463904619217, -0.07861306518316269, 0.029957417398691177], [-0.004138472490012646, -0.0017956756055355072, 0.08897344022989273, -0.05193783715367317, 0.016450991854071617], [0.025517800822854042, -0.049467045813798904, 0.024897698312997818, 0.024144010618329048, 0.0743417739868164]], [[-0.030659127980470657, 0.004138728603720665, -0.053353916853666306, 0.007733559235930443, -0.04612131789326668], [0.06590531766414642, 0.036421120166778564, -0.005741299130022526, -0.014635005965828896, -0.028430180624127388], [0.053980324417352676, 0.018979694694280624, -0.039924245327711105, -0.005761781707406044, 0.022863078862428665], [-0.06736629456281662, -0.016208138316869736, -0.047207899391651154, 0.013051826506853104, 0.027460705488920212], [0.031468912959098816, -0.015639636665582657, -0.05650608614087105, 0.03837434947490692, -0.04034317284822464]], [[0.04016563296318054, -0.018739763647317886, 0.086507149040699, -0.018493661656975746, -0.042419709265232086], [0.0221200343221426, 0.09791433066129684, 0.1130746603012085, -0.008379378356039524, 0.12622134387493134], [0.05642501637339592, 0.007353493012487888, 0.1206129863858223, -0.048845864832401276, 0.0338054858148098], [-0.028034133836627007, -0.011340145021677017, 0.01254943571984768, -0.05661863833665848, 0.002349056303501129], [-0.00463458988815546, 0.002595295663923025, -0.002486579120159149, 0.07858476042747498, -0.04981141909956932]], [[-0.06744217872619629, -0.1585918664932251, -0.055249784141778946, -0.004354910925030708, 0.025096114724874496], [-0.10345887392759323, -0.05272118002176285, -0.019379176199436188, 0.12089144438505173, 0.04432869702577591], [-0.023890482261776924, -0.112452432513237, -0.13292554020881653, 0.0018520569428801537, -0.01173989474773407], [0.05508943647146225, -0.008900111541152, 0.044260423630476, -0.04084623605012894, -0.04373064637184143], [-0.06450532376766205, -0.05179692432284355, -0.08505429327487946, -0.022014372050762177, -0.02071623131632805]], [[-0.028004568070173264, 0.05210544168949127, 0.03002890571951866, -0.07556256651878357, -0.002714605536311865], [-0.03575026988983154, -0.13842424750328064, -0.026273444294929504, 0.03014412522315979, 0.03483271598815918], [-0.046647630631923676, 0.024490460753440857, 0.024838658049702644, 0.08108192682266235, 0.042521119117736816], [0.037675127387046814, 0.018502218648791313, 0.04409009963274002, 0.08097313344478607, -0.08032962679862976], [-0.08026551455259323, -0.019387371838092804, 0.03048049658536911, -0.007616505026817322, -0.06490877270698547]], [[-0.013063834048807621, -0.045981958508491516, -0.10715683549642563, -0.041169051080942154, -0.008663419634103775], [-0.071544349193573, 0.02406441792845726, -0.028345802798867226, 0.026323335245251656, 0.040347516536712646], [-0.0397663339972496, 0.012712102383375168, -0.05482405424118042, -0.09275618195533752, -0.11468645185232162], [0.009290885180234909, -0.05735889449715614, 0.024011759087443352, 0.1126861572265625, -0.035390812903642654], [0.08447948098182678, 0.00541266705840826, 0.03415335714817047, -0.07071856409311295, 0.006227012723684311]], [[-0.1145370751619339, -0.0528121143579483, 0.03799213841557503, 0.14741943776607513, 0.08024615049362183], [-0.09927969425916672, 0.10600457340478897, 0.020819060504436493, 0.16656315326690674, -0.0044234804809093475], [-0.1411614865064621, -0.10748375207185745, 0.01996849849820137, 0.1874101310968399, -0.03377176448702812], [-0.026012886315584183, 0.060575127601623535, 0.07812453806400299, 0.09906909614801407, -0.004203271120786667], [-0.13542282581329346, -0.016559114679694176, 0.032096173614263535, 0.09524958580732346, 0.030611969530582428]], [[-0.009473150596022606, 0.0664922446012497, 0.05559207499027252, 0.008415661752223969, -0.022516421973705292], [0.057058997452259064, 0.0009142877534031868, 0.00587952695786953, 0.0790090560913086, 0.027355121448636055], [-0.03724846988916397, 0.08201055973768234, 0.056355711072683334, 0.0065122307278215885, -0.030651353299617767], [-0.01703174039721489, -0.07838795334100723, -0.027248410508036613, 0.014906264841556549, -0.010983818210661411], [0.004197371192276478, 0.03880699723958969, -0.007624008692800999, -0.05895181745290756, -0.06704990565776825]], [[-0.02800927124917507, -0.0440654419362545, -0.0070904456079006195, -0.09478123486042023, -0.09323711693286896], [-0.03020777553319931, 0.035044677555561066, -0.055445536971092224, -0.09491822868585587, 0.10398419201374054], [0.08038759976625443, -0.005106634460389614, 0.011950771324336529, -0.05299115180969238, 0.03472372889518738], [-0.028424710035324097, -0.14294207096099854, -0.09543566405773163, -0.12073863297700882, 0.03506673499941826], [0.05830866098403931, -0.018791280686855316, 0.05620468035340309, -0.0890277624130249, 0.0511498786509037]], [[-0.01108459196984768, -0.09220542758703232, -0.03711827099323273, 0.07194558531045914, -0.05135709419846535], [-0.020515507087111473, 0.08240833878517151, 0.028757687658071518, 0.05408218130469322, 0.027652516961097717], [0.042356401681900024, -0.15289510786533356, -0.0022038135211914778, 0.07861678302288055, 0.0015245615504682064], [-0.0497380830347538, -0.06361797451972961, -0.052497927099466324, -0.03473758324980736, -0.12745827436447144], [-0.020922252908349037, -0.08252900093793869, 0.03780650347471237, 0.022340744733810425, -0.06210915744304657]], [[-0.014901643618941307, 0.02150772139430046, 0.05163430795073509, -0.019318675622344017, -0.018161864951252937], [-0.042869437485933304, -0.010874951258301735, 0.02004995569586754, -0.04140602424740791, -0.03095279075205326], [-0.024178139865398407, 0.02075246535241604, -0.002870514988899231, -0.033529892563819885, 0.017425745725631714], [0.005251913331449032, -0.025515194982290268, 0.02255001664161682, 0.013582149520516396, -0.0074138520285487175], [0.01735110580921173, 0.006055851466953754, -0.0019467100501060486, 0.015340438112616539, 0.039154052734375]], [[-0.054959487169981, -0.11973388493061066, -0.18217818439006805, -0.007336759939789772, -0.0825989618897438], [-0.07175077497959137, -0.0891665443778038, -0.03707427531480789, 0.051025014370679855, 0.15437008440494537], [0.021417491137981415, 0.0376824289560318, -0.012351971119642258, 0.08025067299604416, 0.06017416715621948], [0.008911722339689732, 0.028342172503471375, -0.03702603280544281, 0.09187744557857513, -0.031044557690620422], [0.0400768406689167, -0.06908603012561798, -0.06437782943248749, 0.06024988740682602, 0.05059614032506943]], [[-0.05190613493323326, -0.018628664314746857, 0.03744751587510109, -0.02125610038638115, -0.02437874861061573], [0.015908606350421906, 0.03160863742232323, 0.16848844289779663, -0.007453270256519318, -0.07505818456411362], [0.005730403587222099, 0.023825298994779587, 0.040565259754657745, -0.06148454546928406, -0.09932897984981537], [0.012600233778357506, 0.07958739250898361, 0.1426129937171936, 0.018452875316143036, 0.004424631595611572], [0.014825161546468735, -0.02271571196615696, 0.05020938813686371, -0.005095860920846462, -0.04221107438206673]], [[0.08767898380756378, 0.1485784947872162, 0.01826750859618187, 0.0673665702342987, -0.016228921711444855], [0.0982610434293747, 0.08669159561395645, -0.04650101438164711, -0.0006661303341388702, -0.022572003304958344], [0.006133495829999447, -0.0072052981704473495, -0.015135584399104118, 0.036344822496175766, 0.0299178808927536], [0.04583589732646942, -0.04960557073354721, 0.013620387762784958, 0.08671952784061432, 0.13233335316181183], [0.00832744874060154, -0.06895295530557632, -0.052728988230228424, -0.01683131791651249, 0.00558781623840332]]], [[[-0.030480705201625824, -0.025579387322068214, 0.04496711492538452, 0.010281850583851337, 0.02873576059937477], [0.02961849234998226, -0.07020290195941925, 0.08625257760286331, -0.019224893301725388, -0.014914659783244133], [-0.12647071480751038, 0.02053997293114662, 0.1088758334517479, 0.08387336134910583, 0.02988038957118988], [-0.09075304865837097, -0.14919665455818176, 0.05261262133717537, -0.07978746294975281, -0.023073971271514893], [-0.0469047836959362, 0.1199120283126831, -0.033323630690574646, -0.07541035115718842, -0.0003251107409596443]], [[0.038754772394895554, 0.041038718074560165, -0.06888080388307571, -0.04811464995145798, -0.022970063611865044], [0.07406079769134521, 0.011603718623518944, 0.02231748029589653, -0.012043030932545662, -0.105405293405056], [0.04881354793906212, 0.06493544578552246, 0.0726734921336174, 0.035942066460847855, -0.07478071749210358], [0.033390991389751434, -0.017079299315810204, 0.1573171764612198, 0.11284178495407104, -0.028861703351140022], [0.013617679476737976, -0.0010574627667665482, 0.028481386601924896, 0.035200200974941254, 0.06535257399082184]], [[0.020244648680090904, -0.03684962913393974, -0.07581604272127151, 0.1340629756450653, -0.023082705214619637], [0.04419688880443573, -0.04306064173579216, -0.04594901576638222, 0.07260484993457794, 0.04474915191531181], [0.08661715686321259, 0.031448427587747574, 0.07305283099412918, 0.06482396274805069, 0.047218676656484604], [0.03713652864098549, -0.07758787274360657, 0.007051948457956314, 0.05237846449017525, -0.02377430535852909], [-0.022739771753549576, 0.008708513341844082, 0.02770182117819786, -0.05921674519777298, 0.01245191041380167]], [[0.006341461092233658, 0.029703661799430847, -0.07830259203910828, -0.04749531298875809, 0.038854971528053284], [-0.04207279905676842, -0.047510918229818344, -0.05758177116513252, 0.03985472023487091, 0.04396698623895645], [-0.03852062672376633, 0.06502941250801086, -0.11253257840871811, -0.023024141788482666, -0.0016715098172426224], [-0.07551773637533188, -0.04778468981385231, -0.08469218015670776, 0.04515542834997177, -0.1344025731086731], [-0.04636828228831291, -0.020164523273706436, -0.0054222578182816505, 0.13625186681747437, 0.018429148942232132]], [[0.023543663322925568, -0.018179865553975105, -0.06302031874656677, -0.088361456990242, -0.07987333089113235], [-0.00951233971863985, -0.07465296983718872, -0.0781191736459732, -0.08465530723333359, -0.07631698995828629], [-0.05664736405014992, -0.025625115260481834, -0.005517918616533279, -0.10351649671792984, -0.08527042716741562], [-0.06172119453549385, -0.10418004542589188, 0.14584381878376007, -0.044515710324048996, -0.037283092737197876], [-0.12344932556152344, -0.07572954893112183, 0.041519902646541595, -0.013739528134465218, -0.09859978407621384]], [[-0.0009374544024467468, -0.09583652764558792, 0.007698048837482929, -0.03600525110960007, -0.08578725159168243], [0.030025282874703407, 0.008867284283041954, -0.061283424496650696, -0.06616544723510742, -0.05546381324529648], [-0.061934299767017365, 0.04049607738852501, -0.1292875111103058, -0.1191965788602829, -0.12873665988445282], [0.0015270672738552094, 0.013503948226571083, -0.0694221556186676, -0.04003800079226494, -0.06303878873586655], [0.02844393439590931, 0.01192471943795681, 0.03520245850086212, -0.010915475897490978, 0.0149032361805439]], [[0.055319104343652725, 0.012374780140817165, 0.024294039234519005, -0.10776689648628235, -0.0712333545088768], [0.0018059760332107544, -0.019488684833049774, 0.09979800134897232, -0.0038475235924124718, -0.02947269193828106], [-0.03957435116171837, -0.11159811913967133, -0.0029146410524845123, 0.03770235925912857, 0.03768322244286537], [-0.0242464616894722, 0.047074850648641586, 0.0185089111328125, 0.054107654839754105, -0.006772737950086594], [-0.025735024362802505, 0.01830085925757885, 0.022705692797899246, 0.056657612323760986, 0.06369850039482117]], [[-0.02792343497276306, 0.03679323196411133, -0.049335818737745285, -0.06549960374832153, -0.031492680311203], [-0.04119407385587692, -0.027057120576500893, -0.015474081970751286, -0.07858370244503021, 0.0183724332600832], [-0.09442860633134842, -0.03527580946683884, 0.05773229897022247, 0.09817882627248764, 0.06115070730447769], [-0.18088285624980927, -0.13061031699180603, 0.08216928690671921, -0.006617698818445206, 0.06705635786056519], [0.009335103444755077, -0.01929551362991333, 0.020213058218359947, 0.03412365913391113, -0.02542795240879059]], [[-0.015004532411694527, -0.08050891757011414, -0.01992095075547695, -0.10595352947711945, -0.06745937466621399], [0.08724305778741837, 0.04662663862109184, 0.07044148445129395, -0.09434621781110764, -0.007447162643074989], [-0.003195148427039385, 0.07706520706415176, -0.001747142057865858, -0.07610271871089935, -0.10777999460697174], [-0.005649392493069172, 0.05451478064060211, -0.0011332039721310139, -0.03269936889410019, -0.08588212728500366], [-0.019268997013568878, -0.0018394924700260162, -0.04285934939980507, 0.03229951485991478, -0.02362912893295288]], [[-0.01587178371846676, -0.03340737521648407, 0.012870519421994686, -0.09345390647649765, -0.08474572002887726], [0.002783373463898897, 0.005530434660613537, -0.027098093181848526, -0.0002136947587132454, -0.013218489475548267], [-0.047787025570869446, -0.07074625790119171, -0.04279704764485359, 0.03393175080418587, 0.11867956817150116], [-0.0567835308611393, 0.0573389008641243, -0.027008943259716034, 0.09977298229932785, 0.07190769165754318], [0.011115179397165775, 0.0026152986101806164, 0.027990620583295822, -0.02891898714005947, -0.007105233147740364]], [[0.007966130040585995, -0.05744430795311928, -0.04739532247185707, 0.014545012265443802, 0.041116561740636826], [0.08228136599063873, -0.07640068233013153, -0.011777783744037151, -0.08165773749351501, 0.0523562952876091], [0.020892232656478882, 0.02032332867383957, 0.06267707049846649, -0.07819119095802307, -0.09420272707939148], [0.09764871001243591, 0.03851313143968582, 0.10844764113426208, 0.0022629769518971443, -0.1454237401485443], [0.034900177270174026, -0.014688307419419289, 0.11390895396471024, 0.10997693240642548, -0.004750422202050686]], [[0.0198105089366436, -0.032694485038518906, 0.027433378621935844, -0.06511435657739639, 0.014340134337544441], [-0.006917604245245457, 0.046342961490154266, -0.04232313111424446, 0.00669286772608757, -0.041365932673215866], [0.012034958228468895, 0.09477099031209946, 0.05013561621308327, -0.039448048919439316, -0.05261947959661484], [-0.05484459549188614, 0.07453816384077072, -0.00010548904538154602, 0.00013901782222092152, 0.006198365241289139], [0.02804385870695114, -0.03549187257885933, -0.044870853424072266, -0.06182996556162834, -0.022683219984173775]], [[0.005950458347797394, -0.01446242444217205, -0.011215012520551682, -0.039490096271038055, -0.07130582630634308], [-0.0451253280043602, 0.009248364716768265, -0.03693966567516327, -0.06065615639090538, -0.008658052422106266], [-0.038408901542425156, -0.02654740773141384, -0.09276324510574341, -0.036964159458875656, 0.0005797892808914185], [-0.11250466853380203, -0.07390441000461578, 0.041818685829639435, -0.07292914390563965, 0.010757297277450562], [-0.0409914031624794, -0.08549688756465912, 0.04080533608794212, -0.010993750765919685, -0.007936244830489159]], [[-0.02262691967189312, 0.00869819987565279, -0.04473227635025978, 0.029132869094610214, -0.03213496133685112], [0.049393728375434875, 0.014072192832827568, 0.01589060202240944, 0.023284144699573517, -0.09237726032733917], [-0.03505787253379822, -0.09217426180839539, 0.0752648413181305, -0.009451028890907764, -0.09111692011356354], [-0.050145696848630905, -0.009331164881587029, 0.0944339707493782, 0.04506486654281616, -0.02423250861465931], [-0.011727831326425076, -0.05985398590564728, 0.03337028995156288, 0.05577249825000763, 0.0811566635966301]], [[0.06990965455770493, 0.040599264204502106, -0.025267569348216057, 0.013008581474423409, 0.018183361738920212], [-0.0027721095830202103, 0.053237903863191605, 0.006659042090177536, -0.02980945259332657, 0.06518223881721497], [-0.0596335344016552, 0.04445912688970566, -0.0432211309671402, 0.0014967848546802998, 0.06412879377603531], [0.059255510568618774, -0.061009734869003296, -0.005881800316274166, -0.001832504291087389, 0.00322797242552042], [-0.001764778746291995, 0.07548444718122482, -0.024265091866254807, 0.02157522365450859, 0.016606008633971214]], [[-0.029422301799058914, 0.0022238942328840494, -0.0075960904359817505, 0.007135828025639057, 0.0373169407248497], [0.02525141090154648, -0.025326937437057495, -0.06002979353070259, 0.06677915155887604, 0.06169809401035309], [-0.016860121861100197, -0.05444556474685669, -0.07460103929042816, -0.034709397703409195, -0.0808197483420372], [-0.025041168555617332, -0.04980869218707085, -0.06258277595043182, -0.0388762466609478, -0.09273554384708405], [-0.02204650267958641, -0.041685231029987335, 0.03972069174051285, -0.07971234619617462, -0.10477439314126968]]], [[[-0.020762542262673378, -0.03390910103917122, 0.01044449768960476, -0.01352442242205143, 0.028677519410848618], [0.05212290957570076, -0.003760671243071556, 0.007901877164840698, 0.02097713202238083, 0.012682694010436535], [-0.05292781442403793, 0.024826135486364365, -0.12694182991981506, -0.015820495784282684, 0.07099379599094391], [-0.01848895475268364, 0.009302359074354172, -0.1362645924091339, -0.036589231342077255, 0.042524244636297226], [-0.07962203025817871, -0.041666947305202484, 0.018470272421836853, 0.08645663410425186, -0.06484997272491455]], [[-0.046533554792404175, 0.048063598573207855, 0.11385571211576462, -0.026700202375650406, 0.06690439581871033], [-0.011932358145713806, 0.0010822464246302843, -0.014530465006828308, -0.039213262498378754, 0.01761472597718239], [0.029745493084192276, -0.07092484086751938, 0.07607921212911606, -0.08695763349533081, -0.04392838478088379], [0.13106343150138855, -0.006552265956997871, 0.1397538185119629, 0.0049492958933115005, 0.06802557408809662], [0.07094147056341171, 0.03180813044309616, -0.10747238248586655, 0.087746262550354, 0.060821522027254105]], [[-0.046959470957517624, -0.016783256083726883, 0.06058040261268616, -0.08207389712333679, -0.022299956530332565], [-0.10146932303905487, -0.07672761380672455, 0.03653911501169205, -0.02006997913122177, -0.035121168941259384], [-0.06738841533660889, -0.09534300863742828, -0.049963776022195816, -0.04808161407709122, 0.025937795639038086], [-0.10389892011880875, 0.034007299691438675, -0.05054836720228195, -0.01905936188995838, -0.029851172119379044], [-0.06867741048336029, 0.025948405265808105, -0.15634559094905853, -0.012018382549285889, -0.06757763773202896]], [[-0.02446894347667694, 0.10294008255004883, 0.015422061085700989, 0.015235722064971924, 0.05346459895372391], [-0.010512031614780426, -0.014407710172235966, -0.11285989731550217, -0.043968603014945984, -0.037680938839912415], [0.029945295304059982, 0.023448921740055084, -0.008998501114547253, 0.04407493770122528, -0.11547353863716125], [-0.0029941052198410034, -0.03682196885347366, 0.04779956489801407, 0.007473371922969818, -0.05444173142313957], [0.02460816316306591, -0.0009310590103268623, -0.07108475267887115, -0.011140059679746628, 0.05163265019655228]], [[-0.03904346004128456, -0.06216850504279137, -0.03331213817000389, 0.009709478355944157, -0.01084959227591753], [-0.00963280163705349, -0.08385806530714035, -0.09153110533952713, -0.0009543928317725658, -0.08871366083621979], [-0.07530350983142853, -0.03335138410329819, -0.027026545256376266, -0.08599294722080231, -0.012399263679981232], [-0.06793295592069626, -0.14764632284641266, 0.08824853599071503, -0.02146904170513153, -0.09651891142129898], [0.07529940456151962, 0.03580420836806297, -0.004220234230160713, 0.11607424169778824, -0.06499005854129791]], [[-0.08310368657112122, -0.07639768719673157, -0.035009369254112244, -0.004351658746600151, -0.012559186667203903], [0.031795211136341095, 0.036059536039829254, -0.04939020797610283, -0.05992303043603897, -0.013030502945184708], [0.06058686971664429, 0.015293039381504059, 0.08268193900585175, -0.09349816292524338, -0.0749378427863121], [0.09418867528438568, -0.0699642151594162, -0.014727957546710968, 0.03215358778834343, 0.032893866300582886], [0.028015632182359695, -0.02329312637448311, -0.1617295891046524, -0.04956745728850365, 0.036337196826934814]], [[-0.003954058513045311, 0.006761105731129646, -0.009264973923563957, 0.028989361599087715, 0.04158347100019455], [-0.038071900606155396, 0.06678802520036697, -0.06387758255004883, 0.062712162733078, 0.004511281847953796], [-0.044006217271089554, 0.05932209640741348, -0.04095470905303955, 0.020704546943306923, 0.04729999229311943], [0.1564757376909256, 0.13693822920322418, -0.059460319578647614, 0.15677502751350403, 0.027079444378614426], [0.014666486531496048, -0.12131839990615845, 0.03042706288397312, 0.05876143276691437, 0.02306060865521431]], [[-0.0473979152739048, 0.005768517032265663, -0.008121021091938019, -0.01726182922720909, 0.004621788859367371], [-0.021165531128644943, -0.029638588428497314, 0.03703182563185692, -0.029926825314760208, 0.02158392034471035], [-0.06557350605726242, -0.0874323844909668, 0.07255427539348602, 0.016393441706895828, -0.02553895115852356], [-0.06236492097377777, 0.002227524295449257, -0.07557536661624908, 0.08742961287498474, 0.001247393898665905], [-0.04969903081655502, -0.055842965841293335, 0.0017182976007461548, 0.09580985456705093, -0.04813143610954285]], [[0.05253932997584343, 0.0197890792042017, -0.032362159341573715, 0.15401092171669006, 0.1090744286775589], [0.004867348819971085, 0.012749340385198593, -0.03826010972261429, 0.03629835322499275, -0.03467995300889015], [0.0719267725944519, 0.04317018389701843, -0.0946919247508049, 0.16919472813606262, 0.028418034315109253], [0.11790502071380615, 0.0001741228625178337, -0.004382641054689884, 0.15388494729995728, 0.0188142042607069], [-0.01584923267364502, -0.06287049502134323, 0.04327556863427162, 0.10036278516054153, 0.0452694445848465]], [[0.014093618839979172, -0.04814476519823074, -0.015051264315843582, 0.00491864699870348, 0.10040730237960815], [-0.045143961906433105, -0.03847033530473709, 0.04252002760767937, 0.04066463187336922, 0.04838913679122925], [-0.01660980097949505, -0.05120463669300079, 0.02353525348007679, -0.046351686120033264, -0.0631585419178009], [0.0025471383705735207, 0.05711239576339722, -0.06176692247390747, -0.026787661015987396, 0.03429209813475609], [-0.0241524837911129, 0.05253453180193901, 0.08581942319869995, -0.04968690499663353, -0.053438764065504074]], [[-0.010410748422145844, -0.022107036784291267, -0.044463805854320526, -0.022842999547719955, 0.05164756253361702], [0.001077922061085701, -0.05010269209742546, -0.011993780732154846, -0.11768733710050583, 0.028609294444322586], [0.0036403480917215347, -0.015504816547036171, 0.09229715913534164, 0.013103444129228592, -0.0016882093623280525], [0.06952881813049316, -0.06685363501310349, 0.04064273089170456, 0.03433599695563316, -0.030541645362973213], [0.020703233778476715, -0.18402495980262756, -0.06735487282276154, 0.05096248909831047, -0.021129341796040535]], [[0.05694640055298805, -0.050469622015953064, 0.026065703481435776, 0.05689435079693794, 0.06619609147310257], [-0.04275443032383919, -0.08684440702199936, -0.11668890714645386, 0.03856293112039566, 0.0698792114853859], [0.03148707002401352, 0.08036115020513535, -0.10152296721935272, 0.08873894065618515, 0.007324280217289925], [-0.019145987927913666, -0.06417365372180939, -0.06293588131666183, 0.08660190552473068, 0.013385222293436527], [-0.1065284013748169, -0.089266836643219, -0.011695867404341698, -0.015327622182667255, 0.04810728132724762]], [[0.008646195754408836, -0.030121300369501114, -0.08023438602685928, -0.04256107285618782, -0.03493862599134445], [0.0654001235961914, 0.047411490231752396, 0.03136686235666275, -0.03022853098809719, 0.016177603974938393], [0.07578090578317642, 0.03920814394950867, 0.02653743512928486, 0.006282071582973003, 0.0350448340177536], [0.003689761273562908, 0.020478729158639908, 0.11534521728754044, -0.01675538346171379, 0.018911190330982208], [-0.10644826292991638, 0.009171519428491592, 0.03087565116584301, -0.009793044999241829, 0.0037042829208076]], [[0.09911613166332245, 0.03327891603112221, -0.07292133569717407, -0.030355442315340042, -0.032328441739082336], [0.0983208417892456, 0.0008730534464120865, -0.026391513645648956, 0.029867345467209816, -0.008248521015048027], [-0.019454946741461754, 0.033211126923561096, 0.03124861977994442, -0.024301450699567795, -0.08328671753406525], [0.023028353229165077, 0.03189984709024429, 0.028851807117462158, 0.16530930995941162, -0.022890806198120117], [-0.0021466570906341076, 0.06740071624517441, -0.1081543117761612, 0.0034946566447615623, -0.06839317828416824]], [[-0.06667781621217728, -0.048861049115657806, 0.06460165977478027, 0.008214365690946579, 0.03587811440229416], [-0.011875957250595093, 0.05073436349630356, 0.00115911103785038, 0.021207207813858986, -0.01766982674598694], [0.03930625692009926, -0.022581949830055237, 0.05068390443921089, 0.04900560528039932, -0.08117896318435669], [0.004091057926416397, -0.0518135204911232, -0.0248241163790226, 0.10685223340988159, 0.010452641174197197], [-0.006355009041726589, 0.12997783720493317, 0.045590974390506744, -0.048948995769023895, -0.044363509863615036]], [[0.03520959988236427, 0.015162630006670952, -0.06301926076412201, -0.02525116316974163, -0.0011688300874084234], [-0.007308808155357838, -0.0801992192864418, -0.0997510775923729, -0.051723334938287735, 0.029761098325252533], [0.012825857847929, -0.025963470339775085, 0.009130597114562988, -0.1166282594203949, -0.0014260858297348022], [-0.0920887291431427, 0.04038648307323456, 0.03408891707658768, -0.13734562695026398, -0.0381215363740921], [0.013684552162885666, -0.025542406365275383, 0.03931412845849991, -0.014759118668735027, 0.005371158942580223]]], [[[0.006567563861608505, 0.10182897001504898, -0.05822182446718216, -0.03926031291484833, -0.08091042190790176], [0.013902608305215836, 0.10089567303657532, -0.044455111026763916, -0.018970482051372528, -0.02255823463201523], [-0.04934311285614967, 0.05165599659085274, -0.011889899149537086, 0.1253027617931366, 0.07298563420772552], [0.06795629858970642, 0.05251561477780342, 0.06627216935157776, -0.011566400527954102, -0.042820364236831665], [0.04108686000108719, 0.10675609111785889, 0.06705611944198608, 0.0036819539964199066, -0.04481755197048187]], [[-0.0672168955206871, -0.07750077545642853, -0.018689114600419998, -0.10732386261224747, 0.06902405619621277], [-0.03704774007201195, -0.022782372310757637, 0.011970246210694313, -0.05569365248084068, 0.031340502202510834], [-0.06858589500188828, -0.05227973312139511, 0.0916283056139946, -0.006306295283138752, -0.014553571119904518], [0.012963129207491875, 0.0036809565499424934, 0.07689454406499863, 0.04278520122170448, -0.001250268891453743], [-0.06891753524541855, -0.026316288858652115, -0.05381263792514801, 0.057171836495399475, 0.01593220978975296]], [[-0.09318555146455765, -0.032513804733753204, -0.07203013449907303, -0.0015498772263526917, -0.04357222467660904], [-0.07251931726932526, -0.007623352110385895, 0.00631596427410841, -0.0790434330701828, -0.0548810251057148], [-0.0695919319987297, -0.035512350499629974, 0.0014255484566092491, -0.021454980596899986, -0.09468306601047516], [0.001164320856332779, 0.005855438765138388, 0.0015279955696314573, -0.06929314881563187, -0.09445524215698242], [-0.1164231225848198, 0.06809026002883911, -0.11387861520051956, -0.07996021956205368, -0.06781437247991562]], [[-0.019383979961276054, 0.07070507854223251, -0.009236540645360947, 0.05407010391354561, -0.006583789363503456], [-0.02923089824616909, -0.034625791013240814, -0.019240470603108406, -0.005804595537483692, -0.0647846981883049], [-0.04322768375277519, -0.0062340074218809605, 0.057205475866794586, -0.0065943095833063126, -0.0453944094479084], [-0.04812408238649368, -0.026008669286966324, 0.00679655559360981, -0.04225790500640869, 0.08054302632808685], [-0.03682124614715576, -0.0038281548768281937, 0.005553552880883217, -0.03701198101043701, 0.005077626556158066]], [[0.011229200288653374, 0.012987104244530201, 0.04118148609995842, -0.06271129101514816, -0.07360311597585678], [0.032141782343387604, -0.031543344259262085, -0.05658027529716492, 0.0203067809343338, -0.0793633684515953], [0.05397088825702667, 0.025756092742085457, -0.015318896621465683, 0.02639858052134514, -0.13712462782859802], [-0.005439290776848793, 0.008172031491994858, -0.02340725064277649, -0.02049156092107296, -0.05730344355106354], [-0.05641096830368042, 0.0583343468606472, -0.0285885538905859, -0.0036999122239649296, -0.0033589075319468975]], [[-0.16458235681056976, 0.007941578514873981, -0.016680944710969925, -0.06377551704645157, -0.059883229434490204], [-0.005291547626256943, 0.020365159958600998, 0.058407291769981384, -0.07960693538188934, -0.04820364713668823], [-0.0466315895318985, -0.02192770689725876, 0.15771989524364471, 0.01297638937830925, 0.007490240037441254], [-0.010238802060484886, 0.040065936744213104, -0.02116938680410385, 0.10130760073661804, -0.04740062355995178], [-0.06108614429831505, 0.09827319532632828, -0.02560732699930668, -0.037840910255908966, -0.08475621789693832]], [[0.056847743690013885, 0.056571852415800095, 0.008199299685657024, -0.04194236546754837, 0.04837774112820625], [-0.01459633931517601, 0.0840165764093399, -0.01251187827438116, -0.04936724528670311, 0.041640136390924454], [-0.075395867228508, -0.04010447487235069, -0.09172678738832474, 0.0635259598493576, -0.019309543073177338], [0.00445668026804924, -0.023498784750699997, -0.005399378947913647, 0.03168391436338425, 0.051681313663721085], [0.020904280245304108, 0.012620939873158932, -0.050063539296388626, -0.011238518171012402, -0.0696779116988182]], [[0.03993886336684227, 0.009251201525330544, -0.0020893600303679705, -0.039422087371349335, -0.0475367046892643], [-0.015199219807982445, 0.08933939039707184, 0.10492558032274246, 0.019457736983895302, 0.05216095224022865], [-0.090013787150383, -0.007892911322414875, 0.037850309163331985, -0.015169983729720116, 0.004191824700683355], [0.06898181140422821, 0.09264376759529114, 0.07903829216957092, -0.014809653162956238, -0.055385153740644455], [0.10548938065767288, 0.1380438357591629, 0.15833216905593872, 0.022792981937527657, 0.026903675869107246]], [[-0.05641244351863861, -0.00758872926235199, -0.010475085116922855, -0.13439854979515076, 0.03147944435477257], [-0.010557280853390694, 0.04305686801671982, -0.08863051980733871, -0.009944709949195385, 0.05041338503360748], [-0.042303867638111115, -0.023452773690223694, -0.09384887665510178, -0.055845655500888824, 0.017418459057807922], [0.012915970757603645, -0.07036417722702026, 0.09381930530071259, 0.054805606603622437, -0.0015120841562747955], [0.01894957199692726, -0.06859695911407471, 0.08488363027572632, 0.014576274901628494, -0.022601734846830368]], [[0.07273144274950027, 0.08434618264436722, 0.0651586502790451, 0.022146055474877357, -0.030435670167207718], [0.007890812121331692, 0.06194378435611725, 0.02929817885160446, -0.009698550216853619, -0.0546521320939064], [0.1463916152715683, 0.036014821380376816, -0.05562074854969978, -0.12501227855682373, -0.08211784064769745], [-0.05368878319859505, 0.03307574242353439, -0.08356261253356934, -0.061302363872528076, 0.045413557440042496], [-0.0405697263777256, 0.019604187458753586, -0.007609505206346512, -0.07946061342954636, -0.0539768822491169]], [[-0.033716797828674316, -0.04605172947049141, 0.036907583475112915, 0.05283491313457489, -0.08581248670816422], [-0.028672553598880768, -0.07240660488605499, -0.06279847770929337, 0.013535110279917717, 0.0031334934756159782], [-0.08158135414123535, -0.04253806173801422, -0.007049219682812691, 0.07485184818506241, -0.044851262122392654], [0.026871925219893456, -0.06482015550136566, -0.012603772804141045, 0.01463337428867817, -0.08884745836257935], [0.0275300070643425, -0.005503336898982525, 0.05115368962287903, -0.021730078384280205, -0.023500166833400726]], [[-0.005994276609271765, 0.01642189919948578, 0.044931378215551376, -0.008427607826888561, -0.05468910560011864], [0.014557218179106712, 0.06372758746147156, -0.0042676604352891445, -0.016903355717658997, -0.08176795393228531], [-0.0038265567272901535, -0.0057966578751802444, 0.0022167747374624014, 0.06581088900566101, 0.013937313109636307], [0.014023675583302975, -0.05986274778842926, 0.012111077085137367, 0.0028869686648249626, 0.04383799061179161], [-0.01265355572104454, -0.01243718434125185, 0.060264792293310165, -0.057088203728199005, -0.1245952695608139]], [[0.08449014276266098, 0.003126438707113266, 0.01580405980348587, -0.02414659969508648, -0.08836226165294647], [0.022798046469688416, -0.020755447447299957, 0.007628561928868294, -0.042677395045757294, -0.039206717163324356], [0.018488939851522446, 0.03428579866886139, -0.03502967208623886, -0.09406669437885284, -0.04561064392328262], [-0.1501581072807312, -0.03795679286122322, -0.04928199574351311, -0.0001321178424404934, 0.002751242369413376], [-0.12373606860637665, -0.023035796359181404, -0.03716927766799927, -0.040165841579437256, 0.030946413055062294]], [[-0.05442296713590622, 0.039864882826805115, 0.012745381332933903, 0.013533138670027256, -0.017553433775901794], [-0.08032744377851486, 0.048424139618873596, 0.016029220074415207, -0.0328274704515934, 0.0639210045337677], [-0.06490898877382278, -0.027514580637216568, 0.0021592332050204277, -0.011077214032411575, 0.013237787410616875], [0.048137862235307693, 0.039668500423431396, 0.06435877084732056, 0.062386155128479004, -0.03450072556734085], [0.04254303127527237, 0.025208260864019394, -0.027091575786471367, 0.0862198919057846, -0.10699570924043655]], [[-0.0300280824303627, 0.02982897311449051, 0.027039553970098495, -0.018244437873363495, -0.03039722889661789], [0.10226095467805862, -0.0050656492821872234, 0.01680118590593338, -0.08158048987388611, -0.05439257249236107], [-0.056419264525175095, -0.014436347410082817, 0.07461612671613693, -0.03582298010587692, 0.026922207325696945], [-0.013493163511157036, -0.020455148071050644, -0.009312850423157215, -0.016337735578417778, 0.05207979679107666], [-0.00570219662040472, 0.08773684501647949, 0.08851828426122665, 0.06747490912675858, -0.04092748090624809]], [[-0.050771694630384445, -0.012891124002635479, -0.03524153307080269, 0.0578080452978611, -0.05068805068731308], [0.006663378328084946, -0.06929400563240051, -0.005946567747741938, -0.03644590452313423, -0.0978567898273468], [-0.04506663233041763, -0.03145816922187805, 0.004838233347982168, -0.029801111668348312, -0.07530488073825836], [0.024099960923194885, -0.04692981019616127, -0.06644745171070099, -0.12646760046482086, -0.034071579575538635], [0.006692327558994293, -0.0794418603181839, -0.0810614675283432, -0.02113836444914341, 0.004237676039338112]]], [[[0.11477582156658173, 0.10678999871015549, 0.022510647773742676, -0.021716229617595673, -0.060306861996650696], [0.009738403372466564, -0.03408440575003624, -0.04237210378050804, 0.07225066423416138, -0.03588547185063362], [0.09276314824819565, 0.07491381466388702, 0.044564977288246155, -0.04341525584459305, -0.00797107070684433], [0.11180289089679718, 0.00325725506991148, -0.01650550775229931, -0.07143835723400116, 0.023839162662625313], [0.04846607521176338, 0.009880710393190384, -0.09084104001522064, 0.003468485549092293, -0.024554168805480003]], [[-0.07248104363679886, -0.014872921630740166, -0.0030330470763146877, 0.034062597900629044, 0.07680594176054001], [-0.050009775906801224, -0.018148992210626602, -0.09521418809890747, 0.05509205907583237, 0.047729913145303726], [0.023777594789862633, 0.01341947726905346, -0.046518612653017044, 0.02870190143585205, 0.07247116416692734], [-0.02262941375374794, -0.07809862494468689, -0.06636565923690796, 0.007890619337558746, -0.025989850983023643], [-0.10312966257333755, -0.03246653452515602, -0.006339597050100565, 0.004375304561108351, -0.07250857353210449]], [[-0.05339452996850014, -0.06920870393514633, 0.045383766293525696, 0.009559747762978077, 0.10213182121515274], [-0.108479343354702, -0.030863285064697266, 0.03300691768527031, 0.035917364060878754, -0.05207996442914009], [-0.08738799393177032, 0.014336440712213516, 0.06703956425189972, -0.05724646523594856, -0.08606945723295212], [-0.04420861601829529, 0.04753220081329346, -0.014212451875209808, -0.03458447381854057, -0.059402115643024445], [-0.09012069553136826, -0.04740942269563675, -0.032645951956510544, -0.009780043736100197, 0.00846078246831894]], [[-0.03591334447264671, 0.0011481791734695435, -0.06774003803730011, 0.07664082944393158, 0.06670026481151581], [-0.04398644343018532, -0.01982707530260086, -0.00033784564584493637, -0.011822661384940147, 0.13666614890098572], [-0.08477452397346497, -0.03692462295293808, -0.10693874955177307, 0.03352014347910881, 0.04687202349305153], [0.016718393191695213, -0.03940969333052635, -0.058465972542762756, 0.013405116274952888, 0.02504180558025837], [-0.05767139792442322, -0.09338995814323425, -0.0803421139717102, 0.018797004595398903, -0.08939922600984573]], [[0.01294802501797676, 0.03011648915708065, 0.05574248731136322, 0.08979726582765579, -0.01789732463657856], [0.09711737930774689, 0.04077349975705147, 0.004997223149985075, 0.025587720796465874, -0.0036535291001200676], [0.09303484112024307, -0.0022763116285204887, -0.018504999577999115, 0.04202703386545181, 0.05559797212481499], [0.04516514763236046, -0.0873650386929512, -0.09064428508281708, 0.010905338451266289, 0.013311462476849556], [0.03951168432831764, -0.01862277090549469, 0.04521744325757027, 0.059267155826091766, -0.03825248405337334]], [[0.06345850229263306, -0.019298121333122253, -0.08874940872192383, 0.008590354584157467, 0.04674694314599037], [0.03218570351600647, 0.03901324048638344, -0.04462879151105881, 0.03049537166953087, 0.00023326650261878967], [-0.028424110263586044, 0.004664107225835323, -0.07651378959417343, 0.033806364983320236, -0.012207165360450745], [0.06014952436089516, 0.03289984539151192, -0.06401614099740982, 0.08605560660362244, -0.02560843899846077], [0.007347194477915764, 0.05686764419078827, -0.04733571037650108, 0.04500725865364075, 0.025267668068408966]], [[-0.005743790417909622, -0.009146766737103462, 0.023764140903949738, -0.013142470270395279, -0.10729900002479553], [0.04839897155761719, -0.006206250749528408, -0.029476098716259003, -0.11181125789880753, 0.0901007279753685], [0.04923243075609207, 0.11813759803771973, -0.024565577507019043, -0.10337760299444199, 0.04495872184634209], [0.004473421722650528, 0.042937666177749634, 0.0179081242531538, -0.03297210484743118, -0.03200710937380791], [0.0100998654961586, -0.06179480999708176, 0.026790130883455276, -0.08748643845319748, 0.06900959461927414]], [[0.009271220304071903, 0.020665917545557022, -0.01643764227628708, -0.009402355179190636, -0.02999182790517807], [-0.057941656559705734, -0.024537088349461555, -0.039939939975738525, 0.032870788127183914, -0.08683256804943085], [0.06931957602500916, 0.024123039096593857, -0.019810043275356293, 0.03727913647890091, -0.07408777624368668], [0.0385124534368515, 0.08401425927877426, -0.0051445988938212395, -0.008631287142634392, -0.06172932684421539], [0.024255473166704178, 0.07761532813310623, 0.014126158319413662, -0.08486665785312653, -0.1065090224146843]], [[0.032187096774578094, 0.03731650114059448, 0.048734623938798904, -0.02543766051530838, -0.02253851667046547], [0.06667393445968628, -0.014965321868658066, -0.14922292530536652, -0.011908859014511108, 0.12135063111782074], [0.15016278624534607, -0.02381056174635887, -0.09243687987327576, 0.14569054543972015, 0.08376701921224594], [0.09869513660669327, -0.034925978630781174, -0.04200778156518936, 0.029894601553678513, 0.04642440751194954], [0.1398720145225525, -0.04394754394888878, 0.008438612334430218, 0.005828420631587505, -0.05208548158407211]], [[-0.003013116307556629, 0.03717796504497528, 0.021559862419962883, -0.07638539373874664, -0.07685481756925583], [-0.03746916353702545, -0.005299381911754608, 0.0181034617125988, -0.1618364453315735, -0.009352062828838825], [-0.001884831115603447, -0.08449441194534302, -0.059346944093704224, 0.015014363452792168, 0.05974285304546356], [-0.053228817880153656, -0.034244388341903687, 0.045962318778038025, 0.0398845449090004, -0.023121297359466553], [-0.01073143258690834, 0.06362030655145645, -0.017093025147914886, -0.019754841923713684, -0.03219158947467804]], [[-0.08337151259183884, -0.01969108171761036, 0.024383148178458214, 0.008512023836374283, -0.044030141085386276], [-0.0033017732203006744, -0.1040707528591156, -0.03679541125893593, 0.05590337887406349, 0.010766470804810524], [-0.0019008924718946218, -0.025249943137168884, 0.11568936705589294, 0.06439915299415588, 0.00798968505114317], [-0.07956710457801819, 0.023055672645568848, -0.001265721395611763, -0.013499537482857704, 0.047388989478349686], [0.025980699807405472, 0.06805720925331116, 0.06122374162077904, 0.014931817539036274, -0.020263666287064552]], [[-0.1017959713935852, 0.016574034467339516, 0.057313818484544754, 0.013585958629846573, -0.03794470056891441], [-0.05711253732442856, 0.04175843670964241, 0.03446201607584953, -0.08195409178733826, 0.07722535729408264], [0.15192772448062897, 0.07961393892765045, 0.08708028495311737, -0.03187951818108559, -0.01436750590801239], [0.10340254008769989, -0.02454732358455658, -0.014773990958929062, -0.08185090124607086, 0.052170898765325546], [0.11898990720510483, 0.02892467752099037, 0.0201423242688179, -0.021135680377483368, -0.028590260073542595]], [[-0.030506186187267303, -0.012919689528644085, 0.11015312373638153, 0.020893679931759834, 0.05319434031844139], [0.03774544596672058, 0.02899264171719551, -0.006439937744289637, -0.0030616745352745056, -0.011814144439995289], [0.006659126840531826, -0.011358750984072685, -0.046519987285137177, 0.05062093585729599, 0.029439307749271393], [-0.0385655052959919, -0.015863560140132904, -0.01929350197315216, 0.02939421311020851, -0.01864880882203579], [0.005642412230372429, -0.14431218802928925, -0.10210888087749481, -0.033377982676029205, -0.020076492801308632]], [[-0.030339788645505905, 0.06456072628498077, 0.06633758544921875, -0.08783818781375885, 0.021949145942926407], [0.08254591375589371, 0.03163198381662369, -0.08425802737474442, 0.009489670395851135, -0.00033233873546123505], [0.00913196336477995, 0.048774369060993195, -0.08294303715229034, -0.09190414845943451, -0.041482459753751755], [-0.012294163927435875, -0.004033215343952179, -0.0676497220993042, -0.06557904928922653, -0.012124324217438698], [-0.00869729183614254, 0.04862746223807335, 0.006985858548432589, -0.002773924497887492, 0.08182437717914581]], [[-0.016850462183356285, -0.029981615021824837, -0.013876987621188164, -0.04047803953289986, -0.07750490307807922], [0.05051085352897644, 0.03237908333539963, -0.10391291230916977, 0.04616955667734146, 0.012627567164599895], [0.0867864117026329, 0.024470049887895584, 0.011927571147680283, 0.10745906829833984, 0.06144846975803375], [0.010059133172035217, 0.010036565363407135, 0.03566037490963936, 0.020569033920764923, -0.035048797726631165], [-0.10158374160528183, -0.06012490391731262, 0.022908702492713928, -0.023492176085710526, -0.004644832108169794]], [[-0.05911212041974068, 0.016973160207271576, 0.02822592481970787, 0.052335768938064575, 0.056748103350400925], [-0.00881323590874672, 0.018031548708677292, 0.047828882932662964, 0.10589293390512466, -0.04229801520705223], [-0.033395618200302124, 