{"layer1.0.weight": [[[[0.0017950832843780518, 0.027147948741912842, 0.08324878662824631, -0.4110338091850281, -0.32642126083374023], [0.23515920341014862, -0.06987868249416351, 0.003007052466273308, -0.16671881079673767, 0.08396308124065399], [0.35888028144836426, 0.24108190834522247, 0.06276293098926544, -0.1508992463350296, -0.24151135981082916], [0.10278229415416718, 0.28685957193374634, -0.11893735826015472, -0.31993424892425537, -0.09419043362140656], [0.18672685325145721, 0.2704174518585205, -0.023325566202402115, -0.18624725937843323, 0.061687469482421875]]], [[[0.2900102734565735, -0.08154995739459991, 0.006164915859699249, 0.18215306103229523, 0.02914566546678543], [0.2106848806142807, -0.03508835658431053, -0.06919824331998825, -0.05347317457199097, 0.1397985965013504], [0.1840926706790924, -0.20480778813362122, 0.022620707750320435, 0.19144566357135773, 0.12101300805807114], [0.08400962501764297, -0.168715700507164, -0.0021108314394950867, 0.23750467598438263, 0.06353646516799927], [0.08664198219776154, -0.19492919743061066, 0.28039348125457764, 0.1341567039489746, -0.14602534472942352]]], [[[0.20651859045028687, -0.06573018431663513, -0.20751701295375824, -0.21669116616249084, -0.19029022753238678], [0.16852399706840515, 0.08210323750972748, -0.22782807052135468, -0.1400846689939499, 0.10038112103939056], [0.030636178329586983, -0.21161533892154694, -0.10207875818014145, 0.2386324554681778, -0.07161206752061844], [0.00030252616852521896, -0.13670718669891357, 0.094601571559906, -0.13069528341293335, 0.0791790783405304], [0.09665381163358688, -0.2078508734703064, 0.025658205151557922, -0.0783919170498848, 0.015338672325015068]]], [[[-0.12899507582187653, 0.1291695237159729, -0.049161866307258606, -0.09786847233772278, 0.006550036370754242], [0.04188350588083267, -0.20626117289066315, -0.16933631896972656, -0.16543757915496826, -0.1003427505493164], [-0.21491673588752747, -0.21371528506278992, -0.2614486813545227, -0.11703352630138397, -0.18616393208503723], [-0.0413246788084507, -0.22668373584747314, 0.0187605619430542, 0.07381729781627655, -0.10924340784549713], [-0.12751929461956024, -0.10542160272598267, -0.13200660049915314, -0.020708687603473663, -0.3301489055156708]]], [[[0.03517546504735947, -0.15063218772411346, 0.18640266358852386, 0.14745154976844788, 0.11283509433269501], [0.03133969381451607, 0.25792360305786133, 0.13560576736927032, 0.034141890704631805, -0.008607462048530579], [-0.09115038067102432, -0.13748086988925934, -0.015590012073516846, 0.24373753368854523, 0.34023284912109375], [-0.01238424051553011, 0.03791498765349388, -0.18433329463005066, 0.11274763941764832, 0.2861837148666382], [-0.0913180261850357, 0.21448740363121033, 0.0932636484503746, -0.0021430402994155884, -0.04022236168384552]]], [[[-0.11727418005466461, 0.052487220615148544, -0.07952940464019775, 0.26659637689590454, 0.15629442036151886], [-0.238896906375885, -0.04046669602394104, 0.044533029198646545, 0.008921124041080475, 0.19620874524116516], [-0.15372377634048462, 0.14659343659877777, -0.03287341445684433, -0.00468357652425766, 0.40261387825012207], [-0.10512302070856094, 0.13596145808696747, -0.152776837348938, 0.4373859167098999, 0.06739306449890137], [0.11937148869037628, -0.1286870539188385, 0.39178532361984253, 0.3757464289665222, 0.04488886892795563]]], [[[-0.17329919338226318, 0.21473027765750885, 0.08956650644540787, 0.07480472326278687, 0.045392103493213654], [0.0021240562200546265, 0.03754284232854843, 0.19191041588783264, -0.06869567930698395, -0.20856331288814545], [0.10331453382968903, 0.20695748925209045, 0.20367124676704407, 0.0886002779006958, -0.11581321060657501], [0.1666899472475052, 0.21002085506916046, 0.17291398346424103, -0.029004059731960297, 0.09642422944307327], [-0.14222632348537445, 0.18229177594184875, -0.00949285738170147, -0.003227492794394493, 0.09113635122776031]]], [[[-0.06702812016010284, 0.1688583344221115, -0.2227029800415039, 0.13726551830768585, -0.1383579820394516], [0.07288330793380737, -0.004406481981277466, -0.03662657365202904, -0.03525502607226372, -0.1974201500415802], [0.2883957624435425, 0.11532922089099884, 0.0654275119304657, -0.03669598698616028, 0.015922844409942627], [0.35400843620300293, 0.16316825151443481, 0.18177488446235657, -0.007466856390237808, -0.09519615769386292], [0.24825872480869293, -0.08320747315883636, -0.05595681443810463, -0.11908885836601257, 0.09107579290866852]]], [[[0.08704756945371628, 0.26236507296562195, 0.1430855244398117, 0.3705645501613617, 0.16256175935268402], [0.22838890552520752, 0.29065582156181335, 0.19142000377178192, 0.6403412818908691, -0.024571843445301056], [0.17130231857299805, 0.13960610330104828, 0.524177610874176, 0.6110262870788574, 0.002324312925338745], [0.3774186372756958, 0.27953192591667175, 0.5109294652938843, 0.2670096158981323, -0.04156994819641113], [0.13336685299873352, 0.3765820264816284, 0.2169438749551773, 0.4879196286201477, -0.008914574980735779]]], [[[-0.11381930112838745, -0.01808536797761917, 0.13056635856628418, 0.2665547728538513, 0.33878475427627563], [0.14267168939113617, 0.17457611858844757, 0.2701837420463562, 0.042798273265361786, 0.0810505822300911], [-0.017270302399992943, -0.1500093787908554, -0.11129258573055267, -0.1723986715078354, -0.05243553966283798], [0.05158265307545662, 0.13068631291389465, 0.22894254326820374, 0.08719058334827423, -0.05380154401063919], [-0.015410637483000755, -0.10926691442728043, 0.03323620930314064, 0.06674326956272125, 0.22207629680633545]]], [[[-0.04450177401304245, 0.014056999236345291, 0.12702254951000214, 0.13180403411388397, 0.07175898551940918], [0.004180409014225006, 0.16581222414970398, -0.1669575721025467, 0.13240203261375427, 0.046009719371795654], [-0.007440641522407532, 0.01428145170211792, -0.14602115750312805, 0.03611613065004349, -0.02425258234143257], [0.16417506337165833, 0.20013774931430817, -0.23428048193454742, 0.019020963460206985, 0.014302416704595089], [0.18746711313724518, 0.12362660467624664, -0.34354841709136963, -0.1003042533993721, 0.048913225531578064]]], [[[0.36315619945526123, 0.22291786968708038, -0.14847058057785034, 0.10234057158231735, -0.14347043633460999], [-0.016699060797691345, 0.23475971817970276, 0.01902126520872116, 0.06784810870885849, -0.10579758882522583], [0.02959504723548889, 0.0419602170586586, 0.24427123367786407, -0.011411698535084724, -0.08019836992025375], [0.17680132389068604, 0.048439159989356995, 0.24663464725017548, -0.19281771779060364, -0.25215038657188416], [0.20584756135940552, 0.06455287337303162, 0.1257663071155548, -0.25390350818634033, 0.023675352334976196]]], [[[-0.10414162278175354, -0.1541416198015213, -0.03929783031344414, 0.020175859332084656, 0.19802892208099365], [0.1703978031873703, 0.07829916477203369, 0.11190293729305267, -0.01239494327455759, 0.21298851072788239], [-0.09318704903125763, 0.011727521196007729, -0.04283149912953377, 0.09628652781248093, 0.2518191337585449], [-0.025923699140548706, 0.14493772387504578, -0.18034614622592926, -0.07416711747646332, 0.2392273247241974], [0.1267508864402771, -0.0028858259320259094, 0.1710844784975052, -0.04587182030081749, 0.05904000997543335]]], [[[0.16305756568908691, 0.10867541283369064, 0.23841887712478638, -0.15023168921470642, -0.006936877965927124], [0.3212583661079407, 0.10290499031543732, 0.033814094960689545, 0.034631095826625824, 0.09210526943206787], [0.06769724190235138, 0.12198533117771149, -0.10109134763479233, -0.2581877112388611, 0.22391612827777863], [-0.0028927624225616455, 0.09229979664087296, -0.19500525295734406, -0.06725773215293884, 0.12957072257995605], [0.2623245120048523, -0.23526215553283691, -0.006464220583438873, -0.1358516812324524, -0.006728368811309338]]], [[[0.0192861445248127, 0.2257474958896637, -0.0475270040333271, 0.1004454642534256, -0.07211533188819885], [-0.16564758121967316, -0.07516305893659592, 0.09408104419708252, -0.1043877899646759, -0.14691095054149628], [-0.2028585523366928, 0.1545526683330536, 0.09866001456975937, 0.01869700849056244, 0.2920694351196289], [-0.09332282096147537, 0.11496181786060333, 0.0012228561099618673, -0.040273696184158325, 0.2920716404914856], [0.07686594128608704, 0.019138362258672714, -0.04984389990568161, 0.21889162063598633, 0.050503119826316833]]], [[[0.11594890058040619, -0.11177907139062881, -0.13143257796764374, -0.19286894798278809, 0.04358995705842972], [-0.13076788187026978, -0.18737304210662842, -0.40158993005752563, -0.24589885771274567, 0.029971115291118622], [0.06563504040241241, -0.2962299585342407, -0.3781839907169342, -0.20704184472560883, -0.04188288748264313], [-0.1055724173784256, 0.0395953394472599, -0.1848938763141632, -0.07089691609144211, 0.015444200485944748], [-0.08726511895656586, 0.12335775792598724, 0.08002520352602005, 0.0739780142903328, 0.11397043615579605]]]], "layer1.0.bias": [-0.010499987751245499, 0.1527937799692154, 0.028623467311263084, -0.1384173482656479, -0.09190511703491211, -0.06545650213956833, -0.1706078052520752, 0.024044688791036606, -0.179896280169487, 0.23461857438087463, -0.09572849422693253, -0.1183898076415062, 0.13799239695072174, -0.03343408554792404, 0.019856665283441544, 0.16740548610687256], "layer1.1.weight": [1.0073431730270386, 1.0236586332321167, 1.1288865804672241, 1.0806288719177246, 0.9427114725112915, 0.942999541759491, 0.9520537853240967, 0.9414746761322021, 1.0790549516677856, 0.7783294320106506, 1.0165703296661377, 0.8785966038703918, 0.8063801527023315, 0.94098299741745, 1.1261706352233887, 1.0783413648605347], "layer1.1.bias": [-0.08526530861854553, -0.0060514179058372974, -0.19593121111392975, -0.27844035625457764, -0.11179330945014954, -0.12764692306518555, -0.09255316853523254, -0.1218862384557724, -0.012952659279108047, -0.23924656212329865, -0.004918619524687529, -0.009290728718042374, -0.26889005303382874, -0.08284489065408707, -0.15720407664775848, -0.39752626419067383], "layer1.1.running_mean": [-0.029067376628518105, 0.14590536057949066, -0.11441274732351303, -0.4741371273994446, -0.060073502361774445, -0.07612349092960358, -0.21734961867332458, 0.022054240107536316, -0.1969498246908188, 0.2309418022632599, -0.06781294196844101, -0.11109792441129684, 0.4994463622570038, -0.061921849846839905, -0.039555858820676804, -0.3721255958080292], "layer1.1.running_var": [0.010601497255265713, 0.02865471877157688, 0.04477711766958237, 0.12727026641368866, 0.00688526127487421, 0.004130638670176268, 0.018238868564367294, 0.00788211077451706, 0.017428822815418243, 0.007346020545810461, 0.01683923974633217, 0.011528350412845612, 0.13973775506019592, 0.014446535147726536, 0.019555917009711266, 0.3605402410030365], "layer1.1.num_batches_tracked": 39000, "layer2.0.weight": [[[[-0.11550471186637878, -0.04362153634428978, 0.08021293580532074, -0.007221868261694908, 0.014323696494102478], [-0.058966465294361115, -0.04010457172989845, -0.043843355029821396, -0.026702657341957092, -0.10585322976112366], [-0.026095259934663773, -0.007323266007006168, 0.0009323712438344955, 0.002650771290063858, -0.03193940222263336], [-0.05741299316287041, -0.04908698797225952, 0.1098184809088707, 0.07837320119142532, 0.08583337813615799], [-0.035273730754852295, -0.13537129759788513, 0.01268211379647255, 0.003142360830679536, 0.010480951517820358]], [[0.11296486854553223, 0.03494998812675476, -0.028850924223661423, -0.10554871708154678, -0.08093976229429245], [0.03813749551773071, 0.03133082017302513, 0.010664615780115128, 0.02124793827533722, -0.008311055600643158], [0.02467212826013565, 0.06096876785159111, 0.022893082350492477, -0.03271668776869774, -0.07288917899131775], [0.09344135224819183, 0.09748078882694244, 0.029979679733514786, 0.0925377681851387, -0.005151763558387756], [0.062366388738155365, -0.006558713037520647, 0.035823315382003784, 0.10310351848602295, 0.02851446531713009]], [[-0.03197227045893669, -0.05657195299863815, 0.07711414992809296, 0.12144114077091217, 0.051549527794122696], [0.04186432063579559, 0.08129217475652695, -0.01004396378993988, 0.04481508210301399, 0.04940689355134964], [0.0062917498871684074, -0.06468353420495987, -0.04927651956677437, 0.0631626695394516, 0.0034148097038269043], [0.02234772965312004, -0.049639128148555756, -0.0010870452970266342, 0.059198152273893356, 0.13909552991390228], [0.03627128526568413, -0.023403430357575417, -0.037561316043138504, 0.12102460861206055, 0.054694436490535736]], [[0.07622535526752472, -0.04731375351548195, -0.13960473239421844, -0.02772543393075466, 0.040060240775346756], [0.10394202172756195, 0.06063804030418396, -0.01471862755715847, 0.005602919962257147, 0.012876344844698906], [0.10276442766189575, 0.06144627183675766, -0.006199672818183899, -0.021344443783164024, -0.015892066061496735], [0.040381528437137604, 0.05243696644902229, 0.002546025440096855, 0.01070093922317028, 0.07394342869520187], [0.09039437025785446, 0.15147925913333893, -0.0008180011063814163, 0.08640678226947784, 0.04645450785756111]], [[-0.0304749496281147, -0.05191073939204216, 0.01512470655143261, -0.09018401801586151, -0.02413972280919552], [-0.003658793866634369, 0.04940503090620041, -0.0457315631210804, -0.032058537006378174, -0.09153805673122406], [-0.04248898848891258, -0.036860041320323944, -0.025200672447681427, 0.03261672705411911, -0.0009909747168421745], [-0.019792631268501282, 0.08581317961215973, -0.02083815447986126, 0.06406557559967041, -0.005988285876810551], [0.048210419714450836, 0.032619476318359375, -0.00345896789804101, -0.03551960736513138, -0.0158301442861557]], [[0.021072018891572952, -0.03672818839550018, -0.028033804148435593, -0.051406700164079666, -0.027156401425600052], [0.06907343864440918, 0.027131158858537674, 0.06514591723680496, -0.031083423644304276, -0.01439917366951704], [0.00216975761577487, 0.0014110356569290161, -0.02155531756579876, -0.07504566013813019, -0.011235540732741356], [0.0011279033496975899, -0.0035300683230161667, -0.03184505179524422, -0.06899984180927277, -0.06096882000565529], [0.09190725535154343, 0.0029046572744846344, -0.021920669823884964, 0.034270863980054855, 0.017329979687929153]], [[0.034539006650447845, -0.048102859407663345, 0.013356833718717098, -0.06479628384113312, 0.03095385804772377], [-0.019666891545057297, -0.014222742058336735, -0.03672990947961807, 0.028170146048069, 0.004512507934123278], [-0.12381947785615921, -0.01651943288743496, 0.05068314075469971, -0.04050023853778839, -0.014178173616528511], [-0.045941565185785294, -0.04763243347406387, 0.14772246778011322, -0.007605348713696003, -0.0746237263083458], [-0.0145905502140522, -0.1485210359096527, 0.03774121403694153, 0.03876933455467224, -0.007500837557017803]], [[-0.05811397731304169, -0.17872995138168335, -0.040866367518901825, 0.03229338303208351, -0.0005828142166137695], [-0.15651802718639374, -0.04002229869365692, -0.0692266970872879, 0.04475919529795647, -0.05092579871416092], [-0.08571416139602661, 0.01571566052734852, 0.008148741908371449, 0.07217414677143097, -0.052008215337991714], [-0.12367945909500122, -0.06887947022914886, 0.002112937392666936, 0.038875240832567215, 0.02462051622569561], [-0.07666262984275818, -0.12423957139253616, 0.06640100479125977, 0.009971385821700096, -0.03789431229233742]], [[-0.08557278662919998, -0.05568055063486099, -0.08278588205575943, 0.002818554639816284, 0.03568975254893303], [0.03859492763876915, -0.049939610064029694, -0.022182010114192963, -0.02807769365608692, 6.729178130626678e-05], [0.011954866349697113, -0.04798365384340286, 0.08100609481334686, -0.07929221540689468, -0.0168534554541111], [0.01707957312464714, 0.027062835171818733, 0.007105670869350433, -0.046367060393095016, -0.03415955975651741], [0.016772091388702393, 0.0687461793422699, -0.11678269505500793, 0.00773497112095356, 0.015215607360005379]], [[-0.034308284521102905, 0.014272080734372139, -0.06570545583963394, -0.055714480578899384, 0.02716260962188244], [0.023980598896741867, -0.07151873409748077, -0.028116555884480476, -0.015582287684082985, -0.0581640861928463], [-0.00609052088111639, 0.08544472604990005, 0.03658168017864227, 0.08350572735071182, 0.007326890714466572], [-0.0077741811983287334, -0.02272712253034115, 0.032598622143268585, 0.02674185484647751, 0.015096663497388363], [-0.09392981231212616, -0.034678660333156586, -0.047389257699251175, -0.00924091786146164, 0.060287024825811386]], [[0.11463738232851028, 0.014361932873725891, -0.06621509790420532, -0.12891462445259094, 0.04252888634800911], [0.048529256135225296, 0.04093827307224274, -0.04787101969122887, -0.05601950362324715, -0.023182697594165802], [0.1180146187543869, 0.09195438027381897, 0.03513519465923309, 0.04968851059675217, 0.07592214643955231], [0.16878779232501984, 0.036649852991104126, -0.07396351546049118, -0.1017240360379219, -0.08086807280778885], [0.049371346831321716, 0.03702429309487343, -0.04642774909734726, -0.06031107157468796, -0.015719283372163773]], [[2.9570190235972404e-05, 0.05463739112019539, 0.06249198317527771, -0.05616402253508568, 0.07058286666870117], [0.06348623335361481, -0.025999320670962334, 0.05529147759079933, -0.044611599296331406, -0.009347036480903625], [-0.023303022608160973, -0.034676894545555115, 0.013694582507014275, -0.029816772788763046, -0.04660571739077568], [-0.05218052864074707, -0.07316669076681137, 0.04205822944641113, 0.015788041055202484, 0.007264803163707256], [-0.06019166484475136, -0.15902851521968842, -0.011653408408164978, -0.012818658724427223, -0.02264043502509594]], [[0.041346095502376556, -0.01320425420999527, -0.09046194702386856, 0.06360631436109543, 0.03390089422464371], [0.033405739814043045, -0.055294692516326904, -0.015392321161925793, -0.006519763730466366, 0.0579826794564724], [0.030818913131952286, -0.0826692283153534, -0.07439403235912323, 0.0135938860476017, -0.020507561042904854], [0.02711665630340576, 0.010573582723736763, -0.010843602009117603, 0.0825810506939888, 0.0054276674054563046], [0.023626143112778664, -0.007427264004945755, 0.019746949896216393, 0.01892557553946972, 0.04716205224394798]], [[-0.028821855783462524, -0.05882696062326431, -0.014666695147752762, -0.07924583554267883, -0.012872417457401752], [0.037777941673994064, -0.08531208336353302, 0.005638039670884609, 0.0449485145509243, 0.026449054479599], [-0.019873684272170067, -0.01733889989554882, -0.05240170657634735, 0.011377791874110699, -0.006176128052175045], [-0.056438714265823364, -0.01572423242032528, 0.006304646842181683, -0.054862383753061295, -0.09544312953948975], [0.012354995124042034, 0.012333063408732414, 0.08401864767074585, 0.012508701533079147, 0.035747356712818146]], [[0.023631777614355087, 0.033948685973882675, 0.002829805016517639, -0.010794606059789658, -0.000728740356862545], [-0.061959315091371536, 0.044000301510095596, -0.031224427744746208, 0.08621810376644135, -0.052427101880311966], [-0.05814344063401222, 0.05743498355150223, -0.05442441999912262, 0.021743644028902054, 0.02318796142935753], [-0.03349096328020096, 0.0598205104470253, 0.02746633067727089, -0.013609719462692738, 0.004648387897759676], [0.09538862854242325, 0.14799481630325317, -0.05852822586894035, -0.015873219817876816, -0.05265255644917488]], [[-0.03304573893547058, -0.02084594964981079, -0.03756622597575188, -0.03186201676726341, -8.520115807186812e-05], [-0.008143113926053047, 0.0347789004445076, -0.005738670472055674, 0.03063858486711979, -0.005494031589478254], [0.054445069283246994, -0.04012802615761757, -0.11974572390317917, 0.03482861816883087, 0.05820419639348984], [-0.0017790673300623894, -0.04302710294723511, -0.07661675661802292, 0.02588908188045025, 0.1060299500823021], [0.0272478386759758, -0.033286284655332565, 0.0234877597540617, 0.09248907119035721, 0.06779824197292328]]], [[[0.07368133217096329, -0.02632523700594902, -0.04650320112705231, -0.06504553556442261, -0.05972396209836006], [0.10991696268320084, 0.04679230973124504, 0.011404907330870628, -0.05342786759138107, 0.06699351966381073], [-0.05391046777367592, -0.046351976692676544, -0.09250131249427795, -0.0055640460923314095, 0.06951724737882614], [-0.00808329414576292, -0.006950337905436754, 0.02578858844935894, -0.008681226521730423, -0.04222999885678291], [-0.04103529825806618, 0.06029883027076721, 0.047714464366436005, 0.08823399245738983, 0.047554027289152145]], [[0.01380868162959814, -0.04720265790820122, 0.02810053341090679, -0.040562704205513, -0.014934324659407139], [0.00653819739818573, -0.09784864634275436, -0.017167652025818825, -0.04375872761011124, 0.01033848337829113], [0.030695384368300438, 0.0023854784667491913, 0.007861857302486897, -0.10749100148677826, -0.08588806539773941], [-0.05857238546013832, -0.042453374713659286, -0.01926441676914692, -0.04087447002530098, -0.0762578696012497], [-0.05066891014575958, -0.02829158492386341, 0.12651857733726501, -0.05610799044370651, -0.14318814873695374]], [[-0.004348668735474348, -0.02272234484553337, -0.08209044486284256, -0.14029833674430847, -0.1266328990459442], [-0.027726273983716965, -0.02125767432153225, -0.00375363533385098, -0.01493250485509634, -0.05862882733345032], [0.0027545704506337643, -0.07098681479692459, -0.05893266573548317, -0.08015500009059906, -0.06871837377548218], [-0.09551271796226501, -0.03320188820362091, 0.10470663011074066, -0.0007743658497929573, -0.06717649102210999], [-0.044147275388240814, -0.06784427165985107, 0.052008479833602905, -0.06448070704936981, 0.011850775219500065]], [[-0.027366336435079575, 0.04674728214740753, -0.02678586356341839, -0.02824249491095543, -0.01901601441204548], [0.0372118279337883, 0.05012604966759682, -0.02148657664656639, 0.01958245038986206, 0.017123881727457047], [-0.06827586144208908, 0.037680670619010925, -0.10521839559078217, -0.009993331506848335, -0.06326808780431747], [0.02975735440850258, 0.00559710618108511, 0.013322083279490471, 0.04780340567231178, -0.0005166414193809032], [0.0431162565946579, -0.07792021334171295, -0.0031337037216871977, 0.028427904471755028, 0.006144470535218716]], [[0.06884751468896866, 0.04435698688030243, -0.10752086341381073, 0.046168189495801926, -0.012038366869091988], [0.10529191792011261, 0.012526433914899826, 0.05311070382595062, -0.07234298437833786, 0.045737460255622864], [-0.013022295199334621, 0.06482281535863876, 0.026664812117815018, -0.18536847829818726, -0.12841182947158813], [-0.11531957983970642, 0.04667522385716438, 0.03376714885234833, -0.047994982451200485, -0.09254071116447449], [-0.02921154350042343, 0.020000342279672623, 0.08085886389017105, -0.054922886192798615, -0.09470779448747635]], [[-0.050005290657281876, -0.03197793662548065, 0.0623956099152565, 0.016545604914426804, 0.12557396292686462], [0.0707770362496376, -0.08167446404695511, 0.05433640629053116, -0.06599830090999603, 0.06996843218803406], [-0.011771592311561108, -0.018616419285535812, 0.04710231348872185, -0.05674009397625923, 0.061749592423439026], [-0.007060102187097073, -0.017105191946029663, -0.009973034262657166, -0.008659759536385536, -0.07705828547477722], [0.04258345812559128, 0.01123613677918911, 0.06781898438930511, -0.0295674167573452, -0.019960811361670494]], [[-0.0034290370531380177, -0.05655723810195923, 0.004740937612950802, 0.055363576859235764, 0.055971696972846985], [-0.006668673362582922, -0.023837082087993622, -0.017800167202949524, 0.06982149928808212, 0.07109779119491577], [-0.06763023138046265, -0.14766305685043335, -0.036362484097480774, -0.0711047425866127, -0.014686539769172668], [-0.07738711684942245, -0.09512076526880264, 0.003369309939444065, 0.11275037378072739, -0.06582559645175934], [-0.07820550352334976, -0.04268474876880646, 0.027396410703659058, -8.718203753232956e-05, 0.029083216562867165]], [[0.02782117761671543, 0.032096631824970245, -0.09564544260501862, -0.1256822645664215, -0.06086223945021629], [0.08006878197193146, 0.02958414889872074, -0.10173611342906952, -0.060896314680576324, -0.01857917197048664], [0.011007665656507015, 0.054926734417676926, 0.013324880041182041, -0.10566622763872147, 0.04254387319087982], [-0.0019319886341691017, 0.006042229477316141, 0.0015095776179805398, -0.037292446941137314, -0.038645241409540176], [0.041880909353494644, -0.05015131086111069, -0.0032408551778644323, -0.0075078969821333885, -0.01820683479309082]], [[-0.02117164246737957, 0.07773605734109879, 0.023763421922922134, 0.04698532074689865, 0.07070638984441757], [-0.04389295354485512, 0.06551048159599304, 0.0377701036632061, -0.012399592436850071, 0.06186980754137039], [-0.055775873363018036, -0.03057437390089035, -0.012378780171275139, -0.05202266201376915, 0.028348997235298157], [-0.11265485733747482, -0.08601439744234085, -0.05016712099313736, -0.06264916062355042, -0.017030663788318634], [0.05930078402161598, 0.02640501782298088, 0.07954131811857224, -0.02713881805539131, -0.11858420073986053]], [[0.0006897896528244019, 0.005635215900838375, 0.044074222445487976, -0.036583058536052704, -0.07176735252141953], [0.027239099144935608, -0.019686177372932434, -0.026183104142546654, 0.03057447448372841, 0.044104497879743576], [-0.04319494962692261, -0.03344788774847984, -0.03934058919548988, 0.017026320099830627, -0.0664818286895752], [-0.04968927800655365, 0.026951052248477936, 0.02760535478591919, 0.04441582038998604, 0.07766909152269363], [0.009266351349651814, 0.04098183289170265, 0.0445491299033165, 0.01845478266477585, 0.0517212338745594]], [[-0.05171205848455429, 0.028847988694906235, -0.021312616765499115, 0.02661600336432457, -0.07569213211536407], [0.05806539207696915, 0.026292819529771805, -0.06925302743911743, -0.07146943360567093, 0.031049076467752457], [0.0374651700258255, 0.08968202769756317, -0.042040642350912094, -0.1011795774102211, 0.0028509311378002167], [-0.04707706719636917, 0.11284106224775314, -0.001745445653796196, -0.08317816257476807, 0.038196176290512085], [0.015137523412704468, 0.0742337629199028, 0.15157952904701233, -0.034374792128801346, 0.028481122106313705]], [[0.017513297498226166, -0.061020296066999435, -0.039054498076438904, -0.0045800539664924145, 0.0525599904358387], [-0.0509309321641922, -0.034161053597927094, 0.04124120995402336, 0.03407568112015724, 0.022448284551501274], [-0.11794204264879227, -0.07654726505279541, -0.04998502507805824, 0.02659553848206997, -0.0684456154704094], [-0.08920738101005554, -0.0825071632862091, 0.06335286051034927, -8.963700383901596e-05, 0.019891146570444107], [-0.10426065325737, -0.028959177434444427, 0.04065306857228279, 0.10231496393680573, 0.05947994068264961]], [[-0.08448848128318787, -0.05209074169397354, 0.08766190707683563, 0.03682783618569374, 0.054434992372989655], [-0.020195819437503815, 0.0874629095196724, 0.06705662608146667, 0.07877619564533234, -0.014136439189314842], [-0.022337371483445168, -0.010883182287216187, 0.04642856866121292, 0.016223739832639694, -0.001285832142457366], [-0.06027575582265854, 0.025991255417466164, 0.03041360154747963, -0.04995216056704521, -0.04716664180159569], [-0.10159316658973694, -0.022391483187675476, 0.08067719638347626, -0.009649957530200481, -0.08352520316839218]], [[-0.024281620979309082, 0.020872987806797028, 0.09866651892662048, -0.03616822510957718, 0.011679422110319138], [-0.04353538528084755, 0.003934629261493683, 0.07126811146736145, -0.009280726313591003, -0.0034181668888777494], [-0.07913537323474884, 0.02519901841878891, 0.03159307688474655, -0.08260525017976761, -0.011068805120885372], [-0.1401216834783554, 0.016751211136579514, 0.0008922349661588669, -0.01596136949956417, -0.037036847323179245], [-0.02737521007657051, 0.04449209198355675, 0.04816528409719467, -0.05756930261850357, -0.058748774230480194]], [[0.09403295069932938, -0.01194971613585949, -0.03665293753147125, -0.015238573774695396, -0.06916823238134384], [0.08173900097608566, 0.08830093592405319, -0.0022582346573472023, -0.036212462931871414, 0.08955346792936325], [0.05273839831352234, 0.05243886262178421, -0.0053801154717803, -0.004140285775065422, -0.054897624999284744], [0.04958733171224594, -0.014519037678837776, 0.0826011523604393, -0.030018014833331108, -0.047263253480196], [0.1603981852531433, -0.009246869012713432, 0.09758570045232773, 0.07818237692117691, -0.09052091836929321]], [[0.04182247817516327, -0.04931321367621422, -0.051819488406181335, -0.07074939459562302, -0.10060983151197433], [0.05891533941030502, -0.015399111434817314, -0.03970995545387268, -0.013885227032005787, 0.04549364745616913], [0.034471094608306885, -0.05034589022397995, -0.045734260231256485, -0.06801299005746841, 0.042552679777145386], [-0.04102763161063194, -0.037453312426805496, -0.07665442675352097, 0.024002833291888237, 0.028975682333111763], [-0.044728465378284454, -0.010980477556586266, 0.007170770317316055, -0.00340831745415926, -0.0049437712877988815]]], [[[0.00012671947479248047, 0.02647332102060318, -0.11004091799259186, -0.09745857119560242, -0.014311226084828377], [0.10204052180051804, 0.014002684503793716, -0.04153065383434296, 0.022788170725107193, 0.046356335282325745], [0.016029387712478638, -0.015056122094392776, -0.08596200495958328, 0.021365823224186897, 0.02797865681350231], [-0.025741752237081528, -0.0021262839436531067, -0.12219420075416565, -0.023710142821073532, -0.005039151757955551], [0.02077210508286953, 0.04373142495751381, -0.07390264421701431, 0.06759607791900635, 0.04664994403719902]], [[-0.07080084085464478, -0.028270021080970764, 0.10453548282384872, 0.07494452595710754, 0.08975738286972046], [-0.08512941747903824, 0.01124977134168148, 0.14725732803344727, 0.02305350825190544, 0.059321850538253784], [-0.07417195290327072, 0.0541553795337677, 0.12775883078575134, 0.0012369235046207905, -0.02274741232395172], [-0.10260474681854248, 0.0045941658318042755, 0.17448320984840393, -0.02445479854941368, 0.047374773770570755], [-0.027771035209298134, -0.04339524358510971, 0.1256524622440338, -0.005333544686436653, 0.007782008498907089]], [[-0.11165018379688263, -0.09138955920934677, -0.04485217109322548, -0.041041407734155655, 0.0374569296836853], [-0.01604362390935421, 0.07558396458625793, 0.041793905198574066, -0.05295828357338905, 0.009789997711777687], [0.04656853526830673, -0.03246750310063362, -0.09298519045114517, 0.03296840563416481, 0.10305202752351761], [-0.09909515827894211, -0.04075181111693382, -0.13964201509952545, -0.04517381265759468, 0.15016530454158783], [-0.06560884416103363, -0.01964910328388214, -0.09762682020664215, -0.002224246971309185, 0.11762700229883194]], [[-0.08386510610580444, -0.07738298922777176, -0.02137518674135208, 0.022856328636407852, -0.021966945379972458], [-0.04894381761550903, -0.08355771750211716, 0.02630743756890297, -0.01755528151988983, 0.0296295415610075], [-0.07200878858566284, -0.03904123604297638, 0.021270159631967545, 0.05996375530958176, -0.04686079919338226], [-0.0068213436752557755, 0.019782215356826782, 0.04922346770763397, -0.008334256708621979, 0.048697467893362045], [-0.09744775295257568, -0.04398758336901665, -0.008742277510464191, -0.049587201327085495, -0.013730746693909168]], [[0.010186461731791496, -0.04284912347793579, 0.01881568320095539, 0.01652061939239502, 0.09551872313022614], [0.03883904218673706, -0.003130856901407242, -0.026904813945293427, -0.003104633651673794, 0.05463075265288353], [-0.030863184481859207, 0.04158177599310875, 0.044590309262275696, 0.030457543209195137, -0.06101731210947037], [0.03797163441777229, -0.0993463397026062, -0.0017499104142189026, -0.03925704583525658, -0.048716962337493896], [-0.0006140123587101698, -0.08323616534471512, -0.005372172221541405, -0.03750717267394066, -0.0816219374537468]], [[0.04065670818090439, 0.07835637778043747, -0.03574250265955925, 0.0367031991481781, -0.022429361939430237], [0.0769866555929184, 0.07216469943523407, 0.018933504819869995, 0.03367749974131584, 0.017572255805134773], [-0.002797267399728298, -0.0004946663975715637, -0.04330136626958847, 0.019281070679426193, 0.0574931837618351], [-0.005325560458004475, 0.00940859317779541, -0.04587073624134064, 0.07443635165691376, -0.04157795011997223], [0.08344454318284988, 0.012819364666938782, -0.06764198839664459, -0.008595351129770279, 0.036891255527734756]], [[0.04171416163444519, 0.09108713269233704, -0.02976970747113228, 0.04952067881822586, -0.027852484956383705], [0.06506267189979553, 0.03379042074084282, 0.0276776235550642, 0.08273762464523315, 0.11465398967266083], [0.054245725274086, -0.02102411538362503, 0.057546600699424744, 0.02875729650259018, 0.07745450735092163], [-0.011998863890767097, -3.8378871977329254e-05, 0.04381129518151283, 0.061263635754585266, -0.030724097043275833], [0.08269204199314117, 0.015732042491436005, 0.09667763113975525, 0.03586454316973686, -0.03995430842041969]], [[-0.011870147660374641, -0.11487001925706863, -0.031691569834947586, -0.02246146649122238, 0.0700288861989975], [0.04811960086226463, 0.1054057627916336, 0.030830908566713333, 0.05327323451638222, 0.07277011126279831], [0.02272474765777588, 0.06814471632242203, -0.004122311249375343, -0.01544526219367981, 0.0318196639418602], [0.029819540679454803, -0.01235521212220192, -0.03177750110626221, 0.022847969084978104, -0.027532491832971573], [-0.03668845817446709, -0.0069414349272847176, 0.009700529277324677, 0.0348331481218338, 0.05618230625987053]], [[0.11514538526535034, 0.03546009585261345, 0.010999356396496296, 0.044829707592725754, -0.016298798844218254], [0.13066717982292175, -0.02854621224105358, 0.00262614618986845, 0.11626073718070984, 0.08725975453853607], [0.032479602843523026, 0.007330612279474735, 0.003249672008678317, 0.06715182214975357, 0.07806161791086197], [0.0198491420596838, 0.05117085203528404, 0.13375622034072876, 0.05840937793254852, -0.004239866975694895], [0.1285679042339325, 0.07735168933868408, 0.10636229813098907, 0.03791239857673645, 0.015387890860438347]], [[0.03845072165131569, -0.024711478501558304, -0.04613481089472771, -0.08644748479127884, 0.007979730144143105], [0.04197545722126961, -0.040426310151815414, -0.06389084458351135, 0.03310607373714447, 0.01462413277477026], [0.04123696684837341, 0.04784524068236351, 0.02107391506433487, -0.09584175795316696, 0.014154031872749329], [0.010698611848056316, -0.022199733182787895, -0.06854598969221115, -0.003171861171722412, 0.09207786619663239], [0.023833883926272392, 0.004899868741631508, -0.1227845549583435, -0.056983582675457, 0.09678864479064941]], [[-0.07894450426101685, -0.05539638549089432, 0.052903912961483, -0.007599193602800369, 0.007949591614305973], [-0.20125344395637512, -0.018460582941770554, 0.0846533328294754, 0.0297435000538826, 0.12216377258300781], [-0.07335691154003143, -0.06863204389810562, 0.07056887447834015, -0.08447232097387314, -0.008493799716234207], [0.022843003273010254, 0.016269128769636154, 0.0893767848610878, -0.00868808850646019, -0.019730892032384872], [-0.07407888770103455, 0.028615709394216537, 0.0634830892086029, -0.07453086227178574, -0.045485980808734894]], [[-0.022771228104829788, 0.01607557386159897, -0.0249318964779377, 0.002214983105659485, -0.0760827586054802], [0.030048370361328125, -0.09319297224283218, 0.0004691369831562042, -0.019152838736772537, -0.002239564433693886], [0.001431476790457964, -0.09448715299367905, 0.059691138565540314, 0.07617715001106262, -0.018928561359643936], [0.04935555160045624, -0.030766334384679794, 0.022478140890598297, 0.11531996726989746, -0.07833416759967804], [0.08554967492818832, -0.005904889665544033, 0.049918390810489655, 0.04590247571468353, -0.05364321172237396]], [[0.026308279484510422, -0.018913062289357185, -0.03914681822061539, -0.07222781330347061, -0.029505228623747826], [-0.03305765986442566, 0.03874386474490166, -0.10407765209674835, -0.07555002719163895, 0.01426327507942915], [-0.055926449596881866, 0.03235842287540436, -0.09365930408239365, -0.08601633459329605, 0.03615538775920868], [0.002156730741262436, 0.06597080081701279, -0.09022131562232971, 0.0005816315533593297, 0.05379476398229599], [-0.017342960461974144, 0.04127848893404007, -0.048974037170410156, -0.07960712909698486, 0.00226088659837842]], [[-0.021354345604777336, 0.06200271472334862, -0.008168707601726055, 0.08586015552282333, 0.061369240283966064], [0.006204882636666298, 0.18061944842338562, -0.08481152355670929, 0.009742772206664085, -0.005584321916103363], [0.058002322912216187, 0.12151861190795898, 0.10457215458154678, 0.00544193247333169, -0.03670445829629898], [-0.014286600984632969, 0.041445277631282806, 0.05748596414923668, 0.003108423203229904, 0.0494605228304863], [-0.10992163419723511, 0.08868438005447388, 0.02271522954106331, -0.08717646449804306, 0.004788432270288467]], [[0.07049690186977386, -0.05221617594361305, -0.05642778426408768, 0.039877451956272125, 0.028759323060512543], [0.01466117799282074, -0.08679060637950897, -0.01910030096769333, -0.000479663722217083, -0.050955209881067276], [0.001726049929857254, -0.07411909103393555, -0.06949228048324585, 0.041009653359651566, 0.066984623670578], [0.052611831575632095, -0.09001024812459946, -0.031244706362485886, 0.09070999920368195, -0.10723026096820831], [0.09557858109474182, -0.015111860819160938, 0.0030250372365117073, 0.07747825980186462, 0.007291637361049652]], [[0.0046763429418206215, 0.09457572549581528, 0.08285193890333176, 0.04705110564827919, -0.00899939239025116], [0.01055101491510868, 0.07586018741130829, 0.10787346959114075, 0.07139875739812851, -0.033937305212020874], [-0.06986331939697266, 0.04085792973637581, -0.027689579874277115, -0.02539777383208275, -0.005250764079391956], [0.06843358278274536, 0.029792871326208115, -0.044178422540426254, -0.12659485638141632, 0.03688022494316101], [0.04058075696229935, -0.027034606784582138, -0.042833615094423294, -0.002046354115009308, 0.03557562083005905]]], [[[-0.041255876421928406, 0.17197497189044952, 0.1272955983877182, -0.0022703930735588074, 0.05936373025178909], [0.009845225140452385, -0.05722682923078537, 0.01752840168774128, -0.08282972127199173, 0.0033064279705286026], [0.002617327496409416, -0.0015371888875961304, -0.024627260863780975, 0.03538278862833977, -0.0013290857896208763], [0.06226597726345062, 0.006567521020770073, -0.0015237880870699883, 0.008880864828824997, 0.1002570241689682], [0.05080936476588249, 0.03969231992959976, -0.01650058850646019, 0.025487856939435005, 0.015055729076266289]], [[-0.10158810019493103, -0.00967983715236187, 0.007294967770576477, 0.009600255638360977, 0.01410273090004921], [-0.006977050565183163, -0.11144395172595978, 0.03715270757675171, 0.07840533554553986, 0.04456838592886925], [0.06035573035478592, -0.03375265374779701, 0.037818264216184616, -0.05652216821908951, -0.03127775713801384], [0.11105771362781525, -0.04562819004058838, -0.007570918649435043, 0.03477218747138977, 0.06083026900887489], [0.03838367015123367, -0.035929035395383835, 0.099517323076725, -0.0061392588540911674, 0.13012832403182983]], [[-0.006127608940005302, 0.00888046808540821, -0.058432258665561676, 0.052270643413066864, 0.03687787801027298], [-0.03886132687330246, 0.01848362386226654, -0.0571288987994194, 0.022742722183465958, 0.029572632163763046], [0.013071341440081596, 0.07619117945432663, 0.0297387782484293, -0.07328606396913528, -0.0970587506890297], [-0.007318900898098946, -0.015144706703722477, 0.05527979135513306, 0.1253088265657425, 0.06821922212839127], [-0.0736454427242279, -0.06613269448280334, 0.017846982926130295, 0.010373450815677643, 0.019216487184166908]], [[-0.09229718893766403, 0.07617969810962677, -0.15884144604206085, 0.0033947594929486513, -0.01388540305197239], [-0.0314507931470871, -0.00815157312899828, -0.07163238525390625, 0.06819990277290344, 0.04681237041950226], [-0.00493702944368124, 0.012924032285809517, -0.0848083347082138, -0.09077613800764084, 0.009604169987142086], [0.03164532780647278, -0.08679044246673584, -0.10858990252017975, -0.01875646598637104, 0.017232688143849373], [-0.025303971022367477, -0.01661023497581482, -0.021970640867948532, 0.03243041783571243, 0.001908973790705204]], [[-0.033133868128061295, -0.03858723118901253, 0.05951019376516342, 0.022666703909635544, 0.0018772194162011147], [-0.02712111547589302, 0.043371617794036865, 0.07232072204351425, 0.013735352084040642, -0.04633708670735359], [0.06473790109157562, 0.0493927039206028, -0.12037736177444458, -0.04208911955356598, 0.03963596746325493], [0.019559266045689583, -0.009785512462258339, -0.00489541981369257, -0.02454947866499424, 0.01175870094448328], [0.06492294371128082, -0.09212835133075714, 0.05522818863391876, -0.004857619293034077, -0.0019353590905666351]], [[-0.022716380655765533, -0.02079945057630539, -0.021236153319478035, -0.07908271253108978, 0.018733344972133636], [0.10010800510644913, -0.05699508264660835, -0.026666224002838135, -0.04692571610212326, 0.014926616102457047], [-0.06597350537776947, 0.08761351555585861, -0.026330964639782906, -0.07939828187227249, -0.07394199073314667], [-0.04264061152935028, 0.05980484187602997, 0.12025679647922516, 0.04369065538048744, -0.0657128170132637], [-0.03176480531692505, 0.005342013202607632, 0.046339865773916245, 0.03671267628669739, 0.09626127779483795]], [[0.014013871550559998, -0.026605967432260513, 0.06699758768081665, -0.012709204107522964, 0.08734174817800522], [0.05407803878188133, 0.026826635003089905, -0.014865078963339329, 0.037502437829971313, -0.015364447608590126], [-0.11763276159763336, -0.01252317801117897, 0.08604249358177185, 0.03529614955186844, -0.005225036293268204], [0.044795598834753036, 0.08147256821393967, -0.006979142315685749, 0.011030503548681736, 0.0627904012799263], [0.015140253119170666, 0.034078702330589294, -0.04624170809984207, -0.08143404126167297, 0.06135008856654167]], [[0.09284184873104095, 0.13225099444389343, 0.06307700276374817, 0.01454852893948555, -0.03183065354824066], [0.014163010753691196, 0.006003146059811115, -0.022382626309990883, -0.13122427463531494, -0.0063807545229792595], [-0.05226004868745804, 0.06362800300121307, 0.029338790103793144, 0.009879069402813911, -0.016102079302072525], [-0.02040306106209755, -0.006311035715043545, 0.03920479118824005, 0.06187588721513748, 0.10133349150419235], [-0.03692285344004631, 0.052998997271060944, -0.046778444200754166, 0.012859830632805824, -0.049910616129636765]], [[-0.10684551298618317, 0.1425667554140091, 0.12981955707073212, -0.0014129970222711563, -0.05719185620546341], [-0.04585190862417221, 0.12634269893169403, -0.06654180586338043, 0.06880597025156021, -0.023800469934940338], [0.0655662789940834, 0.06272545456886292, 0.03596813231706619, 0.024000324308872223, -0.06279339641332626], [0.0526096448302269, -0.011883823201060295, -0.03226841241121292, -0.1180405244231224, -0.043784428387880325], [0.03296881169080734, 0.05192585289478302, -0.022475752979516983, -0.030004307627677917, -0.024982918053865433]], [[-0.012539084069430828, -0.04082553833723068, -0.05482032150030136, 0.04259306937456131, -0.0018512774258852005], [-0.07556954026222229, 0.013903167098760605, -0.06166079640388489, -0.01828840747475624, 0.045486513525247574], [-0.06061415746808052, -0.07499361038208008, -0.018626365810632706, 0.04878002032637596, 0.09359047561883926], [-0.05222049355506897, -0.028845496475696564, -0.09720718115568161, -0.12463057041168213, -0.04762692749500275], [0.02233978360891342, 0.010587703436613083, -0.04335527494549751, 0.003951762802898884, 0.0006226887926459312]], [[-0.10111068934202194, -0.08048977702856064, -0.016556620597839355, -0.06503491848707199, -0.09269724786281586], [-0.07086094468832016, -0.06507739424705505, 0.023426590487360954, 0.037894539535045624, -0.011509659700095654], [-0.08072596043348312, -0.07180435955524445, -0.04471041262149811, 0.020441943779587746, 0.013463562354445457], [-0.026922788470983505, -0.0026447593700140715, 0.05450771376490593, -0.08254273980855942, -0.09781302511692047], [0.03105044551193714, 0.023120153695344925, 0.03833918273448944, 0.0817655473947525, -0.015668798238039017]], [[-0.08585738390684128, 0.01548233162611723, -0.07825521379709244, -0.0572596900165081, -0.006487849168479443], [-0.00958930142223835, 0.017124194651842117, -0.09575508534908295, -0.03339134901762009, -0.06209569051861763], [-0.0011987611651420593, 0.04468400776386261, 0.05916331335902214, -0.10036653280258179, -0.047309745103120804], [-0.0399838387966156, -0.044350408017635345, -0.0019336193799972534, -0.07081419229507446, 0.03555026277899742], [-0.02025187388062477, -0.06931497901678085, 0.0456649474799633, 0.009271565824747086, -0.005517488345503807]], [[0.04056879132986069, -0.009506240487098694, -0.0013861940242350101, 0.027760755270719528, -0.022905483841896057], [-0.04324778914451599, -0.043141551315784454, 0.018270445987582207, -0.026632368564605713, -0.03431754559278488], [-0.04538554325699806, -0.10507988929748535, -0.05695731192827225, -0.002812720835208893, -0.047686319798231125], [0.03200957179069519, -0.05538136884570122, -0.020011698827147484, -0.1132233589887619, -0.09730840474367142], [-0.03996453806757927, -0.05028480663895607, -0.03778085112571716, -0.08607769012451172, -0.015775984153151512]], [[-0.03809948265552521, -0.045458730310201645, 0.024658814072608948, -0.029511690139770508, 0.006940893828868866], [0.033959999680519104, -0.007494846358895302, 0.05323773995041847, 0.04852769896388054, -0.007095012813806534], [-0.021295955404639244, -0.00784999132156372, -0.05534708872437477, -0.06504204869270325, -0.037711016833782196], [-0.06526421755552292, -0.005749349482357502, -0.009554934687912464, -0.001810029149055481, -0.08274456858634949], [-0.012944263406097889, 0.004752270877361298, 0.07274236530065536, 0.029692906886339188, 0.0395415797829628]], [[-0.009265370666980743, 0.060756754130125046, 0.06995886564254761, 0.0354524590075016, -0.01290016807615757], [0.07110561430454254, -0.022935776039958, -0.08427819609642029, 0.014365317299962044, -0.02798100933432579], [0.06954729557037354, -0.005141910165548325, -0.08486659079790115, -0.16651026904582977, -0.04359079897403717], [0.036046359688043594, -0.01524820365011692, 0.02541321888566017, 0.09286921471357346, 0.08242283761501312], [0.10085844993591309, -0.06274750083684921, 0.011588836088776588, -0.0254276804625988, 0.0573357529938221]], [[0.01900745928287506, 0.04865017160773277, -0.0828491747379303, -0.005758010782301426, -0.08097033947706223], [-0.007563450373709202, 0.014568209648132324, -0.0665547102689743, -0.012778093107044697, -0.012047937139868736], [0.02877640724182129, -0.02798451855778694, -0.14190968871116638, 0.08042848855257034, -0.013751598075032234], [-0.08315183222293854, -0.13524854183197021, -0.16106830537319183, 0.00850126426666975, -0.003291832283139229], [-0.07048243284225464, -0.06700967252254486, -0.0601125992834568, -0.07821744680404663, -0.13368266820907593]]], [[[0.0308975987136364, 0.0595330148935318, 0.09598686546087265, 0.06391184031963348, -0.04158167913556099], [0.055572085082530975, -0.06169559806585312, -0.02290162444114685, 0.03520302101969719, -0.03477507457137108], [0.04204889386892319, 0.1463325321674347, 0.09922469407320023, 0.008964856155216694, -0.06954922527074814], [-0.011224310845136642, 0.06961993873119354, 0.016571257263422012, 0.047662537544965744, 0.07724049687385559], [-0.00936986319720745, 0.09160777181386948, 0.05968198925256729, -0.010325053706765175, 0.02016490139067173]], [[0.03586617484688759, 0.010647069662809372, 0.013164110481739044, 0.04330363869667053, -0.007255584001541138], [0.024145113304257393, 0.03329029306769371, -0.02767825871706009, 0.006204767152667046, -0.07307551056146622], [0.001129819080233574, -0.06675883382558823, -0.028396397829055786, -0.05582796409726143, -0.01643981970846653], [-0.018859131261706352, -0.00346327293664217, -0.07200945168733597, -0.08624989539384842, 0.031516533344984055], [0.0003023524768650532, 0.09513788670301437, 0.06037962809205055, -0.09108457714319229, -0.006376404780894518]], [[0.03378516435623169, -0.02996356040239334, 0.012597445398569107, 0.11702331900596619, 0.03165896236896515], [-0.01358732394874096, -0.005114450119435787, -0.0846150740981102, -0.0344676747918129, -0.007894867099821568], [-0.009421564638614655, 0.056303299963474274, -0.03529833257198334, 0.010230563580989838, 0.007624574936926365], [0.03135104849934578, 0.0869528278708458, 0.06940586864948273, 0.028915362432599068, -0.051773764193058014], [0.003511495888233185, 0.05994012579321861, -0.05570599064230919, 0.01726815290749073, 0.02964583784341812]], [[0.017446938902139664, 0.0054220883175730705, -0.03027241863310337, 0.0008138325065374374, 0.03319146856665611], [0.02151501737535, -0.021964678540825844, -0.05814330279827118, -0.015005648136138916, 0.0797395259141922], [-0.08724170923233032, -0.05912517383694649, -0.12890316545963287, -0.023981638252735138, 0.10552828758955002], [0.002418937161564827, 0.01275029219686985, 0.001276182709261775, 0.006749809253960848, -0.009456894360482693], [0.06985311210155487, -0.02512757107615471, -0.08455532789230347, -0.015628058463335037, 0.03747047111392021]], [[0.016791343688964844, -0.04622657224535942, -0.0015658512711524963, 0.11970630288124084, 0.08458719402551651], [-0.04287537932395935, -0.061621978878974915, 0.02147352695465088, 0.08338288217782974, 0.04987354576587677], [-0.014237815514206886, -0.0015516197308897972, -0.04209482669830322, -0.03343283757567406, -0.025081241503357887], [0.006748788058757782, -0.04286443442106247, -0.07863246649503708, -0.013200899586081505, -0.022289253771305084], [-0.004713030997663736, 0.028638189658522606, -0.024264568462967873, -0.05366983637213707, -0.04952026158571243]], [[0.02103997953236103, -0.02676907181739807, 0.04616798833012581, 0.009625015780329704, 0.007633010856807232], [-0.041316259652376175, -0.06175818294286728, -0.05511464923620224, -0.11426199972629547, -0.07108665257692337], [0.011182904243469238, -0.006589202210307121, -0.00511785876005888, 0.031156223267316818, -0.09333550930023193], [0.02401609532535076, 0.02068859152495861, -0.1105872169137001, 0.03696998208761215, -0.02382533624768257], [-0.059937506914138794, 0.03700008615851402, 0.027243992313742638, 0.02433830499649048, 0.04921550303697586]], [[-0.10944334417581558, 0.00948144868016243, 0.07098820060491562, -0.03184725344181061, -0.010165559127926826], [0.027360478416085243, -0.049445025622844696, -0.055150873959064484, 0.00228752288967371, 0.06390722095966339], [0.0814761072397232, 0.08499812334775925, -0.003005105070769787, 0.04032466188073158, 0.05332787334918976], [0.11130963265895844, 0.05048177391290665, -0.006642252206802368, 0.007701653987169266, -0.023789873346686363], [0.008854934945702553, 0.026276711374521255, 0.0018690379802137613, 0.0058320071548223495, -0.026149345561861992]], [[-0.03239273652434349, 0.04889252409338951, -0.07070750743150711, 0.014843082055449486, -0.06774793565273285], [0.05120649188756943, -0.08643212914466858, -0.07640301436185837, 0.012099023908376694, -0.09634025394916534], [0.10794758051633835, 0.09173388034105301, 0.11894753575325012, 0.034762974828481674, -0.03470310941338539], [0.06061824411153793, 0.05566631630063057, 0.09151998162269592, 0.018252283334732056, 0.04817257076501846], [0.02485988289117813, -0.01616632379591465, 0.05400523543357849, 0.08562293648719788, -0.1188112124800682]], [[-0.02795165404677391, -0.053573451936244965, 0.10670746862888336, -0.02258567325770855, 0.0728486105799675], [-0.03483496606349945, -0.14154896140098572, -0.05465206131339073, -0.050271421670913696, 0.11148145794868469], [0.13360454142093658, -0.1989201307296753, -0.03587357699871063, -0.032389603555202484, 0.09618423134088516], [0.022282665595412254, -0.13929355144500732, -0.07677232474088669, -0.09330711513757706, -0.031741708517074585], [0.09356889873743057, -0.06043921783566475, 0.04428458213806152, -0.04636842757463455, -0.04003763943910599]], [[0.06119130551815033, 0.10723176598548889, 0.0674704760313034, 0.023426996544003487, -0.0922875851392746], [0.08812090754508972, 0.018612418323755264, -0.033036816865205765, -0.088255874812603, 0.060555920004844666], [0.0008261147886514664, 0.09828513115644455, 0.05063195899128914, 0.04599633440375328, 0.023902397602796555], [-0.011415306478738785, -0.07493127137422562, 0.050837595015764236, 0.018372181802988052, -0.036554425954818726], [-0.0018475372344255447, -0.03409946709871292, 0.0810747742652893, 0.000601794570684433, -0.02659187652170658]], [[-0.04347546398639679, -0.11083387583494186, 0.025411956012248993, 0.009736677631735802, -0.09174390882253647], [-0.012766219675540924, -0.10312195122241974, -0.13034021854400635, -0.05534924566745758, 0.03460022434592247], [0.029869291931390762, -0.057437680661678314, 0.030659474432468414, -0.002581898123025894, -0.0668710470199585], [0.07942226529121399, -0.03939877450466156, -0.018803156912326813, -0.023747649043798447, -0.0324794203042984], [0.091528981924057, -0.08400744944810867, -0.05634268745779991, 0.03279009461402893, -0.06933683156967163]], [[-0.039926327764987946, 0.06362259387969971, 0.04420847073197365, 0.10225887596607208, 0.06938908994197845], [0.07652360200881958, 0.0016750767827033997, -0.025702817365527153, 0.14129440486431122, 0.03431028500199318], [0.019250892102718353, 0.0018038972048088908, -0.08988778293132782, 0.01216383557766676, 0.01633668690919876], [-0.0011379877105355263, 0.055298179388046265, -0.033351458609104156, 0.02336844988167286, -0.034002259373664856], [0.06749951839447021, 0.044234443455934525, 0.08253775537014008, -0.04607769846916199, -0.03288144990801811]], [[-0.0315316878259182, -0.02657642960548401, -0.024533726274967194, 0.016530849039554596, 0.039853084832429886], [0.04085409268736839, -0.019263673573732376, 0.031888365745544434, 0.026420168578624725, 0.04132542014122009], [-0.041227664798498154, 0.009149491786956787, -0.11627822369337082, -0.06404618918895721, -0.01407840009778738], [-0.05792216584086418, -0.10239477455615997, -0.06449146568775177, -0.056106485426425934, -0.04411660134792328], [0.010226406157016754, 0.006496500223875046, -0.055433668196201324, -0.032957807183265686, -0.00459959777072072]], [[-0.005379632115364075, 0.0075972359627485275, 0.005514134652912617, 0.07869407534599304, 0.016620103269815445], [-0.08494884520769119, -0.021202445030212402, 0.030478600412607193, -0.057303544133901596, -0.05130206048488617], [0.08627782016992569, 0.0073619261384010315, 0.0006808890029788017, -0.06681409478187561, -0.026842281222343445], [0.0031820975709706545, -0.04253571853041649, -0.03962959721684456, -0.03227750211954117, 0.06496986746788025], [0.030946461483836174, -0.007418140769004822, -0.059488967061042786, -0.09583211690187454, 0.024458181113004684]], [[-0.0013844664208590984, 0.044102992862463, -0.04640662297606468, -0.08264287561178207, -0.06317950785160065], [-0.01199833583086729, -0.01968378759920597, -0.055879317224025726, -0.10002214461565018, -0.04340863227844238], [0.016265306621789932, 0.010439332574605942, -0.08676470071077347, 0.036057982593774796, 0.13078679144382477], [0.004278563894331455, 0.06439685821533203, 0.0973953902721405, -0.0034735389053821564, -0.018992237746715546], [-0.0996740311384201, 0.08995036780834198, -0.028365593403577805, -0.07595572620630264, -0.06183936074376106]], [[-0.04143229499459267, 0.0267960112541914, -0.0025545733515173197, 0.027381116524338722, -0.021055709570646286], [0.014693230390548706, 0.06649500876665115, 0.06279947608709335, 0.11180479824542999, 0.03176380693912506], [0.03973078355193138, -0.019705506041646004, -0.0008560088463127613, 0.1441793441772461, 0.05780574679374695], [0.02270786464214325, -0.0585407018661499, 0.04757457971572876, 0.024341344833374023, 0.07646926492452621], [0.014050286263227463, -0.058465626090765, -0.04631255567073822, 0.017784545198082924, 0.0347452238202095]]], [[[0.06543450802564621, 0.05922828987240791, -0.08328947424888611, -0.028722602874040604, -0.1051204726099968], [-0.024222059175372124, -0.02664138562977314, 0.09078699350357056, -0.012377120554447174, 0.06021995469927788], [-0.02954549342393875, 0.014559566974639893, -0.11470359563827515, -0.015071514993906021, 0.03655128926038742], [-0.0020425161346793175, -0.05075576901435852, -0.09159033000469208, 0.015647463500499725, 0.06440284103155136], [0.0017047366127371788, 0.08018099516630173, -0.11030485481023788, 0.10645150393247604, 0.06830102205276489]], [[0.0542278066277504, -0.06499837338924408, -0.02281026914715767, 0.004356261342763901, 0.1091233566403389], [0.032211460173130035, -0.06253285706043243, 0.0626252293586731, -0.04563820734620094, -0.03473445028066635], [-0.0040354481898248196, -0.007864829152822495, -0.03332149237394333, -0.09395533055067062, 0.0019775517284870148], [-0.0818050429224968, 0.04247570037841797, 0.0040010251104831696, -0.10874796658754349, 0.05928487703204155], [-0.010592730715870857, 0.004104942083358765, 0.051256146281957626, -0.042201243340969086, 0.026721879839897156]], [[0.116151824593544, -0.032268717885017395, -0.04966941475868225, 0.045102741569280624, 0.0006693806499242783], [-0.05071372911334038, 0.0652131587266922, 0.036904461681842804, -0.05380355194211006, -0.06659337133169174], [0.06789716333150864, -0.001491297036409378, -0.10522554069757462, -0.09227060526609421, 0.026681385934352875], [-0.011191150173544884, -0.013321282342076302, 0.06680046766996384, -0.06415645033121109, 0.02192014269530773], [0.01863016188144684, -0.046723172068595886, 0.015195332467556, 0.009973788633942604, 0.08472279459238052]], [[-0.04061586782336235, -0.006366614252328873, -0.054819319397211075, 0.010604210197925568, -0.04174857959151268], [0.06489560008049011, 0.03807346150279045, 0.005143909715116024, -0.012388946488499641, -0.020949186757206917], [0.04675377160310745, 0.010342629626393318, -0.05385423079133034, -0.02493913471698761, 0.009459828957915306], [-0.0644662007689476, -0.01284851785749197, -0.04751952737569809, 0.007167238742113113, 0.02398248389363289], [0.034158315509557724, -0.00878178607672453, -0.05843718722462654, 0.03019513189792633, -0.03970175236463547]], [[0.04448607936501503, -0.039506565779447556, 0.07122088223695755, -0.013033242896199226, -0.022808503359556198], [0.004474222660064697, 0.09678614884614944, 0.12539777159690857, 0.017177226021885872, 0.14920184016227722], [0.042718201875686646, 0.008116151206195354, 0.11403167247772217, -0.06696565449237823, 0.02262449637055397], [-0.03443801403045654, -0.03468049317598343, 0.018177123740315437, -0.056838925927877426, 0.01346951350569725], [0.003725813701748848, 0.0005161771550774574, -0.013037361204624176, 0.06478926539421082, -0.04314357042312622]], [[-0.04883260279893875, -0.13854655623435974, -0.010052606463432312, 0.047048360109329224, 0.06215529143810272], [-0.08667448163032532, -0.03951368108391762, 0.038390692323446274, 0.1880580484867096, 0.08950058370828629], [-0.006766630336642265, -0.08532743155956268, -0.11356356739997864, 0.036926545202732086, 0.00276125967502594], [0.033749066293239594, -0.03666704148054123, 0.03858959674835205, -0.018606465309858322, -0.010379958897829056], [-0.07155837118625641, -0.07464732974767685, -0.07157076150178909, -0.006245128810405731, 0.014227688312530518]], [[-0.019209476187825203, 0.054538875818252563, 0.028834596276283264, -0.07676144689321518, 0.00015882332809269428], [-0.027274036779999733, -0.1355295181274414, -0.02857949584722519, 0.0373646542429924, 0.055658772587776184], [-0.04499781131744385, 0.004435516893863678, 0.01765350066125393, 0.07870122790336609, 0.03871403634548187], [0.03700399398803711, 0.015578756108880043, 0.031090453267097473, 0.08400963246822357, -0.072577103972435], [-0.08567577600479126, -0.029228489845991135, 0.02203284576535225, -0.0031216032803058624, -0.06008702144026756]], [[-0.002172706415876746, -0.02771250531077385, -0.0873221904039383, -0.014456023462116718, 0.02044769749045372], [-0.07744891196489334, 0.036793287843465805, -0.009518930688500404, 0.07023769617080688, 0.11810790747404099], [-0.054029904305934906, 0.014909323304891586, -0.03736276179552078, -0.06798720359802246, -0.08975538611412048], [0.0028336532413959503, -0.061048541218042374, 0.02533969283103943, 0.11411767452955246, -0.006188033148646355], [0.06371422111988068, -0.008556364104151726, 0.0364806093275547, -0.06919131428003311, 0.017279967665672302]], [[-0.10897019505500793, -0.06127336621284485, 0.01843845844268799, 0.14029273390769958, 0.09860926866531372], [-0.09077894687652588, 0.08379020541906357, 0.006907966919243336, 0.17423492670059204, -0.0007745930925011635], [-0.13985100388526917, -0.1194542720913887, 0.004782380536198616, 0.17113345861434937, -0.040481701493263245], [-0.007839549332857132, 0.05825722962617874, 0.059090595692396164, 0.08910190314054489, -0.013456383720040321], [-0.1357773244380951, -0.022142963483929634, 0.011900210753083229, 0.09802759438753128, 0.03172019124031067]], [[-0.014621762558817863, 0.05766052380204201, 0.06447994709014893, 0.01064981333911419, -0.022678645327687263], [0.06921805441379547, 0.006352873519062996, 0.008910483680665493, 0.08703988790512085, 0.045163899660110474], [-0.055016860365867615, 0.06024119257926941, 0.05185607075691223, 0.02522905543446541, -0.034340765327215195], [-0.019422661513090134, -0.06148671731352806, -0.005845930427312851, 0.021377593278884888, 0.0004103793762624264], [0.001946394331753254, 0.02895689755678177, -0.006325238384306431, -0.047086719423532486, -0.058901600539684296]], [[-0.039690203964710236, -0.08239345997571945, -0.059984926134347916, -0.1079946905374527, -0.08627910912036896], [-0.03127177059650421, 0.006422482430934906, -0.10814674198627472, -0.0957520380616188, 0.12029966711997986], [0.06438001990318298, -0.021368909627199173, -0.03253018483519554, -0.0573427677154541, 0.050815459340810776], [-0.012193143367767334, -0.14304721355438232, -0.09815788269042969, -0.12300999462604523, 0.05167496204376221], [0.08987689763307571, -0.019108422100543976, 0.04151764139533043, -0.08802555501461029, 0.06175726652145386]], [[-0.004960193764418364, -0.08402600884437561, -0.04045121371746063, 0.0771169513463974, -0.042230263352394104], [-0.010401972569525242, 0.08722739666700363, 0.031919531524181366, 0.07475215941667557, 0.048045720905065536], [0.0412125289440155, -0.1569545865058899, -0.016201192513108253, 0.06663350015878677, 0.0005889195017516613], [-0.036272138357162476, -0.06156962364912033, -0.06666646152734756, -0.028391119092702866, -0.11874717473983765], [-0.012075819075107574, -0.06893587857484818, 0.023992255330085754, 0.02192423865199089, -0.05263347178697586]], [[-0.004279042594134808, 0.024585377424955368, 0.051972053945064545, -0.014272842556238174, -0.009252259507775307], [-0.031819552183151245, -0.004112253896892071, 0.02820323407649994, -0.030911937355995178, -0.013735445216298103], [-0.020196964964270592, 0.03171105682849884, 0.014521773904561996, -0.0194033682346344, 0.03542441874742508], [0.009252754971385002, -0.019835947081446648, 0.035746440291404724, 0.01864161714911461, 0.0007015138398855925], [0.019390003755688667, 0.008431749418377876, 0.004416976124048233, 0.020696518942713737, 0.04651464894413948]], [[-0.06351669132709503, -0.131968155503273, -0.1857822686433792, -0.0016260091215372086, -0.08285873383283615], [-0.08883291482925415, -0.09807950258255005, -0.025803253054618835, 0.05374975875020027, 0.15782687067985535], [0.0044405497610569, 0.03398832306265831, -0.00969735998660326, 0.07785825431346893, 0.08872120827436447], [0.013072703033685684, 0.04590524360537529, -0.013628307729959488, 0.11033689975738525, 0.00882314145565033], [0.042540282011032104, -0.061357658356428146, -0.058302681893110275, 0.050440914928913116, 0.08304447680711746]], [[-0.04765762761235237, -0.01613345742225647, 0.05997864156961441, -0.00856960192322731, -0.007050065323710442], [0.005218131467700005, 0.053047534078359604, 0.2358231544494629, 0.028525030240416527, -0.04972762614488602], [0.0037141521461308002, 0.03359295427799225, 0.05024348199367523, -0.07992646098136902, -0.12813188135623932], [0.01927175372838974, 0.06868468225002289, 0.1520751565694809, 0.018472667783498764, 0.001329217106103897], [0.020068645477294922, -0.031800851225852966, 0.06730671226978302, -0.014021058566868305, -0.05023520812392235]], [[0.07681909948587418, 0.1438833326101303, 0.024638425558805466, 0.07708854973316193, -0.009871121495962143], [0.0965421050786972, 0.09699563682079315, -0.03130928426980972, 0.00802328996360302, -0.01210849080234766], [0.0028799930587410927, -0.008939639665186405, -0.027012674137949944, 0.016748927533626556, 0.015463193878531456], [0.04076926037669182, -0.04670875146985054, 0.0109966229647398, 0.07387512177228928, 0.12603020668029785], [0.011520413681864738, -0.0651378482580185, -0.05782739818096161, -0.028087571263313293, 0.0031872084364295006]]], [[[-0.011704415082931519, -0.0053566209971904755, 0.10092181712388992, 0.05835936963558197, 0.045449621975421906], [0.04528879001736641, -0.04273521527647972, 0.12999188899993896, 0.01985037326812744, -0.012143303640186787], [-0.09254901856184006, 0.05430873855948448, 0.15144434571266174, 0.10389866679906845, 0.014439940452575684], [-0.07115050405263901, -0.12002937495708466, 0.09389869123697281, -0.04726696386933327, -0.023231741040945053], [-0.030552148818969727, 0.13678890466690063, -0.001448940485715866, -0.06635291129350662, -0.00034002214670181274]], [[0.06195068359375, 0.08111940324306488, -0.06172972172498703, -0.03706640750169754, -0.013548812828958035], [0.09574687480926514, 0.05301805958151817, 0.02401503175497055, 0.0010484009981155396, -0.0913163423538208], [0.06885172426700592, 0.10992449522018433, 0.06709903478622437, 0.04712863638997078, -0.06466898322105408], [0.0541435107588768, 0.02476370334625244, 0.14711874723434448, 0.12478244304656982, -0.027846314013004303], [0.03551698476076126, 0.040700413286685944, 0.012878336943686008, 0.05388558655977249, 0.06790811568498611]], [[0.01898077502846718, -0.033477019518613815, -0.07912671566009521, 0.14415112137794495, -0.021566525101661682], [0.044504888355731964, -0.04675048962235451, -0.05400586873292923, 0.08587980270385742, 0.046420738101005554], [0.09341224282979965, 0.023113150149583817, 0.05415025353431702, 0.07330398261547089, 0.04857107996940613], [0.030817262828350067, -0.08318626880645752, 0.00030577369034290314, 0.07044629752635956, -0.02457074262201786], [-0.031217463314533234, 0.0010515889152884483, 0.01836763508617878, -0.052999697625637054, 0.01350970659404993]], [[0.005700474604964256, 0.02336050570011139, -0.08889206498861313, -0.06015567481517792, 0.039042189717292786], [-0.04038769006729126, -0.052250225096940994, -0.0702430009841919, 0.028306234627962112, 0.04649248719215393], [-0.04891033098101616, 0.0510578416287899, -0.13588762283325195, -0.03995071351528168, 0.001961447298526764], [-0.07987570017576218, -0.06316675245761871, -0.10395792871713638, 0.03455110266804695, -0.13008113205432892], [-0.05130188167095184, -0.034865058958530426, -0.02490493655204773, 0.12410213053226471, 0.016320187598466873]], [[0.04850222170352936, 0.008936853148043156, -0.04451628774404526, -0.08524902164936066, -0.06262006610631943], [0.007583159487694502, -0.034252699464559555, -0.052593130618333817, -0.08120603114366531, -0.06085637956857681], [-0.020771142095327377, 0.007069382816553116, -0.001911316066980362, -0.09577742964029312, -0.0801934078335762], [-0.02725955843925476, -0.0628691092133522, 0.15362665057182312, -0.04018409922719002, -0.023600418120622635], [-0.09753308445215225, -0.032270073890686035, 0.037349145859479904, -0.0008591972291469574, -0.08686840534210205]], [[0.010348435491323471, -0.06254886090755463, 0.01779201254248619, -0.0274093858897686, -0.07975675165653229], [0.061779603362083435, 0.03190840780735016, -0.049590155482292175, -0.06948103755712509, -0.04636006057262421], [-0.039996758103370667, 0.08229753375053406, -0.10971614718437195, -0.12881475687026978, -0.1241467073559761], [0.04637497663497925, 0.04212252050638199, -0.04575195163488388, -0.03703657537698746, -0.06131278723478317], [0.06443174183368683, 0.04154988378286362, 0.03157324343919754, -0.001610996201634407, 0.021056687459349632]], [[0.07633337378501892, 0.036752499639987946, 0.056494779884815216, -0.08730249106884003, -0.06574906408786774], [0.01559186540544033, 0.011403359472751617, 0.12946689128875732, 0.015476996079087257, -0.028561701998114586], [-0.019401859492063522, -0.07982118427753448, 0.03514526039361954, 0.051858969032764435, 0.03280579298734665], [-0.005710788071155548, 0.08374631404876709, 0.0533488392829895, 0.057692427188158035, -0.005793719086796045], [-0.009509492665529251, 0.0404185950756073, 0.046738311648368835, 0.060888685286045074, 0.07101404666900635]], [[-0.01795605570077896, 0.04979167506098747, -0.03124355897307396, -0.027012672275304794, -0.0053125061094760895], [-0.027289871126413345, -0.014461148530244827, -0.006746523082256317, -0.046653859317302704, 0.02275973930954933], [-0.08207734674215317, -0.0165061317384243, 0.08315407484769821, 0.124854177236557, 0.0557575449347496], [-0.1727840155363083, -0.12836262583732605, 0.09689454734325409, 0.020634084939956665, 0.06770359724760056], [0.0066778333857655525, -0.014717161655426025, 0.03736277297139168, 0.05309755355119705, -0.021462932229042053]], [[-0.016523942351341248, -0.047445595264434814, 0.021015934646129608, -0.08078233897686005, -0.047732070088386536], [0.09405517578125, 0.09782077372074127, 0.11700887978076935, -0.0685511901974678, 0.023963551968336105], [0.015159675851464272, 0.12882229685783386, 0.048249728977680206, -0.06685297936201096, -0.0835241973400116], [0.026854820549488068, 0.09441253542900085, 0.052913688123226166, -0.024296805262565613, -0.051059018820524216], [0.00898686796426773, 0.02151462994515896, -0.008173279464244843, 0.04026896134018898, 0.012466277927160263]], [[-0.011544659733772278, -0.01855691708624363, 0.02050827443599701, -0.07694658637046814, -0.07755923271179199], [0.025861693546175957, 0.035028476268053055, 0.0020459722727537155, 0.018024945631623268, -0.002434766385704279], [-0.033350493758916855, -0.03726055100560188, -0.01785998046398163, 0.03614466264843941, 0.11579011380672455], [-0.024583008140325546, 0.0981617197394371, -0.001313603948801756, 0.11114657670259476, 0.06738649308681488], [0.0387551449239254, 0.036333344876766205, 0.061838433146476746, -0.017746519297361374, 0.004434060305356979]], [[0.016386229544878006, -0.057532899081707, -0.03235887736082077, 0.033138174563646317, 0.06646282225847244], [0.08860123157501221, -0.05958878621459007, 0.014450199902057648, -0.06742962449789047, 0.07124695926904678], [0.016913633793592453, 0.03840452432632446, 0.0846024751663208, -0.05498073995113373, -0.08797381073236465], [0.10371021181344986, 0.0607910230755806, 0.09871506690979004, 0.022454939782619476, -0.14236213266849518], [0.04114045947790146, 0.010831501334905624, 0.09692323952913284, 0.1164226159453392, 0.0008453326299786568]], [[0.022082507610321045, -0.03537314012646675, 0.04980170354247093, -0.04970557987689972, 0.025279875844717026], [-0.0032527735456824303, 0.04485996812582016, -0.01892184093594551, 0.024254893884062767, -0.028789445757865906], [0.015070101246237755, 0.09702827036380768, 0.06791256368160248, -0.03087250143289566, -0.048217449337244034], [-0.05219705402851105, 0.07949428260326385, 0.022980529814958572, 0.00533966114744544, 0.00485306978225708], [0.028215967118740082, -0.03740132600069046, -0.044822562485933304, -0.05636827275156975, -0.014894269406795502]], [[0.02185789681971073, 0.011627011932432652, 0.009651482105255127, -0.026193559169769287, -0.060241736471652985], [-0.02910812571644783, 0.040150195360183716, -0.013798972591757774, -0.045168377459049225, 0.00106912013143301], [-0.016506105661392212, 0.008214542642235756, -0.07489360868930817, -0.020562054589390755, 0.006135699339210987], [-0.08767787367105484, -0.03710034489631653, 0.060499656945466995, -0.05433265119791031, 0.020076822489500046], [-0.01989588513970375, -0.04842017590999603, 0.05664123222231865, 0.003844955237582326, -0.0003980250330641866]], [[0.006161165423691273, 0.02545763924717903, -0.03405283764004707, 0.03503422066569328, -0.013989616185426712], [0.06753480434417725, 0.030473794788122177, 0.03583669662475586, 0.04311588406562805, -0.07933298498392105], [-0.01214942429214716, -0.08038076758384705, 0.08757897466421127, 0.015457956120371819, -0.08303926885128021], [-0.018968353047966957, 0.02324049174785614, 0.1160740777850151, 0.07855725288391113, -0.035030920058488846], [0.013824845664203167, -0.031614985316991806, 0.058528829365968704, 0.09406561404466629, 0.07089602947235107]], [[0.0956188291311264, 0.08806228637695312, -0.011274725198745728, -0.0018150098621845245, 0.011263790540397167], [0.03043641336262226, 0.09376334398984909, 0.0048207007348537445, -0.03930063545703888, 0.050656355917453766], [-0.020981231704354286, 0.085219606757164, -0.057222630828619, -0.006357992999255657, 0.05132919177412987], [0.08747384697198868, -0.028753433376550674, -0.006522907875478268, -0.02105044387280941, -0.01128669548779726], [0.024230873212218285, 0.1045021265745163, -0.029353339225053787, 0.0026295259594917297, 0.007148442789912224]], [[-0.03216481953859329, -0.005153750069439411, -0.02030317485332489, 0.0028735273517668247, 0.03792589157819748], [0.029532529413700104, -0.032968826591968536, -0.07647382467985153, 0.062357597053050995, 0.06078103557229042], [-0.02576882764697075, -0.0706862285733223, -0.09711433947086334, -0.03922748938202858, -0.08043771237134933], [-0.03249325603246689, -0.06556695699691772, -0.0874709039926529, -0.04023659601807594, -0.09457674622535706], [-0.02988528087735176, -0.06144419312477112, 0.015754474326968193, -0.08337776362895966, -0.10707912594079971]]], [[[-0.032233789563179016, -0.04069755971431732, 0.01906144618988037, 0.028184205293655396, 0.034739043563604355], [0.05083254352211952, 0.00013210996985435486, 0.00189126655459404, 0.04350121319293976, 0.02544676885008812], [-0.07039575278759003, 0.005727320909500122, -0.12643077969551086, 0.0026271678507328033, 0.09040581434965134], [-0.04968872666358948, -0.009381536394357681, -0.13374710083007812, 0.0003275163471698761, 0.07838505506515503], [-0.08941839635372162, -0.028972657397389412, 0.014461643993854523, 0.11528591066598892, -0.04722779244184494]], [[-0.0510731041431427, 0.02963079884648323, 0.09394694864749908, -0.024749308824539185, 0.08573751151561737], [-0.02676221914589405, -0.017456242814660072, -0.03727912902832031, -0.0396413654088974, 0.020275402814149857], [0.013223957270383835, -0.08106935769319534, 0.05886192247271538, -0.09302932769060135, -0.05592959374189377], [0.11914029717445374, -0.01298065111041069, 0.1348630040884018, -0.005725746974349022, 0.06518044322729111], [0.05417998880147934, 0.024434000253677368, -0.10545681416988373, 0.07987771183252335, 0.07405908405780792]], [[-0.0543648824095726, -0.023826099932193756, 0.056143805384635925, -0.06267010420560837, -0.0044821761548519135], [-0.11314243078231812, -0.09089928865432739, 0.037887562066316605, -0.008462952449917793, -0.036090295761823654], [-0.0813257098197937, -0.1043740063905716, -0.05972995609045029, -0.048002880066633224, 0.019790496677160263], [-0.1081271544098854, 0.023219890892505646, -0.05315118283033371, -0.023114290088415146, -0.03117755800485611], [-0.07498534023761749, 0.013703998178243637, -0.16731350123882294, -0.011213567107915878, -0.04847530275583267]], [[-0.02477189339697361, 0.11948265135288239, 0.017983397468924522, 0.026056502014398575, 0.060492902994155884], [-0.015599561855196953, 0.001505357213318348, -0.10877252370119095, -0.03434217721223831, -0.03128514438867569], [0.024790385738015175, 0.043931230902671814, -0.010246536694467068, 0.0506058931350708, -0.10797593742609024], [-0.004371821880340576, -0.019338447600603104, 0.04307978227734566, 0.004283847287297249, -0.05354730412364006], [0.023743441328406334, 0.010637180879712105, -0.07218890637159348, -0.012428135611116886, 0.05661715567111969]], [[-0.043417125940322876, -0.0692119300365448, -0.04475853219628334, 0.0077247945591807365, -0.004030640237033367], [-0.047760989516973495, -0.09590326249599457, -0.09022153913974762, -0.011670383624732494, -0.08883456140756607], [-0.10156948864459991, -0.041849493980407715, -0.004314258694648743, -0.08248242735862732, -0.025379188358783722], [-0.09446512162685394, -0.1303374469280243, 0.1125020980834961, -0.013305962085723877, -0.12105942517518997], [0.04468706250190735, 0.021495360881090164, 0.010084535926580429, 0.11640439927577972, -0.06961800903081894]], [[-0.07318802922964096, -0.08466745167970657, -0.01193705853074789, 0.01879381388425827, 0.028529008850455284], [0.03168318420648575, 0.03273630142211914, -0.021776726469397545, -0.016680791974067688, 0.015290617942810059], [0.0395875982940197, 0.008561667054891586, 0.10987464338541031, -0.031861402094364166, -0.04223860800266266], [0.0725860521197319, -0.06413762271404266, 0.0033569931983947754, 0.06214476376771927, 0.06573633849620819], [0.02122855931520462, -0.020390311256051064, -0.135060653090477, -0.016544127836823463, 0.0618688203394413]], [[-0.03677700459957123, -0.00017209933139383793, -0.002967163920402527, 0.027755679562687874, 0.030772045254707336], [-0.05888243392109871, 0.05765731632709503, -0.06320030987262726, 0.045891039073467255, -0.015155062079429626], [-0.07498747855424881, 0.03737475350499153, -0.0371227040886879, 0.013216143473982811, 0.053391825407743454], [0.12904322147369385, 0.11556679010391235, -0.05644981935620308, 0.1696840524673462, 0.0463797003030777], [-0.0031144917011260986, -0.13417845964431763, 0.03518327325582504, 0.07436281442642212, 0.0354035422205925]], [[-0.06942315399646759, -0.008302467875182629, -0.015385680831968784, -0.00653820438310504, 0.022417347878217697], [-0.018058206886053085, -0.02794872224330902, 0.03216129168868065, -0.026843667030334473, 0.013468148186802864], [-0.08865020424127579, -0.09509608149528503, 0.07896493375301361, 0.02755412459373474, -0.005409237928688526], [-0.0908958688378334, -0.027416685596108437, -0.08737397938966751, 0.08487771451473236, 0.014995347708463669], [-0.05251597613096237, -0.0660686045885086, -0.006891841068863869, 0.08813133835792542, -0.037692591547966]], [[0.010123485699295998, 0.016042402014136314, -0.06146859750151634, 0.11827263236045837, 0.10089525580406189], [-0.04156380146741867, 0.005680182948708534, -0.07066984474658966, 0.00888313353061676, -0.022113392129540443], [0.012801140546798706, 0.01607314497232437, -0.11555153131484985, 0.17023320496082306, 0.027034863829612732], [0.07584834098815918, -0.016349531710147858, 0.0007994817569851875, 0.18708482384681702, 0.009638359770178795], [-0.03890058398246765, -0.07013878226280212, 0.04015957936644554, 0.11767778545618057, 0.037333447486162186]], [[0.006545365788042545, -0.06249982491135597, -0.014390993863344193, 0.0023913467302918434, 0.09995590895414352], [-0.04750281944870949, -0.04556402936577797, 0.04010482132434845, 0.027406634762883186, 0.036866143345832825], [-0.03476599231362343, -0.05648644268512726, 0.03441762924194336, -0.03960142657160759, -0.05633131414651871], [-0.009873987175524235, 0.05034967511892319, -0.051312901079654694, -0.014887263998389244, 0.0433020293712616], [-0.037953510880470276, 0.050283633172512054, 0.10173732787370682, -0.03795338049530983, -0.053848862648010254]], [[-0.018495792523026466, -0.03785548359155655, -0.06578940153121948, -0.024059509858489037, 0.02136451192200184], [-0.01607540249824524, -0.06099968031048775, -0.03129319101572037, -0.13119623064994812, 0.012969402596354485], [-0.018777845427393913, -0.034105658531188965, 0.06340744346380234, 0.008198441006243229, 0.007898409850895405], [0.045736853033304214, -0.0683843269944191, 0.029024843126535416, 0.05158539488911629, -0.0257511418312788], [0.0017947470769286156, -0.1868010014295578, -0.0876537412405014, 0.040542520582675934, -0.012834593653678894]], [[0.031026113778352737, -0.05779707059264183, 0.04388654604554176, 0.0662020891904831, 0.06124410778284073], [-0.06852709501981735, -0.08740304410457611, -0.11034094542264938, 0.04690901190042496, 0.07933822274208069], [-0.008970893919467926, 0.06741949170827866, -0.10793876647949219, 0.1039060726761818, 0.022252369672060013], [-0.0421416312456131, -0.08081185817718506, -0.06043330207467079, 0.09984461963176727, 0.019617341458797455], [-0.1185278668999672, -0.09262708574533463, -0.018506979569792747, 0.020935412496328354, 0.056718748062849045]], [[0.012416666373610497, -0.02295907586812973, -0.0721084326505661, -0.03366638720035553, -0.02313379943370819], [0.06262727826833725, 0.05086689069867134, 0.03878190740942955, -0.02177583985030651, 0.026664745062589645], [0.07155566662549973, 0.0384746715426445, 0.03547954931855202, 0.010516339913010597, 0.03988691419363022], [-0.004105500411242247, 0.01830482669174671, 0.12912797927856445, -0.01264951378107071, 0.016916939988732338], [-0.11734306067228317, 0.010124321095645428, 0.04292919486761093, -0.014264589175581932, -0.0018063713796436787]], [[0.07298513501882553, 0.031787239015102386, -0.08008889108896255, -0.01684696041047573, -0.03149142488837242], [0.07762395590543747, -0.00950449425727129, -0.0378134548664093, 0.041402269154787064, -0.022178249433636665], [-0.013888189569115639, 0.040113046765327454, 0.03636755421757698, -0.009900849312543869, -0.09722767770290375], [0.0035330913960933685, 0.024624992161989212, 0.030649350956082344, 0.16253818571567535, 0.0021055862307548523], [-0.0203827116638422, 0.06725634634494781, -0.09707721322774887, 0.012407061643898487, -0.0545332208275795]], [[-0.08086393028497696, -0.046279456466436386, 0.07215319573879242, 0.023395875468850136, 0.04710736125707626], [-0.0374378077685833, 0.04932285100221634, 0.028848709538578987, 0.0336507186293602, -0.025389734655618668], [0.010121269151568413, -0.016262181103229523, 0.0849308967590332, 0.06554694473743439, -0.0818295106291771], [-0.0032596392557024956, -0.04203904792666435, -0.0001466907560825348, 0.0936395600438118, 0.01796821318566799], [-0.002432444831356406, 0.12427528202533722, 0.0665113627910614, -0.050969045609235764, -0.03127405792474747]], [[0.033534370362758636, 0.02522154524922371, -0.06334970891475677, -0.010687352158129215, 0.004737882409244776], [-0.010744431056082249, -0.06837990880012512, -0.09893322736024857, -0.042825497686862946, 0.029103923588991165], [0.008141432888805866, -0.010615570470690727, 0.010781479999423027, -0.10682536661624908, 0.0022164909169077873], [-0.0888555496931076, 0.046624574810266495, 0.025307275354862213, -0.14358431100845337, -0.03844727948307991], [0.01552802324295044, -0.02380540780723095, 0.027889292687177658, -0.0214533768594265, 0.015936167910695076]]], [[[0.04213789105415344, 0.13165251910686493, -0.04491274803876877, -0.030094198882579803, -0.07069914042949677], [0.022906459867954254, 0.08586960285902023, -0.05367579683661461, -0.04496864229440689, -0.046899572014808655], [-0.05496968328952789, 0.036293670535087585, -0.012270823121070862, 0.10884830355644226, 0.05675408989191055], [0.05923556163907051, 0.061363574117422104, 0.06254644691944122, -0.013527106493711472, -0.03041999787092209], [0.014751631766557693, 0.08522407710552216, 0.06225990131497383, -0.008581542409956455, -0.049637749791145325]], [[-0.07519731670618057, -0.08224276453256607, -0.0023300591856241226, -0.10563664138317108, 0.08749495446681976], [-0.0425407700240612, -0.01833255961537361, 0.011341476812958717, -0.05601105839014053, 0.04370231181383133], [-0.06867972761392593, -0.05520867183804512, 0.08397605270147324, -0.012539955787360668, 0.0037845312617719173], [0.01468329131603241, -0.011520962230861187, 0.07834061235189438, 0.05459041893482208, 0.011420083232223988], [-0.06290800124406815, -0.040310926735401154, -0.04389156028628349, 0.076760433614254, 0.024674417451024055]], [[-0.08118054270744324, -0.02732064202427864, -0.07355092465877533, 0.007350958418101072, -0.03935366868972778], [-0.06281613558530807, -0.009713214822113514, -0.00883476436138153, -0.07976532727479935, -0.05541016906499863], [-0.05670769512653351, -0.03808578476309776, -0.009774353355169296, -0.022206932306289673, -0.08854328840970993], [0.008379535749554634, -0.004067894071340561, 0.0053396644070744514, -0.05880364403128624, -0.07825852185487747], [-0.11395732313394547, 0.0641418918967247, -0.101956307888031, -0.06728038936853409, -0.04605547711253166]], [[-0.003582058474421501, 0.08198725432157516, -0.008302380330860615, 0.05083918198943138, -0.0032467972487211227], [-0.012445577420294285, -0.0202028825879097, -0.01930442824959755, -0.005901842378079891, -0.059076376259326935], [-0.024686120450496674, 0.00812285766005516, 0.05466300994157791, -0.0004473486915230751, -0.028636537492275238], [-0.02968890219926834, -0.015057112090289593, 0.006503096781671047, -0.03341742232441902, 0.09593463689088821], [-0.008453265763819218, 0.011467115953564644, 0.012554042972624302, -0.02234676294028759, 0.02220754325389862]], [[-0.008092612959444523, -0.0019248472526669502, 0.04664820805191994, -0.06836339831352234, -0.07196513563394547], [0.017280172556638718, -0.05363517999649048, -0.0543348528444767, 0.012600612826645374, -0.0884421318769455], [0.05816732719540596, 0.010986967012286186, -0.029561733826994896, 0.015203213319182396, -0.12840016186237335], [-0.015413912013173103, -0.004630601964890957, -0.036672815680503845, -0.02925162762403488, -0.05413329601287842], [-0.06452327966690063, 0.031982358545064926, -0.03812173381447792, -0.009052155539393425, 0.00211468618363142]], [[-0.13706204295158386, 0.02704460546374321, 0.009654548950493336, -0.028140872716903687, -0.04331041872501373], [-0.009451989084482193, 0.03760283440351486, 0.06499633938074112, -0.0764208734035492, -0.03294629603624344], [-0.023993514478206635, 0.008468915708363056, 0.18863923847675323, 0.03484199196100235, 0.029701892286539078], [0.004766893107444048, 0.05604026839137077, 0.0009137056767940521, 0.1306711733341217, -0.04434901475906372], [-0.06294765323400497, 0.11998207867145538, -0.0056785112246870995, -0.018619466572999954, -0.07488251477479935]], [[0.06661592423915863, 0.05109252408146858, 0.012982773594558239, -0.018897105008363724, 0.05845203995704651], [-0.01552141085267067, 0.06118020415306091, -0.022593017667531967, -0.051280029118061066, 0.03004061058163643], [-0.07532863318920135, -0.04583273455500603, -0.08549172431230545, 0.07825068384408951, -0.025430936366319656], [-0.009877678006887436, -0.029642842710018158, -0.0005566505715250969, 0.03859030082821846, 0.05345481261610985], [0.005310084670782089, 0.015009315684437752, -0.05143438279628754, 0.008871729485690594, -0.05440818518400192]], [[0.06704702228307724, 0.03808021545410156, 0.01706419326364994, -0.03160540387034416, -0.04327128827571869], [-0.00923130288720131, 0.065638966858387, 0.0780072882771492, -0.009563815779983997, 0.0266022440046072], [-0.08586805313825607, -0.013057384639978409, 0.04028233140707016, -0.025660231709480286, -0.0020910408347845078], [0.05604999139904976, 0.07061409205198288, 0.07386484742164612, -0.028838835656642914, -0.05598320811986923], [0.10203064978122711, 0.12419713288545609, 0.15525804460048676, 0.015195365995168686, 0.03147357702255249]], [[-0.07144848257303238, -0.012613490223884583, 0.015834234654903412, -0.10930860042572021, 0.0397496223449707], [-0.04539233073592186, 0.04627516120672226, -0.08395715057849884, 0.012191776186227798, 0.046234067529439926], [-0.07345195859670639, 0.017920680344104767, -0.09415187686681747, -0.034803301095962524, 0.019837386906147003], [-0.009974479675292969, -0.041309427469968796, 0.08614085614681244, 0.07690781354904175, 0.01742466911673546], [0.005761303938925266, -0.03533629700541496, 0.084926076233387, 0.04996955394744873, -0.006359811872243881]], [[0.08945836871862411, 0.09618639200925827, 0.07603834569454193, 0.02578865736722946, -0.022155629470944405], [0.01168835163116455, 0.07028134167194366, 0.02885512262582779, -0.010068647563457489, -0.055647220462560654], [0.1297309398651123, 0.02056710794568062, -0.060516417026519775, -0.12166418880224228, -0.07834455370903015], [-0.06118670850992203, 0.033407777547836304, -0.08628849685192108, -0.06435945630073547, 0.03702649101614952], [-0.043426692485809326, 0.012760919518768787, -0.012207339517772198, -0.07623270899057388, -0.04869247227907181]], [[-0.06782183051109314, -0.06062990427017212, 0.04798123985528946, 0.06546533107757568, -0.06925677508115768], [-0.05615624412894249, -0.10231940448284149, -0.04417089372873306, 0.012885241769254208, 0.022161265835165977], [-0.10502296686172485, -0.07182447612285614, 0.023831237107515335, 0.07877866923809052, -0.02694827690720558], [0.016538210213184357, -0.08063316345214844, -0.0003829272463917732, 0.014838865026831627, -0.07359744608402252], [0.03176174312829971, -0.020847782492637634, 0.07078063488006592, -0.018415896221995354, -0.009432447142899036]], [[-0.002056614961475134, 0.005646433215588331, 0.04412063583731651, 0.012190802954137325, -0.04581184312701225], [0.02120436355471611, 0.05391461402177811, -0.007508987095206976, -0.002494244370609522, -0.07733122259378433], [-0.00925764162093401, 0.0016148081049323082, 0.00908863265067339, 0.08371778577566147, 0.023711344227194786], [0.014135266654193401, -0.05224305018782616, 0.02374311350286007, 0.025913897901773453, 0.06397785991430283], [-0.013454217463731766, -0.002791601698845625, 0.08521846681833267, -0.03919166699051857, -0.11043955385684967]], [[0.10082703083753586, 0.020570430904626846, 0.02810417301952839, -0.017162339761853218, -0.08568993210792542], [0.03904426097869873, -0.009537027217447758, 0.019060315564274788, -0.03791197016835213, -0.03954993933439255], [0.033267371356487274, 0.0400535874068737, -0.03034365177154541, -0.09688962996006012, -0.05115065723657608], [-0.13525713980197906, -0.02903236262500286, -0.047208379954099655, -0.006968863774091005, -0.004964274819940329], [-0.11594416201114655, -0.02869543619453907, -0.0428118072450161, -0.05262972041964531, 0.02017996460199356]], [[-0.05100776627659798, 0.060695309191942215, 0.007348193787038326, 0.0160406194627285, -0.01660754345357418], [-0.07328744977712631, 0.05349566042423248, 0.013263487257063389, -0.021610070019960403, 0.07684775441884995], [-0.07234103232622147, -0.04688798636198044, -0.011336577124893665, -0.005850688554346561, 0.017883842810988426], [0.049503766000270844, 0.03004239685833454, 0.07786846905946732, 0.061885565519332886, -0.03290509060025215], [0.03729497641324997, 0.0306767039000988, -0.006131679750978947, 0.09816933423280716, -0.10196292400360107]], [[-0.006963856518268585, 0.03532438352704048, 0.019110100343823433, -0.014728391543030739, -0.037104349583387375], [0.10861852765083313, -0.0212855264544487, -0.02039632573723793, -0.11088860780000687, -0.06515541672706604], [-0.03834858536720276, -0.009858844801783562, 0.05381304770708084, -0.035322289913892746, 0.02527058683335781], [-0.00033659860491752625, -0.0318734236061573, -0.024580255150794983, -0.018025146797299385, 0.05659526214003563], [0.01410509180277586, 0.09163664281368256, 0.07723986357450485, 0.0743677169084549, -0.035897813737392426]], [[-0.042547907680273056, -0.004989784210920334, -0.036124784499406815, 0.056055713444948196, -0.05011244863271713], [0.015416080132126808, -0.06401675939559937, -0.012379305437207222, -0.042790837585926056, -0.10153443366289139], [-0.029029587283730507, -0.02610240876674652, 0.0026645383331924677, -0.02561356872320175, -0.06516870111227036], [0.030505657196044922, -0.04593978449702263, -0.06705237925052643, -0.11984388530254364, -0.02532743290066719], [0.02687537483870983, -0.06490196287631989, -0.06726337969303131, -0.010343026369810104, 0.020962979644536972]]], [[[0.10572660714387894, 0.10443394631147385, 0.0035824887454509735, -0.028945442289114, -0.06784626096487045], [0.004939422942698002, -0.03518744185566902, -0.04575338587164879, 0.07006095349788666, -0.025621937587857246], [0.07447678595781326, 0.08326877653598785, 0.04871637746691704, -0.0406658910214901, -0.0003018779680132866], [0.09681222587823868, 0.012967036105692387, -0.01033378392457962, -0.07163219153881073, 0.02903955802321434], [0.05660129338502884, 0.021495796740055084, -0.08857439458370209, 0.014211632311344147, -0.018719755113124847]], [[-0.08774212002754211, -0.01250767707824707, 0.006421998143196106, 0.039488863199949265, 0.08869306743144989], [-0.06243816018104553, -0.019457653164863586, -0.09316258877515793, 0.06133536994457245, 0.056438956409692764], [0.021048156544566154, 0.0014352630823850632, -0.037530407309532166, 0.030828144401311874, 0.07418440282344818], [-0.01608061045408249, -0.082179494202137, -0.04860972613096237, 0.009862726554274559, -0.016299130395054817], [-0.09633086621761322, -0.041836418211460114, 0.006532677449285984, 0.006110163871198893, -0.05741044133901596]], [[-0.06534009426832199, -0.06840209662914276, 0.04403921961784363, 0.005811955779790878, 0.09358737617731094], [-0.11623676121234894, -0.026287861168384552, 0.033436305820941925, 0.03951534628868103, -0.05056361109018326], [-0.09219133853912354, 0.005888625979423523, 0.0715818852186203, -0.058604367077350616, -0.0831141322851181], [-0.05312729626893997, 0.044618356972932816, -0.013644348829984665, -0.037840720266103745, -0.059775546193122864], [-0.09473013877868652, -0.04703225940465927, -0.03862711042165756, -0.01743590086698532, -0.0028624050319194794]], [[-0.035872429609298706, 0.0007439716719090939, -0.06808239966630936, 0.07385855168104172, 0.07034777849912643], [-0.040354710072278976, -0.007608373649418354, 0.007608531042933464, -0.0028639542870223522, 0.14499950408935547], [-0.07874380052089691, -0.03186485916376114, -0.10483022034168243, 0.030159246176481247, 0.04411507025361061], [0.025366108864545822, -0.03343681991100311, -0.05712459981441498, 0.01042846217751503, 0.024560097604990005], [-0.048464447259902954, -0.08708741515874863, -0.08387382328510284, 0.011984243988990784, -0.09121894836425781]], [[0.00037258490920066833, 0.021061250939965248, 0.050337791442871094, 0.08441025018692017, -0.01847849227488041], [0.08668946474790573, 0.020921654999256134, -0.005996569991111755, 0.034141600131988525, -0.006023319438099861], [0.07240914553403854, -0.017552640289068222, -0.027651192620396614, 0.045164771378040314, 0.04813240095973015], [0.040109116584062576, -0.0846225917339325, -0.09455469995737076, 0.020133301615715027, 0.017981847748160362], [0.04126526787877083, -0.028975198045372963, 0.041402772068977356, 0.06944964826107025, -0.025653332471847534]], [[0.06548569351434708, 0.005814996547996998, -0.07874700427055359, 0.014370523393154144, 0.05711491033434868], [0.03637687861919403, 0.05545451119542122, -0.023566851392388344, 0.03890416398644447, 0.027956288307905197], [-0.01818755455315113, 0.02166471630334854, -0.06100892275571823, 0.03880443796515465, -0.006689917296171188], [0.07714465260505676, 0.06021790951490402, -0.051026370376348495, 0.08713579922914505, -0.024019582197070122], [0.008556462824344635, 0.06584193557500839, -0.04104561731219292, 0.03826558217406273, 0.03607453405857086]], [[-0.009412750601768494, -0.015416078269481659, 0.01789792627096176, -0.011430340819060802, -0.10253883898258209], [0.03820037469267845, -0.009675232693552971, -0.03163548931479454, -0.1105562075972557, 0.10071096569299698], [0.02315841056406498, 0.11233481764793396, -0.03195870667695999, -0.10363632440567017, 0.05386864021420479], [-0.007590685039758682, 0.0560309924185276, 0.009500675834715366, -0.03899412229657173, -0.028383824974298477], [-0.0053891371935606, -0.0504198856651783, 0.028971923515200615, -0.08087792247533798, 0.06930926442146301]], [[0.0010997699573636055, 0.012924187816679478, -0.01970679685473442, -0.0007498241029679775, -0.025441985577344894], [-0.06777873635292053, -0.02893967740237713, -0.034594710916280746, 0.04026820883154869, -0.07869787514209747], [0.05125778540968895, 0.01761842519044876, -0.0151883065700531, 0.03963779658079147, -0.06591783463954926], [0.030922170728445053, 0.09208261221647263, 0.0039061112329363823, 0.007611285895109177, -0.046891458332538605], [0.02416943572461605, 0.08397182822227478, 0.02942345291376114, -0.07224809378385544, -0.10126698017120361]], [[0.017062438651919365, 0.01707979291677475, 0.052261561155319214, -0.015750925987958908, -0.0066956523805856705], [0.037240125238895416, -0.02745221182703972, -0.14658291637897491, -0.0098564513027668, 0.1362832933664322], [0.10948291420936584, -0.03411843627691269, -0.10123682767152786, 0.1311953067779541, 0.08260933309793472], [0.07376523315906525, -0.039949286729097366, -0.03214343264698982, 0.030952855944633484, 0.05005161464214325], [0.12037263810634613, -0.0382198765873909, 0.02638953924179077, 0.005247482098639011, -0.04041082039475441]], [[-0.011124962940812111, 0.025435466319322586, 0.011462004855275154, -0.0777919664978981, -0.08347837626934052], [-0.05363333970308304, -0.018269389867782593, 0.014444146305322647, -0.16334398090839386, -0.008134244941174984], [-0.022169215604662895, -0.11367000639438629, -0.08244199305772781, -0.0053337085992097855, 0.059097256511449814], [-0.06713133305311203, -0.03608618304133415, 0.0378493070602417, 0.04022890701889992, -0.032777875661849976], [-0.017103489488363266, 0.08361002802848816, 0.0005362760275602341, 0.0016199108213186264, -0.012770486995577812]], [[-0.09836043417453766, -0.0178696159273386, 0.02127576433122158, 0.017362307757139206, -0.03987788036465645], [-0.015113357454538345, -0.11889735609292984, -0.03696588799357414, 0.06596267968416214, 0.013684345409274101], [-0.017685964703559875, -0.040555018931627274, 0.10497765243053436, 0.07124721258878708, -0.010775303468108177], [-0.09852840006351471, 0.0059333862736821175, 0.003408928867429495, 0.007504399865865707, 0.04025663807988167], [0.005089364945888519, 0.045220453292131424, 0.06934735178947449, 0.036187365651130676, -0.011205676011741161]], [[-0.10260655730962753, 0.020303048193454742, 0.05407489463686943, 0.016399696469306946, -0.045616231858730316], [-0.07832952588796616, 0.04958309978246689, 0.033779650926589966, -0.07835311442613602, 0.07943551987409592], [0.12750093638896942, 0.088130421936512, 0.08254898339509964, -0.0369972288608551, -0.023212511092424393], [0.08006267249584198, -0.02369755506515503, -0.008448481559753418, -0.07318801432847977, 0.047888439148664474], [0.09027357399463654, 0.02665243297815323, 0.017966656014323235, -0.028096012771129608, -0.040611837059259415]], [[-0.030188534408807755, -0.014762699604034424, 0.10834278911352158, 0.021001074463129044, 0.05451589822769165], [0.04088564217090607, 0.029202228412032127, -0.00504976836964488, -0.003295132890343666, -0.009282960556447506], [0.008608730509877205, -0.01158860232681036, -0.045634444802999496, 0.05400410667061806, 0.033979691565036774], [-0.042934220284223557, -0.02305421605706215, -0.020414922386407852, 0.034814611077308655, -0.012017147615551949], [0.005521802231669426, -0.14909934997558594, -0.10202745348215103, -0.02941364422440529, -0.010900996625423431]], [[-0.0417262464761734, 0.06784728169441223, 0.0634903758764267, -0.08666785061359406, 0.016093134880065918], [0.06833154708147049, 0.02410539984703064, -0.08745899796485901, 0.01781279966235161, 0.0051761530339717865], [-0.0011755870655179024, 0.04615168273448944, -0.07982919365167618, -0.08039150387048721, -0.04683002457022667], [-0.02561236545443535, -0.015818489715456963, -0.07625339925289154, -0.058745741844177246, -0.010121351107954979], [-0.012046845629811287, 0.058710433542728424, 0.010621507652103901, 0.01918722130358219, 0.0998392328619957]], [[-0.01652795448899269, -0.028010398149490356, -0.01428474485874176, -0.04004574567079544, -0.07299443334341049], [0.04616508260369301, 0.03133206069469452, -0.09984418004751205, 0.05561542510986328, 0.02623695321381092], [0.08668627589941025, 0.029662873595952988, 0.022572895511984825, 0.12503260374069214, 0.08228778094053268], [0.02207317017018795, 0.02851470559835434, 0.04668736085295677, 0.027396680787205696, -0.022787973284721375], [-0.08728765696287155, -0.040231116116046906, 0.025952361524105072, -0.014221064746379852, 0.008967254310846329]], [[-0.06541190296411514, 0.01655462384223938, 0.025341516360640526, 0.05396364629268646, 0.059902504086494446], [-0.010929244570434093, 0.024063054472208023, 0.04834367707371712, 0.11296728253364563, -0.03372196480631828], [-0.035806477069854736, 0.008974160067737103, -0.03100736439228058, 0.013449597172439098, -0.059260278940200806], [0.0559341162443161, 0.031090201810002327, 0.049404073506593704, 0.07673677057027817, 