{"layer1.0.weight": [[[[-0.14361430704593658, -0.06712295860052109, 0.12088686227798462, -0.2884037494659424, -0.31679248809814453], [0.07509927451610565, -0.15125873684883118, 0.050967492163181305, -0.011135250329971313, 0.14617566764354706], [0.22526010870933533, 0.2138555645942688, 0.12504437565803528, -0.03219638764858246, -0.14077764749526978], [0.008925095200538635, 0.28602391481399536, 0.005140379071235657, -0.12610656023025513, 0.07164174318313599], [0.06523357331752777, 0.2897300124168396, 0.12012368440628052, 0.0014127455651760101, 0.23428140580654144]]], [[[0.26577502489089966, -0.14100313186645508, -0.047449201345443726, 0.13423752784729004, 0.002803109586238861], [0.19486838579177856, -0.03979089483618736, -0.10322512686252594, -0.07917633652687073, 0.1503433883190155], [0.1765899509191513, -0.21316322684288025, -0.020341888070106506, 0.14483821392059326, 0.11160129308700562], [0.07052094489336014, -0.19787225127220154, -0.05710873007774353, 0.16933682560920715, 0.01944246143102646], [0.0800563246011734, -0.2340468019247055, 0.2197638601064682, 0.05491233617067337, -0.16170147061347961]]], [[[0.279470831155777, 0.012142614461481571, -0.1452280730009079, -0.2464154064655304, -0.1987685114145279], [0.2272636592388153, 0.12619785964488983, -0.17866948246955872, -0.1574060171842575, 0.06656096875667572], [0.10401551425457001, -0.16549278795719147, -0.05919748917222023, 0.18028171360492706, -0.12416993081569672], [0.0790664404630661, -0.08434347808361053, 0.14234140515327454, -0.16879905760288239, 0.046743281185626984], [0.172862708568573, -0.14647920429706573, 0.06453637778759003, -0.1032974123954773, -0.0069361235946416855]]], [[[-0.1265040934085846, 0.12422097474336624, -0.051484353840351105, -0.07958637923002243, 0.021400153636932373], [0.02153005450963974, -0.21759086847305298, -0.19201186299324036, -0.16551236808300018, -0.10336245596408844], [-0.2108166217803955, -0.2186507284641266, -0.26419180631637573, -0.1215846911072731, -0.18739208579063416], [-0.028729286044836044, -0.2102855145931244, 0.026966512203216553, 0.07536645233631134, -0.11529028415679932], [-0.11197615414857864, -0.0878034457564354, -0.11338064074516296, -0.0036889314651489258, -0.3186814785003662]]], [[[-0.024075116962194443, -0.2945466637611389, 0.16082310676574707, 0.21205668151378632, 0.138732448220253], [0.04980291426181793, 0.18781617283821106, 0.17122027277946472, 0.09934142976999283, 0.08523660898208618], [-0.10500707477331161, -0.1931421160697937, -0.004777267575263977, 0.26442116498947144, 0.3759519159793854], [-0.045114606618881226, 0.008208218961954117, -0.15393005311489105, 0.14838674664497375, 0.36692285537719727], [-0.04647856578230858, 0.1837240755558014, 0.19965653121471405, 0.07528486847877502, 0.030282065272331238]]], [[[0.09357595443725586, 0.12455028295516968, -0.14735862612724304, 0.23196235299110413, 0.11778271198272705], [-0.0021500922739505768, 0.12573763728141785, 0.10580087453126907, 0.04715517908334732, 0.21050018072128296], [-0.052252836525440216, 0.24894979596138, -0.0775558203458786, -0.07210968434810638, 0.39294344186782837], [-0.016502676531672478, 0.23893503844738007, -0.19862276315689087, 0.29499146342277527, 0.011578947305679321], [0.2900087535381317, 0.03266018629074097, 0.37580639123916626, 0.30355584621429443, 0.09216408431529999]]], [[[-0.3183746039867401, 0.11201821267604828, 0.06034596264362335, 0.1433619260787964, 0.0898093432188034], [-0.17218928039073944, -0.0715857446193695, 0.15369370579719543, -0.019448421895503998, -0.16443319618701935], [-0.029379092156887054, 0.1253311187028885, 0.1660974770784378, 0.12222780287265778, -0.06770819425582886], [0.012996934354305267, 0.16071975231170654, 0.1278832107782364, -0.012653917074203491, 0.1411038190126419], [-0.29173287749290466, 0.139663428068161, -0.05898058041930199, -0.0035159457474946976, 0.10729507356882095]]], [[[-0.07297225296497345, 0.19044215977191925, -0.15755994617938995, 0.10472831130027771, -0.20190241932868958], [0.04977879300713539, -0.010140564292669296, -0.0003207661211490631, -0.03783745318651199, -0.24012503027915955], [0.28907492756843567, 0.12965501844882965, 0.056862715631723404, -0.06850307434797287, -0.013846524059772491], [0.33557096123695374, 0.15794235467910767, 0.21925924718379974, 0.016331747174263, -0.09505034983158112], [0.2957742512226105, -0.005936294794082642, 0.04301423951983452, -0.0390080101788044, 0.18353359401226044]]], [[[-0.08220290392637253, 0.11495902389287949, -0.09823305904865265, 0.14501076936721802, 0.050330422818660736], [0.04705260321497917, 0.11657988280057907, -0.021792463958263397, 0.3971938192844391, -0.1522810012102127], [-0.0783747136592865, -0.06923247873783112, 0.2619437575340271, 0.2848571538925171, -0.1515849232673645], [0.18197959661483765, 0.13902658224105835, 0.2447618544101715, -0.07449880242347717, -0.16673970222473145], [-0.029367413371801376, 0.2878950238227844, 0.01233091950416565, 0.23064151406288147, -0.10375547409057617]]], [[[-0.02076748013496399, 0.04185154289007187, 0.15437626838684082, 0.2874416708946228, 0.22257457673549652], [0.22535766661167145, 0.261067658662796, 0.3282526731491089, 0.09080450236797333, -0.048984333872795105], [0.057502731680870056, -0.06091580539941788, -0.04682604968547821, -0.11627174913883209, -0.14864322543144226], [0.11864487826824188, 0.15341584384441376, 0.29046669602394104, 0.11731480062007904, -0.14776498079299927], [0.103378526866436, -0.030944041907787323, 0.14706359803676605, 0.1485435664653778, 0.14888694882392883]]], [[[-0.1030120849609375, -0.018732067197561264, 0.049639590084552765, -0.006241731345653534, -0.0020652860403060913], [-0.03200084716081619, 0.11218418926000595, -0.2667105197906494, 0.039129070937633514, -0.015105798840522766], [-0.04238906502723694, -0.025345727801322937, -0.21028299629688263, -0.047562044113874435, -0.1008424162864685], [0.09157578647136688, 0.15629351139068604, -0.31065240502357483, -0.09477856010198593, -0.12616540491580963], [0.1916784942150116, 0.10835325717926025, -0.3776152431964874, -0.18504056334495544, -0.05610855668783188]]], [[[0.18236708641052246, 0.07034997642040253, -0.30812254548072815, 0.022850066423416138, -0.20363646745681763], [-0.1934509128332138, 0.11256556212902069, -0.11285687983036041, -0.012391358613967896, -0.2160327434539795], [-0.1833832561969757, -0.09537654370069504, 0.09665653109550476, -0.10180941224098206, -0.16911323368549347], [-0.04780087620019913, -0.13663740456104279, 0.10650071501731873, -0.24121473729610443, -0.31495094299316406], [0.01690245419740677, -0.10451114922761917, -0.014769181609153748, -0.3195945620536804, -0.036005742847919464]]], [[[-0.0923016369342804, -0.1422613561153412, -0.03598771616816521, 0.016561979427933693, 0.18213652074337006], [0.18725696206092834, 0.09787410497665405, 0.11261557787656784, -0.014375620521605015, 0.20798873901367188], [-0.08414679765701294, 0.019795561209321022, -0.04854409024119377, 0.09196725487709045, 0.2470284104347229], [-0.02366568148136139, 0.15670940279960632, -0.17901384830474854, -0.06769935041666031, 0.23915204405784607], [0.13376092910766602, 0.017070826143026352, 0.18035946786403656, -0.031902410089969635, 0.06702125817537308]]], [[[0.16252169013023376, 0.06422269344329834, 0.14187835156917572, -0.16551755368709564, -0.024428796023130417], [0.355216920375824, 0.08272121101617813, -0.03077598288655281, 0.0313187912106514, 0.05132811516523361], [0.05072088539600372, 0.096546970307827, -0.1412641555070877, -0.24165838956832886, 0.17583972215652466], [-0.016722962260246277, 0.04538995027542114, -0.2797932028770447, -0.07761863619089127, 0.06891826540231705], [0.23293893039226532, -0.2747240662574768, -0.04195322468876839, -0.13436388969421387, -0.07050292938947678]]], [[[0.025022652000188828, 0.2252802550792694, 0.001535709947347641, 0.10715608298778534, -0.08563366532325745], [-0.11606211960315704, -0.06495501846075058, 0.10515622049570084, -0.10616171360015869, -0.18736840784549713], [-0.15478576719760895, 0.15849950909614563, 0.15591742098331451, 0.04375946521759033, 0.302750825881958], [-0.07402870804071426, 0.09903592616319656, 0.05252791568636894, 0.005058936774730682, 0.31003740429878235], [0.10430645942687988, -0.0005861930549144745, -0.030553799122571945, 0.23227789998054504, 0.04999236762523651]]], [[[0.14630569517612457, -0.0979338213801384, -0.1211426854133606, -0.18390750885009766, 0.07354790717363358], [-0.08998891711235046, -0.18542374670505524, -0.4036993980407715, -0.24131210148334503, 0.0467345304787159], [0.0888824611902237, -0.2879900336265564, -0.3846457004547119, -0.20414581894874573, -0.013696643523871899], [-0.08774779736995697, 0.05575733631849289, -0.1819370537996292, -0.07466273754835129, 0.04151672497391701], [-0.07674004137516022, 0.12547531723976135, 0.06115257740020752, 0.060808099806308746, 0.12385337054729462]]]], "layer1.0.bias": [-0.010497923009097576, 0.15279445052146912, 0.02862291969358921, -0.13841752707958221, -0.09190607815980911, -0.06545594334602356, -0.17060749232769012, 0.024046286940574646, -0.17989659309387207, 0.23461902141571045, -0.09572985768318176, -0.11839047819375992, 0.13799257576465607, -0.03343282267451286, 0.019856754690408707, 0.16740557551383972], "layer1.1.weight": [1.0245743989944458, 1.0461562871932983, 1.1155095100402832, 1.0656789541244507, 0.9115014672279358, 0.9807811379432678, 0.9322476387023926, 0.9688936471939087, 1.1546045541763306, 0.8008079528808594, 1.009935975074768, 0.8099429607391357, 0.815373957157135, 0.9171356558799744, 1.1024738550186157, 1.0449442863464355], "layer1.1.bias": [-0.10486608743667603, 0.014034533873200417, -0.20306244492530823, -0.30520227551460266, -0.12115640938282013, -0.08802227675914764, -0.10449536889791489, -0.0975089818239212, 0.05098193883895874, -0.22665716707706451, 0.02348506636917591, -0.049650054425001144, -0.2635394036769867, -0.09082305431365967, -0.16303475201129913, -0.4424091875553131], "layer1.1.running_mean": [-0.029067376628518105, 0.14590536057949066, -0.11441274732351303, -0.4741371273994446, -0.060073502361774445, -0.07612349092960358, -0.21734961867332458, 0.022054240107536316, -0.1969498246908188, 0.2309418022632599, -0.06781294196844101, -0.11109792441129684, 0.4994463622570038, -0.061921849846839905, -0.039555858820676804, -0.3721255958080292], "layer1.1.running_var": [0.010601497255265713, 0.02865471877157688, 0.04477711766958237, 0.12727026641368866, 0.00688526127487421, 0.004130638670176268, 0.018238868564367294, 0.00788211077451706, 0.017428822815418243, 0.007346020545810461, 0.01683923974633217, 0.011528350412845612, 0.13973775506019592, 0.014446535147726536, 0.019555917009711266, 0.3605402410030365], "layer1.1.num_batches_tracked": 39000, "layer2.0.weight": [[[[-0.12067822366952896, -0.05464913696050644, 0.057246677577495575, -0.013688838109374046, 0.013199582695960999], [-0.0666951984167099, -0.06406919658184052, -0.08108288794755936, -0.027098897844552994, -0.10328711569309235], [-0.0320272296667099, -0.014581801369786263, -0.01909845508635044, 0.006945675238966942, -0.026109931990504265], [-0.049192123115062714, -0.059896938502788544, 0.09619873762130737, 0.07912730425596237, 0.09060496091842651], [-0.012074653059244156, -0.13402733206748962, 0.006189380306750536, -0.01072851475328207, 0.017636112868785858]], [[0.07681135088205338, 0.01916482485830784, -0.025651076808571815, -0.13773296773433685, -0.07938014715909958], [-0.016361674293875694, 0.013697581365704536, 0.012510053813457489, -0.012469442561268806, -0.009783850982785225], [-0.021051647141575813, 0.04467969015240669, 0.016604822129011154, -0.06287749111652374, -0.06507577002048492], [0.06284700334072113, 0.08533136546611786, 0.0250416100025177, 0.0739990770816803, -0.0005257474258542061], [0.023365940898656845, -0.013287907466292381, 0.027868185192346573, 0.08602868765592575, 0.029752176254987717]], [[-0.032266341149806976, -0.06045309826731682, 0.05562261492013931, 0.10825931280851364, 0.05912318080663681], [0.030116954818367958, 0.0784597173333168, -0.029089951887726784, 0.02463921532034874, 0.05598093196749687], [0.007005451247096062, -0.05729822814464569, -0.0631512850522995, 0.05078461766242981, 0.018663078546524048], [0.025003202259540558, -0.04566377028822899, -0.01007586345076561, 0.05883927270770073, 0.1534271538257599], [0.042141757905483246, -0.018956825137138367, -0.03639797493815422, 0.11635933071374893, 0.054618094116449356]], [[0.07432471960783005, -0.051085878163576126, -0.13665014505386353, -0.033142149448394775, 0.03966044634580612], [0.10194357484579086, 0.06923279166221619, 0.0009914301335811615, 0.006064794957637787, 0.01661675237119198], [0.10479340702295303, 0.07643313705921173, 0.010555029846727848, -0.015095304697751999, -0.006542877294123173], [0.046626873314380646, 0.06934639811515808, 0.019279126077890396, 0.020363273099064827, 0.08502528816461563], [0.08897664397954941, 0.1636652946472168, 0.013981018215417862, 0.09219592809677124, 0.05808069929480553]], [[-0.06293221563100815, -0.060303930193185806, 0.028662413358688354, -0.08884195238351822, -0.04333433508872986], [-0.038069210946559906, 0.02672284096479416, -0.03267341107130051, -0.0374099425971508, -0.1060347929596901], [-0.07107217609882355, -0.052862122654914856, -0.01520189456641674, 0.033718857914209366, -0.003556482493877411], [-0.02205456607043743, 0.06559690833091736, -0.02060702070593834, 0.07333920150995255, -0.0009922860190272331], [0.027272425591945648, 0.00535211805254221, -0.007961009629070759, -0.042937468737363815, -0.02426551841199398]], [[0.012641440145671368, -0.0475635901093483, -0.02887573093175888, -0.05187418684363365, -0.022559648379683495], [0.045437611639499664, 0.007690418511629105, 0.05781005322933197, -0.03535180166363716, -0.01686316356062889], [-0.0016405531205236912, -0.00671834871172905, -0.01984419673681259, -0.07508285343647003, -0.007676796521991491], [-0.0022668903693556786, -0.011027769185602665, -0.04200705885887146, -0.06429683417081833, -0.05952320992946625], [0.09116616100072861, -0.010331759229302406, -0.04136011376976967, 0.02420593798160553, 0.010601856745779514]], [[0.031296439468860626, -0.06184721365571022, 0.00014056172221899033, -0.04965629056096077, 0.03196738660335541], [-0.027157753705978394, -0.041639335453510284, -0.06613777577877045, 0.044099148362874985, 0.0031190640293061733], [-0.12697288393974304, -0.02971145324409008, 0.03395892679691315, -0.01837547868490219, -0.006495824083685875], [-0.054342836141586304, -0.05835668742656708, 0.13699954748153687, -0.005148590542376041, -0.06446684896945953], [-0.017805665731430054, -0.16546379029750824, 0.02589183673262596, 0.040220342576503754, -0.004666904918849468]], [[-0.05962493270635605, -0.17232193052768707, -0.05689246952533722, 0.016630422323942184, -0.0016280654817819595], [-0.16969934105873108, -0.05063479393720627, -0.09311241656541824, 0.023538094013929367, -0.0610511489212513], [-0.09247274696826935, 0.005903026554733515, -0.01074171531945467, 0.06151570379734039, -0.06432517617940903], [-0.1296188086271286, -0.06815623492002487, -0.008937135338783264, 0.027296731248497963, 0.012533621862530708], [-0.08329479396343231, -0.12987156212329865, 0.051079731434583664, -0.006449694745242596, -0.0491488054394722]], [[-0.0836796835064888, -0.08888784050941467, -0.11363126337528229, 0.0023095887154340744, 0.0024717003107070923], [0.014003261923789978, -0.09882444143295288, -0.047666035592556, -0.019713841378688812, -0.03587121516466141], [-0.02017892897129059, -0.10016307234764099, 0.06712385267019272, -0.08057518303394318, -0.041107021272182465], [-0.008067790418863297, -0.012051885947585106, -0.002178594470024109, -0.04852857440710068, -0.05069780349731445], [-0.005175475031137466, 0.026772484183311462, -0.12427924573421478, 0.00401478074491024, 0.010123947635293007]], [[-0.0351717546582222, 0.009441779926419258, -0.0669197365641594, -0.06435893476009369, 0.02718130685389042], [0.017716199159622192, -0.08585194498300552, -0.04347890615463257, -0.01931573823094368, -0.061495423316955566], [-0.01934230327606201, 0.07085046917200089, 0.034070711582899094, 0.08792515844106674, 0.0016612245235592127], [-0.011712564155459404, -0.026009900495409966, 0.05176002159714699, 0.023398229852318764, 0.01604948192834854], [-0.10303331911563873, -0.04271380975842476, -0.05950484052300453, -0.01470144558697939, 0.05972433090209961]], [[0.09043681621551514, 0.037922803312540054, -0.07288653403520584, -0.14588581025600433, 0.035712286829948425], [0.01599845290184021, 0.0465337298810482, -0.0505993627011776, -0.06214667484164238, -0.029248759150505066], [0.08583832532167435, 0.08301815390586853, 0.025106951594352722, 0.043337829411029816, 0.05257318168878555], [0.15277616679668427, 0.028138846158981323, -0.08427459746599197, -0.10816685855388641, -0.09545698761940002], [0.021801166236400604, 0.030862778425216675, -0.06413014978170395, -0.06311102956533432, -0.018618186935782433]], [[0.011893881484866142, 0.04569610208272934, 0.045798975974321365, -0.040737129747867584, 0.07834486663341522], [0.06856852769851685, -0.028702344745397568, 0.049987711012363434, -0.028307534754276276, 0.0016182782128453255], [-0.019615555182099342, -0.038362327963113785, 0.007235979661345482, -0.019228534772992134, -0.027130767703056335], [-0.04359303414821625, -0.07253190129995346, 0.03362474590539932, 0.01542093325406313, 0.01894884929060936], [-0.05381149426102638, -0.1652156114578247, -0.01939217373728752, -0.011954191140830517, -0.025336116552352905]], [[0.040252357721328735, -0.012784253805875778, -0.0804356038570404, 0.0681406557559967, 0.029322274029254913], [0.028253283351659775, -0.05831998959183693, -0.010226696729660034, -0.007762108463793993, 0.04666593670845032], [0.02810002490878105, -0.08573076874017715, -0.06967289745807648, 0.012413968332111835, -0.028802230954170227], [0.023689530789852142, 0.005222801584750414, -0.00983799621462822, 0.07931327074766159, -0.0034607993438839912], [0.019019857048988342, -0.014891790226101875, 0.016908887773752213, 0.013218105770647526, 0.032088976353406906]], [[-0.05239628255367279, -0.07143720984458923, -0.02042071521282196, -0.08169511705636978, -0.02921580709517002], [0.020598063245415688, -0.0793580710887909, -0.006653545890003443, 0.0431082621216774, 0.029718555510044098], [-0.036328818649053574, -0.022631177678704262, -0.07204321026802063, 0.01341855339705944, -0.009187852032482624], [-0.06571810692548752, -0.014794863760471344, -0.00821562297642231, -0.04770968109369278, -0.09798353910446167], [0.009209317155182362, 0.00808710977435112, 0.06337042152881622, 0.00876537337899208, 0.030300606042146683]], [[-0.008934929966926575, 0.012415610253810883, 0.025771062821149826, -0.008061332628130913, -0.014832493849098682], [-0.080435611307621, 0.01025327853858471, -0.008355673402547836, 0.07972273230552673, -0.06970514357089996], [-0.06685979664325714, 0.04982816427946091, -0.028457501903176308, 0.02732423134148121, 0.018578412011265755], [-0.044031593948602676, 0.04567486047744751, 0.04728696122765541, -0.004733684938400984, 0.012154389172792435], [0.07390337437391281, 0.12460654228925705, -0.05966980755329132, -0.01981436088681221, -0.05601733177900314]], [[-0.033010926097631454, -0.01902778632938862, -0.040621452033519745, -0.041489001363515854, 0.00026733678532764316], [-0.010432373732328415, 0.04040861874818802, -0.0029399250634014606, 0.021230004727840424, -0.002821942325681448], [0.061662256717681885, -0.026085130870342255, -0.10903492569923401, 0.034503400325775146, 0.06847754865884781], [0.007238217629492283, -0.027097754180431366, -0.06669316440820694, 0.03180772811174393, 0.11767429113388062], [0.03192799538373947, -0.022879431024193764, 0.0299094095826149, 0.0969163253903389, 0.0771666169166565]]], [[[0.07946328073740005, -0.036266788840293884, -0.04207879677414894, -0.07119183987379074, -0.061312299221754074], [0.1068670004606247, 0.03613210469484329, 0.017721012234687805, -0.06319475173950195, 0.06013944745063782], [-0.04824773222208023, -0.05175330862402916, -0.08690155297517776, -0.03269190713763237, 0.0533621571958065], [0.0014420996885746717, -0.004826338496059179, 0.024235924705863, -0.030212944373488426, -0.06313636898994446], [-0.02481137588620186, 0.06944084912538528, 0.05703766644001007, 0.07157016545534134, 0.03272940218448639]], [[0.012978476472198963, -0.02874438837170601, 0.012674428522586823, -0.02666926383972168, -0.013175868429243565], [-0.0001781259197741747, -0.07671491801738739, -0.034184228628873825, -0.03413262963294983, 0.010682258754968643], [0.03380255401134491, 0.01901054196059704, -0.02143547497689724, -0.10227048397064209, -0.08908320218324661], [-0.056361932307481766, -0.03091716580092907, -0.04817899316549301, -0.03754780441522598, -0.08249974995851517], [-0.04543854668736458, -0.025766441598534584, 0.10339068621397018, -0.055166177451610565, -0.1515899896621704]], [[-9.771250188350677e-05, -0.022156476974487305, -0.07573267072439194, -0.12325867265462875, -0.12279032170772552], [-0.01696135103702545, -0.02258116565644741, 0.00048189121298491955, -0.0009349728934466839, -0.06390216201543808], [0.016229044646024704, -0.06843393296003342, -0.05765584483742714, -0.0670054703950882, -0.07544960081577301], [-0.08606892824172974, -0.029831867665052414, 0.11087159812450409, 0.009133732877671719, -0.07530436664819717], [-0.03159302845597267, -0.05949923023581505, 0.06484220921993256, -0.06091228872537613, 0.0025232830084860325]], [[-0.025196295231580734, 0.05199813097715378, -0.02191097103059292, -0.02120117098093033, -0.01163696963340044], [0.03809499368071556, 0.05641714856028557, -0.012764234095811844, 0.02676069550216198, 0.024886734783649445], [-0.0657874196767807, 0.04561671242117882, -0.0953511968255043, -0.003480754792690277, -0.059603407979011536], [0.03339040279388428, 0.014072980731725693, 0.02578398585319519, 0.05837556719779968, 0.0049827005714178085], [0.0498700812458992, -0.06727752089500427, 0.009596917778253555, 0.04014848172664642, 0.015346798114478588]], [[0.08298543840646744, 0.06505762785673141, -0.1111370399594307, 0.05486821383237839, -0.0028944560326635838], [0.11286406219005585, 0.040742479264736176, 0.051756635308265686, -0.08232757449150085, 0.05514267086982727], [-0.006518969312310219, 0.08276277035474777, 0.0034966450184583664, -0.18959899246692657, -0.1308409571647644], [-0.12138452380895615, 0.07428515702486038, 0.017821352928876877, -0.05300762876868248, -0.09728509187698364], [-0.029638316482305527, 0.03013143129646778, 0.05896640568971634, -0.07313401997089386, -0.0931379646062851]], [[-0.03454656898975372, -0.03617300093173981, 0.05899917334318161, 0.02054368332028389, 0.11230865120887756], [0.06918834149837494, -0.09570986032485962, 0.04446318373084068, -0.061190273612737656, 0.05885650962591171], [-0.01663961261510849, -0.047575242817401886, 0.019823040813207626, -0.07247254252433777, 0.03896143287420273], [-0.017960358411073685, -0.04081271216273308, -0.03164650872349739, -0.026285475119948387, -0.0920773595571518], [0.031282395124435425, -0.004251742735505104, 0.031941477209329605, -0.04374450817704201, -0.041491419076919556]], [[-0.004442139063030481, -0.052801039069890976, 0.007946948520839214, 0.039633817970752716, 0.04431769996881485], [-0.0019837687723338604, -0.016327450051903725, -0.012871340848505497, 0.05573372170329094, 0.06190524622797966], [-0.06312146782875061, -0.13793642818927765, -0.029841504991054535, -0.08456717431545258, -0.024323398247361183], [-0.06733064353466034, -0.0788714736700058, 0.00696662999689579, 0.10112686455249786, -0.07002606987953186], [-0.07000357657670975, -0.024921964854002, 0.03402566909790039, -0.014663957059383392, 0.027031203731894493]], [[0.013529283925890923, 0.011581005528569221, -0.1112472265958786, -0.12907284498214722, -0.06808262318372726], [0.0869731456041336, 0.01334916241466999, -0.1190195307135582, -0.06925003230571747, -0.03293611481785774], [0.023122843354940414, 0.04060278832912445, 0.009408569894731045, -0.11919441819190979, 0.021187717095017433], [0.0029783402569592, 0.0029325028881430626, 0.0009511492098681629, -0.051740579307079315, -0.05931532755494118], [0.0446307435631752, -0.05288916453719139, -0.002163047669455409, -0.025031760334968567, -0.04062141850590706]], [[-0.017850667238235474, 0.06859757006168365, 0.028789881616830826, 0.023208264261484146, 0.06924451887607574], [-0.052633870393037796, 0.04463568702340126, 0.04225517064332962, -0.027081521227955818, 0.052564945071935654], [-0.07852252572774887, -0.04061497747898102, -0.013534940779209137, -0.07300425320863724, 0.020145874470472336], [-0.1333770900964737, -0.09380581229925156, -0.061085086315870285, -0.08753460645675659, -0.02931046485900879], [0.038814764469861984, 0.02382829785346985, 0.05908489227294922, -0.04451754316687584, -0.12447652220726013]], [[0.005324959754943848, 0.009073696099221706, 0.04473267123103142, -0.03297063708305359, -0.07269439101219177], [0.03410348668694496, -0.024995209649205208, -0.028208155184984207, 0.038469310849905014, 0.051352743059396744], [-0.047483354806900024, -0.04269576445221901, -0.042589325457811356, 0.005430496297776699, -0.07520101964473724], [-0.055603738874197006, 0.02365456148982048, 0.026404552161693573, 0.03330746293067932, 0.06706828624010086], [-0.002144012600183487, 0.018991105258464813, 0.03080589324235916, -0.0007985308766365051, 0.03239503502845764]], [[-0.03736583888530731, 0.03644900023937225, -0.03730100765824318, 0.027132418006658554, -0.08521471172571182], [0.06648664176464081, 0.025377146899700165, -0.0870525911450386, -0.07606513053178787, 0.02123318612575531], [0.046351149678230286, 0.0985894426703453, -0.04308289289474487, -0.10002564638853073, -0.011905232444405556], [-0.03863079100847244, 0.12077908217906952, -0.0005644019693136215, -0.0815448984503746, 0.026371819898486137], [0.007634019944816828, 0.08070756494998932, 0.14770735800266266, -0.03774763643741608, 0.023444849997758865]], [[0.033152952790260315, -0.05168570578098297, -0.026469344273209572, -0.013563231565058231, 0.04349910840392113], [-0.034269027411937714, -0.0239796731621027, 0.06177257001399994, 0.03376729413866997, 0.017108812928199768], [-0.10374647378921509, -0.06313633173704147, -0.04077468812465668, 0.02163906767964363, -0.06648096442222595], [-0.07236485183238983, -0.06452444940805435, 0.07636821269989014, 0.0008710217662155628, 0.02455572783946991], [-0.0962614119052887, -0.00386927742511034, 0.045236315578222275, 0.0900164544582367, 0.059533774852752686]], [[-0.09645365923643112, -0.05222373455762863, 0.07890107482671738, 0.030786562711000443, 0.053682755678892136], [-0.03966865688562393, 0.08517216891050339, 0.060258522629737854, 0.07257137447595596, -0.016308235004544258], [-0.04263843595981598, -0.018945438787341118, 0.03522995486855507, 0.008208030834794044, -0.004026135429739952], [-0.08360335230827332, 0.015342723578214645, 0.01720697432756424, -0.05757860839366913, -0.04911527782678604], [-0.12253900617361069, -0.03520442545413971, 0.0662054494023323, -0.01855502836406231, -0.08339694887399673]], [[-0.02115633338689804, 0.02501622401177883, 0.10969048738479614, -0.029078103601932526, 0.02193208783864975], [-0.046322960406541824, 0.004448129795491695, 0.07990813255310059, -0.006620828062295914, -0.0014380079228430986], [-0.0764463022351265, 0.01772136054933071, 0.03458860144019127, -0.07844740152359009, -0.017855949699878693], [-0.13904598355293274, 0.014738665893673897, 0.00448467954993248, -0.008168227970600128, -0.03294198960065842], [-0.038942884653806686, 0.031056392937898636, 0.03476296737790108, -0.06510387361049652, -0.06880700588226318]], [[0.08869358897209167, 0.018302014097571373, -0.04383789375424385, -0.01708187162876129, -0.0692400261759758], [0.078959159553051, 0.1143333837389946, 0.006181154400110245, -0.038560714572668076, 0.09073777496814728], [0.06078576296567917, 0.07270145416259766, -0.009166838601231575, 0.0007141480455175042, -0.045779891312122345], [0.05571877211332321, 0.0159070435911417, 0.08997713774442673, -0.024252986535429955, -0.03988061845302582], [0.17006021738052368, 0.003468957496806979, 0.09685573726892471, 0.07902812212705612, -0.08894353359937668]], [[0.041033126413822174, -0.05484228581190109, -0.048167046159505844, -0.06605823338031769, -0.09852157533168793], [0.06150848791003227, -0.014765892177820206, -0.034603096544742584, -0.008876514621078968, 0.05035923048853874], [0.0386999174952507, -0.04629460349678993, -0.035426340997219086, -0.060375556349754333, 0.04771094769239426], [-0.0357469879090786, -0.03358876332640648, -0.06519683450460434, 0.03257269784808159, 0.030444839969277382], [-0.04072920233011246, -0.006109530106186867, 0.01779584400355816, 0.005161067005246878, -0.004201296716928482]]], [[[0.021439099684357643, 0.013141174800693989, -0.09507830440998077, -0.09582072496414185, -0.007100168615579605], [0.11864116042852402, -0.010981976985931396, -0.03861751779913902, 0.017919443547725677, 0.04299941658973694], [0.036480773240327835, -0.01730400323867798, -0.08379006385803223, -0.010356095619499683, 0.03154262900352478], [-0.013717995956540108, 0.005425330251455307, -0.1162424236536026, -0.01985718309879303, 0.001973360776901245], [0.027865000069141388, 0.03386403247714043, -0.053431443870067596, 0.07221463322639465, 0.052692435681819916]], [[-0.060619473457336426, 0.0028225593268871307, 0.07730721682310104, 0.0710376426577568, 0.08108117431402206], [-0.06853936612606049, 0.04997178167104721, 0.13727109134197235, 0.01573268696665764, 0.056840259581804276], [-0.04140908271074295, 0.08014855533838272, 0.11564677208662033, 0.0023834630846977234, -0.027919694781303406], [-0.07313498109579086, 0.026128020137548447, 0.1682509183883667, -0.019299956038594246, 0.04780424013733864], [-0.0030609751120209694, -0.023132361471652985, 0.11771127581596375, 0.0027014464139938354, 0.01824561133980751]], [[-0.09380193799734116, -0.07247290015220642, -0.050125617533922195, -0.03872545436024666, 0.03320131078362465], [-0.002697547897696495, 0.09222428500652313, 0.0411224365234375, -0.057711806148290634, 0.010472020134329796], [0.07177754491567612, -0.011015743017196655, -0.09385266155004501, 0.025403397157788277, 0.10620628297328949], [-0.08147512376308441, -0.024331416934728622, -0.1300114095211029, -0.043781980872154236, 0.1603517085313797], [-0.053889308124780655, -0.013142254203557968, -0.09499678015708923, -0.003013736568391323, 0.13419818878173828]], [[-0.08462081849575043, -0.07407242804765701, -0.012607583776116371, 0.023767251521348953, -0.022233596071600914], [-0.05165285989642143, -0.07964383810758591, 0.03254925087094307, -0.02274472452700138, 0.028307782486081123], [-0.06349600106477737, -0.029877260327339172, 0.030236661434173584, 0.05898691713809967, -0.04346303269267082], [-0.001600632444024086, 0.0263468436896801, 0.053635723888874054, -0.007247965782880783, 0.05512445420026779], [-0.09666852653026581, -0.04724889248609543, -0.013730771839618683, -0.053261447697877884, -0.010095172561705112]], [[0.018480567261576653, -0.03722751513123512, 0.013053113594651222, 0.0053128572180867195, 0.09105827659368515], [0.043538305908441544, 0.014654099941253662, -0.023287659510970116, -0.02181544154882431, 0.04206289350986481], [-0.005952877923846245, 0.04334195330739021, 0.026082787662744522, 0.024540740996599197, -0.0631270706653595], [0.03731338679790497, -0.0756273865699768, -0.0030362196266651154, -0.04083864390850067, -0.04974334314465523], [0.002632512478157878, -0.07691976428031921, -0.00034215301275253296, -0.04312949627637863, -0.07497747987508774]], [[0.06002558767795563, 0.09724313020706177, -0.07068570703268051, 0.017810169607400894, -0.036451514810323715], [0.10025884211063385, 0.08828244358301163, 0.002020056825131178, 0.01614919863641262, 0.022971993312239647], [0.03143251687288284, -0.008754640817642212, -0.054292723536491394, 0.022378943860530853, 0.07278008759021759], [0.017249833792448044, 0.022279635071754456, -0.040066033601760864, 0.07998712360858917, -0.00820789486169815], [0.09745810180902481, 0.04978182166814804, -0.0670892745256424, 0.0031593330204486847, 0.08236077427864075]], [[0.06186492741107941, 0.08400297164916992, -0.028445802628993988, 0.04601456969976425, -0.026182563975453377], [0.08986177295446396, 0.020403048023581505, 0.014653723686933517, 0.07207883894443512, 0.12159677594900131], [0.07031605392694473, -0.022043421864509583, 0.0609893836081028, 0.02082967385649681, 0.07795708626508713], [0.0010615773499011993, 0.00720078032463789, 0.04383392632007599, 0.0549803152680397, -0.026385735720396042], [0.08608858287334442, 0.021460218355059624, 0.10358559340238571, 0.04195040464401245, -0.03254154324531555]], [[0.00041919201612472534, -0.1007196232676506, -0.021719155833125114, -0.0052012670785188675, 0.08089011162519455], [0.06296278536319733, 0.10657446831464767, 0.03897580876946449, 0.06084929034113884, 0.0835859403014183], [0.03712604194879532, 0.09756653755903244, 0.019879432395100594, -0.00553544145077467, 0.03532971814274788], [0.05879462882876396, 0.008161365985870361, -0.01927364058792591, 0.03263547271490097, -0.012294504791498184], [-0.017216917127370834, 0.006338406354188919, 0.03636833652853966, 0.04752720519900322, 0.0661642923951149]], [[0.14740873873233795, 0.023117609322071075, 0.0005847346037626266, 0.043327394872903824, -0.0013709086924791336], [0.1678779572248459, -0.009723206982016563, -0.008502105250954628, 0.1282714307308197, 0.10603857040405273], [0.053708765655756, 0.035740528255701065, 0.002178264781832695, 0.08426830172538757, 0.09788095206022263], [0.06210818141698837, 0.07966934144496918, 0.13512741029262543, 0.08341877162456512, 0.023734834045171738], [0.14521349966526031, 0.10349924862384796, 0.10685944557189941, 0.0723588615655899, 0.037545960396528244]], [[0.04369521141052246, -0.029984910041093826, -0.05099933221936226, -0.08722995221614838, 0.008555151522159576], [0.04777310788631439, -0.040511604398489, -0.06682126969099045, 0.03430671617388725, 0.01461268961429596], [0.05291765183210373, 0.06173713877797127, 0.021532602608203888, -0.09602271765470505, 0.010333890095353127], [0.03689030185341835, 0.0070653799921274185, -0.07559975236654282, -0.013277458027005196, 0.09867236763238907], [0.03706294298171997, 0.019898317754268646, -0.11046076565980911, -0.0467565655708313, 0.10837308317422867]], [[-0.0630435049533844, -0.061697542667388916, 0.06500212848186493, -0.010236302390694618, 0.023301297798752785], [-0.1746910810470581, -0.003306850790977478, 0.11931250244379044, 0.03840984031558037, 0.14176595211029053], [-0.05125587806105614, -0.05086810886859894, 0.09864523261785507, -0.07273973524570465, 0.015868598595261574], [0.03865376487374306, 0.019724521785974503, 0.11045874655246735, -0.007624676916748285, 0.01516145933419466], [-0.06406038999557495, 0.018250709399580956, 0.08333943039178848, -0.07515005022287369, -0.01590915024280548]], [[0.009489348158240318, 0.008514641784131527, -0.03833592310547829, -0.003460068255662918, -0.05836115777492523], [0.05960611253976822, -0.09082938730716705, -0.012589712627232075, -0.018975913524627686, 0.013745897449553013], [0.019150828942656517, -0.09277185797691345, 0.055203311145305634, 0.07242098450660706, 0.007394270971417427], [0.061114948242902756, -0.03290756419301033, 0.01997748389840126, 0.11540045589208603, -0.06577800959348679], [0.07764185220003128, -0.003996212966740131, 0.032821644097566605, 0.04478312283754349, -0.050471678376197815]], [[0.017122559249401093, -0.02064266800880432, -0.03665895760059357, -0.06548362225294113, -0.024096587672829628], [-0.04495815187692642, 0.03762049973011017, -0.0960085391998291, -0.06677690148353577, 0.016814248636364937], [-0.06134844571352005, 0.031431157141923904, -0.08692280203104019, -0.08145244419574738, 0.03739338368177414], [0.0009866943582892418, 0.07109826803207397, -0.07894209027290344, 0.007970454171299934, 0.05672876536846161], [-0.012136150151491165, 0.047100938856601715, -0.0388941615819931, -0.07395794987678528, 0.0029642623849213123]], [[-0.009362091310322285, 0.04292557016015053, -0.017256595194339752, 0.08495043963193893, 0.05562521144747734], [0.018749753013253212, 0.17940659821033478, -0.08281341195106506, 0.009969659149646759, -0.009236233308911324], [0.07728385180234909, 0.09937742352485657, 0.09220721572637558, -0.006676160730421543, -0.036860786378383636], [-0.010666247457265854, 0.0249650739133358, 0.04502257704734802, -0.02938101813197136, 0.03975521773099899], [-0.09208914637565613, 0.07957151532173157, 0.028926489874720573, -0.07141712307929993, 0.02136453613638878]], [[0.06376250088214874, -0.040367718786001205, -0.048098474740982056, 0.037034355103969574, 0.014518145471811295], [0.009410318918526173, -0.07940380275249481, -0.00694800540804863, -0.011712771840393543, -0.07201167941093445], [0.0069745127111673355, -0.05853022262454033, -0.08007887005805969, 0.02799087017774582, 0.05381793528795242], [0.062025848776102066, -0.07037835568189621, -0.03206861391663551, 0.07697970420122147, -0.11999887228012085], [0.108726367354393, 0.0005137240514159203, -0.0011360784992575645, 0.0633397102355957, -0.0005173198296688497]], [[0.004725709557533264, 0.10169944912195206, 0.09077757596969604, 0.04378701373934746, -0.007927799597382545], [0.012958839535713196, 0.08476129919290543, 0.11024574935436249, 0.06523631513118744, -0.03217664733529091], [-0.0610131211578846, 0.049301132559776306, -0.025436358526349068, -0.02838919125497341, -0.005437890067696571], [0.0752677172422409, 0.03476433455944061, -0.0404505729675293, -0.12464971840381622, 0.0397917740046978], [0.0393730029463768, -0.03258155286312103, -0.047613725066185, -0.004363710060715675, 0.03824587166309357]]], [[[-0.04648399353027344, 0.16837406158447266, 0.12165567278862, -0.0033353418111801147, 0.10076239705085754], [0.013361483812332153, -0.042968831956386566, -0.004935380537062883, -0.09793596714735031, 0.0007234439253807068], [-0.00932043045759201, -0.01937124878168106, -0.056022897362709045, -0.0002163117751479149, 0.0015972270630300045], [0.06979285925626755, -0.014794554561376572, -0.017615949735045433, -0.025792013853788376, 0.10559278726577759], [0.040593065321445465, 0.037278689444065094, -0.04899429902434349, 0.010704060085117817, 0.025548581033945084]], [[-0.0788785070180893, -0.03459617495536804, 0.025549372658133507, 0.006281614303588867, 0.023505616933107376], [0.021467017009854317, -0.14776334166526794, 0.06041505187749863, 0.06541794538497925, 0.04525676369667053], [0.0724174752831459, -0.07596541941165924, 0.06633394956588745, -0.07979381829500198, -0.031880225986242294], [0.12234511971473694, -0.07943406701087952, 0.016031818464398384, 0.005146171897649765, 0.050270937383174896], [0.0483294352889061, -0.06706154346466064, 0.11341684311628342, -0.04802980646491051, 0.12396691739559174]], [[0.007744774222373962, 0.015621723607182503, -0.036151159554719925, 0.05399351567029953, 0.028894413262605667], [-0.029723286628723145, 0.029290780425071716, -0.042814821004867554, 0.02239428646862507, 0.022348832339048386], [0.018448684364557266, 0.09273598343133926, 0.05546874552965164, -0.08420953899621964, -0.10493673384189606], [-0.006203890778124332, -0.005691034719347954, 0.062230635434389114, 0.10570060461759567, 0.06241372600197792], [-0.06779015809297562, -0.06052379310131073, 0.03159705922007561, -0.014508944004774094, 0.00784492027014494]], [[-0.0685943067073822, 0.08467955142259598, -0.1440073549747467, 0.019244877621531487, -0.00668947771191597], [-0.016154032200574875, -0.00952960830181837, -0.056461989879608154, 0.0832633450627327, 0.05267086252570152], [0.01155981793999672, 0.015741977840662003, -0.06863387674093246, -0.08716539293527603, 0.0036821141839027405], [0.04365481808781624, -0.08541129529476166, -0.09970110654830933, -0.018406745046377182, 0.012251488864421844], [-0.01906372234225273, -0.021669868379831314, -0.018133115023374557, 0.03195617347955704, 0.0014824410900473595]], [[-0.026332780718803406, -0.0508403554558754, 0.0657387301325798, 0.03929123654961586, 0.010566206648945808], [-0.025508470833301544, 0.03328213095664978, 0.06521626561880112, 0.02183481864631176, -0.03143419697880745], [0.06441391259431839, 0.014681566506624222, -0.1153123676776886, -0.03471837937831879, 0.03517065942287445], [0.01609884202480316, -0.032686859369277954, -0.004550234414637089, -0.018794763833284378, 0.006567355245351791], [0.0696195736527443, -0.11926600337028503, 0.0409114733338356, -0.023419756442308426, -0.01699107326567173]], [[-0.021777767688035965, -0.026466617360711098, -0.04567994549870491, -0.07549184560775757, 0.03385290130972862], [0.09737849980592728, -0.06702742725610733, -0.04664977639913559, -0.06829661130905151, 0.024101804941892624], [-0.0803268551826477, 0.07527416944503784, -0.04797052964568138, -0.11158805340528488, -0.06278945505619049], [-0.0605069175362587, 0.048041243106126785, 0.10793667286634445, 0.012393612414598465, -0.08315618336200714], [-0.03888619318604469, 0.014497923664748669, 0.03862471505999565, 0.009705692529678345, 0.07789596915245056]], [[0.01290801540017128, -0.03361370787024498, 0.055692121386528015, -0.010653894394636154, 0.09570997208356857], [0.061138562858104706, 0.028820376843214035, -0.038260262459516525, 0.04585427790880203, -0.02372010238468647], [-0.11490651965141296, -0.03129314258694649, 0.03285856917500496, 0.0345701165497303, -0.015459369868040085], [0.05816471576690674, 0.08244683593511581, -0.0347161702811718, 0.017719250172376633, 0.056622181087732315], [0.01942327246069908, 0.04076846316456795, -0.06843645870685577, -0.08890222758054733, 0.05290347710251808]], [[0.09015999734401703, 0.11868777126073837, 0.07048791646957397, 0.026546742767095566, -0.002947249449789524], [0.011790689080953598, 0.015651920810341835, -0.009686172008514404, -0.13464128971099854, -0.0025207577273249626], [-0.04585236310958862, 0.048875175416469574, 0.017702315002679825, -0.020123913884162903, -0.020573265850543976], [-0.015421037562191486, -0.001757212681695819, 0.04148591309785843, 0.05050109699368477, 0.09808754920959473], [-0.045183632522821426, 0.06416036188602448, -0.030970219522714615, 0.00522052776068449, -0.058522194623947144]], [[-0.10499881207942963, 0.15640194714069366, 0.08468857407569885, 0.012551994062960148, -0.034587644040584564], [-0.026093091815710068, 0.1344083696603775, -0.11034968495368958, 0.08138329535722733, -0.018294118344783783], [0.07510095089673996, 0.060623716562986374, -0.02080606296658516, 0.013319756835699081, -0.054704803973436356], [0.0596562884747982, -0.0019307099282741547, -0.06661055982112885, -0.12843231856822968, -0.048665355890989304], [0.03321141004562378, 0.07445857673883438, -0.06399783492088318, -0.06333799660205841, -0.04560505971312523]], [[-0.011760215274989605, -0.043678782880306244, -0.07635289430618286, 0.034893251955509186, 0.011327072978019714], [-0.0707116574048996, 0.01719142124056816, -0.06966797262430191, -0.018078986555337906, 0.055630046874284744], [-0.05517032369971275, -0.0688440203666687, -0.042929526418447495, 0.045070189982652664, 0.07203150540590286], [-0.04705330729484558, -0.021612975746393204, -0.09903707355260849, -0.12320276349782944, -0.041309911757707596], [-0.006519429385662079, -0.025648247450590134, -0.06670808792114258, -0.00785297341644764, -0.023542044684290886]], [[-0.07675714790821075, -0.06942200660705566, -0.007085226476192474, -0.07351993024349213, -0.06448140740394592], [-0.047032881528139114, -0.05270029976963997, 0.04766465723514557, 0.026277758181095123, 0.009936202317476273], [-0.046701814979314804, -0.07068082690238953, -0.010125400498509407, -0.004060758277773857, 0.02083744667470455], [-0.0065825218334794044, -0.003394991857931018, 0.09178238362073898, -0.08942271769046783, -0.11278330534696579], [0.02645709551870823, 0.0057744309306144714, 0.06625058501958847, 0.05776309594511986, -0.05053388327360153]], [[-0.08659794181585312, 0.01681787520647049, -0.10849843919277191, -0.0434395968914032, 2.4556182324886322e-05], [-0.008090321905910969, 0.013255332596600056, -0.12557494640350342, -0.03592419624328613, -0.06968659907579422], [0.0034491391852498055, 0.05006225034594536, 0.019026335328817368, -0.09833411127328873, -0.05318358168005943], [-0.0440693125128746, -0.038066159933805466, -0.048556312918663025, -0.07385577261447906, 0.0285625159740448], [-0.019647303968667984, -0.052708327770233154, 0.009093178436160088, -0.012131799943745136, -0.02522660605609417]], [[0.041199736297130585, -0.026510586962103844, -0.002932057250291109, 0.037032414227724075, -0.010547825135290623], [-0.03788632154464722, -0.05523344501852989, 0.017163235694169998, -0.01875315234065056, -0.01998077891767025], [-0.04314509406685829, -0.12479577958583832, -0.05582781136035919, 0.00016083382070064545, -0.03729472681879997], [0.03583299368619919, -0.07112091779708862, -0.019209958612918854, -0.1131846234202385, -0.09550003707408905], [-0.03759431466460228, -0.06505102664232254, -0.03529154881834984, -0.08775237202644348, -0.01145019568502903]], [[-0.03245152160525322, -0.06591449677944183, 0.03275531902909279, -0.019537746906280518, 0.016279704868793488], [0.03025461733341217, -0.016050903126597404, 0.05211914703249931, 0.04543725773692131, -0.004170671105384827], [-0.021011002361774445, -0.01820080168545246, -0.05345449969172478, -0.08277931064367294, -0.04246857762336731], [-0.07568530738353729, -0.025661958381533623, -0.009160314686596394, -0.028067676350474358, -0.0927150547504425], [-0.02884361520409584, -0.00834751408547163, 0.05049712955951691, 0.0066833700984716415, 0.04351944103837013]], [[0.006935771554708481, 0.05415226146578789, 0.10023391991853714, 0.060359060764312744, -0.0039966171607375145], [0.07516643404960632, -0.04029636085033417, -0.07194043695926666, 0.028001070022583008, -0.014485200867056847], [0.08720378577709198, -0.03158808872103691, -0.059545084834098816, -0.14374126493930817, -0.06492812931537628], [0.044424138963222504, -0.026615429669618607, 0.03687971830368042, 0.11674205958843231, 0.06609775125980377], [0.11507073789834976, -0.07592132687568665, 0.01321503147482872, -0.013494297862052917, 0.055980365723371506]], [[0.03555245324969292, 0.0598929300904274, -0.07040506601333618, 0.0038984250277280807, -0.07691564410924911], [-0.0062420908361673355, 0.01933400332927704, -0.05309192091226578, -0.00770995020866394, -0.010958641767501831], [0.03101429156959057, -0.02220090478658676, -0.12933674454689026, 0.08029844611883163, -0.02122632786631584], [-0.0756077840924263, -0.12615805864334106, -0.1453818529844284, 0.0009256089106202126, -0.015767574310302734], [-0.0665111094713211, -0.06170312687754631, -0.050875697284936905, -0.08309392631053925, -0.1352120190858841]]], [[[0.04115397855639458, 0.07755676656961441, 0.10480319708585739, 0.057027481496334076, -0.033905498683452606], [0.05136390030384064, -0.06419190764427185, -0.02242656983435154, 0.019103072583675385, -0.027567856013774872], [0.03357753902673721, 0.13623195886611938, 0.0866764709353447, 0.00892204325646162, -0.06940034031867981], [-0.034064024686813354, 0.057642947882413864, 0.005268648266792297, 0.030923016369342804, 0.06579944491386414], [-0.024133294820785522, 0.08280905336141586, 0.054029401391744614, -0.016898343339562416, 0.021166158840060234]], [[0.03712283447384834, 0.003851025365293026, 0.012534517794847488, 0.016437314450740814, -0.016029683873057365], [0.027200836688280106, 0.02619943767786026, -0.023721950128674507, -0.01913115568459034, -0.07734482735395432], [0.010497143492102623, -0.07593849301338196, -0.03165603429079056, -0.07861840724945068, -0.010869651101529598], [-0.0025967415422201157, -0.01343177817761898, -0.08607477694749832, -0.10171698778867722, 0.02804388850927353], [0.023504246026277542, 0.08311598002910614, 0.05193674936890602, -0.10443728417158127, -0.011189721524715424]], [[0.031878821551799774, -0.026403827592730522, 0.00685820821672678, 0.09455431997776031, 0.023224253207445145], [-0.01650732196867466, 0.0036890453193336725, -0.0913170650601387, -0.05987362563610077, -0.012053681537508965], [-0.019705913960933685, 0.055238932371139526, -0.04240543767809868, -0.014288568869233131, 0.0022572376765310764], [0.02726823464035988, 0.09256036579608917, 0.058425020426511765, 0.009621081873774529, -0.06268855929374695], [0.0050846366211771965, 0.05633145943284035, -0.05760863795876503, 0.007668141275644302, 0.024927407503128052]], [[0.01813414879143238, 0.003514082171022892, -0.023758500814437866, -0.005005492363125086, 0.03067440539598465], [0.018908105790615082, -0.027622893452644348, -0.055035147815942764, -0.019622646272182465, 0.07303762435913086], [-0.0879058912396431, -0.06430361419916153, -0.1253453493118286, -0.02995096705853939, 0.10274795442819595], [-0.00399584136903286, 0.005683492869138718, -0.00018582330085337162, 0.003121140878647566, -0.008024586364626884], [0.07070145010948181, -0.03322761878371239, -0.08666025847196579, -0.01496267318725586, 0.037977688014507294]], [[-0.0038772886618971825, -0.051231808960437775, 0.0008161566220223904, 0.11859975755214691, 0.08817093819379807], [-0.04044594615697861, -0.07673651725053787, 0.033146701753139496, 0.08555464446544647, 0.043729085475206375], [-0.013301154598593712, -0.011144724674522877, -0.0491814911365509, -0.025455500930547714, -0.011622240766882896], [0.007439765613526106, -0.05420524999499321, -0.0804797038435936, -0.005403958261013031, -0.025240834802389145], [0.005846246611326933, 0.018895501270890236, -0.024810727685689926, -0.04426061362028122, -0.039940059185028076]], [[0.014946002513170242, -0.020700328052043915, 0.025117967277765274, -0.0038180314004421234, 0.0076233213767409325], [-0.04359933361411095, -0.05786889046430588, -0.06279738247394562, -0.13342487812042236, -0.06401938945055008], [-0.003576129674911499, -0.006984911859035492, -0.021294573321938515, 0.011528287082910538, -0.09228719025850296], [0.022187789902091026, 0.01387389563024044, -0.1343068778514862, 0.020225822925567627, -0.023480253294110298], [-0.06741070002317429, 0.03485479578375816, 0.024344854056835175, 0.02529998868703842, 0.05673733353614807]], [[-0.10674282908439636, -0.0035736290737986565, 0.048276305198669434, -0.043742068111896515, -0.0014355862513184547], [0.02717737853527069, -0.06210855022072792, -0.07219202071428299, -1.5227124094963074e-05, 0.0730351135134697], [0.08283437788486481, 0.06661573797464371, -0.02698405086994171, 0.030804965645074844, 0.0522371307015419], [0.11009018868207932, 0.03428780287504196, -0.02580772526562214, -0.012121486477553844, -0.02933853678405285], [-0.0030046552419662476, 0.02038031630218029, -0.014011197723448277, -0.010353186167776585, -0.022455552592873573]], [[-0.01645924150943756, 0.05604523792862892, -0.06369317322969437, 0.00957702286541462, -0.06115550175309181], [0.054173316806554794, -0.07660017907619476, -0.0613316148519516, 0.015425499528646469, -0.07559093087911606], [0.11340205371379852, 0.10080967098474503, 0.12009120732545853, 0.02545948699116707, -0.0381360799074173], [0.07029511779546738, 0.0523730106651783, 0.09037863463163376, -0.004080208018422127, 0.040527649223804474], [0.038243088871240616, -0.006500290706753731, 0.06275283545255661, 0.0748124048113823, -0.11843328922986984]], [[-0.0076243095099925995, -0.06605218350887299, 0.07354758679866791, -0.039468877017498016, 0.0799531564116478], [-0.02532877027988434, -0.15050217509269714, -0.08889663219451904, -0.0577850267291069, 0.11842290312051773], [0.14952313899993896, -0.2045445442199707, -0.051468078047037125, -0.039390940219163895, 0.09834077209234238], [0.03300611674785614, -0.12819898128509521, -0.10366350412368774, -0.10234790295362473, -0.018919046968221664], [0.09654776006937027, -0.05703866854310036, 0.02055307850241661, -0.043117813766002655, -0.021953672170639038]], [[0.07443860173225403, 0.11771475523710251, 0.07510457932949066, 0.03535762429237366, -0.08901935815811157], [0.07577744871377945, 0.005301869940012693, -0.0443967767059803, -0.08736336976289749, 0.06346970796585083], [0.005048656836152077, 0.08964099735021591, 0.05766076594591141, 0.04664948582649231, 0.02116043120622635], [-0.0060263462364673615, -0.07340876013040543, 0.06095857545733452, 0.01806492917239666, -0.027926217764616013], [-0.0054819053038954735, -0.03748730942606926, 0.07487042248249054, -0.0001815140713006258, -0.021712351590394974]], [[-0.03753971308469772, -0.08846228569746017, 0.030511869117617607, -0.005231553688645363, -0.10050874203443527], [-0.00235849991440773, -0.10061372816562653, -0.13059958815574646, -0.0677184909582138, 0.02104683220386505], [0.05509214848279953, -0.04953352361917496, 0.030519820749759674, -0.007459849119186401, -0.0783381387591362], [0.12758809328079224, -0.03510090336203575, -0.01595507562160492, -0.028618086129426956, -0.04575781896710396], [0.13598217070102692, -0.07693200558423996, -0.0653376430273056, 0.025840379297733307, -0.07954545319080353]], [[-0.03552275523543358, 0.0606776624917984, 0.019864071160554886, 0.08704838156700134, 0.0727083683013916], [0.07165183871984482, 0.002993177156895399, -0.0553390234708786, 0.12051515281200409, 0.03186504915356636], [0.011312051676213741, -0.005253431387245655, -0.09995440393686295, -0.010081663727760315, 0.012723212130367756], [-0.009762080386281013, 0.04725624620914459, -0.05522643029689789, 0.000590161420404911, -0.0358305424451828], [0.05491096153855324, 0.03607599064707756, 0.056286752223968506, -0.05895880609750748, -0.0365600660443306]], [[-0.025355080142617226, -0.022094950079917908, -0.012761494144797325, 0.030802642926573753, 0.052329279482364655], [0.04971930757164955, -0.019733788445591927, 0.04416293650865555, 0.04286219924688339, 0.057396166026592255], [-0.03089176118373871, 0.008307543583214283, -0.10891370475292206, -0.050274237990379333, 0.002368038985878229], [-0.05152204632759094, -0.1053723618388176, -0.05911951884627342, -0.04497542977333069, -0.028543774038553238], [0.02002279832959175, 0.004264949820935726, -0.045949600636959076, -0.017802733927965164, 0.013562463223934174]], [[-0.01105685718357563, 0.011345435865223408, 0.006072847172617912, 0.08057846128940582, 0.009390376508235931], [-0.08592820912599564, -0.03161383047699928, 0.015846334397792816, -0.07285401970148087, -0.059839487075805664], [0.08822036534547806, 0.010542869567871094, -0.005113861057907343, -0.055553484708070755, -0.011092087253928185], [0.007868677377700806, -0.045519933104515076, -0.05269325152039528, -0.031221842393279076, 0.058829955756664276], [0.028546560555696487, -0.025919537991285324, -0.07468265295028687, -0.11097121983766556, 0.014818701893091202]], [[-0.004751597531139851, 0.028969131410121918, -0.04207344725728035, -0.08413364738225937, -0.06456950306892395], [0.0006989249959588051, -0.030043819919228554, -0.05057911574840546, -0.09607692807912827, -0.03332347050309181], [0.02112843096256256, -0.005406610667705536, -0.09348571300506592, 0.027039669454097748, 0.12813833355903625], [0.008002595975995064, 0.053109921514987946, 0.09202726185321808, -0.012261008843779564, -0.019671456888318062], [-0.09015755355358124, 0.0867634117603302, -0.03198247402906418, -0.07762714475393295, -0.061818886548280716]], [[-0.043630342930555344, 0.02900134027004242, 0.0014384714886546135, 0.02398676984012127, -0.02065378613770008], [0.012534208595752716, 0.06632531434297562, 0.06749425828456879, 0.10809438675642014, 0.030070539563894272], [0.035899583250284195, -0.018078841269016266, 0.0032377433963119984, 0.13913384079933167, 0.05537768825888634], [0.018285946920514107, -0.06243932619690895, 0.04591110721230507, 0.02207593433558941, 0.07516980171203613], [0.014077147468924522, -0.0636262595653534, -0.047774359583854675, 0.01899171806871891, 0.036815185099840164]]], [[[0.05422645062208176, 0.042633093893527985, -0.09274166822433472, -0.04198886454105377, -0.11257777363061905], [-0.004099181853234768, -0.016005147248506546, 0.107569620013237, -0.022564999759197235, 0.04458930715918541], [-0.030953548848628998, 0.0035788044333457947, -0.10009865462779999, -0.01981872320175171, 0.027310291305184364], [-0.004703507758677006, -0.04044904559850693, -0.1006312295794487, 0.013568217866122723, 0.04278614744544029], [-0.009741045534610748, 0.07832816988229752, -0.11188945919275284, 0.10484077036380768, 0.057812709361314774]], [[0.046252258121967316, -0.05768453702330589, -0.004654437303543091, 0.00961492769420147, 0.10504858940839767], [0.026940003037452698, -0.05582556501030922, 0.07635568082332611, -0.041333943605422974, -0.028798475861549377], [-0.01311669871211052, 0.0021377215161919594, -0.017774447798728943, -0.08216720074415207, 0.02199215441942215], [-0.08256851136684418, 0.050139397382736206, 0.020924285054206848, -0.1032387986779213, 0.07217329740524292], [-0.017950933426618576, 0.00865192897617817, 0.06717176735401154, -0.039920561015605927, 0.039923425763845444]], [[0.10310777276754379, -0.03249683976173401, -0.04729996249079704, 0.05971980839967728, 0.014094900339841843], [-0.05322996526956558, 0.06937292963266373, 0.0427720844745636, -0.04302045702934265, -0.057267822325229645], [0.05887376517057419, -0.002133212983608246, -0.09691710770130157, -0.07421368360519409, 0.04676749184727669], [-0.022735413163900375, -0.018094303086400032, 0.08458883315324783, -0.051350187510252, 0.03420620411634445], [-0.00040375441312789917, -0.051806140691041946, 0.028956014662981033, 0.023007379844784737, 0.0994536429643631]], [[-0.03811333328485489, -0.007228679955005646, -0.05357082933187485, 0.014351602643728256, -0.04183700308203697], [0.06789486110210419, 0.03615809604525566, 0.0037035830318927765, -0.0069574024528265, -0.0171797014772892], [0.04465823993086815, 0.007325557991862297, -0.05396317318081856, -0.017972782254219055, 0.01504717767238617], [-0.06463933736085892, -0.021229518577456474, -0.054967865347862244, 0.009853426367044449, 0.027163349092006683], [0.03920826315879822, -0.01149537693709135, -0.05835134536027908, 0.03232958912849426, -0.0393177755177021]], [[0.05007907748222351, -0.0425138920545578, 0.0760965347290039, -0.008858654648065567, -0.0294667799025774], [0.019645288586616516, 0.09960653632879257, 0.13278606534004211, 0.018766717985272408, 0.15696687996387482], [0.07449549436569214, 0.03262467682361603, 0.11131280660629272, -0.05990961939096451, 0.022412367165088654], [-0.010337131097912788, -0.014774596318602562, 0.00937938503921032, -0.06362484395503998, 0.014628300443291664], [0.013794935308396816, 0.01049654558300972, -0.0172354094684124, 0.04781707376241684, -0.04902562126517296]], [[-0.06475856900215149, -0.14013263583183289, -0.0022922269999980927, 0.05657605826854706, 0.07917921245098114], [-0.10147862136363983, -0.026579460129141808, 0.0404813289642334, 0.19870825111865997, 0.09955111145973206], [-0.030875517055392265, -0.07777336984872818, -0.0736369639635086, 0.06371358782052994, 0.02052338421344757], [0.022783592343330383, -0.03694088011980057, 0.059892382472753525, -0.028118114918470383, -0.009410619735717773], [-0.10090330243110657, -0.06890225410461426, -0.06882862746715546, -0.011881254613399506, 0.014712966978549957]], [[-0.025591636076569557, 0.04972262308001518, 0.025964245200157166, -0.08484949171543121, -0.006937405094504356], [-0.021382983773946762, -0.12852197885513306, -0.021204069256782532, 0.03184576332569122, 0.057996176183223724], [-0.04011690244078636, 0.020462241023778915, 0.026276027783751488, 0.0689183846116066, 0.032078687101602554], [0.029566273093223572, 0.03361963480710983, 0.04389854893088341, 0.07275474071502686, -0.07594410330057144], [-0.08551149070262909, -0.01485242135822773, 0.029472552239894867, -0.0013384781777858734, -0.07248467206954956]], [[-0.0167861171066761, -0.03155561536550522, -0.07965438067913055, -0.01412210799753666, 0.03215685859322548], [-0.06966884434223175, 0.04629066586494446, -0.0032508987933397293, 0.07436112314462662, 0.11776565760374069], [-0.05354175344109535, 0.027524244040250778, -0.02175181731581688, -0.055664338171482086, -0.07414817065000534], [-0.01972884126007557, -0.06994309276342392, 0.0314975380897522, 0.12493891268968582, 0.00882597267627716], [0.05315941572189331, -0.01083303615450859, 0.032151926308870316, -0.04440243914723396, 0.042929816991090775]], [[-0.10614124685525894, -0.049369074404239655, 0.024701187387108803, 0.15819203853607178, 0.0841798335313797], [-0.08950288593769073, 0.1022394672036171, 0.022637050598859787, 0.20574575662612915, -0.0009768102318048477], [-0.1510043889284134, -0.09583518654108047, 0.04368780180811882, 0.22079670429229736, -0.03908652812242508], [-0.025254134088754654, 0.0799463540315628, 0.09149569272994995, 0.11873417347669601, -0.01628687046468258], [-0.14753413200378418, -0.01784985512495041, 0.0353962779045105, 0.09747842699289322, 0.016208451241254807]], [[-0.009511827491223812, 0.07446716725826263, 0.07519765943288803, 0.02595149539411068, -0.018542902544140816], [0.07880815863609314, 0.017353899776935577, 0.011603445746004581, 0.11019499599933624, 0.05713268741965294], [-0.054818131029605865, 0.07515961676836014, 0.05752714350819588, 0.039133306592702866, -0.03528216481208801], [-0.024128586053848267, -0.05180032178759575, 0.009796684607863426, 0.05398955196142197, 0.007319396361708641], [0.0020436635240912437, 0.03484710678458214, -0.012707971036434174, -0.044814351946115494, -0.06217131391167641]], [[-0.0351538211107254, -0.07260136306285858, -0.022635210305452347, -0.1016969308257103, -0.07649865746498108], [-0.03544001653790474, 0.014910131692886353, -0.0741892158985138, -0.08241327852010727, 0.13337191939353943], [0.05267317220568657, -0.028831198811531067, 0.00983924325555563, -0.036371950060129166, 0.08122016489505768], [-0.018033592030405998, -0.14975707232952118, -0.0829601064324379, -0.10834097117185593, 0.07785969972610474], [0.09251154214143753, -0.016691049560904503, 0.06395339220762253, -0.06913614273071289, 0.07605622708797455]], [[-0.0220734104514122, -0.0926399901509285, -0.04807332158088684, 0.060127370059490204, -0.05349094793200493], [-0.015295002609491348, 0.08102733641862869, 0.023817522451281548, 0.052488263696432114, 0.03342515602707863], [0.0328935906291008, -0.15483778715133667, -0.01347485650330782, 0.05793766677379608, -0.008353431709110737], [-0.04931476712226868, -0.05217311903834343, -0.06873245537281036, -0.03916167467832565, -0.1269942969083786], [-0.018577557057142258, -0.0646020919084549, 0.03621708229184151, 0.0199078731238842, -0.05296191945672035]], [[-0.007908803410828114, 0.023735323920845985, 0.0548856258392334, -0.012342940084636211, -0.009234288707375526], [-0.03034815937280655, -0.003209673799574375, 0.029849398881196976, -0.029124915599822998, -0.016228871420025826], [-0.012813614681363106, 0.03140413761138916, 0.016512475907802582, -0.018830666318535805, 0.03570466488599777], [0.019520189613103867, -0.015262741595506668, 0.04148584604263306, 0.023622535169124603, 0.005683082155883312], [0.02750331163406372, 0.011218203231692314, 0.01273646205663681, 0.023596657440066338, 0.05010293051600456]], [[-0.05800309032201767, -0.12193351984024048, -0.17514833807945251, -0.006790276616811752, -0.0769210159778595], [-0.07904274016618729, -0.10473185032606125, -0.029584117233753204, 0.04567288979887962, 0.1651483178138733], [0.015572686679661274, 0.019303619861602783, -0.015098909847438335, 0.07325509190559387, 0.09102831035852432], [0.021067345514893532, 0.04600827395915985, -0.007986110635101795, 0.10188338160514832, -0.0006703175604343414], [0.04078051820397377, -0.05527372658252716, -0.04294268786907196, 0.05489544942975044, 0.07632815837860107]], [[-0.04057508707046509, -0.015627330169081688, 0.05191905051469803, -0.002723652869462967, -0.006390124559402466], [0.020063387230038643, 0.06010078266263008, 0.2289200872182846, 0.03205765038728714, -0.04545091092586517], [0.029277559369802475, 0.04369040206074715, 0.05660820007324219, -0.07306437194347382, -0.10923086851835251], [0.026633866131305695, 0.07685500383377075, 0.141694575548172, 0.002699855715036392, 0.00276169553399086], [0.017037156969308853, -0.015969665721058846, 0.06383213400840759, -0.016024388372898102, -0.04220252484083176]], [[0.0763106644153595, 0.1414330005645752, 0.027053117752075195, 0.07388272881507874, -0.007606465369462967], [0.0990469753742218, 0.09190838038921356, -0.029817618429660797, 0.012968361377716064, -0.0005378741770982742], [-0.001090717501938343, -0.0118962861597538, -0.025615015998482704, 0.022983253002166748, 0.022942153736948967], [0.036888573318719864, -0.058932337909936905, 0.007269877940416336, 0.08099278807640076, 0.1322949081659317], [0.0093077402561903, -0.06984680145978928, -0.05724172666668892, -0.02690296247601509, 0.005140230990946293]]], [[[-0.004481002688407898, -0.004672020673751831, 0.06656874716281891, 0.040247611701488495, 0.04615609347820282], [0.07856088131666183, -0.03659072145819664, 0.12920302152633667, 0.011900552548468113, -0.00118272565305233], [-0.09566981345415115, 0.05513246729969978, 0.1470392644405365, 0.11189024150371552, 0.040414776653051376], [-0.08249640464782715, -0.12310358881950378, 0.0714079886674881, -0.05577041581273079, -0.015646984800696373], [-0.03234226629137993, 0.13120964169502258, -0.02103405073285103, -0.08496525138616562, -0.006335207726806402]], [[0.044769756495952606, 0.06601722538471222, -0.06677471101284027, -0.06500867754220963, -0.018232544884085655], [0.08325204253196716, 0.04109455645084381, 0.023123014718294144, -0.02204291522502899, -0.09718946367502213], [0.06501937657594681, 0.09997917711734772, 0.0746338739991188, 0.0257846862077713, -0.06958433985710144], [0.045333199203014374, 0.016389520838856697, 0.14991307258605957, 0.10070505738258362, -0.029714925214648247], [0.03208770975470543, 0.036691226065158844, 0.01846381090581417, 0.03422120213508606, 0.06072283536195755]], [[0.024412840604782104, -0.026744451373815536, -0.07411565631628036, 0.13926856219768524, -0.022242587059736252], [0.061108607798814774, -0.030201472342014313, -0.04447191208600998, 0.08640891313552856, 0.04600159823894501], [0.10458970069885254, 0.035359181463718414, 0.0702669769525528, 0.07612058520317078, 0.04301472753286362], [0.038074832409620285, -0.0752347931265831, 0.007279165089130402, 0.060992803424596786, -0.03395935148000717], [-0.023144785314798355, 0.004703695885837078, 0.03635629639029503, -0.045756638050079346, 0.0064850011840462685]], [[0.007990382611751556, 0.02810051664710045, -0.078627809882164, -0.05122043192386627, 0.04907305911183357], [-0.03873633220791817, -0.04558086767792702, -0.05926188454031944, 0.040005169808864594, 0.05399972200393677], [-0.04678916186094284, 0.05533495917916298, -0.12445727735757828, -0.03486189246177673, 0.0020941616967320442], [-0.08365368098020554, -0.0574699342250824, -0.09853477030992508, 0.034745875746011734, -0.1289735585451126], [-0.05256954953074455, -0.025257345288991928, -0.014910220168530941, 0.13704083859920502, 0.027076387777924538]], [[0.030116360634565353, -0.006751783192157745, -0.056402452290058136, -0.08543793857097626, -0.07616978138685226], [0.001412036595866084, -0.04785960167646408, -0.058234889060258865, -0.06519722193479538, -0.040565334260463715], [-0.03458326682448387, -0.00029970332980155945, 0.0024656979367136955, -0.08818089962005615, -0.06401170790195465], [-0.0659819170832634, -0.06962492316961288, 0.15632477402687073, -0.022736648097634315, -0.014257485046982765], [-0.12669679522514343, -0.050609610974788666, 0.04476752132177353, -0.001194794662296772, -0.07960209995508194]], [[0.009135909378528595, -0.06443078815937042, 0.023114070296287537, -0.04263169318437576, -0.0848175659775734], [0.05381157621741295, 0.03907883167266846, -0.05015721917152405, -0.07196301966905594, -0.0555441677570343], [-0.03612783923745155, 0.07303711771965027, -0.09608478099107742, -0.11980369687080383, -0.12017062306404114], [0.03337155655026436, 0.04817207530140877, -0.03244004771113396, -0.030431266874074936, -0.06223249435424805], [0.05538201332092285, 0.04405463486909866, 0.04927179589867592, -0.0005961284041404724, 0.010910402052104473]], [[0.07181704789400101, 0.01369414385408163, 0.026517881080508232, -0.10309998691082001, -0.07111652195453644], [0.01834283396601677, -0.007025610655546188, 0.11538682132959366, 0.002450061496347189, -0.029675550758838654], [-0.01943611353635788, -0.0921996459364891, 0.01460220105946064, 0.03843887150287628, 0.0346076674759388], [-0.009719964116811752, 0.056579336524009705, 0.03074495866894722, 0.039391882717609406, -0.018168050795793533], [-0.004159059375524521, 0.03351704031229019, 0.03470964729785919, 0.04866437241435051, 0.058302074670791626]], [[-0.0007471954450011253, 0.05274813994765282, -0.03387437015771866, -0.03861837834119797, -0.01715613529086113], [0.008787143975496292, 0.0009422414004802704, 0.007990119978785515, -0.04445610195398331, 0.027906378731131554], [-0.06055939197540283, -0.005012719891965389, 0.08776725083589554, 0.12899580597877502, 0.06997005641460419], [-0.16618064045906067, -0.1332741230726242, 0.0921180248260498, 0.006430753506720066, 0.05486224219202995], [0.02662784978747368, -0.009188433177769184, 0.03412160277366638, 0.046428486704826355, -0.03303936868906021]], [[-0.02242109179496765, -0.0709000825881958, 0.0022992566227912903, -0.10776989907026291, -0.05445835739374161], [0.09628212451934814, 0.08378973603248596, 0.10358104854822159, -0.09344014525413513, 0.013507015071809292], [0.0012620119377970695, 0.1127605140209198, 0.03444772958755493, -0.08978470414876938, -0.09056776762008667], [0.008356500416994095, 0.0873570591211319, 0.04104754328727722, -0.04840412735939026, -0.06445062905550003], [0.0012755170464515686, 0.030708203092217445, -0.017268259078264236, 0.013974025845527649, -0.0006894618272781372]], [[-0.0173780620098114, -0.03902745246887207, 0.019464656710624695, -0.08859604597091675, -0.08474951982498169], [0.024892713874578476, 0.03264736756682396, -0.0005334299057722092, 0.0069369422271847725, -0.012714195065200329], [-0.03598756343126297, -0.04297850653529167, -0.023655105382204056, 0.03368128836154938, 0.11526913940906525], [-0.03990468010306358, 0.08562590181827545, -2.2452324628829956e-05, 0.10872425138950348, 0.06992513686418533], [0.02748352475464344, 0.03274357318878174, 0.053008925169706345, -0.02884286269545555, -0.0031222172547131777]], [[0.028554607182741165, -0.052748676389455795, -0.03701179847121239, 0.03238800913095474, 0.040910881012678146], [0.10598894208669662, -0.05648321285843849, 0.01205911673605442, -0.06981292366981506, 0.052155353128910065], [0.03379719704389572, 0.049072228372097015, 0.0643286183476448, -0.06035727262496948, -0.10966291278600693], [0.11261489987373352, 0.08559262752532959, 0.09349924325942993, 0.02363915741443634, -0.16234230995178223], [0.052109889686107635, 0.014020787551999092, 0.09756980836391449, 0.11696672439575195, -0.021972835063934326]], [[0.024809833616018295, -0.03371257334947586, 0.02698499709367752, -0.05852554365992546, 0.02667340077459812], [0.00730632059276104, 0.054270241409540176, -0.042004406452178955, 0.012464660219848156, -0.02719489485025406], [0.01869126409292221, 0.09777870774269104, 0.04309362173080444, -0.03987405076622963, -0.054692592471838], [-0.057128943502902985, 0.0736769288778305, 0.007241364568471909, -0.008007160387933254, 0.002394936978816986], [0.02323542907834053, -0.037359125912189484, -0.041418928653001785, -0.058453623205423355, -0.022271892055869102]], [[0.010397600010037422, -0.007942759431898594, -0.0022509871050715446, -0.03219744563102722, -0.06725563108921051], [-0.03480641171336174, 0.0231136754155159, -0.020904574543237686, -0.04862213507294655, 0.00011976202949881554], [-0.02374482899904251, -0.00933874025940895, -0.0801510289311409, -0.022587155923247337, 0.009070460684597492], [-0.09438558667898178, -0.05471222102642059, 0.05380623787641525, -0.05754266306757927, 0.01843707077205181], [-0.02456684038043022, -0.07112632691860199, 0.047948941588401794, -0.003408889751881361, -0.0026348186656832695]], [[-0.010691837407648563, 0.012322166003286839, -0.05979132652282715, 0.026735136285424232, -0.026676777750253677], [0.05758548527956009, 0.02000872604548931, 0.007467957213521004, 0.033738166093826294, -0.08762434124946594], [-0.014971306547522545, -0.08916721493005753, 0.07273095846176147, 0.006830625236034393, -0.08526668697595596], [-0.040785856544971466, -0.002206653356552124, 0.08868653327226639, 0.07388057559728622, -0.03296343982219696], [0.006608686409890652, -0.050696734338998795, 0.034688550978899, 0.08029861748218536, 0.06745864450931549]], [[0.09253129363059998, 0.07667533308267593, -0.005701378919184208, 0.0014354530721902847, 0.011321860365569592], [0.03341829031705856, 0.08557851612567902, 0.02083888091146946, -0.028766224160790443, 0.0705723911523819], [-0.028872810304164886, 0.0705539807677269, -0.03272666037082672, 0.008292967453598976, 0.06868290901184082], [0.0733223557472229, -0.047669533640146255, 0.001310340128839016, -0.01240958645939827, 0.004868375137448311], [0.012970843352377415, 0.08960797637701035, -0.017379015684127808, 0.007948184385895729, 0.01788538508117199]], [[-0.0205971859395504, 0.002469827653840184, -0.014780532568693161, 0.010030945762991905, 0.04561956226825714], [0.037284571677446365, -0.023999813944101334, -0.06529585272073746, 0.07580556720495224, 0.07246928662061691], [-0.020151929929852486, -0.06340908259153366, -0.08870094269514084, -0.03314684331417084, -0.07710549235343933], [-0.028034010902047157, -0.06027204543352127, -0.08027223497629166, -0.03634690120816231, -0.0908440500497818], [-0.028550228103995323, -0.053880397230386734, 0.025749938562512398, -0.07128381729125977, -0.10009545832872391]]], [[[-0.037840813398361206, -0.04606309533119202, 0.01867668889462948, 0.018798165023326874, 0.037101924419403076], [0.0530928298830986, 0.022952551022171974, 0.016607070341706276, 0.04335756227374077, 0.027644146233797073], [-0.05331020802259445, 0.01828935742378235, -0.10288532823324203, -0.006026867777109146, 0.10512575507164001], [-0.019247418269515038, 0.008427606895565987, -0.14262288808822632, -0.03301253914833069, 0.07858175039291382], [-0.0753960981965065, -0.026540178805589676, 0.02178766205906868, 0.10599265992641449, -0.0429190918803215]], [[-0.0490155927836895, 0.04564235731959343, 0.07837683707475662, -0.007862020283937454, 0.05609810724854469], [-0.024907130748033524, 0.007201496511697769, -0.05455867946147919, -0.02093391865491867, -0.007802437990903854], [0.028209079056978226, -0.06384090334177017, 0.04811201989650726, -0.0715794563293457, -0.07210744917392731], [0.1404128521680832, 0.0013757199048995972, 0.13317877054214478, 0.014593251049518585, 0.05081479251384735], [0.0824190229177475, 0.04877133667469025, -0.08829803019762039, 0.08065499365329742, 0.06784294545650482]], [[-0.048216018825769424, -0.026851799339056015, 0.05824388563632965, -0.06484367698431015, -0.02253619208931923], [-0.10286060720682144, -0.08259367197751999, 0.030879218131303787, -0.006292879581451416, -0.040808212012052536], [-0.06465410441160202, -0.10226040333509445, -0.058246660977602005, -0.03431820869445801, 0.02958638221025467], [-0.10903099179267883, 0.024008817970752716, -0.060345783829689026, -0.02766990289092064, -0.03924426808953285], [-0.06930623203516006, 0.021381117403507233, -0.15447412431240082, -0.008849631994962692, -0.04605016112327576]], [[-0.01633586548268795, 0.11594651639461517, 0.011534126475453377, 0.0235079787671566, 0.06554734706878662], [-0.0030065085738897324, 0.0026064151898026466, -0.11379078030586243, -0.035279810428619385, -0.028812969103455544], [0.034421660006046295, 0.036345016211271286, -0.011631612665951252, 0.049695998430252075, -0.10995804518461227], [0.00051112100481987, -0.029741641134023666, 0.03966299444437027, 0.005822628736495972, -0.057885944843292236], [0.03723464161157608, 0.007937964983284473, -0.0704558864235878, -0.012417884543538094, 0.058856330811977386]], [[-0.045933954417705536, -0.0627271831035614, -0.06035589054226875, 0.00190183543600142, -0.005826655775308609], [-0.017046360298991203, -0.056462787091732025, -0.10001468658447266, -0.0070433481596410275, -0.09590647369623184], [-0.08240300416946411, -0.0156998373568058, -0.027850978076457977, -0.07566811889410019, -0.017010780051350594], [-0.07664845883846283, -0.13091827929019928, 0.08644852787256241, -0.002463752403855324, -0.10277411341667175], [0.0666608139872551, 0.027842707931995392, -0.004474238026887178, 0.1061711460351944, -0.07375629991292953]], [[-0.09477938711643219, -0.08446677774190903, -0.013010538183152676, 0.0074327969923615456, -0.0023986008018255234], [0.03528491035103798, 0.038072410970926285, -0.014442921616137028, -0.04123325273394585, -0.0038234014064073563], [0.059579767286777496, 0.021799497306346893, 0.11188636720180511, -0.06766587495803833, -0.06530775129795074], [0.0937301516532898, -0.06507645547389984, -0.011230293661355972, 0.050474684685468674, 0.06246860325336456], [0.026927080005407333, -0.010384855791926384, -0.13775381445884705, -0.023182159289717674, 0.06238975003361702]], [[-0.015668433159589767, -0.007839369587600231, -0.016814129427075386, -0.004434444010257721, 0.039026305079460144], [-0.04668479785323143, 0.057056725025177, -0.07920776307582855, 0.025227004662156105, 0.005720570683479309], [-0.05619075521826744, 0.04736906662583351, -0.05411871150135994, -0.011385524645447731, 0.06345638632774353], [0.1435299664735794, 0.1361120194196701, -0.07335454225540161, 0.13008999824523926, 0.03188764676451683], [0.003982292488217354, -0.11386212706565857, 0.014120092615485191, 0.07259521633386612, 0.026635803282260895]], [[-0.05829252302646637, 0.0018923254683613777, -0.00177853275090456, 0.008279555477201939, 0.024543289095163345], [-0.0038547790609300137, -0.02088034152984619, 0.04421751946210861, 0.000943996012210846, 0.04665173590183258], [-0.06642519682645798, -0.08585303276777267, 0.0876508429646492, 0.037824638187885284, 0.010886690579354763], [-0.06640063226222992, -0.00622178427875042, -0.07763320207595825, 0.09273993968963623, 0.02697553113102913], [-0.044709205627441406, -0.04616708680987358, 0.00440642237663269, 0.10446838289499283, -0.017832526937127113]], [[0.027840426191687584, 0.016613533720374107, -0.048522111028432846, 0.09969963133335114, 0.13196055591106415], [-0.013663122430443764, 0.0030470024794340134, -0.04520197957754135, 0.0099971704185009, 0.0063272444531321526], [0.045960843563079834, 0.03081468865275383, -0.08262453228235245, 0.1534213125705719, 0.040737055242061615], [0.11371858417987823, -0.005794106982648373, -0.0041127800941467285, 0.1718243956565857, 0.02075376734137535], [-0.010198138654232025, -0.06350003182888031, 0.06277038156986237, 0.13267037272453308, 0.04985952004790306]], [[-0.009559082798659801, -0.06671857088804245, -0.03341478854417801, -0.007942170836031437, 0.09917104989290237], [-0.04312032461166382, -0.04807714745402336, 0.03395049273967743, 0.0307312048971653, 0.0368172824382782], [-0.017355669289827347, -0.05215279757976532, 0.027434570714831352, -0.05184438079595566, -0.056305162608623505], [0.0018087970092892647, 0.07272730022668839, -0.036869317293167114, -0.018081791698932648, 0.035193078219890594], [-0.022635476663708687, 0.06462082266807556, 0.09661542624235153, -0.01749974861741066, -0.04312078654766083]], [[-0.015054496005177498, -0.021193604916334152, -0.06046425551176071, 0.0007080836221575737, 0.03292813524603844], [-0.0030657975003123283, -0.04260891303420067, -0.033806443214416504, -0.10531415045261383, 0.023195527493953705], [0.001361975446343422, -0.0027239914052188396, 0.07431625574827194, 0.027422316372394562, -0.00544700026512146], [0.07236593961715698, -0.05005276948213577, 0.02223495952785015, 0.06376475095748901, -0.01396896317601204], [0.025949612259864807, -0.16622322797775269, -0.0667165070772171, 0.05900491401553154, -0.004315344616770744]], [[0.05241355672478676, -0.07364018261432648, 0.02841087058186531, 0.027825329452753067, 0.07143905013799667], [-0.048067908734083176, -0.10272451490163803, -0.12075962871313095, 0.005797740072011948, 0.07804727554321289], [0.008947914466261864, 0.062922902405262, -0.11742093414068222, 0.055289044976234436, 0.0018642209470272064], [-0.027447154745459557, -0.07843012362718582, -0.09201076626777649, 0.07366275042295456, -0.0028017526492476463], [-0.11578179895877838, -0.09490660578012466, -0.03039667196571827, 0.0016298368573188782, 0.04982368275523186]], [[0.003971236292272806, -0.019215242937207222, -0.08244490623474121, -0.03148774057626724, -0.022517992183566093], [0.059260815382003784, 0.06256506592035294, 0.034414421766996384, -0.013439657166600227, 0.031299881637096405], [0.07395707070827484, 0.05496335029602051, 0.03441702574491501, 0.023779522627592087, 0.04910865053534508], [0.008539130911231041, 0.03447871655225754, 0.12797974050045013, -0.00142722949385643, 0.03126536309719086], [-0.10096533596515656, 0.021584391593933105, 0.04991574212908745, 0.0009428337216377258, 0.015404683537781239]], [[0.07623767107725143, 0.023053810000419617, -0.08117835968732834, -0.032009582966566086, -0.030893180519342422], [0.08171705156564713, -0.015609154477715492, -0.03422959893941879, 0.014179116114974022, -0.02534288726747036], [-0.02333441562950611, 0.02443785034120083, 0.05479826405644417, -0.02259473316371441, -0.0978081077337265], [0.013043969869613647, 0.021062538027763367, 0.026551304385066032, 0.12329889833927155, -0.004082050174474716], [0.0024264808744192123, 0.08666552603244781, -0.08377484232187271, 0.0006819244008511305, -0.04117972031235695]], [[-0.0530523955821991, -0.02955702319741249, 0.05497121065855026, 0.02376251108944416, 0.05238812789320946], [-3.5655684769153595e-05, 0.0745840072631836, 0.024390609934926033, 0.0373399518430233, -0.012578175403177738], [0.037254031747579575, 0.005442572757601738, 0.059448085725307465, 0.06834399700164795, -0.06454142183065414], [-0.001000656746327877, -0.02393938973546028, -0.01780865341424942, 0.10391588509082794, 0.025522654876112938], [-0.009293821640312672, 0.15234866738319397, 0.05795840546488762, -0.056134968996047974, -0.028059624135494232]], [[0.043701741844415665, 0.01940762810409069, -0.06691643595695496, -0.016490040346980095, -0.0035243474412709475], [0.003170682117342949, -0.07139169424772263, -0.09948180615901947, -0.04204009473323822, 0.030483495444059372], [0.015022514387965202, -0.017394181340932846, 0.011559046804904938, -0.11052453517913818, 0.004763214848935604], [-0.08775722980499268, 0.038557618856430054, 0.028335589915513992, -0.14207704365253448, -0.04050935059785843], [0.020524509251117706, -0.02536681666970253, 0.03592547029256821, -0.02118610218167305, 0.019275367259979248]]], [[[0.03523557260632515, 0.11158275604248047, -0.06051032990217209, -0.05929756537079811, -0.08015578240156174], [0.03979060798883438, 0.09172609448432922, -0.05372532829642296, -0.04856586456298828, -0.06179148703813553], [-0.05861963331699371, 0.04519877955317497, -0.0189711544662714, 0.10416970402002335, 0.05425788089632988], [0.047190845012664795, 0.04597429931163788, 0.06493690609931946, -0.03098808042705059, -0.03628350794315338], [0.03006891719996929, 0.10662390291690826, 0.06590457260608673, -0.025003604590892792, -0.05806616693735123]], [[-0.07065001130104065, -0.0920952558517456, -0.017435651272535324, -0.11418115347623825, 0.06647434830665588], [-0.03793051093816757, -0.03212537616491318, -0.004200591240078211, -0.06671939790248871, 0.0274297297000885], [-0.06378715485334396, -0.07067319750785828, 0.07393569499254227, -0.021631304174661636, -0.013601746410131454], [0.015516947023570538, -0.016533762216567993, 0.06576737761497498, 0.0430501364171505, 0.003807264380156994], [-0.06406859308481216, -0.053682196885347366, -0.0560920350253582, 0.05833551287651062, 0.011718140915036201]], [[-0.08746464550495148, -0.017378000542521477, -0.05713352560997009, -0.008109934628009796, -0.04763830825686455], [-0.06831091642379761, 0.010813833214342594, 0.014405022375285625, -0.09235557168722153, -0.06166448816657066], [-0.06530236452817917, -0.024058831855654716, 0.013889194466173649, -0.029465872794389725, -0.09917241334915161], [-0.002194005995988846, 0.008663243614137173, 0.019375840201973915, -0.07396531105041504, -0.09499740600585938], [-0.12044129520654678, 0.0696229413151741, -0.0934651717543602, -0.08268024772405624, -0.06786821782588959]], [[-0.015327759087085724, 0.06847482174634933, -0.007550234440714121, 0.04895284026861191, -0.0021407436579465866], [-0.018893999978899956, -0.028616435825824738, -0.016279926523566246, -0.0013082148507237434, -0.05443539470434189], [-0.03652757406234741, -0.000726933591067791, 0.05515255779027939, -0.005184132605791092, -0.029157333076000214], [-0.0415491946041584, -0.022710373625159264, 0.005727941170334816, -0.03613707050681114, 0.0927494466304779], [-0.024704240262508392, 0.0024299155920743942, 0.008379025384783745, -0.026401983574032784, 0.016622435301542282]], [[0.002749331295490265, 0.002542853355407715, 0.040791090577840805, -0.0563407763838768, -0.07316705584526062], [0.01890392228960991, -0.03990019112825394, -0.049567852169275284, 0.026349445804953575, -0.07914765179157257], [0.05541950464248657, 0.013535931706428528, -0.017308587208390236, 0.03684055060148239, -0.12361250817775726], [-0.02205868810415268, 0.0008924794965423644, -0.029125256463885307, -0.0234952662140131, -0.06051052734255791], [-0.05559153109788895, 0.011531626805663109, -0.04405446723103523, 0.0034635490737855434, -0.000997820752672851]], [[-0.12387523055076599, 0.051494766026735306, 0.012417254038155079, -0.061661455780267715, -0.058549679815769196], [0.025580428540706635, 0.055524326860904694, 0.082462839782238, -0.09776336699724197, -0.05584656447172165], [-0.01164940744638443, 0.01432016771286726, 0.1781621277332306, 0.0058737825602293015, 0.008889509364962578], [-0.0010971258161589503, 0.07422997057437897, -0.0238741934299469, 0.08538113534450531, -0.06294865906238556], [-0.057979878038167953, 0.11945996433496475, -0.0052484190091490746, -0.06604635715484619, -0.08844852447509766]], [[0.05529818683862686, 0.037459615617990494, -0.02072310261428356, -0.05479878559708595, 0.041688960045576096], [-0.018265897408127785, 0.07709480077028275, -0.039861273020505905, -0.06994038820266724, 0.02557038515806198], [-0.07688737660646439, -0.0427933894097805, -0.11447104811668396, 0.054450929164886475, -0.03455231338739395], [-0.012340392917394638, -0.038572151213884354, -0.02432630956172943, 0.021133624017238617, 0.048922013491392136], [0.0055571747943758965, 0.02531558647751808, -0.06995119154453278, -0.01820474863052368, -0.06513921171426773]], [[0.054721008986234665, 0.02528373710811138, 0.01408461295068264, -0.05175004526972771, -0.06087695062160492], [0.0031646890565752983, 0.0880202129483223, 0.1166597306728363, 0.0024655296001583338, 0.02567659690976143], [-0.08620952069759369, -0.0032950127497315407, 0.04684830456972122, -0.018816033378243446, 0.004679520148783922], [0.05918204039335251, 0.07424289733171463, 0.09396132081747055, -0.019785022363066673, -0.06225153058767319], [0.10996323823928833, 0.14037637412548065, 0.1696092039346695, 0.010306859388947487, 0.020936761051416397]], [[-0.045851536095142365, -0.009051773697137833, -0.035867441445589066, -0.13280647993087769, 0.033352844417095184], [-0.006175411865115166, 0.04681456461548805, -0.11091458052396774, -0.0033602500334382057, 0.0411236435174942], [-0.053160008043050766, -0.003238048404455185, -0.11879634857177734, -0.058453042060136795, 0.009175784885883331], [0.0026807840913534164, -0.04770814999938011, 0.05503009259700775, 0.04330306500196457, 0.005244607105851173], [0.009459053166210651, -0.03157530352473259, 0.03931242972612381, 0.018297582864761353, -0.016687223687767982]], [[0.08079134672880173, 0.08946969360113144, 0.04346257075667381, -0.0008927471935749054, -0.04171130806207657], [0.018672913312911987, 0.06833099573850632, 0.029637791216373444, -0.012108394876122475, -0.05714453011751175], [0.13618379831314087, 0.029899949207901955, -0.06317003816366196, -0.13006427884101868, -0.09719905257225037], [-0.05389102175831795, 0.03668121248483658, -0.09061664342880249, -0.06792236864566803, 0.032884757965803146], [-0.05909184366464615, 0.013053626753389835, -0.0161796472966671, -0.09514375776052475, -0.056010834872722626]], [[-0.053329043090343475, -0.07811640202999115, 0.045401256531476974, 0.031013019382953644, -0.10011254996061325], [-0.03447069600224495, -0.10269122570753098, -0.051714472472667694, 0.008565401658415794, -0.004251932725310326], [-0.10328623652458191, -0.06935380399227142, -0.0051004840061068535, 0.05740495026111603, -0.054746612906455994], [0.023511989042162895, -0.08788277208805084, 0.006094934418797493, 0.0006012939848005772, -0.09235795587301254], [0.02773968316614628, -0.030880708247423172, 0.07649721205234528, -0.03188764303922653, -0.022220110520720482]], [[-0.01902441494166851, 0.008905509486794472, 0.021026894450187683, -0.01659262180328369, -0.0599648654460907], [0.009465821087360382, 0.0725083127617836, -0.008831607177853584, -0.028466392308473587, -0.08469607681035995], [-0.010651769116520882, -0.002578878775238991, -0.0055189719423651695, 0.05603725463151932, 0.011637581512331963], [0.012721996754407883, -0.051795076578855515, 0.00534143578261137, -0.002032782882452011, 0.04935269057750702], [-0.01393759623169899, 0.00681674387305975, 0.049776069819927216, -0.061439674347639084, -0.11853852868080139]], [[0.0981721356511116, 0.00669153593480587, 0.01878037303686142, -0.01748715527355671, -0.07955019921064377], [0.03454884886741638, -0.016592519357800484, 0.014247901737689972, -0.03747013211250305, -0.03243719041347504], [0.03416549414396286, 0.03625594824552536, -0.03546156361699104, -0.0945044755935669, -0.04018744081258774], [-0.1331033706665039, -0.03270880505442619, -0.04974238574504852, -0.0011335124727338552, 0.005007850471884012], [-0.10452666878700256, -0.023548590019345284, -0.04230057820677757, -0.04466035217046738, 0.030517393723130226]], [[-0.047154974192380905, 0.04271654039621353, 0.003343481570482254, 0.013343126513063908, -0.02037249319255352], [-0.08247361332178116, 0.03808103874325752, 0.004236733540892601, -0.03615185618400574, 0.06539561599493027], [-0.06730087101459503, -0.04146307334303856, -0.0044698454439640045, -0.014259083196520805, 0.018530836328864098], [0.046876776963472366, 0.019979648292064667, 0.0708373486995697, 0.054438456892967224, -0.028831105679273605], [0.017544016242027283, 0.009047482162714005, -0.017046278342604637, 0.08431512117385864, -0.10837981849908829]], [[-0.01420259103178978, 0.012785457074642181, 0.006699949502944946, -0.011481951922178268, -0.04485652595758438], [0.11443579196929932, -0.011360063217580318, -0.02110396698117256, -0.09933199733495712, -0.06125117093324661], [-0.05138489231467247, -0.02527223713696003, 0.05233347415924072, -0.03839573264122009, 0.030582081526517868], [-4.390254616737366e-05, -0.03877405449748039, -0.029283324256539345, -0.01911284402012825, 0.04913266375660896], [0.009713388048112392, 0.07046487182378769, 0.06389135867357254, 0.07885290682315826, -0.03493134677410126]], [[-0.057170093059539795, -0.007402167655527592, -0.026181824505329132, 0.05118449777364731, -0.053754497319459915], [0.013896899297833443, -0.0644744411110878, 0.003263763152062893, -0.038330189883708954, -0.09552686661481857], [-0.03848903998732567, -0.028323311358690262, 0.01275944709777832, -0.02824120596051216, -0.06598357856273651], [0.02531898021697998, -0.04742372781038284, -0.05916013568639755, -0.12236212193965912, -0.027225682511925697], [0.016180362552404404, -0.07187651097774506, -0.06123659014701843, -0.011086453683674335, 0.013348567299544811]]], [[[0.12131471186876297, 0.10190732777118683, 0.009478336200118065, -0.03764205425977707, -0.07593142241239548], [0.003898372408002615, -0.04738074168562889, -0.04749663174152374, 0.06458021700382233, -0.048422228544950485], [0.08142676949501038, 0.07688313722610474, 0.020782075822353363, -0.06423602998256683, -0.027120448648929596], [0.09152518957853317, -0.011004083789885044, -0.024537544697523117, -0.07641711831092834, 0.008759593591094017], [0.03374033421278, 0.004620256833732128, -0.0959947258234024, 0.0002369619905948639, -0.030884036794304848]], [[-0.07879212498664856, -0.02334296889603138, -0.01145164668560028, 0.04228885471820831, 0.07720272988080978], [-0.059974461793899536, -0.031195323914289474, -0.10909459739923477, 0.058843061327934265, 0.045977234840393066], [0.02445743978023529, -0.0019459743052721024, -0.06199001893401146, 0.04014403373003006, 0.07324334979057312], [-0.025661125779151917, -0.09307453781366348, -0.06570688635110855, 0.008692614734172821, -0.022817295044660568], [-0.10061254352331161, -0.0481707900762558, -0.006146986503154039, 0.0036495723761618137, -0.06174111366271973]], [[-0.04810452088713646, -0.08117350190877914, 0.044273510575294495, 0.017235975712537766, 0.09204266965389252], [-0.10510311275720596, -0.03156491741538048, 0.03639984503388405, 0.04960401728749275, -0.04690314456820488], [-0.08316928148269653, 0.008483175188302994, 0.06636782735586166, -0.046463001519441605, -0.08082419633865356], [-0.04566865414381027, 0.051566123962402344, -0.01441602036356926, -0.025568976998329163, -0.0640733614563942], [-0.09008701145648956, -0.03900282084941864, -0.032798971980810165, 0.00041869841516017914, 0.0011088401079177856]], [[-0.03008778765797615, 0.014000198803842068, -0.053081631660461426, 0.0908307433128357, 0.07972880452871323], [-0.0369051918387413, 0.0010010979603976011, 0.0183536559343338, 0.008213711902499199, 0.15253208577632904], [-0.07783777266740799, -0.024869585409760475, -0.08989706635475159, 0.051401447504758835, 0.06114523112773895], [0.026308905333280563, -0.03320734202861786, -0.0436335913836956, 0.02353576384484768, 0.03284043073654175], [-0.04352415353059769, -0.08646702021360397, -0.07166197150945663, 0.025297053158283234, -0.0805971771478653]], [[0.009128687903285027, 0.026020314544439316, 0.0612674355506897, 0.0883631557226181, -0.019386112689971924], [0.08602771908044815, 0.027470938861370087, -0.01266900822520256, 0.02939162403345108, -0.028092334046959877], [0.07007676362991333, -0.029536984860897064, -0.04900315776467323, 0.047098588198423386, 0.039879534393548965], [0.022589167580008507, -0.11318733543157578, -0.09522554278373718, 0.009828537702560425, 0.007841608487069607], [0.029381215572357178, -0.03551331162452698, 0.021421102806925774, 0.05429710075259209, -0.0442689023911953]], [[0.07633478194475174, -0.014330361038446426, -0.08937150239944458, 0.014547462575137615, 0.04448120296001434], [0.0363851934671402, 0.03387782722711563, -0.034002140164375305, 0.038323432207107544, 0.008518822491168976], [-0.027819037437438965, 0.0016141682863235474, -0.08608225733041763, 0.027662016451358795, -0.01089685782790184], [0.06296251714229584, 0.03623255714774132, -0.07012464106082916, 0.07006930559873581, -0.04025144875049591], [0.007157409563660622, 0.052080314606428146, -0.0618615597486496, 0.020590372383594513, 0.010595045983791351]], [[-0.02477736584842205, -0.021403154358267784, 0.02170984260737896, -0.018400918692350388, -0.10471927374601364], [0.017707180231809616, -0.0276753231883049, -0.04359474405646324, -0.12183921039104462, 0.087186798453331], [0.030231209471821785, 0.09822592884302139, -0.0401136614382267, -0.11444775015115738, 0.03574657440185547], [-0.015730999410152435, 0.03459469974040985, 0.0072742635384202, -0.039212632924318314, -0.04323650151491165], [-0.010731007903814316, -0.06042841449379921, 0.021691307425498962, -0.08465934544801712, 0.05881883203983307]], [[0.011840399354696274, 0.02285805344581604, -0.012694507837295532, -0.0022596786729991436, -0.03967485949397087], [-0.05976094305515289, -0.03203407675027847, -0.04506085813045502, 0.030522089451551437, -0.08736854046583176], [0.07450923323631287, 0.020062468945980072, -0.03659199923276901, 0.019071081653237343, -0.07985848188400269], [0.032290443778038025, 0.08575208485126495, -0.016914531588554382, -0.013791433535516262, -0.06162652000784874], [0.029375307261943817, 0.07469677180051804, 0.020575929433107376, -0.0831935852766037, -0.10505361109972]], [[0.009961573407053947, 0.015079736709594727, 0.043743301182985306, -0.016913820058107376, -0.005881534889340401], [0.044844500720500946, -0.036235418170690536, -0.14718784391880035, -0.0133279487490654, 0.12372706830501556], [0.12775352597236633, -0.051229119300842285, -0.10233908146619797, 0.12849240005016327, 0.0732310339808464], [0.08247963339090347, -0.06371444463729858, -0.048138249665498734, 0.021891532465815544, 0.0384485237300396], [0.10954869538545609, -0.06186648830771446, 0.010917378589510918, -0.005870528519153595, -0.05697060003876686]], [[0.0009601684287190437, 0.04920066520571709, 0.026454966515302658, -0.07145654410123825, -0.06952883303165436], [-0.03780469670891762, -0.017698734998703003, 0.010476689785718918, -0.16814486682415009, -0.018209494650363922], [-0.00021236762404441833, -0.0909377709031105, -0.06736833602190018, 0.005286921747028828, 0.05389217287302017], [-0.058455102145671844, -0.0328686498105526, 0.03590131923556328, 0.03277859091758728, -0.03591526672244072], [-0.031165361404418945, 0.05469248443841934, -0.024168863892555237, -0.020036332309246063, -0.02484770305454731]], [[-0.08591165393590927, -0.019684040918946266, 0.011393299326300621, 0.021897897124290466, -0.031602416187524796], [-0.005770132876932621, -0.1102290153503418, -0.04827890917658806, 0.07343897223472595, 0.01152511965483427], [-0.017834700644016266, -0.026174914091825485, 0.0984671488404274, 0.0762733593583107, 0.005128336604684591], [-0.09869863092899323, 0.00474103819578886, -0.01054427307099104, -0.0014632418751716614, 0.0502803660929203], [0.006665229797363281, 0.04310481622815132, 0.05507880076766014, 0.022434204816818237, -0.010881100781261921]], [[-0.11467605084180832, -0.0010490026324987411, 0.05580008029937744, 0.019344275817275047, -0.04387221485376358], [-0.08006057888269424, 0.021131455898284912, 0.038378555327653885, -0.08318278938531876, 0.07015031576156616], [0.13856646418571472, 0.06526206433773041, 0.07924584299325943, -0.035714857280254364, -0.022625843062996864], [0.08188612759113312, -0.03970416262745857, -0.02191239409148693, -0.07773080468177795, 0.037329062819480896], [0.08809640258550644, 0.020451612770557404, 0.011828191578388214, -0.028851104900240898, -0.047285038977861404]], [[-0.03588394820690155, -0.013497336767613888, 0.10611740499734879, 0.023489901795983315, 0.05770367011427879], [0.036040354520082474, 0.029948044568300247, -0.010760379955172539, -0.0035631288774311543, -0.010461763478815556], [0.0016289243940263987, -0.015528739430010319, -0.055969320237636566, 0.04783198609948158, 0.029347648844122887], [-0.05119490996003151, -0.026976896449923515, -0.029807856306433678, 0.027715882286429405, -0.01513887569308281], [-0.0010615719947963953, -0.15115995705127716, -0.10886728763580322, -0.034173525869846344, -0.013466697186231613]], [[-0.02890218049287796, 0.0701216608285904, 0.07454141229391098, -0.07180888205766678, 0.02314833365380764], [0.07278548926115036, 0.02224128134548664, -0.07754164189100266, 0.01811649277806282, 0.0033907867036759853], [0.002408587373793125, 0.035696666687726974, -0.08109571039676666, -0.0865497887134552, -0.04189203307032585], [-0.0258758757263422, -0.026720864698290825, -0.07341385632753372, -0.06939277052879333, -0.012075547128915787], [-0.024996226653456688, 0.033532604575157166, -0.0037266104482114315, -0.009511996060609818, 0.0832507535815239]], [[-0.018603939563035965, -0.022718707099556923, -0.016210421919822693, -0.0413714163005352, -0.07789214700460434], [0.04487544298171997, 0.03629491850733757, -0.11002980172634125, 0.0363893061876297, 0.009994621388614178], [0.06648875027894974, 0.00987948663532734, 0.008623483590781689, 0.10529184341430664, 0.07223029434680939], [0.002497705165296793, 0.01248098537325859, 0.04549703001976013, 0.02535732463002205, -0.02346794679760933], [-0.10484220087528229, -0.04996920004487038, 0.021182795986533165, -0.016463235020637512, 0.0002442733384668827]], [[-0.054241474717855453, 0.020693618804216385, 0.03624151647090912, 0.06812717020511627, 0.06538686156272888], [-0.0024893085937947035, 0.02773250639438629, 0.05455394089221954, 0.11772695183753967, -0.034396495670080185], [-0.032311320304870605, 0.014137934893369675, -0.0218057781457901, 0.024384228512644768, -0.05026271939277649], [0.05915486812591553, 