{"layer1.0.weight": [[[[0.4167639911174774, 0.22685040533542633, -0.2503778040409088, -0.2525589168071747, -0.5631036162376404], [0.45540162920951843, -0.0038465147372335196, -0.40764880180358887, -0.8240074515342712, -0.40693339705467224], [0.3652935326099396, -0.6452440619468689, -0.8920137286186218, -0.2661513388156891, 0.30116280913352966], [-0.34657028317451477, -0.6190541982650757, -0.3923985958099365, 0.32569295167922974, 0.3033299446105957], [-0.07540352642536163, 0.08200934529304504, 0.4035702645778656, 0.4322638511657715, 0.37097200751304626]]], [[[-0.07179037481546402, -0.010137326084077358, 0.10832580178976059, 0.025971312075853348, 0.18289701640605927], [0.20546786487102509, 0.18893210589885712, 0.3286142945289612, 0.1403217911720276, 0.15491937100887299], [-0.029929062351584435, 0.31728124618530273, 0.387764573097229, 0.24591711163520813, 0.5094695091247559], [-0.47113728523254395, -0.42767244577407837, -0.16240786015987396, 0.2218388319015503, 0.010599395260214806], [-0.2553558945655823, -0.575164258480072, -0.7205233573913574, -0.8652510046958923, -0.531775951385498]]], [[[0.119733065366745, 0.32957521080970764, 0.08950363844633102, -0.19917741417884827, -0.39464083313941956], [0.2351793795824051, 0.2473154217004776, 0.23807312548160553, -0.5026787519454956, -0.4560731053352356], [0.13456909358501434, 0.5078726410865784, -0.11264174431562424, -0.46138665080070496, -0.4323814809322357], [0.387832909822464, 0.2687758207321167, -0.25607556104660034, -0.6401146054267883, -0.22982163727283478], [0.34641191363334656, -0.04751848056912422, -0.5419481992721558, -0.5267317295074463, -0.269511878490448]]], [[[0.07329083234071732, -0.06725972890853882, 0.22642911970615387, 0.32230743765830994, 0.1671118438243866], [0.3173706531524658, 0.3700870871543884, 0.24928292632102966, 0.2342478632926941, 0.3421962261199951], [-0.1665392369031906, 0.0009649979183450341, -0.1515149474143982, -0.21113801002502441, -0.28105801343917847], [-0.3797840178012848, -0.6349740624427795, -0.6466188430786133, -0.6159906983375549, -0.42179346084594727], [0.11362236738204956, 0.27627697587013245, 0.21069438755512238, 0.29241153597831726, 0.1605973243713379]]], [[[0.2239852398633957, 0.012573630549013615, -0.07927640527486801, 0.0010442179627716541, 0.11951885372400284], [0.11398740857839584, 0.22353287041187286, 0.02192157320678234, 0.016164548695087433, 0.09441376477479935], [0.05003921687602997, -0.01956912875175476, -0.16484765708446503, -0.026500580832362175, -0.059986550360918045], [-0.19806501269340515, 0.016329851001501083, 0.2130720019340515, 0.17993339896202087, 0.09911458194255829], [0.0794503390789032, -0.03766666725277901, 0.137661874294281, 0.07305693626403809, -0.12604540586471558]]], [[[0.0393628254532814, 0.26481392979621887, 0.16389212012290955, -0.07979856431484222, -0.3220522701740265], [0.09400259703397751, 0.3712799549102783, 0.018478000536561012, -0.3173772394657135, -0.23447564244270325], [0.2007027566432953, -0.006688282359391451, 0.06914027035236359, -0.09158467501401901, -0.13629038631916046], [-0.31773924827575684, -0.2878659963607788, 0.12815982103347778, 0.12124210596084595, 0.26252272725105286], [-0.37124258279800415, -0.21389815211296082, 0.3030286431312561, 0.047378841787576675, 0.25051745772361755]]], [[[0.23715224862098694, 0.48057860136032104, 0.3959420919418335, -0.20538724958896637, -0.467941015958786], [0.5490622520446777, 0.2664828896522522, -0.3236558735370636, -0.5726956129074097, -0.5060556530952454], [0.020754152908921242, -0.7455741763114929, -0.7846440076828003, -0.7508581876754761, 0.12280566245317459], [-0.6781813502311707, -0.8732953071594238, -0.33399510383605957, -0.03793694078922272, 0.46617352962493896], [-0.5496224164962769, -0.13591958582401276, -0.017230641096830368, 0.12198754400014877, 0.40034642815589905]]], [[[-0.14522451162338257, -0.008268729783594608, 0.19831369817256927, 0.10574093461036682, 0.18049465119838715], [0.14870785176753998, 0.044159434735774994, 0.005662345793098211, -0.1777622401714325, -0.0034273990895599127], [-0.15177546441555023, 0.158884659409523, 0.06714262068271637, 0.00286569120362401, 0.13706745207309723], [0.19802583754062653, 0.09511212259531021, 0.1046719029545784, -0.08160920441150665, 0.09944619238376617], [-0.1612476259469986, -0.007319987285882235, 0.056116510182619095, 0.1410803347826004, 0.031777918338775635]]], [[[-0.09948362410068512, 0.11357785761356354, -0.046755027025938034, 0.15852464735507965, -0.17070256173610687], [0.01132610347121954, 0.1268111765384674, 0.1617015302181244, 0.03997034206986427, 0.05604236572980881], [-0.007853398099541664, -0.08338350057601929, 0.1642373502254486, -0.0010842259507626295, 0.08911141753196716], [-0.11447376757860184, 0.1577574461698532, 0.12135422974824905, 0.04139109328389168, 0.06920967996120453], [0.08772794902324677, 0.13048484921455383, 0.16693903505802155, 0.0261713694781065, -0.04252069443464279]]], [[[-0.003922378644347191, -0.169297456741333, 0.14558632671833038, 0.17855440080165863, 0.34868720173835754], [-0.3786408305168152, -0.33218663930892944, 0.1457972675561905, 0.41327017545700073, 0.45661869645118713], [-0.4122438132762909, -0.5006394982337952, -0.24598829448223114, 0.1649787575006485, 0.22449760138988495], [-0.48717111349105835, -0.39861711859703064, -0.19604942202568054, 0.30917108058929443, 0.3493374288082123], [-0.5353620052337646, -0.6052160263061523, -0.40163350105285645, 0.11111524701118469, 0.445206880569458]]], [[[-0.008375120349228382, -0.15238763391971588, 0.15136556327342987, -0.12467823177576065, 0.05116688832640648], [0.028581297025084496, 0.037172116339206696, 0.09099519997835159, -0.11300866305828094, -0.3631177842617035], [0.06269631534814835, 0.13327012956142426, 0.19695548713207245, 0.10699266940355301, -0.21214498579502106], [-0.020141342654824257, -0.1550614833831787, 0.12096294015645981, 0.07873425632715225, 0.09433276951313019], [-0.04404107853770256, -0.25730377435684204, -0.0038214230444282293, -0.04198743402957916, -0.004185370169579983]]], [[[-0.0550224632024765, 0.05020270124077797, 0.13612940907478333, 0.07102268189191818, -0.1821705549955368], [-0.2965567111968994, -0.07195823639631271, 0.19645869731903076, -0.1595160961151123, -0.2700234353542328], [-0.26863449811935425, 0.09246788173913956, 0.14380177855491638, -0.14887665212154388, -0.25065287947654724], [0.07915885001420975, 0.15191403031349182, -0.11970003694295883, 0.14871548116207123, -0.11541986465454102], [0.14954136312007904, 0.13446858525276184, 0.09902455657720566, 0.23539157211780548, 0.14259402453899384]]], [[[-0.12923364341259003, -0.21429401636123657, -0.25997301936149597, -0.21886378526687622, -0.3008110523223877], [-0.15626266598701477, 0.1901475191116333, 0.02061298117041588, -0.031935762614011765, 0.046764176338911057], [0.28416556119918823, 0.09204231947660446, 0.3389562666416168, 0.15472634136676788, -0.1932327300310135], [0.19132490456104279, 0.22788704931735992, -0.06487283110618591, 0.19904351234436035, 0.15223059058189392], [-0.18758705258369446, -0.35885217785835266, -0.23933221399784088, 0.19227446615695953, 0.0407409705221653]]], [[[0.05025500804185867, -0.00957833044230938, 0.14527089893817902, 0.10395756363868713, -0.3526979982852936], [0.15142852067947388, 0.009971192106604576, -0.11266165226697922, 0.14890003204345703, -0.040034983307123184], [-0.19863924384117126, -0.12278558313846588, -0.12943723797798157, 0.010523637756705284, 0.25618720054626465], [-0.004149623215198517, 0.17710497975349426, 0.15863674879074097, 0.05976294353604317, 0.3296569585800171], [-0.0014719839673489332, -0.02400638908147812, -0.09834189713001251, -0.40526700019836426, -0.18114452064037323]]], [[[0.02498430758714676, -0.12515303492546082, -0.19907145202159882, -0.12693603336811066, -0.02896827459335327], [-0.0897597000002861, -0.40052756667137146, -0.41530704498291016, -0.1886463463306427, -0.4838605523109436], [0.21963083744049072, -0.11807569861412048, -0.23400211334228516, -0.22665385901927948, -0.17346064746379852], [0.30026981234550476, 0.35825398564338684, 0.4630998373031616, 0.16444475948810577, 0.11885292828083038], [0.05184376984834671, 0.2985672950744629, 0.2147998958826065, 0.33606812357902527, 0.13688397407531738]]], [[[0.09545930474996567, 0.44067686796188354, 0.28950566053390503, -0.18294011056423187, -0.37636464834213257], [0.20472802221775055, 0.3225761651992798, 0.22043083608150482, -0.365232914686203, -0.4308927357196808], [0.230015829205513, 0.3914588391780853, 0.17196133732795715, -0.4304213523864746, -0.49350419640541077], [0.14879615604877472, 0.15377552807331085, 0.1337663233280182, -0.10614223033189774, -0.229074165225029], [0.2992875576019287, 0.12312894314527512, 0.2893306016921997, -0.22291934490203857, -0.14247500896453857]]]], "layer1.0.bias": [-0.004032277036458254, 0.032119665294885635, 0.12023637443780899, -0.0029920057859271765, -0.2215578258037567, -0.10787006467580795, 0.21050187945365906, -0.17213357985019684, -0.22244049608707428, 0.0043522086925804615, 0.07234164327383041, -0.06748022884130478, -0.00656159408390522, -0.016766337677836418, -0.02530038170516491, -0.2502937614917755], "fc.weight": [[-0.057870037853717804, 0.017774367704987526, 0.02825682796537876, -0.05282202363014221, -0.009797414764761925, 0.03306280076503754, 0.032492563128471375, 0.04576008766889572, -0.0017059642123058438, -0.01895715482532978, -0.05924414098262787, -0.15023411810398102, 0.007890577428042889, 0.015614522621035576, -0.04202936217188835, -0.039858296513557434, -0.04429680109024048, -0.046583935618400574, -0.032736193388700485, -0.08778967708349228, -0.12333298474550247, -0.11117669939994812, -0.17656676471233368, -0.07865765690803528, 0.017624614760279655, 0.014125685207545757, -0.026991603896021843, -0.015755610540509224, -0.05562055483460426, -0.014573448337614536, -0.01446247473359108, -0.09122470766305923, -0.21536269783973694, -0.24238352477550507, -0.3320077359676361, -0.10814331471920013, 0.006488334853202105, 0.03197802975773811, -0.0647181048989296, -0.07278256118297577, 0.021305475383996964, -0.012205349281430244, -0.14995865523815155, -0.26831305027008057, -0.251217246055603, -0.32079511880874634, -0.236029252409935, -0.05185670405626297, -0.01513740886002779, -0.003409310709685087, 0.031420473009347916, 0.10227245837450027, 0.040928520262241364, -0.08582950383424759, -0.1549898236989975, -0.22432567179203033, -0.2134888619184494, -0.1917084902524948, -0.14975889027118683, -0.035240620374679565, -0.05085662007331848, -0.00801866129040718, 0.13191232085227966, 0.1377122551202774, -0.04820824787020683, -0.1648501455783844, -0.09844139963388443, -0.07582878321409225, -0.06971617043018341, 0.02002076618373394, -0.04207219183444977, 0.07201945036649704, 0.044069111347198486, -0.04559331014752388, 0.022156868129968643, 0.1240832731127739, 0.04718982055783272, 0.019280457869172096, -0.022160150110721588, -0.04018435254693031, 0.03707914799451828, 0.07103434205055237, 0.013999325223267078, 0.02693779207766056, 0.027766307815909386, -0.09139080345630646, -0.1830395758152008, 0.007227042689919472, 0.017276767641305923, 0.046469561755657196, 0.0802052766084671, 0.0026984175201505423, 0.07842584699392319, 0.09977986663579941, 0.03363821282982826, 0.09821835905313492, -0.017963077872991562, -0.18623210489749908, -0.23208554089069366, 0.0024141527246683836, 0.0882079005241394, 0.09919092804193497, 0.043220460414886475, 0.08464723080396652, 0.03847336769104004, 0.05755682289600372, 0.011783488094806671, 0.031979285180568695, -0.14826248586177826, -0.27315753698349, -0.328434556722641, -0.07728864252567291, 0.04611365869641304, 0.04207253456115723, 0.12019892781972885, 0.10876534879207611, 0.11945006996393204, 0.08573313057422638, 0.048954084515571594, 0.03204254060983658, -0.0917344018816948, -0.19799621403217316, -0.47040221095085144, -0.22389991581439972, -0.2013743817806244, -0.011117571033537388, 0.005655541084706783, 0.026230743154883385, 0.0262423288077116, 0.027282968163490295, -0.043308135122060776, -0.042018745094537735, 0.030806060880422592, -0.1844378113746643, -0.1609526127576828, -0.17037269473075867, -0.05290018394589424, -0.03658147156238556, -0.11968692392110825, -0.08240126818418503, -0.03246292471885681, -0.005238757468760014, -0.09514393657445908, -0.06020268797874451, 0.03643795847892761, 0.01012647058814764, 0.011708523146808147, 0.01559764426201582, -0.060553595423698425, -0.022918878123164177, 0.0719485804438591, 0.0935080274939537, 0.06230100244283676, 0.05040770396590233, 0.02983079105615616, 0.042776186019182205, -0.0062716444954276085, -0.07449701428413391, -0.15345750749111176, -0.28703561425209045, -0.25115424394607544, -0.10396690666675568, -0.01851526089012623, -0.0034517613239586353, -0.01179569959640503, 0.008473863825201988, -0.0018756946083158255, -0.032581038773059845, 0.01819772459566593, -0.01818252168595791, -0.12878064811229706, -0.24646811187267303, -0.19286644458770752, -0.06185436248779297, -0.009477648884057999, 0.04441705346107483, -0.03727807477116585, 0.04862416908144951, 0.09444964677095413, -0.011254004202783108, 0.0005390063743107021, -0.11718886345624924, -0.05682716891169548, -0.08034000545740128, -0.07333758473396301, -0.08093716949224472, -0.08863517642021179, -0.09999844431877136, -0.0908585861325264, -0.10353376716375351, -0.014959726482629776, -0.04634644463658333, 0.05067991465330124, -0.1519186645746231, -0.09914261102676392, -0.08759189397096634, -0.0936533585190773, -0.028291448950767517, 0.029946284368634224, -0.08390019834041595, -0.14867351949214935, -0.21246694028377533, -0.16482028365135193, -0.07952975481748581, -0.02291819080710411, -0.15719041228294373, -0.2445114254951477, -0.24415938556194305, -0.07956986874341965, -0.11387546360492706, -0.12436632812023163, -0.07774635404348373, -0.043560609221458435, -0.04418905824422836, -0.105893075466156, -0.1023944839835167, -0.04691193625330925, -0.08436433970928192, -0.17635734379291534, -0.18130724132061005, -0.08889946341514587, -0.2640491724014282, -0.35195598006248474, -0.16384512186050415, 0.015125149860978127, 0.002945831511169672, 0.02174271270632744, 0.0006348906899802387, 0.04263410344719887, -0.04414818808436394, -0.058651719242334366, -0.08017634600400925, -0.22820240259170532, -0.30505800247192383, -0.1824967861175537, -0.0030554209370166063, 0.049070052802562714, 0.03430979698896408, 0.03843175247311592, 0.007410990074276924, 0.015537964180111885, -0.06881140917539597, -0.03048749826848507, 0.0241714995354414, 0.01782847009599209, 0.005098964553326368, 0.12372218817472458, 0.09593362361192703, 0.05120869725942612, 0.04047495499253273, -0.020210420712828636, -0.09116404503583908, 0.047525957226753235, 0.02582411840558052, -0.06352196633815765, 0.003905358025804162, 0.018767211586236954, 0.03484402224421501, 0.03586515411734581, -0.05086139217019081, -0.05939137563109398, -0.05900216102600098, -0.09952083230018616, -0.10037099570035934, 0.017901727929711342, 0.014153399504721165, 0.04969495162367821, 0.06707659363746643, 0.07994328439235687, 0.06663945317268372, 0.028796019032597542, -0.01684585027396679, -0.05098821967840195, -0.039941318333148956, -0.06789588183164597, -0.08109492808580399, 0.004298040643334389, -0.025836030021309853, 0.01185295358300209, -0.07304149866104126, 0.0008802010561339557, -0.006438986863940954, -0.05673928186297417, -0.05907692387700081, -0.09999465942382812, -0.15763521194458008, -0.0869654044508934, -0.06434209644794464, -0.007518438156694174, 0.0019040810875594616, -0.01682058908045292, -0.00958494283258915, -0.05711238086223602, -0.007447341922670603, -0.02318200096487999, -0.02845747023820877, -0.06781143695116043, -0.00728343240916729, -0.010831786319613457, 0.009004315361380577, -0.0029169751796871424, 0.000388641026802361, -0.0198939498513937, -0.07236988842487335, -0.08064819127321243, -0.09062895178794861, -0.054972752928733826, -0.055257685482501984, -0.05400652438402176, -0.09667066484689713, -0.04942993074655533, 0.009500380605459213, 0.016923604533076286, -0.019960206001996994, -0.051825571805238724, -0.11190102994441986, -0.0799972340464592, -0.04611257463693619, -0.02285541035234928, -0.10509749501943588, -0.059869419783353806, -0.07559520751237869, -0.030496183782815933, 0.05515526980161667, 0.004456821829080582, -0.00452306168153882, 0.01271881815046072, -0.09798616170883179, 0.10760848969221115, 0.046603355556726456, -0.018501047044992447, -0.03344704210758209, -0.01404973678290844, 0.001456306898035109, 0.001127918716520071, 0.09852318465709686, -0.0012563944328576326, -0.002994474722072482, -0.009952615015208721, 0.09663941711187363, 0.11894748359918594, 0.05752509832382202, 0.1271677315235138, 0.03081038035452366, 0.024835536256432533, -0.002432971028611064, 0.04043992608785629, 0.08704163879156113, 0.027698706835508347, 0.05401454120874405, 0.07467726618051529, 0.1352890133857727, 0.13524970412254333, 0.14148634672164917, 0.17976351082324982, 0.052865926176309586, 0.07545381039381027, 0.04642008617520332, 0.031247951090335846, 0.0728222131729126, 0.030334537848830223, 0.0795171931385994, 0.124317966401577, 0.15578196942806244, 0.12213349342346191, 0.1713840365409851, 0.12320209294557571, 0.05278130620718002, 0.06875194609165192, 0.047666262835264206, 0.02991623431444168, 0.0463692843914032, -0.006486442405730486, 0.06063046306371689, 0.07987625151872635, 0.12963345646858215, 0.1030140221118927, 0.19688281416893005, -0.0018747261492535472, 0.07256609201431274, 0.11450276523828506, 0.04089737311005592, 0.024585064500570297, 0.04422092065215111, 0.004284223075956106, 0.02140854299068451, 0.030820494517683983, 0.10933995246887207, 0.07325734943151474, 0.037824176251888275, -0.02801460213959217, 0.022327378392219543, -0.001855824957601726, 0.015088813379406929, 0.02825075201690197, 0.01578877866268158, 0.023871375247836113, -0.005443193018436432, 0.017195994034409523, 0.0678812712430954, -0.027989285066723824, -0.03668589890003204, -0.037289563566446304, -0.002826336771249771, -0.0024835970252752304, -0.006352740805596113, -0.03780492767691612, -0.031102769076824188, 0.012862110510468483, 0.006291508674621582, 0.005162539891898632, -0.06041735038161278, -0.08872132003307343, -0.15132734179496765, -0.13216179609298706, -0.09176457673311234, -0.06861293315887451, -0.0588543526828289, -0.0791148990392685, -0.034810636192560196, 0.02391764521598816, -0.013776365667581558, -0.02792125940322876, 0.011657489463686943, -0.036613695323467255, -0.1691683977842331, -0.1726824790239334, -0.11412834376096725, -0.09834451228380203, -0.10212738811969757, -0.03214842081069946, 3.1750769267091528e-06, 0.03648817166686058, 0.05272729694843292, 0.024734310805797577, 0.03686293214559555, 0.01236877404153347, 0.0706237256526947, 0.06148602440953255, 0.052012939006090164, 0.05724069103598595, 0.05844666808843613, -0.001955025363713503, -0.0985831767320633, -0.06277817487716675, -0.14141832292079926, -0.07950548827648163, -0.04450330138206482, -0.10882199555635452, -0.19436214864253998, -0.12186266481876373, -0.09260136634111404, -0.11449142545461655, -0.12555770576000214, -0.09971223771572113, -0.029379038140177727, 0.03815409168601036, -0.03735048696398735, -0.07142612338066101, -0.1439228057861328, -0.20035085082054138, -0.09033337235450745, -0.09658753871917725, -0.10889662057161331, -0.0794406533241272, -0.043760884553194046, -0.051214396953582764, -0.08827617764472961, 0.014390222728252411, -0.0457528717815876, -0.06556814163923264, -0.06442894786596298, -0.017920762300491333, -0.058365754783153534, -0.10989960283041, -0.09634864330291748, -0.09315850585699081, -0.05083782598376274, -0.06092091277241707, -0.031873155385255814, -0.009088736958801746, -0.06581039726734161, 0.009547910653054714, 0.01794012263417244, -0.04744062200188637, -0.01784302294254303, -0.08212219923734665, -0.10611645877361298, -0.12299901247024536, -0.11698445677757263, -0.06654186546802521, -0.013229592703282833, -0.1426832675933838, -0.20891928672790527, -0.06767182797193527, -0.05209213122725487, -0.0318739227950573, 0.017693454399704933, -0.07427056133747101, -0.1877845674753189, -0.11845634132623672, -0.033980511128902435, -0.015109061263501644, -0.025435468181967735, -0.11905353516340256, -0.12849301099777222, -0.13639980554580688, 0.0023549955803900957, -0.01719372533261776, -0.07510185241699219, -0.1817806512117386, -0.16920602321624756, -0.12055358290672302, -0.02344304881989956, -0.048334237188100815, -0.029742470011115074, -0.1652662456035614, -0.1047382578253746, -0.10200982540845871, -0.07114531099796295, -0.09229852259159088, -0.14380672574043274, -0.190404012799263, -0.12667742371559143, -0.04138729348778725, 0.00879719853401184, 0.001962868729606271, 0.02305557206273079, 0.02326330915093422, -0.06600730866193771, -0.04278077185153961, -0.05367376282811165, -0.08664567768573761, -0.1596418172121048, -0.09765394777059555, -0.028482919558882713, 0.022084450349211693, 0.03407704457640648, 0.011876523494720459, -0.008265879936516285, -0.06852257251739502, -0.13231392204761505, -0.11190352588891983, -0.00812302716076374, 0.008569890633225441, -0.0029381467029452324, -0.01118190586566925, 0.03897380083799362, 0.017390765249729156, 0.0007144667324610054, -0.038397811353206635, -0.09573569893836975, -0.04798212647438049, -0.023413509130477905, -0.08048984408378601, -0.015098662115633488, 0.034089233726263046, 0.02948128432035446, 0.029090911149978638, 0.024714678525924683, 0.0066507477313280106, -0.04318926855921745, -0.04849851131439209, -0.03591829538345337, -0.061067041009664536, 0.04495476558804512, 0.05929151549935341, 0.05015452206134796, 0.05421692878007889, 0.061538346111774445, 0.0937906876206398, 0.05505187809467316, 0.023973049595952034, -0.000590711715631187, -0.10458523780107498, -0.10868003219366074, -0.0347725935280323, -0.06633581221103668, -0.011251515708863735, 0.019694851711392403, -0.022408120334148407, -0.052094001322984695, -0.02395559661090374, -0.03143853321671486, 0.0022281480487436056, -0.04234699904918671, -0.004902190063148737, -0.0823870450258255, -0.049489639699459076, -0.00459895608946681, -0.029306745156645775, -0.02339373156428337, 0.007138140965253115, -0.025108998641371727, -0.013726925477385521, -0.04971462860703468, -0.0037879538722336292, -0.0049313330091536045, 0.007013475056737661, -0.06381222605705261, -0.06575258821249008, -0.003956284839659929, -0.017469774931669235, 0.005814389791339636, -0.020191103219985962, 0.011675626039505005, 0.02394765429198742, 0.029747122898697853, 0.010119620710611343, 0.04619583860039711, 0.03612885624170303, 0.020034899935126305, -0.01860998384654522, -0.018018554896116257, 0.005585998762398958, 0.026115911081433296, 0.01884969137609005, 0.025689424946904182, 0.04292597249150276, 0.022615468129515648, 0.047700200229883194, 0.04758488014340401, 0.04643889516592026, 0.02159820683300495, -0.06306535005569458, 0.036014165729284286, 0.012027575634419918, 0.008891094475984573, 0.0372534915804863, 0.01172976940870285, -0.0017793338047340512, 0.021096976473927498, 0.0058125159703195095, 0.04794140160083771, 0.04082609713077545, 0.05159680172801018, -0.07388950884342194, 0.0481095016002655, 0.0278575848788023, 0.038890291005373, 0.04174292832612991, -0.033179137855768204, -0.07412204891443253, -0.04280087724328041, -0.014316081069409847, 0.030487891286611557, 0.029364950954914093, 0.08813980221748352, -0.07568332552909851, 0.012566035613417625, 0.05405176803469658, 0.02695563994348049, 0.0065949177369475365, -0.05672565475106239, -0.09798765927553177, -0.0915595218539238, -0.06639520078897476, 0.01689879596233368, 0.026473892852663994, 0.053082242608070374, -0.028508689254522324, 0.017391717061400414, 0.03619030490517616, 0.04645957425236702, -0.029727710410952568, -0.08315766602754593, -0.06424101442098618, -0.10221368819475174, -0.0534386970102787, -0.014925257302820683, 0.020787648856639862, 0.05199223756790161, 0.023649193346500397, 0.03188357502222061, 0.027806594967842102, 0.039716705679893494, 0.032444678246974945, -0.03141314908862114, -0.07187467813491821, -0.06166038289666176, -0.013077273033559322, -0.01638653315603733, -0.005731423385441303, 0.034615106880664825, 0.02812226489186287, 0.007928949780762196, -0.01044541411101818, 0.01010345108807087, 0.05357198789715767, 0.03024458885192871, -0.01888389140367508, -0.024315038695931435, -0.023562589660286903, 0.011786658316850662, 0.019527284428477287, -0.02075958624482155, -0.004441094119101763, -0.010966276749968529, -0.015262216329574585, 0.025086024776101112, 0.020415641367435455, 0.03011939488351345, 0.04014839977025986, -0.01628376543521881, -0.01597934402525425, -0.029640179127454758, -0.038948286324739456, -0.0352865569293499, -0.048169802874326706, -0.007505256682634354, 0.008417775854468346, 0.023875288665294647, 0.05260953679680824, 0.029007429257035255, 0.060371145606040955, 0.03719307482242584, -0.0017962732817977667, -0.03559349477291107, -0.07587732374668121, -0.05958298593759537, -0.08553051203489304, 0.024241283535957336, 0.01735134795308113, -0.048127736896276474, -0.05726198852062225, 0.03189970180392265, 0.05183367431163788, 0.05318811163306236, -0.02140645682811737, -0.07267183065414429, -0.1269892305135727, -0.21126139163970947, -0.012809522449970245, -0.007096101995557547, -0.05215074121952057, -0.029309947043657303, -0.013212098740041256, 0.03519957885146141, -0.006184733007103205, -0.01012036856263876, 0.0755293220281601, 0.019906656816601753, -0.08827779442071915, -0.0460638664662838, -0.018819492310285568, -0.017324119806289673, 0.008974267169833183, -0.044876471161842346, -0.08372561633586884, 0.03082730993628502, 0.08167722076177597, 0.07497557997703552, 0.07313815504312515, 0.09123177826404572, 0.07797238230705261, -0.0458759069442749, -0.008679330348968506, 0.027400989085435867, 0.04244803637266159, -0.11586843430995941, -0.07315345853567123, 0.005357458256185055, 0.028341474011540413, 0.08645745366811752, 0.09641914069652557, 0.07268636673688889, 0.01132950559258461, -0.002560640685260296, -0.0027866805903613567, -0.055478211492300034, -0.024054303765296936, -0.04371803626418114, 0.010841520503163338, -0.10830415785312653, 0.04180246219038963, 0.15092219412326813, 0.07342101633548737, 0.04684394970536232, 0.008064920082688332, 0.040905412286520004, 0.04977957159280777, -0.06337089836597443, 0.07122167199850082, 0.003346618264913559, -0.06313563138246536, -0.025846771895885468, 0.042789388447999954, -0.020759092643857002, -0.009001612663269043, -0.0017913887277245522, 0.08571073412895203, 0.09118972718715668, 0.03379827365279198, -0.05338249355554581, 0.01662515662610531, -0.03372795134782791, 0.010360008105635643, 0.06896725296974182, -0.011910025961697102, -0.15867578983306885, -0.08892540633678436, -0.0012049953220412135, 0.04004259780049324, 0.07138146460056305, 0.023638494312763214, -0.056826524436473846, 0.03731077164411545, 0.06638821214437485, 0.08323351293802261, 0.06609514355659485, -0.032186657190322876, -0.1670013964176178, -0.08684653043746948, -0.0368284173309803, -0.0070631857961416245, 0.04032950848340988, -0.0033547922503203154, -0.05967256799340248, -0.025902075693011284, 0.05104459077119827, 0.11065186560153961, 0.1046423465013504, -0.08106108754873276, -0.05327451601624489, -0.026102745905518532, -0.010100173763930798, 0.0033466711174696684, 0.012370334938168526, -0.1609220951795578, -0.08402805030345917, 0.022945711389183998, 0.07679177075624466, 0.11279712617397308, 0.14874804019927979, 0.04749568924307823, 0.02872196026146412, -0.010299382731318474, -0.015961792320013046, -0.013207659125328064, -0.038530729711055756, -0.013490693643689156, -0.05069129914045334, -0.0023614245001226664, 0.0683346763253212, 0.06431090086698532, 0.11156941950321198, 0.0432320274412632, 0.0005144791211932898, 0.0015622120117768645, -0.014443417079746723, -0.026828952133655548, -0.022930298000574112, -0.051676951348781586, -0.07789675891399384, -0.10283485054969788, 0.021678006276488304, 0.021343134343624115, -0.0422467477619648, -0.059256624430418015, -0.033297665417194366, -0.006754477508366108, -0.06551419198513031, -0.050430070608854294, -0.11631527543067932, -0.007446495816111565, 0.020300880074501038, 0.043649159371852875, -0.02810691110789776, -0.03012917749583721, 0.0315697006881237, 0.02448892407119274, 0.029043326154351234, 0.009776586666703224, 0.0051558553241193295, 0.002116789575666189, -0.0008603306487202644, 0.013674821704626083, -0.005564210005104542, -0.04111912101507187, -0.027372486889362335, -0.02320527285337448, 0.003271789290010929, -0.04912089556455612, 0.00958562083542347, -0.029667213559150696, -0.01613471284508705, -0.10384730994701385, 0.01681663654744625, 0.019393794238567352, -0.0013399540912359953, -0.01913507655262947, 0.003279495518654585, -0.060856468975543976, -0.01949252188205719, 0.01634923741221428, -0.05109672248363495, -0.27023616433143616, -0.23543527722358704, -0.20149628818035126, -0.0917641818523407, 0.030583709478378296, 0.025958005338907242, -0.01658244989812374, 0.02332148514688015, -0.02126949653029442, 0.05429508164525032, -0.09999249875545502, -0.1594109833240509, -0.20308160781860352, -0.2981802821159363, -0.20434066653251648, -0.09929489344358444, 0.013348246924579144, 0.04218660295009613, 0.0731760710477829, 0.09228769689798355, 0.03918085992336273, -0.09743752330541611, -0.16178418695926666, -0.06410759687423706, -0.11115702241659164, -0.2398003190755844, -0.23989540338516235, -0.11978057026863098, 0.04443025216460228, 0.08144783228635788, 0.1376248449087143, 0.11379575729370117, 0.026059597730636597, -0.18391653895378113, -0.029038967564702034, -0.011580388061702251, -0.039724647998809814, -0.08397670090198517, -0.08936389535665512, -0.06088615208864212, 0.07108604907989502, 0.023438962176442146, 0.10722161084413528, 0.07053449004888535, -0.014750063419342041, -0.03380691632628441, -0.03485238552093506, 0.013220752589404583, 0.047642625868320465, 0.009574259631335735, -0.046983253210783005, -0.02742268145084381, 0.08888553082942963, -0.020626623183488846, -0.09587708115577698, -0.023474402725696564, -0.05233904719352722, -0.01754278503358364, 0.0447554811835289, 0.02276083081960678, 0.11061900109052658, 0.04326912388205528, -0.012544943019747734, 0.02385048195719719, 0.04849206656217575, -0.05217450484633446, -0.22000277042388916, -0.2004881054162979, -0.03352510929107666, -0.04942924529314041, 0.02372295781970024, 0.1523631364107132, 0.16628281772136688, 0.062215592712163925, 0.03325355425477028, 0.025071820244193077, -0.04716048017144203, -0.1489800065755844, -0.20966143906116486, -0.23663587868213654, -0.188959538936615, -0.05558082088828087, 0.13538475334644318, 0.1371995061635971, 0.09592010080814362, 0.07543884217739105, 0.04032588750123978, 9.578264143783599e-05, -0.04165200516581535, -0.053286075592041016, -0.17697878181934357, -0.1630130410194397, -0.17154450714588165, -0.050000473856925964, 0.01461473386734724, 0.05765854939818382, 0.03483898937702179, 0.05688722804188728, 0.014920313842594624, 0.0010750911897048354, 0.013628288172185421, -0.015925468876957893, -0.06323022395372391, -0.026267286390066147, 0.03523727506399155, -0.06590757519006729, -0.02463393472135067, 0.03700658306479454, 0.0554734505712986, 0.0019670703914016485, -0.006525326054543257, -0.021854890510439873, -0.07385286688804626, -0.04281977564096451, -0.007596098817884922, -0.03541884198784828, -0.03025224059820175, -0.0012395279482007027, -0.015961896628141403, -0.037726327776908875, -0.004494523163884878, -0.02446388639509678, -0.022017475217580795, -0.03395145386457443, -0.05358310788869858, -0.008562118746340275, -0.025037039071321487, -0.001204407773911953, 0.0002993899688590318, -0.005259769503027201, 0.00040115707088261843, 0.016222329810261726, -0.003824531100690365, -0.004312923643738031, 0.04018828272819519, -0.0338955819606781, -0.03001164086163044, -0.03659224510192871, 0.02277841977775097, 0.019494187086820602, -0.016350138932466507, 0.01599394716322422, 0.011549416929483414, 0.04065776616334915, 0.0473194345831871, 0.013831130228936672, 0.03408859670162201, 0.021202653646469116, -0.023000292479991913, 0.0008345679379999638, 0.03329618275165558, -0.009485750459134579, 0.025231920182704926, 0.032753992825746536, 0.02108529582619667, 0.032135073095560074, 0.04211640730500221, 0.0402122400701046, 0.04152812063694, 0.00869129877537489, -0.02272244542837143, 0.03102213330566883, 0.01019118819385767, 0.026703299954533577, 0.04416530951857567, -0.004733212757855654, 0.006484564859420061, -0.0017293804557994008, 0.012897929176688194, 0.033598657697439194, 0.029821231961250305, 0.022178079932928085, 0.00878592673689127, 0.012864080257713795, 0.048788655549287796, 0.02063252218067646, -0.001814185525290668, -0.035483140498399734, -0.09258981049060822, -0.050191812217235565, -0.02731107547879219, 0.04235045984387398, 0.038767848163843155, 0.056228265166282654, 0.051166336983442307, 0.04965044930577278, 0.06045927479863167, 0.05510783940553665, 0.0073639629408717155, -0.059250202029943466, -0.07557138800621033, -0.09529291838407516, -0.01942870393395424, 0.01788177713751793, 0.05046576261520386, 0.05848689749836922, 0.049895141273736954, 0.02963285520672798, 0.05367966368794441, 0.04464871808886528, -0.025526124984025955, -0.056439705193042755, -0.07303914427757263, -0.05409165844321251, 0.017158783972263336, 0.0061196573078632355, 0.008768022060394287, 0.05583306401968002, 0.028890328481793404, 0.027649203315377235, -0.0005156491533853114, 0.026423828676342964, 0.0008051318000070751, -0.002558091888204217, -0.05517067015171051, -0.008581032045185566, 0.024912137538194656, 0.022395923733711243, 0.03726761415600777, -0.008577816188335419, -0.0036649147514253855, 0.020461488515138626, 0.012271808460354805, 0.02456282079219818, 0.013053677044808865, 0.03655551001429558, 0.002865731017664075, 0.014257335104048252, 0.0012155573349446058, 0.00866745039820671, 0.013636117801070213, -0.04060180112719536, -0.008767634630203247, 0.01632031612098217, 0.012948250398039818, 0.029559355229139328, 0.009652689099311829, 0.05521182343363762, 0.01807895489037037, -0.001592519460245967, 0.00641801068559289, -0.046015478670597076, -0.0063622803427278996, -0.08183968812227249, -0.011317864991724491, 0.018375415354967117, 0.012454257346689701, -0.05061575397849083, -0.019661543890833855, 0.0027037831023335457, -0.022258564829826355, -0.05465782433748245, -0.027976220473647118, -0.08169642090797424, -0.10297732055187225, -0.08680225908756256, 0.0002528904005885124, -0.0423143245279789, -0.027289312332868576, -0.0015211192658171058, -0.015374557115137577, -0.0605640783905983, -0.04331943765282631, -0.02367178350687027, -0.0016311864601448178, -0.03110763058066368, -0.009567293338477612, -0.03043779730796814, -0.026855595409870148, 0.011914429254829884, -0.024140173569321632, -0.018862303346395493, -0.009516499005258083, 0.012312004342675209, -0.00013183351256884634, 0.009926311671733856, -0.0006659133941866457, -0.004565227776765823, 0.03997430205345154, -0.024463754147291183, -0.047033634036779404, -0.015178702771663666, -0.028362125158309937, -0.010872258804738522, -0.021763134747743607, 0.006272290833294392, 0.029971893876791, 0.025085769593715668, 0.000811151519883424, 0.029990876093506813, 0.0068785641342401505, 0.026617223396897316, -0.0491684265434742, -0.003633712651208043, 0.02431083843111992, -0.02041507512331009, 0.04228737950325012, 0.02357112243771553, 0.04434875771403313, 0.01841607503592968, 0.0073977308347821236, 0.016729004681110382, 0.021739261224865913, 0.029656250029802322, -0.01476740650832653, -0.0013289684429764748, 0.031130502000451088, 0.014560854062438011, 0.043188612908124924, 0.013204279355704784, -0.025895249098539352, -0.03832981362938881, -0.0066504827700555325, 0.029573673382401466, 0.04584498330950737, 0.047600723803043365, -0.05182056128978729, 0.020171688869595528, 0.022439105436205864, 0.02703636698424816, 0.0223944503813982, -0.027040846645832062, -0.0810513123869896, -0.08264725655317307, 0.002419190015643835, 0.054700225591659546, 0.04449491947889328, 0.048448409885168076, -0.05796827748417854, 0.051728755235672, 0.05786552652716637, 0.04759902134537697, 0.018168654292821884, -0.02882063016295433, -0.09088818728923798, -0.0649876669049263, -0.010638546198606491, 0.01608460582792759, 0.03904847800731659, 0.044591471552848816, -0.043161798268556595, 0.028503136709332466, 0.01920730248093605, 0.05082303658127785, 0.00144096405711025, -0.04787828400731087, -0.05773419886827469, -0.035281822085380554, 0.002031046664342284, 0.03355557844042778, 0.02282789908349514, 0.03227630630135536, -0.028543319553136826, 0.011261298321187496, 0.0011142159346491098, 0.01635453663766384, 0.011179380118846893, -0.00327354040928185, -0.0307903029024601, -0.024239156395196915, 0.0023118136450648308, 0.0015120345633476973, 0.0012506203493103385, -0.003235727548599243, -0.027839500457048416, -0.023887012153863907, 0.022183429449796677, 0.03966689854860306, 0.036179039627313614, 0.008465406484901905, -0.017614083364605904, 0.01392943412065506, -0.00887864176183939, 0.006835118867456913, -0.021663127467036247, -0.056646741926670074, -0.03537503257393837, 0.02532271295785904, 0.013454453088343143, 0.029188092797994614, 0.02790718711912632, 0.02812150865793228, -0.004694872070103884, -0.015612337738275528, -0.02169180102646351, -0.06024414673447609, -0.03426471725106239, -0.06402537226676941, -0.04027887433767319, -0.05244578793644905, 0.0011679409071803093, -0.04169405624270439, -0.01731683313846588, 0.018413227051496506, -0.00566273694857955, -0.041771627962589264, -0.07047957181930542, -0.08212917298078537, -0.08610793948173523, -0.041883282363414764, -0.11614587903022766, -0.01753980666399002, -0.028468530625104904, -0.030254291370511055, -0.034443214535713196, 0.04474632069468498, 0.016916170716285706, 0.0479949526488781, -0.025277534499764442, 0.004941241350024939, -0.2101762294769287, -0.03794748708605766, -0.03081437386572361, -0.018937405198812485, -0.03222386911511421, -0.025804320350289345, -0.07393857836723328, -0.03949573636054993, -0.058963727205991745, 0.011162146925926208, -0.04812740162014961, -0.004963505547493696, -0.17005763947963715, -0.03965247422456741, -0.009739856235682964, 0.012776750139892101, -0.04188568517565727, -0.03621495142579079, -0.13808542490005493, -0.0381283313035965, -0.05791892111301422, -0.054193079471588135, -0.03512498736381531, 0.04423025622963905, -0.08127491176128387, -0.09769771248102188, -0.01778326742351055, 0.022234756499528885, -0.005523215513676405, 0.011144408024847507, -0.019223494455218315, -0.010775809176266193, 0.01702125370502472, -0.0037150594871491194, 0.10712184011936188, 0.21825353801250458, 0.1706443428993225, -0.008231541141867638, 0.003423521760851145, 0.06683127582073212, 0.006032274570316076, 0.011033212766051292, -0.061942003667354584, -0.0898028090596199, 0.012945412658154964, 0.11478744447231293, 0.1074613481760025, 0.18379472196102142, 0.17322178184986115, -0.06370840966701508, 0.03311426565051079, 0.08291629701852798, 0.013418309390544891, -0.007254607044160366, -0.0182021651417017, -0.12072969228029251, 0.0033241009805351496, 0.16527113318443298, 0.13634072244167328, 0.25135287642478943, 0.20524360239505768, -0.08605395257472992, 0.04163128882646561, 0.08274863660335541, 0.02169344760477543, -0.001728541566990316, 0.030524108558893204, -0.17005884647369385, -0.0565909817814827, 0.07108744233846664, 0.06641937047243118, 0.1798490732908249, 0.16070103645324707, -0.04204031080007553, 0.06350114941596985, 0.02073242887854576, 0.07318311929702759, 0.07088053226470947, 0.03223655745387077, -0.09632875770330429, -0.01909501850605011, -0.00027462097932584584, 0.059241171926259995, 0.09992031008005142, -0.00032688744249753654, 0.04652648791670799, 0.0749436542391777, 0.06177550181746483, 0.0320400632917881, 0.15353849530220032, 0.1686900407075882, -0.1704406887292862, -0.14179864525794983, -0.0977722555398941, -0.09089498221874237, -0.03079928457736969, -0.13039708137512207, 0.057461660355329514, 0.05323362722992897, 0.021578717976808548, 0.03817006200551987, 0.11011616140604019, 0.15841345489025116, -0.11215955018997192, -0.2961908280849457, -0.21358655393123627, -0.23448307812213898, -0.20821502804756165, -0.24272553622722626, -0.029323358088731766, 0.008576496504247189, 0.003042219439521432, -0.019134916365146637, -0.031937796622514725, 0.028986485674977303, -0.0626593753695488, -0.2018633633852005, -0.2526703476905823, -0.31659382581710815, -0.30069631338119507, -0.25615090131759644, 0.001114366459660232, -0.03567299246788025, 0.01297489833086729, 0.05585552006959915, 0.060256585478782654, 0.0342649407684803, 0.034467559307813644, -0.0656382292509079, -0.08807499706745148, -0.22145336866378784, -0.194620743393898, -0.15908502042293549, -0.06165044382214546, 0.018420575186610222, -0.02277546562254429, -0.0003346326411701739, -0.015601874329149723, -0.007151735480874777, -0.024292076006531715, -0.010106305591762066, -0.0438159741461277, -0.07254619151353836, -0.030251873657107353, -0.020205073058605194, -0.009463002905249596, -0.005318883806467056, -0.0005685175419785082, -0.022816818207502365, -0.0023057900834828615, -0.04415716603398323, 0.0010733698727563024, -0.007135143503546715, 0.01801997609436512, -0.0003609686391428113, 0.026229288429021835, 0.008271615952253342, -0.02359335497021675, 0.01015386451035738, -0.023945989087224007, -0.0038486188277602196, -0.01946171186864376, -0.03909098356962204, 0.020550932735204697, 0.02834986336529255, 0.0416095070540905, 0.036236681044101715, 0.021744973957538605, 0.01768360286951065, -0.0007700885180383921, -0.00909188762307167, 0.0075439210049808025, -0.027091581374406815, -0.01009436883032322, 0.008929851464927197, 0.006538679823279381, 0.02837151475250721, 0.033425018191337585, 0.05558762699365616, 0.04616370424628258, 0.03459436073899269, 0.009201331064105034, 0.00693944888189435, -0.03322974219918251, -0.026407085359096527, -0.022908160462975502, 0.02722160890698433, 0.02890881709754467, 0.014021744951605797, 0.032383039593696594, 0.0010145147098228335, 0.04699547216296196, 0.05598994344472885, 0.01932806521654129, -0.012760714627802372, -0.02293001301586628, -0.004174649715423584, 0.035293519496917725, 0.0247384961694479, -0.013157996349036694, -0.07110460102558136, -0.057032737880945206, -0.03688113018870354, 0.0339822992682457, 0.058342210948467255, 0.04615721479058266, -0.005655041895806789, 0.0025071208365261555, 0.031160619109869003, 0.031083332374691963, 0.040251489728689194, -0.01850736513733864, -0.04912194237112999, -0.09525645524263382, -0.02490401081740856, 0.02202625386416912, 0.047717709094285965, 0.051327452063560486, 0.001680725603364408, 0.02872548997402191, 0.050579365342855453, 0.040741678327322006, 0.025074083358049393, -0.05527052283287048, -0.07737919688224792, -0.058281850069761276, -0.03532092645764351, 0.03593311458826065, 0.03844393044710159, 0.031630486249923706, -0.031242435798048973, -0.007100417744368315, -0.009520193561911583, 0.013823632150888443, 0.0467354916036129, -0.02942999266088009, -0.028371088206768036, -0.008755902759730816, 0.010844312608242035, 0.027016548439860344, -0.007980098947882652, 0.01743355207145214, -0.014805386774241924, -0.01111254096031189, -0.01802789606153965, 0.015639271587133408, 0.050308939069509506, 0.014869868755340576, 0.011421197094023228, -0.01210877113044262, 0.0038479443173855543, -0.004401664715260267, -0.013044893741607666, -0.0009117940790019929, 0.00836188904941082, 0.016781171783804893, 0.02554519847035408, 0.03365091234445572, 0.027693694457411766, 0.028494656085968018, 0.03378967195749283, 0.025432834401726723, -0.0002573118545114994, -0.02945592813193798, -0.03808669373393059, -0.033141233026981354, 0.015893016010522842, -0.006808704696595669, -0.007606880739331245, -0.029153309762477875, -0.044551149010658264, -0.03642493113875389, -0.030324874445796013, -0.04223774001002312, -0.011579683050513268, -0.04354654997587204, -0.03685544803738594, -0.02986549399793148, -0.13557308912277222, 0.0296061709523201, 0.005849378649145365, -0.03630366921424866, -0.024605143815279007, 0.017171751707792282, 0.005132107995450497, -0.0012198257027193904, 0.018158333376049995, -0.004530816804617643, -0.0029026963748037815, 0.0029365215450525284, -0.0331219807267189, -0.012031196616590023, -0.0160517655313015, -0.02848714217543602, -0.020243676379323006, -0.03703192621469498, -0.0016899590846151114, 0.02533186413347721, 0.014618296176195145, 0.030727017670869827, 0.017152223736047745, 0.015607078559696674, -0.05508653074502945, -0.014955931343138218, -0.0055266679264605045, -0.03671739995479584, -0.009596122428774834, -0.004538653418421745, 0.0245268102735281, 0.00028323507285676897, -0.01664992980659008, -0.01824774779379368, -0.00717360433191061, -0.01206447184085846, -0.042951229959726334, -0.00489463284611702, -0.03749535232782364, -0.010966628789901733, 0.049448464065790176, 0.002240409143269062, -0.019977770745754242, -0.009579676203429699, 0.008333510719239712, 0.011229950934648514, 0.046592045575380325, 0.019099704921245575, -0.037658121436834335, -0.036478836089372635, 0.001686220639385283, 0.029707588255405426, 0.0023144183214753866, -0.07260311394929886, -0.10380186885595322, -0.10212941467761993, -0.028869174420833588, -0.007897112518548965, 0.01779496669769287, 0.013345299288630486, -0.07808031141757965, -0.05636729672551155, 0.00899842195212841, 0.013712537474930286, 0.004036807920783758, -0.04643933102488518, -0.1159573420882225, -0.08716145157814026, -0.006864897441118956, -0.004166723228991032, 0.043688200414180756, 0.05248602107167244, 0.007070260588079691, -0.03324500098824501, 0.027996618300676346, 0.007826927118003368, 0.02761620096862316, -0.019644245505332947, -0.11912843585014343, -0.10453382879495621, 0.018519407138228416, 0.025025559589266777, 0.04184872657060623, 0.05616872385144234, -0.06678574532270432, -0.0077277254313230515, 0.02541423961520195, 0.04719427600502968, 0.04733593761920929, 0.016399787738919258, -0.02499043382704258, -0.019232282415032387, 0.017163081094622612, -0.013974824920296669, 0.0009399977279826999, 0.04037974029779434, -0.11962082237005234, 0.002096777781844139, 0.03180011734366417, 0.0756923034787178, 0.0318712517619133, 0.012864252552390099, -0.008463242091238499, 0.006730502936989069, 0.018759319558739662, -0.04413815960288048, -0.0007796916179358959, -0.022066408768296242, -0.1275051385164261, 0.02937690168619156, 0.04191340506076813, 0.08260218799114227, 0.02742193080484867, 0.022155601531267166, 0.01089000329375267, 0.025374885648489, -0.0021306071430444717, -0.03795831277966499, 0.009275349788367748, -0.07033460587263107, -0.014281485229730606, -0.05886866897344589, 0.027714844793081284, 0.0012910370714962482, -0.04715888947248459, -0.09043143689632416, -0.12832075357437134, -0.0690382868051529, -0.10149095207452774, -0.06916894763708115, -0.10601422935724258, -0.1415203958749771, 0.001217150827869773, -0.0025608320720493793, 0.005657469388097525, 0.033766310662031174, -0.035831619054079056, -0.05215703696012497, -0.10112231224775314, -0.08162489533424377, -0.07686541974544525, -0.054773300886154175, -0.06665242463350296, -0.13498395681381226, -0.14834821224212646, -0.01621146872639656, 0.009293707087635994, -0.02098490484058857, -0.009926206432282925, 0.003053980180993676, -0.035665642470121384, -0.05106239393353462, -0.06347799301147461, -0.08610185980796814, -0.1297854483127594, -0.03384573757648468, -0.06814117729663849, 0.004325830843299627, -0.029075277969241142, 0.015030230395495892, -0.028163399547338486, 0.012907690368592739, 0.035746317356824875, 0.01348620094358921, 0.01982233300805092, 0.01851647160947323, -0.03283344581723213, -0.062334246933460236, -0.07302176207304001, 0.03576654568314552, -0.02175520919263363, -0.013023540377616882, -0.03524074703454971, 0.017918363213539124, 0.05864497646689415, 0.00827328022569418, 0.0445685051381588, 0.022790124639868736, 0.04895242676138878, -0.01425908226519823, -0.03732556849718094, -0.010538509115576744, -0.021919352933764458, -0.0019452718552201986, 0.009738240391016006, -0.009675181470811367, -0.0023078375961631536, 0.07858189940452576, 0.043571773916482925, 0.024695690721273422, -0.011969863437116146, -0.0570981539785862, -0.04125065356492996, 0.02897864766418934, 0.006803190801292658, 0.007058112416416407, 0.004332917742431164, -0.06934253871440887, -0.056323837488889694, -0.05042112246155739, -0.0008460907265543938, 0.02839917689561844, -0.003367950674146414, -0.0449751615524292, -0.07346203178167343, 0.03580816090106964, 0.003210962750017643, 0.0009176716557703912, -0.010037237778306007, -0.14075039327144623, -0.19387578964233398, -0.14655548334121704, -0.08313775807619095, -0.005212058313190937, 0.024277782067656517, -0.039818838238716125, -0.011071220971643925, -0.026219086721539497, 0.017610136419534683, 0.009601181373000145, -0.054088350385427475, -0.15297919511795044, -0.12946225702762604, -0.16448108851909637, -0.08497092872858047, -0.053442079573869705, 0.008444763720035553, -0.020093465223908424, 0.06027132645249367, -0.001234609866514802, -0.015850776806473732, -0.04029861092567444, -0.05385584011673927, -0.08596132695674896, -0.12128769606351852, -0.05798204615712166, -0.01900993101298809, -0.023381341248750687, -0.062420278787612915, -0.026433298364281654, 0.015091264620423317, -0.0006539463065564632, -0.019016975536942482, 0.015465354546904564, -0.011594695039093494, -0.04343489184975624, -0.03406843915581703, -0.007339898031204939, -0.005647034849971533, -0.024065740406513214, -0.08331333100795746, -0.09751459211111069, -0.05147640034556389, 0.0034690748434513807, -0.02407749369740486, -0.01834878697991371, 0.01901855878531933, 0.05863351374864578, 0.035487934947013855, 0.044779155403375626, -0.03659811243414879, -0.018896300345659256, -0.06190573051571846, -0.08604371547698975, -0.0581989660859108, -0.06406518071889877, 0.0037765703164041042, 0.023966560140252113, 0.0403296984732151, 0.02725737914443016, 0.06034349277615547, 0.03132813051342964, -0.0033853931818157434, -0.013806533999741077, -0.08588755875825882, -0.06893862783908844, -0.03478729724884033, -0.11600764840841293, -0.13576412200927734, -0.12736913561820984, -0.1286863386631012, -0.12684862315654755, -0.10616489499807358, -0.12540869414806366, -0.17596377432346344, -0.14789395034313202, -0.16069915890693665, -0.09312720596790314, -0.09502243250608444, -0.11702553927898407, -0.07579152286052704, -0.06784854829311371, -0.015552128665149212, -0.026394031941890717, 0.007146847900003195, -0.03042917512357235, -0.030179735273122787, 0.015541487373411655, 0.009225960820913315, -0.057446520775556564, 0.001561785931698978, -0.07663851976394653, -0.04851353541016579, -0.10815588384866714, -0.10335586965084076, -0.042663246393203735, -0.03263161703944206, -0.045329008251428604, -0.04393425211310387, -0.03711365535855293, -0.045348383486270905, -0.06064017862081528, 0.013281865045428276, -0.04599759355187416, -0.012605475261807442, -0.09529698640108109, -0.02585134282708168, -0.0542403869330883, 0.0015492979437112808, 0.048030272126197815, 0.022542016580700874, 0.01616220362484455, -0.011181590147316456, 0.03132300078868866, 0.052267491817474365, -0.018759973347187042, -0.028160832822322845, 0.012100474908947945, -0.022739820182323456, 0.04070837050676346, 0.040093209594488144, 0.04795188084244728, 0.06208087131381035, 0.062116049230098724, -0.002812048187479377, 0.03835395351052284, -0.045678526163101196, -0.022858981043100357, -0.03562580421566963, 0.0032014979515224695, 0.0223099272698164, 0.05003055930137634, 0.03754666820168495, 0.016816843301057816, 0.04671121761202812, 0.04568484053015709, 0.026368800550699234, 0.04753933474421501, -0.013714219443500042, -0.03928650915622711, -0.028012048453092575, 0.022760502994060516, -0.035922881215810776, 0.001841673394665122, -0.035131942480802536, -0.10251430422067642, -0.01574534922838211, 0.0015900142025202513, 0.03630802407860756, 0.04476910084486008, -0.012822522781789303, -0.014798092655837536, 0.002130155684426427, 0.012762798927724361, 0.02227696403861046, -0.033638905733823776, -0.18362294137477875, -0.14215801656246185, -0.03223627433180809, 0.0032781800255179405, 0.029300905764102936, 0.04826841503381729, 0.055494990199804306, -0.019887827336788177, -0.02769319713115692, 0.04756936803460121, -0.001008843188174069, -0.07367967814207077, -0.09030953049659729, -0.09060274809598923, -0.05719111114740372, -0.011123348958790302, 0.020762555301189423, 0.012280604802072048, 0.06798321008682251, -0.0010709543712437153, 0.02523973025381565, 0.062492746859788895, 0.021633699536323547, -0.03722315654158592, -0.07032522559165955, -0.03444315865635872, -0.0032694684341549873, -0.012029321864247322, -0.009784194640815258, -0.0002650954993441701, -0.008250154554843903, -0.01645561307668686, -0.011996079236268997, 0.040533486753702164, 0.046808842569589615, 0.005548016168177128, -0.028418634086847305, -0.06746000796556473, -0.04785287007689476, 0.012305391021072865, -0.017619866877794266, -0.013940731063485146, -0.05288572236895561, 0.016429180279374123, 0.03009261190891266, 0.035058531910181046, 0.09157490730285645, 0.0946679413318634, 0.02118261717259884, 0.0044933464378118515, -0.021588057279586792, -0.04309747740626335, -0.07525985687971115, -0.05368567630648613, 0.026975329965353012, -0.1187230721116066, -0.031021853908896446, -0.059539321810007095, 0.04059598967432976, 0.024642586708068848, 0.0036424719728529453, 0.02542249485850334, -0.030974334105849266, -0.039476726204156876, -0.07805333286523819, -0.06540561467409134, -0.12161233276128769, -0.012921120971441269, 0.015545746311545372, -0.0038659023120999336, 0.01961006037890911, 0.014393728226423264, 0.014828985556960106, 0.01948862336575985, 0.0002128298656316474, 0.007117125205695629, -0.028868313878774643, -0.08860841393470764, -0.03256091848015785, 0.02686885930597782, -0.021585453301668167, -0.04589017480611801, -0.03311735764145851, -0.014866039156913757, 0.013292538933455944, -0.0005292154964990914, -0.022611575201153755, -0.0070860302075743675, 0.034303322434425354, 0.035755813121795654, -0.041457563638687134, -0.026621047407388687, -0.013504326343536377, -0.023383408784866333, -0.01824309676885605, -0.02692299894988537, 0.028311340138316154, 0.06673360615968704, 0.03104214556515217, 0.02805541828274727, 0.004541951697319746, 0.059924397617578506, -0.0469713993370533, 0.01136651262640953, 0.008867788128554821, 0.022084912285208702, -0.026927251368761063, -0.05429944768548012, -0.014230726286768913, -0.011650487780570984, 0.002870749682188034, 0.052614666521549225, -0.0013287323527038097, 0.051861897110939026, -0.02973661571741104, -0.02120351605117321, 0.038529153913259506, -0.0210847370326519, -0.05698038265109062, -0.12494545429944992, -0.20600110292434692, -0.18241696059703827, -0.01739710196852684, -0.010275222361087799, 0.01814078353345394, 0.05038093775510788, -0.016803324222564697, -0.0486125610768795, 0.015516894869506359, 0.014270084910094738, -0.10376082360744476, -0.15410129725933075, -0.19694550335407257, -0.18040579557418823, -0.10333872586488724, -0.034194543957710266, -0.009958862327039242, 0.06336317211389542, 0.03863167390227318, -0.051955752074718475, -0.06892924755811691, -0.10793356597423553, -0.15619416534900665, -0.10002829879522324, -0.03539109602570534, -0.0771138072013855, -0.11036596447229385, -0.07235703617334366, -0.02081046625971794, 0.056872107088565826, 0.059189826250076294, -0.05123220011591911, -0.06473077833652496, -0.08432092517614365, -0.0388244204223156, 0.01084645465016365, 0.04083438217639923, -0.02107866294682026, -0.10702082514762878, -0.06076705828309059, -0.06724397838115692, -0.014682672917842865, -0.06026901677250862, -0.12030047178268433, -0.11007054150104523, -0.024275654926896095, 0.03548894822597504, 0.07455180585384369, 0.061963897198438644, -0.0411364771425724, -0.013829052448272705, -0.050731729716062546, -0.08953201025724411, -0.0840606689453125, -0.10675381124019623, -0.13912956416606903, -0.11208007484674454, 0.02123858779668808, 0.06259888410568237, 0.09398319572210312, 0.09305959194898605, -0.02565919980406761, -0.0301556084305048, -0.045964065939188004, -0.06546162068843842, -0.08405107259750366, -0.012371559627354145, -0.17110911011695862, -0.14002560079097748, 0.004847683943808079, 0.06538134068250656, 0.09230337291955948, 0.058713678270578384, 0.01898304559290409, -0.061596356332302094, -0.17503421008586884, -0.1113419160246849, -0.021355247125029564, 0.013936039060354233, -0.04499321058392525, -0.06802373379468918, -0.026067225262522697, 0.02676567994058132, -0.020756112411618233, -0.048959460109472275, -0.07601545006036758, -0.05604540929198265, -0.014218423515558243, -0.10031981021165848, -0.06418599933385849, 0.02501227892935276, -0.08828041702508926, -0.13086728751659393, -0.09218407422304153, 0.055442146956920624, 0.005546201951801777, -0.03709051012992859, -0.14079611003398895, -0.10134852677583694, -0.08343160152435303, -0.09155181050300598, -0.10001830011606216, -0.057125385850667953, -0.12441550195217133, -0.1744556725025177, -0.1598188579082489, -0.0019846202339977026, -0.004253239370882511, 0.04716585949063301, -0.0498565249145031, -0.05485808849334717, -0.028953388333320618, 0.003786020912230015, 0.04079278185963631, -0.09729208052158356, -0.12051932513713837, -0.139814555644989, -0.1285642832517624, -0.026415804401040077, -0.0018313992768526077, 0.03369778394699097, -0.013324986211955547, 0.028640490025281906, -0.042893607169389725, 0.04543677344918251, 0.07109002023935318, -0.059152599424123764, -0.14184193313121796, -0.08598212152719498, -0.06795649230480194, 0.06807068735361099, 0.038259394466876984, -0.045015186071395874, 0.0419863685965538, 0.05741269513964653, 0.03800547868013382, 0.039439607411623, 0.07029125094413757, -0.036168042570352554, -0.12059908360242844, -0.06016213074326515, 0.055472902953624725, 0.05458785966038704, 0.0046651591546833515, 0.04799988120794296, 0.04654824361205101, 0.10557910799980164, 0.06977944076061249, 0.07808155566453934, 0.09023647755384445, -0.017996307462453842, -0.09707077592611313, 0.08876868337392807, 0.10128721594810486, 0.09223365783691406, 0.1281876415014267, 0.11627589166164398, -0.02061094529926777, 0.04572950676083565, 0.0712081789970398, 0.0472373329102993, 0.10028613358736038, -0.05292334407567978, 0.019198359921574593, 0.1532478928565979, 0.16125370562076569, 0.1278829425573349, 0.18953865766525269, 0.0033684533555060625, -0.025388196110725403, 0.05076458677649498, 0.020877743139863014, 0.036124568432569504, 0.08865232765674591, -0.015047849155962467, 0.11688631772994995, 0.105563223361969, 0.11659709364175797, 0.11143430322408676, 0.16786861419677734, -0.06814854592084885, -0.07147945463657379, -0.0037511803675442934, 0.012735445983707905, 0.026529014110565186, 0.08822303265333176, 0.06981564313173294, 0.21701668202877045, 0.10764595121145248, 0.11907605081796646, 0.09071199595928192, 0.06654983758926392, -0.10086269676685333, -0.045004598796367645, -0.035216379910707474, 0.00508028594776988, 0.026636337861418724, 0.06074576824903488, 0.033997636288404465, 0.08175718039274216, 0.0405358150601387, 0.12978579103946686, 0.09376512467861176, -0.037667203694581985, -0.07002279162406921, -0.08065300434827805, -0.03386841341853142, -0.028234343975782394, -0.012540922500193119, -0.004595157690346241, 0.04923534765839577, 0.06046425551176071, 0.008368103764951229, 0.09838220477104187, -0.008654006756842136, -0.09786934405565262, -0.136016383767128, -0.10262507945299149, -0.0927625447511673, -0.08536982536315918, -0.04661291092634201, -0.031578753143548965, -0.015897853299975395, 0.03555447608232498, -0.08595157414674759, 0.02030842751264572, -0.04367688298225403, -0.16504929959774017, -0.1475878804922104, -0.11131846159696579, -0.08167511969804764, -0.12219253927469254, -0.09913331270217896, -0.13926592469215393], [0.11404917389154434, 0.013291774317622185, -0.05682782083749771, -0.03800247237086296, -0.03821936249732971, 0.027664324268698692, 0.02613307163119316, 0.01802801713347435, 0.040438875555992126, 0.06802012771368027, 0.03165464848279953, -0.05457667261362076, 0.07513982057571411, -0.07649654150009155, -0.12804022431373596, -0.07000654190778732, -0.12694187462329865, -0.039673224091529846, -0.046555884182453156, -0.002916201949119568, 0.11513540893793106, 0.11133778095245361, -0.028898850083351135, -0.16044114530086517, -0.05929429456591606, -0.03968800976872444, -0.10282452404499054, -0.1202414333820343, -0.23649923503398895, -0.1537105292081833, -0.0838758796453476, 0.1658187359571457, 0.17287679016590118, 0.07080279290676117, 0.040978964418172836, -0.026249263435602188, -0.11011039465665817, 0.02015666663646698, -0.04752296209335327, -0.16242097318172455, -0.2012215554714203, -0.05354497954249382, 0.005093674175441265, 0.017436591908335686, -0.03488050773739815, 0.0847771093249321, 0.011947950348258018, 0.00047616177471354604, -0.0206407830119133, -0.004419778473675251, 0.026087796315550804, -0.034902483224868774, -0.06483033299446106, 0.038398128002882004, -0.052051857113838196, -0.18788161873817444, -0.1220763549208641, 0.017210910096764565, 0.0007662886055186391, 0.020760316401720047, 0.025551503524184227, -0.07731548696756363, 0.11056844145059586, 0.011097882874310017, 0.06704719364643097, 0.06704264134168625, -0.07615729421377182, -0.07775472104549408, -0.06960611045360565, 0.029910849407315254, 0.009041991084814072, 0.040563322603702545, -0.10468488931655884, -0.09476101398468018, 0.004170904401689768, -0.04744372516870499, -0.03768499568104744, -0.017132382839918137, -0.10852484405040741, 0.011609066277742386, 0.02416473627090454, -0.010272281244397163, 0.0063743190839886665, 0.0688653513789177, -0.2463102638721466, -0.06128787249326706, 0.017359083518385887, -0.05231044068932533, -0.2046051323413849, -0.07891920208930969, 0.07218940556049347, 0.12385605275630951, 0.018298761919140816, -0.06497260183095932, 0.022368473932147026, -0.10043155401945114, 0.03757471218705177, 0.1472463756799698, 0.15627287328243256, -0.037702035158872604, -0.04819535091519356, 0.015491725876927376, 0.006265182979404926, 0.06323125213384628, -0.07721004635095596, -0.1563509702682495, -0.0902792289853096, -0.1456252485513687, 0.1360446810722351, 0.08367178589105606, 0.056198425590991974, -0.050291117280721664, -0.18336321413516998, -0.08615639060735703, -0.13145479559898376, -0.21514131128787994, -0.23818719387054443, -0.15892775356769562, -0.0863150954246521, -0.059219516813755035, -0.08471810072660446, -0.20119929313659668, -0.017596043646335602, -0.03572257608175278, 0.003900181269273162, -0.07672646641731262, -0.16402974724769592, -0.16686464846134186, -0.03243356570601463, -0.00534824701026082, 0.006804765202105045, -0.04559283331036568, 0.008802366442978382, -0.05934706702828407, 0.08607456088066101, 0.05188562721014023, 0.0690574049949646, -0.04858751967549324, -0.010075352154672146, 0.0136733902618289, -0.05424176901578903, 0.06257149577140808, 0.06067634001374245, -0.1547207236289978, 0.0741257593035698, 0.05932919308543205, -0.01854289323091507, -0.04325012490153313, -0.06536349654197693, -0.22741296887397766, -0.07990918308496475, 0.006577036343514919, 0.048442039638757706, 0.06612089276313782, 0.08553244173526764, 0.0791354551911354, 0.13393649458885193, 0.10589887201786041, 0.05503276735544205, -0.03621196746826172, -0.2103412002325058, -0.317733496427536, -0.21245910227298737, -0.2525065243244171, -0.2214691936969757, -0.1929555982351303, -0.19538743793964386, -0.14301061630249023, 0.11243518441915512, 0.0036711206194013357, -0.02650952897965908, -0.0157356895506382, -0.17462323606014252, -0.27571916580200195, -0.25242096185684204, -0.2856791615486145, -0.2339821755886078, -0.21772216260433197, -0.19877952337265015, -0.18810036778450012, -0.010820872150361538, 0.06443224847316742, 0.0602433979511261, 0.022610686719417572, -0.04177488759160042, -0.1870242804288864, -0.154402494430542, -0.1511392444372177, -0.19063352048397064, -0.15716895461082458, -0.10629106312990189, -0.1365729570388794, -0.0903308317065239, -0.018781712278723717, -0.004729617852717638, 0.08677764236927032, -0.015635168179869652, -0.15872083604335785, -0.17593099176883698, -0.13411037623882294, -0.2160142958164215, -0.128572478890419, -0.04773847013711929, 0.0009217655169777572, 0.016202962026000023, 0.04001472517848015, -0.033737923949956894, -0.03849770873785019, -0.09262411296367645, -0.2326948195695877, -0.14820872247219086, -0.15955789387226105, -0.18789397180080414, 0.0017736181616783142, 0.05164928361773491, 0.07732994109392166, 0.09915624558925629, 0.06211450695991516, 0.0823100283741951, -0.07414478808641434, -0.14716050028800964, -0.12308383733034134, -0.12367591261863708, -0.2986048460006714, -0.2349696159362793, -0.03038906492292881, 0.07617916166782379, 0.06611724942922592, 0.033935509622097015, -0.01692773401737213, -0.0017626124899834394, -0.14072437584400177, -0.033076874911785126, -0.029450692236423492, -0.06841512769460678, -0.31111595034599304, -0.10154981166124344, 0.0771515890955925, 0.06940907984972, 0.09490977227687836, -0.05775264650583267, 0.0060933614149689674, 0.004372044000774622, -0.11193428188562393, -0.0644979178905487, -0.12514086067676544, -0.19278894364833832, -0.16115884482860565, 0.060147903859615326, 0.13601338863372803, 0.13052284717559814, 0.051640767604112625, -0.014891396276652813, -0.01721225678920746, 0.024585526436567307, -0.02355627901852131, -0.06949293613433838, -0.06880350410938263, 0.0065180337987840176, 0.003690744051709771, 0.0964185893535614, 0.11687947064638138, 0.08471016585826874, 0.164849653840065, 0.082846999168396, 0.0437745563685894, 0.04402191936969757, 0.03494104743003845, 0.030355945229530334, 0.018538085743784904, 0.06795377284288406, 0.06934197247028351, 0.030981069430708885, -0.04865154251456261, -0.027934983372688293, 0.07484594732522964, 0.024085665121674538, -0.03899616748094559, -0.026414040476083755, -0.03370292857289314, -0.016686532646417618, -0.009240636602044106, -0.04843426123261452, -0.12289214879274368, -0.010953224264085293, 0.03379562124609947, -0.02688068337738514, -0.016841117292642593, 0.06430535018444061, 0.04244700074195862, 0.06974394619464874, 0.04819987714290619, 0.117510586977005, 0.09948541224002838, 0.11484038829803467, 0.12728159129619598, 0.09277067333459854, 0.07134030014276505, 0.0390646830201149, 0.03220662847161293, 0.05923641100525856, 0.05329225957393646, 0.045322172343730927, 0.08245348185300827, 0.17024044692516327, 0.24655558168888092, 0.16632109880447388, 0.19890815019607544, 0.10292289406061172, 0.08898939937353134, 0.07589707523584366, 0.033475808799266815, 0.048600707203149796, 0.060689426958560944, 0.07888762652873993, 0.013618238270282745, 0.11879681050777435, 0.12341979891061783, 0.1777271032333374, 0.14190281927585602, 0.06874538213014603, 0.07361195981502533, 0.0657459944486618, 0.037806347012519836, 0.0697837769985199, 0.06436599045991898, 0.05858173221349716, -0.10897691547870636, -0.07540273666381836, -0.1126098558306694, 0.09874724596738815, 0.029668034985661507, 0.03112267702817917, 0.029143866151571274, 0.02648155391216278, 0.08029546588659286, 0.060204897075891495, 0.06967426836490631, 0.040599215775728226, -0.014155141077935696, -0.073692187666893, -0.12556417286396027, 0.053686995059251785, 0.0016370287630707026, 0.037035658955574036, 0.021038807928562164, 0.09025145322084427, 0.08540932089090347, 0.04206705465912819, 0.0989270731806755, 0.02823827601969242, 0.07203248888254166, 0.13783825933933258, -0.002997104311361909, 0.15490926802158356, 0.06131622940301895, 0.020045891404151917, -0.0035112681798636913, 0.07834190130233765, 0.031360890716314316, 0.04361869394779205, 0.08566201478242874, 0.04558505117893219, 0.059644997119903564, 0.2904379665851593, 0.06838760524988174, 0.08808465301990509, 0.08803459256887436, -0.01752927154302597, -0.026023641228675842, 0.04654427990317345, 0.003331317100673914, 0.03923796862363815, 0.07639661431312561, 0.040169648826122284, 0.1021755188703537, 0.16732092201709747, 0.16318590939044952, 0.0821487084031105, 0.05338594317436218, -0.03433041647076607, -0.01247183233499527, -0.05453097075223923, -0.00494958832859993, 0.04944396764039993, 0.024732043966650963, 0.031137458980083466, -0.012489574030041695, 0.11482258141040802, 0.1381046324968338, 0.04005294293165207, -0.06114364415407181, -0.05614023655653, 0.014848792925477028, -0.001325129996985197, 0.058031581342220306, 0.05271671712398529, 0.030631951987743378, 0.05645480379462242, 0.11377968639135361, 0.16670483350753784, 0.06399165093898773, -0.053399424999952316, -0.08784373104572296, -0.028974533081054688, 0.0634019672870636, 0.01113208383321762, 0.029629230499267578, 0.04556465148925781, 0.07308941334486008, 0.10345461964607239, 0.14584560692310333, 0.17004695534706116, 0.008373006246984005, 0.00492986012250185, -0.03498401120305061, -0.01533961109817028, 0.05829722434282303, 0.024434171617031097, 0.0535135380923748, 0.06122032180428505, 0.049222517758607864, 0.08070690184831619, 0.08945456147193909, 0.03962500020861626, -0.008945503272116184, 0.051465775817632675, 0.006674773059785366, -0.02740860916674137, 0.0593605637550354, 0.05519549921154976, 0.04200585186481476, 0.1520797610282898, 0.09465327113866806, 0.0715394839644432, -0.04382222145795822, -0.12877170741558075, -0.06275936216115952, -0.0014244905905798078, 0.028532225638628006, -0.019347267225384712, 0.06956395506858826, 0.0739150121808052, 0.05631681904196739, 0.0705578625202179, -0.04941587522625923, -0.10426495969295502, -0.1521477997303009, -0.2836589217185974, -0.22402916848659515, -0.13530956208705902, -0.16774718463420868, -0.12142191082239151, -0.003596576629206538, -0.0641569122672081, -0.19165870547294617, 0.14054295420646667, 0.06530391424894333, -0.014916733838617802, -0.08157888054847717, -0.24205352365970612, -0.2208624929189682, -0.15644395351409912, -0.19181039929389954, -0.11872324347496033, -0.06792338192462921, -0.10090653598308563, -0.15898646414279938, -0.00048321334179490805, -0.06508418917655945, -0.13877245783805847, -0.09864875674247742, -0.1462215930223465, -0.1680372655391693, -0.17280812561511993, -0.08224761486053467, -0.08258385211229324, -0.06563550233840942, -0.08907550573348999, -0.13536889851093292, -0.15374048054218292, 0.023743676021695137, 0.05912856385111809, 0.06287822872400284, -0.08807706087827682, -0.16759248077869415, -0.0580332987010479, -0.04159533977508545, -0.07792705297470093, -0.07202102243900299, -0.04162606596946716, -0.08128728717565536, -0.09476552158594131, -0.11238101124763489, -0.014253571629524231, 0.031237570568919182, -0.08422598987817764, -0.15929383039474487, -0.08878383785486221, -0.02584431879222393, -0.07266728579998016, 0.013497154228389263, 0.030788011848926544, -0.010746918618679047, 0.1084272488951683, 0.0581016018986702, 0.016040263697504997, -0.015103497542440891, -0.19761686027050018, -0.1788157820701599, -0.05561065673828125, -0.029094967991113663, -0.08854154497385025, -0.022726794704794884, 0.06619758903980255, 0.04569501057267189, -0.0492422878742218, 0.05101065710186958, 0.11549973487854004, -0.05235832929611206, -0.0867375060915947, -0.07689567655324936, -0.0325254425406456, -0.10020560771226883, -0.09781715273857117, -0.0618269219994545, -0.022027883678674698, 0.05712370201945305, 0.18494799733161926, 0.08028149604797363, 0.08449891954660416, -0.03942875936627388, -0.07418187707662582, -0.013223935849964619, -0.006758122239261866, -0.06481150537729263, -0.028798267245292664, 0.013169746845960617, 0.040335118770599365, -0.006317421793937683, -0.053151752799749374, 0.042804792523384094, 0.10031280666589737, 0.06825168430805206, 0.01654483564198017, -0.011787742376327515, 0.003442136337980628, -0.0036755814217031, 0.08616379648447037, 0.07469725608825684, 0.04985952004790306, 0.12330764532089233, 0.05300941690802574, 0.07729457318782806, 0.07528648525476456, 0.03311501070857048, 0.010275275446474552, -0.05212322250008583, -0.04044579714536667, 0.04125898331403732, 0.057240501046180725, 0.057829614728689194, 0.0640377551317215, 0.01763717457652092, 0.05819380655884743, 0.01650850474834442, 0.0014534755609929562, 0.04659612104296684, 0.0005263200146146119, -0.004433550406247377, -0.01411391794681549, 0.007523564621806145, 0.02511909417808056, 0.05967533960938454, -0.02503156289458275, -0.115488201379776, -0.03398289158940315, -0.015061311423778534, -0.09645246714353561, -0.029115600511431694, -0.006774804089218378, 0.060166239738464355, 0.08440295606851578, -0.020193850621581078, 0.0027934208046644926, 0.033272068947553635, -0.029780983924865723, -0.07221139967441559, -0.10934950411319733, 0.005689194891601801, -0.06551646441221237, -0.05887765437364578, -0.013553928583860397, -0.017672020941972733, -0.006333105266094208, -0.02599095180630684, -0.00880679115653038, 0.002638367936015129, -0.0040992870926856995, -0.0869714543223381, -0.006105068139731884, -0.045823801308870316, -0.03649212792515755, -0.03537643700838089, -0.02169783227145672, 0.004903251305222511, -0.01206993032246828, -0.005192403215914965, -0.001138470252044499, -0.026328925043344498, -0.023592587560415268, -0.050564754754304886, -0.020356783643364906, -0.05104248598217964, 0.000534091901499778, -0.05605672672390938, -0.02630256488919258, 0.000625168439000845, 0.02923726476728916, 0.027729054912924767, -0.04827931895852089, -0.014655143953859806, -0.033585160970687866, -0.0429471991956234, 0.008985741063952446, -0.01845400594174862, -0.04630141705274582, -0.016705797985196114, -0.009495320729911327, 0.008945958688855171, 0.05798754096031189, 0.03118099272251129, -0.01879853382706642, -0.017467515543103218, -0.02180321328341961, -0.025699611753225327, -0.032240286469459534, -0.07338221371173859, -0.09645610302686691, -0.03840533643960953, -0.04782094433903694, 0.06271480023860931, 0.030474679544568062, 0.05128331109881401, -0.009551930241286755, 0.002227888209745288, 0.00015020924911368638, -0.032689835876226425, -0.08420303463935852, -0.028538716956973076, -0.041575126349925995, -0.07189936190843582, -0.0684235543012619, 0.010605035349726677, 0.012578321620821953, 0.00843011774122715, -0.021272743120789528, -0.052105944603681564, -0.0468519888818264, -0.006212194915860891, -0.1404428333044052, -0.16582123935222626, -0.06487000733613968, -0.03897451236844063, -0.0701332688331604, -0.007779279723763466, 0.011485515162348747, 0.006682086735963821, -0.0400664247572422, -0.05533663183450699, -0.03384670987725258, 0.029161853715777397, -0.03590404614806175, -0.10044322907924652, -0.010191082954406738, -0.028914673253893852, -0.02525346912443638, -0.015872465446591377, 0.02747558057308197, 0.01800951175391674, -0.024649325758218765, -0.046968284994363785, 0.002246951451525092, 0.015343506820499897, -0.04086888208985329, 0.021083485335111618, -0.04979449510574341, -0.01763264276087284, -0.0006629587151110172, 0.0035458754282444715, 0.022373145446181297, 0.002935153665021062, 0.030257679522037506, 0.040534961968660355, -0.012502183206379414, 0.04798213765025139, 0.04129764810204506, 0.041578393429517746, 0.013726192526519299, 0.01026979461312294, 0.017107555642724037, -0.003790660761296749, 0.020332999527454376, 0.042847733944654465, 0.05690248683094978, 0.04875359684228897, 0.036810580641031265, -0.036437347531318665, -0.002467438578605652, -0.00711276289075613, 0.008937779814004898, -0.028637005016207695, -0.036589689552783966, -0.0019194106571376324, -0.02128938026726246, -0.0004804548807442188, 0.013374998234212399, -0.02056110091507435, 0.013485977426171303, -0.12960919737815857, 0.09888843446969986, -0.009249945171177387, -0.07735887914896011, -0.024096257984638214, 0.0173550583422184, 0.08141688257455826, 0.04159187152981758, -0.02814825437963009, 0.11369538307189941, 0.05078396573662758, 0.01730024255812168, -0.11278171837329865, 0.06962627917528152, -0.03552189841866493, -0.08430700749158859, -0.027628693729639053, -0.022484948858618736, -0.08166179060935974, -0.021133773028850555, -0.04873717576265335, -0.06630250811576843, -0.017098888754844666, -0.0927012488245964, -0.18388792872428894, -0.04635455459356308, -0.06067276746034622, 0.056433748453855515, -0.023666862398386, -0.05011935904622078, -0.011075293645262718, -0.04217173531651497, -0.13228411972522736, -0.20609328150749207, -0.05791410058736801, 0.0019081061473116279, -0.05541175976395607, -0.14889198541641235, 0.045822277665138245, 0.05814862251281738, -0.1222727969288826, -0.02601430006325245, -0.03789953142404556, -0.10593339800834656, -0.1776253879070282, -0.16430816054344177, 0.00260947342030704, 0.046620942652225494, -0.061000607907772064, -0.09013508260250092, -0.007128038909286261, -0.058921150863170624, -0.09661319106817245, -0.01810844987630844, -0.0877823531627655, -0.05925760045647621, -0.14653509855270386, -0.05511367321014404, -0.019703740254044533, -0.004921905230730772, -0.03698619455099106, -0.0293133482336998, -0.009770606644451618, 0.02238636277616024, -0.07161740958690643, -0.11237003654241562, -0.08588194847106934, -0.07908972352743149, -0.08741096407175064, -0.04340987652540207, 0.017522601410746574, 0.0549103245139122, -0.055135808885097504, -0.09564655274152756, -0.0245053768157959, -0.0015792996855452657, -0.06343591958284378, -0.14511965215206146, -0.08423428982496262, -0.07691898941993713, -0.06799466162919998, -0.07937189936637878, -0.05533989891409874, 0.030680345371365547, 0.09338174015283585, -0.2317161113023758, -0.1004144549369812, -0.011215080507099628, -0.06994377076625824, -0.21397507190704346, -0.16724379360675812, -0.037725917994976044, 0.005334042944014072, -0.15768615901470184, -0.10566387325525284, 0.07778200507164001, 0.06936978548765182, -0.03996054083108902, 0.04652945324778557, 0.0436718612909317, -0.12406882643699646, -0.22564272582530975, -0.2393602877855301, -0.01746583729982376, -0.032931212335824966, -0.14101871848106384, -0.018297020345926285, -0.029249992221593857, -0.019637227058410645, 0.15086975693702698, 0.0671645924448967, -0.054433949291706085, -0.19056002795696259, -0.2513708472251892, -0.24223211407661438, -0.13616755604743958, -0.12304159253835678, -0.0034952771384269, 0.00646169763058424, -0.05012756958603859, 0.06639000028371811, -0.10563509911298752, -0.11557122319936752, -0.024022554978728294, -0.11985921114683151, -0.1465623527765274, -0.12643323838710785, -0.07807943969964981, -0.07466267794370651, 0.023467522114515305, 0.015434485860168934, -0.02437889203429222, 0.03380460664629936, -0.10065445303916931, -0.027896033599972725, 0.05492338538169861, 0.06308305263519287, 0.018539948388934135, -0.014591892249882221, 0.04766065254807472, 0.008356239646673203, -0.01197180338203907, 0.05904722213745117, -0.03097071871161461, -0.179924875497818, 0.08719304949045181, 0.076023168861866, 0.03810665383934975, 0.030667219310998917, 0.07180194556713104, 0.0915849506855011, 0.09477517753839493, 0.09841062128543854, 0.14071124792099, 0.11632423102855682, 0.08426732569932938, 0.062408287078142166, 0.07279877364635468, 0.006654099095612764, -0.04459413141012192, -0.017002712935209274, 0.005825829692184925, 0.04419969394803047, 0.0688500851392746, 0.145329549908638, 0.1993047147989273, 0.12744395434856415, 0.044339437037706375, 0.016406536102294922, 0.02477998472750187, 0.007046292535960674, -0.05040332302451134, -0.13517317175865173, -0.07665576040744781, -0.0038048832211643457, 0.043784625828266144, 0.1085030809044838, 0.08695287257432938, 0.07697580009698868, 0.027074433863162994, 0.00393300736322999, 0.047492604702711105, 0.037498608231544495, -0.07838241010904312, -0.16899427771568298, -0.0651032105088234, 0.05146653577685356, 0.08613751083612442, -0.09959099441766739, -0.09433768689632416, 0.02388518676161766, 0.029595550149679184, 0.0496167317032814, 0.07118546962738037, -0.001971971010789275, -0.00805316586047411, -0.03030342236161232, 0.07743522524833679, 0.18781110644340515, 0.05023912712931633, -0.20839719474315643, -0.15822958946228027, 0.009702706709504128, 0.0530555434525013, 0.04610595107078552, 0.07154866307973862, 0.029070798307657242, 0.07694464921951294, 0.03782032057642937, 0.13989557325839996, 0.19800378382205963, -0.024879667907953262, -0.2455279380083084, -0.09721306711435318, 0.06100274249911308, 0.08601731806993484, 0.08648920804262161, 0.035775940865278244, 0.023706169798970222, 0.0501655638217926, 0.04244916886091232, 0.10450366884469986, 0.19290423393249512, -0.036810051649808884, -0.04377976432442665, 0.03250585123896599, 0.06464126706123352, 0.11848506331443787, 0.09713371098041534, -0.017298489809036255, -0.015302055515348911, 0.04134893789887428, -8.25845927465707e-05, 0.0421728789806366, 0.07566457241773605, 0.08470199257135391, 0.0705549567937851, -0.00492137810215354, -0.010385694913566113, 0.06510201096534729, 0.03996987268328667, -0.011060891672968864, 0.07658974081277847, 0.06529790908098221, 0.011343361809849739, 0.06400774419307709, 0.0483732670545578, 0.15901154279708862, -0.03670930862426758, -0.15989607572555542, -0.01721145398914814, 0.05791519582271576, -0.0009239666978828609, 0.10373643040657043, 0.06244444102048874, 0.06590873748064041, 0.13026967644691467, 0.02729768492281437, 0.039875857532024384, -0.1666664034128189, -0.3143335282802582, -0.16691753268241882, -0.03288367763161659, -0.006874436978250742, 0.06477294862270355, 0.03763488680124283, 0.00010038926848210394, 0.15063929557800293, 0.08587095141410828, -0.02514110505580902, -0.18666498363018036, -0.2082778960466385, -0.16270339488983154, -0.08720298856496811, 0.03331049904227257, 0.08360973745584488, 0.0641678050160408, 0.06796587258577347, 0.06754902005195618, 0.10779766738414764, 0.06177470460534096, 0.028379280120134354, 0.0006064228364266455, 0.022266626358032227, 0.013502798974514008, -0.0007033687434159219, 0.06030160188674927, 0.06991361826658249, 0.030672233551740646, 0.029164502397179604, 0.011238565668463707, -0.08492650836706161, -0.0776715874671936, -0.024364838376641273, -0.01524886954575777, -0.02244388498365879, 0.003231041133403778, 0.012823997996747494, -0.012475009076297283, -0.029620623216032982, -0.03398910164833069, 0.0465305894613266, 0.006335548125207424, -0.06296467781066895, -0.04911087453365326, -0.022426865994930267, -0.018715789541602135, -0.03160563483834267, -0.011611366644501686, -0.01693357527256012, -0.02129857987165451, 0.014236556366086006, -0.044230807572603226, 0.02678670920431614, 0.0017936924705281854, -0.04858989268541336, -0.06569823622703552, -0.022283924743533134, -0.012391995638608932, 0.05309490114450455, 0.013769404962658882, -0.03763188421726227, -0.031065117567777634, -0.0038966203574091196, -0.057607632130384445, -0.04462140053510666, -0.017398681491613388, -0.019039303064346313, -0.03899986669421196, -0.03095313347876072, 0.02196688763797283, 0.04400188848376274, 0.04481523856520653, -0.013986187055706978, -0.015376142226159573, -0.015772370621562004, -0.043465547263622284, -0.06457263976335526, -0.0004758347349707037, -0.044163867831230164, -0.03954225778579712, -0.036148130893707275, 0.048630859702825546, 0.06817439943552017, 0.06627605855464935, 0.0018435020465403795, 0.001960679655894637, -0.023226343095302582, -0.051494695246219635, -0.03453371301293373, -0.01466227788478136, -0.03385476768016815, -0.06152905896306038, -0.022425159811973572, 0.021436380222439766, 0.03814436495304108, 0.05382080003619194, -0.04785584285855293, -0.0047515202313661575, -0.031164372339844704, -0.06536484509706497, -0.031687699258327484, -0.059080805629491806, -0.06854335963726044, -0.03231457993388176, -0.011421416886150837, 0.00997616071254015, 0.060925066471099854, -0.02102768048644066, -0.047431208193302155, -0.06073629483580589, -0.061827365309000015, -0.04177170991897583, -0.0631384402513504, -0.07262299954891205, -0.05944335460662842, -0.0706518366932869, -0.007873838767409325, 0.02065395377576351, 0.04068201035261154, -0.01355036161839962, -0.0679321438074112, -0.05107580125331879, -0.005421975627541542, 0.04005550220608711, -0.06762601435184479, -0.051360342651605606, -0.06025285646319389, -0.01306074857711792, -0.008426202461123466, 0.05921879783272743, 0.03795380890369415, -0.0019212279003113508, -0.0064172204583883286, 0.0019621585961431265, 0.01873532310128212, 0.10220295935869217, 0.010940664447844028, -0.011999622918665409, -0.029875267297029495, -0.0006723582046106458, 0.0003174488083459437, 0.022374164313077927, 0.007953675463795662, 0.0036400877870619297, 0.007851259782910347, 0.018880702555179596, -0.005775073077529669, 0.06386644393205643, -0.017495641484856606, -0.026192791759967804, 0.020789705216884613, 0.0025027324445545673, 0.006062498316168785, -0.009273301810026169, -0.017231987789273262, -0.019760265946388245, 0.0033422065898776054, 0.017034020274877548, -0.016893597319722176, -0.028300410136580467, 0.057352155447006226, -0.006707875058054924, -0.023233743384480476, -0.028068097308278084, -0.05126066505908966, -0.07734799385070801, -0.08135653287172318, -0.10673072189092636, -0.04023798182606697, -0.032343361526727676, -0.07897552847862244, -0.08245230466127396, 0.021475227549672127, 0.05675816163420677, 0.0014312687562778592, -0.06967227160930634, -0.02418421022593975, 0.005941865500062704, 0.03202491253614426, 0.01646515727043152, -0.018328407779335976, 0.04153168573975563, 0.0177886001765728, -0.0042797597125172615, 0.02884884737432003, 0.06436043977737427, -0.06952767074108124, -0.06447885930538177, -0.009856412187218666, 0.009804054163396358, 0.030194634571671486, 0.004850225523114204, 0.037402622401714325, 0.002461113967001438, 0.00013671081978827715, -0.05541963130235672, 0.03438391909003258, 0.0027062001172453165, -0.034467827528715134, -0.015907377004623413, -0.03911937028169632, -0.04347636178135872, 0.0070621175691485405, 0.007002852391451597, 0.0011708935489878058, -0.02504141256213188, 0.010405159555375576, -0.029928097501397133, 0.006062638945877552, -0.03689420968294144, 0.007443797308951616, -0.020776037126779556, -0.014781744219362736, -0.01690361090004444, 0.06448549032211304, 0.031085243448615074, 0.015345356427133083, -0.01242033764719963, 0.01286632101982832, -0.07740283757448196, -0.010296924971044064, -0.05425609275698662, -0.005591200198978186, -0.028689885511994362, -0.004597334656864405, 0.03162253648042679, 0.06101519241929054, 0.05043485388159752, -0.013216179795563221, 0.013293471187353134, -0.0006019317079335451, -0.08801699429750443, 0.04947087541222572, -0.02174256183207035, -0.05119161680340767, -0.06478379666805267, -0.04705213010311127, 0.050208281725645065, 0.05048217996954918, 0.040703270584344864, -0.0038428641855716705, -0.008262877352535725, -0.025608306750655174, -0.06260155886411667, 0.04662390798330307, -0.04103541001677513, -0.06779591739177704, -0.050656095147132874, -0.07671872526407242, 0.03327420353889465, 0.044666267931461334, 0.01841794140636921, -0.04165635630488396, -0.058018818497657776, -0.04444638639688492, -0.038472335785627365, -0.04177882522344589, -0.10713372379541397, -0.07263801246881485, -0.04455973953008652, -0.04629775881767273, 0.010765903629362583, 0.07666657865047455, -0.004573422018438578, -0.06323406845331192, -0.05053669959306717, -0.023176472634077072, 0.05891529843211174, -0.026234658434987068, -0.0659385398030281, -0.014618433080613613, -0.05247783288359642, 0.0004632400523405522, 0.04491659626364708, 0.05533747747540474, -0.013217437081038952, -0.02604331634938717, -0.02856280282139778, 0.0008584578172303736, 0.0770343691110611, 0.024000251665711403, -0.02805251069366932, -0.020094139501452446, -0.017931269481778145, -0.011997243389487267, 0.030669720843434334, 0.041177231818437576, 0.011101856827735901, 0.008612236008048058, -0.0060931118205189705, -0.018474265933036804, 0.07582048326730728, 0.08115364611148834, 0.007023902609944344, -0.035336922854185104, -0.005848225671797991, -2.4270899302791804e-05, 0.029550695791840553, 0.015505283139646053, -0.001712926896288991, 0.003498147474601865, 0.045966193079948425, -0.03607472777366638, 0.04725853353738785, -0.006939183454960585, -0.0288557056337595, -0.03639153391122818, -0.002726495498791337, 0.0021763849072158337, -0.018330078572034836, -0.032675642520189285, -0.06406977027654648, 0.02075902186334133, 0.03573274984955788, -0.03769996017217636, -0.04348103329539299, 0.09961473941802979, -0.02485637366771698, -0.048381756991147995, 0.021730970591306686, 0.09334074705839157, 0.12832748889923096, 0.04077122360467911, 0.09491993486881256, 0.17449405789375305, 0.10494192689657211, -0.1226983442902565, -0.012618512846529484, 0.07448574155569077, -0.06314879655838013, -0.13013853132724762, 0.028566133230924606, 0.07250981032848358, 0.07489818334579468, 0.0862853080034256, 0.25052115321159363, 0.26631757616996765, 0.21689793467521667, -0.10237007588148117, -0.020458132028579712, 0.031210746616125107, 0.007338447030633688, -0.038556504994630814, -0.026205647736787796, 0.009036802686750889, 0.022572338581085205, 0.0883280485868454, 0.16983315348625183, 0.009708600118756294, -0.00755604961887002, -0.1430974155664444, -0.07048200815916061, -0.02947005070745945, 0.005441139917820692, -0.07692167907953262, -0.04500176012516022, -0.021288815885782242, 0.031235268339514732, 0.10063312947750092, 0.05987999588251114, -0.16091406345367432, -0.1502893716096878, -0.1334710717201233, 0.0017788438126444817, -0.035205624997615814, 0.00840286910533905, -0.02161823958158493, -0.08338919281959534, -0.023833468556404114, 0.03235829994082451, 0.13500042259693146, 0.07318037003278732, -0.05345999076962471, -0.15969474613666534, -0.13180707395076752, -0.007875299081206322, -0.057115666568279266, -0.1112094521522522, -0.047435205429792404, -0.09778418391942978, 0.009834373369812965, 0.08728557080030441, 0.06609976291656494, 0.069569431245327, 0.11741654574871063, -0.0072315409779548645, -0.07004271447658539, 0.05552341789007187, 0.02436598390340805, -0.1340256631374359, -0.047208014875650406, -0.09508661925792694, -0.017202936112880707, 0.1528378427028656, 0.07672867923974991, 0.028952056542038918, 0.10051989555358887, -0.1051236167550087, 0.02628271095454693, 0.061071693897247314, -0.2147505283355713, -0.09697183966636658, -0.09824680536985397, -0.10444704443216324, -0.0023618440609425306, 0.2792738974094391, 0.21232230961322784, -0.18276849389076233, -0.22843490540981293, -0.25361549854278564, 0.0743865892291069, 0.07532305270433426, -0.07685056328773499, -0.06750866770744324, -0.07353908568620682, -0.07877819985151291, 0.014251059852540493, 0.2498781383037567, 0.11724432557821274, -0.08695553988218307, -0.1386677324771881, -0.027357347309589386, 0.08152127265930176, 0.0548822395503521, -0.03166764974594116, -0.0649213120341301, -0.05449444800615311, -0.03235326707363129, 0.021837856620550156, 0.13224463164806366, 0.07527551800012589, 0.04264838621020317, 0.0791798084974289, 0.08743491768836975, 0.13141490519046783, 0.16765950620174408, 0.005259915720671415, -0.014710756950080395, 0.0021137786097824574, 0.051986802369356155, 0.06861335039138794, 0.07391800731420517, 0.0013539002975448966, 0.06707160174846649, 0.10380823165178299, 0.05618168041110039, 0.1088632196187973, 0.14826850593090057, 0.053060512989759445, -0.017269020900130272, 0.01970895193517208, 0.034385886043310165, 0.030497491359710693, 0.06587819010019302, -0.03467653691768646, 0.05968373641371727, 0.13824594020843506, -0.08571445941925049, -0.06595683842897415, -0.00912602711468935, 0.04826108738780022, 0.039829324930906296, 0.050068385899066925, 0.06302334368228912, 0.02376491203904152, 0.007961972616612911, 0.006329187657684088, 0.015628140419721603, 0.02882910519838333, 0.022607220336794853, 0.046107858419418335, 0.048518963158130646, 0.05869840085506439, 0.06745902448892593, 0.07437873631715775, 0.06746871024370193, 0.02103877067565918, -0.02056606486439705, -0.003167073940858245, -0.008906923234462738, -0.004631191026419401, 0.020320184528827667, 0.016927385702729225, 0.03484891727566719, 0.03829796612262726, 0.06683699786663055, 0.07849793136119843, -0.02640121802687645, -0.009347563609480858, -0.020784443244338036, -0.01745668426156044, -0.038112010806798935, 0.0017068689921870828, 0.02996065281331539, -0.0018998984014615417, 0.005055708345025778, 0.06024402379989624, 0.06681589037179947, 0.0427548848092556, -0.05305323004722595, -0.026917727664113045, -0.03165910392999649, 0.005239286459982395, 0.01416491623967886, -0.011898811906576157, 0.012287426739931107, 0.012359424494206905, -0.0005830366280861199, 0.05306218937039375, 0.057755518704652786, 0.024409092962741852, -0.03755372017621994, -0.052187517285346985, -0.01948493905365467, 0.051719024777412415, 0.04359501227736473, 0.013417152687907219, -0.011943859048187733, 0.00781162129715085, 0.03152862936258316, 0.05201217159628868, 0.04466778784990311, 0.04127001389861107, -0.06898540258407593, -0.1005687564611435, -0.027006860822439194, 0.051730167120695114, 0.04063908010721207, -0.0242056455463171, 0.005156417842954397, 0.008034121245145798, 0.02759907953441143, 0.046184293925762177, 0.04299428313970566, 0.0015335700009018183, -0.009288288652896881, -0.07263809442520142, 0.038315221667289734, 0.019887132570147514, -0.0004700159770436585, -0.048299022018909454, -0.060180626809597015, -0.00880925077944994, 0.02518012933433056, 0.054497867822647095, 0.03152516111731529, -0.03405768424272537, -0.06624532490968704, -0.08485007286071777, 0.0055125099606812, 0.03499183431267738, 0.002539803506806493, -0.05916545167565346, -0.014443697407841682, 0.006998115684837103, 0.06834276020526886, 0.019752610474824905, -0.020247455686330795, -0.03772891312837601, -0.040116336196660995, -0.01680978760123253, -0.01624397374689579, 0.0172450989484787, -0.02656077966094017, -0.0038343609776347876, -0.004667188972234726, 0.03724251314997673, 0.09480123966932297, 0.08687757700681686, 0.015722284093499184, 0.010698067024350166, -0.021355697885155678, 0.01022331789135933, 0.011014468036592007, -0.01324707455933094, -0.005589495878666639, 0.03930748999118805, 0.04899723455309868, 0.053797055035829544, 0.06485551595687866, 0.04989029839634895, 0.05294747278094292, 0.03237893804907799, -0.012748342007398605, 0.012389689683914185, -0.008189419284462929, 0.006281060632318258, 0.01662096008658409, 0.06757055222988129, 0.0809623971581459, 0.04367664456367493, 0.061326105147600174, 0.04689204320311546, 0.04100726172327995, -0.0007624644204042852, 0.01976904645562172, -0.00727877439931035, -0.0032630236819386482, 0.0008426551939919591, -0.015208047814667225, 0.0387880802154541, 0.07685760408639908, 0.03281717747449875, 0.044671330600976944, 0.11904682964086533, 0.05243285000324249, 0.020305955782532692, -0.02252836339175701, -0.08006531745195389, -0.03157978132367134, -0.02238927222788334, 0.012720664031803608, -0.009414496831595898, 0.014515083283185959, 0.008543776348233223, -0.03352866321802139, 0.030565718188881874, 0.009151149541139603, 0.005681087262928486, 0.00035480171209201217, -0.05346227437257767, -0.047817446291446686, -0.03723324090242386, -0.020178308710455894, -0.02536456659436226, 0.0058523546904325485, -0.0055001056753098965, -0.052186787128448486, 0.018056439235806465, -0.0007592647452838719, 0.05914057791233063, 0.021195298060774803, -0.02491374872624874, -0.036393050104379654, 0.03268101066350937, 0.0009852995863184333, -0.007749659940600395, -0.012441477738320827, -0.001256149960681796, -0.08611110597848892, -0.09675615280866623, 0.01590580865740776, 0.003480390179902315, 0.015291043557226658, -0.0510832741856575, -0.0681699886918068, -0.0005209692753851414, -0.004296405240893364, -0.06213138997554779, -0.06991542875766754, 0.018057996407151222, -0.07171574234962463, 0.000738943403121084, 0.07244923710823059, -0.01904532127082348, -0.05583656579256058, -0.10091260820627213, -0.08876026421785355, 0.00658789649605751, -0.006464462261646986, -0.07969629019498825, -0.07310285419225693, -0.0023826141841709614, -0.05097757279872894, -0.01810704544186592, -0.027626657858490944, 0.00525469658896327, -0.04806419834494591, -0.16621005535125732, -0.09364205598831177, 0.015150405466556549, -0.020774690434336662, -0.057949233800172806, -0.07466966658830643, -0.08781401813030243, -0.10046108067035675, 0.0022535540629178286, -0.037794310599565506, -0.03843507170677185, -0.07541383802890778, -0.15600693225860596, 0.04248920455574989, 0.018696732819080353, 0.004619542509317398, -0.0741099938750267, -0.02818123623728752, -0.02666987106204033, -0.015463318675756454, -0.16572058200836182, -0.05926193296909332, -0.0454726368188858, -0.0736551582813263, -0.07958053797483444, -0.023398468270897865, 0.02551521174609661, -0.01343317236751318, -0.03177666291594505, -0.02523992769420147, 0.015103979967534542, 0.06965208053588867, 0.1322634369134903, 0.07581653445959091, 0.021702779456973076, 0.0022999299690127373, 0.03489285334944725, 0.02212187647819519, 0.0684497132897377, -0.032338518649339676, 0.002404318191111088, 0.0479983314871788, 0.014283871278166771, 0.0710865780711174, 0.10362817347049713, 0.046881742775440216, 0.009762815199792385, -0.06636223942041397, -0.023877114057540894, -0.03266372159123421, -0.026213807985186577, -0.05132622271776199, 0.004228448960930109, -0.00570149440318346, -0.04887436702847481, -0.013197592459619045, -0.06409277021884918, -0.11108005046844482, -0.09726106375455856, -0.09809945523738861, -0.02967163547873497, -0.10486485064029694, -0.07200939953327179, -0.12913087010383606, -0.044119253754615784, 0.04365380108356476, -0.039799630641937256, 0.03840310871601105, -0.0011105468729510903, 0.07051119208335876, 0.051851291209459305, 0.028773941099643707, -0.05906180292367935, -0.017797373235225677, -0.022367091849446297, 0.009450554847717285, 0.03952631726861, 0.09126106649637222, -0.056223608553409576, -0.04909372702240944, 0.08888290077447891, 0.016574954614043236, -0.03759158402681351, -0.002099535893648863, -0.047143224626779556, 0.040400221943855286, -0.05444534122943878, -0.03488198667764664, -0.01570325531065464, 0.008423193357884884, -0.029140833765268326, -0.11867345124483109, 0.10239947587251663, 0.031855177134275436, -0.030815962702035904, 0.014709041453897953, -0.028023619204759598, -0.032731086015701294, -0.04668141528964043, -0.054952967911958694, -0.06425682455301285, -0.03988017141819, -0.024163516238331795, -0.010868260636925697, -0.01055182795971632, 0.06378969550132751, -0.03765523061156273, -0.031563155353069305, -0.08253490924835205, -0.07843728363513947, -0.09396997839212418, -0.06207030266523361, -0.09581902623176575, -0.042688217014074326, -0.0429370142519474, -0.09032051265239716, -0.04381059110164642, 0.009072387591004372, 0.006746040657162666, 0.02016553469002247, -0.04274536296725273, 0.02049582451581955, -0.010710036382079124, -0.1074768677353859, -0.0895230695605278, -0.0797649547457695, -0.08701492846012115, -0.13355037569999695, -0.04105973616242409, -0.06972146779298782, -0.04431029409170151, -0.07531681656837463, -0.07703973352909088, 0.045569151639938354, -0.011807186529040337, -0.07166591286659241, -0.10639481246471405, -0.0911840870976448, -0.029116405174136162, -0.05006913095712662, 0.07322920858860016, -0.0853378176689148, 0.06393105536699295, -0.09814098477363586, -0.06792707741260529, 0.009254987351596355, -0.07387229055166245, -0.12677589058876038, -0.22267653048038483, -0.13950492441654205, -0.06376735121011734, -0.006979931145906448, -0.004877110477536917, -0.12193772941827774, -0.019163938239216805, -0.08154773712158203, -0.09230110049247742, -0.030123364180326462, -0.1129796952009201, -0.16595080494880676, -0.23263996839523315, -0.21873019635677338, -0.07551037520170212, -0.08270889520645142, -0.1872955858707428, -0.08397786319255829, -0.05057404935359955, -0.10460969060659409, -0.12024133652448654, -0.03281548246741295, -0.08875671029090881, -0.1130695566534996, -0.17101837694644928, -0.06127707287669182, 0.06319326907396317, 0.03694857656955719, -0.04943178966641426, -0.04585447907447815, -0.037299882620573044, 0.019570909440517426, -0.03257662430405617, -0.026360908523201942, -0.039273589849472046, -0.0813009962439537, -0.006469773594290018, 0.08202239125967026, 0.07761683315038681, 0.06887275725603104, 0.08429449051618576, 0.03768462315201759, 0.04864639416337013, 0.04611531272530556, -0.004901702515780926, 0.01548516470938921, -0.02310769259929657, 0.015417661517858505, 0.07371271401643753, 0.06563231348991394, 