{"layer1.0.weight": [[[[0.4141302704811096, 0.22599884867668152, -0.24946993589401245, -0.2509526312351227, -0.5619075894355774], [0.45247671008110046, -0.004456746391952038, -0.4074667990207672, -0.8233609795570374, -0.40672925114631653], [0.3629555404186249, -0.6451881527900696, -0.8917451500892639, -0.26604393124580383, 0.30168306827545166], [-0.34772631525993347, -0.6186530590057373, -0.3909521698951721, 0.3275667130947113, 0.30608779191970825], [-0.07693078368902206, 0.08245164155960083, 0.40618932247161865, 0.4363735020160675, 0.37459322810173035]]], [[[-0.0723925530910492, -0.009225918911397457, 0.10969113558530807, 0.02650780789554119, 0.18366803228855133], [0.20418612658977509, 0.18962331116199493, 0.32820925116539, 0.1384568214416504, 0.15281061828136444], [-0.02968461625277996, 0.3175773322582245, 0.3856106996536255, 0.24210242927074432, 0.5047107934951782], [-0.47036731243133545, -0.4281516373157501, -0.16465845704078674, 0.21817415952682495, 0.00690184673294425], [-0.25487422943115234, -0.5758635997772217, -0.7208643555641174, -0.8666156530380249, -0.5320432186126709]]], [[[0.11910977959632874, 0.3280186653137207, 0.08871050179004669, -0.20012909173965454, -0.39464616775512695], [0.2315044105052948, 0.24406923353672028, 0.23684583604335785, -0.5032591819763184, -0.4562738835811615], [0.13024571537971497, 0.504449725151062, -0.11366887390613556, -0.46149134635925293, -0.43296724557876587], [0.38294026255607605, 0.2651529312133789, -0.2572576403617859, -0.6401098966598511, -0.23039241135120392], [0.3415296971797943, -0.05181634798645973, -0.5432642698287964, -0.5268970727920532, -0.27053937315940857]]], [[[0.07246066629886627, -0.06527464836835861, 0.22740362584590912, 0.3220929503440857, 0.1655617654323578], [0.31745123863220215, 0.371712863445282, 0.2500118315219879, 0.23370561003684998, 0.34081876277923584], [-0.1660500466823578, 0.001665388117544353, -0.15096788108348846, -0.21180516481399536, -0.28200265765190125], [-0.3795672655105591, -0.6342512369155884, -0.6459059119224548, -0.6161066293716431, -0.4213736057281494], [0.11234736442565918, 0.27555471658706665, 0.21087530255317688, 0.2922618091106415, 0.16002948582172394]]], [[[0.22906480729579926, 0.016574468463659286, -0.07592780143022537, 0.0038154779467731714, 0.12218635529279709], [0.11871781200170517, 0.227997824549675, 0.0255535077303648, 0.019382422789931297, 0.09767024964094162], [0.05342559516429901, -0.015737129375338554, -0.1614154428243637, -0.02318255603313446, -0.05716169252991676], [-0.19512787461280823, 0.020155271515250206, 0.21700982749462128, 0.18356241285800934, 0.10183604061603546], [0.08215080946683884, -0.03439197316765785, 0.1413184106349945, 0.07606559246778488, -0.12344472855329514]]], [[[0.04547679424285889, 0.27053940296173096, 0.16962437331676483, -0.07509582489728928, -0.3196433484554291], [0.09913897514343262, 0.3765731751918793, 0.02410556562244892, -0.31263813376426697, -0.2320553958415985], [0.20492756366729736, -0.0033567496575415134, 0.0731186494231224, -0.0865899994969368, -0.13175033032894135], [-0.31469103693962097, -0.28448086977005005, 0.13297097384929657, 0.12794652581214905, 0.2686040699481964], [-0.36861613392829895, -0.2091701626777649, 0.31041571497917175, 0.05644606053829193, 0.2579580545425415]]], [[[0.23604904115200043, 0.47848212718963623, 0.3934659957885742, -0.20699425041675568, -0.46850091218948364], [0.5487673878669739, 0.26517927646636963, -0.324795663356781, -0.5726772546768188, -0.5055949091911316], [0.021242354065179825, -0.74578458070755, -0.7848773002624512, -0.7513043284416199, 0.12264596670866013], [-0.677674412727356, -0.8731003999710083, -0.333835244178772, -0.03797552362084389, 0.46703284978866577], [-0.5489308834075928, -0.1347033977508545, -0.015809455886483192, 0.12313081324100494, 0.40208128094673157]]], [[[-0.14180676639080048, -0.004591699223965406, 0.2018374502658844, 0.1082557737827301, 0.1831035614013672], [0.15268433094024658, 0.04826008155941963, 0.009398594498634338, -0.17523160576820374, -0.0008219400770030916], [-0.1487291306257248, 0.16306191682815552, 0.07114069163799286, 0.006099955178797245, 0.1402091532945633], [0.20022627711296082, 0.09846056252717972, 0.10821176320314407, -0.07813092321157455, 0.10261388123035431], [-0.1593131422996521, -0.004293585661798716, 0.05952777341008186, 0.14465488493442535, 0.03446531295776367]]], [[[-0.09682907164096832, 0.11678210645914078, -0.043596282601356506, 0.1608991026878357, -0.16922186315059662], [0.014377343468368053, 0.13019125163555145, 0.16503554582595825, 0.04287709295749664, 0.05791785940527916], [-0.005483598913997412, -0.08037212491035461, 0.16749650239944458, 0.0014809032436460257, 0.09093360602855682], [-0.11277767270803452, 0.16036902368068695, 0.12467008829116821, 0.044390421360731125, 0.07175450026988983], [0.08911585062742233, 0.1331363022327423, 0.17003141343593597, 0.029412945732474327, -0.03994740918278694]]], [[[-0.0035659545101225376, -0.16775771975517273, 0.14751724898815155, 0.18175026774406433, 0.35154327750205994], [-0.37777179479599, -0.3306274712085724, 0.14824430644512177, 0.41607949137687683, 0.45739901065826416], [-0.4121709167957306, -0.4999535381793976, -0.2449820637702942, 0.1659165322780609, 0.22198347747325897], [-0.487471342086792, -0.3986663222312927, -0.19631409645080566, 0.307934045791626, 0.3449016809463501], [-0.5360218286514282, -0.6065343618392944, -0.40411436557769775, 0.10688095539808273, 0.4393651783466339]]], [[[-0.007293292786926031, -0.15132775902748108, 0.1522764265537262, -0.124341681599617, 0.051471736282110214], [0.029624395072460175, 0.0380721241235733, 0.09188680350780487, -0.11220823973417282, -0.36246201395988464], [0.06359504908323288, 0.1342916488647461, 0.19805221259593964, 0.10854348540306091, -0.21111424267292023], [-0.01910591870546341, -0.1539168655872345, 0.12214679270982742, 0.08041734993457794, 0.09550546854734421], [-0.043100468814373016, -0.2567037045955658, -0.002807731507346034, -0.04028969630599022, -0.002913171425461769]]], [[[-0.05460043624043465, 0.05010074004530907, 0.13545674085617065, 0.07030238211154938, -0.1823372095823288], [-0.29651859402656555, -0.07261697202920914, 0.19576513767242432, -0.16000954806804657, -0.2701677978038788], [-0.26838597655296326, 0.09192828088998795, 0.1436307579278946, -0.148945152759552, -0.2506406009197235], [0.07947194576263428, 0.15158213675022125, -0.11949361860752106, 0.1495201736688614, -0.1150633841753006], [0.14968132972717285, 0.1348731517791748, 0.10016188025474548, 0.23692747950553894, 0.1436695158481598]]], [[[-0.12988874316215515, -0.21431580185890198, -0.2587084174156189, -0.21738196909427643, -0.2997417747974396], [-0.1564503014087677, 0.19110146164894104, 0.02312197908759117, -0.02987617626786232, 0.04715576395392418], [0.28466230630874634, 0.09471838176250458, 0.3426818251609802, 0.15718510746955872, -0.19241422414779663], [0.19177572429180145, 0.23048335313796997, -0.06249629333615303, 0.2017594426870346, 0.1542031317949295], [-0.18749183416366577, -0.35704943537712097, -0.23813645541667938, 0.19374768435955048, 0.041978444904088974]]], [[[0.05159394070506096, -0.007958418689668179, 0.14720892906188965, 0.1063104048371315, -0.35072624683380127], [0.1520136147737503, 0.010992318391799927, -0.11113852262496948, 0.15087801218032837, -0.03795202821493149], [-0.198704332113266, -0.1218099445104599, -0.1278233379125595, 0.012975822202861309, 0.2592804729938507], [-0.004239559639245272, 0.17743083834648132, 0.15955016016960144, 0.061370015144348145, 0.33239156007766724], [-0.00115569110494107, -0.02265162207186222, -0.09697327017784119, -0.4037899672985077, -0.179188534617424]]], [[[0.021992484107613564, -0.1259375959634781, -0.2003379464149475, -0.1286882907152176, -0.030677713453769684], [-0.09309669584035873, -0.40114066004753113, -0.41609182953834534, -0.18977458775043488, -0.48523762822151184], [0.21599853038787842, -0.11836228519678116, -0.23381011188030243, -0.2269785851240158, -0.1750204712152481], [0.2963530719280243, 0.3585833013057709, 0.46447527408599854, 0.1646616905927658, 0.11718675494194031], [0.04922523349523544, 0.29931876063346863, 0.21656309068202972, 0.3364879786968231, 0.13565693795681]]], [[[0.09801344573497772, 0.4419088065624237, 0.29083365201950073, -0.18207529187202454, -0.37443557381629944], [0.20533420145511627, 0.32370421290397644, 0.22245629131793976, -0.3637985289096832, -0.42901766300201416], [0.2307589203119278, 0.3936766982078552, 0.17469190061092377, -0.42791488766670227, -0.49119484424591064], [0.15119284391403198, 0.15634669363498688, 0.13662834465503693, -0.10298973321914673, -0.22582240402698517], [0.3026795983314514, 0.1267576515674591, 0.29348260164260864, -0.2197512984275818, -0.14063917100429535]]]], "layer1.0.bias": [-0.008545132353901863, 0.006172944325953722, 0.11921785026788712, -0.0070430813357234, -0.21533115208148956, -0.09671442955732346, 0.19176065921783447, -0.16723892092704773, -0.21868830919265747, 0.0023153808433562517, 0.07193168997764587, -0.0661260262131691, -0.005686421878635883, -0.014755952171981335, -0.02791263535618782, -0.2473307102918625], "fc.weight": [[-0.05789497494697571, 0.01804155483841896, 0.028579428791999817, -0.05281062424182892, -0.009901648387312889, 0.03289526328444481, 0.032229337841272354, 0.04558340460062027, -0.0018105669878423214, -0.018710125237703323, -0.059094902127981186, -0.1502319872379303, 0.007845317013561726, 0.015736086294054985, -0.042001061141490936, -0.03991822525858879, -0.04447401314973831, -0.04680328071117401, -0.03284313529729843, -0.0876445472240448, -0.12305350601673126, -0.11089105159044266, -0.1766178011894226, -0.07856042683124542, 0.01760704629123211, 0.014141617342829704, -0.027011793106794357, -0.015617497265338898, -0.05485639348626137, -0.014306054450571537, -0.013812211342155933, -0.09036953002214432, -0.2151438146829605, -0.2423945516347885, -0.33205142617225647, -0.1079883798956871, 0.0064756800420582294, 0.03203165531158447, -0.06490304321050644, -0.07286446541547775, 0.021046703681349754, -0.013373098336160183, -0.15072393417358398, -0.2689201235771179, -0.2515765130519867, -0.32119020819664, -0.23619678616523743, -0.05173896998167038, -0.015114421024918556, -0.0038043942768126726, 0.030475175008177757, 0.10175119340419769, 0.040212780237197876, -0.0856509730219841, -0.15489177405834198, -0.224012091755867, -0.21337425708770752, -0.19174344837665558, -0.14927056431770325, -0.0350857712328434, -0.05120791494846344, -0.009047823026776314, 0.13159792125225067, 0.1381717175245285, -0.048245009034872055, -0.1643500030040741, -0.09789571911096573, -0.07480485737323761, -0.06984874606132507, 0.020312776789069176, -0.04160258173942566, 0.07214149087667465, 0.043537382036447525, -0.04622416943311691, 0.022643394768238068, 0.12346404045820236, 0.04781368747353554, 0.02002699114382267, -0.02121269702911377, -0.04038967192173004, 0.03625135123729706, 0.07109640538692474, 0.014455455355346203, 0.02661016583442688, 0.027734261006116867, -0.09137547016143799, -0.18346798419952393, 0.0061456686817109585, 0.018226729705929756, 0.04674592614173889, 0.07950612902641296, 0.002126047620549798, 0.07865630090236664, 0.1004471480846405, 0.03336094319820404, 0.09771780669689178, -0.018029119819402695, -0.18619826436042786, -0.23215915262699127, 0.0023412269074469805, 0.08828099071979523, 0.09886819124221802, 0.04366728290915489, 0.08503324538469315, 0.038839925080537796, 0.05719073489308357, 0.011179904453456402, 0.03169162943959236, -0.14830850064754486, -0.2731305956840515, -0.3284655511379242, -0.07734359055757523, 0.045896079391241074, 0.04233241826295853, 0.12035318464040756, 0.10879282653331757, 0.11910507827997208, 0.08550848811864853, 0.048891935497522354, 0.0321846641600132, -0.09174924343824387, -0.1979963183403015, -0.4704612195491791, -0.22394594550132751, -0.2013016790151596, -0.011053626425564289, 0.0054739792831242085, 0.02621016837656498, 0.026001669466495514, 0.0271975826472044, -0.04329837113618851, -0.04177074134349823, 0.03080606460571289, -0.1844378113746643, -0.16103406250476837, -0.1703881174325943, -0.05290670320391655, -0.036674775183200836, -0.11978136748075485, -0.08260658383369446, -0.032649844884872437, -0.0052382792346179485, -0.09512093663215637, -0.06007629260420799, 0.03642920404672623, 0.010112911462783813, 0.011694668792188168, 0.015582175925374031, -0.06056598573923111, -0.022931715473532677, 0.07191886007785797, 0.0934872031211853, 0.06229756399989128, 0.050394926220178604, 0.029814893379807472, 0.042761195451021194, -0.006275334861129522, -0.074419766664505, -0.1534012258052826, -0.2870498597621918, -0.25116363167762756, -0.1039704829454422, -0.018543217331171036, -0.003464549081400037, -0.011774517595767975, 0.008441543206572533, -0.0018889710772782564, -0.03259309008717537, 0.01819440722465515, -0.018055852502584457, -0.12868407368659973, -0.24649247527122498, -0.19289548695087433, -0.06198882684111595, -0.00976621825248003, 0.04428372159600258, -0.037339646369218826, 0.04848907142877579, 0.09442795813083649, -0.011264643631875515, 0.0005229788366705179, -0.11719586700201035, -0.05683479458093643, -0.0804348886013031, -0.07305515557527542, -0.08031740039587021, -0.08781147003173828, -0.09904612600803375, -0.09044411778450012, -0.10352480411529541, -0.014953586272895336, -0.046359263360500336, 0.05068410560488701, -0.15188632905483246, -0.09910719841718674, -0.08764152228832245, -0.09398990124464035, -0.028730608522892, 0.02925584651529789, -0.084734708070755, -0.14979898929595947, -0.21352159976959229, -0.1648789644241333, -0.07951468974351883, -0.022933723405003548, -0.15708309412002563, -0.24452471733093262, -0.24492058157920837, -0.08045852184295654, -0.11467930674552917, -0.12510710954666138, -0.07824823260307312, -0.04404192790389061, -0.04490713030099869, -0.10635484009981155, -0.10238997638225555, -0.047225143760442734, -0.08441461622714996, -0.17651425302028656, -0.1818588227033615, -0.08925394713878632, -0.2641158699989319, -0.35207438468933105, -0.16379082202911377, 0.015517337247729301, 0.0032467208802700043, 0.021821489557623863, 0.00037721561966463923, 0.042132023721933365, -0.04497072100639343, -0.059251200407743454, -0.08027371019124985, -0.22824324667453766, -0.3051086962223053, -0.18212974071502686, -0.0023607690818607807, 0.04914364218711853, 0.03374317288398743, 0.03781604394316673, 0.007033397443592548, 0.015392020344734192, -0.06918958574533463, -0.03060559183359146, 0.02447684109210968, 0.01804528199136257, 0.0050009130500257015, 0.12361475080251694, 0.09583088755607605, 0.050603218376636505, 0.03992228955030441, -0.020549433305859566, -0.09119465202093124, 0.0475117489695549, 0.025832833722233772, -0.06312316656112671, 0.004821394104510546, 0.01982356235384941, 0.03549260273575783, 0.035921066999435425, -0.050832055509090424, -0.0592755526304245, -0.05870514735579491, -0.09927433729171753, -0.10038748383522034, 0.01778940111398697, 0.014057700522243977, 0.04974682256579399, 0.06709501147270203, 0.07986713200807571, 0.06642481684684753, 0.028536289930343628, -0.01695825904607773, -0.050944600254297256, -0.03963811323046684, -0.06761143356561661, -0.0809752568602562, 0.004202866926789284, -0.025943826884031296, 0.011777211911976337, -0.07306891679763794, 0.0008377309422940016, -0.006648391950875521, -0.05702286958694458, -0.05930501967668533, -0.10001729428768158, -0.15759463608264923, -0.08694648742675781, -0.06435080617666245, -0.00754355126991868, 0.0018625258235260844, -0.016891049221158028, -0.009439123794436455, -0.05689159408211708, -0.007453267928212881, -0.02314765192568302, -0.02854534052312374, -0.06790270656347275, -0.0074004800990223885, -0.010905810631811619, 0.009156891144812107, -0.0029373939614742994, 0.0003474504337646067, -0.02001084014773369, -0.07204356789588928, -0.08025018125772476, -0.09059784561395645, -0.05487927794456482, -0.05549765005707741, -0.054316673427820206, -0.09681107848882675, -0.049209948629140854, 0.009838632307946682, 0.01690414361655712, -0.020002983510494232, -0.05197557434439659, -0.11153457313776016, -0.07959555834531784, -0.046234361827373505, -0.022868245840072632, -0.10541146993637085, -0.06035302206873894, -0.07543929666280746, -0.029912268742918968, 0.055528659373521805, 0.004464040044695139, -0.0045668031089007854, 0.012568854726850986, -0.09758982807397842, 0.10790740698575974, 0.04666813835501671, -0.018528209999203682, -0.033707648515701294, -0.014614916406571865, 0.0022757442202419043, 0.002074235351756215, 0.09866610169410706, -0.001236261217854917, -0.0030500562861561775, -0.010011170990765095, 0.0969524011015892, 0.11969984322786331, 0.05813891813158989, 0.12741146981716156, 0.030644841492176056, 0.024298083037137985, -0.0009603536454960704, 0.04166414588689804, 0.08685929328203201, 0.027704397216439247, 0.054058708250522614, 0.07457482069730759, 0.13541759550571442, 0.13626927137374878, 0.1415586769580841, 0.17968624830245972, 0.052756164222955704, 0.07519005984067917, 0.04797813668847084, 0.032203998416662216, 0.07187513262033463, 0.03031374327838421, 0.07957050949335098, 0.12383317947387695, 0.15550129115581512, 0.12324202805757523, 0.17099270224571228, 0.12321880459785461, 0.0525265671312809, 0.06947126984596252, 0.04899356886744499, 0.030206535011529922, 0.04550236463546753, -0.006510967388749123, 0.06067436933517456, 0.07958608865737915, 0.12986578047275543, 0.10337340086698532, 0.19659379124641418, -0.001751513802446425, 0.07313886284828186, 0.11517506092786789, 0.04114152491092682, 0.024231616407632828, 0.04383730888366699, 0.0042627910152077675, 0.02146114967763424, 0.030535610392689705, 0.10916874557733536, 0.07298891246318817, 0.0381595604121685, -0.027386508882045746, 0.0227500032633543, -0.001930620172061026, 0.01442781463265419, 0.027858665212988853, 0.016025813296437263, 0.02385009452700615, -0.005463289562612772, 0.01688755303621292, 0.06781967729330063, -0.027790194377303123, -0.03617778420448303, -0.036967817693948746, -0.003248501569032669, -0.003068513935431838, -0.006638452410697937, -0.037556812167167664, -0.030684594064950943, 0.012843209318816662, 0.006234695669263601, 0.004976463038474321, -0.06045779213309288, -0.08858366310596466, -0.1512758582830429, -0.13216322660446167, -0.09212656319141388, -0.06894524395465851, -0.0589299350976944, -0.07884879410266876, -0.034521207213401794, 0.023899344727396965, -0.01385683286935091, -0.028054164722561836, 0.011645711958408356, -0.036658626049757004, -0.1692149043083191, -0.17275862395763397, -0.11446303129196167, -0.09850043803453445, -0.10214848816394806, -0.03208346664905548, 6.753949855919927e-05, 0.03648369386792183, 0.05273051932454109, 0.024728910997509956, 0.03686640411615372, 0.01233716867864132, 0.07048742473125458, 0.061289768666028976, 0.05188940092921257, 0.057201288640499115, 0.05845974013209343, -0.001893729087896645, -0.09852457791566849, -0.0627780556678772, -0.14141696691513062, -0.07950364798307419, -0.044523630291223526, -0.10884244740009308, -0.1944487988948822, -0.12187650799751282, -0.09243406355381012, -0.11433026939630508, -0.1255054920911789, -0.09971851855516434, -0.02938343770802021, 0.038155797868967056, -0.03727347031235695, -0.07137352228164673, -0.14388872683048248, -0.2001701295375824, -0.0901615172624588, -0.09641817957162857, -0.10872738063335419, -0.07949035614728928, -0.04380124807357788, -0.051188789308071136, -0.0882580503821373, 0.0144114438444376, -0.04570943862199783, -0.06554615497589111, -0.06460105627775192, -0.018278613686561584, -0.05875779688358307, -0.11015156656503677, -0.09627772867679596, -0.09355694055557251, -0.05111828073859215, -0.06121031567454338, -0.03199715539813042, -0.009090123698115349, -0.06600531190633774, 0.009404516778886318, 0.01779750920832157, -0.04700033739209175, -0.017281506210565567, -0.0816776230931282, -0.10572405159473419, -0.12300966680049896, -0.11698164790868759, -0.06653163582086563, -0.013296245597302914, -0.1427098661661148, -0.20896479487419128, -0.06760252267122269, -0.05270503833889961, -0.032878994941711426, 0.01665676385164261, -0.07538938522338867, -0.1887439787387848, -0.11932814866304398, -0.034656137228012085, -0.015326052904129028, -0.025588756427168846, -0.11906293034553528, -0.12867391109466553, -0.13709835708141327, 0.0014858715003356338, -0.01755599118769169, -0.07492213696241379, -0.18173423409461975, -0.16936278343200684, -0.12033187597990036, -0.02326049469411373, -0.04812314361333847, -0.029845016077160835, -0.1655028909444809, -0.1049535945057869, -0.10203994810581207, -0.0711127296090126, -0.09265252947807312, -0.1443963646888733, -0.19097955524921417, -0.12608933448791504, -0.040846049785614014, 0.00858299620449543, 0.0012209276901558042, 0.022619355469942093, 0.02306240051984787, -0.06647314131259918, -0.04325651377439499, -0.054617349058389664, -0.08742756396532059, -0.15969417989253998, -0.09783367067575455, -0.02865348756313324, 0.02147541381418705, 0.03328023478388786, 0.011287814937531948, -0.008334672078490257, -0.06850338727235794, -0.13233676552772522, -0.11160273104906082, -0.007707958575338125, 0.009187674149870872, -0.0025665692519396544, -0.011294562369585037, 0.038716889917850494, 0.017392581328749657, 0.0006939274026080966, -0.038448430597782135, -0.0957440733909607, -0.04797770455479622, -0.023407557979226112, -0.08038514107465744, -0.014846212230622768, 0.034219056367874146, 0.02947908639907837, 0.029062258079648018, 0.024645410478115082, 0.006654363591223955, -0.0429626889526844, -0.04825972020626068, -0.035773228853940964, -0.06113280728459358, 0.04487716406583786, 0.059259600937366486, 0.0500514842569828, 0.054067544639110565, 0.06124219670891762, 0.0934847965836525, 0.054833970963954926, 0.023933902382850647, -0.0004768707149196416, -0.10447864234447479, -0.10866638273000717, -0.0347725935280323, -0.0663398876786232, -0.011187848635017872, 0.019747216254472733, -0.022418195381760597, -0.05213282257318497, -0.023965386673808098, -0.03143007308244705, 0.002202625386416912, -0.042338114231824875, -0.0048463912680745125, -0.0823870450258255, -0.049489639699459076, -0.00459124194458127, -0.02924015186727047, -0.02330322377383709, 0.007148403208702803, -0.02514985390007496, -0.013851979747414589, -0.049792543053627014, -0.003817206947132945, -0.004868679214268923, 0.007048775441944599, -0.06380745768547058, -0.06575922667980194, -0.003973068203777075, -0.017378708347678185, 0.005935104098170996, -0.020115939900279045, 0.011765590868890285, 0.024050341919064522, 0.02972140535712242, 0.01013855542987585, 0.0462680459022522, 0.03615255653858185, 0.020070752128958702, -0.018618064001202583, -0.018024442717432976, 0.005661449860781431, 0.02616432122886181, 0.019015679135918617, 0.025362219661474228, 0.04268511384725571, 0.022537486627697945, 0.04806414991617203, 0.047912996262311935, 0.046481113880872726, 0.021628478541970253, -0.06307356804609299, 0.03601754456758499, 0.011978253722190857, 0.008907139301300049, 0.03729850798845291, 0.0117794219404459, -0.0015960356686264277, 0.02115059830248356, 0.006124646868556738, 0.048290468752384186, 0.04074195772409439, 0.05163298919796944, -0.07389665395021439, 0.04794653505086899, 0.02767392434179783, 0.03923860564827919, 0.04154299199581146, -0.033348314464092255, -0.07440575957298279, -0.04270090162754059, -0.014222124591469765, 0.030537404119968414, 0.029182489961385727, 0.08793150633573532, -0.07568474858999252, 0.012441239319741726, 0.054016776382923126, 0.027096964418888092, 0.006542937830090523, -0.056633371859788895, -0.09775777906179428, -0.09122949838638306, -0.0664849802851677, 0.016996588557958603, 0.02633887156844139, 0.05301441252231598, -0.028508460149168968, 0.017315756529569626, 0.035964250564575195, 0.04650462791323662, -0.029430588707327843, -0.08297932893037796, -0.06424160301685333, -0.10229460150003433, -0.05353435128927231, -0.014794491231441498, 0.02080368436872959, 0.051946137100458145, 0.023652244359254837, 0.031850334256887436, 0.027762189507484436, 0.03983638808131218, 0.032774437218904495, -0.0315108448266983, -0.07186629623174667, -0.061733707785606384, -0.01317523792386055, -0.016438566148281097, -0.005654474254697561, 0.03463742509484291, 0.02811722457408905, 0.007901503704488277, -0.010458715260028839, 0.010177059099078178, 0.05375390127301216, 0.030315855517983437, -0.0188825074583292, -0.0244052205234766, -0.023534782230854034, 0.011840376071631908, 0.01960447058081627, -0.02070825733244419, -0.00445448886603117, -0.01098571252077818, -0.015284912660717964, 0.02510487101972103, 0.020393727347254753, 0.030113792046904564, 0.040102407336235046, -0.01632692664861679, -0.016014494001865387, -0.029642406851053238, -0.038926780223846436, -0.03520664945244789, -0.048170410096645355, -0.007504946086555719, 0.008392644114792347, 0.02387949451804161, 0.05260861665010452, 0.028935270383954048, 0.060316551476716995, 0.037163037806749344, -0.0018270519794896245, -0.03559347614645958, -0.07587727904319763, -0.05957845225930214, -0.08554330468177795, 0.0243204478174448, 0.01751471497118473, -0.04811573401093483, -0.0573054775595665, 0.031808655709028244, 0.05179765447974205, 0.053112201392650604, -0.021443799138069153, -0.07254776358604431, -0.12690889835357666, -0.21126137673854828, -0.012830226682126522, -0.007078845053911209, -0.05208451300859451, -0.029230833053588867, -0.013329850509762764, 0.03508565202355385, -0.006350672338157892, -0.010233466513454914, 0.07558704912662506, 0.019984427839517593, -0.08821567893028259, -0.04605573043227196, -0.018822990357875824, -0.01732642948627472, 0.009076587855815887, -0.044656503945589066, -0.08343495428562164, 0.030947841703891754, 0.08182042092084885, 0.07490970194339752, 0.0731397494673729, 0.09116411209106445, 0.07796476036310196, -0.04586631432175636, -0.008681529201567173, 0.02738950587809086, 0.04244321584701538, -0.11580951511859894, -0.07340312004089355, 0.004846063908189535, 0.028141384944319725, 0.08649811893701553, 0.0970882698893547, 0.07295165210962296, 0.0113974679261446, -0.0025561845395714045, -0.0027842349372804165, -0.05566905066370964, -0.024313833564519882, -0.04385720565915108, 0.010646278969943523, -0.10825691372156143, 0.04180454462766647, 0.15075860917568207, 0.07379680871963501, 0.046655844897031784, 0.007641180884093046, 0.040902215987443924, 0.04956408590078354, -0.06385072320699692, 0.07112321257591248, 0.003501967992633581, -0.06333819776773453, -0.025904707610607147, 0.04292111098766327, -0.020628703758120537, -0.009052945300936699, -0.0015961230965331197, 0.08548948913812637, 0.09084492176771164, 0.0335945263504982, -0.053471166640520096, 0.016772489994764328, -0.03400977700948715, 0.010233484208583832, 0.06920759379863739, -0.01155159529298544, -0.1590043157339096, -0.08883228152990341, -0.0007841920596547425, 0.040179602801799774, 0.07091828435659409, 0.02362663671374321, -0.057047031819820404, 0.036557234823703766, 0.0669235810637474, 0.08356859534978867, 0.06635157763957977, -0.032163530588150024, -0.16676434874534607, -0.08635266125202179, -0.03653368353843689, -0.007405764423310757, 0.03980381041765213, -0.003364377422258258, -0.059654977172613144, -0.026092782616615295, 0.051820408552885056, 0.1107223704457283, 0.10458250343799591, -0.08051298558712006, -0.05295684188604355, -0.026099035516381264, -0.010317564941942692, 0.003170778276398778, 0.012348156422376633, -0.16093678772449493, -0.08402693271636963, 0.02293877862393856, 0.07679286599159241, 0.11283033341169357, 0.14922069013118744, 0.04771322011947632, 0.02853420004248619, -0.010391920804977417, -0.01596207730472088, -0.01309215184301138, -0.038478147238492966, -0.013490686193108559, -0.05071639642119408, -0.0024125713389366865, 0.06837674975395203, 0.06429654359817505, 0.11146184056997299, 0.043148770928382874, 0.0004288172931410372, 0.0014431740855798125, -0.014452122151851654, -0.026637131348252296, -0.022746765986084938, -0.051676951348781586, -0.07793834805488586, -0.10289695858955383, 0.02168736420571804, 0.0213196761906147, -0.04230532422661781, -0.05927799642086029, -0.03349318727850914, -0.006824273616075516, -0.06551092863082886, -0.05035821348428726, -0.1162695363163948, -0.00751543790102005, 0.020430291071534157, 0.04378742352128029, -0.02819252200424671, -0.030283620581030846, 0.03143614903092384, 0.024396419525146484, 0.028973272070288658, 0.009740259498357773, 0.005300481338053942, 0.0020829171407967806, -0.0009516288409940898, 0.01359181385487318, -0.005481425207108259, -0.04117415100336075, -0.027550676837563515, -0.02349751442670822, 0.0031042336486279964, -0.04908301681280136, 0.009655804373323917, -0.029533186927437782, -0.015964748337864876, -0.10395141690969467, 0.016747022047638893, 0.019331928342580795, -0.0014060474932193756, -0.019248098134994507, 0.003383551724255085, -0.06044938415288925, -0.019463421776890755, 0.016550706699490547, -0.05094561353325844, -0.27020755410194397, -0.23576989769935608, -0.20163843035697937, -0.09179483354091644, 0.03051900491118431, 0.025960596278309822, -0.016796402633190155, 0.023373370990157127, -0.021638834848999977, 0.053693413734436035, -0.10046898573637009, -0.15949736535549164, -0.20297236740589142, -0.2982654571533203, -0.20436763763427734, -0.09929648041725159, 0.013297205790877342, 0.04183068871498108, 0.07284636795520782, 0.0921032652258873, 0.039030641317367554, -0.09683015942573547, -0.1612316071987152, -0.06349395960569382, -0.11086943745613098, -0.23987679183483124, -0.23980644345283508, -0.119623564183712, 0.043966155499219894, 0.0807427391409874, 0.13788548111915588, 0.11376236379146576, 0.025538507848978043, -0.18421661853790283, -0.029091089963912964, -0.011080416850745678, -0.039783235639333725, -0.08436725288629532, -0.08922933042049408, -0.06079495698213577, 0.0704503208398819, 0.023522555828094482, 0.10786861181259155, 0.0698036253452301, -0.015216047875583172, -0.03369566798210144, -0.03438866510987282, 0.012911448255181313, 0.047242309898138046, 0.010241362266242504, -0.04645398259162903, -0.027953945100307465, 0.08880344778299332, -0.020473169162869453, -0.09604883939027786, -0.02373998984694481, -0.051766540855169296, -0.01741107553243637, 0.04469308257102966, 0.022947344928979874, 0.11168809235095978, 0.04411475360393524, -0.0135146863758564, 0.022862188518047333, 0.0483970083296299, -0.052025068551301956, -0.22012455761432648, -0.20059368014335632, -0.0335545651614666, -0.049645453691482544, 0.024735523387789726, 0.15333932638168335, 0.16622929275035858, 0.061452098190784454, 0.03204723820090294, 0.024721801280975342, -0.047248803079128265, -0.14899146556854248, -0.20987389981746674, -0.2366483211517334, -0.18856407701969147, -0.05513140559196472, 0.13586589694023132, 0.13690340518951416, 0.09546837210655212, 0.07522215694189072, 0.04015539586544037, 3.3870473998831585e-05, -0.04171464964747429, -0.05331852287054062, -0.17704139649868011, -0.16303102672100067, -0.17121124267578125, -0.04986238852143288, 0.014570499770343304, 0.057556215673685074, 0.03456965461373329, 0.05672522261738777, 0.015098280273377895, 0.0013408982194960117, 0.013595766387879848, -0.0160005372017622, -0.06336092948913574, -0.026277268305420876, 0.035145197063684464, -0.06610100716352463, -0.02476532571017742, 0.036643221974372864, 0.055245302617549896, 0.001929135643877089, -0.006379196885973215, -0.02175343781709671, -0.07385286688804626, -0.04278106614947319, -0.007525220513343811, -0.035351671278476715, -0.03025895543396473, -0.0012428706977516413, -0.016015896573662758, -0.03777897357940674, -0.0044936528429389, -0.024441437795758247, -0.022010063752532005, -0.03395145758986473, -0.053589560091495514, -0.008525718934834003, -0.024891888722777367, -0.0010925558162853122, 0.00029664687463082373, -0.005309361964464188, 0.0002990304783452302, 0.01610235869884491, -0.0038268505595624447, -0.00428847037255764, 0.040229830890893936, -0.03388438746333122, -0.030026813969016075, -0.036550603806972504, 0.02293284609913826, 0.019600942730903625, -0.016323208808898926, 0.015948869287967682, 0.011487655341625214, 0.04076004773378372, 0.047535546123981476, 0.013920179568231106, 0.03417664393782616, 0.0211910679936409, -0.023015033453702927, 0.0008807330741547048, 0.03341049700975418, -0.009355459362268448, 0.02521427720785141, 0.0328228622674942, 0.021070387214422226, 0.03206231817603111, 0.04224536567926407, 0.040419403463602066, 0.041619282215833664, 0.008683841675519943, -0.022735271602869034, 0.031057508662343025, 0.010220504365861416, 0.026842573657631874, 0.044178105890750885, -0.004713846370577812, 0.006362357642501593, -0.0016865675570443273, 0.013133999891579151, 0.03371759504079819, 0.029707953333854675, 0.02209347113966942, 0.008774464949965477, 0.012795096263289452, 0.04886582866311073, 0.02060387097299099, -0.0019036298617720604, -0.03568471968173981, -0.09279490262269974, -0.05010927468538284, -0.027103642001748085, 0.04259159788489342, 0.038719091564416885, 0.05605914071202278, 0.05111045762896538, 0.04951921105384827, 0.06022845581173897, 0.05513468384742737, 0.007394995074719191, -0.059159621596336365, -0.07548530399799347, -0.09516255557537079, -0.019065890461206436, 0.017859505489468575, 0.050385888665914536, 0.05824959650635719, 0.04983385652303696, 0.029473943635821342, 0.0535171702504158, 0.04506070539355278, -0.02548629604279995, -0.05641469359397888, -0.07296261191368103, -0.05409880355000496, 0.017205843701958656, 0.006027191411703825, 0.00875029992312193, 0.055814921855926514, 0.02886604331433773, 0.027572495862841606, -0.000397751311538741, 0.026759309694170952, 0.0010572782484814525, -0.002305205911397934, -0.054983850568532944, -0.00867470633238554, 0.024724848568439484, 0.022330207750201225, 0.03726575896143913, -0.00857366994023323, -0.0036912490613758564, 0.020432589575648308, 0.012198058888316154, 0.02459820732474327, 0.013099842704832554, 0.036658868193626404, 0.0027128506917506456, 0.014097294770181179, 0.0012422980507835746, 0.0087355338037014, 0.013742461800575256, -0.04056008160114288, -0.008789519779384136, 0.01628534309566021, 0.012945745140314102, 0.02963692881166935, 0.009692895226180553, 0.05516562983393669, 0.01798962615430355, -0.001677840598858893, 0.006404769141227007, -0.04597615450620651, -0.006309526041150093, -0.08183968812227249, -0.011324426159262657, 0.018353641033172607, 0.012460331432521343, -0.05062653124332428, -0.01967490091919899, 0.0026631478685885668, -0.02232176624238491, -0.054724738001823425, -0.02797502838075161, -0.08165869861841202, -0.10294826328754425, -0.08680225908756256, 0.0002528904005885124, -0.04231777414679527, -0.02718028984963894, -0.0014184725005179644, -0.015368962660431862, -0.06059175357222557, -0.043338701128959656, -0.02370259538292885, -0.0016604311531409621, -0.0311282891780138, -0.009505235590040684, -0.030433304607868195, -0.026855595409870148, 0.011899236589670181, -0.023982277140021324, -0.018671991303563118, -0.009530859999358654, 0.012205332517623901, -0.0002713581779971719, 0.009753542020916939, -0.0007149864686653018, -0.004497265908867121, 0.040097445249557495, -0.02446451596915722, -0.047033634036779404, -0.015217871405184269, -0.02821371704339981, -0.010683207772672176, -0.02179371751844883, 0.0063925934955477715, 0.030042266473174095, 0.0251166932284832, 0.0009283032268285751, 0.030180277302861214, 0.007038050796836615, 0.026607567444443703, -0.0491684265434742, -0.0036720451898872852, 0.0244696494191885, -0.020260024815797806, 0.04241535812616348, 0.023547714576125145, 0.04409275949001312, 0.018339619040489197, 0.00763438967987895, 0.017084253951907158, 0.02183854766190052, 0.029638653621077538, -0.014770589768886566, -0.0013672569766640663, 0.031186092644929886, 0.014404025860130787, 0.04321776703000069, 0.013037727214396, -0.026040496304631233, -0.038500215858221054, -0.0062477546744048595, 0.03012113831937313, 0.04593842104077339, 0.04751470312476158, -0.051823221147060394, 0.020005982369184494, 0.02223389782011509, 0.027213362976908684, 0.02262364700436592, -0.0271099004894495, -0.08107832074165344, -0.08258839696645737, 0.0028795283287763596, 0.05502532795071602, 0.04435364156961441, 0.04807855188846588, -0.057969264686107635, 0.05151565745472908, 0.057638414204120636, 0.04798240587115288, 0.018226802349090576, -0.028775034472346306, -0.09049763530492783, -0.06472649425268173, -0.01040247268974781, 0.015935733914375305, 0.03885861113667488, 0.044362206012010574, -0.04316108301281929, 0.028263282030820847, 0.01904040202498436, 0.05129477381706238, 0.0016000722534954548, -0.0474846288561821, -0.05746304243803024, -0.03539491817355156, 0.0018873224034905434, 0.03344166651368141, 0.02292293682694435, 0.0322783961892128, -0.02854204922914505, 0.011202311143279076, 0.0010870809201151133, 0.016768164932727814, 0.01131503377109766, -0.0030793852638453245, -0.03073200024664402, -0.024295680224895477, 0.002254295162856579, 0.0015181500930339098, 0.001389096723869443, -0.003235661657527089, -0.027838291600346565, -0.023947738111019135, 0.022156592458486557, 0.03990739956498146, 0.036337267607450485, 0.008581697940826416, -0.01766388677060604, 0.013785063289105892, -0.008945520967245102, 0.006906508933752775, -0.0215108972042799, -0.05662975087761879, -0.035373855382204056, 0.02525312639772892, 0.013424208387732506, 0.02916371263563633, 0.027872780337929726, 0.028142984956502914, -0.004746727645397186, -0.015704266726970673, -0.021707771345973015, -0.06023044511675835, -0.03419996798038483, -0.06402537226676941, -0.04027887433767319, -0.05246300622820854, 0.0011624977923929691, -0.04168778657913208, -0.017310624942183495, 0.018409643322229385, -0.0057035754434764385, -0.0418083481490612, -0.07047969847917557, -0.08212915807962418, -0.08610793948173523, -0.041883282363414764, -0.1161690428853035, -0.017301565036177635, -0.028264785185456276, -0.030260290950536728, -0.034511033445596695, 0.044710271060466766, 0.016857637092471123, 0.047944940626621246, -0.025232817977666855, 0.005121437832713127, -0.210176020860672, -0.03794798254966736, -0.030872879549860954, -0.018509641289711, -0.03171731159090996, -0.02590392902493477, -0.07414969801902771, -0.03955918923020363, -0.058929912745952606, 0.011198244988918304, -0.047977279871702194, -0.004647382069379091, -0.17005717754364014, -0.039652980864048004, -0.009844020940363407, 0.013216382823884487, -0.041324421763420105, -0.03608747944235802, -0.13782523572444916, -0.03817009925842285, -0.05818570405244827, -0.054202884435653687, -0.03483195975422859, 0.044703319668769836, -0.08127200603485107, -0.09769818931818008, -0.017901884391903877, 0.02262181229889393, -0.005061955191195011, 0.011277353391051292, -0.019144251942634583, -0.010961959138512611, 0.016988664865493774, -0.003200774546712637, 0.10782328993082047, 0.21873706579208374, 0.17063800990581512, -0.00823204405605793, 0.003293056273832917, 0.06688668578863144, 0.006364043336361647, 0.011262025684118271, -0.0618484728038311, -0.08984651416540146, 0.012930301949381828, 0.11604643613100052, 0.1091245710849762, 0.1843286007642746, 0.17321835458278656, -0.06370851397514343, 0.03254497051239014, 0.08255261927843094, 0.014708954840898514, -0.006521907169371843, -0.01848374865949154, -0.12091261893510818, 0.003040159121155739, 0.16574162244796753, 0.1368691772222519, 0.2507205009460449, 0.2042936086654663, -0.08605404198169708, 0.040861379355192184, 0.08152732998132706, 0.02324533648788929, -0.0013521685032173991, 0.030393553897738457, -0.16966721415519714, -0.056934110820293427, 0.07093356549739838, 0.06633874773979187, 0.17984503507614136, 0.1603851318359375, -0.04204041510820389, 0.06271152943372726, 0.019632460549473763, 0.07506024837493896, 0.07121459394693375, 0.03223281726241112, -0.0964398980140686, -0.019803540781140327, -0.0005461706896312535, 0.05915173888206482, 0.10001111030578613, -0.00032724213087931275, 0.04652635008096695, 0.07447786629199982, 0.06107355281710625, 0.03292986750602722, 0.15369249880313873, 0.16840597987174988, -0.17055462300777435, -0.1422034502029419, -0.0982297956943512, -0.09102439135313034, -0.030470525845885277, -0.1303970366716385, 0.05746116489171982, 0.05305161327123642, 0.02142108418047428, 0.03884639963507652, 0.11044386029243469, 0.1583467721939087, -0.11270865797996521, -0.2968918979167938, -0.2138255387544632, -0.23444442451000214, -0.20774270594120026, -0.24262775480747223, -0.02932385355234146, 0.008369848132133484, 0.0029613771475851536, -0.018968988209962845, -0.03172937408089638, 0.029009336605668068, -0.06280401349067688, -0.20213240385055542, -0.2526559829711914, -0.3165203928947449, -0.3003380000591278, -0.2560017704963684, 0.0011138690169900656, -0.035791654139757156, 0.012893649749457836, 0.05586960166692734, 0.06014241650700569, 0.03411633148789406, 0.03417527303099632, -0.06590147316455841, -0.08805961161851883, -0.22142794728279114, -0.1945061981678009, -0.1590290665626526, -0.06165086105465889, 0.018404090777039528, -0.022776547819375992, -0.00031791679793968797, -0.015606045722961426, -0.007187243551015854, -0.024324916303157806, -0.010114074684679508, -0.043830808252096176, -0.07255648076534271, -0.03023727424442768, -0.020206278190016747, -0.009487590752542019, -0.005335306283086538, -0.000612831674516201, -0.022829582914710045, -0.00227462500333786, -0.04416787996888161, 0.0010623445268720388, -0.007235308177769184, 0.017955226823687553, -0.0004091126029379666, 0.026165515184402466, 0.008299477398395538, -0.02359909377992153, 0.010141784325242043, -0.023987499997019768, -0.003861599136143923, -0.019431032240390778, -0.03910929337143898, 0.0204892810434103, 0.028219567611813545, 0.041521765291690826, 0.03618870675563812, 0.021670307964086533, 0.01768818497657776, -0.0007814023410901427, -0.009104207158088684, 0.007518624886870384, -0.027125490829348564, -0.010064268484711647, 0.009027388878166676, 0.006539796944707632, 0.02842877432703972, 0.033593036234378815, 0.05599188432097435, 0.04625967517495155, 0.0346200130879879, 0.009194026701152325, 0.006937736179679632, -0.03328118100762367, -0.02635960280895233, -0.022879574447870255, 0.027159661054611206, 0.028830774128437042, 0.013811538927257061, 0.03193865343928337, 0.0008956662495620549, 0.04669418931007385, 0.0556425116956234, 0.019363196566700935, -0.012801632285118103, -0.023036625236272812, -0.004090099595487118, 0.03530214726924896, 0.02474696934223175, -0.013200686313211918, -0.07102657854557037, -0.057180654257535934, -0.036856941878795624, 0.03426005318760872, 0.05805908516049385, 0.04594029113650322, -0.005668760277330875, 0.00241671921685338, 0.03109758533537388, 0.03100518509745598, 0.04027453437447548, -0.01852569170296192, -0.04913051426410675, -0.09543706476688385, -0.024815766140818596, 0.022200312465429306, 0.04772615805268288, 0.051037464290857315, 0.0016652883496135473, 0.02839455008506775, 0.05015390366315842, 0.040796827524900436, 0.02489260397851467, -0.05534184351563454, -0.07741522789001465, -0.05821232125163078, -0.035145118832588196, 0.03583300858736038, 0.03833003342151642, 0.03146250545978546, -0.03127865120768547, -0.007059991359710693, -0.009586126543581486, 0.013923131860792637, 0.046392858028411865, -0.029526639729738235, -0.028430184349417686, -0.008828090503811836, 0.010829228907823563, 0.026946591213345528, -0.007940453477203846, 0.017411917448043823, -0.0148206427693367, -0.01116839237511158, -0.018055232241749763, 0.01548559870570898, 0.050197724252939224, 0.014963783323764801, 0.011367968283593655, -0.012137831188738346, 0.003826611442491412, -0.004436922259628773, -0.012969586998224258, -0.0009156781015917659, 0.00835058931261301, 0.01674296148121357, 0.02553301863372326, 0.03364543616771698, 0.027628744021058083, 0.0283820703625679, 0.03370561823248863, 0.025361688807606697, -0.0002955365343950689, -0.029484428465366364, -0.03800429776310921, -0.03313186392188072, 0.01588226668536663, -0.006854198407381773, -0.007634257897734642, -0.029177559539675713, -0.0445777103304863, -0.03641663119196892, -0.030376523733139038, -0.042305197566747665, -0.011601935140788555, -0.04356047511100769, -0.03687133640050888, -0.029881414026021957, -0.13557875156402588, 0.029616009443998337, 0.0059332712553441525, -0.036130715161561966, -0.024559946730732918, 0.0171035248786211, 0.005031470209360123, -0.0013271990465000272, 0.018086841329932213, -0.004499099217355251, -0.0028410430531948805, 0.0030135037377476692, -0.033123694360256195, -0.012049692682921886, -0.01599552109837532, -0.02836649864912033, -0.020270071923732758, -0.03708530589938164, -0.0017873411998152733, 0.025310367345809937, 0.01459359098225832, 0.030704550445079803, 0.01727779023349285, 0.015641072764992714, -0.0550864115357399, -0.014980997890233994, -0.005523235071450472, -0.0366068109869957, -0.009366998448967934, -0.0042457361705601215, 0.024801254272460938, 0.0006012015510350466, -0.01619938388466835, -0.018020374700427055, -0.007003352511674166, -0.012073317542672157, -0.0429510660469532, -0.004926099441945553, -0.03747805953025818, -0.010931148193776608, 0.049114447087049484, 0.0018918495625257492, -0.020408719778060913, -0.010103315114974976, 0.007958653382956982, 0.01092524640262127, 0.04655909165740013, 0.01903361827135086, -0.037657853215932846, -0.03664325550198555, 0.001575637492351234, 0.029572153463959694, 0.0023073586635291576, -0.0726722925901413, -0.10384222120046616, -0.10224206745624542, -0.028454603627324104, -0.007539818529039621, 0.017641205340623856, 0.013117779977619648, -0.078086718916893, -0.056582678109407425, 0.009037591516971588, 0.01378482487052679, 0.004438670352101326, -0.04652935266494751, -0.11583767831325531, -0.0873732641339302, -0.006399913690984249, -0.003722204826772213, 0.043665509670972824, 0.052347276359796524, 0.00707239517942071, -0.03335065767168999, 0.02762668952345848, 0.008262368850409985, 0.02786620706319809, -0.019498419016599655, -0.11894182860851288, -0.10487046837806702, 0.018502188846468925, 0.024927916005253792, 0.041690826416015625, 0.0556982159614563, -0.06678507477045059, -0.007956527173519135, 0.025056347250938416, 0.04740695655345917, 0.04700678586959839, 0.016229793429374695, -0.025342794135212898, -0.019741009920835495, 0.01707128807902336, -0.013941098004579544, 0.0009964820928871632, 0.04037671908736229, -0.11962013691663742, 0.0020928492303937674, 0.031727369874715805, 0.07584799081087112, 0.03179033473134041, 0.013004539534449577, -0.008487901650369167, 0.00662480853497982, 0.018693218007683754, -0.044162821024656296, -0.0006957770092412829, -0.022066568955779076, -0.1275051385164261, 0.02933781035244465, 0.041845887899398804, 0.08250883221626282, 0.027256164699792862, 0.022099265828728676, 0.010781334713101387, 0.02524496801197529, -0.002244499744847417, -0.037954770028591156, 0.009390669874846935, -0.07033460587263107, -0.014281485229730606, -0.05891389772295952, 0.02769131027162075, 0.001309614279307425, -0.04712606966495514, -0.09045915305614471, -0.12835173308849335, -0.0691552609205246, -0.10153087973594666, -0.06916893273591995, -0.1059628278017044, -0.1415203958749771, 0.001217150827869773, -0.0025913959834724665, 0.005658052861690521, 0.03376741334795952, -0.03583967313170433, -0.0521535649895668, -0.10116484016180038, -0.0816422626376152, -0.0768650472164154, -0.05477326735854149, -0.0666230246424675, -0.13498395681381226, -0.14835521578788757, -0.016155043616890907, 0.009392053820192814, -0.020913420245051384, -0.00992685928940773, 0.003052104264497757, -0.035735730081796646, -0.0511038713157177, -0.06347757577896118, -0.08599952608346939, -0.12977752089500427, -0.03383350744843483, -0.06815265119075775, 0.004392324015498161, -0.02895018272101879, 0.015181001275777817, -0.028182966634631157, 0.012847932986915112, 0.0354989692568779, 0.01340639591217041, 0.019695335999131203, 0.01845417730510235, -0.03280811756849289, -0.06225669011473656, -0.07303259521722794, 0.0357559435069561, -0.021746864542365074, -0.01295440923422575, -0.03507840633392334, 0.017834972590208054, 0.058460261672735214, 0.008616788312792778, 0.04490736499428749, 0.022814804688096046, 0.0489320270717144, -0.01426736544817686, -0.03733236342668533, -0.010539478622376919, -0.021952062845230103, -0.0019311406649649143, 0.009912404231727123, -0.009414257481694221, -0.001923025120049715, 0.07910256087779999, 0.04432789236307144, 0.024730177596211433, -0.011839956045150757, -0.05708107352256775, -0.041232116520404816, 0.02887740172445774, 0.006718865130096674, 0.00711097801104188, 0.0038681277073919773, -0.06996975839138031, -0.057143434882164, -0.051176175475120544, -0.0015595302684232593, 0.027858110144734383, -0.0038937560748308897, -0.04510984197258949, -0.07353188842535019, 0.03550393134355545, 0.0031096762977540493, 0.0005263308412395418, -0.010618043132126331, -0.1407381147146225, -0.19367733597755432, -0.14645938575267792, -0.08313196897506714, -0.004893863573670387, 0.023850025609135628, -0.039968594908714294, -0.011125854216516018, -0.026475952938199043, 0.0175933800637722, 0.009569132700562477, -0.05399348959326744, -0.15291395783424377, -0.12937745451927185, -0.1645532101392746, -0.08481056988239288, -0.0533631257712841, 0.008142350241541862, -0.020356860011816025, 0.060271620750427246, -0.0014053697232156992, -0.0161433182656765, -0.040782228112220764, -0.05442502349615097, -0.08628567308187485, -0.12121172994375229, -0.05816185101866722, -0.019542139023542404, -0.023722874000668526, -0.06272683292627335, -0.02651514671742916, 0.015084201470017433, -0.0006451079971157014, -0.019025787711143494, 0.015514877624809742, -0.011576874181628227, -0.043514542281627655, -0.03434563800692558, -0.00781994592398405, -0.00589898182079196, -0.024026861414313316, -0.08331827819347382, -0.09749063849449158, -0.05148814618587494, 0.0034745160955935717, -0.024092448875308037, -0.018396683037281036, 0.018947480246424675, 0.05861769989132881, 0.03542815521359444, 0.044778063893318176, -0.036660004407167435, -0.018899206072092056, -0.061822015792131424, -0.08594447374343872, -0.05820198729634285, -0.06406847387552261, 0.0037478788290172815, 0.023957133293151855, 0.04022431746125221, 0.02711150050163269, 0.060232892632484436, 0.031213931739330292, -0.0034179145004600286, -0.013806208036839962, -0.0858536884188652, -0.06892365962266922, -0.034787293523550034, -0.11601590365171432, -0.13576866686344147, -0.12736989557743073, -0.12868370115756989, -0.12685181200504303, -0.10618305951356888, -0.12544509768486023, -0.17596375942230225, -0.14789395034313202, -0.16069912910461426, -0.09312720596790314, -0.09502243250608444, -0.11701434850692749, -0.07578092813491821, -0.06782660633325577, -0.015548131428658962, -0.026464935392141342, 0.007136286236345768, -0.030433863401412964, -0.030175039544701576, 0.015532327815890312, 0.009254777804017067, -0.05742393806576729, 0.0015520000597462058, -0.07657251507043839, -0.048479143530130386, -0.10817349702119827, -0.10336604714393616, -0.04276290535926819, -0.032667599618434906, -0.045393239706754684, -0.04396681487560272, -0.037080876529216766, -0.045344144105911255, -0.06063853204250336, 0.013277454301714897, -0.04597489908337593, -0.012595168314874172, -0.09533566236495972, -0.025900153443217278, -0.054296303540468216, 0.001696840743534267, 0.04825669154524803, 0.022553877905011177, 0.016126882284879684, -0.01118639949709177, 0.0313311368227005, 0.05225840210914612, -0.018764179199934006, -0.02816295623779297, 0.012297487817704678, -0.022510165348649025, 0.041002608835697174, 0.04011444374918938, 0.047984689474105835, 0.06207699328660965, 0.06214150786399841, -0.002797830617055297, 0.03835860639810562, -0.04567360877990723, -0.022839749231934547, -0.03555367887020111, 0.0028248161543160677, 0.021964097395539284, 0.04961727187037468, 0.03722511604428291, 0.016704916954040527, 0.046736348420381546, 0.04559580236673355, 0.026383236050605774, 0.04755157232284546, -0.013714633882045746, -0.03949913755059242, -0.028414465487003326, 0.022456346079707146, -0.03587059676647186, 0.0017792934086173773, -0.0352618582546711, -0.10265102982521057, -0.0157236997038126, 0.0013626876752823591, 0.03616083413362503, 0.0446927584707737, -0.01311643049120903, -0.01478839572519064, 0.002283790148794651, 0.012740432284772396, 0.022080274298787117, -0.03374144807457924, -0.18338638544082642, -0.14206887781620026, -0.03218548744916916, 0.003100423142313957, 0.029055822640657425, 0.04821537807583809, 0.05541393905878067, -0.020191092044115067, -0.027889812365174294, 0.04730752110481262, -0.0011624988401308656, -0.0737333744764328, -0.09048180282115936, -0.09107165038585663, -0.05749434977769852, -0.011366392485797405, 0.02063347026705742, 0.012145658023655415, 0.06798551976680756, -0.0013108807615935802, 0.02548784203827381, 0.06268380582332611, 0.021907968446612358, -0.03721822053194046, -0.07016940414905548, -0.03428993746638298, -0.0033400594256818295, -0.012167585082352161, -0.009984713047742844, -0.00027818852686323225, -0.00826308038085699, -0.016450626775622368, -0.011943979188799858, 0.04061363637447357, 0.04686501994729042, 0.005695934873074293, -0.02825316973030567, -0.06753670424222946, -0.04790643975138664, 0.012384091503918171, -0.017553385347127914, -0.013933544978499413, -0.05290821194648743, 0.0163999255746603, 0.030100246891379356, 0.03495665639638901, 0.09157691895961761, 0.09460603445768356, 0.02108689956367016, 0.004486634396016598, -0.021601196378469467, -0.043087590485811234, -0.07520410418510437, -0.05364507436752319, 0.026970963925123215, -0.11873876303434372, -0.031039003282785416, -0.05952642858028412, 0.04056462645530701, 0.0245836079120636, 0.0036062838044017553, 0.02536451816558838, -0.030993834137916565, -0.03947559744119644, -0.07800836861133575, -0.06539765000343323, -0.12162461131811142, -0.01286311075091362, 0.015819046646356583, -0.003521738573908806, 0.01976146548986435, 0.014225303195416927, 0.01457320898771286, 0.01921335607767105, 7.995883788680658e-05, 0.007170667871832848, -0.028627336025238037, -0.08843932300806046, -0.032577112317085266, 0.02682051993906498, -0.02154388651251793, -0.04575183987617493, -0.033071018755435944, -0.015072409994900227, 0.012960857711732388, -0.0008103408035822213, -0.02274857647716999, -0.007064375560730696, 0.03441880643367767, 0.03589071333408356, -0.04145696014165878, -0.026619333773851395, -0.013532554730772972, -0.023252267390489578, -0.01759861782193184, -0.026129599660634995, 0.029118303209543228, 0.06765148788690567, 0.03202624246478081, 0.028737610206007957, 0.004582758527249098, 0.05996580421924591, -0.046961743384599686, 0.011368684470653534, 0.008809942752122879, 0.021989094093441963, -0.027066385373473167, -0.05476811155676842, -0.01505899429321289, -0.012789247557520866, 0.0023487205617129803, 0.05243247002363205, -0.0014608193887397647, 0.051867369562387466, -0.02972201444208622, -0.02141604945063591, 0.03792630881071091, -0.02157019078731537, -0.057551831007003784, -0.12558354437351227, -0.20625704526901245, -0.18266156315803528, -0.01800837181508541, -0.010924166068434715, 0.01737956702709198, 0.04962943494319916, -0.01692480593919754, -0.04912055656313896, 0.014932855032384396, 0.014206379652023315, -0.10365310311317444, -0.154078409075737, -0.1966581642627716, -0.18013671040534973, -0.1034611165523529, -0.03414754942059517, -0.00968207698315382, 0.06292892247438431, 0.038569509983062744, -0.05197611823678017, -0.0690125897526741, -0.10797051340341568, -0.15596994757652283, -0.09943036735057831, -0.03475300222635269, -0.0769917219877243, -0.11111167073249817, -0.07312358915805817, -0.020894162356853485, 0.056984852999448776, 0.05919158086180687, -0.05122414976358414, -0.06556720286607742, -0.08481893688440323, -0.03867980092763901, 0.010611663572490215, 0.040534693747758865, -0.021594801917672157, -0.10766023397445679, -0.060994986444711685, -0.06718583405017853, -0.014549927785992622, -0.0602763369679451, -0.12029098719358444, -0.11003027111291885, -0.02410292811691761, 0.03612246364355087, 0.07467539608478546, 0.062084853649139404, -0.04111254960298538, -0.013902569189667702, -0.05074950307607651, -0.08939626067876816, -0.08387456089258194, -0.1067596822977066, -0.13912612199783325, -0.11211428046226501, 0.021194662898778915, 0.06240661442279816, 0.09372267127037048, 0.09292149543762207, -0.025653162971138954, -0.030186226591467857, -0.04598396271467209, -0.06544104218482971, -0.08394040912389755, -0.012371553108096123, -0.17110911011695862, -0.1400446593761444, 0.004828464239835739, 0.06540709733963013, 0.09214307367801666, 0.05857785418629646, 0.018955975770950317, -0.061607956886291504, -0.17503342032432556, -0.11134184151887894, -0.021335730329155922, 0.013936039060354233, -0.04499321058392525, -0.0680241659283638, -0.026069803163409233, 0.02676567994058132, -0.02075607143342495, -0.04895934835076332, -0.07603098452091217, -0.056045398116111755, -0.014218422584235668, -0.10031981766223907, -0.06418599933385849, 0.02501227892935276, -0.08828041702508926, -0.13088035583496094, -0.09188636392354965, 0.055590104311704636, 0.0055647906847298145, -0.03711868077516556, -0.14087620377540588, -0.10141274333000183, -0.08350572735071182, -0.0914519801735878, -0.09992607682943344, -0.057125385850667953, -0.12441747635602951, -0.17451563477516174, -0.15926781296730042, -0.0016620089299976826, -0.004207185003906488, 0.047155167907476425, -0.0500970296561718, -0.05507226288318634, -0.029034242033958435, 0.00415048049762845, 0.04105455055832863, -0.09729208052158356, -0.12055135518312454, -0.13992519676685333, -0.1279880404472351, -0.026014864444732666, -0.0018253044690936804, 0.033793866634368896, -0.013699681498110294, 0.028733985498547554, -0.04253130033612251, 0.046039726585149765, 0.07138341665267944, -0.059152599424123764, -0.14190882444381714, -0.08609385788440704, -0.06738939881324768, 0.06837546080350876, 0.0380389429628849, -0.045132383704185486, 0.04140843078494072, 0.05758879706263542, 0.038920268416404724, 0.039998870342969894, 0.07051429897546768, -0.036168042570352554, -0.12068796157836914, -0.060263074934482574, 0.055890247225761414, 0.055152930319309235, 0.00512525113299489, 0.04817843437194824, 0.04606407508254051, 0.10565035045146942, 0.07144614309072495, 0.07870728522539139, 0.08994553983211517, -0.017996307462453842, -0.09715190529823303, 0.08867599070072174, 0.10155431181192398, 0.09298589825630188, 0.12817645072937012, 0.11623673886060715, -0.02114132046699524, 0.045913953334093094, 0.0728273093700409, 0.047660376876592636, 0.0994671881198883, -0.05292334035038948, 0.01915668323636055, 0.15225838124752045, 0.16129283607006073, 0.12877826392650604, 0.18927587568759918, 0.003491869894787669, -0.02590986154973507, 0.05145735666155815, 0.022085292264819145, 0.03640042990446091, 0.08772627264261246, -0.015047848224639893, 0.11688739061355591, 0.10455381870269775, 0.11745387315750122, 0.11233748495578766, 0.167629674077034, -0.06798325479030609, -0.07109677046537399, -0.003163845045492053, 0.012962543405592442, 0.026271380484104156, 0.08778242021799088, 0.06981564313173294, 0.21703147888183594, 0.10743120312690735, 0.1194852814078331, 0.09073298424482346, 0.06706392019987106, -0.10013715922832489, -0.044595859944820404, -0.03536878153681755, 0.004437695257365704, 0.026506181806325912, 0.06107187643647194, 0.033997636288404465, 0.08172383904457092, 0.04029931128025055, 0.12979617714881897, 0.09385009855031967, -0.03699015825986862, -0.0696699395775795, -0.08115186542272568, -0.034322675317525864, -0.02830655686557293, -0.012062176130712032, -0.004211060702800751, 0.04923534765839577, 0.06037561222910881, 0.008172738365828991, 0.09839261323213577, -0.008596760220825672, -0.09794827550649643, -0.13607004284858704, -0.10293781012296677, -0.09303700923919678, -0.08537402749061584, -0.046256694942712784, -0.03128601610660553, -0.015897853299975395, 0.0354766920208931, -0.08605556935071945, 0.020317865535616875, -0.04372718930244446, -0.16511812806129456, -0.14762747287750244, -0.11164656281471252, -0.08176674693822861, -0.12218891829252243, -0.09903326630592346, -0.13920681178569794], [0.11404905468225479, 0.013291606679558754, -0.05660124495625496, -0.03692646697163582, -0.037323519587516785, 0.028084659948945045, 0.026763850823044777, 0.019227519631385803, 0.04181640222668648, 0.06829369813203812, 0.031667158007621765, -0.054576873779296875, 0.0751395970582962, -0.07649802416563034, -0.12774424254894257, -0.06933258473873138, -0.12706361711025238, -0.039693981409072876, -0.04636850580573082, -0.0024677757173776627, 0.11536882817745209, 0.11141742020845413, -0.028255505487322807, -0.16042460501194, -0.05929269269108772, -0.039685435593128204, -0.10284781455993652, -0.1203397735953331, -0.23639176785945892, -0.15350833535194397, -0.08362016081809998, 0.16652444005012512, 0.17286522686481476, 0.0713675394654274, 0.04199730232357979, -0.02623194456100464, -0.11010763049125671, 0.020162714645266533, -0.04753462225198746, -0.16236628592014313, -0.2009732574224472, -0.05344159156084061, 0.006128318607807159, 0.01835186406970024, -0.03499560058116913, 0.08580192178487778, 0.012573535554111004, 0.0005413465551100671, -0.02064085751771927, -0.004419785458594561, 0.026118513196706772, -0.03471765294671059, -0.06461557000875473, 0.03865304961800575, -0.051175784319639206, -0.18786120414733887, -0.12160315364599228, 0.018296418711543083, 0.0009265089756809175, 0.020800745114684105, 0.02555157244205475, -0.07731041312217712, 0.11061113327741623, 0.011364690028131008, 0.06718874722719193, 0.06780397146940231, -0.07543514668941498, -0.07773072272539139, -0.06854573637247086, 0.030480239540338516, 0.009093726053833961, 0.0405644029378891, -0.10468261688947678, -0.09475830942392349, 0.004276996478438377, -0.047252554446458817, -0.037699926644563675, -0.016075974330306053, -0.10811340808868408, 0.01177932322025299, 0.025102881714701653, -0.01022938173264265, 0.0063802748918533325, 0.06886620819568634, -0.24630621075630188, -0.06126886606216431, 0.01748591661453247, -0.052256301045417786, -0.20415012538433075, -0.07787327468395233, 0.07233300805091858, 0.1254919469356537, 0.019330177456140518, -0.06492017954587936, 0.02237250655889511, -0.10043136030435562, 0.038187939673662186, 0.1483944207429886, 0.1574537605047226, -0.03692086413502693, -0.04700923338532448, 0.01654350757598877, 0.006329404190182686, 0.06478530913591385, -0.07676638662815094, -0.15639694035053253, -0.09028655290603638, -0.14562463760375977, 0.13704562187194824, 0.08479654043912888, 0.05640977621078491, -0.05029318109154701, -0.18312914669513702, -0.08626805245876312, -0.13160981237888336, -0.2150280624628067, -0.2383374124765396, -0.15822196006774902, -0.08614974468946457, -0.059217117726802826, -0.08471810072660446, -0.20118549466133118, -0.017600344493985176, -0.03570295125246048, 0.004006299655884504, -0.07664952427148819, -0.16384410858154297, -0.1667151153087616, -0.0323028601706028, -0.004712256137281656, 0.006903581786900759, -0.0455891415476799, 0.008802368305623531, -0.05934706702828407, 0.08607497811317444, 0.05189461261034012, 0.069121815264225, -0.04833831265568733, -0.009663138538599014, 0.0136937964707613, -0.05440007522702217, 0.0625663697719574, 0.060673195868730545, -0.15471981465816498, 0.0741414800286293, 0.05934493988752365, -0.018527155742049217, -0.043249115347862244, -0.06535950303077698, -0.22740843892097473, -0.07990484684705734, 0.006578574888408184, 0.04843701794743538, 0.06611710786819458, 0.08553245663642883, 0.07915111631155014, 0.13395224511623383, 0.1059146448969841, 0.05534045770764351, -0.03520580753684044, -0.20904996991157532, -0.31650471687316895, -0.21113204956054688, -0.2513682544231415, -0.22107025980949402, -0.19294337928295135, -0.19529283046722412, -0.14298859238624573, 0.11245092004537582, 0.003684957744553685, -0.026235053315758705, -0.014687989838421345, -0.17297908663749695, -0.27418947219848633, -0.25111040472984314, -0.2848111391067505, -0.23339948058128357, -0.21761612594127655, -0.19869296252727509, -0.1880854368209839, -0.010804506950080395, 0.06444726139307022, 0.06026342138648033, 0.022528454661369324, -0.04183647781610489, -0.18701663613319397, -0.15442222356796265, -0.15113471448421478, -0.19059039652347565, -0.15700608491897583, -0.10619861632585526, -0.13654378056526184, -0.09031301736831665, -0.01876271888613701, -0.0047361222095787525, 0.08659358322620392, -0.015973752364516258, -0.15902380645275116, -0.17615506052970886, -0.13406138122081757, -0.21594229340553284, -0.12838593125343323, -0.04767670854926109, 0.0009380326373502612, 0.01622062548995018, 0.04003306105732918, -0.03368864580988884, -0.03840705379843712, -0.09261316806077957, -0.23280461132526398, -0.14834995567798615, -0.15948648750782013, -0.18781648576259613, 0.0018304715631529689, 0.05166739970445633, 0.0773465484380722, 0.0991724282503128, 0.06213466823101044, 0.08237780630588531, -0.07396016269922256, -0.1470358818769455, -0.1230986937880516, -0.12370920181274414, -0.2985604405403137, -0.2348777949810028, -0.030368590727448463, 0.07619641721248627, 0.06613308191299438, 0.03395121544599533, -0.016909688711166382, -0.0017214908730238676, -0.14056745171546936, -0.0328892320394516, -0.029306327924132347, -0.06811627745628357, -0.31109198927879333, -0.10146945714950562, 0.077170230448246, 0.06942538172006607, 0.09492547065019608, -0.057748258113861084, 0.006102101877331734, 0.004333484452217817, -0.11190955340862274, -0.06441473960876465, -0.12506940960884094, -0.19280362129211426, -0.16111959517002106, 0.0601622574031353, 0.13601069152355194, 0.13053947687149048, 0.05165679007768631, -0.014180490747094154, -0.016142917796969414, 0.025584809482097626, -0.022511383518576622, -0.06807973980903625, -0.06730905175209045, 0.008039235137403011, 0.00534626143053174, 0.0976751372218132, 0.11734957993030548, 0.08476347476243973, 0.1648685336112976, 0.08362259715795517, 0.04559217765927315, 0.046227168291807175, 0.03691311925649643, 0.032241180539131165, 0.020010624080896378, 0.06890793144702911, 0.07003562897443771, 0.03148767352104187, -0.04848591238260269, -0.027915500104427338, 0.07486338913440704, 0.02425522170960903, -0.03868809714913368, -0.02604629658162594, -0.03340804949402809, -0.01646333560347557, -0.009211067110300064, -0.04864615201950073, -0.12302331626415253, -0.01094699278473854, 0.033811792731285095, -0.02686752937734127, -0.016825400292873383, 0.06439375132322311, 0.04253542795777321, 0.06983227282762527, 0.048202261328697205, 0.11752773076295853, 0.09950558841228485, 0.1148514524102211, 0.12716200947761536, 0.09270495176315308, 0.07214247435331345, 0.040210191160440445, 0.03231014683842659, 0.059324830770492554, 0.053380679339170456, 0.04541107639670372, 0.0824558287858963, 0.17026486992835999, 0.24660977721214294, 0.16634592413902283, 0.1985749751329422, 0.10279297828674316, 0.09123294055461884, 0.07741548120975494, 0.03360652178525925, 0.04868912324309349, 0.060777321457862854, 0.07897723466157913, 0.013625925406813622, 0.11884631961584091, 0.1235496774315834, 0.17786185443401337, 0.14142228662967682, 0.06906266510486603, 0.0759468600153923, 0.06690805405378342, 0.03796571493148804, 0.06987179815769196, 0.0644538402557373, 0.05867735296487808, -0.10888857394456863, -0.07526940107345581, -0.11228825896978378, 0.09890466183423996, 0.02910257689654827, 0.032826583832502365, 0.031368426978588104, 0.026953166350722313, 0.08043918013572693, 0.06029291823506355, 0.06976205855607986, 0.04069151356816292, -0.0140736885368824, -0.0735766813158989, -0.12526994943618774, 0.05377090349793434, 0.0013293973170220852, 0.03897939994931221, 0.02214447408914566, 0.0904613584280014, 0.08552057296037674, 0.042155470699071884, 0.09901504963636398, 0.028321009129285812, 0.07209507375955582, 0.13808566331863403, -0.002556219696998596, 0.15494763851165771, 0.06294651329517365, 0.022199464961886406, -0.003129140008240938, 0.07845962792634964, 0.031450413167476654, 0.04370710998773575, 0.08574957400560379, 0.04566990211606026, 0.059686701744794846, 0.290583074092865, 0.0686078742146492, 0.08830910921096802, 0.09032849967479706, -0.01600383222103119, -0.02593645639717579, 0.04663432762026787, 0.0034211643505841494, 0.039326030761003494, 0.0764850452542305, 0.04024990648031235, 0.1022467389702797, 0.16745823621749878, 0.16345354914665222, 0.082267165184021, 0.055352672934532166, -0.03380848094820976, -0.012243710458278656, -0.05439299717545509, -0.004858836065977812, 0.049519043415784836, 0.02473611943423748, 0.031120089814066887, -0.012490141205489635, 0.11492786556482315, 0.1380610316991806, 0.04033802077174187, -0.06094682589173317, -0.05591858550906181, 0.01582959108054638, -0.0011059158714488149, 0.05812471732497215, 0.052720293402671814, 0.03062993288040161, 0.056434743106365204, 0.11380311846733093, 0.16683714091777802, 0.06399397552013397, -0.05297733470797539, -0.08788227289915085, -0.028214503079652786, 0.06452637910842896, 0.011292443610727787, 0.029723364859819412, 0.04556858539581299, 0.07308565825223923, 0.10343479365110397, 0.14597634971141815, 0.17018921673297882, 0.008851748891174793, 0.005689989775419235, -0.03497862443327904, -0.01478917058557272, 0.05896395444869995, 0.02455301024019718, 0.053604964166879654, 0.06130871921777725, 0.04930323734879494, 0.08078569173812866, 0.08971709758043289, 0.039851974695920944, -0.00842707883566618, 0.05187380313873291, 0.0066303382627666, -0.027407310903072357, 0.059447504580020905, 0.05528087168931961, 0.04209451377391815, 0.1520797461271286, 0.09465325623750687, 0.07158727198839188, -0.043604616075754166, -0.12835097312927246, -0.06233923137187958, -0.0009746904252097011, 0.029070351272821426, -0.01911047101020813, 0.06964226067066193, 0.0739426240324974, 0.05631973594427109, 0.0705578625202179, -0.04941640794277191, -0.10426720976829529, -0.15214455127716064, -0.28363487124443054, -0.22403530776500702, -0.1353035569190979, -0.16773954033851624, -0.12129690498113632, -0.003404922317713499, -0.06396326422691345, -0.19164498150348663, 0.14054343104362488, 0.06530547887086868, -0.014717299491167068, -0.08071541041135788, -0.24082396924495697, -0.21969154477119446, -0.15511219203472137, -0.19058072566986084, -0.11806414276361465, -0.06757356226444244, -0.10067055374383926, -0.15898258984088898, -0.0004832546692341566, -0.06508579105138779, -0.1387358158826828, -0.09836038202047348, -0.14588774740695953, -0.16784346103668213, -0.17265594005584717, -0.08220689743757248, -0.08227142691612244, -0.06524157524108887, -0.08885660022497177, -0.13533978164196014, -0.1537400633096695, 0.023744450882077217, 0.059093039482831955, 0.06272781640291214, -0.08828212320804596, -0.16779859364032745, -0.058200523257255554, -0.041377052664756775, -0.07761483639478683, -0.0716337189078331, -0.041537247598171234, -0.08127707242965698, -0.09476453065872192, -0.11237868666648865, -0.014260241761803627, 0.031221570447087288, -0.08437924087047577, -0.159404456615448, -0.08893817663192749, -0.025700347498059273, -0.0724930539727211, 0.013704716227948666, 0.03079846315085888, -0.010745769366621971, 0.10842790454626083, 0.05810154229402542, 0.016065655276179314, -0.015072188340127468, -0.19756223261356354, -0.17876632511615753, -0.05551997572183609, -0.028923029080033302, -0.08828174322843552, -0.02271667867898941, 0.06620117276906967, 0.0456959493458271, -0.0492422878742218, 0.051017340272665024, 0.11553101986646652, -0.05219871550798416, -0.0864182710647583, -0.07662193477153778, -0.031744539737701416, -0.09938520938158035, -0.09707599878311157, -0.06157011538743973, -0.022011807188391685, 0.057123828679323196, 0.1851090043783188, 0.08049408346414566, 0.0850178524851799, -0.03876568749547005, -0.07355757057666779, -0.013151638209819794, -0.006746391300112009, -0.06477593630552292, -0.02875528112053871, 0.013169483281672001, 0.040334850549697876, -0.006316946353763342, -0.05314943194389343, 0.042813751846551895, 0.10030966252088547, 0.06828048825263977, 0.016572019085288048, -0.011845034547150135, 0.0040490105748176575, -0.0025147919077426195, 0.0872144028544426, 0.07522238045930862, 0.049934569746255875, 0.12331025302410126, 0.053706008940935135, 0.07863860577344894, 0.07703384757041931, 0.03469496965408325, 0.011945010162889957, -0.050557222217321396, -0.038947153836488724, 0.042624108493328094, 0.058260608464479446, 0.058190248906612396, 0.06405852735042572, 0.01763985864818096, 0.058499183505773544, 0.017047947272658348, 0.002101870719343424, 0.04715358465909958, 0.0010058893822133541, -0.004145356360822916, -0.014228343963623047, 0.007335534319281578, 0.02507382445037365, 0.05967231094837189, -0.025034615769982338, -0.11548803001642227, -0.03398289158940315, -0.015061328187584877, -0.09645246714353561, -0.02908502332866192, -0.006592856720089912, 0.06028147414326668, 0.08453430980443954, -0.02002074383199215, 0.0030133891850709915, 0.03349325805902481, -0.02978038229048252, -0.07221140712499619, -0.10934950411319733, 0.005689147859811783, -0.06551646441221237, -0.058756787329912186, -0.013455650769174099, -0.01755116693675518, -0.006386369001120329, -0.025813311338424683, -0.008250593207776546, 0.0028398807626217604, -0.003952245227992535, -0.08697070926427841, -0.0061050946824252605, -0.04582391306757927, -0.036492783576250076, -0.03538620099425316, -0.02152891270816326, 0.005185422487556934, -0.01176990196108818, -0.004656427539885044, -0.00029150216141715646, -0.026073820888996124, -0.023392995819449425, -0.050564222037792206, -0.020356815308332443, -0.05104174092411995, 0.000534560764208436, -0.05606858432292938, -0.026281611993908882, 0.000542747788131237, 0.02915973775088787, 0.02819664217531681, -0.04802335053682327, -0.014392172917723656, -0.03351719677448273, -0.04293164983391762, 0.008985704742372036, -0.018453558906912804, -0.046299535781145096, -0.016673581674695015, -0.009391815401613712, 0.008936592377722263, 0.058250799775123596, 0.03158767148852348, -0.018578337505459785, -0.017293546348810196, -0.02178073115646839, -0.025695426389575005, -0.03224031999707222, -0.07338225096464157, -0.09645213931798935, -0.03837355226278305, -0.047702156007289886, 0.06278572976589203, 0.03087753988802433, 0.05156133323907852, -0.009390605613589287, 0.0022746524773538113, 0.00015089705993887037, -0.03268962725996971, -0.08420304208993912, -0.028537433594465256, -0.04157084971666336, -0.0718323141336441, -0.068303681910038, 0.010745467618107796, 0.013067350722849369, 0.008521928451955318, -0.02107621356844902, -0.05210172012448311, -0.04685157537460327, -0.0062121739611029625, -0.1404428333044052, -0.16581982374191284, -0.06485874950885773, -0.038913458585739136, -0.07005377113819122, -0.007395551539957523, 0.011827068403363228, 0.0069573852233588696, -0.039900049567222595, -0.05533358082175255, -0.03384583070874214, 0.029161859303712845, -0.03590400889515877, -0.10040505230426788, -0.009934243746101856, -0.02859874628484249, -0.025068936869502068, -0.015310718677937984, 0.027774451300501823, 0.018483243882656097, -0.024375133216381073, -0.0469699427485466, 0.0022480946499854326, 0.015344313345849514, -0.04086888208985329, 0.02129289321601391, -0.04963790252804756, -0.017364270985126495, -0.0003400279092602432, 0.003929551690816879, 0.02258085273206234, 0.0032256171107292175, 0.03044060245156288, 0.040789246559143066, -0.012503140605986118, 0.04798336699604988, 0.04131359979510307, 0.04170079901814461, 0.014183657243847847, 0.01071255188435316, 0.017582934349775314, -0.003514278447255492, 0.020793726667761803, 0.04324692115187645, 0.0570845827460289, 0.048910245299339294, 0.03681068494915962, -0.036436546593904495, -0.002467438578605652, -0.007112541235983372, 0.009010929614305496, -0.02857130765914917, -0.03645605221390724, -0.001983076333999634, -0.021333714947104454, -0.0005107070901431143, 0.01335499994456768, -0.020560476928949356, 0.013486279174685478, -0.12960919737815857, 0.09888835996389389, -0.009250015951693058, -0.07726462930440903, -0.023539992049336433, 0.01781783439218998, 0.08132226020097733, 0.041614830493927, -0.02794312685728073, 0.11401273310184479, 0.05080273002386093, 0.017299817875027657, -0.11278171837329865, 0.06962618231773376, -0.03552201762795448, -0.08416328579187393, -0.02720164693892002, -0.022234823554754257, -0.08163799345493317, -0.021270358934998512, -0.048492178320884705, -0.06596992164850235, -0.017074288800358772, -0.0924917608499527, -0.18388418853282928, -0.046353891491889954, -0.060671545565128326, 0.05642308294773102, -0.023698875680565834, -0.05007940158247948, -0.01088699884712696, -0.0420142337679863, -0.1318901777267456, -0.205552339553833, -0.05738304182887077, 0.0022510583512485027, -0.05541079491376877, -0.1488906592130661, 0.04582523927092552, 0.05814824998378754, -0.12225917726755142, -0.026019370183348656, -0.037934739142656326, -0.10559432208538055, -0.17734698951244354, -0.16423822939395905, 0.0030671285931020975, 0.04671551659703255, -0.060975633561611176, -0.09013518691062927, -0.00712615204975009, -0.058908745646476746, -0.09654022753238678, -0.018058454617857933, -0.08780521154403687, -0.059118252247571945, -0.1467083990573883, -0.054850488901138306, -0.01924399845302105, -0.004851051140576601, -0.03697768971323967, -0.0293133482336998, -0.009768801741302013, 0.022402331233024597, -0.07153552025556564, -0.11224756389856339, -0.08560092747211456, -0.07905902713537216, -0.08750830590724945, -0.04314242675900459, 0.01761573925614357, 0.054916273802518845, -0.0551350973546505, -0.09564555436372757, -0.024505872279405594, -0.00153050955850631, -0.06333968043327332, -0.1449562907218933, -0.08382300287485123, -0.07685551792383194, -0.06789253652095795, -0.07895977050065994, -0.05533309653401375, 0.030682582408189774, 0.09338222444057465, -0.2317146211862564, -0.10041018575429916, -0.011177184991538525, -0.06996848434209824, -0.213754802942276, -0.1668916642665863, -0.03766314685344696, 0.005713184829801321, -0.1574700027704239, -0.1056603416800499, 0.0777839869260788, 0.0693698599934578, -0.039735499769449234, 0.047025877982378006, 0.043960120528936386, -0.12388043105602264, -0.22555352747440338, -0.2391335368156433, -0.016971025615930557, -0.03235970810055733, -0.14104190468788147, -0.018296660855412483, -0.029249312356114388, -0.019636329263448715, 0.151272252202034, 0.0678553581237793, -0.054433759301900864, -0.19049960374832153, -0.25141310691833496, -0.24225181341171265, -0.13617295026779175, -0.12295150011777878, -0.002884260378777981, 0.007085639517754316, -0.05012952908873558, 0.0663926750421524, -0.10563509166240692, -0.11557108908891678, -0.024016624316573143, -0.11971498280763626, -0.14658410847187042, -0.12623366713523865, -0.07767170667648315, -0.07464857399463654, 0.02390294522047043, 0.015848439186811447, -0.02437765523791313, 0.033806633204221725, -0.10065445303916931, -0.027896033599972725, 0.05492839589715004, 0.06323152780532837, 0.01862732693552971, -0.014296255074441433, 0.047809381037950516, 0.008197056129574776, -0.012004978954792023, 0.05905025452375412, -0.030968787148594856, -0.179924875497818, 0.08735069632530212, 0.07618087530136108, 0.038524266332387924, 0.031399380415678024, 0.07218216359615326, 0.09161627292633057, 0.09500300884246826, 0.09882430732250214, 0.1410508006811142, 0.11632129549980164, 0.08426853269338608, 0.06256555765867233, 0.07295635342597961, 0.00681041507050395, -0.044050004333257675, -0.016447683796286583, 0.005662616342306137, 0.044236309826374054, 0.06906315684318542, 0.14563068747520447, 0.199414923787117, 0.12740132212638855, 0.04492377117276192, 0.01658208854496479, 0.024939293041825294, 0.007204270455986261, -0.050265926867723465, -0.1352216899394989, -0.07652633637189865, -0.0031534021254628897, 0.044680312275886536, 0.10977481305599213, 0.08692380785942078, 0.07760965079069138, 0.02799772284924984, 0.00409007677808404, 0.047653038054704666, 0.03765939176082611, -0.07823099195957184, -0.16877925395965576, -0.06463412940502167, 0.052243199199438095, 0.08719780296087265, -0.09909892082214355, -0.0943027213215828, 0.02489788644015789, 0.030248740687966347, 0.04984167218208313, 0.07134266197681427, -0.0018148123053833842, -0.007864641025662422, -0.02997078374028206, 0.07764586806297302, 0.18822312355041504, 0.05098520591855049, -0.2083902359008789, -0.15791583061218262, 0.010860183276236057, 0.05337712913751602, 0.046302925795316696, 0.07170656323432922, 0.02923247404396534, 0.07714222371578217, 0.03811543434858322, 0.14003141224384308, 0.19865882396697998, -0.024570830166339874, -0.2455132007598877, -0.09633757919073105, 0.061696045100688934, 0.08622176945209503, 0.08664843440055847, 0.035935934633016586, 0.023863906040787697, 0.05041811242699623, 0.04269322752952576, 0.1046367734670639, 0.19376249611377716, -0.03670097887516022, -0.04357045888900757, 0.03352644294500351, 0.06483324617147446, 0.11864808201789856, 0.09729301929473877, -0.01713726669549942, -0.015127293765544891, 0.04157114773988724, 2.0952524209860712e-05, 0.04265088215470314, 0.07649324089288712, 0.08475646376609802, 0.07149797677993774, -0.003965870942920446, -0.010224152356386185, 0.06526206433773041, 0.040127143263816833, -0.010423757135868073, 0.07729417830705643, 0.0657983273267746, 0.011648647487163544, 0.06423396617174149, 0.04858754202723503, 0.1590249240398407, -0.03654935210943222, -0.15975376963615417, -0.017212379723787308, 0.0580676794052124, -0.0007659746916033328, 0.10459283739328384, 0.06299729645252228, 0.06591451913118362, 0.1303115338087082, 0.02740231528878212, 0.03997942432761192, -0.1666536033153534, -0.3141818940639496, -0.16669373214244843, -0.032024115324020386, -0.0065650856122374535, 0.06493308395147324, 0.037641867995262146, 0.00012037651322316378, 0.1506340354681015, 0.0861787497997284, -0.024840300902724266, -0.18592795729637146, -0.20711587369441986, -0.16196036338806152, -0.08611749857664108, 0.03447556868195534, 0.08383625745773315, 0.06433023512363434, 0.06812363117933273, 0.06775277853012085, 0.10826894640922546, 0.06244475021958351, 0.029002735391259193, 0.001488773850724101, 0.022976046428084373, 0.013530679047107697, -0.0006996797164902091, 0.06046002358198166, 0.07006797194480896, 0.03083052858710289, 0.029164502397179604, 0.011238561943173409, -0.08492650836706161, -0.07759442925453186, -0.024255866184830666, -0.015073624439537525, -0.022304942831397057, 0.0034452155232429504, 0.013127977959811687, -0.0122609231621027, -0.0296196136623621, -0.03398910164833069, 0.04653057083487511, 0.006335513666272163, -0.06296531856060028, -0.048978518694639206, -0.022042367607355118, -0.018382161855697632, -0.0313345268368721, -0.011216054670512676, -0.016357429325580597, -0.020956233143806458, 0.014303331263363361, -0.04423061013221741, 0.026786647737026215, 0.001793731702491641, -0.04859144240617752, -0.06560226529836655, -0.022045647725462914, -0.012267924845218658, 0.05328324809670448, 0.014270512387156487, -0.03700191527605057, -0.03069988265633583, -0.0038624468725174665, -0.0576060526072979, -0.044621266424655914, -0.0173975620418787, -0.019036946818232536, -0.038928598165512085, -0.030834978446364403, 0.02193930372595787, 0.04412034898996353, 0.04518149048089981, -0.01345340721309185, -0.01517412532120943, -0.015755467116832733, -0.0434652715921402, -0.06457212567329407, -0.0004742585006169975, -0.04415261745452881, -0.03951837494969368, -0.03605692461133003, 0.0486898347735405, 0.06847015768289566, 0.06663376837968826, 0.002327228896319866, 0.001995517173781991, -0.023221319541335106, -0.05149446427822113, -0.03453327715396881, -0.014660217799246311, -0.03383994102478027, -0.061453238129615784, -0.02226567268371582, 0.021608123555779457, 0.03844953328371048, 0.05427239090204239, -0.047577761113643646, -0.004746529273688793, -0.031164057552814484, -0.06536485254764557, -0.03168775513768196, -0.05907854810357094, -0.06852330267429352, -0.032215993851423264, -0.011254938319325447, 0.01030416414141655, 0.06122363358736038, -0.020655043423175812, -0.047443632036447525, -0.06073395162820816, -0.061826907098293304, -0.04177170246839523, -0.06313806772232056, -0.07262162119150162, -0.059411074966192245, -0.07056225091218948, -0.007751969154924154, 0.020964091643691063, 0.04105882719159126, -0.013268210925161839, -0.06796209514141083, -0.05107620358467102, -0.005421039182692766, 0.040055591613054276, -0.06762464344501495, -0.0512436106801033, -0.060112010687589645, -0.01276012696325779, -0.00798103678971529, 0.05976584181189537, 0.03856195509433746, -0.001558375544846058, -0.006244841497391462, 0.0020219411235302687, 0.018736310303211212, 0.1022040992975235, 0.010987769812345505, -0.01167892012745142, -0.029394138604402542, -0.00014637073036283255, 0.0008561856811866164, 0.02297697588801384, 0.008499561809003353, 0.003857184201478958, 0.008055547252297401, 0.019040284678339958, -0.005774563644081354, 0.06386694312095642, -0.01749563403427601, -0.02598082646727562, 0.021211039274930954, 0.0029352258425205946, 0.006404364015907049, -0.008976993151009083, -0.01704322174191475, -0.019644845277071, 0.00342139252461493, 0.01703549548983574, -0.016893019899725914, -0.028300410136580467, 0.05742476135492325, -0.0064565460197627544, -0.02304762974381447, -0.0279234666377306, -0.051205091178417206, -0.07730669528245926, -0.0814211517572403, -0.10677509009838104, -0.040237151086330414, -0.032341938465833664, -0.07897540926933289, -0.08245230466127396, 0.021475227549672127, 0.05675815790891647, 0.0014312403509393334, -0.06967227905988693, -0.02388771064579487, 0.006199996452778578, 0.03229745477437973, 0.016817037016153336, -0.017848677933216095, 0.04192061349749565, 0.017793089151382446, -0.004279999993741512, 0.02884884737432003, 0.0643603503704071, -0.0695277526974678, -0.06432389467954636, -0.0095386803150177, 0.010082378052175045, 0.030445827171206474, 0.005150423385202885, 0.0381818488240242, 0.0031556177418679, 0.00015622065984643996, -0.05541986599564552, 0.03438391909003258, 0.0027060324791818857, -0.0344681441783905, -0.015847373753786087, -0.038940660655498505, -0.04331536218523979, 0.007187622599303722, 0.007346220314502716, 0.0020521634723991156, -0.024486064910888672, 0.010438644327223301, -0.029927993193268776, 0.006062638945877552, -0.03689316660165787, 0.00744481710717082, -0.020781751722097397, -0.014797196723520756, -0.01686841808259487, 0.06443618983030319, 0.03149016574025154, 0.016123292967677116, -0.01231295894831419, 0.01289044227451086, -0.07740267366170883, -0.010296941734850407, -0.0542544350028038, -0.0055877165868878365, -0.028661299496889114, -0.004489550832659006, 0.03173201531171799, 0.06109517440199852, 0.051144618541002274, -0.012666847556829453, 0.013316315598785877, -0.0006012896774336696, -0.08801684528589249, 0.04947086423635483, -0.021741563454270363, -0.0511869415640831, -0.06474858522415161, -0.04682360962033272, 0.05037664622068405, 0.05083262920379639, 0.04133547469973564, -0.003716809442266822, -0.008258705027401447, -0.025608306750655174, -0.06260153651237488, 0.046623896807432175, -0.04103461280465126, -0.06778963655233383, -0.050592806190252304, -0.07649797201156616, 0.03342925384640694, 0.045210182666778564, 0.019060973078012466, -0.041690971702337265, -0.058017484843730927, -0.04444636404514313, -0.038472313433885574, -0.04177882522344589, -0.10713192075490952, -0.07262914627790451, -0.04443458467721939, -0.04616681858897209, 0.010954220779240131, 0.0773920863866806, -0.004273955710232258, -0.06323777884244919, -0.05053954944014549, -0.023175247013568878, 0.058915723115205765, -0.026234658434987068, -0.06582369655370712, -0.014308163896203041, -0.05198799446225166, 0.0008913709316402674, 0.04556248337030411, 0.05614134669303894, -0.012785314582288265, -0.02580650895833969, -0.028481388464570045, 0.0008602733723819256, 0.07703530043363571, 0.024000251665711403, -0.02766786515712738, -0.019574271515011787, -0.01730271987617016, -0.01152388658374548, 0.03141527622938156, 0.04184772074222565, 0.011368256993591785, 0.008812823332846165, -0.006092844530940056, -0.018472563475370407, 0.07582134008407593, 0.08115364611148834, 0.0072318799793720245, -0.03503629192709923, -0.005498846527189016, 0.00018915673717856407, 0.029821107164025307, 0.015586168505251408, -0.0017180914292111993, 0.00358193670399487, 0.04596748575568199, -0.036074426025152206, 0.04725853353738785, -0.006939183454960585, -0.02885570004582405, -0.0363650880753994, -0.0026873962488025427, 0.002173022832721472, -0.01831522025167942, -0.03271264210343361, -0.06408248096704483, 0.020760463550686836, 0.03573304042220116, -0.03769996017217636, -0.04348103329539299, 0.09961484372615814, -0.02485620230436325, -0.04811456799507141, 0.02225043810904026, 0.0933256447315216, 0.12828068435192108, 0.040856070816516876, 0.0950019508600235, 0.1745188981294632, 0.10495766252279282, -0.12269841134548187, -0.01261829026043415, 0.07448569685220718, -0.06315027177333832, -0.12980037927627563, 0.02930676005780697, 0.07285769283771515, 0.07498552650213242, 0.08641169220209122, 0.2511008381843567, 0.2665309011936188, 0.21689848601818085, -0.1023699939250946, -0.020457910373806953, 0.031212162226438522, 0.007338858675211668, -0.03823809325695038, -0.025269515812397003, 0.009753677994012833, 0.023164888843894005, 0.0889187827706337, 0.1714145988225937, 0.010186972096562386, -0.007555925287306309, -0.14309734106063843, -0.07048177719116211, -0.029466867446899414, 0.0054457890801131725, -0.07682356983423233, -0.04476018249988556, -0.021021768450737, 0.03143489360809326, 0.10147662460803986, 0.06137523800134659, -0.1609068512916565, -0.15028931200504303, -0.13347087800502777, 0.0017790673300623894, -0.03520132228732109, 0.008413856849074364, -0.021584050729870796, -0.08322981745004654, -0.0236635971814394, 0.03235207125544548, 0.1364278793334961, 0.07433145493268967, -0.05344735085964203, -0.1596945971250534, -0.131806880235672, -0.007875077426433563, -0.05711278319358826, -0.11119449138641357, -0.04732884094119072, -0.09726272523403168, 0.010030502453446388, 0.08752183616161346, 0.06745114922523499, 0.06964370608329773, 0.11742304265499115, -0.007231559604406357, -0.07004248350858688, 0.05552363768219948, 0.024368925020098686, -0.13401474058628082, -0.04702666774392128, -0.09453869611024857, -0.01694028452038765, 0.15397290885448456, 0.07787125557661057, 0.028757726773619652, 0.1005173921585083, -0.105122871696949, 0.026282887905836105, 0.061071913689374924, -0.214745432138443, -0.09694375842809677, -0.0980435311794281, -0.10409130901098251, -0.0020430507138371468, 0.28086942434310913, 0.21288779377937317, -0.18308600783348083, -0.22843725979328156, -0.2536117136478424, 0.07438675314188004, 0.07532327622175217, -0.07636217772960663, -0.06711648404598236, -0.07317747175693512, -0.07887545228004456, 0.014447604306042194, 0.2506841719150543, 0.11678361147642136, -0.08728010207414627, -0.13866598904132843, -0.02734987810254097, 0.08152535557746887, 0.054882459342479706, -0.030781278386712074, -0.06405147910118103, -0.05417732149362564, -0.03255384415388107, 0.021888157352805138, 0.13237980008125305, 0.0749889686703682, 0.042616650462150574, 0.07917813211679459, 0.08744143694639206, 0.13142022490501404, 0.167659729719162, 0.0062048910185694695, -0.013355168513953686, 0.0031119068153202534, 0.05237257853150368, 0.06910733878612518, 0.07438019663095474, 0.0013496105093508959, 0.06744144856929779, 0.10386674851179123, 0.05618050694465637, 0.10886704921722412, 0.14826872944831848, 0.053425248712301254, -0.01669340394437313, 0.02029505744576454, 0.03467915207147598, 0.03084063157439232, 0.06594646722078323, -0.0348048098385334, 0.059681251645088196, 0.13824462890625, -0.0857200101017952, -0.06595661491155624, -0.009125805459916592, 0.04831879958510399, 0.03988702967762947, 0.050132665783166885, 0.06314438581466675, 0.023769959807395935, 0.007949595339596272, 0.006343720946460962, 0.01564604602754116, 0.028825417160987854, 0.02266998030245304, 0.04616307467222214, 0.0485767237842083, 0.05875610560178757, 0.06751669943332672, 0.07446892559528351, 0.06764423847198486, 0.02119959518313408, -0.0204168688505888, -0.003072756342589855, -0.00876711867749691, -0.004457124043256044, 0.020590059459209442, 0.01705116033554077, 0.03490879759192467, 0.03835570812225342, 0.06689440459012985, 0.0785541906952858, -0.02640218660235405, -0.009373935870826244, -0.02079719863831997, -0.017541415989398956, -0.038149893283843994, 0.0017633939860388637, 0.030210554599761963, -0.0018028963822871447, 0.005115050822496414, 0.06030192971229553, 0.06687480211257935, 0.0428287647664547, -0.05295306816697121, -0.026936858892440796, -0.031654492020606995, 0.005334305576980114, 0.014103188179433346, -0.011815514415502548, 0.012478896416723728, 0.01245079468935728, -0.0005155764520168304, 0.05311965569853783, 0.057813700288534164, 0.024471016600728035, -0.03748094290494919, -0.052195675671100616, -0.019476355984807014, 0.05168263614177704, 0.04352926090359688, 0.013577223755419254, -0.011847950518131256, 0.007880987599492073, 0.03158637881278992, 0.05206993594765663, 0.04472539573907852, 0.04132639616727829, -0.06892470270395279, -0.10049358755350113, -0.026947233825922012, 0.05173109844326973, 0.04073888435959816, -0.02409689873456955, 0.005220130085945129, 0.008092861622571945, 0.02765721268951893, 0.04624204710125923, 0.04305176064372063, 0.0015945709310472012, -0.009219730272889137, -0.0725269541144371, 0.038404904305934906, 0.019921697676181793, -0.00035624337033368647, -0.04818854480981827, -0.06012256070971489, -0.008751285262405872, 0.025237828493118286, 0.05455571785569191, 0.0315825492143631, -0.03400428965687752, -0.06624665856361389, -0.08474460244178772, 0.005558062344789505, 0.0351465679705143, 0.0026156927924603224, -0.05909374728798866, -0.014383893460035324, 0.007056861650198698, 0.06840047985315323, 0.019812969490885735, -0.02017281949520111, -0.037731271237134933, -0.04014367610216141, -0.01686406508088112, -0.016217418015003204, 0.017434488981962204, -0.026489682495594025, -0.0036598218139261007, -0.004632166121155024, 0.03730519488453865, 0.09485931694507599, 0.08698544651269913, 0.015929296612739563, 0.010793942026793957, -0.021210430189967155, 0.010247989557683468, 0.011151239275932312, -0.013150219805538654, -0.005462548695504665, 0.039727456867694855, 0.04923594743013382, 0.053874555975198746, 0.06491413712501526, 0.049892622977495193, 0.05294818803668022, 0.032411281019449234, -0.01263822615146637, 0.01229614857584238, -0.008220385760068893, 0.006316411308944225, 0.016557279974222183, 0.06764904409646988, 0.08101318031549454, 0.04373519867658615, 0.06138413026928902, 0.046979162842035294, 0.041098058223724365, -0.0007040185737423599, 0.019838349893689156, -0.00719580240547657, -0.003159502986818552, 0.0008740437915548682, -0.015182660892605782, 0.03884352371096611, 0.07691410928964615, 0.03287371248006821, 0.04472903534770012, 0.11904678493738174, 0.05243278667330742, 0.02032311074435711, -0.02225118689239025, -0.07959437370300293, -0.031080812215805054, -0.02186083234846592, 0.013273202814161777, -0.008839946240186691, 0.015087822452187538, 0.008820327930152416, -0.03352620080113411, 0.030565712600946426, 0.009151071310043335, 0.005677260924130678, 0.0003478724102023989, -0.05319543555378914, -0.04764600098133087, -0.03726993128657341, -0.020142972469329834, -0.025213513523340225, 0.0061808740720152855, -0.005432575941085815, -0.0521758496761322, 0.018056774511933327, -0.0007579904049634933, 0.05914023518562317, 0.02118709310889244, -0.024905260652303696, -0.036443080753088, 0.032608430832624435, 0.0009072076645679772, -0.007318898104131222, -0.012055043131113052, -0.0012232400476932526, -0.08610078692436218, -0.09675615280866623, 0.015907103195786476, 0.0034831927623599768, 0.015299438498914242, -0.0511355958878994, -0.06819768995046616, -0.0005483064451254904, -0.0044294134713709354, -0.06143748387694359, -0.06988578289747238, 0.0180595051497221, -0.07171571999788284, 0.0007389336824417114, 0.07244938611984253, -0.01904202252626419, -0.05581630766391754, -0.1008492037653923, -0.08865145593881607, 0.006530904211103916, -0.00601893151178956, -0.07908959686756134, -0.07309645414352417, -0.0023818612098693848, -0.050977177917957306, -0.01810704544186592, -0.02762657031416893, 0.005257383920252323, -0.048027634620666504, -0.16612312197685242, -0.09356031566858292, 0.015104580670595169, -0.020177030935883522, -0.057786911725997925, -0.07466667145490646, -0.08781331032514572, -0.10046108067035675, 0.0022538520861417055, -0.03779521957039833, -0.03842727839946747, -0.07538385689258575, -0.15585963428020477, 0.042592186480760574, 0.018742723390460014, 0.005182954017072916, -0.07412393391132355, -0.028181076049804688, -0.026669733226299286, -0.015463057905435562, -0.16572047770023346, -0.059260979294776917, -0.045468319207429886, -0.07367381453514099, -0.07937676459550858, -0.023415183648467064, 0.0263656098395586, -0.013010120950639248, -0.0316053181886673, -0.02511649951338768, 0.015102483332157135, 0.06965339928865433, 0.13243620097637177, 0.07616470009088516, 0.02224615029990673, 0.0028624560218304396, 0.03551001101732254, 0.022375717759132385, 0.06950832903385162, -0.032017942517995834, 0.002879724372178316, 0.048302169889211655, 0.014284239150583744, 0.07108669728040695, 0.10375408828258514, 0.04716211557388306, 0.010161479003727436, -0.06598484516143799, -0.023685133084654808, -0.03270059451460838, -0.02622206322848797, -0.05147353932261467, 0.004140494391322136, -0.005700085777789354, -0.04887312650680542, -0.013197455555200577, -0.06409277021884918, -0.11108005046844482, -0.09726105630397797, -0.09808199107646942, -0.029659824445843697, -0.10477065294981003, -0.07199099659919739, -0.12919172644615173, -0.044076427817344666, 0.043654944747686386, -0.03979792818427086, 0.03840330243110657, -0.0011105468729510903, 0.07051119208335876, 0.05185122415423393, 0.028788287192583084, -0.059052109718322754, -0.017745444551110268, -0.02237912081182003, 0.009451417252421379, 0.03952592983841896, 0.09126103669404984, -0.056223612278699875, -0.04909372702240944, 0.08888285607099533, 0.016574911773204803, -0.03755674138665199, -0.0018837552051991224, -0.04719161614775658, 0.04038933292031288, -0.05447913706302643, -0.034829795360565186, -0.015443013980984688, 0.008689012378454208, -0.02892126515507698, -0.11866673082113266, 0.10239941626787186, 0.03185494616627693, -0.030739830806851387, 0.015020727179944515, -0.027214182540774345, -0.03191192448139191, -0.046049173921346664, -0.05397503077983856, -0.06314487755298615, -0.039208728820085526, -0.023723283782601357, -0.010858182795345783, -0.010551496408879757, 0.06379026174545288, -0.037662576884031296, -0.03158186376094818, -0.08253960311412811, -0.07847907394170761, -0.09404005855321884, -0.062015607953071594, -0.09570177644491196, -0.04250069335103035, -0.042859286069869995, -0.09029066562652588, -0.04380983114242554, 0.009075356647372246, 0.0067421020939946175, 0.020177748054265976, -0.0427716039121151, 0.02049877494573593, -0.010441068559885025, -0.10738718509674072, -0.08940517157316208, -0.07971938699483871, -0.08697400987148285, -0.13353382050991058, -0.04105978459119797, -0.06971914321184158, -0.04430500045418739, -0.07527828216552734, -0.07700631022453308, 0.045581474900245667, -0.011669555678963661, -0.07174772769212723, -0.10628033429384232, -0.0911603718996048, -0.029103867709636688, -0.05006863921880722, 0.07322917878627777, -0.08533671498298645, 0.06394104659557343, -0.09808046370744705, -0.06785664707422256, 0.009370235726237297, -0.07368578761816025, -0.1267724335193634, -0.22255773842334747, -0.13950440287590027, -0.0637650191783905, -0.006978954188525677, -0.0048765502870082855, -0.12193763256072998, -0.019137855619192123, -0.08149252086877823, -0.09228304773569107, -0.029886992648243904, -0.11294972151517868, -0.16588348150253296, -0.23255401849746704, -0.21873503923416138, -0.07550947368144989, -0.08270889520645142, -0.187294602394104, -0.08397560566663742, -0.05054900795221329, -0.10459350049495697, -0.12019403278827667, -0.03259439766407013, -0.0887289047241211, -0.11293196678161621, -0.17100204527378082, -0.06127827242016792, 0.06319372355937958, 0.03694910928606987, -0.049245916306972504, -0.045720409601926804, -0.03727049380540848, 0.019549915567040443, -0.03245044872164726, -0.02625146135687828, -0.0388910248875618, -0.08081700652837753, -0.005899511277675629, 0.0823625773191452, 0.07769953459501266, 0.0688740462064743, 0.08463171124458313, 0.0383627787232399, 0.04975977540016174, 0.04717155173420906, -0.003991750068962574, 0.01585967279970646, -0.02248837798833847, 0.0163011085242033, 