{"layer1.0.weight": [[[[0.41375625133514404, 0.22503627836704254, -0.2504235506057739, -0.25092238187789917, -0.5614675879478455], [0.4524330794811249, -0.005027934443205595, -0.4072774350643158, -0.8231908679008484, -0.4064404368400574], [0.36349666118621826, -0.645000696182251, -0.892337441444397, -0.2661125659942627, 0.30142006278038025], [-0.3463897407054901, -0.6183331608772278, -0.39209073781967163, 0.32600486278533936, 0.3045605719089508], [-0.07521259784698486, 0.08364833146333694, 0.40586864948272705, 0.4346163868904114, 0.3732781410217285]]], [[[-0.07336243987083435, -0.009324608370661736, 0.10941699892282486, 0.027553945779800415, 0.18655751645565033], [0.206004798412323, 0.19129586219787598, 0.33081087470054626, 0.14135676622390747, 0.157149538397789], [-0.028324119746685028, 0.3196558654308319, 0.3885795474052429, 0.24615223705768585, 0.5102006196975708], [-0.47049543261528015, -0.42806583642959595, -0.16445063054561615, 0.21923097968101501, 0.00937283132225275], [-0.2551148235797882, -0.5757012963294983, -0.7210268378257751, -0.8667744994163513, -0.5321950316429138]]], [[[0.1187824159860611, 0.326334685087204, 0.08707964420318604, -0.20062948763370514, -0.39524081349372864], [0.23352648317813873, 0.24397648870944977, 0.2367367148399353, -0.5032907128334045, -0.45609769225120544], [0.13289345800876617, 0.5050783753395081, -0.11397784948348999, -0.4615100622177124, -0.43279749155044556], [0.38535115122795105, 0.26594454050064087, -0.2571616470813751, -0.6399816274642944, -0.23029601573944092], [0.3436991274356842, -0.049922265112400055, -0.5428686141967773, -0.5270051956176758, -0.27051499485969543]]], [[[0.07338801771402359, -0.06476636230945587, 0.22836695611476898, 0.32302141189575195, 0.16749615967273712], [0.31826916337013245, 0.3723505437374115, 0.25050589442253113, 0.23484927415847778, 0.34301501512527466], [-0.16529570519924164, 0.002270330674946308, -0.1513882875442505, -0.2118455469608307, -0.2804803252220154], [-0.37914374470710754, -0.6345027685165405, -0.6466891169548035, -0.6159123182296753, -0.42007213830947876], [0.11279166489839554, 0.27579593658447266, 0.21016760170459747, 0.2921367287635803, 0.16211247444152832]]], [[[0.22884175181388855, 0.016432423144578934, -0.07567346841096878, 0.004861245397478342, 0.12291593849658966], [0.118502177298069, 0.22800351679325104, 0.02608693391084671, 0.020414311438798904, 0.09818091243505478], [0.053775105625391006, -0.015589634887874126, -0.1612147092819214, -0.02268616296350956, -0.05707528069615364], [-0.1946539431810379, 0.019717613235116005, 0.21638019382953644, 0.18276706337928772, 0.10123387724161148], [0.08271726965904236, -0.03435948118567467, 0.14075346291065216, 0.07564117759466171, -0.12448728829622269]]], [[[0.04260701686143875, 0.26760557293891907, 0.1676366925239563, -0.07495783269405365, -0.31859904527664185], [0.0972989946603775, 0.37379518151283264, 0.022121330723166466, -0.31288549304008484, -0.2311042845249176], [0.20324000716209412, -0.00530837569385767, 0.07127387821674347, -0.08775420486927032, -0.13162188231945038], [-0.31494688987731934, -0.2859993577003479, 0.13026459515094757, 0.12459459900856018, 0.26616156101226807], [-0.3680886924266815, -0.21085180342197418, 0.30746835470199585, 0.05216004699468613, 0.25430405139923096]]], [[[0.23383387923240662, 0.47767889499664307, 0.393169105052948, -0.2068556398153305, -0.4681647717952728], [0.5475597381591797, 0.26468607783317566, -0.32437676191329956, -0.5726625323295593, -0.504673421382904], [0.020490329712629318, -0.7461543083190918, -0.7847131490707397, -0.7507233619689941, 0.12462656944990158], [-0.6778702139854431, -0.873271107673645, -0.33396780490875244, -0.037563756108284, 0.46902817487716675], [-0.5500463843345642, -0.13591094315052032, -0.016429025679826736, 0.12427036464214325, 0.4044528603553772]]], [[[-0.14271166920661926, -0.004947566892951727, 0.2021551877260208, 0.10953732579946518, 0.18416377902030945], [0.15175074338912964, 0.048020124435424805, 0.00998746883124113, -0.1736965775489807, 0.0004775364650413394], [-0.14906653761863708, 0.16299375891685486, 0.07139292359352112, 0.0068273176439106464, 0.14058591425418854], [0.20031455159187317, 0.09837988018989563, 0.10836408287286758, -0.07818429917097092, 0.10246849805116653], [-0.15892663598060608, -0.003963563125580549, 0.059559620916843414, 0.1443217247724533, 0.03436508774757385]]], [[[-0.09706399589776993, 0.11690208315849304, -0.04331693425774574, 0.1613934487104416, -0.16868405044078827], [0.01378681417554617, 0.12993593513965607, 0.16529005765914917, 0.04331284388899803, 0.05840402841567993], [-0.005532524548470974, -0.08050386607646942, 0.16756419837474823, 0.0016928005497902632, 0.09072954207658768], [-0.1128973662853241, 0.16007328033447266, 0.1243741437792778, 0.04387206956744194, 0.07060718536376953], [0.08909202367067337, 0.13286499679088593, 0.16960589587688446, 0.028692644089460373, -0.04128020256757736]]], [[[-0.0034894971176981926, -0.1685609519481659, 0.1455516219139099, 0.17899872362613678, 0.34981900453567505], [-0.3781745433807373, -0.33113980293273926, 0.14710386097431183, 0.413752943277359, 0.45569297671318054], [-0.4119744896888733, -0.4995651841163635, -0.2446315735578537, 0.16493335366249084, 0.22221238911151886], [-0.48688557744026184, -0.39795809984207153, -0.19561800360679626, 0.3077884018421173, 0.34564346075057983], [-0.5345532894134521, -0.6047602295875549, -0.4023524522781372, 0.10809291899204254, 0.4397624731063843]]], [[[-0.007303108926862478, -0.15068987011909485, 0.153254434466362, -0.12356486916542053, 0.051862578839063644], [0.02984108403325081, 0.0386701300740242, 0.09268057346343994, -0.11180984228849411, -0.3623773753643036], [0.06405165791511536, 0.13447155058383942, 0.19812770187854767, 0.10831411182880402, -0.21116429567337036], [-0.018570439890027046, -0.15396836400032043, 0.12204747647047043, 0.08011513948440552, 0.09524253755807877], [-0.042704638093709946, -0.2562491297721863, -0.0026657043490558863, -0.040799204260110855, -0.003822362283244729]]], [[[-0.05450451746582985, 0.050798483192920685, 0.13631419837474823, 0.07081275433301926, -0.18220403790473938], [-0.2962076961994171, -0.07169513404369354, 0.19681033492088318, -0.15929155051708221, -0.27026212215423584], [-0.2680109143257141, 0.09242166578769684, 0.14437277615070343, -0.1484779715538025, -0.25070661306381226], [0.0797739326953888, 0.15196289122104645, -0.11892980337142944, 0.1499401330947876, -0.11517977714538574], [0.14939776062965393, 0.1347000002861023, 0.10056614130735397, 0.23715807497501373, 0.14343340694904327]]], [[[-0.12878550589084625, -0.2130962461233139, -0.2583341896533966, -0.21710985898971558, -0.29943615198135376], [-0.155868262052536, 0.19209378957748413, 0.0237038042396307, -0.02960953116416931, 0.04790952056646347], [0.28540676832199097, 0.09513077139854431, 0.3431076109409332, 0.15756969153881073, -0.19188225269317627], [0.19300362467765808, 0.2310139387845993, -0.061606790870428085, 0.20224933326244354, 0.154380202293396], [-0.18554751574993134, -0.3566317558288574, -0.2369665801525116, 0.19483128190040588, 0.04187259078025818]]], [[[0.05176728591322899, -0.007407641038298607, 0.14819160103797913, 0.1070929691195488, -0.35027095675468445], [0.15266220271587372, 0.011599612422287464, -0.1106063649058342, 0.15156784653663635, -0.03757647052407265], [-0.19782902300357819, -0.1210821121931076, -0.12707780301570892, 0.013044080697000027, 0.25889357924461365], [-0.0028445094358175993, 0.17936007678508759, 0.16086527705192566, 0.06169682741165161, 0.33180564641952515], [-0.00012959625746589154, -0.021571297198534012, -0.09636183828115463, -0.4039765000343323, -0.1797623187303543]]], [[[0.023159967735409737, -0.1254262626171112, -0.19979463517665863, -0.1284487396478653, -0.030471494421362877], [-0.09288325160741806, -0.4010162055492401, -0.41613033413887024, -0.1899121105670929, -0.48405197262763977], [0.21594040095806122, -0.1184537336230278, -0.23340876400470734, -0.22623953223228455, -0.17279428243637085], [0.29599297046661377, 0.35840287804603577, 0.4657098352909088, 0.16608360409736633, 0.11995087563991547], [0.04767971113324165, 0.29875901341438293, 0.21708650887012482, 0.3379465937614441, 0.13747406005859375]]], [[[0.09768936038017273, 0.4409075975418091, 0.29077816009521484, -0.18055880069732666, -0.3735799491405487], [0.20731335878372192, 0.32300227880477905, 0.22250066697597504, -0.3629037141799927, -0.4285946488380432], [0.23329925537109375, 0.3925726115703583, 0.17388315498828888, -0.4275544285774231, -0.4908360540866852], [0.1516115665435791, 0.1554107815027237, 0.13608625531196594, -0.10313160717487335, -0.2259313315153122], [0.30234846472740173, 0.12607432901859283, 0.29266637563705444, -0.21980348229408264, -0.14028018712997437]]]], "layer1.0.bias": [-0.00791148655116558, 0.025093087926506996, 0.12448906898498535, -0.0003037686983589083, -0.21574631333351135, -0.10340961068868637, 0.2035699337720871, -0.16754087805747986, -0.21985290944576263, -0.0012830696068704128, 0.08157269656658173, -0.06632469594478607, -0.0026536614168435335, -0.01188648771494627, -0.025988958775997162, -0.2480759620666504], "fc.weight": [[-0.05786701664328575, 0.018088746815919876, 0.028595447540283203, -0.05279458686709404, -0.009799382649362087, 0.03296956047415733, 0.032241422683000565, 0.04537803679704666, -0.0020862000528723, -0.018845750018954277, -0.05907313525676727, -0.1502314656972885, 0.007893883623182774, 0.015788016840815544, -0.04202631115913391, -0.03989814221858978, -0.044391412287950516, -0.04686671867966652, -0.03331197798252106, -0.08844731003046036, -0.12361805886030197, -0.1108827069401741, -0.17661724984645844, -0.07854452729225159, 0.017624562606215477, 0.014134884811937809, -0.02698856219649315, -0.015922129154205322, -0.05573008581995964, -0.01524114515632391, -0.015137308277189732, -0.09156408905982971, -0.21516692638397217, -0.24240592122077942, -0.33234161138534546, -0.10797049105167389, 0.006491031497716904, 0.032094839960336685, -0.06477715820074081, -0.07327970862388611, 0.02018003910779953, -0.01375885121524334, -0.15073618292808533, -0.26887115836143494, -0.2515319585800171, -0.32148483395576477, -0.23651422560214996, -0.0517488569021225, -0.015116323716938496, -0.003670178120955825, 0.030107807368040085, 0.10084567219018936, 0.03990297019481659, -0.08589744567871094, -0.15496726334095, -0.22457149624824524, -0.21375539898872375, -0.19189797341823578, -0.14973515272140503, -0.03510333597660065, -0.051215123385190964, -0.00892095547169447, 0.130706325173378, 0.1373172551393509, -0.04824062064290047, -0.16489055752754211, -0.09889160841703415, -0.07603694498538971, -0.0698772519826889, 0.02006755955517292, -0.04233836755156517, 0.0721595510840416, 0.04354483634233475, -0.046265676617622375, 0.02206914685666561, 0.12350023537874222, 0.04693304002285004, 0.018904726952314377, -0.022551311179995537, -0.04050600528717041, 0.036340925842523575, 0.0703589990735054, 0.01394552830606699, 0.026661014184355736, 0.027761587873101234, -0.09144490212202072, -0.183699831366539, 0.006418419070541859, 0.016859276220202446, 0.04574747011065483, 0.0795649066567421, 0.0020856857299804688, 0.07810986787080765, 0.09977935254573822, 0.03336377814412117, 0.09775407612323761, -0.018016180023550987, -0.18625718355178833, -0.2321968674659729, 0.002463959390297532, 0.08816713839769363, 0.09874268621206284, 0.04307078197598457, 0.08435645699501038, 0.0383719764649868, 0.057212408632040024, 0.011187447234988213, 0.03174370899796486, -0.14831800758838654, -0.2731472849845886, -0.3285020589828491, -0.07743735611438751, 0.045758627355098724, 0.04197744280099869, 0.11985531449317932, 0.10845939815044403, 0.11921046674251556, 0.08553867787122726, 0.04888810217380524, 0.03222711756825447, -0.09175723791122437, -0.19800680875778198, -0.47047075629234314, -0.22395209968090057, -0.20136749744415283, -0.01118038222193718, 0.005460312590003014, 0.02611520327627659, 0.026148848235607147, 0.027192488312721252, -0.043312035501003265, -0.041768983006477356, 0.03080606460571289, -0.1844378113746643, -0.16103513538837433, -0.17039938271045685, -0.05293293669819832, -0.036723293364048004, -0.11993841081857681, -0.08278665691614151, -0.032558899372816086, -0.005259642377495766, -0.09512399137020111, -0.06007669121026993, 0.03641176596283913, 0.010094585828483105, 0.011676638387143612, 0.015564875677227974, -0.060585830360651016, -0.022945282980799675, 0.07192233204841614, 0.09348662197589874, 0.06227896362543106, 0.05037754401564598, 0.029797310009598732, 0.0427427664399147, -0.006294848397374153, -0.07443903386592865, -0.15341852605342865, -0.28705233335494995, -0.2511557638645172, -0.10400708019733429, -0.01860484853386879, -0.0035548906307667494, -0.011861816048622131, 0.008431092835962772, -0.0018789353780448437, -0.03259817138314247, 0.018175091594457626, -0.01807646080851555, -0.12870964407920837, -0.24650907516479492, -0.19288302958011627, -0.06190354749560356, -0.009668951854109764, 0.044185198843479156, -0.03765855357050896, 0.04824400693178177, 0.09437643736600876, -0.011282909661531448, 0.0005137178231962025, -0.1172185093164444, -0.05687648802995682, -0.08038309961557388, -0.07334370166063309, -0.08099435269832611, -0.08879517018795013, -0.10032683610916138, -0.09112612158060074, -0.10376758873462677, -0.015019198879599571, -0.04637794569134712, 0.050653666257858276, -0.15190556645393372, -0.09917605668306351, -0.08765876293182373, -0.09379077702760696, -0.029087262228131294, 0.0287400521337986, -0.08534422516822815, -0.1499287486076355, -0.21349284052848816, -0.16488730907440186, -0.0795309916138649, -0.022929811850190163, -0.15706266462802887, -0.24455077946186066, -0.24492858350276947, -0.08038810640573502, -0.11497507244348526, -0.12516488134860992, -0.07834567874670029, -0.04408479481935501, -0.04502249136567116, -0.106392502784729, -0.10240744799375534, -0.04718789458274841, -0.08430735021829605, -0.17665475606918335, -0.18201543390750885, -0.08923408389091492, -0.2642480731010437, -0.35213005542755127, -0.16389499604701996, 0.015133058652281761, 0.0029652398079633713, 0.021710362285375595, 0.000359414640115574, 0.04217470437288284, -0.044869087636470795, -0.05957537516951561, -0.08042522519826889, -0.22824783623218536, -0.30512237548828125, -0.18250012397766113, -0.0029951068572700024, 0.048654552549123764, 0.03365877643227577, 0.037822119891643524, 0.007019469980150461, 0.01542928908020258, -0.06906519830226898, -0.031070232391357422, 0.023192565888166428, 0.0168744008988142, 0.004356015473604202, 0.12322765588760376, 0.0955338180065155, 0.050725307315588, 0.04002691060304642, -0.020490987226366997, -0.09119228273630142, 0.04751311242580414, 0.025866812095046043, -0.06343395262956619, 0.003997023217380047, 0.018957823514938354, 0.03510076552629471, 0.035952500998973846, -0.050763409584760666, -0.059257879853248596, -0.05868048593401909, -0.09926492720842361, -0.10039576143026352, 0.01775703765451908, 0.013972774147987366, 0.0494874007999897, 0.06655625998973846, 0.07911378145217896, 0.06568550318479538, 0.02823486551642418, -0.016936372965574265, -0.050984855741262436, -0.0396696999669075, -0.06763220578432083, -0.08099356293678284, 0.004172102082520723, -0.025996370241045952, 0.011663071811199188, -0.07330603152513504, 0.00028589204885065556, -0.007303167600184679, -0.05745120719075203, -0.05939521640539169, -0.1000467911362648, -0.15761390328407288, -0.08696399629116058, -0.06436828523874283, -0.007624452002346516, 0.0017755174776539207, -0.016949152573943138, -0.009507917799055576, -0.056984882801771164, -0.007548908237367868, -0.023226989433169365, -0.028536420315504074, -0.0679202675819397, -0.00752230966463685, -0.011094764806330204, 0.009093642234802246, -0.003022989723831415, 0.00026008181157521904, -0.02002166397869587, -0.07208403944969177, -0.08034413307905197, -0.0906691774725914, -0.054960403591394424, -0.055293008685112, -0.05423886328935623, -0.09740474820137024, -0.049647703766822815, 0.00977181363850832, 0.016817590221762657, -0.020088737830519676, -0.05195708945393562, -0.11157984286546707, -0.07961069047451019, -0.046151261776685715, -0.02285737544298172, -0.10515805333852768, -0.060369908809661865, -0.07652437686920166, -0.030505795031785965, 0.05545449256896973, 0.004350820556282997, -0.0046557835303246975, 0.012586737051606178, -0.09753500670194626, 0.10800226777791977, 0.04650169238448143, -0.0185885950922966, -0.0336952842772007, -0.014671457931399345, 0.0007258636178448796, 0.0012902391608804464, 0.09860095381736755, -0.0013624313287436962, -0.0031295474618673325, -0.009985039010643959, 0.09722303599119186, 0.11926208436489105, 0.05751018598675728, 0.12664254009723663, 0.030338967218995094, 0.024277640506625175, -0.0026317727752029896, 0.04084010794758797, 0.08681672066450119, 0.02759264037013054, 0.05396288260817528, 0.0747104287147522, 0.13574698567390442, 0.13522543013095856, 0.14071662724018097, 0.1790468692779541, 0.05249421298503876, 0.07515361905097961, 0.04634229466319084, 0.03153720498085022, 0.07187139987945557, 0.03022858314216137, 0.0794675350189209, 0.12391914427280426, 0.15540753304958344, 0.12159732729196548, 0.1704576313495636, 0.12284309417009354, 0.052416037768125534, 0.06857535243034363, 0.04752466082572937, 0.029923681169748306, 0.045507319271564484, -0.0065990774892270565, 0.06058085337281227, 0.07960725575685501, 0.12977488338947296, 0.10261473059654236, 0.19618986546993256, -0.0020438951905816793, 0.07226807624101639, 0.1143338680267334, 0.04061553254723549, 0.02415112964808941, 0.04383373260498047, 0.004179836250841618, 0.02136613428592682, 0.030506115406751633, 0.10902739316225052, 0.07295095175504684, 0.03755217790603638, -0.0284146536141634, 0.021951952949166298, -0.0021508524660021067, 0.014337622560560703, 0.02779492922127247, 0.01600726880133152, 0.02376704290509224, -0.005545367486774921, 0.016881031915545464, 0.06779742240905762, -0.02798415906727314, -0.03680874779820442, -0.03792509064078331, -0.003521301783621311, -0.00290276063606143, -0.00674773845821619, -0.037631403654813766, -0.030732156708836555, 0.012765060178935528, 0.00615644920617342, 0.004913000389933586, -0.060537248849868774, -0.08874931186437607, -0.1514884978532791, -0.13293027877807617, -0.09246334433555603, -0.0688694566488266, -0.05904726684093475, -0.07893887162208557, -0.03460029140114784, 0.023820919916033745, -0.013933220878243446, -0.028132202103734016, 0.011563909240067005, -0.036742519587278366, -0.16938115656375885, -0.17335589230060577, -0.1147448718547821, -0.09853770583868027, -0.10224337875843048, -0.032166123390197754, -1.3505364222510252e-05, 0.036488234996795654, 0.05273649841547012, 0.024738026782870293, 0.03685916215181351, 0.012365170754492283, 0.07057816535234451, 0.06134331598877907, 0.05181363224983215, 0.056998174637556076, 0.058311957865953445, -0.001934309140779078, -0.09851440042257309, -0.06277817487716675, -0.14141879975795746, -0.07950745522975922, -0.04451305419206619, -0.10884550958871841, -0.19437263906002045, -0.12194214761257172, -0.09265081584453583, -0.11448202282190323, -0.1255439817905426, -0.09970522671937943, -0.029366711154580116, 0.038154784590005875, -0.03727354481816292, -0.07136175781488419, -0.14391732215881348, -0.20038361847400665, -0.09040983021259308, -0.09674710035324097, -0.10903176665306091, -0.07964155077934265, -0.0439130999147892, -0.05124776437878609, -0.08824827522039413, 0.014392245560884476, -0.045699771493673325, -0.06556083261966705, -0.06463407725095749, -0.018229860812425613, -0.0587351992726326, -0.11054922640323639, -0.09720964729785919, -0.09399448335170746, -0.05143167823553085, -0.06133609637618065, -0.03199855238199234, -0.009087787941098213, -0.06599695980548859, 0.009328297339379787, 0.01763957180082798, -0.04750431701540947, -0.0179324708878994, -0.08281467854976654, -0.10695388913154602, -0.12347719818353653, -0.11699473112821579, -0.0665268823504448, -0.013296429999172688, -0.14273148775100708, -0.20894819498062134, -0.06764455139636993, -0.0526980496942997, -0.03294225409626961, 0.016389593482017517, -0.07555196434259415, -0.18891510367393494, -0.11934227496385574, -0.0347132682800293, -0.01541102584451437, -0.02558525651693344, -0.11905138939619064, -0.12868158519268036, -0.1371220052242279, 0.0014448094880208373, -0.018080955371260643, -0.07546316832304001, -0.18195967376232147, -0.16937676072120667, -0.12077519297599792, -0.023652400821447372, -0.04834451898932457, -0.029833901673555374, -0.16546905040740967, -0.10489638894796371, -0.10207332670688629, -0.07148135453462601, -0.09287853538990021, -0.14434413611888885, -0.19096168875694275, -0.1267959177494049, -0.0413578599691391, 0.008366110734641552, 0.0012441526632755995, 0.022639606148004532, 0.02308722585439682, -0.06643170863389969, -0.04343825951218605, -0.05471612140536308, -0.08755534887313843, -0.16048192977905273, -0.0985613763332367, -0.029262429103255272, 0.021479349583387375, 0.033385396003723145, 0.011353790760040283, -0.008304438553750515, -0.06848009675741196, -0.1322527527809143, -0.11195006221532822, -0.008414504118263721, 0.008193809539079666, -0.003263451624661684, -0.011521677486598492, 0.03882993012666702, 0.017511263489723206, 0.0008006863645277917, -0.03839194402098656, -0.09572708606719971, -0.04798693582415581, -0.023430364206433296, -0.08048786967992783, -0.015111485496163368, 0.03395429626107216, 0.02943289279937744, 0.029063211753964424, 0.02469055913388729, 0.00664654141291976, -0.04296020045876503, -0.04826081544160843, -0.035774361342191696, -0.06115063652396202, 0.044822271913290024, 0.05912125110626221, 0.04980285465717316, 0.05361653119325638, 0.06074485555291176, 0.09314775466918945, 0.05474480241537094, 0.023928066715598106, -0.00048411128227598965, -0.10447922348976135, -0.10866646468639374, -0.0347725935280323, -0.06633581221103668, -0.011187848635017872, 0.019748879596590996, -0.0223948135972023, -0.052090875804424286, -0.023970017209649086, -0.03144099935889244, 0.0021987708751112223, -0.042339541018009186, -0.004842201713472605, -0.0823870450258255, -0.049489639699459076, -0.004580243490636349, -0.02924063242971897, -0.02331252209842205, 0.0071746185421943665, -0.025150908157229424, -0.01379190944135189, -0.04984022304415703, -0.003923166077584028, -0.004942739848047495, 0.007048573344945908, -0.06380645185709, -0.06575258821249008, -0.003953245002776384, -0.017360856756567955, 0.005947081372141838, -0.020184587687253952, 0.011636397801339626, 0.02379775606095791, 0.029543161392211914, 0.009954494424164295, 0.04619584232568741, 0.036086417734622955, 0.020071331411600113, -0.01860998384654522, -0.018009675666689873, 0.005691881291568279, 0.026163719594478607, 0.01884693093597889, 0.025303401052951813, 0.04258387163281441, 0.02243206463754177, 0.04752391204237938, 0.047506608068943024, 0.04641807824373245, 0.02162978984415531, -0.06306535005569458, 0.036041729152202606, 0.01204129122197628, 0.008612305857241154, 0.03704363852739334, 0.011400049552321434, -0.0019002406625077128, 0.02090863697230816, 0.005668819881975651, 0.04796746000647545, 0.040765222162008286, 0.051643677055835724, -0.07388944923877716, 0.04797102138400078, 0.027730299159884453, 0.03889039531350136, 0.041404128074645996, -0.033407244831323624, -0.07446124404668808, -0.04304391145706177, -0.014522608369588852, 0.030352061614394188, 0.02909950166940689, 0.08793909847736359, -0.07568329572677612, 0.012465129606425762, 0.05395769327878952, 0.02684664912521839, 0.006298139691352844, -0.05673927813768387, -0.09812434017658234, -0.091527059674263, -0.06644095480442047, 0.01678876020014286, 0.026280295103788376, 0.05302276089787483, -0.028508758172392845, 0.017327863723039627, 0.03590543940663338, 0.04632914438843727, -0.029949763789772987, -0.08335684984922409, -0.06437096744775772, -0.10233544558286667, -0.05361999198794365, -0.014894005842506886, 0.020828742533922195, 0.05195704475045204, 0.023650173097848892, 0.03185773640871048, 0.027771124616265297, 0.039648015052080154, 0.032273370772600174, -0.0317833349108696, -0.07206082344055176, -0.06187157705426216, -0.01317733433097601, -0.01641777716577053, -0.005632173269987106, 0.03465105965733528, 0.02811526134610176, 0.007891437038779259, -0.010467548854649067, 0.010116305202245712, 0.053397227078676224, 0.02991507574915886, -0.019114820286631584, -0.024313760921359062, -0.023493073880672455, 0.011852404102683067, 0.019608547911047935, -0.020700842142105103, -0.004455942660570145, -0.010991954244673252, -0.015301590785384178, 0.025063825771212578, 0.02031809650361538, 0.02990703471004963, 0.03988352045416832, -0.016341043636202812, -0.015997111797332764, -0.02965291030704975, -0.03892900422215462, -0.03520660847425461, -0.04817066714167595, -0.00750727066770196, 0.008383484557271004, 0.023857593536376953, 0.05254601314663887, 0.028880737721920013, 0.06023971736431122, 0.03705519810318947, -0.0018172994023188949, -0.03559467941522598, -0.07587730139493942, -0.05957845225930214, -0.08553051203489304, 0.024337930604815483, 0.017519477754831314, -0.04811091348528862, -0.05725633352994919, 0.031865790486335754, 0.051745571196079254, 0.05307099223136902, -0.02149926871061325, -0.07255794107913971, -0.12690408527851105, -0.21126137673854828, -0.012809524312615395, -0.0070525724440813065, -0.05209946259856224, -0.029223822057247162, -0.013285423628985882, 0.03509088233113289, -0.006411092821508646, -0.010420585982501507, 0.07536157965660095, 0.019959472119808197, -0.08820971846580505, -0.04604467749595642, -0.018819516524672508, -0.017320450395345688, 0.009092665277421474, -0.04480596259236336, -0.08380395174026489, 0.030585842207074165, 0.08144695311784744, 0.07476276159286499, 0.07311621308326721, 0.09093769639730453, 0.0778525248169899, -0.04586131125688553, -0.008679338730871677, 0.027422292158007622, 0.04248657450079918, -0.1159820482134819, -0.07363045960664749, 0.00486863823607564, 0.028077561408281326, 0.08629590272903442, 0.09615207463502884, 0.07240216434001923, 0.011319881305098534, -0.0025556348264217377, -0.002775810658931732, -0.055580735206604004, -0.024540599435567856, -0.04420895874500275, 0.010587497614324093, -0.10837844759225845, 0.041786905378103256, 0.15054063498973846, 0.07294211536645889, 0.04637586325407028, 0.007693158462643623, 0.04090866073966026, 0.04956988990306854, -0.0637606829404831, 0.07092924416065216, 0.003351626917719841, -0.06339967250823975, -0.026233423501253128, 0.0423751026391983, -0.020976707339286804, -0.00903889536857605, -0.0018455797107890248, 0.08539857715368271, 0.09084630757570267, 0.03359389677643776, -0.05340134724974632, 0.016703179106116295, -0.03411712124943733, 0.009789984673261642, 0.0686073824763298, -0.012112919241189957, -0.1588282436132431, -0.08916361629962921, -0.00137006223667413, 0.04012394696474075, 0.07092933356761932, 0.023636693134903908, -0.0570218451321125, 0.03671787679195404, 0.06611082702875137, 0.08288321644067764, 0.06606258451938629, -0.03219665586948395, -0.1670510321855545, -0.08685306459665298, -0.03676628693938255, -0.007368964143097401, 0.03982716053724289, -0.0033647320233285427, -0.05967535451054573, -0.025998473167419434, 0.051201362162828445, 0.11019106209278107, 0.10414072126150131, -0.08108655363321304, -0.05335020646452904, -0.0262431837618351, -0.010290461592376232, 0.003219286212697625, 0.012373645789921284, -0.16093803942203522, -0.08404754102230072, 0.0228981152176857, 0.07664613425731659, 0.11234150826931, 0.1483951210975647, 0.04728686809539795, 0.028534969314932823, -0.01037906389683485, -0.015973949804902077, -0.013076452538371086, -0.038454294204711914, -0.013493360951542854, -0.05072600394487381, -0.0024379813112318516, 0.06826374679803848, 0.06423982232809067, 0.1110701933503151, 0.04289722070097923, 0.0004884735099039972, 0.0014903158880770206, -0.01448538713157177, -0.026640349999070168, -0.02274586632847786, -0.051676951348781586, -0.07793901860713959, -0.10290232300758362, 0.021673107519745827, 0.021286537870764732, -0.042384177446365356, -0.05961138755083084, -0.0336059033870697, -0.006812999024987221, -0.06551748514175415, -0.0503586046397686, -0.1162695437669754, -0.007635446265339851, 0.02030598372220993, 0.04364814981818199, -0.02833365648984909, -0.030365286394953728, 0.03131096810102463, 0.02415705844759941, 0.028706418350338936, 0.009486776776611805, 0.005174207501113415, 0.0019422727636992931, -0.0011071952758356929, 0.013486840762197971, -0.005617536138743162, -0.04135178029537201, -0.027630876749753952, -0.023558739572763443, 0.002890819450840354, -0.0496223010122776, 0.009120340459048748, -0.029893169179558754, -0.016025042161345482, -0.10404034703969955, 0.016616372391581535, 0.019200554117560387, -0.0015646808315068483, -0.019372927024960518, 0.002911889925599098, -0.06124633923172951, -0.020035801455378532, 0.015938857570290565, -0.05125351995229721, -0.2702220380306244, -0.23578006029129028, -0.20194830000400543, -0.0919220969080925, 0.03039368987083435, 0.025851165875792503, -0.01692437194287777, 0.02277444861829281, -0.02210097201168537, 0.05350397527217865, -0.10037475824356079, -0.15945173799991608, -0.20335444808006287, -0.29878783226013184, -0.204803466796875, -0.09945115447044373, 0.013178135268390179, 0.041797298938035965, 0.07213403284549713, 0.09137563407421112, 0.03896770626306534, -0.09749957919120789, -0.16174255311489105, -0.06460901349782944, -0.11157462000846863, -0.2401008903980255, -0.23994876444339752, -0.11977744102478027, 0.043795663863420486, 0.08067777007818222, 0.1369241178035736, 0.11359445750713348, 0.025515513494610786, -0.1847018599510193, -0.030076611787080765, -0.012274197302758694, -0.039910152554512024, -0.08451520651578903, -0.0897926315665245, -0.060955364257097244, 0.07030227035284042, 0.023265140131115913, 0.107105553150177, 0.06977097690105438, -0.015825308859348297, -0.03460715711116791, -0.03552670776844025, 0.01282544620335102, 0.047139380127191544, 0.009131485596299171, -0.047087591141462326, -0.028076039627194405, 0.0886666476726532, -0.020742151886224747, -0.09629875421524048, -0.023615317419171333, -0.0523352175951004, -0.01767495647072792, 0.04462448135018349, 0.022598134353756905, 0.11052102595567703, 0.04317081347107887, -0.01367099303752184, 0.02273082546889782, 0.0482562817633152, -0.0522439070045948, -0.2201850414276123, -0.20060721039772034, -0.03363712877035141, -0.04971504583954811, 0.02361079677939415, 0.15211160480976105, 0.16542920470237732, 0.061329420655965805, 0.03194582462310791, 0.024626994505524635, -0.047411393374204636, -0.14915961027145386, -0.20990385115146637, -0.23668943345546722, -0.1891268938779831, -0.05587734654545784, 0.13486741483211517, 0.13657976686954498, 0.09539039433002472, 0.07512713223695755, 0.040049824863672256, -6.011581717757508e-05, -0.041862454265356064, -0.05346392095088959, -0.177150696516037, -0.1631685197353363, -0.17152848839759827, -0.05009255185723305, 0.014426893554627895, 0.05747096240520477, 0.0345245860517025, 0.056554246693849564, 0.014944072812795639, 0.0011959332041442394, 0.013452105224132538, -0.016141923144459724, -0.06351052224636078, -0.026446795091032982, 0.034963928163051605, -0.06630878895521164, -0.025465160608291626, 0.036197710782289505, 0.055152490735054016, 0.0017567577306181192, -0.006529836915433407, -0.021901113912463188, -0.07385286688804626, -0.04278001934289932, -0.0075249094516038895, -0.03534923866391182, -0.03025113418698311, -0.0012369891628623009, -0.015972333028912544, -0.03775520622730255, -0.004503175616264343, -0.024448776617646217, -0.022009866312146187, -0.03395145386457443, -0.05358310788869858, -0.008517424575984478, -0.024881113320589066, -0.0011037660297006369, 0.00030976702691987157, -0.005295563954859972, 0.0002987505868077278, 0.016065306961536407, -0.003946549259126186, -0.004388122819364071, 0.040226005017757416, -0.033884447067976, -0.03001164086163044, -0.0365341491997242, 0.022951528429985046, 0.01961125247180462, -0.01640167273581028, 0.015872614458203316, 0.011344531551003456, 0.04042370617389679, 0.0471341572701931, 0.013763177208602428, 0.03415372967720032, 0.021191634237766266, -0.02300029993057251, 0.0009082555770874023, 0.03342832997441292, -0.009428728371858597, 0.025112885981798172, 0.03256095573306084, 0.02075129561126232, 0.031724680215120316, 0.041799146682024, 0.040199995040893555, 0.04162701219320297, 0.008687078021466732, -0.022722428664565086, 0.03109438344836235, 0.010238989256322384, 0.026715030893683434, 0.04374060034751892, -0.005111743696033955, 0.006023365072906017, -0.0020858203060925007, 0.01279501710087061, 0.03350695222616196, 0.02971835434436798, 0.022102588787674904, 0.008788034319877625, 0.012856346555054188, 0.048779767006635666, 0.020462676882743835, -0.0022710885386914015, -0.03588554635643959, -0.09299558401107788, -0.050298213958740234, -0.027387332171201706, 0.042314060032367706, 0.03873215988278389, 0.056067924946546555, 0.05112350732088089, 0.04959658905863762, 0.06005726382136345, 0.054799098521471024, 0.006943064741790295, -0.05931975319981575, -0.07559146732091904, -0.09533926844596863, -0.019390972331166267, 0.017679646611213684, 0.050408005714416504, 0.058257658034563065, 0.04984695464372635, 0.029531273990869522, 0.05338956415653229, 0.04454917460680008, -0.02590339444577694, -0.056670233607292175, -0.07312481850385666, -0.054280903190374374, 0.017026163637638092, 0.006053473800420761, 0.008781992830336094, 0.05581650882959366, 0.028868190944194794, 0.02760479599237442, -0.0004985034465789795, 0.026316948235034943, 0.0006597749306820333, -0.002668085740879178, -0.05519022420048714, -0.008673752658069134, 0.024777136743068695, 0.022361798211932182, 0.0372794009745121, -0.00857025571167469, -0.0036934807430952787, 0.020431071519851685, 0.012103737331926823, 0.02432357519865036, 0.012808297760784626, 0.03631449490785599, 0.002621137071400881, 0.014180241152644157, 0.001245785620994866, 0.008728178218007088, 0.013747076503932476, -0.04055927321314812, -0.008792690932750702, 0.01628072001039982, 0.01290898397564888, 0.029524020850658417, 0.009500235319137573, 0.05493200942873955, 0.01787056028842926, -0.0017005156259983778, 0.006393479648977518, -0.04597870633006096, -0.006308995187282562, -0.08183968812227249, -0.011325803585350513, 0.01834798790514469, 0.012437311932444572, -0.05066751316189766, -0.019781455397605896, 0.0025698544923216105, -0.02233193814754486, -0.054676853120326996, -0.027977829799056053, -0.0816587284207344, -0.10294827073812485, -0.08680225908756256, 0.0002528904005885124, -0.0423143245279789, -0.027173256501555443, -0.0014173678355291486, -0.01535828784108162, -0.06056206673383713, -0.04333729296922684, -0.023705825209617615, -0.0016849054954946041, -0.03114345483481884, -0.00950440764427185, -0.030433300882577896, -0.026855595409870148, 0.0119209885597229, -0.02396443486213684, -0.018678685650229454, -0.009523281827569008, 0.012263765558600426, -0.0002492052735760808, 0.009694629348814487, -0.0009226471884176135, -0.004654301796108484, 0.040095213800668716, -0.024464640766382217, -0.047033634036779404, -0.015178736299276352, -0.028192169964313507, -0.010677406564354897, -0.021812673658132553, 0.0061989822424948215, 0.029679393395781517, 0.024727076292037964, 0.0004850799450650811, 0.02995475009083748, 0.007037448696792126, 0.02660824917256832, -0.0491684265434742, -0.0036337091587483883, 0.024506965652108192, -0.02025946043431759, 0.04218680039048195, 0.023150760680437088, 0.04382065683603287, 0.01802445948123932, 0.007169240619987249, 0.01674625277519226, 0.02183404378592968, 0.029642648994922638, -0.01476740650832653, -0.001320847892202437, 0.031235257163643837, 0.01435550581663847, 0.04270339757204056, 0.012710316106677055, -0.026271604001522064, -0.03856134042143822, -0.006783382501453161, 0.029653606936335564, 0.04595371335744858, 0.04752946272492409, -0.05182056128978729, 0.020056989043951035, 0.022345269098877907, 0.02676062285900116, 0.022076459601521492, -0.027276378124952316, -0.08116037398576736, -0.08271243423223495, 0.002334096934646368, 0.054662708193063736, 0.04438221827149391, 0.04809272661805153, -0.05796827748417854, 0.05156471207737923, 0.057756200432777405, 0.04747840017080307, 0.017908740788698196, -0.02893959917128086, -0.09090527147054672, -0.0650198832154274, -0.01069881021976471, 0.01595207490026951, 0.03889702633023262, 0.04436515271663666, -0.04316180571913719, 0.02831384353339672, 0.019121097400784492, 0.050755035132169724, 0.0011432109167799354, -0.047928016632795334, -0.05779998376965523, -0.035417959094047546, 0.001873189234174788, 0.03344989940524101, 0.022956933826208115, 0.032283104956150055, -0.028543338179588318, 0.01122210267931223, 0.0010342015884816647, 0.01631951704621315, 0.010956649668514729, -0.003488354617729783, -0.030872849747538567, -0.02424297295510769, 0.002311501419171691, 0.0015144104836508632, 0.0013998446520417929, -0.00323135475628078, -0.027839500457048416, -0.023942479863762856, 0.022136187180876732, 0.039677102118730545, 0.03597060218453407, 0.008194020949304104, -0.017799299210309982, 0.013895733281970024, -0.008920950815081596, 0.006894068326801062, -0.021508770063519478, -0.05662974715232849, -0.03537590056657791, 0.02524210885167122, 0.01338941603899002, 0.029084723442792892, 0.02772444486618042, 0.027835508808493614, -0.004947268404066563, -0.015656711533665657, -0.02171563170850277, -0.06023339554667473, -0.034200239926576614, -0.06402537226676941, -0.040278904139995575, -0.0524643212556839, 0.0011589016066864133, -0.0417054109275341, -0.01733383536338806, 0.018279636278748512, -0.005756238475441933, -0.041790515184402466, -0.07048054784536362, -0.08212915807962418, -0.08610793948173523, -0.041883282363414764, -0.11614236235618591, -0.017281122505664825, -0.028252970427274704, -0.030252236872911453, -0.03444048762321472, 0.04470021650195122, 0.01683501899242401, 0.0478694811463356, -0.025347094982862473, 0.005136182531714439, -0.2101760357618332, -0.03794797882437706, -0.030810395255684853, -0.018460681661963463, -0.031728267669677734, -0.025817163288593292, -0.0740019828081131, -0.03963373228907585, -0.05922762304544449, 0.01097255852073431, -0.04808324947953224, -0.0046476139687001705, -0.1700572669506073, -0.039652977138757706, -0.009734660387039185, 0.013291565701365471, -0.04130944609642029, -0.03634188696742058, -0.13820059597492218, -0.0384899266064167, -0.058184314519166946, -0.05423213914036751, -0.03486618772149086, 0.0446670763194561, -0.08127220720052719, -0.09769818931818008, -0.01777859777212143, 0.02272777445614338, -0.005127252545207739, 0.01071961596608162, -0.019767774268984795, -0.011439435184001923, 0.016930680721998215, -0.0037403367459774017, 0.10738096386194229, 0.2186807245016098, 0.1706436425447464, -0.00823204405605793, 0.0034445880446583033, 0.06707321107387543, 0.005822311155498028, 0.010209942236542702, -0.06220224127173424, -0.09010621905326843, 0.01293035876005888, 0.11476922035217285, 0.10775913298130035, 0.1843375712633133, 0.17325785756111145, -0.06370852142572403, 0.03271272033452988, 0.08288312703371048, 0.013411514461040497, -0.008046265691518784, -0.01843464933335781, -0.12080875039100647, 0.0029691592790186405, 0.16478878259658813, 0.13608837127685547, 0.25076743960380554, 0.20433594286441803, -0.08605404943227768, 0.04102441668510437, 0.08185818791389465, 0.02166792005300522, -0.002700201468542218, 0.030334895476698875, -0.16999340057373047, -0.056800540536642075, 0.07090101391077042, 0.06624728441238403, 0.17986686527729034, 0.16038432717323303, -0.04204041138291359, 0.06283359974622726, 0.019893404096364975, 0.07330894470214844, 0.0698847621679306, 0.03215701878070831, -0.09646907448768616, -0.019394252449274063, -0.00045788456918671727, 0.058996010571718216, 0.10001058876514435, -0.0003121053450740874, 0.04652639105916023, 0.07454349845647812, 0.061172500252723694, 0.03156961500644684, 0.15224525332450867, 0.167803555727005, -0.17062482237815857, -0.14191533625125885, -0.09806964546442032, -0.09107758849859238, -0.03047451376914978, -0.1303970366716385, 0.057461146265268326, 0.05306457728147507, 0.021419459953904152, 0.03795010596513748, 0.10907699167728424, 0.15735235810279846, -0.11251208186149597, -0.29641756415367126, -0.21371521055698395, -0.23441505432128906, -0.2077154666185379, -0.2426271289587021, -0.029323864728212357, 0.008348983712494373, 0.0028851430397480726, -0.019241157919168472, -0.03223121911287308, 0.02826429158449173, -0.06311117112636566, -0.20188002288341522, -0.25262415409088135, -0.31651571393013, -0.30033358931541443, -0.25600162148475647, 0.0011138677364215255, -0.03581201285123825, 0.01283752080053091, 0.05572134628891945, 0.05987710505723953, 0.03353017568588257, 0.03384950011968613, -0.06579669564962387, -0.08806252479553223, -0.22143115103244781, -0.19450630247592926, -0.15902909636497498, -0.06165085732936859, 0.01835017278790474, -0.0228306632488966, -0.00037564834929071367, -0.01565827988088131, -0.007226993795484304, -0.02436107024550438, -0.010177946649491787, -0.043881453573703766, -0.07259996235370636, -0.030291499570012093, -0.020256517454981804, -0.00954302866011858, -0.005388923920691013, -0.0006540424656122923, -0.022883404046297073, -0.0023262491449713707, -0.044231582432985306, 0.0010104200337082148, -0.007226250600069761, 0.017892129719257355, -0.0005034921341575682, 0.026106873527169228, 0.008255536668002605, -0.023649292066693306, 0.010083338245749474, -0.024031197652220726, -0.003909969702363014, -0.019495800137519836, -0.03916548192501068, 0.020489275455474854, 0.02828085795044899, 0.0415186770260334, 0.03605419397354126, 0.021476469933986664, 0.017605401575565338, -0.0008365021203644574, -0.009162257425487041, 0.007472299970686436, -0.027182122692465782, -0.010156371630728245, 0.008868372067809105, 0.006468070205301046, 0.02834540233016014, 0.03333603963255882, 0.05553099885582924, 0.046099577099084854, 0.03457565978169441, 0.009136862121522427, 0.00687026372179389, -0.03331756591796875, -0.02645423449575901, -0.022974735125899315, 0.027207888662815094, 0.028827456757426262, 0.013756567612290382, 0.03195413202047348, 0.000613642274402082, 0.046589307487010956, 0.055576734244823456, 0.019305262714624405, -0.012861979193985462, -0.023068657144904137, -0.0041280179284513, 0.03515949100255966, 0.024621684104204178, -0.013336172327399254, -0.07117331773042679, -0.05711463838815689, -0.036960963159799576, 0.03402460366487503, 0.05795878544449806, 0.045890141278505325, -0.005725961644202471, 0.002372885122895241, 0.0311745535582304, 0.03076355718076229, 0.04012485593557358, -0.01861448772251606, -0.04919722303748131, -0.0953885167837143, -0.025006206706166267, 0.021970784291625023, 0.04766102880239487, 0.05098768696188927, 0.0016091801226139069, 0.028344329446554184, 0.0502307191491127, 0.040389180183410645, 0.024736421182751656, -0.05534451827406883, -0.07744444906711578, -0.05835334584116936, -0.035351987928152084, 0.03580577298998833, 0.038292914628982544, 0.03140652924776077, -0.03133272007107735, -0.007116489578038454, -0.009552348405122757, 0.013635959476232529, 0.046270422637462616, -0.02975418046116829, -0.028578203171491623, -0.008870862424373627, 0.010778676718473434, 0.026910895481705666, -0.007971186190843582, 0.01736641861498356, -0.014876864850521088, -0.011229717172682285, -0.01814623735845089, 0.01543388795107603, 0.05018641799688339, 0.014758066274225712, 0.011322865262627602, -0.012171831913292408, 0.0037670547608286142, -0.004503818228840828, -0.013020544312894344, -0.000968228792771697, 0.008296695537865162, 0.0166885107755661, 0.025465723127126694, 0.03352703899145126, 0.02760317176580429, 0.028248179703950882, 0.03351357579231262, 0.025298653170466423, -0.0003454022225923836, -0.029542341828346252, -0.03806037828326225, -0.0331866629421711, 0.01582767255604267, -0.006909397430717945, -0.007691714912652969, -0.02922973968088627, -0.04460513964295387, -0.03646882250905037, -0.030520526692271233, -0.042386215180158615, -0.011655489914119244, -0.04361521825194359, -0.036925964057445526, -0.029936015605926514, -0.13557308912277222, 0.02963084913790226, 0.005945682525634766, -0.0361299067735672, -0.024542411789298058, 0.017147600650787354, 0.0050585390999913216, -0.0013642620760947466, 0.017961198464035988, -0.004582098685204983, -0.0028726852033287287, 0.0030190381221473217, -0.0331219844520092, -0.012031356804072857, -0.015982739627361298, -0.028368312865495682, -0.020280640572309494, -0.03707636520266533, -0.0018481193110346794, 0.02511632815003395, 0.014327646233141422, 0.03046960011124611, 0.017200252041220665, 0.015641318634152412, -0.05508654564619064, -0.014954759739339352, -0.0054934341460466385, -0.0366293340921402, -0.009624223224818707, -0.004616901744157076, 0.02443612925708294, 0.00023215921828523278, -0.01670151576399803, -0.018317075446248055, -0.006988442037254572, -0.012066559866070747, -0.04295121505856514, -0.004888521041721106, -0.037451278418302536, -0.010919860564172268, 0.0491727739572525, 0.0018496919656172395, -0.020362645387649536, -0.009947624057531357, 0.007821731269359589, 0.010849586687982082, 0.04649646580219269, 0.019042816013097763, -0.03765752539038658, -0.036597587168216705, 0.0015813374193385243, 0.02950023114681244, 0.00192933005746454, -0.07271726429462433, -0.10387050360441208, -0.10219281911849976, -0.028937818482518196, -0.008027319796383381, 0.017637262120842934, 0.013122066855430603, -0.07808668911457062, -0.05653270334005356, 0.009098968468606472, 0.013654107227921486, 0.004007146693766117, -0.04661954194307327, -0.11596410721540451, -0.0872608870267868, -0.006879086140543222, -0.004084235988557339, 0.043685443699359894, 0.0523633174598217, 0.00707213906571269, -0.03331335633993149, 0.027744047343730927, 0.007746438961476088, 0.027422500774264336, -0.01979423314332962, -0.11907541751861572, -0.10469827800989151, 0.018290473148226738, 0.02495867758989334, 0.04174017906188965, 0.055705998092889786, -0.06678437441587448, -0.007956075482070446, 0.025131801143288612, 0.04680789262056351, 0.046709418296813965, 0.016106363385915756, -0.025340193882584572, -0.01955786906182766, 0.01707838661968708, -0.013898546807467937, 0.0010301765287294984, 0.040382977575063705, -0.1196204423904419, 0.002085201209411025, 0.03175390511751175, 0.07574013620615005, 0.03166349232196808, 0.01285919826477766, -0.008588961325585842, 0.006664038170129061, 0.018703052774071693, -0.0441952608525753, -0.0006917773280292749, -0.022060098126530647, -0.1275051385164261, 0.029325008392333984, 0.041803549975156784, 0.08244260400533676, 0.027185313403606415, 0.021898405626416206, 0.010692216455936432, 0.025305811315774918, -0.0021897046826779842, -0.03796171396970749, 0.009390275925397873, -0.07033459842205048, -0.014284259639680386, -0.05891789123415947, 0.02768799662590027, 0.0012951160315424204, -0.04715029150247574, -0.09049341082572937, -0.12842057645320892, -0.0690508484840393, -0.10152324289083481, -0.0691685900092125, -0.1059628278017044, -0.1415203958749771, 0.001217150827869773, -0.0025916656013578176, 0.0056574842892587185, 0.03376640006899834, -0.035843998193740845, -0.05215810239315033, -0.10112255066633224, -0.08161888271570206, -0.0768657773733139, -0.054773297160863876, -0.0666230246424675, -0.13498395681381226, -0.14834801852703094, -0.0161441583186388, 0.009393393062055111, -0.020912671461701393, -0.00987932551652193, 0.003042550291866064, -0.03568384423851967, -0.05111192911863327, -0.0634993314743042, -0.08599517494440079, -0.12977567315101624, -0.033826060593128204, -0.06814059615135193, 0.004416299983859062, -0.028941765427589417, 0.015193712897598743, -0.028140060603618622, 0.012844918295741081, 0.03554222732782364, 0.013238528743386269, 0.019549626857042313, 0.018344208598136902, -0.032874081283807755, -0.062245260924100876, -0.0730217918753624, 0.03576844558119774, -0.021727070212364197, -0.01306805107742548, -0.03529084473848343, 0.01776318997144699, 0.05842432752251625, 0.008097173646092415, 0.04431258887052536, 0.022569645196199417, 0.04879417270421982, -0.01426949817687273, -0.03732535243034363, -0.01052328385412693, -0.021928900852799416, -0.002021251944825053, 0.009640374220907688, -0.009964998811483383, -0.002455283422023058, 0.07829394191503525, 0.04339636117219925, 0.02476007491350174, -0.011904941871762276, -0.05708158388733864, -0.04124579206109047, 0.0289066843688488, 0.006607780698686838, 0.006784010212868452, 0.0037896970752626657, -0.06992941349744797, -0.057030148804187775, -0.05111023411154747, -0.0015266799600794911, 0.02777809090912342, -0.004019143525511026, -0.045109305530786514, -0.07354466617107391, 0.035547688603401184, 0.0028742135036736727, 0.00025952851865440607, -0.010765927843749523, -0.14091943204402924, -0.19386568665504456, -0.1465355008840561, -0.0831591859459877, -0.005192056763917208, 0.023772595450282097, -0.03995680436491966, -0.011126888915896416, -0.02644723281264305, 0.01752891018986702, 0.0094769187271595, -0.05408579483628273, -0.1530182659626007, -0.12948818504810333, -0.16455240547657013, -0.08503565937280655, -0.05344555526971817, 0.008163787424564362, -0.020353708416223526, 0.06027977541089058, -0.0013864734210073948, -0.01623006910085678, -0.04092806205153465, -0.054481085389852524, -0.08633817732334137, -0.12151613086462021, -0.05830242112278938, -0.019473973661661148, -0.0236688032746315, -0.06268730759620667, -0.026499705389142036, 0.015089217573404312, -0.0006443983293138444, -0.019003145396709442, 0.015272174961864948, -0.01203375868499279, -0.0438731350004673, -0.03445668891072273, -0.007743468042463064, -0.0058389571495354176, -0.023990893736481667, -0.08328305929899216, -0.09747219830751419, -0.05149424821138382, 0.0034611737355589867, -0.024124043062329292, -0.01842082291841507, 0.01893291436135769, 0.058452993631362915, 0.03531170263886452, 0.04476361721754074, -0.036623887717723846, -0.018893802538514137, -0.06181930750608444, -0.08594448119401932, -0.05820460990071297, -0.06408042460680008, 0.003716986393555999, 0.023861419409513474, 0.040173232555389404, 0.026888033375144005, 0.06001231074333191, 0.031089354306459427, -0.0034171026200056076, -0.013807660900056362, -0.08585377037525177, -0.068923719227314, -0.034788619726896286, -0.11602023243904114, -0.1357734203338623, -0.1273699551820755, -0.12868784368038177, -0.12685467302799225, -0.10624378174543381, -0.1254710555076599, -0.175963893532753, -0.1478942185640335, -0.16069915890693665, -0.09312720596790314, -0.09502243250608444, -0.11701434850692749, -0.07577923685312271, -0.06782566010951996, -0.015547288581728935, -0.0263929795473814, 0.0071466537192463875, -0.03042670339345932, -0.03017522767186165, 0.015539745800197124, 0.009262451902031898, -0.057419437915086746, 0.001562219113111496, -0.0765715166926384, -0.04847152903676033, -0.10815351456403732, -0.10335568338632584, -0.04270710051059723, -0.03270762413740158, -0.04541424661874771, -0.044021304696798325, -0.037108927965164185, -0.04535297304391861, -0.06063586473464966, 0.013281863182783127, -0.04596919193863869, -0.012620246969163418, -0.0952964648604393, -0.025862574577331543, -0.054282836616039276, 0.001486833207309246, 0.047886695712804794, 0.0223986953496933, 0.016111740842461586, -0.011182627640664577, 0.0313335582613945, 0.05226745828986168, -0.018761252984404564, -0.028171740472316742, 0.012130594812333584, -0.022769702598452568, 0.04065995663404465, 0.03988214582204819, 0.04779313877224922, 0.062057167291641235, 0.06203809380531311, -0.0028408635407686234, 0.03835853561758995, -0.045671530067920685, -0.022812331095337868, -0.035635896027088165, 0.0027706099208444357, 0.02184208109974861, 0.04959908500313759, 0.03719305619597435, 0.01649750955402851, 0.046405233442783356, 0.04554973542690277, 0.02639039047062397, 0.04755336418747902, -0.01369795948266983, -0.039468392729759216, -0.02848738804459572, 0.022381549701094627, -0.03608721122145653, 0.001714009908027947, -0.035214655101299286, -0.10270673036575317, -0.015881791710853577, 0.0013208516174927354, 0.036153215914964676, 0.044691942632198334, -0.013099292293190956, -0.014761424623429775, 0.00211222842335701, 0.012586911208927631, 0.022057557478547096, -0.03381463140249252, -0.18369463086128235, -0.14217326045036316, -0.03223675116896629, 0.003032635897397995, 0.02895353175699711, 0.04821942746639252, 0.05542228743433952, -0.020195843651890755, -0.027930470183491707, 0.04722198471426964, -0.001288489904254675, -0.07398127019405365, -0.09072678536176682, -0.09102828055620193, -0.05757568031549454, -0.011458117514848709, 0.020642081275582314, 0.01215378101915121, 0.0679939016699791, -0.0012788120657205582, 0.025175588205456734, 0.06234204024076462, 0.021554086357355118, -0.03717554360628128, -0.07023245096206665, -0.03437977284193039, -0.0034003194887191057, -0.01213879231363535, -0.009975542314350605, -0.00027315394254401326, -0.00827134307473898, -0.016454525291919708, -0.01196892000734806, 0.04055075719952583, 0.04672979563474655, 0.005427147727459669, -0.028450464829802513, -0.06750951707363129, -0.047895729541778564, 0.012394901365041733, -0.017538661137223244, -0.013927285559475422, -0.05292089655995369, 0.016374381259083748, 0.030023332685232162, 0.0349268801510334, 0.0913836658000946, 0.09435652941465378, 0.021068358793854713, 0.004477564245462418, -0.02159641683101654, -0.043086372315883636, -0.07520361244678497, -0.0536453016102314, 0.026969723403453827, -0.1187390387058258, -0.031042052432894707, -0.05954904854297638, 0.04049655422568321, 0.024509306997060776, 0.0035152435302734375, 0.02533351257443428, -0.0309864841401577, -0.039479173719882965, -0.07800867408514023, -0.06539765745401382, -0.12161233276128769, -0.012829583138227463, 0.015853237360715866, -0.0035120376851409674, 0.01983591355383396, 0.014370009303092957, 0.014686445705592632, 0.01918264664709568, -0.00018023366283159703, 0.006989554036408663, -0.028651075437664986, -0.08842059224843979, -0.03256091848015785, 0.0268716923892498, -0.021506497636437416, -0.04574265703558922, -0.03306174650788307, -0.015056608244776726, 0.012854649685323238, -0.001289980486035347, -0.023487497121095657, -0.007667040452361107, 0.03417352959513664, 0.03589586168527603, -0.04145758971571922, -0.02661754935979843, -0.013495712541043758, -0.023375505581498146, -0.018233902752399445, -0.027250446379184723, 0.027915121987462044, 0.06639312207698822, 0.030845148488879204, 0.02793334797024727, 0.004503018222749233, 0.05996928736567497, -0.046971410512924194, 0.011390266939997673, 0.008875700645148754, 0.021924668923020363, -0.027553679421544075, -0.05539423227310181, -0.015569360926747322, -0.012742286548018456, 0.0017588174669072032, 0.051704056560993195, -0.0016882308991625905, 0.051889076828956604, -0.02973075583577156, -0.02137337438762188, 0.03783634677529335, -0.022058362141251564, -0.05810217186808586, -0.1256982535123825, -0.2062843292951584, -0.18265780806541443, -0.018039777874946594, -0.011399059556424618, 0.017080876976251602, 0.04965218901634216, -0.016923660412430763, -0.04909206181764603, 0.014866969548165798, 0.013912340626120567, -0.10381559282541275, -0.15410403907299042, -0.19700123369693756, -0.180431067943573, -0.10338663309812546, -0.034239910542964935, -0.009899712167680264, 0.06295625865459442, 0.038569558411836624, -0.051973309367895126, -0.06899416446685791, -0.10778091847896576, -0.15624761581420898, -0.10016530007123947, -0.035415396094322205, -0.07727032899856567, -0.11089776456356049, -0.07303255796432495, -0.02086063288152218, 0.0570022389292717, 0.05920153111219406, -0.05122576653957367, -0.0655084177851677, -0.08500991761684418, -0.03967256844043732, 0.009817155078053474, 0.04021036624908447, -0.021467385813593864, -0.10741661489009857, -0.060916539281606674, -0.06714506447315216, -0.014508725143969059, -0.0602780357003212, -0.12029550224542618, -0.1100194975733757, -0.023988069966435432, 0.03594433516263962, 0.0744820386171341, 0.06183392181992531, -0.04114722087979317, -0.013825103640556335, -0.050713054835796356, -0.08939920365810394, -0.08386380225419998, -0.10676030069589615, -0.1391407549381256, -0.11215370893478394, 0.021042445674538612, 0.062242571264505386, 0.09334918856620789, 0.09248364716768265, -0.02598336711525917, -0.030160950496792793, -0.045966628938913345, -0.06544177234172821, -0.08394111692905426, -0.012376529164612293, -0.17111817002296448, -0.14005498588085175, 0.004814720246940851, 0.0653638020157814, 0.09221728146076202, 0.058304563164711, 0.018666129559278488, -0.06160001829266548, -0.17503435909748077, -0.11134189367294312, -0.021335765719413757, 0.013936039060354233, -0.04499321058392525, -0.0680241510272026, -0.026069801300764084, 0.02676567994058132, -0.020756177604198456, -0.048959504812955856, -0.07601854205131531, -0.05604539066553116, -0.014218650758266449, -0.10031980276107788, -0.06418599933385849, 0.02501227892935276, -0.08828041702508926, -0.13086728751659393, -0.09188628196716309, 0.055596042424440384, 0.00557276327162981, -0.03706451877951622, -0.14083947241306305, -0.10142520815134048, -0.08356758207082748, -0.09147626161575317, -0.09992505609989166, -0.057125385850667953, -0.12441550195217133, -0.1744556725025177, -0.1592526137828827, -0.001659455243498087, -0.00420666066929698, 0.04722510650753975, -0.049930639564991, -0.05506470426917076, -0.029475560411810875, 0.0039363098330795765, 0.041063498705625534, -0.09729208052158356, -0.12051932513713837, -0.139814555644989, -0.12796668708324432, -0.026046061888337135, -0.0018144791247323155, 0.03372107073664665, -0.013499521650373936, 0.02808355912566185, -0.04365674778819084, 0.045796193182468414, 0.07139483839273453, -0.059152599424123764, -0.14184193313121796, -0.0859822928905487, -0.06734555214643478, 0.06839083880186081, 0.038100242614746094, -0.04523283243179321, 0.041395582258701324, 0.05659171938896179, 0.03726799786090851, 0.0396764762699604, 0.07053329795598984, -0.036168042570352554, -0.12059908360242844, -0.060118939727544785, 0.05608806759119034, 0.054800111800432205, 0.004572586622089148, 0.04748354107141495, 0.04588153958320618, 0.10498306155204773, 0.06968137621879578, 0.07831545919179916, 0.08999951183795929, -0.017996307462453842, -0.09707076847553253, 0.08888053148984909, 0.1017710343003273, 0.09202609956264496, 0.12738624215126038, 0.11565389484167099, -0.0211050845682621, 0.0455532968044281, 0.0711352601647377, 0.04740086942911148, 0.09953874349594116, -0.05292334035038948, 0.019198648631572723, 0.15243546664714813, 0.1608317494392395, 0.12707506120204926, 0.18883074820041656, 0.0031477478332817554, -0.02566683478653431, 0.050678882747888565, 0.02076222188770771, 0.036389417946338654, 0.08780617266893387, -0.015047848224639893, 0.11688629537820816, 0.10475670546293259, 0.11670061945915222, 0.11079897731542587, 0.16713610291481018, -0.0681576132774353, -0.0717092901468277, -0.0038354150019586086, 0.012620573863387108, 0.02633322961628437, 0.08784843981266022, 0.06981564313173294, 0.21701644361019135, 0.10748917609453201, 0.11919888854026794, 0.09026356041431427, 0.06611213088035583, -0.10129132121801376, -0.045158132910728455, -0.035364143550395966, 0.004421378020197153, 0.02655528485774994, 0.06111280620098114, 0.033997636288404465, 0.08171088993549347, 0.04027452692389488, 0.12961836159229279, 0.09359793365001678, -0.03820974752306938, -0.07088939845561981, -0.08113376796245575, -0.0340709462761879, -0.02836787700653076, -0.012047829106450081, -0.004182648845016956, 0.04923534765839577, 0.06037561222910881, 0.008168280124664307, 0.09837237745523453, -0.0086445864289999, -0.09825044870376587, -0.13680875301361084, -0.10307402908802032, -0.0929008424282074, -0.08542874455451965, -0.04626233130693436, -0.031284987926483154, -0.015897853299975395, 0.035475894808769226, -0.08606284856796265, 0.020300576463341713, -0.04377129301428795, -0.16523128747940063, -0.14820446074008942, -0.11179804801940918, -0.0817546471953392, -0.12219736725091934, -0.09903336316347122, -0.13920681178569794], [0.11404917389154434, 0.013300544582307339, -0.056396640837192535, -0.03699090704321861, -0.037210460752248764, 0.029001398012042046, 0.027201244607567787, 0.01892862468957901, 0.041147083044052124, 0.06820277869701385, 0.031667422503232956, -0.054576847702264786, 0.07513981312513351, -0.0764799565076828, -0.12724986672401428, -0.06904717534780502, -0.12667636573314667, -0.039037611335515976, -0.04531385377049446, -0.0012349653989076614, 0.11580003798007965, 0.11139964312314987, -0.028714770451188087, -0.16042537987232208, -0.05929144471883774, -0.0396687313914299, -0.10281271487474442, -0.12024222314357758, -0.2363411784172058, -0.15269596874713898, -0.08266349881887436, 0.1667713075876236, 0.1733165979385376, 0.0713760107755661, 0.04132752865552902, -0.026203617453575134, -0.11010651290416718, 0.020172083750367165, -0.04751656949520111, -0.16255338490009308, -0.20042377710342407, -0.052100181579589844, 0.005923126358538866, 0.01785624586045742, -0.034420259296894073, 0.08577409386634827, 0.012129654176533222, 0.0005073148058727384, -0.020641665905714035, -0.004424719605594873, 0.026128221303224564, -0.034944284707307816, -0.06379792094230652, 0.03930016979575157, -0.05165887996554375, -0.18747994303703308, -0.1206047311425209, 0.01839139312505722, 0.0007947170524857938, 0.02075939252972603, 0.02554509975016117, -0.07720331102609634, 0.11093839257955551, 0.011977080255746841, 0.06838009506464005, 0.06776038557291031, -0.07574494183063507, -0.07706920802593231, -0.06805656850337982, 0.030404360964894295, 0.009066510945558548, 0.040564801543951035, -0.1046876534819603, -0.09455206245183945, 0.004624949302524328, -0.04664534702897072, -0.03717513382434845, -0.016262127086520195, -0.10826646536588669, 0.013044662773609161, 0.02546791546046734, -0.01022514421492815, 0.006384142674505711, 0.06886671483516693, -0.24630945920944214, -0.06126905977725983, 0.017542758956551552, -0.051524803042411804, -0.20368355512619019, -0.07786200940608978, 0.07258385419845581, 0.1261429637670517, 0.019581405445933342, -0.06424947082996368, 0.022716009989380836, -0.10040197521448135, 0.03757735714316368, 0.14766494929790497, 0.15734164416790009, -0.036122336983680725, -0.046603165566921234, 0.016507165506482124, 0.006991290021687746, 0.06501705944538116, -0.07661525905132294, -0.15626001358032227, -0.09028337150812149, -0.14562490582466125, 0.13604824244976044, 0.0841657891869545, 0.05721678212285042, -0.0494314581155777, -0.18291708827018738, -0.08602418750524521, -0.1307431310415268, -0.21451129019260406, -0.23783347010612488, -0.15879149734973907, -0.08630254864692688, -0.0588737428188324, -0.08471697568893433, -0.20119327306747437, -0.017141902819275856, -0.03520648553967476, 0.003968990407884121, -0.07608744502067566, -0.16276173293590546, -0.16586895287036896, -0.032348085194826126, -0.00520659564062953, 0.006882415618747473, -0.04537510126829147, 0.00880237203091383, -0.0593469999730587, 0.08614479005336761, 0.051901333034038544, 0.06969115883111954, -0.04745156317949295, -0.009036261588335037, 0.014133426360785961, -0.05448272451758385, 0.06256824731826782, 0.060674037784338, -0.1547195017337799, 0.07417481392621994, 0.0593782514333725, -0.01850566454231739, -0.04321752488613129, -0.06533225625753403, -0.22738753259181976, -0.07988624274730682, 0.006591034587472677, 0.04847089573740959, 0.06615697592496872, 0.08558031916618347, 0.07918442785739899, 0.1339855194091797, 0.1059625968337059, 0.05540833994746208, -0.035700540989637375, -0.20982491970062256, -0.31702086329460144, -0.21198485791683197, -0.2524993419647217, -0.2214423418045044, -0.19290676712989807, -0.19533205032348633, -0.14295531809329987, 0.11248422414064407, 0.0037382380105555058, -0.025821160525083542, -0.01437823660671711, -0.17349258065223694, -0.27497804164886475, -0.2523283362388611, -0.28566163778305054, -0.23381823301315308, -0.21743729710578918, -0.19861923158168793, -0.1880429983139038, -0.010769699700176716, 0.06449959427118301, 0.06044461950659752, 0.022858722135424614, -0.04161529988050461, -0.18688127398490906, -0.1543198525905609, -0.15117867290973663, -0.19060297310352325, -0.15700875222682953, -0.10619495064020157, -0.1365196406841278, -0.09027916193008423, -0.01871819980442524, -0.004657810553908348, 0.08687300980091095, -0.015477446839213371, -0.1584617793560028, -0.17590023577213287, -0.13396409153938293, -0.2158658802509308, -0.12839849293231964, -0.047683004289865494, 0.0009711980819702148, 0.016254369169473648, 0.04006902128458023, -0.03363826125860214, -0.03853502869606018, -0.09265972673892975, -0.23277679085731506, -0.14823415875434875, -0.15948422253131866, -0.18768270313739777, 0.0018489296780899167, 0.05170579254627228, 0.07738005369901657, 0.0992060974240303, 0.06227792054414749, 0.08256796002388, -0.07385390251874924, -0.14697648584842682, -0.12303652614355087, -0.12363342195749283, -0.29855093359947205, -0.23483982682228088, -0.030335046350955963, 0.07622956484556198, 0.06616634130477905, 0.033982522785663605, -0.01668982207775116, -0.001188021618872881, -0.140017569065094, -0.032569896429777145, -0.028996288776397705, -0.06824837625026703, -0.3110310733318329, -0.10149981081485748, 0.07718723267316818, 0.06944278627634048, 0.09494338929653168, -0.05770930275321007, 0.006188082043081522, 0.004560872446745634, -0.11172795295715332, -0.06439465284347534, -0.12516875565052032, -0.19254368543624878, -0.1608973890542984, 0.06022649630904198, 0.13647258281707764, 0.1309671849012375, 0.05170833691954613, -0.014843106269836426, -0.01674758642911911, 0.02579456754028797, -0.02227642387151718, -0.06854589283466339, -0.06723329424858093, 0.008328989148139954, 0.005171141587197781, 0.09801604598760605, 0.11822410672903061, 0.08596069365739822, 0.16558954119682312, 0.08289951831102371, 0.04423900693655014, 0.04553882032632828, 0.037704069167375565, 0.03357904776930809, 0.021039023995399475, 0.06936993449926376, 0.0701487585902214, 0.031389668583869934, -0.04830392450094223, -0.02766607142984867, 0.0749591588973999, 0.0241363774985075, -0.03885757550597191, -0.025686169043183327, -0.03226936236023903, -0.015003902837634087, -0.008495574817061424, -0.04848108068108559, -0.12317974865436554, -0.010960870422422886, 0.03384554386138916, -0.02683398872613907, -0.016792068257927895, 0.06451556831598282, 0.042657218873500824, 0.06994795799255371, 0.04834413155913353, 0.11764544993638992, 0.09960584342479706, 0.11502213031053543, 0.12834012508392334, 0.09335139393806458, 0.07195068895816803, 0.039481405168771744, 0.032431092113256454, 0.05944661423563957, 0.05350247025489807, 0.04546704888343811, 0.08259445428848267, 0.17037779092788696, 0.2467181235551834, 0.16661491990089417, 0.20026469230651855, 0.10419948399066925, 0.09034374356269836, 0.0764295905828476, 0.033724308013916016, 0.04881091043353081, 0.06089732423424721, 0.07903169840574265, 0.013768989592790604, 0.11951466649770737, 0.12356916069984436, 0.17790991067886353, 0.14343838393688202, 0.07149262726306915, 0.07570302486419678, 0.06624758243560791, 0.03804009035229683, 0.06999357789754868, 0.0645735114812851, 0.05874945968389511, -0.10873066633939743, -0.07482457906007767, -0.11245419830083847, 0.09893613308668137, 0.03105226904153824, 0.03455893695354462, 0.03094932623207569, 0.026838460937142372, 0.08051981031894684, 0.06041471287608147, 0.06988263130187988, 0.04081140086054802, -0.013918622396886349, -0.07352406531572342, -0.1253340244293213, 0.053781889379024506, 0.0046153892762959, 0.04055306315422058, 0.022013699635863304, 0.09049035608768463, 0.0856214389204979, 0.042277831584215164, 0.09913743287324905, 0.028413308784365654, 0.0721883773803711, 0.13809607923030853, -0.0025827810168266296, 0.1553625464439392, 0.0656200647354126, 0.02289806678891182, -0.0030627103988081217, 0.07857301831245422, 0.03157234936952591, 0.04382947087287903, 0.0858624279499054, 0.045763932168483734, 0.05978813022375107, 0.2906145751476288, 0.06866806000471115, 0.08981163054704666, 0.09234856069087982, -0.016048479825258255, -0.025751246139407158, 0.046759556978940964, 0.0035420944914221764, 0.039448387920856476, 0.07659020274877548, 0.04034784436225891, 0.10227710753679276, 0.16775557398796082, 0.1636788696050644, 0.08454998582601547, 0.05673103407025337, -0.033486735075712204, -0.012229207903146744, -0.054383933544158936, -0.004456229507923126, 0.04965438321232796, 0.024928288534283638, 0.031232861801981926, -0.012371612712740898, 0.1152157410979271, 0.13907207548618317, 0.04266466200351715, -0.059318602085113525, -0.055394191294908524, 0.015122649259865284, -0.0009430702193640172, 0.05888960510492325, 0.05292710289359093, 0.030782273039221764, 0.05657253414392471, 0.11380545794963837, 0.16676418483257294, 0.06532898545265198, -0.0507093220949173, -0.08660806715488434, -0.02850446291267872, 0.06366453319787979, 0.011671355925500393, 0.030522221699357033, 0.045774705708026886, 0.07323317974805832, 0.10353901982307434, 0.1458812654018402, 0.17134180665016174, 0.01070440374314785, 0.007501499727368355, -0.034292079508304596, -0.015312627889215946, 0.05873671919107437, 0.02474413439631462, 0.05398264899849892, 0.06143038347363472, 0.04943113774061203, 0.08086048811674118, 0.0895567238330841, 0.04094180464744568, -0.007308883126825094, 0.05276666209101677, 0.0067252409644424915, -0.02741716243326664, 0.05957072973251343, 0.05540333688259125, 0.04221644997596741, 0.1520797610282898, 0.09465547651052475, 0.07173822820186615, -0.043601810932159424, -0.12859348952770233, -0.06257498264312744, -0.0010568822035565972, 0.028976503759622574, -0.01901337131857872, 0.06979140639305115, 0.07396357506513596, 0.05632008612155914, 0.0705578550696373, -0.04941602796316147, -0.10426586866378784, -0.15214458107948303, -0.2836262881755829, -0.2236625999212265, -0.1348508894443512, -0.1675841212272644, -0.12122713029384613, -0.0035011926665902138, -0.0641065388917923, -0.191644087433815, 0.14054355025291443, 0.06532186269760132, -0.014402388595044613, -0.0805751159787178, -0.2410801500082016, -0.21993355453014374, -0.1560812145471573, -0.1917497217655182, -0.11845770478248596, -0.06761831045150757, -0.10077078640460968, -0.15897518396377563, -0.0004832134582102299, -0.06508062779903412, -0.13839603960514069, -0.09813150763511658, -0.14569339156150818, -0.167948916554451, -0.1726992428302765, -0.08208709210157394, -0.08220482617616653, -0.06532614678144455, -0.08895539492368698, -0.1353554129600525, -0.15373952686786652, 0.02375275082886219, 0.05911913886666298, 0.06285519897937775, -0.08805780857801437, -0.16762685775756836, -0.05782854184508324, -0.041032712906599045, -0.07746335119009018, -0.07169022411108017, -0.04161207377910614, -0.08128668367862701, -0.09476518630981445, -0.11235760897397995, -0.014186117798089981, 0.03144976124167442, -0.08400283008813858, -0.15902726352214813, -0.08855769783258438, -0.02533341944217682, -0.07219861447811127, 0.013654325157403946, 0.030798863619565964, -0.010745665989816189, 0.10842806845903397, 0.05809829384088516, 0.016067886725068092, -0.015056719072163105, -0.19757947325706482, -0.17873892188072205, -0.05525704100728035, -0.028510812669992447, -0.08820782601833344, -0.022712208330631256, 0.06620050966739655, 0.04569564014673233, -0.04924219101667404, 0.05113459378480911, 0.11588795483112335, -0.05165499076247215, -0.0860920175909996, -0.07644309848546982, -0.03208763897418976, -0.09967336803674698, -0.09742983430624008, -0.061430033296346664, -0.021673444658517838, 0.057276297360658646, 0.18494631350040436, 0.08041206002235413, 0.08496507257223129, -0.0387885607779026, -0.07353200763463974, -0.012669064104557037, -0.006418316159397364, -0.06448601931333542, -0.02872977778315544, 0.013172931037843227, 0.04033242166042328, -0.0063174753449857235, -0.053155459463596344, 0.0428071990609169, 0.10035383701324463, 0.06828408688306808, 0.0165888462215662, -0.01151992380619049, 0.004829117096960545, -0.002152505796402693, 0.08745352178812027, 0.0759149119257927, 0.051008399575948715, 0.12388842552900314, 0.053010668605566025, 0.07759727537631989, 0.07630936801433563, 0.034707408398389816, 0.012253496795892715, -0.04986850172281265, -0.03834965080022812, 0.042682766914367676, 0.0579773485660553, 0.058495551347732544, 0.06451808661222458, 0.017863906919956207, 0.05819511041045189, 0.01660269685089588, 0.0020896729547530413, 0.048096463084220886, 0.0024447315372526646, -0.0030830437317490578, -0.013655413873493671, 0.0074909888207912445, 0.025073017925024033, 0.05967378243803978, -0.025034138932824135, -0.11548791080713272, -0.03398289158940315, -0.015061311423778534, -0.09645246714353561, -0.029102450236678123, -0.0065701864659786224, 0.060356881469488144, 0.08467881381511688, -0.02011973410844803, 0.0029109695460647345, 0.033288031816482544, -0.02978038415312767, -0.07221139967441559, -0.10934950411319733, 0.005689194891601801, -0.06551650166511536, -0.058703918009996414, -0.013412335887551308, -0.017495183274149895, -0.00585943553596735, -0.02535366080701351, -0.008590945042669773, 0.002668597735464573, -0.004097842611372471, -0.08697076141834259, -0.006105068139731884, -0.04582389444112778, -0.03649057075381279, -0.035286106169223785, -0.021438078954815865, 0.005312889814376831, -0.011301144026219845, -0.004284206312149763, -0.000717806164175272, -0.02618577890098095, -0.023571258410811424, -0.05056355148553848, -0.020356783643364906, -0.05104168877005577, 0.000536977662704885, -0.05605533346533775, -0.02630462497472763, 0.0010893996804952621, 0.029977574944496155, 0.028612088412046432, -0.04784545674920082, -0.014502041041851044, -0.03354920819401741, -0.04294760525226593, 0.008985741063952446, -0.01845337077975273, -0.04629947245121002, -0.01666499301791191, -0.009320431388914585, 0.009459358640015125, 0.05882967263460159, 0.03209950029850006, -0.018472792580723763, -0.01731002889573574, -0.021801622584462166, -0.025699326768517494, -0.03224031627178192, -0.07338365167379379, -0.09645208716392517, -0.038362521678209305, -0.047503069043159485, 0.06321200728416443, 0.031522635370492935, 0.05190379545092583, -0.00921446830034256, 0.0022446876391768456, 0.00015259785868693143, -0.0326896570622921, -0.08420460671186447, -0.02853802964091301, -0.04149390012025833, -0.07179134339094162, -0.0680178627371788, 0.011327391490340233, 0.013530345633625984, 0.0088418647646904, -0.021046819165349007, -0.052099794149398804, -0.04685146361589432, -0.00621215021237731, -0.14044469594955444, -0.16582165658473969, -0.06486637890338898, -0.038765501230955124, -0.0696525052189827, -0.006919757463037968, 0.012160349637269974, 0.007274482864886522, -0.03997782617807388, -0.05518020689487457, -0.03379455581307411, 0.029161861166357994, -0.035904161632061005, -0.10044420510530472, -0.01010653655976057, -0.02861028164625168, -0.024638067930936813, -0.014777938835322857, 0.02825930155813694, 0.0187528133392334, -0.024456653743982315, -0.046849772334098816, 0.0023107982706278563, 0.01536918431520462, -0.04086888208985329, 0.021083543077111244, -0.04964962974190712, -0.01717495545744896, 0.00011627015192061663, 0.004311440046876669, 0.0228359866887331, 0.0033025257289409637, 0.030644036829471588, 0.040817998349666595, -0.012203619815409184, 0.04815929755568504, 0.04129758104681969, 0.04157958924770355, 0.013742521405220032, 0.010891501791775227, 0.01789645291864872, -0.0030540823936462402, 0.02084742859005928, 0.043164368718862534, 0.05702412128448486, 0.04888680577278137, 0.03692592680454254, -0.036437347531318665, -0.002467448590323329, -0.007112794555723667, 0.00894111953675747, -0.028548575937747955, -0.03633788228034973, -0.0015790705801919103, -0.021091632544994354, -0.0005616509588435292, 0.013349780812859535, -0.02056029811501503, 0.013486407697200775, -0.12960919737815857, 0.09888843446969986, -0.009249934926629066, -0.07722858339548111, -0.023722028359770775, 0.017783870920538902, 0.08193717151880264, 0.04194992408156395, -0.027831608429551125, 0.11394218355417252, 0.0508032962679863, 0.01729980856180191, -0.11278171837329865, 0.06962627917528152, -0.03552095219492912, -0.08396822959184647, -0.027059702202677727, -0.02233876846730709, -0.08129366487264633, -0.019784636795520782, -0.0477607399225235, -0.06610357761383057, -0.017083732411265373, -0.09268148243427277, -0.18388426303863525, -0.04635396599769592, -0.06066526100039482, 0.05643787235021591, -0.023665552958846092, -0.04970816522836685, -0.010621372610330582, -0.0410061776638031, -0.13149748742580414, -0.20599184930324554, -0.057632628828287125, 0.002001793123781681, -0.05540643259882927, -0.1488906592130661, 0.04583070054650307, 0.05816376581788063, -0.12229585647583008, -0.02557956427335739, -0.03739825263619423, -0.10526014119386673, -0.17716658115386963, -0.1641029268503189, 0.002821690635755658, 0.04667532071471214, -0.06100054830312729, -0.09013526886701584, -0.007128038909286261, -0.05890028178691864, -0.09656985849142075, -0.017762774601578712, -0.087351493537426, -0.05864719673991203, -0.1463085561990738, -0.05459875613451004, -0.019430698826909065, -0.004915888886898756, -0.036985330283641815, -0.02931554615497589, -0.009717469103634357, 0.02256545051932335, -0.07129023969173431, -0.11205872893333435, -0.08535198122262955, -0.0786081999540329, -0.08722090721130371, -0.04277617484331131, 0.01755172200500965, 0.054917629808187485, -0.05513513460755348, -0.0956469178199768, -0.02440035529434681, -0.0012976399157196283, -0.06308984756469727, -0.14477460086345673, -0.08371616154909134, -0.0763755664229393, -0.06746697425842285, -0.07901351153850555, -0.05533076822757721, 0.030684463679790497, 0.09338220953941345, -0.23171590268611908, -0.1004115641117096, -0.011155742220580578, -0.06971019506454468, -0.21334539353847504, -0.16683173179626465, -0.03664873167872429, 0.006089300382882357, -0.15756668150424957, -0.10547476261854172, 0.07778182625770569, 0.06936975568532944, -0.03996003046631813, 0.04672872647643089, 0.04421591758728027, -0.1234932541847229, -0.22514097392559052, -0.23909565806388855, -0.016638126224279404, -0.03213818371295929, -0.14090688526630402, -0.01829473488032818, -0.029253771528601646, -0.019506199285387993, 0.15087080001831055, 0.0673619732260704, -0.05383485555648804, -0.18995259702205658, -0.2510910630226135, -0.24193377792835236, -0.1357756406068802, -0.1226586401462555, -0.0031909504905343056, 0.006576426327228546, -0.04984806478023529, 0.06689001619815826, -0.10563468188047409, -0.11557000875473022, -0.02386804111301899, -0.11969532072544098, -0.14605917036533356, -0.1255858838558197, -0.07727514952421188, -0.07423602044582367, 0.023520879447460175, 0.015624234452843666, -0.02429279126226902, 0.033983949571847916, -0.10065445303916931, -0.027896201238036156, 0.05492459982633591, 0.06312986463308334, 0.01921292021870613, -0.01362260989844799, 0.04810146614909172, 0.00815804023295641, -0.012073577381670475, 0.05905047059059143, -0.030968399718403816, -0.179924875497818, 0.08757736533880234, 0.07641983032226562, 0.03878071904182434, 0.03152883052825928, 0.07269103825092316, 0.09243281185626984, 0.09542331844568253, 0.09907770901918411, 0.14124099910259247, 0.11664203554391861, 0.08464617282152176, 0.0627921000123024, 0.07318306714296341, 0.007062325719743967, -0.04368968307971954, -0.016224613413214684, 0.006336664315313101, 0.044929396361112595, 0.06973131000995636, 0.1462356150150299, 0.19951367378234863, 0.12771324813365936, 0.04478100314736366, 0.016808047890663147, 0.025167349725961685, 0.007441990543156862, -0.0501430444419384, -0.13490179181098938, -0.07553154230117798, -0.0025240208487957716, 0.044763535261154175, 0.10880424827337265, 0.0871175229549408, 0.07773332297801971, 0.027736328542232513, 0.004352513235062361, 0.04788105934858322, 0.03789157420396805, -0.0780482068657875, -0.16866351664066315, -0.06359150260686874, 0.05307159945368767, 0.08656321465969086, -0.09951923787593842, -0.09393677115440369, 0.024873899295926094, 0.030176464468240738, 0.05003025382757187, 0.07156842947006226, -0.001593720749951899, -0.007624103222042322, -0.029844025149941444, 0.07872109860181808, 0.1884104162454605, 0.05034587159752846, -0.2084568440914154, -0.15687361359596252, 0.010928062722086906, 0.05346280708909035, 0.046489786356687546, 0.07192914932966232, 0.029581576585769653, 0.07754326611757278, 0.03872932866215706, 0.14074450731277466, 0.1985054314136505, -0.02471074089407921, -0.24528838694095612, -0.09552395343780518, 0.06175490841269493, 0.0864281877875328, 0.086875319480896, 0.036158330738544464, 0.02432263456285, 0.05083085224032402, 0.043438754975795746, 0.1051795706152916, 0.19369976222515106, -0.03666665032505989, -0.04279235750436783, 0.03387263044714928, 0.06505732983350754, 0.11888150125741959, 0.09751994162797928, -0.016909800469875336, -0.0149063216522336, 0.041850317269563675, 0.0008030806784518063, 0.043430447578430176, 0.07631514966487885, 0.08488646149635315, 0.07154335826635361, -0.004101633094251156, -0.009811989031732082, 0.06536934524774551, 0.04023485630750656, -0.010672839358448982, 0.07739673554897308, 0.06626809388399124, 0.012666569091379642, 0.06517073512077332, 0.048711445182561874, 0.15974588692188263, -0.03540262579917908, -0.15948794782161713, -0.016935937106609344, 0.05817539989948273, -0.0006589657277800143, 0.1041252464056015, 0.06329385936260223, 0.06688283383846283, 0.13102534413337708, 0.027461785823106766, 0.0400821752846241, -0.16585086286067963, -0.313310831785202, -0.166192889213562, -0.03250304237008095, -0.006083666812628508, 0.06580302119255066, 0.038020286709070206, 0.0004094972391612828, 0.15122924745082855, 0.08621146529912949, -0.024577097967267036, -0.18515266478061676, -0.20595131814479828, -0.16074645519256592, -0.08643927425146103, 0.03422577679157257, 0.08438719063997269, 0.06499685347080231, 0.06835003197193146, 0.06793073564767838, 0.10823407769203186, 0.06224750727415085, 0.03013191558420658, 0.0030855564400553703, 0.024204015731811523, 0.014270330779254436, -0.0004884267109446228, 0.06068922206759453, 0.07029550522565842, 0.031057346612215042, 0.029164502397179604, 0.011238565668463707, -0.08492650836706161, -0.0775902047753334, -0.02430514246225357, -0.01489362120628357, -0.022110484540462494, 0.003371910657733679, 0.012853166088461876, -0.012474071234464645, -0.029619628563523293, -0.03398910164833069, 0.0465305894613266, 0.006335548125207424, -0.06293290108442307, -0.04887928441166878, -0.02214910462498665, -0.018206246197223663, -0.03103342279791832, -0.011052487418055534, -0.016689326614141464, -0.021181315183639526, 0.014237522147595882, -0.044230472296476364, 0.02678671106696129, 0.0017937403172254562, -0.048584945499897, -0.06549880653619766, -0.021866464987397194, -0.011777150444686413, 0.05388360470533371, 0.014598438516259193, -0.03718727454543114, -0.030929554253816605, -0.003873490495607257, -0.057607293128967285, -0.04462120682001114, -0.017397472634911537, -0.018976157531142235, -0.0388091616332531, -0.03083859756588936, 0.02256244793534279, 0.045081671327352524, 0.04588967189192772, -0.013450508937239647, -0.015309966169297695, -0.015772787854075432, -0.04346533864736557, -0.06457207351922989, -0.0004724800819531083, -0.04415012151002884, -0.03955163434147835, -0.035943541675806046, 0.049423955380916595, 0.06942536681890488, 0.06732252985239029, 0.002250243676826358, 0.0019667805172502995, -0.02322549931704998, -0.05149448290467262, -0.03453369811177254, -0.01466123852878809, -0.03381948545575142, -0.06146903336048126, -0.02218862622976303, 0.022547908127307892, 0.03946611285209656, 0.0545460507273674, -0.047732189297676086, -0.004748305771499872, -0.031164001673460007, -0.06536484509706497, -0.03168858215212822, -0.059064604341983795, -0.06846903264522552, -0.032129161059856415, -0.010845395736396313, 0.011090414598584175, 0.06202688440680504, -0.02052956074476242, -0.04741422459483147, -0.06073393672704697, -0.061826907098293304, -0.04177170991897583, -0.06313992291688919, -0.07261846214532852, -0.059371430426836014, -0.0703594982624054, -0.007176727522164583, 0.02166379801928997, 0.04167213290929794, -0.013137705624103546, -0.06792434304952621, -0.05099107697606087, -0.005321373697370291, 0.040055565536022186, -0.06762699782848358, -0.05135387182235718, -0.0600406713783741, -0.012560801580548286, -0.0075188553892076015, 0.0603443868458271, 0.03893294557929039, -0.0015455030370503664, -0.006080468185245991, 0.0022440305911004543, 0.01904376409947872, 0.10242684930562973, 0.01093982718884945, -0.011979741044342518, -0.029604904353618622, 6.813485379097983e-05, 0.0014732880517840385, 0.023470314219594002, 0.008630532771348953, 0.0039831893518567085, 0.008116181008517742, 0.01916317455470562, -0.005584368482232094, 0.06390593200922012, -0.017495568841695786, -0.026170948520302773, 0.02098178118467331, 0.003027762984856963, 0.007034322712570429, -0.008460834622383118, -0.01688787341117859, -0.01962128095328808, 0.0034538807813078165, 0.017142200842499733, -0.016793515533208847, -0.028300410136580467, 0.05735224485397339, -0.006706384010612965, -0.023032475262880325, -0.027645636349916458, -0.05083164572715759, -0.07717415690422058, -0.08141790330410004, -0.10678759217262268, -0.04024063050746918, -0.03234186768531799, -0.07897540926933289, -0.08245230466127396, 0.021475227549672127, 0.05675816163420677, 0.0014312691055238247, -0.06959043443202972, -0.02388550527393818, 0.006259068846702576, 0.032405707985162735, 0.01669774204492569, -0.018181897699832916, 0.04165695235133171, 0.017793189734220505, -0.004279999062418938, 0.02884884737432003, 0.06436043977737427, -0.06952766329050064, -0.06417101621627808, -0.009435686282813549, 0.010245674289762974, 0.030893612653017044, 0.005710243713110685, 0.03794337064027786, 0.002626249333843589, 0.00014404386456590146, -0.05541970208287239, 0.03438391909003258, 0.002706140512600541, -0.03446442261338234, -0.015732113271951675, -0.038952093571424484, -0.04315127432346344, 0.008146069943904877, 0.008276005275547504, 0.002001321641728282, -0.02492881566286087, 0.010404732078313828, -0.02992808260023594, 0.006062638945877552, -0.036892786622047424, 0.00744902016595006, -0.020768366754055023, -0.014784243889153004, -0.01648923195898533, 0.06575778126716614, 0.03254955634474754, 0.016098136082291603, -0.012387520633637905, 0.012866755947470665, -0.07740273326635361, -0.010296924971044064, -0.05425407737493515, -0.0055830334313213825, -0.02865513786673546, -0.004604486748576164, 0.03239278122782707, 0.06242632865905762, 0.05175953358411789, -0.012756401672959328, 0.013303003273904324, -0.0006013290258124471, -0.08801684528589249, 0.04947087913751602, -0.021743815392255783, -0.05118872597813606, -0.06466201692819595, -0.04678678885102272, 0.051119495183229446, 0.05186818167567253, 0.041799213737249374, -0.0037912195548415184, -0.008257431909441948, -0.025608252733945847, -0.06260152161121368, 0.046623095870018005, -0.04103703424334526, -0.06769406795501709, -0.050462204962968826, -0.07625762373209, 0.03426950424909592, 0.04595949500799179, 0.01910325512290001, -0.04163702577352524, -0.05801727622747421, -0.04444625973701477, -0.038472309708595276, -0.0417809933423996, -0.10713551193475723, -0.0725296139717102, -0.04437098279595375, -0.04562753811478615, 0.011789543554186821, 0.07794839888811111, -0.004080527927726507, -0.06304902583360672, -0.05032765865325928, -0.022990912199020386, 0.0590226985514164, -0.026237137615680695, -0.06593959033489227, -0.014541978016495705, -0.05213135480880737, 0.0014662934700027108, 0.04635345935821533, 0.05671573057770729, -0.012597762048244476, -0.02573515847325325, -0.028196780011057854, 0.0011610058136284351, 0.07717641443014145, 0.024000251665711403, -0.028051111847162247, -0.019851023331284523, -0.01729029230773449, -0.01070964802056551, 0.031989917159080505, 0.0420805923640728, 0.01149720884859562, 0.008825048804283142, -0.005865928716957569, -0.018223652616143227, 0.07593768835067749, 0.08115362375974655, 0.007025937549769878, -0.03520021587610245, -0.00520205358043313, 0.0009234892204403877, 0.030223412439227104, 0.015633737668395042, -0.0018577722366899252, 0.003501343075186014, 0.045968085527420044, -0.03607472777366638, 0.04725853353738785, -0.006939192768186331, -0.028855448588728905, -0.03638935089111328, -0.0025817356072366238, 0.002504691481590271, -0.0182033758610487, -0.032795436680316925, -0.0641326755285263, 0.020760318264365196, 0.03573310002684593, -0.03769996017217636, -0.04348103329539299, 0.09961482882499695, -0.024845458567142487, -0.04809241369366646, 0.022028077393770218, 0.09372621774673462, 0.12865521013736725, 0.04104410111904144, 0.09531553834676743, 0.17464853823184967, 0.10495822131633759, -0.12269841879606247, -0.01261842343956232, 0.07448582351207733, -0.06312932074069977, -0.12945976853370667, 0.02913198061287403, 0.07287518680095673, 0.0762605145573616, 0.08735958486795425, 0.25126829743385315, 0.266419380903244, 0.21689891815185547, -0.10237004607915878, -0.020458044484257698, 0.03121386654675007, 0.007370661944150925, -0.0377202108502388, -0.025112174451351166, 0.009734331630170345, 0.02527838572859764, 0.0910249799489975, 0.17070795595645905, 0.00974486768245697, -0.00755718071013689, -0.1430974006652832, -0.07048191130161285, -0.02946540154516697, 0.0054695685394108295, -0.0764375552535057, -0.04447057843208313, -0.020018422976136208, 0.03449345380067825, 0.10328307747840881, 0.060407865792512894, -0.16091600060462952, -0.15028993785381317, -0.1334710270166397, 0.0017789284465834498, -0.03520037233829498, 0.008429336361587048, -0.021526416763663292, -0.08334825187921524, -0.02206653356552124, 0.03583906590938568, 0.13660913705825806, 0.07331763952970505, -0.05344688892364502, -0.15969492495059967, -0.13180702924728394, -0.00787521805614233, -0.057117316871881485, -0.11106608062982559, -0.047113191336393356, -0.09745558351278305, 0.011665675789117813, 0.09032972902059555, 0.06724554300308228, 0.06965694576501846, 0.11743562668561935, -0.00723147252574563, -0.07004261761903763, 0.05552351102232933, 0.02436206303536892, -0.1337941735982895, -0.04665698856115341, -0.09424415230751038, -0.015583918429911137, 0.1553763449192047, 0.07742594927549362, 0.028995458036661148, 0.10052479803562164, -0.10512351989746094, 0.026282815262675285, 0.061071787029504776, -0.2147570699453354, -0.096718430519104, -0.09753137826919556, -0.10271961987018585, -0.0002482794225215912, 0.28140175342559814, 0.21296118199825287, -0.1827552318572998, -0.22838471829891205, -0.25361570715904236, 0.07438699156045914, 0.0753232017159462, -0.07685305178165436, -0.06696204841136932, -0.07238366454839706, -0.07658738642930984, 0.016518540680408478, 0.25101062655448914, 0.11746378242969513, -0.08694455027580261, -0.13866651058197021, -0.027356890961527824, 0.08152242004871368, 0.054882947355508804, -0.03166818991303444, -0.06436686217784882, -0.0529349260032177, -0.029984788969159126, 0.023927418515086174, 0.1323883831501007, 0.07521969079971313, 0.04267578199505806, 0.07954945415258408, 0.08774483948945999, 0.1316014677286148, 0.1676604002714157, 0.005264034029096365, -0.014136726036667824, 0.0040207356214523315, 0.055100198835134506, 0.07053668797016144, 0.07401049137115479, 0.0011862382525578141, 0.06715789437294006, 0.10420142114162445, 0.056433942168951035, 0.10902680456638336, 0.14833208918571472, 0.05306309089064598, -0.017097389325499535, 0.020795419812202454, 0.03647257760167122, 0.03191184625029564, 0.06586969643831253, -0.03510899841785431, 0.059691138565540314, 0.1382455825805664, -0.08571973443031311, -0.06595674902200699, -0.009125934913754463, 0.04840395972132683, 0.03997233510017395, 0.050211112946271896, 0.06316810101270676, 0.023917745798826218, 0.008157655596733093, 0.0065631866455078125, 0.01573394238948822, 0.02898310497403145, 0.022723160684108734, 0.04624812677502632, 0.048661891371011734, 0.0588412769138813, 0.06760399043560028, 0.07458355277776718, 0.0677090659737587, 0.02119678631424904, -0.020337730646133423, -0.002634775824844837, -0.008685370907187462, -0.004422691185027361, 0.020533651113510132, 0.01708943024277687, 0.03499384596943855, 0.03844093158841133, 0.06698085367679596, 0.07859792560338974, -0.026308102533221245, -0.008955992758274078, -0.020686205476522446, -0.01712694577872753, -0.03792192041873932, 0.0020260056480765343, 0.030249862000346184, -0.0017037332290783525, 0.0052022431045770645, 0.06038716062903404, 0.06696364283561707, 0.042911797761917114, -0.052893009036779404, -0.026778971776366234, -0.0315629206597805, 0.005539905745536089, 0.01438802108168602, -0.01159098744392395, 0.01250365562736988, 0.012512938119471073, -0.00043954679858870804, 0.05320495739579201, 0.05789909511804581, 0.024561887606978416, -0.03738655522465706, -0.051992982625961304, -0.019376108422875404, 0.05198788642883301, 0.04380561038851738, 0.013697908259928226, -0.0117429718375206, 0.00795679446309805, 0.03167146444320679, 0.05215480178594589, 0.044814541935920715, 0.04141469672322273, -0.06881692260503769, -0.10053571313619614, -0.026857785880565643, 0.05197940766811371, 0.040948547422885895, -0.023956185206770897, 0.005308119114488363, 0.008180366829037666, 0.027742480859160423, 0.04632760211825371, 0.04314802587032318, 0.0017491714097559452, -0.009100452065467834, -0.07243053615093231, 0.03837292268872261, 0.020239148288965225, -0.00020799259073100984, -0.04812975227832794, -0.060036659240722656, -0.008666381239891052, 0.02532293274998665, 0.05463957414031029, 0.0316595621407032, -0.03393112123012543, -0.06610117852687836, -0.08463765680789948, 0.005567066837102175, 0.03538971766829491, 0.0027974469121545553, -0.059057027101516724, -0.014343606308102608, 0.007097138091921806, 0.06844933331012726, 0.019894829019904137, -0.020076923072338104, -0.03754507377743721, -0.04001538082957268, -0.016780056059360504, -0.016103623434901237, 0.017504902556538582, -0.02616674080491066, -0.0035759545862674713, -0.004481224343180656, 0.03768686577677727, 0.09522544592618942, 0.08702098578214645, 0.015871809795498848, 0.010968836024403572, -0.02099962905049324, 0.010322638787329197, 0.01134470198303461, -0.01294713281095028, -0.005285346414893866, 0.039548929780721664, 0.04914811998605728, 0.054133713245391846, 0.06525546312332153, 0.05003315210342407, 0.05308552831411362, 0.032487209886312485, -0.012612037360668182, 0.01264107320457697, -0.0077002220787107944, 0.0066492678597569466, 0.016799114644527435, 0.06770728528499603, 0.08110465854406357, 0.04380280151963234, 0.06150228902697563, 0.04703500494360924, 0.041168659925460815, -0.0006084474734961987, 0.020015226677060127, -0.006977106910198927, -0.0029450920410454273, 0.0009219637140631676, -0.015170014463365078, 0.038904041051864624, 0.07699930667877197, 0.03295889496803284, 0.04481419920921326, 0.11904682964086533, 0.05243285000324249, 0.020454145967960358, -0.022256985306739807, -0.07977317273616791, -0.031014759093523026, -0.021655157208442688, 0.013353006914258003, -0.009063643403351307, 0.014710786752402782, 0.008585745468735695, -0.033525969833135605, 0.030565718188881874, 0.009151092730462551, 0.0058568865060806274, 0.00051083107246086, -0.05330142006278038, -0.04774097725749016, -0.03671349212527275, -0.019580377265810966, -0.024800553917884827, 0.0062264855951070786, -0.005441251676529646, -0.05218401923775673, 0.018056776374578476, -0.0007538391510024667, 0.059147465974092484, 0.02120019681751728, -0.024896444752812386, -0.036325763911008835, 0.03321101889014244, 0.0016780958976596594, -0.007229463662952185, -0.012314380146563053, -0.0012539704330265522, -0.08611086010932922, -0.09675615280866623, 0.015907282009720802, 0.0034907872322946787, 0.015328170731663704, -0.05097042769193649, -0.06803832948207855, -2.4020828277571127e-05, -0.003485177643597126, -0.061665426939725876, -0.06986920535564423, 0.01805693283677101, -0.07171577215194702, 0.0007388433441519737, 0.07244791090488434, -0.019045021384954453, -0.05582873895764351, -0.1007397323846817, -0.08857464045286179, 0.007119780406355858, -0.005730034783482552, -0.07937570661306381, -0.07309000194072723, -0.002378817182034254, -0.050977155566215515, -0.01810814067721367, -0.027613714337348938, 0.0053664264269173145, -0.04786529019474983, -0.1660316437482834, -0.09329339861869812, 0.01564212515950203, -0.020044665783643723, -0.057919591665267944, -0.07466697692871094, -0.08781353384256363, -0.10046115517616272, 0.0022538532502949238, -0.03779680281877518, -0.038356684148311615, -0.07522973418235779, -0.15577332675457, 0.042880285531282425, 0.019483311101794243, 0.005111718084663153, -0.07407324761152267, -0.02818215638399124, -0.026670090854167938, -0.015463198535144329, -0.16572065651416779, -0.05926557257771492, -0.04546293616294861, -0.07364466786384583, -0.07940784096717834, -0.023158619180321693, 0.026629535481333733, -0.012919682078063488, -0.03129268065094948, -0.024826111271977425, 0.015572687610983849, 0.06991871446371078, 0.13226337730884552, 0.07586853206157684, 0.021932372823357582, 0.002787020057439804, 0.03560417890548706, 0.022797949612140656, 0.06944989413022995, -0.0319552943110466, 0.002746183192357421, 0.04835226386785507, 0.014685610309243202, 0.07127143442630768, 0.10362821817398071, 0.04688192903995514, 0.009893297217786312, -0.06595279276371002, -0.023322535678744316, -0.032120123505592346, -0.026002515107393265, -0.051375918090343475, 0.004228115081787109, -0.005699023604393005, -0.048873499035835266, -0.013197194784879684, -0.06409280002117157, -0.11107996851205826, -0.09726068377494812, -0.09808344393968582, -0.02935227006673813, -0.10462698340415955, -0.07198522984981537, -0.12917758524417877, -0.04414738342165947, 0.04365507513284683, -0.03979849815368652, 0.03844979777932167, -0.0011105468729510903, 0.07051119208335876, 0.05185173079371452, 0.0288727767765522, -0.058791499584913254, -0.017725273966789246, -0.02238432876765728, 0.009455573745071888, 0.03952600806951523, 0.09126106649637222, -0.056223608553409576, -0.04909372702240944, 0.08888290077447891, 0.0165756456553936, -0.037473395466804504, -0.0020161615684628487, -0.04700807109475136, 0.04093343764543533, -0.05386751890182495, -0.03460928797721863, -0.01559437345713377, 0.008432555943727493, -0.02912413701415062, -0.11866673082113266, 0.10239947587251663, 0.031859271228313446, -0.030513565987348557, 0.015156042762100697, -0.027346843853592873, -0.03175412863492966, -0.045347683131694794, -0.054161351174116135, -0.06383414566516876, -0.03946872800588608, -0.02402731031179428, -0.010857191868126392, -0.010551233775913715, 0.06379546225070953, -0.037622254341840744, -0.03138922527432442, -0.08224780857563019, -0.07824214547872543, -0.09361925721168518, -0.06148979067802429, -0.09538271278142929, -0.04232202097773552, -0.04283285140991211, -0.09030134975910187, -0.043809548020362854, 0.009080344811081886, 0.006760238669812679, 0.020135371014475822, -0.04260603338479996, 0.020804833620786667, -0.010444574058055878, -0.10709599405527115, -0.0892205759882927, -0.0795925110578537, -0.08701220154762268, -0.13354991376399994, -0.04105990380048752, -0.06971967965364456, -0.04429517313838005, -0.0753403902053833, -0.0767204612493515, 0.04574289917945862, -0.01144254207611084, -0.07156714797019958, -0.10618182271718979, -0.09114155918359756, -0.029102982953190804, -0.05006849765777588, 0.07322719693183899, -0.0853157714009285, 0.06401681154966354, -0.09805764257907867, -0.06771741807460785, 0.009536245837807655, -0.07371502369642258, -0.1265704184770584, -0.22259865701198578, -0.139492467045784, -0.06376121938228607, -0.00697861984372139, -0.004878137726336718, -0.1218927651643753, -0.01898057386279106, -0.0811639130115509, -0.0919913798570633, -0.029828296974301338, -0.11280098557472229, -0.16587960720062256, -0.2326136827468872, -0.21872751414775848, -0.07551011443138123, -0.08270910382270813, -0.18729673326015472, -0.0839768722653389, -0.050467319786548615, -0.10436655580997467, -0.11997431516647339, -0.03271586820483208, -0.08840543031692505, -0.11290926486253738, -0.17095206677913666, -0.061270181089639664, 0.06319140642881393, 0.03694861754775047, -0.04943316802382469, -0.04574503377079964, -0.0370444729924202, 0.019786203280091286, -0.032383568584918976, -0.02623063698410988, -0.039047300815582275, -0.08049417287111282, -0.005562702193856239, 0.08272454142570496, 0.07847115397453308, 0.069418765604496, 0.0842951238155365, 0.03778281435370445, 0.04912492260336876, 0.047181420028209686, -0.003978296648710966, 0.01622186228632927, -0.022555548697710037, 0.016000237315893173, 0.07413648068904877, 