{"layer1.0.weight": [[[[-0.1513165384531021, -0.10666133463382721, 0.09280408918857574, -0.18185755610466003, -0.2222318798303604], [0.07839378714561462, -0.2005845606327057, 0.03310832753777504, 0.11088355630636215, 0.22844679653644562], [0.1842678189277649, 0.11986740678548813, 0.11080829054117203, 0.10608737170696259, -0.11970824748277664], [-0.08554445207118988, 0.1242392361164093, -0.1573421210050583, -0.17871665954589844, -0.006927597336471081], [-0.010257222689688206, 0.13145118951797485, -0.041385237127542496, -0.03926428407430649, 0.16795238852500916]]], [[[0.18755674362182617, -0.1578550934791565, -0.09814406931400299, 0.10355678200721741, -0.008286391384899616], [0.14123252034187317, -0.06292681396007538, -0.13597919046878815, -0.09701932966709137, 0.13289552927017212], [0.10524904727935791, -0.2344381958246231, -0.05546311289072037, 0.14896219968795776, 0.11862441152334213], [0.014710883609950542, -0.19844494760036469, -0.07980488985776901, 0.19779399037361145, 0.052397243678569794], [0.031692177057266235, -0.2347547709941864, 0.18630701303482056, 0.07267510890960693, -0.1784108728170395]]], [[[0.19885610044002533, -0.003752312855795026, -0.18747581541538239, -0.26416000723838806, -0.17720207571983337], [0.12811356782913208, 0.14758002758026123, -0.19870057702064514, -0.1705416887998581, 0.11198209971189499], [0.004547968972474337, -0.1541096717119217, -0.05366091802716255, 0.2159227728843689, -0.0488307923078537], [-0.013066399842500687, -0.07277229428291321, 0.1464572548866272, -0.14293809235095978, 0.09481953084468842], [0.09290419518947601, -0.12481117993593216, 0.09068319946527481, -0.09345895797014236, 0.019537944346666336]]], [[[-0.09428016096353531, 0.08965262025594711, 0.025688504800200462, 0.01957569271326065, 0.11860141903162003], [0.07717319577932358, -0.24859756231307983, -0.09869640320539474, -0.055740829557180405, 0.002234981395304203], [-0.1560477912425995, -0.23803925514221191, -0.16463714838027954, -0.0025012968108057976, -0.0890670046210289], [0.022277813404798508, -0.23770985007286072, 0.12751010060310364, 0.18760992586612701, -0.002949076471850276], [-0.05222148820757866, -0.12785613536834717, -0.03092167340219021, 0.08891864866018295, -0.22162127494812012]]], [[[0.05091847851872444, -0.21925395727157593, 0.11035837233066559, 0.06165938079357147, -0.012906597927212715], [0.0381799079477787, 0.16890127956867218, 0.04950743913650513, -0.0767739936709404, -0.14050674438476562], [-0.1044568419456482, -0.20592404901981354, -0.08305923640727997, 0.1216685026884079, 0.20420251786708832], [0.00859785731881857, 0.006801342125982046, -0.21161779761314392, 0.017693283036351204, 0.1905335932970047], [-0.06498005241155624, 0.17798857390880585, 0.11097210645675659, -0.08083447813987732, -0.1395956128835678]]], [[[0.037017423659563065, 0.05956409499049187, -0.13959850370883942, 0.10755633562803268, -0.04118914529681206], [-0.05040418356657028, 0.02572871930897236, 0.06003941595554352, -0.06897745281457901, 0.014609121717512608], [-0.06426991522312164, 0.14863669872283936, -0.06454411149024963, -0.12046519666910172, 0.20532122254371643], [0.0029221673030406237, 0.15238171815872192, -0.20928964018821716, 0.23547887802124023, -0.16237562894821167], [0.10814756155014038, -0.22871601581573486, 0.1550341099500656, 0.05480892211198807, -0.17470385134220123]]], [[[-0.21365298330783844, 0.11867677420377731, 0.010752527043223381, 0.043134905397892, 0.013168679550290108], [-0.05124491825699806, -0.05358903110027313, 0.110361248254776, -0.1178903877735138, -0.2613297402858734], [0.050203509628772736, 0.0924619659781456, 0.11817040294408798, 0.017775878310203552, -0.18224549293518066], [0.09017794579267502, 0.09764952957630157, 0.059641625732183456, -0.11231391876935959, 0.047761257737874985], [-0.2100977897644043, 0.14448045194149017, -0.03212164342403412, -0.02107798494398594, 0.09232528507709503]]], [[[-0.21272879838943481, 0.13105179369449615, -0.19864526391029358, 0.15124639868736267, -0.05758685991168022], [-0.05624597892165184, -0.04514683410525322, -0.013166784308850765, -0.007530431263148785, -0.11896343529224396], [0.07508895546197891, 0.027931684628129005, -0.006481644697487354, -0.05401962623000145, 0.0936204046010971], [0.14250510931015015, 0.07626304030418396, 0.14234229922294617, 0.01634710282087326, -0.015449538826942444], [0.05981624498963356, -0.16026483476161957, -0.052830811589956284, -0.0735592320561409, 0.18537850677967072]]], [[[-0.09386420994997025, 0.0003089125966653228, -0.11200763285160065, 0.11195999383926392, 0.107597216963768], [-0.008773710578680038, -0.011019165627658367, -0.10919798910617828, 0.2918523848056793, -0.1284860074520111], [-0.11289528012275696, -0.1796930879354477, 0.18876665830612183, 0.21287864446640015, -0.15849125385284424], [0.15316838026046753, 0.01380276121199131, 0.19581739604473114, -0.13037234544754028, -0.20020727813243866], [-0.07712630182504654, 0.13529667258262634, -0.048309724777936935, 0.1361735761165619, -0.1452646702528]]], [[[-0.20191556215286255, -0.10885833948850632, -0.0045912619680166245, 0.1678859144449234, 0.1788596212863922], [0.13797447085380554, 0.16975471377372742, 0.15800781548023224, -0.02533704601228237, -0.0627046599984169], [-0.003678188193589449, -0.1109476089477539, -0.19812995195388794, -0.20139576494693756, -0.1597353219985962], [0.036597687751054764, 0.12917806208133698, 0.13979892432689667, 0.034872617572546005, -0.14465491473674774], [0.005391127895563841, -0.08967956900596619, -0.021588366478681564, 0.045464590191841125, 0.1536981165409088]]], [[[-0.12863151729106903, -0.057579685002565384, 0.14717577397823334, 0.08536853641271591, 0.1024724692106247], [-0.06827336549758911, 0.08365525305271149, -0.17255274951457977, 0.10949648916721344, 0.07744963467121124], [-0.07946468144655228, -0.03938860073685646, -0.12554191052913666, 0.04568561539053917, 0.01899360492825508], [0.07972967624664307, 0.1482238620519638, -0.21222999691963196, 0.024629272520542145, 0.010350329801440239], [0.1566394567489624, 0.08774948865175247, -0.2751065790653229, -0.05710301920771599, 0.10564299672842026]]], [[[0.17054203152656555, 0.09844781458377838, -0.25323230028152466, 0.10417860001325607, -0.08967834711074829], [-0.19171825051307678, 0.15604819357395172, -0.05687021464109421, 0.09316697716712952, -0.057519055902957916], [-0.1358986347913742, -0.020552389323711395, 0.1787802278995514, 0.019868386909365654, -0.025703558698296547], [0.01576036773622036, -0.013393321074545383, 0.20249219238758087, -0.12855100631713867, -0.17725984752178192], [0.05914532393217087, 0.005127617157995701, 0.10418593883514404, -0.1845628023147583, 0.0851132720708847]]], [[[-0.11813300848007202, -0.1388769894838333, -0.04248988255858421, 0.019444985315203667, 0.1908852607011795], [0.16259422898292542, 0.09782647341489792, 0.11000847071409225, -0.013264467939734459, 0.20453977584838867], [-0.10887426137924194, 0.01971566490828991, -0.04831539839506149, 0.09642580151557922, 0.24126474559307098], [-0.04219728708267212, 0.16025269031524658, -0.17301294207572937, -0.06313411891460419, 0.2369600087404251], [0.11830783635377884, 0.025010086596012115, 0.18478766083717346, -0.0259853582829237, 0.07520903646945953]]], [[[0.0407610759139061, 0.03742770105600357, 0.15308989584445953, -0.21541151404380798, -0.08019155263900757], [0.17966142296791077, 0.05963838845491409, 0.03376307711005211, 0.06725793331861496, 0.07370348274707794], [-0.0967956930398941, 0.09411776065826416, -0.06876281648874283, -0.18910551071166992, 0.22415538132190704], [-0.17814262211322784, 0.04800629988312721, -0.17120905220508575, -0.0072425659745931625, 0.12765339016914368], [0.09936152398586273, -0.26597845554351807, 0.053266506642103195, -0.07857047021389008, 0.001516990247182548]]], [[[0.0012250945437699556, 0.1819991022348404, -0.03070957586169243, 0.07085900008678436, -0.12824466824531555], [-0.19577066600322723, -0.1282203495502472, 0.07253941893577576, -0.14238284528255463, -0.2194390892982483], [-0.23653274774551392, 0.06440570950508118, 0.07654649764299393, -0.017805851995944977, 0.20999616384506226], [-0.11569425463676453, 0.03549589216709137, 0.0031685074791312218, -0.07514310628175735, 0.21352624893188477], [0.10723111778497696, -0.04372860863804817, -0.05760812386870384, 0.17911021411418915, -0.021063534542918205]]], [[[0.14679747819900513, -0.09730225056409836, -0.1295294165611267, -0.18206076323986053, 0.07682353258132935], [-0.09835801273584366, -0.17878536880016327, -0.40770116448402405, -0.2400626391172409, 0.05732875317335129], [0.0797845646739006, -0.28352612257003784, -0.38366249203681946, -0.19733676314353943, -0.013509076088666916], [-0.0761493444442749, 0.07089270651340485, -0.17286475002765656, -0.06156092882156372, 0.04280012845993042], [-0.07020776718854904, 0.14082367718219757, 0.0757831558585167, 0.06748197227716446, 0.11792702972888947]]]], "layer1.0.bias": [-0.010512247681617737, 0.15299583971500397, 0.02866101823747158, -0.138599693775177, -0.09202662110328674, -0.06554177403450012, -0.1708325743675232, 0.02407754585146904, -0.18013334274291992, 0.23492832481861115, -0.09585605561733246, -0.11854696273803711, 0.1381746530532837, -0.03347780555486679, 0.01988316886126995, 0.16762645542621613], "layer1.1.weight": [1.0295157432556152, 0.9933966994285583, 1.1070759296417236, 1.0986443758010864, 0.9449867010116577, 1.000746250152588, 0.9434753656387329, 0.9545960426330566, 1.0700863599777222, 0.836022675037384, 0.9997614622116089, 0.8833893537521362, 0.8077670335769653, 0.9509048461914062, 1.0490435361862183, 1.1249141693115234], "layer1.1.bias": [-0.07777700573205948, -0.005425845738500357, -0.19767522811889648, -0.2371290624141693, -0.09957573562860489, -0.10044204443693161, -0.0745115578174591, -0.06704340130090714, 0.04638756066560745, -0.22308920323848724, -0.005023876670747995, 0.006241308990865946, -0.273573100566864, -0.048783138394355774, -0.1546117216348648, -0.3410594165325165], "layer1.1.running_mean": [-0.010474641807377338, 0.13836334645748138, -0.0993654876947403, -0.44192224740982056, -0.09830397367477417, -0.05281222611665726, -0.2110026329755783, 0.03440564498305321, -0.17003586888313293, 0.23940981924533844, -0.07888147234916687, -0.13050980865955353, 0.4701005220413208, -0.04955098032951355, -0.03576042130589485, -0.325772225856781], "layer1.1.running_var": [0.01042803656309843, 0.024892784655094147, 0.04059743136167526, 0.1193615198135376, 0.005711360368877649, 0.004013480618596077, 0.015777476131916046, 0.00765830697491765, 0.015493222512304783, 0.0074285054579377174, 0.014724490232765675, 0.009662076830863953, 0.13437028229236603, 0.012715999037027359, 0.018936866894364357, 0.3454604744911194], "layer1.1.num_batches_tracked": 39000, "layer2.0.weight": [[[[-0.11344598233699799, -0.03071611560881138, 0.09744583815336227, 0.026407765224575996, 0.046171195805072784], [-0.043940093368291855, -0.01642332598567009, -0.045663680881261826, -0.012071201577782631, -0.0946681946516037], [-0.00923702772706747, -0.014274057000875473, -0.027511494234204292, -0.025570856407284737, -0.029885414987802505], [-0.04169398546218872, -0.04264196380972862, 0.09026269614696503, 0.07447554916143417, 0.09154306352138519], [-0.02253701165318489, -0.11770697683095932, -0.003909274470061064, 0.0003537902084644884, 0.024142129346728325]], [[0.08489977568387985, 0.034906625747680664, -0.004255687817931175, -0.1203860267996788, -0.06688112020492554], [0.0067520905286073685, 0.03684862703084946, 0.029078545048832893, 0.003592908615246415, 0.007304181810468435], [-0.0014495620271191, 0.053898464888334274, 0.04058507829904556, -0.0666012242436409, -0.06266345828771591], [0.07654198259115219, 0.09756547957658768, 0.05427457019686699, 0.05046898499131203, 0.002222909824922681], [0.03787786513566971, -0.00376239069737494, 0.061260782182216644, 0.06288493424654007, 0.03220435231924057]], [[-0.0478828102350235, -0.05002825707197189, 0.08656918257474899, 0.12209255993366241, 0.06459618359804153], [0.020645923912525177, 0.08815576881170273, -0.0025960071943700314, 0.0422702357172966, 0.06229650601744652], [-0.007118315435945988, -0.06267540901899338, -0.04241696000099182, 0.05134418234229088, 0.015801815316081047], [0.004801253788173199, -0.038666289299726486, 0.012711623683571815, 0.04194283112883568, 0.1515401303768158], [0.02512894757091999, -0.010720082558691502, -0.03047068975865841, 0.10807874798774719, 0.06582797318696976]], [[0.07397764176130295, -0.06007351353764534, -0.14562611281871796, -0.030004797503352165, 0.03953763470053673], [0.09492944180965424, 0.05125027522444725, -0.01726134493947029, 0.006369614042341709, 0.014923225156962872], [0.09845726937055588, 0.05078087002038956, -0.0035947386641055346, -0.016279097646474838, -0.013748005963861942], [0.04232790693640709, 0.04569326713681221, 0.010693570598959923, 0.01796226017177105, 0.07952946424484253], [0.08820168673992157, 0.14353902637958527, 0.00930403359234333, 0.09088913351297379, 0.05008961632847786]], [[-0.028866764158010483, -0.049902111291885376, 0.03917735442519188, -0.07133316248655319, -0.020174557343125343], [-0.0069298832677304745, 0.0316692478954792, -0.029030095785856247, -0.025941403582692146, -0.0968480035662651], [-0.0400792695581913, -0.06500712037086487, -0.019490310922265053, 0.03331320732831955, -0.013660458847880363], [-0.005004314240068197, 0.05695999786257744, -0.021705960854887962, 0.06849455088376999, -0.006048178765922785], [0.035451095551252365, -0.014120438136160374, -0.007831098511815071, -0.03696300461888313, -0.02595348283648491]], [[0.005442055873572826, -0.013341165147721767, 0.009630626998841763, -0.04065361246466637, -0.01938493549823761], [0.05993223562836647, 0.051372796297073364, 0.08117875456809998, -0.042436935007572174, -0.00612479355186224], [-0.006398291792720556, 0.018553130328655243, -0.023703018203377724, -0.08866938203573227, -0.005425353068858385], [-0.013211186043918133, 0.00586411077529192, -0.031335845589637756, -0.08688409626483917, -0.06272442638874054], [0.0794568657875061, 0.01709606871008873, -0.030992135405540466, 0.0008927480666898191, 0.008381334133446217]], [[0.04870692640542984, -0.046483833342790604, 0.012233183719217777, -0.040166400372982025, 0.04482503607869148], [-0.001969113014638424, -0.013022548519074917, -0.053146347403526306, 0.04130159318447113, 0.005812743678689003], [-0.10055560618638992, -0.02797560580074787, 0.01708010397851467, -0.041779160499572754, -0.011869467794895172], [-0.027654599398374557, -0.05125861242413521, 0.11592070013284683, 0.0021947724744677544, -0.06674603372812271], [0.007415256928652525, -0.15761452913284302, 0.009433775208890438, 0.049368832260370255, -0.00371089787222445]], [[-0.06772077828645706, -0.16821305453777313, -0.023922765627503395, 0.05814412236213684, 0.028757305815815926], [-0.16004928946495056, -0.03517136722803116, -0.072071872651577, 0.040477070957422256, -0.05002407357096672], [-0.08895990252494812, 0.006355322431772947, -0.011538348160684109, 0.03993010148406029, -0.06308257579803467], [-0.1362522691488266, -0.06781425327062607, -0.00024779821978881955, 0.032010674476623535, 0.024214038625359535], [-0.09426169842481613, -0.11826935410499573, 0.05859190598130226, -0.0009161510970443487, -0.031964629888534546]], [[-0.06335817277431488, -0.04165922477841377, -0.09477090835571289, 0.022296421229839325, 0.02080611325800419], [0.06944204121828079, -0.03917798399925232, -0.039404451847076416, -0.01341203972697258, -0.015823589637875557], [0.04382748901844025, -0.04190757870674133, 0.019400792196393013, -0.06734319776296616, -0.025638092309236526], [0.056600358337163925, 0.016459118574857712, -0.04327860847115517, -0.03259233012795448, -0.044486287981271744], [0.05525011196732521, 0.0427774153649807, -0.14633415639400482, 0.020022835582494736, 0.010636338964104652]], [[-0.03580492362380028, 0.008098535239696503, -0.06594430655241013, -0.048595260828733444, 0.031972698867321014], [0.04241211339831352, -0.06289838254451752, -0.024031076580286026, -0.011452389881014824, -0.05602305755019188], [-0.012103463523089886, 0.08792726695537567, 0.014119166880846024, 0.06472324579954147, -0.0022774075623601675], [-0.005173716694116592, -0.02486369200050831, 0.04045570641756058, 0.031153479591012, 0.015176576562225819], [-0.09722316265106201, -0.0374189168214798, -0.05428774282336235, -0.007611749693751335, 0.06220299378037453]], [[0.08473119884729385, 0.015255717560648918, -0.05913325026631355, -0.13404662907123566, 0.04642283916473389], [0.015864521265029907, 0.05974460393190384, -0.03134746104478836, -0.05466887727379799, -0.021443955600261688], [0.09301790595054626, 0.10305749624967575, 0.049538902938365936, 0.022940723225474358, 0.07195954024791718], [0.15292583405971527, 0.04882638901472092, -0.06929242610931396, -0.11856703460216522, -0.08254002779722214], [0.024863338097929955, 0.047411806881427765, -0.04105840250849724, -0.06732187420129776, -0.017488686367869377]], [[-0.0035395300947129726, 0.05812421813607216, 0.05149460211396217, -0.04540593922138214, 0.06491538137197495], [0.06210946664214134, -0.023256057873368263, 0.03761937469244003, -0.04238695278763771, -0.013355117291212082], [-0.024218332022428513, -0.029945075511932373, -0.030590878799557686, -0.021692093461751938, -0.040826618671417236], [-0.05204402655363083, -0.0625053346157074, 0.01692735217511654, 0.01490285899490118, 0.01468963548541069], [-0.04361651837825775, -0.15282729268074036, -0.03103480488061905, -0.005536951590329409, -0.02105025388300419]], [[0.04860065504908562, -0.02083420567214489, -0.08600641787052155, 0.06282266229391098, 0.026261527091264725], [0.03997546434402466, -0.06296567618846893, -0.0095215467736125, -0.0071351113729178905, 0.04932474344968796], [0.043409302830696106, -0.09778032451868057, -0.06867522746324539, 0.014409218914806843, -0.027865083888173103], [0.04077184945344925, -0.004326730500906706, -0.006154474802315235, 0.07962635159492493, -0.006022776942700148], [0.034600742161273956, -0.019781071692705154, 0.02091233618557453, 0.01504130382090807, 0.03417425975203514]], [[-0.047355204820632935, -0.05619937926530838, -0.017364555969834328, -0.07740680128335953, -0.016620315611362457], [0.03332919627428055, -0.07643613964319229, -1.9843821064569056e-05, 0.05111740529537201, 0.037272337824106216], [-0.019725564867258072, -0.026619544252753258, -0.06881796568632126, 0.006395907141268253, -0.010354316793382168], [-0.05270973965525627, -0.004536255728453398, -0.004210129380226135, -0.05948662385344505, -0.09570173919200897], [0.008009456098079681, 0.012502738274633884, 0.0588737428188324, 0.001472510164603591, 0.03657241538167]], [[0.03608255833387375, 0.030213044956326485, 0.039642106741666794, 0.010836275294423103, 0.008112720213830471], [-0.04128176346421242, 0.022560767829418182, -0.008211202919483185, 0.08914980292320251, -0.05965661630034447], [-0.027511730790138245, 0.009383117780089378, -0.03141206130385399, 0.024519406259059906, 0.0073274546302855015], [-0.02050369791686535, 0.026101848110556602, 0.04501901939511299, -0.008387698791921139, -0.0026580565609037876], [0.0966426283121109, 0.1030774787068367, -0.05322733148932457, -0.013311604969203472, -0.06133460998535156]], [[-0.039755016565322876, -0.02534562349319458, -0.03893599659204483, -0.0332205556333065, 7.545870903413743e-05], [-0.023838160559535027, 0.027694495394825935, -0.008587169460952282, 0.027648044750094414, -0.005748128984123468], [0.04329143837094307, -0.043152227997779846, -0.11112738400697708, 0.034759607166051865, 0.05815653130412102], [-0.010188081301748753, -0.043131910264492035, -0.06687497347593307, 0.02790340967476368, 0.1120724081993103], [0.015217144973576069, -0.03288987651467323, 0.029401913285255432, 0.09282705187797546, 0.07351943850517273]]], [[[0.08202483505010605, -0.020790554583072662, -0.03364342823624611, -0.0645575299859047, -0.06042218580842018], [0.11513819545507431, 0.05621737986803055, 0.03691573813557625, -0.04907991737127304, 0.06375866383314133], [-0.04774188995361328, -0.03636018931865692, -0.08154533803462982, -0.01068470161408186, 0.06122395768761635], [-0.0033167137298732996, 0.00478820176795125, 0.031190920621156693, -0.013228453695774078, -0.053529541939496994], [-0.03482016175985336, 0.0773673802614212, 0.06430763751268387, 0.08462879061698914, 0.033159080892801285]], [[0.012967563234269619, -0.028167210519313812, 0.019139787182211876, -0.010338103398680687, -0.013866987079381943], [0.0023877418134361506, -0.07538221776485443, -0.024191971868276596, -0.015732737258076668, 0.01340950932353735], [0.02965780533850193, 0.023625031113624573, 0.002564465394243598, -0.07423511892557144, -0.07864976674318314], [-0.06279794871807098, -0.02840016409754753, -0.025328774005174637, -0.013240894302725792, -0.07190828770399094], [-0.05269787833094597, -0.024693289771676064, 0.12151477485895157, -0.041999638080596924, -0.13637623190879822]], [[-0.004764070268720388, -0.018742863088846207, -0.07654301077127457, -0.11693970113992691, -0.12940312922000885], [-0.02827824465930462, -0.018503330647945404, 0.003398924833163619, 0.003962979651987553, -0.06759124994277954], [0.00030191277619451284, -0.0658014789223671, -0.054205138236284256, -0.05884384363889694, -0.0772162601351738], [-0.0966913029551506, -0.028780575841665268, 0.10249841213226318, 0.014875358901917934, -0.07598419487476349], [-0.0422666110098362, -0.057717204093933105, 0.05248880758881569, -0.05484571307897568, 0.0048444317653775215]], [[-0.03709780424833298, 0.04420081526041031, -0.028615688905119896, -0.024294283241033554, -0.01587909273803234], [0.02044002339243889, 0.04199618473649025, -0.028442002832889557, 0.017047299072146416, 0.013731340877711773], [-0.08106114715337753, 0.03350800275802612, -0.1100243553519249, -0.011930456385016441, -0.06850223988294601], [0.017403043806552887, 0.0015272635500878096, 0.008770137093961239, 0.04430857673287392, -0.006735975854098797], [0.03735528513789177, -0.07538259774446487, -0.002574662212282419, 0.028819551691412926, 0.003908609040081501]], [[0.07682724297046661, 0.05478919297456741, -0.11374126374721527, 0.05140267685055733, 0.004012056160718203], [0.11569473147392273, 0.029407497495412827, 0.04309916868805885, -0.06881194561719894, 0.06464508920907974], [0.00031677333754487336, 0.07338011264801025, 0.010509364306926727, -0.17674826085567474, -0.11862143874168396], [-0.12564072012901306, 0.05862065404653549, 0.017657039687037468, -0.0376703217625618, -0.08830378204584122], [-0.03390078246593475, 0.02793937921524048, 0.06836285442113876, -0.05211512744426727, -0.08744428306818008]], [[-0.03197352588176727, -0.0348069965839386, 0.08454374969005585, 0.03996523469686508, 0.12233220040798187], [0.0797128826379776, -0.08278167992830276, 0.06675103306770325, -0.03897272050380707, 0.06341197341680527], [-0.0048122713342309, -0.022807488217949867, 0.06423730403184891, -0.025773879140615463, 0.0600145161151886], [-0.005166677758097649, -0.017688147723674774, -0.002386447973549366, 0.025970695540308952, -0.07539203017950058], [0.04066575691103935, 0.022812997922301292, 0.0642542615532875, -0.004337945021688938, -0.016519011929631233]], [[0.007542311679571867, -0.034951429814100266, 0.014924673363566399, 0.049618855118751526, 0.044251326471567154], [0.004930797498673201, -0.003068850841373205, -0.008992687799036503, 0.06138310208916664, 0.05944395065307617], [-0.05364749953150749, -0.13036732375621796, -0.023233704268932343, -0.0762711688876152, -0.019667362794280052], [-0.060060035437345505, -0.07954452931880951, 0.014710228890180588, 0.10996147990226746, -0.06683951616287231], [-0.06553682684898376, -0.035116471350193024, 0.030667398124933243, -0.0037568951956927776, 0.02475615404546261]], [[0.019192539155483246, 0.026044286787509918, -0.10235277563333511, -0.12510031461715698, -0.06207093223929405], [0.07609173655509949, 0.019443431869149208, -0.10840721428394318, -0.06387647241353989, -0.028049621731042862], [0.014941038563847542, 0.049310602247714996, 0.012499877251684666, -0.10907202959060669, 0.03424099460244179], [-0.0071665081195533276, 0.004929739981889725, 0.0008278482710011303, -0.043374545872211456, -0.04507508873939514], [0.03408922627568245, -0.05450669303536415, 0.003254324896261096, -0.019096003845334053, -0.03174743056297302]], [[-0.00709551852196455, 0.08646856993436813, 0.049259003251791, 0.0382978580892086, 0.07218571752309799], [-0.032504115253686905, 0.06887061893939972, 0.06986913830041885, -0.01645902916789055, 0.05915253981947899], [-0.04743580147624016, -0.01306859590113163, 0.017798680812120438, -0.05263504385948181, 0.02958899922668934], [-0.10692648589611053, -0.07515426725149155, -0.029202774167060852, -0.059375468641519547, -0.013299685902893543], [0.05592671036720276, 0.043237779289484024, 0.08508884161710739, -0.021701041609048843, -0.1100926399230957]], [[0.011612496338784695, 0.01850433461368084, 0.04755980893969536, -0.034368034452199936, -0.06842098385095596], [0.0345938615500927, -0.011723801493644714, -0.019971242174506187, 0.04441889747977257, 0.05847139284014702], [-0.031531061977148056, -0.02438199892640114, -0.028134604915976524, 0.016087451949715614, -0.06276947259902954], [-0.04232059046626091, 0.03873274475336075, 0.03913382440805435, 0.04731033742427826, 0.08272098749876022], [0.01021275483071804, 0.035769954323768616, 0.04491293802857399, 0.018548280000686646, 0.04859600216150284]], [[-0.0596732459962368, 0.023328840732574463, -0.036503128707408905, 0.038684066385030746, -0.07409042865037918], [0.04846302792429924, 0.008266548626124859, -0.09087418019771576, -0.05985340103507042, 0.029265468940138817], [0.02960248664021492, 0.08188352733850479, -0.05951615050435066, -0.09029801189899445, -0.0009804568253457546], [-0.05765713006258011, 0.10217291116714478, -0.01916121132671833, -0.07658059895038605, 0.029213011264801025], [0.0017241440946236253, 0.06442765146493912, 0.14293253421783447, -0.0403120294213295, 0.0212931539863348]], [[0.025755194947123528, -0.054033733904361725, -0.023325733840465546, -0.0018578331219032407, 0.042464859783649445], [-0.044360850006341934, -0.032799430191516876, 0.05868897959589958, 0.034975651651620865, 0.009694470092654228], [-0.10906055569648743, -0.06749706715345383, -0.034877460449934006, 0.024195754900574684, -0.07193512469530106], [-0.0789521336555481, -0.07355012744665146, 0.07248126715421677, -0.0022114417515695095, 0.01143644843250513], [-0.10331964492797852, -0.011867624707520008, 0.04003382474184036, 0.09519436955451965, 0.04972056671977043]], [[-0.08415736258029938, -0.037727534770965576, 0.08675136417150497, 0.035477444529533386, 0.059421978890895844], [-0.021769946441054344, 0.10300657898187637, 0.06946001946926117, 0.07937140017747879, -0.009561465121805668], [-0.02535819821059704, -0.0007549584843218327, 0.04597879573702812, 0.01529956515878439, 0.0006715229246765375], [-0.06616479158401489, 0.0308980830013752, 0.027048233896493912, -0.051407426595687866, -0.04730222746729851], [-0.10651334375143051, -0.02396390587091446, 0.07476925104856491, -0.01325297448784113, -0.08345441520214081]], [[-0.032536979764699936, 0.011028861626982689, 0.1167948991060257, -0.027149992063641548, 0.015766499564051628], [-0.05134075880050659, 0.001078728586435318, 0.08757757395505905, 0.0030155705753713846, -0.0019761896692216396], [-0.07972532510757446, 0.027173269540071487, 0.05744171515107155, -0.06044529750943184, -0.008556586690247059], [-0.14038029313087463, 0.02503582276403904, 0.022574469447135925, 0.005776120815426111, -0.028509031981229782], [-0.03630425035953522, 0.04581846669316292, 0.07021570205688477, -0.033405862748622894, -0.05412155017256737]], [[0.09900292754173279, 0.015502916648983955, -0.04902863875031471, -0.017036832869052887, -0.061296574771404266], [0.08598272502422333, 0.10856057703495026, -0.013542134314775467, -0.0419955737888813, 0.09025182574987411], [0.06003373861312866, 0.06674782186746597, -0.018149210140109062, -0.0016078705666586757, -0.0477302260696888], [0.04971397668123245, 0.0007233337382785976, 0.07818730920553207, -0.027940068393945694, -0.03963012248277664], [0.17246155440807343, -0.0030974282417446375, 0.08688943088054657, 0.07926422357559204, -0.08808057755231857]], [[0.03535885736346245, -0.05850538983941078, -0.05222679302096367, -0.06546226888895035, -0.1011405736207962], [0.046575725078582764, -0.029024504125118256, -0.04488897696137428, -0.014170155860483646, 0.04149819537997246], [0.024240082129836082, -0.06007476523518562, -0.047262951731681824, -0.06504836678504944, 0.03798361495137215], [-0.050936002284288406, -0.04610191658139229, -0.08025144785642624, 0.024957844987511635, 0.020319819450378418], [-0.05067593976855278, -0.014452625066041946, 0.0057138907723128796, 5.9659607359208167e-05, -0.012093635275959969]]], [[[0.030329996719956398, 0.0011426589917391539, -0.10948887467384338, -0.11645634472370148, -0.029892921447753906], [0.07063755393028259, -0.05243830010294914, -0.06143847852945328, -0.012423049658536911, 0.0016785162733867764], [0.0035957200452685356, -0.05194416269659996, -0.10450109839439392, -0.016047125682234764, 0.014568095095455647], [-0.03792308270931244, -0.03195110708475113, -0.13813219964504242, -0.04702860862016678, -0.03561745211482048], [0.0038267355412244797, 0.013149161823093891, -0.07152057439088821, 0.04925766959786415, 0.024174435064196587]], [[-0.03688305243849754, -0.050362683832645416, 0.06314611434936523, 0.07243290543556213, 0.05954263359308243], [-0.04449702426791191, -0.008379777893424034, 0.10036816447973251, 0.01871095597743988, 0.02344997599720955], [-0.02846452407538891, 0.021536337211728096, 0.08316946774721146, 0.004048578441143036, -0.062068741768598557], [-0.0768682137131691, -0.018855277448892593, 0.1281644105911255, -0.019412066787481308, 0.007115137297660112], [-0.015072337351739407, -0.07294800132513046, 0.08545514196157455, -0.0017223814502358437, -0.023988615721464157]], [[-0.08302956074476242, -0.11317041516304016, -0.049079377204179764, -0.046300772577524185, 0.007177487947046757], [0.015200970694422722, 0.05093863978981972, 0.03527974709868431, -0.06479942053556442, -0.028976472094655037], [0.08784529566764832, -0.06469246745109558, -0.09698577225208282, 0.02019171416759491, 0.060615915805101395], [-0.07255014032125473, -0.06372563540935516, -0.13655738532543182, -0.04423350840806961, 0.11522892862558365], [-0.04650716483592987, -0.04552864283323288, -0.09299558401107788, -0.0016982792876660824, 0.092644102871418]], [[-0.07211468368768692, -0.06318337470293045, -0.009598410688340664, 0.03147006407380104, -0.024088634178042412], [-0.02805834449827671, -0.061072368174791336, 0.042802441865205765, -0.004258252680301666, 0.029901674017310143], [-0.043671391904354095, -0.013238214887678623, 0.039285384118556976, 0.07468713819980621, -0.04234601557254791], [0.023376209661364555, 0.047974713146686554, 0.0700964629650116, 0.019566234201192856, 0.06644098460674286], [-0.0756111741065979, -0.028309931978583336, 0.0027960052248090506, -0.031930889934301376, -0.0021415965165942907]], [[0.017216291278600693, -0.032603051513433456, 0.025523832067847252, 0.005625681020319462, 0.07528704404830933], [0.05097202584147453, 0.01865443028509617, -0.03363853320479393, -0.015044283121824265, 0.03394540026783943], [-0.014889132231473923, 0.05921922251582146, 0.029293911531567574, 0.016639841720461845, -0.07208835333585739], [0.04261777922511101, -0.07605517655611038, -0.02954150177538395, -0.048844512552022934, -0.05676665157079697], [0.0031377386767417192, -0.07305436581373215, -0.02506747655570507, -0.052664369344711304, -0.09219393134117126]], [[0.04363388195633888, 0.052710939198732376, -0.06449253112077713, -0.0032313859555870295, -0.05683059245347977], [0.08248357474803925, 0.03372008726000786, -0.0039047258906066418, -0.00789012759923935, -0.015640253201127052], [0.013121762312948704, -0.07986617088317871, -0.056955642998218536, -0.005540006794035435, 0.020408492535352707], [-0.020414989441633224, -0.03340751677751541, -0.0752243623137474, 0.04526929184794426, -0.07826091349124908], [0.06568615138530731, -0.007198743987828493, -0.0873943567276001, -0.03122132644057274, 0.018603697419166565]], [[0.032014522701501846, 0.08451753109693527, -0.04299129918217659, 0.018374426290392876, -0.03009781241416931], [0.021701062098145485, 0.0035254943650215864, -4.8397399950772524e-05, 0.03932366892695427, 0.10517758876085281], [0.013383117504417896, -0.03495936468243599, 0.04622359946370125, -0.011188794858753681, 0.07003969699144363], [-0.036295436322689056, -0.0096040153875947, 0.04793991893529892, 0.017994580790400505, -0.04168491065502167], [0.04916192591190338, 0.006414565723389387, 0.10779880732297897, 0.007165524177253246, -0.04342690855264664]], [[0.02696274034678936, -0.11242645978927612, -0.03417661413550377, -0.018201246857643127, 0.0629076212644577], [0.045876167714595795, 0.07174207270145416, 0.014009890146553516, 0.04144133999943733, 0.055265411734580994], [0.03715844079852104, 0.07275697588920593, 0.003017095848917961, -0.005138073582202196, 0.022027671337127686], [0.05616895854473114, -0.01795395463705063, -0.03683178871870041, 0.021744603291153908, -0.04552953317761421], [-0.024289991706609726, -0.01645084097981453, 0.015900617465376854, 0.038262028247117996, 0.04740551486611366]], [[0.07918565720319748, 0.019736310467123985, -0.008401495404541492, 0.0036156214773654938, -0.00679914653301239], [0.06621206551790237, -0.03186531737446785, -0.005137305241078138, 0.06954318284988403, 0.10113441944122314], [-0.03088575229048729, 0.010549989528954029, -0.0006162773352116346, 0.020275022834539413, 0.0873216763138771], [-0.018655480816960335, 0.0511089488863945, 0.13184773921966553, 0.01184825785458088, 0.0046373759396374226], [0.08034288883209229, 0.08081171661615372, 0.10001952201128006, 0.003886077320203185, 0.014932745136320591]], [[0.05173323303461075, -0.009277348406612873, -0.05626928061246872, -0.09769244492053986, 0.0031569297425448895], [0.007098431698977947, -0.07139412313699722, -0.07631295919418335, 0.01070890948176384, -0.0007770695956423879], [0.032537490129470825, 0.05461212992668152, 0.004384697414934635, -0.10600900650024414, 0.00950611848384142], [0.01550290361046791, -0.01522873342037201, -0.07048768550157547, -0.019300000742077827, 0.09229400753974915], [0.016132401302456856, 0.0012798046227544546, -0.12533430755138397, -0.0712604895234108, 0.09240497648715973]], [[-0.04380093514919281, -0.0798058956861496, 0.04791172966361046, -0.01519531849771738, -0.00668158195912838], [-0.17186586558818817, -0.05253424867987633, 0.08355986326932907, 0.035077620297670364, 0.10502327233552933], [-0.05405638366937637, -0.07177331298589706, 0.07076536864042282, -0.07697346806526184, -0.01642676256597042], [0.03934384137392044, 0.008863542228937149, 0.08421223610639572, 0.002096553798764944, -0.009271527640521526], [-0.0683334618806839, 0.017139095813035965, 0.054306261241436005, -0.07171633094549179, -0.03543476015329361]], [[-0.02617674507200718, -0.011199933476746082, -0.0395471416413784, -0.020911935716867447, -0.07732529193162918], [0.027451030910015106, -0.10319705307483673, 0.00439137127250433, -0.04504880681633949, 0.005514013580977917], [-0.007261169608682394, -0.11598436534404755, 0.07533617317676544, 0.05721224471926689, -0.01724633015692234], [0.044382378458976746, -0.045435648411512375, 0.04333218187093735, 0.0980319231748581, -0.06627757102251053], [0.0676191970705986, -0.0146157406270504, 0.0574517659842968, 0.03230487182736397, -0.04442647099494934]], [[0.012448277324438095, -0.02690855972468853, -0.05117528513073921, -0.06784313917160034, -0.028315428644418716], [-0.05058654397726059, 0.03288092464208603, -0.11686640232801437, -0.06832612305879593, 0.016195479780435562], [-0.0714753046631813, 0.028494322672486305, -0.11187722533941269, -0.08726226538419724, 0.03667270764708519], [-0.010168448090553284, 0.06424111127853394, -0.10652601718902588, -0.0011338614858686924, 0.05173128470778465], [-0.023106032982468605, 0.04139392450451851, -0.06058179959654808, -0.08095212280750275, -0.00028724479489028454]], [[-0.01229927223175764, 0.03837734833359718, -0.009069527499377728, 0.08046504855155945, 0.04237979277968407], [0.02208942174911499, 0.16627593338489532, -0.08713825047016144, 0.0022882125340402126, -0.025646479800343513], [0.0597044974565506, 0.07960954308509827, 0.09591440856456757, -0.00751136289909482, -0.04711183160543442], [-0.009029700420796871, 0.015442505478858948, 0.03675287961959839, -0.03151843696832657, 0.02252058871090412], [-0.11615173518657684, 0.05183399096131325, 0.008904604241251945, -0.09954746067523956, -0.01359948143362999]], [[0.06355246156454086, -0.033859506249427795, -0.06486934423446655, 0.04244232550263405, 0.02005581185221672], [0.0028967433609068394, -0.0581856407225132, -0.04343181475996971, -0.012479917146265507, -0.06402906775474548], [-0.005139967426657677, -0.048204243183135986, -0.09576787054538727, 0.03051775135099888, 0.05910792201757431], [0.04872586950659752, -0.06555044651031494, -0.0560055635869503, 0.07697820663452148, -0.11739851534366608], [0.09713258594274521, -0.0017284622881561518, -0.01302266214042902, 0.05990585684776306, 0.0002752818400040269]], [[0.01897146925330162, 0.09761062264442444, 0.09628580510616302, 0.04876892641186714, -0.01805405505001545], [0.04056652635335922, 0.08904530107975006, 0.12575817108154297, 0.08000616729259491, -0.038577716797590256], [-0.038328494876623154, 0.05268232524394989, -0.010992699302732944, -0.018675778061151505, -0.014067514799535275], [0.09980148077011108, 0.04223008453845978, -0.024844741448760033, -0.1097501590847969, 0.03790167719125748], [0.06230057030916214, -0.021343311294913292, -0.033029112964868546, 0.01241137646138668, 0.040196362882852554]]], [[[-0.06365746259689331, 0.10211504995822906, 0.06232573464512825, -0.054847098886966705, 0.07903420180082321], [0.019507838413119316, -0.07374510169029236, -0.001600315677933395, -0.08838893473148346, 0.011748619377613068], [0.004205262288451195, -0.04489215463399887, -0.06248870864510536, -0.009068829007446766, 0.0068402038887143135], [0.07016624510288239, -0.026178626343607903, -0.01591457985341549, -0.019343670457601547, 0.09499971568584442], [0.0475124716758728, 0.026410963386297226, -0.04369104653596878, 0.01208682544529438, 0.018204698339104652]], [[-0.1129530668258667, 0.0003595038433559239, -0.019497020170092583, 0.05494152382016182, 0.018561847507953644], [-0.019777951762080193, -0.09936583042144775, 0.004216469824314117, 0.10345408320426941, 0.037332333624362946], [0.029758157208561897, -0.03157611936330795, 0.009637116454541683, -0.033654458820819855, -0.03768609091639519], [0.0869172066450119, -0.03449748083949089, -0.0275095384567976, 0.04794980213046074, 0.0371270515024662], [0.009181248024106026, -0.02954179048538208, 0.0744553655385971, -0.01685795560479164, 0.10696873068809509]], [[-0.008906539529561996, -0.016770875081419945, -0.07447151094675064, 0.07051384449005127, 0.021288489922881126], [-0.034874625504016876, 0.017436981201171875, -0.07572811841964722, 0.026905275881290436, 0.010474604554474354], [0.01149861142039299, 0.06883497536182404, 0.007045285776257515, -0.0800250917673111, -0.10913756489753723], [-0.0024922166485339403, -0.011607672087848186, 0.03395615145564079, 0.1125105768442154, 0.052462875843048096], [-0.06618619710206985, -0.06559652090072632, -0.0077268220484256744, -0.010317578911781311, 0.0010868330718949437]], [[-0.08505448698997498, 0.09381911158561707, -0.163783460855484, -0.0008077079546637833, -0.02382708340883255], [-0.0297133419662714, 0.004799223504960537, -0.07477132976055145, 0.05973365530371666, 0.03390605002641678], [-0.0035269069485366344, 0.03150070458650589, -0.07995878905057907, -0.10185864567756653, -0.009565983898937702], [0.039698872715234756, -0.06381077319383621, -0.10098691284656525, -0.022691160440444946, 0.004255466628819704], [-0.01921052858233452, 0.005795973353087902, -0.017801890149712563, 0.02470577321946621, -0.007911679334938526]], [[-0.03233357518911362, -0.02467050589621067, 0.0589713379740715, 0.033440712839365005, 0.005954442545771599], [-0.03685932233929634, 0.06189144402742386, 0.07931015640497208, 0.022086767479777336, -0.03121032752096653], [0.030457090586423874, 0.032405268400907516, -0.11148092150688171, -0.020345529541373253, 0.03767254576086998], [0.010114925913512707, -0.011491073295474052, 0.012663786299526691, -0.007882146164774895, 0.014340422116219997], [0.06048605963587761, -0.07257453352212906, 0.06446444243192673, -0.008487723767757416, -0.028082387521862984]], [[0.000725874793715775, -0.020941300317645073, 0.004439834505319595, -0.0019227738957852125, 0.03757885843515396], [0.11484455317258835, -0.06377404183149338, -0.008542162366211414, -0.013905278407037258, 0.027346204966306686], [-0.0634707361459732, 0.0838826522231102, -0.03126554191112518, -0.06391306221485138, -0.070586659014225], [-0.029776647686958313, 0.04923270270228386, 0.13063690066337585, 0.05775241553783417, -0.08189769089221954], [-0.023670127615332603, 0.016126709058880806, 0.03594236075878143, 0.05794050544500351, 0.06464827060699463]], [[-0.007966559380292892, -0.05030811205506325, 0.06513997912406921, -0.04198390617966652, 0.09601683914661407], [0.03771759197115898, 0.016143810003995895, -0.011527036316692829, 0.038006123155355453, 0.00019310506468173116], [-0.13309162855148315, -0.05448988080024719, 0.05968964472413063, 0.02197701670229435, 0.0005629064980894327], [0.022974705323576927, 0.06129143759608269, -0.012924987822771072, 0.008404307998716831, 0.06540519744157791], [-0.01428962592035532, -0.000348486501025036, -0.052987273782491684, -0.08244244009256363, 0.05258175730705261]], [[0.08772075176239014, 0.0774022713303566, -0.0023054643534123898, -0.017931804060935974, -0.016896745190024376], [0.013337722979485989, 0.012589983642101288, -0.022383911535143852, -0.11757434159517288, 0.009492316283285618], [-0.031506601721048355, 0.04658415541052818, -0.002176815178245306, -0.019523976370692253, -0.020348474383354187], [-0.010492914356291294, -0.002379432087764144, 0.02279147505760193, 0.05206238850951195, 0.09445266425609589], [-0.03821592405438423, 0.07505728304386139, -0.03397974744439125, 0.013819597661495209, -0.05867527052760124]], [[-0.09572471678256989, 0.15112970769405365, 0.1546640545129776, 0.011934320442378521, -0.015253747813403606], [-0.031944286078214645, 0.10293293744325638, -0.04103535786271095, 0.09179913997650146, 0.0012597288005053997], [0.06287465989589691, 0.036844659596681595, 0.028546299785375595, 0.01712232455611229, -0.05154711753129959], [0.043835580348968506, -0.036780763417482376, -0.02389569953083992, -0.12330666184425354, -0.043879881501197815], [0.010500614531338215, 0.040209170430898666, -0.025339709594845772, -0.051308512687683105, -0.045886825770139694]], [[-0.013106010854244232, -0.05785538628697395, -0.09971475601196289, 0.013319632969796658, 0.016896037384867668], [-0.06736564636230469, 0.012667532078921795, -0.05712734907865524, -0.009069593623280525, 0.056946732103824615], [-0.04950035735964775, -0.07019616663455963, -0.02995501086115837, 0.04723260924220085, 0.08417627960443497], [-0.051999278366565704, -0.03626791760325432, -0.09545771032571793, -0.11350461095571518, -0.03458359092473984], [-0.0077191730961203575, -0.029163260012865067, -0.049812547862529755, -0.004308824427425861, -0.012655346654355526]], [[-0.09015469253063202, -0.05736226215958595, -0.05234045162796974, -0.06216391548514366, -0.06070888787508011], [-0.05752140283584595, -0.0471956804394722, -0.0019490463891997933, 0.05835190415382385, 0.014877907000482082], [-0.06088416278362274, -0.04957440868020058, -0.0386103093624115, 0.019736366346478462, 0.02464628405869007], [-0.019801143556833267, 0.0025953652802854776, 0.05782506987452507, -0.06497339904308319, -0.10233382135629654], [0.021577967330813408, 0.03258521109819412, 0.029602954164147377, 0.06341143697500229, -0.04025333374738693]], [[-0.08790437877178192, -0.01245913002640009, -0.05944474786520004, -0.035113170742988586, 0.012900416739284992], [-0.0003940387978218496, -0.005152939818799496, -0.07891660183668137, -0.026663469150662422, -0.060562942177057266], [0.007983768358826637, 0.02762049250304699, 0.048127755522727966, -0.08768654614686966, -0.04682300239801407], [-0.029613211750984192, -0.05385156348347664, -0.025612691417336464, -0.06536783277988434, 0.03279874101281166], [-0.021189529448747635, -0.0775284394621849, 0.017002934589982033, -0.014595568180084229, -0.0244625061750412]], [[0.036293696612119675, 0.016087660565972328, 0.007608845364302397, 0.04272836446762085, -0.00923835951834917], [-0.05100332945585251, -0.01986675336956978, 0.025993525981903076, -0.010346749797463417, -0.021374890580773354], [-0.06342783570289612, -0.10195963084697723, -0.05489640310406685, 0.005367981269955635, -0.03956589847803116], [0.008323635905981064, -0.0608372837305069, -0.019321314990520477, -0.10944106429815292, -0.1003703698515892], [-0.06787315756082535, -0.06174052134156227, -0.04038818180561066, -0.08822879940271378, -0.01956760510802269]], [[-0.0380856916308403, -0.06129305064678192, 0.04083941876888275, -0.0048471963964402676, 0.0122383376583457], [0.041148655116558075, -0.005242032464593649, 0.06587182730436325, 0.05569584667682648, 0.0020874887704849243], [-0.006183503661304712, -0.0013123316457495093, -0.026223590597510338, -0.05073542892932892, -0.023340316489338875], [-0.04002619534730911, -0.000982007710263133, 0.015262880362570286, -0.014636034145951271, -0.0812763050198555], [-0.00016472606512252241, 0.014386584050953388, 0.0938650518655777, 0.03085426427423954, 0.04318871349096298]], [[-0.04476292058825493, 0.05483250319957733, 0.07405609637498856, 0.04690922424197197, -0.01585494540631771], [0.03143482655286789, -0.0016259981784969568, -0.07428435236215591, 0.015154012478888035, -0.022369224578142166], [0.03575780987739563, -0.017830580472946167, -0.06810653954744339, -0.1532350778579712, -0.05809260904788971], [-0.007168011274188757, -0.007974784821271896, 0.03966827690601349, 0.10531904548406601, 0.06909170001745224], [0.07162118703126907, -0.04624438285827637, 0.02527337148785591, -0.020967423915863037, 0.04122110828757286]], [[0.029517890885472298, 0.05832986161112785, -0.08564873039722443, -0.0032482482492923737, -0.0922430157661438], [-0.007737001869827509, 0.020452367141842842, -0.0725722685456276, -0.01635570451617241, -0.029139380902051926], [0.028250470757484436, -0.02064165286719799, -0.14425013959407806, 0.06911477446556091, -0.03778800740838051], [-0.07294853031635284, -0.11894366145133972, -0.1538134664297104, -0.0020514177158474922, -0.02678546868264675], [-0.056753385812044144, -0.05280865356326103, -0.056419577449560165, -0.09021684527397156, -0.1460755467414856]]], [[[0.00026752467965707183, 0.04927867278456688, 0.09983532130718231, 0.07538588345050812, -0.027956878766417503], [0.04545142874121666, -0.06085330620408058, -0.0014242237666621804, 0.043698325753211975, -0.022841837257146835], [0.0038691936060786247, 0.0930214449763298, 0.08858736604452133, 0.0009191995486617088, -0.0655658096075058], [-0.04340295121073723, 0.04296953231096268, 0.008147192187607288, 0.038236942142248154, 0.07098498195409775], [-0.0381869412958622, 0.059411898255348206, 0.04883618652820587, -0.0212771724909544, 0.016023794189095497]], [[0.025497067719697952, 0.018288269639015198, 0.027458054944872856, 0.052146926522254944, 0.0005326010286808014], [0.017184406518936157, 0.043412212282419205, -0.013312640599906445, 0.02214937098324299, -0.05994855612516403], [-0.0021140757016837597, -0.0705961138010025, -0.023821767419576645, -0.04826687276363373, -0.0007591409957967699], [-0.01998869888484478, -0.011148670688271523, -0.08485479652881622, -0.07789765298366547, 0.04103080928325653], [0.0021483702585101128, 0.07337209582328796, 0.04597071185708046, -0.08235425502061844, 0.001969554927200079]], [[0.022070500999689102, -0.030045311897993088, 0.014200646430253983, 0.1186947375535965, 0.03637463226914406], [-0.021850042045116425, -0.0033706168178468943, -0.08063986152410507, -0.03238776698708534, -0.005516229663044214], [-0.02593081258237362, 0.032833926379680634, -0.04009034484624863, 0.006702853832393885, 0.0012241427320986986], [0.020109256729483604, 0.060572944581508636, 0.058747053146362305, 0.019997447729110718, -0.05900820717215538], [-0.001531963236629963, 0.029503032565116882, -0.06380884349346161, 0.011391717940568924, 0.02695702388882637]], [[0.028202446177601814, 0.011339756660163403, -0.02743384800851345, -0.003310583531856537, 0.03381451219320297], [0.034232281148433685, -0.013620706275105476, -0.05615977570414543, -0.0160813145339489, 0.08078690618276596], [-0.07133996486663818, -0.05431855469942093, -0.13295960426330566, -0.029905738309025764, 0.10340887308120728], [0.01629001460969448, 0.025342391803860664, -0.0007069965940900147, 0.005811949726194143, -0.008759296499192715], [0.08896096795797348, -0.012689273804426193, -0.0846824198961258, -0.012849897146224976, 0.03812049329280853]], [[0.0015269936993718147, -0.04695862531661987, 0.0057386429980397224, 0.13048055768013, 0.09590897709131241], [-0.04511209577322006, -0.06373493373394012, 0.03231611102819443, 0.0858641043305397, 0.05365405231714249], [-0.015199401415884495, -0.007763015106320381, -0.050197187811136246, -0.04141717031598091, -0.01988101378083229], [0.007438657805323601, -0.05333981290459633, -0.09231904149055481, -0.014415102079510689, -0.02731342241168022], [-0.003541316371411085, 0.020059065893292427, -0.031786371022462845, -0.055895768105983734, -0.042443856596946716]], [[-0.011455131694674492, -0.044204000383615494, 0.05277656018733978, 0.024625834077596664, 0.01229919120669365], [-0.07169347256422043, -0.06724108755588531, -0.04340323060750961, -0.0988239198923111, -0.06717590242624283], [-0.041983988136053085, -0.03117198869585991, -0.004739193711429834, 0.03498011454939842, -0.0977177694439888], [-0.01992068998515606, -0.017437869682908058, -0.12029614299535751, 0.03716032952070236, -0.027930116280913353], [-0.11209172010421753, -0.00274046347476542, 0.02547316998243332, 0.035278040915727615, 0.05506877601146698]], [[-0.11690200865268707, 0.011341116391122341, 0.07920948415994644, -0.028751252219080925, 0.002990249078720808], [0.026406601071357727, -0.038776785135269165, -0.03882686048746109, 0.008305832743644714, 0.07592007517814636], [0.05443357303738594, 0.07152990251779556, 0.002864050678908825, 0.03724873811006546, 0.06047031655907631], [0.08735920488834381, 0.04114282503724098, -0.006013317499309778, -0.0022070445120334625, -0.01901152916252613], [-0.022862261161208153, 0.021687373518943787, 0.0023776302114129066, -0.00261667394079268, -0.013329515233635902]], [[-0.048607829958200455, 0.041934460401535034, -0.0644519254565239, 0.02383062243461609, -0.06203597038984299], [0.05538974329829216, -0.07806622982025146, -0.06131809204816818, 0.02493170090019703, -0.08425882458686829], [0.0897456631064415, 0.07329308986663818, 0.11633075028657913, 0.032708022743463516, -0.03511369973421097], [0.07351276278495789, 0.04319204390048981, 0.08078915625810623, -0.0003124079667031765, 0.04108066484332085], [0.03806285560131073, -0.022928234189748764, 0.0475403293967247, 0.07838794589042664, -0.12025757133960724]], [[-0.04000449553132057, -0.055091917514801025, 0.12246750295162201, -0.032540228217840195, 0.07286206632852554], [-0.03961458429694176, -0.13241344690322876, -0.031007070094347, -0.0536780059337616, 0.11551860719919205], [0.099403515458107, -0.19089160859584808, -0.022659096866846085, -0.03725050389766693, 0.09541763365268707], [-0.018892379477620125, -0.12034609168767929, -0.0745338425040245, -0.10326168686151505, -0.02725828066468239], [0.04588788375258446, -0.04400879889726639, 0.046806249767541885, -0.048521995544433594, -0.032962799072265625]], [[0.050850484520196915, 0.09780929982662201, 0.0747172012925148, 0.03079315274953842, -0.09646108001470566], [0.07064434885978699, 0.007149511016905308, -0.03955249488353729, -0.08478795737028122, 0.060890357941389084], [-0.021574823185801506, 0.08054403960704803, 0.05291743576526642, 0.0416899137198925, 0.018777014687657356], [-0.022939635440707207, -0.08114467561244965, 0.05369190126657486, 0.018105095252394676, -0.029097046703100204], [-0.01909469999372959, -0.04322131350636482, 0.07478532940149307, -0.0027861965354532003, -0.020187722519040108]], [[-0.05004505440592766, -0.10192543268203735, 0.03038751520216465, 0.022168772295117378, -0.10083373636007309], [-0.014125633053481579, -0.0954323261976242, -0.12134002894163132, -0.037487342953681946, 0.03605863079428673], [0.04447343945503235, -0.06969517469406128, 0.034552544355392456, 0.01084037497639656, -0.057449329644441605], [0.10806640237569809, -0.044021885842084885, -0.0126578900963068, -0.009181911125779152, -0.026981277391314507], [0.11611288040876389, -0.09553524851799011, -0.05742984265089035, 0.05136701837182045, -0.06541486084461212]], [[-0.04531082883477211, 0.07226992398500443, 0.046683356165885925, 0.09454403817653656, 0.06784961372613907], [0.0746849924325943, 0.007826502434909344, -0.015001138672232628, 0.1356484442949295, 0.03173039108514786], [-0.0006656693294644356, -0.0019402109319344163, -0.08136428147554398, 0.006527789402753115, 0.01384945772588253], [-0.014142482541501522, 0.048283085227012634, -0.023419952020049095, 0.015231583267450333, -0.03325061500072479], [0.04800653085112572, 0.03605154901742935, 0.0843627080321312, -0.04834788665175438, -0.030840205028653145]], [[-0.029461631551384926, -0.018349764868617058, -0.01919952780008316, 0.025010591372847557, 0.04416695982217789], [0.04595480486750603, -0.011150515638291836, 0.04161332920193672, 0.040436264127492905, 0.051325712352991104], [-0.03650572523474693, 0.014428411610424519, -0.10895299911499023, -0.053914520889520645, -0.0033320141956210136], [-0.05699693784117699, -0.09826549142599106, -0.058288950473070145, -0.04600977897644043, -0.03472432121634483], [0.012411870062351227, 0.009674099273979664, -0.04785580188035965, -0.020042037591338158, 0.007269175257533789]], [[-0.016828082501888275, 0.009286158718168736, 0.002217791276052594, 0.08355477452278137, 0.00936068780720234], [-0.09453973174095154, -0.022400839254260063, 0.02235829085111618, -0.056327901780605316, -0.05553673207759857], [0.08996473997831345, 0.022192826494574547, 0.005241034086793661, -0.05262574180960655, -0.02044440247118473], [0.001753307180479169, -0.051350753754377365, -0.04591527581214905, -0.023687098175287247, 0.06242898851633072], [0.024364912882447243, -0.03854784741997719, -0.07643923163414001, -0.098687082529068, 0.020971152931451797]], [[-0.0013531229924410582, 0.05750281736254692, -0.03296171501278877, -0.06981243938207626, -0.04208824783563614], [0.004539591260254383, -0.0028112956788390875, -0.04585140943527222, -0.098100945353508, -0.024280453100800514], [0.02644222229719162, 0.015850041061639786, -0.08925383538007736, 0.022961806505918503, 0.13338875770568848], [0.01222052052617073, 0.07043180614709854, 0.08906583487987518, -0.018057608976960182, -0.01506987027823925], [-0.09290686249732971, 0.0984739363193512, -0.03662904351949692, -0.08044415712356567, -0.05289531126618385]], [[-0.03536564111709595, 0.03231683000922203, -0.0009415626991540194, 0.028749288991093636, -0.01717805676162243], [0.024463310837745667, 0.07202697545289993, 0.06485400348901749, 0.11579755693674088, 0.03607327863574028], [0.05003224313259125, -0.019050298258662224, -0.005738509353250265, 0.14142927527427673, 0.05455877631902695], [0.03569270670413971, -0.058378931134939194, 0.04101818799972534, 0.02199578657746315, 0.0741255059838295], [0.031226085498929024, -0.056822605431079865, -0.04931860789656639, 0.021846991032361984, 0.03705468401312828]]], [[[0.06345099210739136, 0.04766223579645157, -0.09179118275642395, -0.05553971976041794, -0.11338751018047333], [-0.0005052066408097744, -0.008685750886797905, 0.06742888689041138, -0.08449709415435791, -0.04667652025818825], [0.036701224744319916, 0.0908636525273323, -0.10855843126773834, -0.07280249893665314, -0.009833602234721184], [0.011218938045203686, -0.032558903098106384, -0.0869399830698967, -0.011889942921698093, 0.03540801629424095], [0.009891210123896599, 0.0913296639919281, -0.10440580546855927, 0.06086761876940727, 0.03463234379887581]], [[0.06515771895647049, -0.055941201746463776, -0.042814239859580994, 0.024443771690130234, 0.06906376034021378], [0.04011073336005211, -0.05539597570896149, -0.0034453573171049356, -0.038887444883584976, -0.0997823104262352], [-0.0006932723917998374, 0.015570070594549179, -0.0809897780418396, -0.07255633175373077, -0.053171493113040924], [-0.07743196934461594, 0.08780986070632935, -0.025821663439273834, -0.0870678722858429, 0.014124538749456406], [-0.011266272515058517, 0.03867204487323761, 0.022514913231134415, -0.01307836826890707, -0.008344600908458233]], [[0.12845341861248016, -0.025439942255616188, -0.03489978611469269, 0.05546765774488449, -0.017854955047369003], [-0.03328215330839157, 0.06876496225595474, 0.027218786999583244, -0.06375889480113983, -0.11720491200685501], [0.07762589305639267, 0.02108651027083397, -0.08246887475252151, -0.07919825613498688, -0.007585983723402023], [-0.005366125144064426, 0.02532987855374813, 0.10602587461471558, -0.048866305500268936, -0.0197161752730608], [0.02027926780283451, -0.016773808747529984, 0.04735804721713066, 0.023650333285331726, 0.051024213433265686]], [[-0.03990056738257408, 0.009835466742515564, -0.041149385273456573, 0.03443079814314842, -0.032600224018096924], [0.05216178670525551, 0.04044720530509949, 0.0077430205419659615, 0.01198391243815422, -0.013994704931974411], [0.029205067083239555, 0.016325732693076134, -0.03014327958226204, 0.02350352704524994, 0.03943483904004097], [-0.08232401311397552, -0.016840273514389992, -0.03365982696413994, 0.04693765938282013, 0.051870137453079224], [0.021350236609578133, -0.010844913311302662, -0.03952367976307869, 0.06893979758024216, -0.015408891253173351]], [[0.0452604666352272, -0.032535046339035034, 0.05943547934293747, 0.002980333287268877, -0.021476563066244125], [0.012355474755167961, 0.09677112847566605, 0.06911461800336838, 0.0008322360226884484, 0.1355218142271042], [0.057101938873529434, 0.008573811501264572, 0.07762356847524643, -0.03455832973122597, 0.05653735250234604], [-0.030790114775300026, -0.02090216986835003, -0.026764119043946266, -0.032560329884290695, 0.038252219557762146], [0.008152559399604797, 0.009513627737760544, -0.03116277977824211, 0.08772601932287216, -0.026182912290096283]], [[-0.0346105583012104, -0.1478760838508606, -0.008439182303845882, 0.024869872257113457, 0.05335531011223793], [-0.06985817104578018, -0.028855834156274796, 0.03685873746871948, 0.12678052484989166, 0.055654704570770264], [0.02462347038090229, -0.07183567434549332, -0.08761290460824966, -0.00021249864948913455, -0.03810015320777893], [0.07917480170726776, 0.025737961754202843, 0.06085585430264473, -0.05450550839304924, -0.06551796197891235], [-0.028875138610601425, -0.014024377800524235, -0.06150248646736145, -0.038401082158088684, -0.03895183280110359]], [[-0.019734429195523262, 0.05399266630411148, 0.006838182918727398, -0.10615342855453491, 0.0037504248321056366], [-0.01938640885055065, -0.1297508329153061, -0.08425422012805939, -0.0321277379989624, 0.02535366080701351], [0.0003599391202442348, 0.050344318151474, -0.0077993664890527725, 0.023875925689935684, 0.04108807072043419], [0.0659174695611, 0.033051542937755585, 0.00758237112313509, 0.025345541536808014, -0.08089733868837357], [-0.054364483803510666, -0.010462027974426746, -0.0013100991491228342, -0.043684739619493484, -0.0634404644370079]], [[-0.003071681596338749, -0.029673440381884575, -0.07308726012706757, -0.0027445585001260042, 0.022607535123825073], [-0.05767730996012688, 0.05690816789865494, -0.019293135032057762, 0.025568310171365738, 0.03818677365779877], [-0.006109333597123623, 0.07188718765974045, -0.0197212565690279, -0.05931570753455162, -0.09797298163175583], [-0.02028893679380417, -0.05758395418524742, 0.027141958475112915, 0.11886994540691376, -0.030499134212732315], [0.044832754880189896, -0.006203037686645985, 0.04069477319717407, -0.060421742498874664, 0.002898525446653366]], [[-0.11484025418758392, -0.05502919480204582, -0.007237271871417761, 0.09342902898788452, 0.10522592067718506], [-0.0929672047495842, 0.10113924741744995, -0.009192864410579205, 0.07327563315629959, 0.012184865772724152], [-0.08382540196180344, -0.09647663682699203, -0.016226474195718765, 0.08491695672273636, -0.028033826500177383], [0.034117456525564194, 0.07133682072162628, 0.041119951754808426, 0.010589743964374065, 0.006813229992985725], [-0.08608799427747726, -0.0032365559600293636, 0.006101425737142563, 0.02299029380083084, 0.0499071441590786]], [[-0.01252770610153675, 0.06416194140911102, 0.05174803361296654, 0.0007090246654115617, -0.021803881973028183], [0.07030347734689713, 0.009660269133746624, -0.008299230597913265, 0.04828021302819252, 0.027782682329416275], [-0.008038781583309174, 0.11230237782001495, 0.05052799731492996, 0.007384390104562044, -0.03353012353181839], [-0.010435310192406178, -0.06074782460927963, -0.021034419536590576, 0.010495506227016449, 0.002308814786374569], [0.014515052549540997, 0.03835032880306244, -0.01781693659722805, -0.058606382459402084, -0.05785646662116051]], [[-0.02203339897096157, -0.06531822681427002, -0.03573744371533394, -0.08711816370487213, -0.1001429557800293], [-0.031068960204720497, 0.022502867504954338, -0.0803670808672905, -0.06947092711925507, 0.06402180343866348], [0.06301788240671158, 0.015464617870748043, -0.013242472894489765, -0.030996406450867653, 0.016179393976926804], [-0.023954467847943306, -0.13737496733665466, -0.10578633099794388, -0.09591646492481232, 0.04158053547143936], [0.06583726406097412, -0.009547212161123753, 0.04999266192317009, -0.06022164225578308, 0.05458271503448486]], [[0.0008346589165739715, -0.07645129412412643, -0.026551466435194016, 0.05670658126473427, -0.04443349689245224], [-0.006705744657665491, 0.08822605013847351, 0.031357619911432266, 0.006685280241072178, 0.037386298179626465], [0.08284968882799149, -0.1457682102918625, -0.0018951974343508482, 0.028320441022515297, -0.005311495158821344], [-0.019540611654520035, -0.03906416893005371, -0.04941919818520546, -0.06854458153247833, -0.13674698770046234], [0.001343102427199483, -0.0535883791744709, 0.043606948107481, -0.014339788816869259, -0.06495285779237747]], [[-0.011080990545451641, 0.020863505080342293, 0.02331899292767048, -0.016875887289643288, -0.014791644178330898], [-0.03436880186200142, -0.006012580823153257, -0.01792670041322708, -0.03735670447349548, -0.02459033392369747], [-0.0139035414904356, 0.02920888364315033, -0.037369504570961, -0.02803078293800354, 0.02535821683704853], [0.013398201204836369, -0.02322544902563095, -0.008402314968407154, 0.01677842065691948, -0.0004874526057392359], [0.024756411090493202, 0.005677763372659683, -0.03218059241771698, 0.01568533666431904, 0.04407951608300209]], [[-0.05601551756262779, -0.12812387943267822, -0.17778682708740234, -0.021569130942225456, -0.09539207071065903], [-0.08015420287847519, -0.1054745763540268, -0.03540028631687164, 0.0407266840338707, 0.14783626794815063], [0.014801040291786194, 0.03248996287584305, -0.004557174630463123, 0.06607197970151901, 0.06166508421301842], [0.015574938617646694, 0.05573073402047157, -0.010392225347459316, 0.0900542363524437, -0.026302188634872437], [0.044209811836481094, -0.04358259215950966, -0.0383768193423748, 0.05676214396953583, 0.05840203911066055]], [[-0.050913047045469284, -0.008761154487729073, 0.031480126082897186, 0.01838284358382225, 0.01689033769071102], [0.011203128844499588, 0.045334719121456146, 0.11833305656909943, 0.01497119665145874, -0.05950653553009033], [0.006122644525021315, 0.01249134261161089, -0.011018938384950161, -0.042212024331092834, -0.06562872231006622], [0.009119897149503231, 0.06819846481084824, 0.09561754018068314, 0.04387001320719719, 0.03816920146346092], [0.006087768357247114, -0.035100191831588745, 0.014814370311796665, 0.015618118457496166, -0.012990150600671768]], [[0.0826847106218338, 0.1547144055366516, 0.04559886083006859, 0.09249115735292435, -0.004765314515680075], [0.09216666221618652, 0.09520812332630157, -0.017022302374243736, 0.02106272056698799, -0.0172222089022398], [-0.014281201176345348, -0.002927584107965231, 0.009840710088610649, 0.05949971824884415, 0.03505935147404671], [0.025823237374424934, -0.04655173048377037, 0.04122818633913994, 0.11282376945018768, 0.1383862942457199], [-0.005527743604034185, -0.06251051276922226, -0.027549555525183678, 0.00707487016916275, 0.015043318271636963]]], [[[-0.021753154695034027, -0.022876335307955742, 0.04948435723781586, 0.016685733571648598, 0.045234765857458115], [0.013951636850833893, -0.07008177787065506, 0.07805415987968445, -0.015073171816766262, -0.010539619252085686], [-0.10783177614212036, 0.03447393700480461, 0.12955550849437714, 0.10481859743595123, 0.04479696974158287], [-0.07832666486501694, -0.13446292281150818, 0.05519893020391464, -0.061254046857357025, -0.019109437242150307], [-0.05369478464126587, 0.11104750633239746, -0.048061832785606384, -0.08657790720462799, -0.004479052033275366]], [[0.023069772869348526, 0.054487939924001694, -0.07397016137838364, -0.0721282884478569, -0.015388749539852142], [0.04648856446146965, 0.022795839235186577, 0.010954713448882103, -0.03673168644309044, -0.09773840010166168], [0.023666569963097572, 0.07798314094543457, 0.07155708968639374, 0.0056152986362576485, -0.06138022243976593], [0.01035759411752224, -0.0005626248894259334, 0.1495082825422287, 0.08808906376361847, -0.018704216927289963], [-0.003940600901842117, 0.015200009569525719, 0.01468818262219429, 0.019762111827731133, 0.06993278115987778]], [[0.0022044966462999582, -0.03619717061519623, -0.0877014696598053, 0.11530648916959763, -0.023576918989419937], [0.02068931609392166, -0.046139515936374664, -0.06789510697126389, 0.052874594926834106, 0.041345708072185516], [0.06464823335409164, 0.025124818086624146, 0.05258183181285858, 0.04090272635221481, 0.04582923650741577], [0.01393741462379694, -0.08339409530162811, -0.017548177391290665, 0.042589642107486725, -0.021834341809153557], [-0.04454908147454262, -0.005026957951486111, 0.0013572813477367163, -0.06901905685663223, 0.013374232687056065]], [[0.014129173941910267, 0.030628733336925507, -0.07222095131874084, -0.0509708970785141, 0.0363055095076561], [-0.03402211517095566, -0.04951968044042587, -0.0575321726500988, 0.03448423370718956, 0.03566928207874298], [-0.038264911621809006, 0.05308695510029793, -0.11696960031986237, -0.03706939518451691, -0.007665668614208698], [-0.06711084395647049, -0.05224073305726051, -0.08938832581043243, 0.03238493949174881, -0.13857747614383698], [-0.03987494483590126, -0.023184170946478844, -0.010824911296367645, 0.1264510303735733, 0.013821209780871868]], [[0.042725615203380585, -0.011900017969310284, -0.0407051146030426, -0.07048352807760239, -0.06438187509775162], [0.0006369021139107645, -0.05962887778878212, -0.05340367183089256, -0.06160025671124458, -0.05940195173025131], [-0.03207078576087952, -0.019555147737264633, 0.015671607106924057, -0.08488093316555023, -0.07501828670501709], [-0.048815298825502396, -0.08452513068914413, 0.1653173714876175, -0.03083016350865364, -0.030576223507523537], [-0.1168992817401886, -0.056659579277038574, 0.049310144037008286, -0.013441705144941807, -0.09698869287967682]], [[-0.004109561908990145, -0.06455770134925842, 0.0008027669973671436, -0.044803790748119354, -0.08559753000736237], [0.02823229320347309, 0.0307207889854908, -0.07881277799606323, -0.08642292022705078, -0.05492335930466652], [-0.07444152981042862, 0.059239890426397324, -0.13723225891590118, -0.1420973241329193, -0.12159418314695358], [0.003025412792339921, 0.019658416509628296, -0.06959446519613266, -0.04692688584327698, -0.06349565833806992], [0.02565067633986473, 0.011172102764248848, 0.00622220104560256, -0.016839835792779922, 0.014292508363723755]], [[0.05736680328845978, -0.012333237566053867, 0.012252602726221085, -0.0983971357345581, -0.06733749061822891], [-0.01473810151219368, -0.04694310575723648, 0.08318042010068893, 0.004164491780102253, -0.029345102608203888], [-0.03835951164364815, -0.12577319145202637, -0.006207257974892855, 0.05660295858979225, 0.04231208935379982], [-0.03476843237876892, 0.03251783177256584, 0.01777789741754532, 0.061716657131910324, -0.00790850818157196], [-0.04269004985690117, -0.007914265617728233, 0.019306277856230736, 0.06378643214702606, 0.06272599846124649]], [[-0.013766126707196236, 0.047652892768383026, -0.044249825179576874, -0.06079209968447685, -0.020583590492606163], [-0.037914592772722244, -0.020380107685923576, -0.01505253091454506, -0.07430631667375565, 0.022390980273485184], [-0.07061047852039337, -0.007239154540002346, 0.0769205316901207, 0.11843238770961761, 0.07510387152433395], [-0.16268353164196014, -0.12083640694618225, 0.08719601482152939, -0.004929021932184696, 0.060629237443208694], [0.009425926953554153, -0.016455931589007378, 0.01915234513580799, 0.02976280450820923, -0.03288755565881729]], [[-0.01402395311743021, -0.08475161343812943, -0.03278551250696182, -0.08734972774982452, -0.05054355040192604], [0.09794062376022339, 0.04098273441195488, 0.05951754003763199, -0.07126230001449585, 0.011108564212918282], [0.0061826989986002445, 0.06718508899211884, -0.005379364360123873, -0.04920579865574837, -0.09310263395309448], [0.006601041182875633, 0.043322380632162094, 0.007741206791251898, -0.017747443169355392, -0.06352906674146652], [-0.01972365379333496, -0.024685928598046303, -0.04917890205979347, 0.046190228313207626, -0.007399287074804306]], [[-0.017680766060948372, -0.03662850707769394, 0.012277670204639435, -0.0816793441772461, -0.07354816794395447], [0.009087778627872467, 0.01243805605918169, -0.011234905570745468, 0.015615581534802914, -0.0011568976333364844], [-0.03987022861838341, -0.050569962710142136, -0.026453448459506035, 0.06121264398097992, 0.13428694009780884], [-0.040544409304857254, 0.08060994744300842, -0.005457148887217045, 0.1102452427148819, 0.07185778021812439], [0.01567009836435318, 0.009662527590990067, 0.0434684194624424, -0.01988830231130123, 0.0030170620884746313]], [[0.014782226644456387, -0.04862912744283676, -0.02688579447567463, 0.02090095356106758, 0.05948011577129364], [0.08487861603498459, -0.05654308199882507, 0.012294975109398365, -0.0780729204416275, 0.06977525353431702], [0.029087023809552193, 0.03999297320842743, 0.0845356434583664, -0.0640748143196106, -0.07818640768527985], [0.11969899386167526, 0.07387088239192963, 0.11870456486940384, 0.013109746389091015, -0.13682681322097778], [0.05017523467540741, 0.0170696210116148, 0.11773751676082611, 0.10400278121232986, 0.006283757276833057]], [[0.017970949411392212, -0.04047171771526337, 0.01495486218482256, -0.06341506540775299, 0.017394768074154854], [-0.006408669054508209, 0.03878951445221901, -0.06054627150297165, 0.00681644631549716, -0.03864888846874237], [0.008150161243975163, 0.08289264887571335, 0.03423716872930527, -0.029678309336304665, -0.054845623672008514], [-0.058541439473629, 0.0606684610247612, -0.009635981172323227, 0.0026393563020974398, 0.010341917164623737], [0.01583852246403694, -0.055960290133953094, -0.06829165667295456, -0.05737999081611633, -0.01974736899137497]], [[0.014736246317625046, -0.012384050525724888, 0.005801700055599213, -0.025968555361032486, -0.05991166830062866], [-0.03845582529902458, 0.015522384084761143, -0.016871510073542595, -0.04484541714191437, 0.0037518159952014685], [-0.028479760512709618, -0.01848294399678707, -0.0721738263964653, -0.020566066727042198, 0.00940108485519886], [-0.102633535861969, -0.062141917645931244, 0.06324151158332825, -0.056139130145311356, 0.02158069796860218], [-0.037386201322078705, -0.07766103744506836, 0.05532938614487648, 7.428615936078131e-05, 0.000593570526689291]], [[-0.003937250003218651, 0.011782117187976837, -0.04823468253016472, 0.03327639028429985, -0.02082560583949089], [0.06155728921294212, 0.01730864681303501, 0.02386893332004547, 0.03506689891219139, -0.08056581765413284], [-0.016776908189058304, -0.09252777695655823, 0.07245764136314392, -0.0032825337257236242, -0.0772816389799118], [-0.025127219036221504, 0.014172250404953957, 0.10259168595075607, 0.06693586707115173, -0.0208248570561409], [0.007039538584649563, -0.04997484013438225, 0.037319205701351166, 0.07461515069007874, 0.08160848170518875]], [[0.09684332460165024, 0.04878203570842743, 0.002498742425814271, 0.017848823219537735, 0.014471329748630524], [0.018113965168595314, 0.056284479796886444, 0.0244551133364439, -0.023800784721970558, 0.05779878795146942], [-0.032906416803598404, 0.05820825323462486, -0.015936676412820816, 0.007929209619760513, 0.05309880152344704], [0.0702497735619545, -0.05155264586210251, 0.012998686172068119, -0.005118453409522772, -0.010581830516457558], [8.171162335202098e-06, 0.07886257767677307, -0.00993491243571043, 0.012205559760332108, -0.0010239125695079565]], [[-0.02289864979684353, 0.003256651572883129, -0.007654455024749041, 0.0016646061558276415, 0.034935496747493744], [0.034130048006772995, -0.02694871835410595, -0.06249059736728668, 0.059141550213098526, 0.05550419166684151], [-0.016953513026237488, -0.06234222277998924, -0.0839424803853035, -0.04596846178174019, -0.08443498611450195], [-0.023241356015205383, -0.056680601090192795, -0.0751466229557991, -0.048671506345272064, -0.09748361259698868], [-0.02134200930595398, -0.05168403685092926, 0.02572513371706009, -0.08814916759729385, -0.1092439591884613]]], [[[-0.01251371018588543, -0.03236355632543564, 0.021448763087391853, -0.0035281635355204344, 0.004324520938098431], [0.059568967670202255, 0.018303444609045982, 0.03687821701169014, 0.021698663011193275, 0.005430630873888731], [-0.02689594216644764, 0.053610943257808685, -0.1094045490026474, -0.01982184872031212, 0.06798310577869415], [-0.006768485531210899, 0.0351521261036396, -0.11801505088806152, -0.036253754049539566, 0.051938340067863464], [-0.07001417875289917, -0.011903973296284676, 0.0409100241959095, 0.10860857367515564, -0.053960684686899185]], [[-0.058275382965803146, 0.04848780110478401, 0.057609833776950836, -0.015116356313228607, 0.04059123992919922], [-0.018421661108732224, -0.0010259526316076517, -0.06515637785196304, -0.02870829589664936, -0.025522764772176743], [0.021443737670779228, -0.06386267393827438, 0.030654393136501312, -0.08467569947242737, -0.10024160891771317], [0.1336519420146942, 0.002933083102107048, 0.1048353835940361, 0.0037349725607782602, 0.020362339913845062], [0.07457727193832397, 0.04319853335618973, -0.11802991479635239, 0.09116218984127045, 0.04655428230762482]], [[-0.04619639366865158, -0.019790219143033028, 0.06721075624227524, -0.061698462814092636, -0.05467449873685837], [-0.09931164234876633, -0.07890516519546509, 0.05065866559743881, -0.0013343801256269217, -0.07293426990509033], [-0.0737498328089714, -0.08781210333108902, -0.03532874956727028, -0.02926708571612835, -0.015497810207307339], [-0.10386840999126434, 0.045363325625658035, -0.03600120544433594, -0.005880945362150669, -0.06920455396175385], [-0.07409149408340454, 0.03744087740778923, -0.14517799019813538, 0.004070684313774109, -0.07524115592241287]], [[-0.014857702888548374, 0.12838834524154663, 0.027050722390413284, 0.04503750056028366, 0.07995246350765228], [-0.0010014266008511186, 0.009341838769614697, -0.09833510965108871, -0.012272902764379978, -0.00851806253194809], [0.026666222140192986, 0.04133221507072449, 0.0022000179160386324, 0.07353518158197403, -0.08467111736536026], [-0.010656891390681267, -0.03272060304880142, 0.04275185987353325, 0.021274683997035027, -0.03888068348169327], [0.026069967076182365, 0.011375662870705128, -0.06188451871275902, 0.0025808217469602823, 0.07179059088230133]], [[-0.04416150599718094, -0.053615521639585495, -0.05792100355029106, 0.004365197848528624, -0.007522094063460827], [-0.023648886010050774, -0.07691134512424469, -0.11307092010974884, -0.007021838799118996, -0.08608534187078476], [-0.08172447234392166, -0.023628050461411476, -0.046951793134212494, -0.08815833926200867, -0.021146254613995552], [-0.06994070112705231, -0.13840508460998535, 0.06438219547271729, -0.01686454936861992, -0.10625389963388443], [0.07309599220752716, 0.0319388322532177, -0.004736144561320543, 0.11509892344474792, -0.06567484885454178]], [[-0.08112312108278275, -0.061796389520168304, 0.009275940246880054, 0.004134629853069782, -0.021101737394928932], [0.03307004272937775, 0.05626988038420677, -0.0024779585655778646, -0.04893410950899124, -0.031753696501255035], [0.07065943628549576, 0.048440538346767426, 0.12340520322322845, -0.07939267158508301, -0.09295296669006348], [0.10060789436101913, -0.03544733673334122, 0.020463868975639343, 0.04543463513255119, 0.0065198373049497604], [0.0407278835773468, 0.0037835275288671255, -0.11246100813150406, -0.034335795789957047, 0.03724773973226547]], [[-0.018402162939310074, -0.0022860837634652853, -0.00903650838881731, -0.02541625313460827, 0.01414557360112667], [-0.042437877506017685, 0.07127667963504791, -0.059473566710948944, 0.004488224629312754, -0.02024035155773163], [-0.03005378507077694, 0.06795433908700943, -0.044906385242938995, -0.030980100855231285, 0.03062017261981964], [0.16123183071613312, 0.1493547558784485, -0.05881189554929733, 0.1261165291070938, 0.009593290276825428], [0.018686234951019287, -0.10721847414970398, 0.024254607036709785, 0.06675870716571808, 0.012835938483476639]], [[-0.05453035607933998, 0.008031605742871761, -0.007993456907570362, -0.007422245107591152, 0.006154414266347885], [-0.00924154743552208, -0.005157177802175283, 0.05559057742357254, -0.013263662345707417, 0.023171385750174522], [-0.039799757301807404, -0.05974395200610161, 0.09214895218610764, 0.031116489320993423, -0.014085731469094753], [-0.05955539643764496, 0.016389353200793266, -0.05951196327805519, 0.08809048682451248, 0.009597365744411945], [-0.04885537549853325, -0.04297511279582977, 0.02180096134543419, 0.10648475587368011, -0.02871856838464737]], [[0.02872583456337452, 0.027903985232114792, -0.03809625282883644, 0.05404296889901161, 0.11487886309623718], [-0.01707082986831665, 0.030521947890520096, -0.043358709663152695, -0.05143957957625389, -0.013219703920185566], [0.07846993207931519, 0.056515246629714966, -0.09114501625299454, 0.095585897564888, 0.02542257122695446], [0.13614560663700104, 0.013753973878920078, -0.008016020059585571, 0.10882377624511719, 0.004158452153205872], [0.005772195290774107, -0.05557471886277199, 0.059033602476119995, 0.08023649454116821, 0.03278496861457825]], [[0.005230234004557133, -0.052169956266880035, -0.021505095064640045, -0.015060429461300373, 0.09222464263439178], [-0.04513039439916611, -0.03294643759727478, 0.044505320489406586, 0.017119809985160828, 0.03414607048034668], [-0.0010232075583189726, -0.03687822073698044, 0.02793816104531288, -0.05873408168554306, -0.06704714149236679], [-0.007260850630700588, 0.06842593103647232, -0.05767793953418732, -0.037326663732528687, 0.02683405391871929], [-0.02009367011487484, 0.06145625188946724, 0.09344226121902466, -0.04194161295890808, -0.05708872526884079]], [[-0.025024496018886566, -0.021964583545923233, -0.0759197473526001, -0.013968285173177719, 0.015617289580404758], [-0.017182881012558937, -0.046476904302835464, -0.03570583835244179, -0.11732673645019531, 0.004119240213185549], [-0.018271634355187416, 0.0031921695917844772, 0.06495116651058197, 0.01707431487739086, -0.010753010399639606], [0.05176174268126488, -0.05955994874238968, 0.01222719345241785, 0.038912560790777206, -0.02710164524614811], [0.012727595865726471, -0.17088866233825684, -0.07603248953819275, 0.04996632784605026, -0.017680266872048378]], [[0.04843170568346977, -0.04947776347398758, 0.06319086253643036, 0.038345880806446075, 0.05878864601254463], [-0.044587865471839905, -0.06949154287576675, -0.08529823273420334, 0.0230360459536314, 0.07016019523143768], [0.02648090571165085, 0.08838971704244614, -0.07560596615076065, 0.08374113589525223, -0.0011974514927715063], [-0.013404164463281631, -0.058671608567237854, -0.04596757888793945, 0.08426599204540253, -0.013715186156332493], [-0.10053838044404984, -0.07070230692625046, 0.01565737836062908, 0.00995499175041914, 0.039000432938337326]], [[0.004676120821386576, -0.023097651079297066, -0.1065162792801857, -0.04141373559832573, -0.02847137860953808], [0.06268282234668732, 0.05344882979989052, 0.00742484861984849, -0.03002188913524151, 0.02321981079876423], [0.07574652880430222, 0.044597696512937546, 0.0014697745209559798, 0.003610855434089899, 0.03808638080954552], [0.006844101939350367, 0.02783377096056938, 0.0999206155538559, -0.019404254853725433, 0.019454075023531914], [-0.10363033413887024, 0.01775415800511837, 0.022616811096668243, -0.01649271696805954, 0.004080869257450104]], [[0.08755192160606384, 0.030956469476222992, -0.0802563950419426, -0.021223509684205055, -0.03861914947628975], [0.0845220610499382, -0.01808147504925728, -0.03874263912439346, 0.02633959800004959, -0.028193583711981773], [-0.025351034477353096, 0.026649046689271927, 0.02849438786506653, -0.03555133938789368, -0.10811568051576614], [0.01735139638185501, 0.03141379728913307, 0.019314078614115715, 0.11835332959890366, -0.04773128032684326], [-0.0012071680976077914, 0.07944492995738983, -0.08920940011739731, -0.001003958284854889, -0.06857317686080933]], [[-0.07029365748167038, -0.036469969898462296, 0.03370891511440277, 0.015984445810317993, 0.052222054451704025], [-0.0030215654987841845, 0.06467746943235397, -0.009100159630179405, 0.03178349882364273, -0.006304121110588312], [0.030199626460671425, -0.009155767038464546, 0.024872520938515663, 0.0494149886071682, -0.07419925183057785], [0.00394261721521616, -0.04830123484134674, -0.0463494248688221, 0.10255488753318787, 0.026032336056232452], [-0.0020736546721309423, 0.1366078108549118, 0.03982426971197128, -0.04096013680100441, -0.027660047635436058]], [[0.04128294810652733, 0.02964881621301174, -0.05064580589532852, 0.003336659399792552, 0.0036846899893134832], [-0.0007034604786895216, -0.06384605914354324, -0.08345390856266022, -0.021229976788163185, 0.03657190874218941], [0.012446255423128605, -0.008020893670618534, 0.02854866161942482, -0.08472885936498642, 0.013374371454119682], [-0.09826728701591492, 0.04494847357273102, 0.03979388624429703, -0.1234356239438057, -0.033141814172267914], [0.013252107426524162, -0.017264192923903465, 0.05122416466474533, -0.0007092906744219363, 0.022859178483486176]]], [[[0.03187812864780426, 0.10446399450302124, -0.06541258096694946, -0.03586971014738083, -0.07464207708835602], [0.05540908873081207, 0.10843706130981445, -0.03649444878101349, -0.02663726918399334, -0.04132300242781639], [-0.04741373285651207, 0.02807157300412655, -0.02462233416736126, 0.11811895668506622, 0.05870601162314415], [0.05020332336425781, 0.041311267763376236, 0.05242621898651123, -0.015479802154004574, -0.045217543840408325], [0.02185647375881672, 0.09270714968442917, 0.0435141883790493, -0.012773368507623672, -0.055611029267311096]], [[-0.09189976751804352, -0.07691098004579544, -0.02756739966571331, -0.10886414349079132, 0.07974361628293991], [-0.04770161956548691, -0.015817686915397644, -9.434035746380687e-06, -0.05374770984053612, 0.04641871899366379], [-0.07639020681381226, -0.05280885472893715, 0.08053149282932281, -0.01155849639326334, 0.004574629012495279], [0.009424155578017235, -0.004542617127299309, 0.07375499606132507, 0.047979701310396194, 0.015700193122029305], [-0.06376820802688599, -0.041891731321811676, -0.03373860567808151, 0.0656994953751564, 0.027275243774056435]], [[-0.07971661537885666, -0.029613148421049118, -0.08746946603059769, 0.001010179053992033, -0.04220392927527428], [-0.05222794786095619, -0.0011321555357426405, -0.007698834873735905, -0.07563883811235428, -0.053450580686330795], [-0.057194001972675323, -0.03376157209277153, -0.00814014207571745, -0.02219158224761486, -0.09428133815526962], [0.01399087905883789, 0.006537182256579399, 5.298948963172734e-05, -0.06393051892518997, -0.08736562728881836], [-0.10524696111679077, 0.06871825456619263, -0.10579964518547058, -0.0708128809928894, -0.060870781540870667]], [[0.0002562944428063929, 0.08549158275127411, -0.006930842529982328, 0.04113909602165222, -0.013643450103700161], [-0.006980720441788435, -0.017840689048171043, -0.013509735465049744, -0.010241863317787647, -0.0649082362651825], [-0.026418793946504593, 0.006641839165240526, 0.05906379967927933, -0.012781682424247265, -0.041188135743141174], [-0.034529127180576324, -0.012285308912396431, 0.013171917758882046, -0.04211137816309929, 0.08557487279176712], [-0.009584138169884682, 0.010961402207612991, 0.015285738743841648, -0.029921578243374825, 0.011172222904860973]], [[-0.010476736351847649, 0.007658499293029308, 0.04992643743753433, -0.06843351572751999, -0.07430216670036316], [0.01457880437374115, -0.03603386506438255, -0.04443475231528282, 0.01592615805566311, -0.0791163370013237], [0.0395427830517292, 0.01686776615679264, -0.01821492798626423, 0.01082191988825798, -0.13423790037631989], [-0.02785862423479557, -0.00019193807383999228, -0.02730516530573368, -0.03223077952861786, -0.06213219091296196], [-0.06073193997144699, 0.032488659024238586, -0.02961500734090805, -0.005190086085349321, 0.00184867053758353]], [[-0.1337698996067047, 0.00953978393226862, -0.009281112812459469, -0.038493651896715164, -0.03871454298496246], [0.026276450604200363, 0.035257041454315186, 0.06811981648206711, -0.0653623715043068, -0.02127518318593502], [-0.02137663960456848, -0.0023079358506947756, 0.1649717390537262, 0.036074623465538025, 0.03127344325184822], [0.0010576207423582673, 0.059183381497859955, -0.02173391357064247, 0.13146434724330902, -0.024600382894277573], [-0.048363130539655685, 0.11109987646341324, -0.015390091575682163, -0.01818259060382843, -0.06615686416625977]], [[0.042104557156562805, 0.036044225096702576, 0.013014035299420357, -0.026981813833117485, 0.04404354840517044], [-0.01864844746887684, 0.07338463515043259, -0.0010246515739709139, -0.04745420441031456, 0.030421210452914238], [-0.07826317101716995, -0.05095050111413002, -0.08307742327451706, 0.07297755032777786, -0.03094286471605301], [-0.006948091089725494, -0.04349031671881676, -0.0028833160176873207, 0.04058220982551575, 0.050020769238471985], [0.009750557132065296, 0.016050783917307854, -0.04932476952672005, -0.004714807495474815, -0.0631476491689682]], [[0.06542269885540009, 0.028738170862197876, -0.0031608068384230137, -0.04667065665125847, -0.053245093673467636], [0.014945540577173233, 0.10555902123451233, 0.09982500225305557, 0.0003771945193875581, 0.032230161130428314], [-0.08257094770669937, -0.017070533707737923, 0.025056110695004463, -0.02803141623735428, -0.0069854953326284885], [0.056055836379528046, 0.06273557245731354, 0.060707829892635345, -0.03208950534462929, -0.05987462401390076], [0.09151207655668259, 0.12106312811374664, 0.14101649820804596, -0.0023789426777511835, 0.021120604127645493]], [[-0.07956837862730026, -0.04686921089887619, 0.011030715890228748, -0.11200013011693954, 0.03400944918394089], [-0.023238826543092728, 0.03507250174880028, -0.07239718735218048, 0.012281342409551144, 0.058364469558000565], [-0.06527115404605865, -0.021707862615585327, -0.08338897675275803, -0.025884050875902176, 0.03026539646089077], [-0.012219829484820366, -0.06751325726509094, 0.0973646268248558, 0.07530020922422409, 0.019933339208364487], [0.016800452023744583, -0.04873567447066307, 0.08152172714471817, 0.04817070811986923, -0.0013592622708529234]], [[0.06972233951091766, 0.07904689759016037, 0.06057815998792648, 0.018191993236541748, -0.034527603536844254], [0.0018354642670601606, 0.07260219007730484, 0.0416986346244812, -0.012766089290380478, -0.05447915196418762], [0.13795427978038788, 0.029236549511551857, -0.05461903288960457, -0.11483318358659744, -0.07994125038385391], [-0.06384419649839401, 0.021382112056016922, -0.09199898689985275, -0.06699347496032715, 0.03532032668590546], [-0.04858940839767456, 0.01573929749429226, -0.0066298870369791985, -0.08275087922811508, -0.0502985343337059]], [[-0.05397243797779083, -0.04934628680348396, 0.03418537601828575, 0.04764259234070778, -0.07582378387451172], [-0.04167090728878975, -0.07572422921657562, -0.051129650324583054, 0.011486858129501343, 0.014455899596214294], [-0.09108039736747742, -0.05140116438269615, -0.0027744502294808626, 0.06660161912441254, -0.02507188729941845], [0.0100332573056221, -0.075090691447258, -0.00810359325259924, -0.003937748726457357, -0.07664195448160172], [0.018364625051617622, -0.012990698218345642, 0.05412070453166962, -0.03441440686583519, -0.0002982488367706537]], [[0.00491501996293664, -0.006695162039250135, 0.041624974459409714, 0.0051897065714001656, -0.05477629974484444], [0.035820916295051575, 0.06659477949142456, -0.005170049145817757, -0.004442225210368633, -0.07959762215614319], [-0.0032467308919876814, -0.010002235881984234, 0.002779691480100155, 0.0855131670832634, 0.019461138173937798], [0.011613135226070881, -0.062601238489151, 0.014193030074238777, 0.017329063266515732, 0.05542362481355667], [-0.007684806827455759, -0.0093108294531703, 0.05580650269985199, -0.04741501808166504, -0.1148788332939148]], [[0.0745888352394104, 0.010652711614966393, 0.029567429795861244, -0.01757882535457611, -0.08052229881286621], [0.020366009324789047, -0.012182149104773998, 0.02312447689473629, -0.03682168573141098, -0.03063700906932354], [0.01753082126379013, 0.03925959765911102, -0.022046087309718132, -0.09293817728757858, -0.03965340182185173], [-0.14694254100322723, -0.03195693716406822, -0.0395999476313591, 1.842196797952056e-05, 0.00571283558383584], [-0.11964523047208786, -0.025794465094804764, -0.03209521993994713, -0.04104361683130264, 0.031199395656585693]], [[-0.05903591960668564, 0.03870449215173721, -0.0006392571376636624, 0.0131656089797616, -0.011911962181329727], [-0.08199778944253922, 0.041186053305864334, 0.009940752759575844, -0.02501642517745495, 0.07927273958921432], [-0.07038259506225586, -0.04559878259897232, -0.009870280511677265, -0.004443622659891844, 0.02827557548880577], [0.04412464052438736, 0.01608518697321415, 0.05861596390604973, 0.06914172321557999, -0.028832105919718742], [0.031494140625, 0.021720444783568382, -0.018329989165067673, 0.09372393041849136, -0.10327863693237305]], [[-0.03607792779803276, 0.04081859812140465, 0.032761722803115845, -0.020339589565992355, -0.04143238440155983], [0.11089731007814407, -0.00023120033438317478, 0.005528189707547426, -0.09639506787061691, -0.0538044199347496], [-0.06345781683921814, -0.018746400251984596, 0.06685850769281387, -0.05223117023706436, 0.01840474084019661], [-0.019557269290089607, -0.038711123168468475, -0.01439766213297844, -0.024347946047782898, 0.04727412760257721], [-0.0010215139482170343, 0.07943113893270493, 0.0874088779091835, 0.07151346653699875, -0.037348877638578415]], [[-0.03448396921157837, 0.0009042450692504644, -0.037128109484910965, 0.04646659269928932, -0.05756575986742973], [0.025479203090071678, -0.05816950649023056, -0.00846307072788477, -0.043871331959962845, -0.10102146118879318], [-0.028703078627586365, -0.023383772000670433, 0.001236440148204565, -0.03607887774705887, -0.07590455561876297], [0.03683050721883774, -0.04015973582863808, -0.0677996426820755, -0.12780633568763733, -0.030920743942260742], [0.028015336021780968, -0.06629655510187149, -0.0672215148806572, -0.015004565939307213, 0.010431922040879726]]], [[[0.10539723187685013, 0.09638282656669617, 0.015068219043314457, -0.024646973237395287, -0.06336560845375061], [0.009673711843788624, -0.041755110025405884, -0.045505449175834656, 0.06931523233652115, -0.03121422603726387], [0.0514531172811985, 0.03272213041782379, 0.03767753392457962, -0.050664082169532776, -0.0074165379628539085], [0.08799712359905243, -0.014084572903811932, -0.022082921117544174, -0.07977325469255447, 0.016270354390144348], [0.032713036984205246, -0.0021151145920157433, -0.09123561531305313, 0.011520259082317352, -0.019933834671974182]], [[-0.08253534883260727, -0.027338946238160133, 0.0011059526586905122, 0.029456093907356262, 0.07723994553089142], [-0.053982507437467575, -0.037567347288131714, -0.09566893428564072, 0.04956584796309471, 0.04610837250947952], [0.025204842910170555, -0.024271922186017036, -0.045904386788606644, 0.020134517922997475, 0.06821246445178986], [-0.02557043358683586, -0.12427160143852234, -0.06303676962852478, -0.005265444051474333, -0.02879631333053112], [-0.10226558893918991, -0.07457995414733887, -0.002889595925807953, -0.005076874513179064, -0.0683361068367958]], [[-0.056486066430807114, -0.0788862481713295, 0.044786639511585236, 0.009862611070275307, 0.1038670539855957], [-0.10527142137289047, -0.03770264983177185, 0.03714834898710251, 0.04475793614983559, -0.04079839214682579], [-0.08811594545841217, -0.010690063238143921, 0.06772258877754211, -0.05472097545862198, -0.0821186751127243], [-0.04759315028786659, 0.01711193472146988, -0.016995953395962715, -0.034349456429481506, -0.05839749425649643], [-0.09184247255325317, -0.0698942244052887, -0.03511423245072365, -0.006844604853540659, 0.009938802570104599]], [[-0.02675933949649334, 0.007282237522304058, -0.06052330881357193, 0.08127099275588989, 0.0751052126288414], [-0.027065817266702652, -0.0020257935393601656, 0.014970390126109123, 0.005277292337268591, 0.15261930227279663], [-0.06580862402915955, -0.025876743718981743, -0.09906599670648575, 0.042334217578172684, 0.05418504402041435], [0.03426196798682213, -0.029940607026219368, -0.058940522372722626, 0.011596684344112873, 0.025020191445946693], [-0.03802391514182091, -0.08337005227804184, -0.08511832356452942, 0.014969746582210064, -0.08951719850301743]], [[0.010155895724892616, 0.029287513345479965, 0.06503942608833313, 0.08651377260684967, -0.02248767949640751], [0.09043758362531662, 0.03489761799573898, 0.003040771698579192, 0.02547524683177471, -0.01638520136475563], [0.08660536259412766, -0.01572313904762268, -0.024070627987384796, 0.033016275614500046, 0.03957656770944595], [0.03103349357843399, -0.09584392607212067, -0.09619426727294922, 0.005466002970933914, 0.0035113657359033823], [0.03806643187999725, -0.022068699821829796, 0.03459994122385979, 0.060255929827690125, -0.04292234405875206]], [[0.07377979904413223, -0.004589536227285862, -0.07874394208192825, 0.013961886055767536, 0.05684558302164078], [0.0395016074180603, 0.04950922727584839, -0.026658158749341965, 0.04293527826666832, 0.02685648761689663], [-0.03594572842121124, 0.009434334933757782, -0.05639953538775444, 0.04100872203707695, 0.0024075955152511597], [0.04562044516205788, 0.017303448170423508, -0.055110033601522446, 0.08975741267204285, -0.02004862204194069], [-0.014338547363877296, 0.03532644361257553, -0.04532242193818092, 0.04225686565041542, 0.039142757654190063]], [[-0.023218661546707153, -0.016280660405755043, 0.024435201659798622, -0.009461630135774612, -0.10694253444671631], [0.023731941357254982, -0.01188842672854662, -0.031101316213607788, -0.11132609099149704, 0.09261476248502731], [0.0005262404447421432, 0.09776101261377335, -0.0314401239156723, -0.10540132969617844, 0.040017321705818176], [-0.04201633483171463, 0.04468105733394623, 0.015980929136276245, -0.03435727581381798, -0.03376443684101105], [-0.03607446327805519, -0.05987171083688736, 0.028616519644856453, -0.0806177482008934, 0.06811968237161636]], [[0.012652689591050148, 0.01187083125114441, -0.01632172055542469, -0.007042046170681715, -0.036766283214092255], [-0.054091569036245346, -0.027384622022509575, -0.041139960289001465, 0.033590950071811676, -0.07946440577507019], [0.047997236251831055, -0.00827017892152071, -0.028455764055252075, 0.027984794229269028, -0.07968704402446747], [0.043286796659231186, 0.07956820726394653, -0.012920462526381016, -0.006685689091682434, -0.05899878218770027], [0.027563799172639847, 0.0690794438123703, 0.01230158843100071, -0.07952054589986801, -0.10083054006099701]], [[0.0022918139584362507, 0.02077876590192318, 0.05376242473721504, -0.013057061471045017, -0.013463100418448448], [0.03861720487475395, -0.03194865584373474, -0.1480899155139923, -0.0019082794897258282, 0.13217003643512726], [0.0787997841835022, -0.03740677982568741, -0.0936509370803833, 0.14969401061534882, 0.08019784837961197], [0.023654498159885406, -0.051246192306280136, -0.04040199890732765, 0.033223412930965424, 0.037573978304862976], [0.06540284305810928, -0.0515163354575634, 0.01642853580415249, 0.009028041735291481, -0.05892576277256012]], [[-0.012810108251869678, 0.03174900636076927, 0.02614000253379345, -0.06797154992818832, -0.07936623692512512], [-0.048317793756723404, -0.013540790416300297, 0.01977650076150894, -0.1624971181154251, -0.008323729038238525], [-0.032017555087804794, -0.11139502376317978, -0.06913425773382187, 0.014314910396933556, 0.05950295180082321], [-0.07187718898057938, -0.03644151985645294, 0.03593871369957924, 0.034140828996896744, -0.0398561917245388], [-0.027771545574069023, 0.0653376579284668, -0.01068384200334549, -0.009662697091698647, -0.027265574783086777]], [[-0.0846572294831276, -0.026162855327129364, 0.025775739923119545, 0.011508780531585217, -0.04050300270318985], [-0.0013015151489526033, -0.11640151590108871, -0.03909647837281227, 0.05138804763555527, 0.013902068138122559], [-0.0031738262623548508, -0.06310281902551651, 0.10767179727554321, 0.05792291462421417, 0.005445250775665045], [-0.08885836601257324, -0.010032654739916325, -0.00637930678203702, -0.01796453259885311, 0.03989732265472412], [0.0201399102807045, 0.0358051173388958, 0.05732524022459984, 0.014674470759928226, -0.017455292865633965]], [[-0.11189618706703186, 0.01710275374352932, 0.056788574904203415, 0.021635904908180237, -0.03101542592048645], [-0.06794247031211853, 0.043898604810237885, 0.040203653275966644, -0.07355587184429169, 0.09343186765909195], [0.11817663908004761, 0.08434318751096725, 0.08877215534448624, -0.024332480505108833, -0.004594617988914251], [0.06489440053701401, -0.03977450355887413, -0.01775296963751316, -0.07257477194070816, 0.05300172418355942], [0.07671438157558441, 0.016878362745046616, 0.01711999997496605, -0.024868588894605637, -0.03217235580086708]], [[-0.032303523272275925, -0.011840254068374634, 0.11394502967596054, 0.024564014747738838, 0.05380789563059807], [0.03710870072245598, 0.02935786359012127, -0.00424531102180481, -0.004450717940926552, -0.015556767582893372], [0.0011792642762884498, -0.01559082418680191, -0.04838103801012039, 0.04772970452904701, 0.0246481504291296], [-0.049782682210206985, -0.025020085275173187, -0.023874742910265923, 0.024835295975208282, -0.024292640388011932], [-0.0032914187759160995, -0.15270531177520752, -0.10644031316041946, -0.036838311702013016, -0.02159673534333706]], [[-0.040959279984235764, 0.06189637631177902, 0.06782851368188858, -0.08106961101293564, 0.024310003966093063], [0.0722401961684227, 0.022146979346871376, -0.07754821330308914, 0.017099086195230484, 0.007904627360403538], [0.005279236938804388, 0.041558075696229935, -0.07628704607486725, -0.09161900728940964, -0.04110725224018097], [-0.027919266372919083, -0.02890654094517231, -0.07526668161153793, -0.07338539510965347, -0.021360013633966446], [-0.025194330140948296, 0.03605903312563896, 0.007107907440513372, 0.0004738709540106356, 0.08686766773462296]], [[-0.015328029170632362, -0.021998584270477295, -0.012805165722966194, -0.04572855308651924, -0.08887194842100143], [0.042642269283533096, 0.0360778272151947, -0.10130683332681656, 0.04341014474630356, 0.014148899354040623], [0.07809493690729141, 0.026022490113973618, 0.018686408177018166, 0.10322703421115875, 0.05683056637644768], [0.005996364634484053, 0.0220612995326519, 0.04102855920791626, 0.021230388432741165, -0.0367947481572628], [-0.10049422830343246, -0.03305525705218315, 0.02590307593345642, -0.018831385299563408, -0.0045630778186023235]], [[-0.052033938467502594, 0.019652245566248894, 0.029204126447439194, 0.05547744035720825, 0.06504280120134354], [0.0023881245870143175, 0.025340138003230095, 0.05235973745584488, 