{"layer1.0.weight": [[[[0.4166010618209839, 0.22750070691108704, -0.24881874024868011, -0.25074097514152527, -0.5620183348655701], [0.45528966188430786, -0.003628963604569435, -0.4071834683418274, -0.8232890367507935, -0.4064130187034607], [0.36499884724617004, -0.6448961496353149, -0.8918903470039368, -0.26546165347099304, 0.30208122730255127], [-0.34623780846595764, -0.6181820034980774, -0.3912823498249054, 0.3275391161441803, 0.3059900999069214], [-0.07453349232673645, 0.0838671624660492, 0.40616440773010254, 0.4356482923030853, 0.37502366304397583]]], [[[-0.07185440510511398, -0.009829081594944, 0.1082596480846405, 0.02514738403260708, 0.18280096352100372], [0.20584318041801453, 0.18928377330303192, 0.32836759090423584, 0.13828399777412415, 0.15266935527324677], [-0.028580201789736748, 0.31817999482154846, 0.38666966557502747, 0.24310320615768433, 0.5060173869132996], [-0.47041046619415283, -0.42816171050071716, -0.16420409083366394, 0.21883277595043182, 0.007134617771953344], [-0.25538817048072815, -0.5758109092712402, -0.7208376526832581, -0.866135835647583, -0.53257817029953]]], [[[0.11588837951421738, 0.3244534432888031, 0.08485529571771622, -0.20202337205410004, -0.396060973405838], [0.23031046986579895, 0.2417706996202469, 0.23491773009300232, -0.503722071647644, -0.4564938247203827], [0.129827082157135, 0.5031372904777527, -0.11455955356359482, -0.4617314338684082, -0.4328775107860565], [0.38279053568840027, 0.2643686532974243, -0.25775235891342163, -0.6403335332870483, -0.2302660197019577], [0.3417225778102875, -0.05153700336813927, -0.5433802008628845, -0.5269929766654968, -0.27040162682533264]]], [[[0.07403704524040222, -0.06524608284235, 0.2274961769580841, 0.3215215504169464, 0.1646052449941635], [0.31854724884033203, 0.37184491753578186, 0.24984697997570038, 0.2333146631717682, 0.3400920629501343], [-0.16571930050849915, 0.001657723682001233, -0.1512567698955536, -0.21204891800880432, -0.282396137714386], [-0.37999823689460754, -0.6347534656524658, -0.6463375091552734, -0.616283118724823, -0.4219747483730316], [0.11234676092863083, 0.275408536195755, 0.2102786898612976, 0.2919124662876129, 0.16037991642951965]]], [[[0.22902630269527435, 0.016652295365929604, -0.0758422240614891, 0.0044999998062849045, 0.12264079600572586], [0.11903811991214752, 0.2282300442457199, 0.02591005340218544, 0.019760452210903168, 0.09786634147167206], [0.05420317128300667, -0.015173816122114658, -0.1609538048505783, -0.022671448066830635, -0.05666327476501465], [-0.1948104202747345, 0.020387589931488037, 0.21746951341629028, 0.18406584858894348, 0.10270094871520996], [0.08210290968418121, -0.03448820859193802, 0.1413765847682953, 0.07677146792411804, -0.12297500669956207]]], [[[0.04846154898405075, 0.27338698506355286, 0.17166322469711304, -0.07300949841737747, -0.3172587752342224], [0.1032075434923172, 0.3799245357513428, 0.026354027912020683, -0.3109024167060852, -0.22955787181854248], [0.2078951895236969, -0.000342629587976262, 0.07574906200170517, -0.08453728258609772, -0.12935973703861237], [-0.31292062997817993, -0.28267034888267517, 0.13504035770893097, 0.12973614037036896, 0.2712418735027313], [-0.36733272671699524, -0.20809854567050934, 0.3117541968822479, 0.057292189449071884, 0.26008182764053345]]], [[[0.23738925158977509, 0.47989368438720703, 0.39433717727661133, -0.20660047233104706, -0.4690167009830475], [0.5505902171134949, 0.2662743628025055, -0.3242250084877014, -0.5726781487464905, -0.5058873891830444], [0.022134752944111824, -0.7457430362701416, -0.7847865223884583, -0.7509559392929077, 0.12325198948383331], [-0.6774032115936279, -0.8733152747154236, -0.33401453495025635, -0.03763682395219803, 0.4679163098335266], [-0.5491881966590881, -0.13518179953098297, -0.016273267567157745, 0.12387310713529587, 0.4034625291824341]]], [[[-0.14225265383720398, -0.005091163795441389, 0.20136067271232605, 0.10826399177312851, 0.18306678533554077], [0.1524895280599594, 0.047886889427900314, 0.008976669050753117, -0.17510947585105896, -0.0007813239353708923], [-0.1485186666250229, 0.16290231049060822, 0.0709778442978859, 0.006370955146849155, 0.14046001434326172], [0.2008032202720642, 0.09845148026943207, 0.10835118591785431, -0.07789693027734756, 0.10306987911462784], [-0.15915730595588684, -0.0044144452549517155, 0.059746481478214264, 0.1449682116508484, 0.03517118841409683]]], [[[-0.0974031314253807, 0.11590857803821564, -0.0445881225168705, 0.16046497225761414, -0.16908404231071472], [0.013969232328236103, 0.1295502930879593, 0.16443146765232086, 0.04256175085902214, 0.058106742799282074], [-0.005369685124605894, -0.08074352145195007, 0.1671600490808487, 0.0016612433828413486, 0.09134108573198318], [-0.11247620731592178, 0.16017977893352509, 0.12420675158500671, 0.04429950565099716, 0.07183229923248291], [0.08960465341806412, 0.1330278366804123, 0.16994105279445648, 0.02944900095462799, -0.03972286358475685]]], [[[-0.003569004125893116, -0.16829414665699005, 0.14652332663536072, 0.17892354726791382, 0.34785136580467224], [-0.3785494565963745, -0.33167538046836853, 0.14634670317173004, 0.41247299313545227, 0.4534979462623596], [-0.4124014675617218, -0.5007113814353943, -0.24640069901943207, 0.16298580169677734, 0.21979808807373047], [-0.4874073565006256, -0.3989671468734741, -0.1974894255399704, 0.3053807318210602, 0.34318268299102783], [-0.5360338091850281, -0.606763482093811, -0.40524452924728394, 0.10488654673099518, 0.43828076124191284]]], [[[-0.007364368531852961, -0.15148517489433289, 0.152131125330925, -0.12434310466051102, 0.05149978771805763], [0.02986951544880867, 0.03831937909126282, 0.09199562668800354, -0.11223150789737701, -0.36234548687934875], [0.06396681070327759, 0.13443870842456818, 0.19818046689033508, 0.10834743082523346, -0.21127931773662567], [-0.019007498398423195, -0.15402449667453766, 0.12221384793519974, 0.08032093197107315, 0.09547669440507889], [-0.04318999499082565, -0.2567146122455597, -0.002882998203858733, -0.040643252432346344, -0.003211809555068612]]], [[[-0.0548257976770401, 0.04989255592226982, 0.13517174124717712, 0.07021194696426392, -0.18238799273967743], [-0.29634442925453186, -0.07236818969249725, 0.1956835687160492, -0.16002613306045532, -0.27019840478897095], [-0.26824045181274414, 0.0921577736735344, 0.1434493213891983, -0.14914986491203308, -0.2508871853351593], [0.07987484335899353, 0.15189114212989807, -0.11972849071025848, 0.14890159666538239, -0.11571858823299408], [0.15029293298721313, 0.13482417166233063, 0.09964723885059357, 0.23607267439365387, 0.1428011804819107]]], [[[-0.1290968507528305, -0.21363209187984467, -0.2587321102619171, -0.21749597787857056, -0.2997249662876129], [-0.15559476613998413, 0.19167859852313995, 0.022804707288742065, -0.030307404696941376, 0.04738853499293327], [0.2864488363265991, 0.0950653925538063, 0.34221532940864563, 0.15685003995895386, -0.19245943427085876], [0.1943807750940323, 0.23132897913455963, -0.06239109858870506, 0.2015274316072464, 0.15430939197540283], [-0.18509216606616974, -0.35651281476020813, -0.23720449209213257, 0.1951046586036682, 0.04303785040974617]]], [[[0.053145769983530045, -0.006626206915825605, 0.14806118607521057, 0.10670994222164154, -0.3504225015640259], [0.15336254239082336, 0.011914476752281189, -0.11053105443716049, 0.1516193449497223, -0.03702787309885025], [-0.1980060338973999, -0.12143617868423462, -0.12757085263729095, 0.01343451626598835, 0.2597945034503937], [-0.0031744299922138453, 0.17876625061035156, 0.1605236828327179, 0.0620434395968914, 0.33283981680870056], [-0.0006350257899612188, -0.022429298609495163, -0.0967002585530281, -0.403739869594574, -0.1788792610168457]]], [[[0.023629212751984596, -0.12563525140285492, -0.19959649443626404, -0.12791207432746887, -0.02997017465531826], [-0.09178431332111359, -0.4013794958591461, -0.41596269607543945, -0.18928639590740204, -0.48435479402542114], [0.21729984879493713, -0.11908692121505737, -0.23450002074241638, -0.2270652949810028, -0.17414943873882294], [0.2978358268737793, 0.3576309382915497, 0.4629552960395813, 0.1638476401567459, 0.11763755977153778], [0.050345420837402344, 0.29852786660194397, 0.21491584181785583, 0.3355589210987091, 0.13557688891887665]]], [[[0.0958106741309166, 0.43820685148239136, 0.2872667610645294, -0.18300899863243103, -0.3749856948852539], [0.20487621426582336, 0.3206494450569153, 0.21989348530769348, -0.36410295963287354, -0.4291039705276489], [0.2314286231994629, 0.3914617598056793, 0.17314542829990387, -0.42769843339920044, -0.49099695682525635], [0.1510457545518875, 0.15521202981472015, 0.13609282672405243, -0.10255011916160583, -0.2257557511329651], [0.30228328704833984, 0.1261204183101654, 0.29313915967941284, -0.21905778348445892, -0.13959050178527832]]]], "layer1.0.bias": [-0.0034187366254627705, 0.027049243450164795, 0.10804569721221924, -0.0025362998712807894, -0.21430625021457672, -0.09104817360639572, 0.20328034460544586, -0.1665906459093094, -0.21897073090076447, -0.004022256471216679, 0.07488209009170532, -0.0668983981013298, -0.0011289817048236728, -0.010634707286953926, -0.024397067725658417, -0.2508690655231476], "fc.weight": [[-0.05788305401802063, 0.018093770369887352, 0.028593650087714195, -0.05283510684967041, -0.009776575490832329, 0.03304114565253258, 0.03233281522989273, 0.045506082475185394, -0.001885322853922844, -0.018724210560321808, -0.05911077558994293, -0.1502736657857895, 0.007896073162555695, 0.01579468883574009, -0.042040176689624786, -0.03986847773194313, -0.044312506914138794, -0.04684995487332344, -0.03313117474317551, -0.0880393460392952, -0.12324679642915726, -0.11091609299182892, -0.17666590213775635, -0.07858153432607651, 0.01762951910495758, 0.014129706658422947, -0.026999786496162415, -0.015873365104198456, -0.055724985897541046, -0.014853144995868206, -0.014644738286733627, -0.09119335561990738, -0.2152402251958847, -0.24244296550750732, -0.3321588635444641, -0.10801810771226883, 0.006490155588835478, 0.03204045444726944, -0.06483622640371323, -0.07331425696611404, 0.02047373540699482, -0.013250955380499363, -0.15060316026210785, -0.2689436674118042, -0.25157269835472107, -0.3212718069553375, -0.23628972470760345, -0.05176223814487457, -0.015142371878027916, -0.003740925807505846, 0.030277105048298836, 0.1012003943324089, 0.04023580625653267, -0.08587437868118286, -0.15504369139671326, -0.22440782189369202, -0.2135782390832901, -0.1917845904827118, -0.14977684617042542, -0.03512497618794441, -0.051251862198114395, -0.00899071991443634, 0.1309918463230133, 0.13767178356647491, -0.04823894053697586, -0.164939746260643, -0.09863326698541641, -0.07581861317157745, -0.06984047591686249, 0.020044777542352676, -0.0423799529671669, 0.07215229421854019, 0.04353884235024452, -0.04634368047118187, 0.02208704687654972, 0.123517245054245, 0.04690243676304817, 0.018914343789219856, -0.022349148988723755, -0.040498699992895126, 0.03629964962601662, 0.07031610608100891, 0.013944625854492188, 0.026619927957654, 0.0277195256203413, -0.09150774776935577, -0.1836961954832077, 0.006323065143078566, 0.01676269993185997, 0.04571109265089035, 0.07955664396286011, 0.0020931577309966087, 0.0780768170952797, 0.0998237282037735, 0.033363986760377884, 0.09773615002632141, -0.018048886209726334, -0.18628811836242676, -0.23220185935497284, 0.0023730392567813396, 0.08817032724618912, 0.09881099313497543, 0.043146539479494095, 0.08443200588226318, 0.038353316485881805, 0.05722585320472717, 0.011166670359671116, 0.03171436861157417, -0.14835821092128754, -0.2732180058956146, -0.3285784125328064, -0.07742894440889359, 0.04586281254887581, 0.04204682260751724, 0.11994968354701996, 0.10848206281661987, 0.11927532404661179, 0.08559147268533707, 0.0488886758685112, 0.03221946209669113, -0.09177467972040176, -0.1980510652065277, -0.47059082984924316, -0.22400826215744019, -0.20142368972301483, -0.011199455708265305, 0.0054521034471690655, 0.026218552142381668, 0.026194917038083076, 0.027210237458348274, -0.04332864657044411, -0.04178713634610176, 0.030814604833722115, -0.1844889372587204, -0.16107966005802155, -0.17044173181056976, -0.05294054001569748, -0.03671688959002495, -0.11983080208301544, -0.08247940987348557, -0.03253258392214775, -0.005257185082882643, -0.0951496884226799, -0.06009333208203316, 0.03642868995666504, 0.010104212909936905, 0.011686703190207481, 0.015576899982988834, -0.0605962760746479, -0.022945456206798553, 0.07194829732179642, 0.09351764619350433, 0.06230141595005989, 0.05039912089705467, 0.029813257977366447, 0.042762391269207, -0.006289764307439327, -0.07445284724235535, -0.15345437824726105, -0.28714022040367126, -0.25124838948249817, -0.10401324182748795, -0.018535608425736427, -0.0034674860071390867, -0.011813136748969555, 0.008433517068624496, -0.0018971356330439448, -0.03261220455169678, 0.018186956644058228, -0.01807270757853985, -0.12873201072216034, -0.24655652046203613, -0.19293595850467682, -0.061886612325906754, -0.00961426179856062, 0.04425116628408432, -0.0374186635017395, 0.04848894849419594, 0.09444645047187805, -0.011277919635176659, 0.0005207291105762124, -0.11723968386650085, -0.05686521530151367, -0.08037960529327393, -0.0733572319149971, -0.08098425716161728, -0.08874800056219101, -0.10015857219696045, -0.0909213200211525, -0.10357820987701416, -0.014966554939746857, -0.046382419764995575, 0.05067461356520653, -0.15194281935691833, -0.09915294498205185, -0.08761528879404068, -0.09377676993608475, -0.028961874544620514, 0.02898481860756874, -0.08506375551223755, -0.14987020194530487, -0.21359491348266602, -0.16493220627307892, -0.07954662293195724, -0.022942757233977318, -0.15711499750614166, -0.24458052217960358, -0.24497584998607635, -0.08041104674339294, -0.11468221247196198, -0.12500157952308655, -0.07826346904039383, -0.044101983308792114, -0.045035894960165024, -0.10641489177942276, -0.10242859274148941, -0.04721181094646454, -0.08435322344303131, -0.1765197515487671, -0.1819157898426056, -0.08928368240594864, -0.2642019987106323, -0.3521355092525482, -0.1639179140329361, 0.015129927545785904, 0.002951217582449317, 0.0217214897274971, 0.0003646808036137372, 0.04218042269349098, -0.044927094131708145, -0.05941074341535568, -0.0801621600985527, -0.22828906774520874, -0.3051885664463043, -0.18255914747714996, -0.0030296449549496174, 0.04864596948027611, 0.03362487256526947, 0.037806980311870575, 0.007023342419415712, 0.015391489490866661, -0.06919346004724503, -0.031082618981599808, 0.023478882387280464, 0.017045915126800537, 0.004299826920032501, 0.12321186810731888, 0.0954822450876236, 0.050692182034254074, 0.04001743718981743, -0.020512063056230545, -0.09121443331241608, 0.0474950410425663, 0.025787964463233948, -0.06352865695953369, 0.004054767079651356, 0.018992366269230843, 0.03495490178465843, 0.03584251180291176, -0.05082011595368385, -0.05930071696639061, -0.058716144412755966, -0.0993005707859993, -0.1004238873720169, 0.017763212323188782, 0.013971361331641674, 0.04953450337052345, 0.06685717403888702, 0.07972107827663422, 0.06646890193223953, 0.028651874512434006, -0.01690124347805977, -0.05098223686218262, -0.039680950343608856, -0.0676470547914505, -0.0810091644525528, 0.004187939688563347, -0.025985056534409523, 0.011698163114488125, -0.07321231812238693, 0.0007075233152136207, -0.006623674184083939, -0.056904539465904236, -0.05921904742717743, -0.10005564242601395, -0.15764960646629333, -0.08698125928640366, -0.06437929719686508, -0.0075952052138745785, 0.0018073699902743101, -0.016922488808631897, -0.00947509054094553, -0.056967925280332565, -0.007526831701397896, -0.02324177511036396, -0.02851892076432705, -0.06789025664329529, -0.0074623278342187405, -0.01097861584275961, 0.00910951942205429, -0.002992467489093542, 0.00029150882619433105, -0.01999671384692192, -0.07207564264535904, -0.08033808320760727, -0.09071657061576843, -0.054991502314805984, -0.05529839172959328, -0.05419539287686348, -0.09701881557703018, -0.04934670031070709, 0.00978371687233448, 0.016853613778948784, -0.02006298489868641, -0.051937445998191833, -0.11158198863267899, -0.07964420318603516, -0.04616163671016693, -0.02287261001765728, -0.10516957938671112, -0.06020110100507736, -0.07595639675855637, -0.03021099790930748, 0.05546482652425766, 0.004383372142910957, -0.004621563479304314, 0.012625333853065968, -0.09759164601564407, 0.10802241414785385, 0.0465288907289505, -0.018597563728690147, -0.0334642268717289, -0.014279692433774471, 0.0011982399737462401, 0.0013971017906442285, 0.0986018106341362, -0.001331426901742816, -0.003093461273238063, -0.009962313808500767, 0.0971764326095581, 0.11928688734769821, 0.05749623849987984, 0.12708109617233276, 0.03077748417854309, 0.024611536413431168, -0.0025124920066446066, 0.04082139581441879, 0.08679822832345963, 0.027631700038909912, 0.054015640169382095, 0.07468900084495544, 0.13568224012851715, 0.13524359464645386, 0.14098095893859863, 0.1795397698879242, 0.052806563675403595, 0.07525364309549332, 0.046409059315919876, 0.031545113772153854, 0.07181300967931747, 0.030268367379903793, 0.07953192293643951, 0.12391691654920578, 0.15528465807437897, 0.12193731218576431, 0.17089861631393433, 0.12317737191915512, 0.05251041427254677, 0.0685654729604721, 0.04759359359741211, 0.029906822368502617, 0.045441195368766785, -0.006565048824995756, 0.06064007058739662, 0.07959157973527908, 0.12969869375228882, 0.10294388234615326, 0.19668394327163696, -0.0018327288562431931, 0.07230982929468155, 0.11438310891389847, 0.04070520028471947, 0.024131717160344124, 0.04380450397729874, 0.00421682046726346, 0.021414408460259438, 0.030535057187080383, 0.1091170534491539, 0.07302979379892349, 0.03787050023674965, -0.028150243684649467, 0.022066768258810043, -0.0020793192088603973, 0.01441283617168665, 0.027788709849119186, 0.016001641750335693, 0.023809436708688736, -0.005508675705641508, 0.016919903457164764, 0.06781803071498871, -0.028002984821796417, -0.03677669167518616, -0.03762790933251381, -0.003201625309884548, -0.002808730583637953, -0.0067058284766972065, -0.03762589767575264, -0.03072701208293438, 0.012799179181456566, 0.0061927069909870625, 0.0049414015375077724, -0.06052705645561218, -0.0887875184416771, -0.15153959393501282, -0.1323969066143036, -0.09193820506334305, -0.06879904121160507, -0.05902889743447304, -0.07893543690443039, -0.0345822311937809, 0.023858100175857544, -0.013906468637287617, -0.028107473626732826, 0.011596687138080597, -0.03675096482038498, -0.16939817368984222, -0.17286448180675507, -0.11433294415473938, -0.09851521998643875, -0.10223600268363953, -0.03214344382286072, 1.7857226339401677e-05, 0.03649834915995598, 0.052751120179891586, 0.02474125660955906, 0.036873865872621536, 0.012376326136291027, 0.07061757892370224, 0.06140914559364319, 0.05190543830394745, 0.05715247616171837, 0.05844593793153763, -0.001898313290439546, -0.09855198860168457, -0.06279556453227997, -0.1414574682712555, -0.07952740043401718, -0.044518351554870605, -0.10887297987937927, -0.1944386214017868, -0.12191707640886307, -0.09262006729841232, -0.11453263461589813, -0.12559464573860168, -0.09974876791238785, -0.02939199097454548, 0.038165368139743805, -0.03728551045060158, -0.07138630747795105, -0.14396943151950836, -0.20040921866893768, -0.09035377204418182, -0.09666886180639267, -0.10899420082569122, -0.0796208307147026, -0.04387437552213669, -0.051244303584098816, -0.08828253298997879, 0.014395025558769703, -0.04571538791060448, -0.06557115167379379, -0.06461617350578308, -0.01818588189780712, -0.05873355269432068, -0.11057767271995544, -0.0970378965139389, -0.09366773813962936, -0.051152002066373825, -0.061234477907419205, -0.032006215304136276, -0.009091869927942753, -0.06601684540510178, 0.009367017075419426, 0.017756387591362, -0.04745146632194519, -0.017905909568071365, -0.0825662761926651, -0.10667507350444794, -0.1232529878616333, -0.11702809482812881, -0.06655504554510117, -0.013304530642926693, -0.1427769958972931, -0.20902499556541443, -0.06766123324632645, -0.052689313888549805, -0.032850928604602814, 0.01667635887861252, -0.07531427592039108, -0.18877674639225006, -0.11937088519334793, -0.03475058451294899, -0.015425327233970165, -0.02559882216155529, -0.11909046769142151, -0.12871809303760529, -0.13713538646697998, 0.001436052843928337, -0.017860177904367447, -0.07518917322158813, -0.1818285435438156, -0.16940751671791077, -0.12081845104694366, -0.023670857772231102, -0.04836424067616463, -0.02985226921737194, -0.16552554070949554, -0.10493824630975723, -0.10203235596418381, -0.07146286219358444, -0.09293350577354431, -0.14439314603805542, -0.19099611043930054, -0.12684974074363708, -0.041403863579034805, 0.008323956280946732, 0.0012162741040810943, 0.022632285952568054, 0.02309057116508484, -0.06648430228233337, -0.04338866099715233, -0.054560478776693344, -0.0875544548034668, -0.1605077087879181, -0.09862516075372696, -0.029302356764674187, 0.021417299285531044, 0.03335760906338692, 0.011326607316732407, -0.008315731771290302, -0.06852804124355316, -0.13236185908317566, -0.11208245903253555, -0.0083779850974679, 0.008238842710852623, -0.0033279461786150932, -0.011642588302493095, 0.038794390857219696, 0.017488572746515274, 0.0007705719908699393, -0.03842312470078468, -0.09576234221458435, -0.04800640791654587, -0.02346469648182392, -0.08052927255630493, -0.015035921707749367, 0.034054048359394073, 0.02943558618426323, 0.029092250391840935, 0.02470981515944004, 0.0066579533740878105, -0.042986176908016205, -0.04828270524740219, -0.03578512370586395, -0.06116117164492607, 0.04484599456191063, 0.05917096510529518, 0.04995320737361908, 0.05401124805212021, 0.06130741909146309, 0.09367793798446655, 0.0549764558672905, 0.02395174466073513, -0.00048196985153481364, -0.10450803488492966, -0.1086965873837471, -0.03478223830461502, -0.06635420769453049, -0.011190948076546192, 0.01975337602198124, -0.022414274513721466, -0.05209977179765701, -0.02395954169332981, -0.03144734725356102, 0.0022005150094628334, -0.04235152527689934, -0.00484765088185668, -0.08240987360477448, -0.049503352493047714, -0.004581511486321688, -0.029248317703604698, -0.023318160325288773, 0.007187362294644117, -0.025141915306448936, -0.013791448436677456, -0.04978720098733902, -0.0038319991435855627, -0.004877970088273287, 0.007050572894513607, -0.06382513046264648, -0.06577081233263016, -0.003954306244850159, -0.017374452203512192, 0.005946202669292688, -0.020189080387353897, 0.011647659353911877, 0.02390187606215477, 0.02966572903096676, 0.010023369453847408, 0.04623018950223923, 0.036145247519016266, 0.020076487213373184, -0.01861514337360859, -0.018014565110206604, 0.005677936598658562, 0.02617809921503067, 0.018863318488001823, 0.025436261668801308, 0.042716607451438904, 0.022487986832857132, 0.047626346349716187, 0.04759911447763443, 0.04646456986665726, 0.021633028984069824, -0.06308282166719437, 0.036037858575582504, 0.012024158611893654, 0.008683993481099606, 0.037082772701978683, 0.011563894338905811, -0.0018477999838069081, 0.02100640907883644, 0.005754515528678894, 0.04796300455927849, 0.04073811694979668, 0.051640819758176804, -0.07390998303890228, 0.04797275364398956, 0.027709251269698143, 0.038952991366386414, 0.041516710072755814, -0.03338165953755379, -0.0743957906961441, -0.04300618916749954, -0.014518056064844131, 0.030352653935551643, 0.02908298559486866, 0.08794891834259033, -0.07570431381464005, 0.012450676411390305, 0.05393218621611595, 0.02690219320356846, 0.006469953339546919, -0.056725554168224335, -0.0980825424194336, -0.09155799448490143, -0.0664592906832695, 0.0167708583176136, 0.0262663122266531, 0.05302570015192032, -0.028516653925180435, 0.017313148826360703, 0.035887304693460464, 0.04632389545440674, -0.02976308763027191, -0.08326668292284012, -0.06439288705587387, -0.10235539823770523, -0.053644102066755295, -0.01490751001983881, 0.020813370123505592, 0.051955584436655045, 0.023655854165554047, 0.031850382685661316, 0.027752764523029327, 0.0396113246679306, 0.03243791311979294, -0.03158235177397728, -0.07208371162414551, -0.06188948452472687, -0.013195682317018509, -0.016434067860245705, -0.00564879085868597, 0.03465539589524269, 0.028123030439019203, 0.007891399785876274, -0.01049033459275961, 0.01011241227388382, 0.053477294743061066, 0.030110402032732964, -0.018941549584269524, -0.02432435005903244, -0.023500872775912285, 0.011852272786200047, 0.019611051306128502, -0.020709620788693428, -0.004455992020666599, -0.01099393330514431, -0.01530911959707737, 0.025069069117307663, 0.02034877799451351, 0.030110500752925873, 0.040090419352054596, -0.01633073389530182, -0.01599656604230404, -0.02966432459652424, -0.03894083574414253, -0.035216473042964935, -0.048183757811784744, -0.007507329806685448, 0.008387950249016285, 0.0238657109439373, 0.0525800883769989, 0.028970282524824142, 0.060364022850990295, 0.03718552738428116, -0.0018163291970267892, -0.0356035940349102, -0.07589832693338394, -0.05959497019648552, -0.08555421978235245, 0.02434467524290085, 0.017520219087600708, -0.04814069718122482, -0.05726413428783417, 0.0319044291973114, 0.051779646426439285, 0.053105708211660385, -0.02145293727517128, -0.0725696012377739, -0.12694406509399414, -0.2113199383020401, -0.012813073582947254, -0.00705363042652607, -0.052112746983766556, -0.02921888791024685, -0.013256830163300037, 0.035093385726213455, -0.006341222673654556, -0.010219752788543701, 0.07560927420854568, 0.019970377907156944, -0.08823958039283752, -0.04606811702251434, -0.018824702128767967, -0.01732887513935566, 0.009093028493225574, -0.044806770980358124, -0.08383064717054367, 0.030760157853364944, 0.08165103942155838, 0.07494071871042252, 0.07311448454856873, 0.09112618118524551, 0.07797054201364517, -0.04587891325354576, -0.008681733161211014, 0.027409307658672333, 0.042475420981645584, -0.11601133644580841, -0.07353996485471725, 0.005085828248411417, 0.028161820024251938, 0.08633819967508316, 0.09634817391633987, 0.07262873649597168, 0.011366435326635838, -0.002557333093136549, -0.002786135533824563, -0.05562032386660576, -0.024460824206471443, -0.04406793415546417, 0.010691709816455841, -0.10838908702135086, 0.041761815547943115, 0.15082025527954102, 0.07323227822780609, 0.04641856253147125, 0.007637225091457367, 0.040913403034210205, 0.04957985877990723, -0.06379932910203934, 0.07099834084510803, 0.003490467555820942, -0.06338751316070557, -0.026136398315429688, 0.04263719171285629, -0.02079019509255886, -0.00900258868932724, -0.0018615833250805736, 0.08537989854812622, 0.09086667001247406, 0.033597029745578766, -0.05344056338071823, 0.016665291041135788, -0.03394543379545212, 0.009984728880226612, 0.06874801963567734, -0.011962939985096455, -0.15888053178787231, -0.08916974067687988, -0.0013934666058048606, 0.0401107594370842, 0.07092801481485367, 0.02362808957695961, -0.05704575404524803, 0.03666767105460167, 0.06623557955026627, 0.08326086401939392, 0.06606954336166382, -0.03219623118638992, -0.16709893941879272, -0.0869026705622673, -0.03678607568144798, -0.007420686073601246, 0.039811935275793076, -0.0033702740911394358, -0.05968720093369484, -0.026084916666150093, 0.051152341067790985, 0.11064561456441879, 0.1045483648777008, -0.08109649270772934, -0.05337032675743103, -0.026275355368852615, -0.01029148418456316, 0.0031851844396442175, 0.01236717402935028, -0.1609826683998108, -0.08406941592693329, 0.02289542369544506, 0.076711006462574, 0.11269175261259079, 0.1487950086593628, 0.04733475297689438, 0.02851053513586521, -0.010364166460931301, -0.015981653705239296, -0.013090377673506737, -0.03847667947411537, -0.01349442545324564, -0.0507369302213192, -0.002438576892018318, 0.06832374632358551, 0.0642901211977005, 0.11147483438253403, 0.043137818574905396, 0.000517252366989851, 0.0015243240632116795, -0.014492803253233433, -0.026653150096535683, -0.022753363475203514, -0.05169127508997917, -0.07796061038970947, -0.10292883217334747, 0.021683700382709503, 0.02130093239247799, -0.04236975684762001, -0.059300269931554794, -0.033371251076459885, -0.006812241394072771, -0.06553297489881516, -0.050372522324323654, -0.1163017600774765, -0.00758122093975544, 0.02036796323955059, 0.0437057800590992, -0.028291860595345497, -0.0302954763174057, 0.03141475096344948, 0.024251820519566536, 0.028822990134358406, 0.009646491147577763, 0.005216375924646854, 0.001995752565562725, -0.001043202355504036, 0.013546922244131565, -0.0055601526983082294, -0.04130828008055687, -0.027559055015444756, -0.023468004539608955, 0.0029575005173683167, -0.04943486303091049, 0.009387684985995293, -0.02963651530444622, -0.01603156328201294, -0.10406077653169632, 0.016661478206515312, 0.019262289628386497, -0.0015186209930106997, -0.019320931285619736, 0.0030044112354516983, -0.06117312237620354, -0.019732246175408363, 0.01620298996567726, -0.05118103697896004, -0.27025851607322693, -0.23579052090644836, -0.2017662674188614, -0.0919075608253479, 0.03045530430972576, 0.025875091552734375, -0.01687059924006462, 0.022821297869086266, -0.02185230329632759, 0.053831133991479874, -0.10037849843502045, -0.15952861309051514, -0.2030554562807083, -0.298309862613678, -0.20450562238693237, -0.09941135346889496, 0.013211732730269432, 0.04181087389588356, 0.07243139296770096, 0.0916299894452095, 0.039150018244981766, -0.09750082343816757, -0.16185925900936127, -0.0641283169388771, -0.11110413819551468, -0.23989851772785187, -0.23995578289031982, -0.11975113302469254, 0.04384258762001991, 0.08072193711996078, 0.13726605474948883, 0.1137462854385376, 0.025579489767551422, -0.1847856491804123, -0.029674744233489037, -0.011773963458836079, -0.03983518108725548, -0.08449521660804749, -0.08978044241666794, -0.06091616675257683, 0.07035888731479645, 0.023297004401683807, 0.10722480714321136, 0.06981246918439865, -0.015900855883955956, -0.034455712884664536, -0.035100143402814865, 0.012914849445223808, 0.047193218022584915, 0.009149705991148949, -0.04705273360013962, -0.028066523373126984, 0.08871142566204071, -0.020678138360381126, -0.09623459726572037, -0.023660872131586075, -0.05241106078028679, -0.01770941913127899, 0.04472293332219124, 0.022685956209897995, 0.11056022346019745, 0.04323045164346695, -0.013653283938765526, 0.022752460092306137, 0.048306453973054886, -0.052160922437906265, -0.220135897397995, -0.200648233294487, -0.03362355753779411, -0.04968763142824173, 0.023685432970523834, 0.1521795243024826, 0.16547998785972595, 0.061374157667160034, 0.031960807740688324, 0.02465784177184105, -0.047359589487314224, -0.14912988245487213, -0.20989222824573517, -0.23673592507839203, -0.18917617201805115, -0.055943530052900314, 0.13484926521778107, 0.13654716312885284, 0.09549776464700699, 0.0752067044377327, 0.040093377232551575, -2.2645803255727515e-05, -0.04181383550167084, -0.05341407284140587, -0.1771577149629593, -0.1631716936826706, -0.17162615060806274, -0.05018413066864014, 0.014402579516172409, 0.057529233396053314, 0.034641098231077194, 0.05662447586655617, 0.01499174814671278, 0.001246107742190361, 0.013510746881365776, -0.016091424971818924, -0.0634697824716568, -0.026400072500109673, 0.03498487174510956, -0.0662788450717926, -0.024894138798117638, 0.036757733672857285, 0.05525702238082886, 0.0018196854507550597, -0.006474833004176617, -0.0218508318066597, -0.07387333363294601, -0.04279187694191933, -0.007526995148509741, -0.03536268696188927, -0.03025992028415203, -0.001237583695910871, -0.015972184017300606, -0.037751391530036926, -0.004496136214584112, -0.024454614147543907, -0.022015957161784172, -0.03396087512373924, -0.053597964346408844, -0.008519784547388554, -0.024889223277568817, -0.0011023434344679117, 0.00031045201467350125, -0.005283716134727001, 0.0003319143143016845, 0.016149796545505524, -0.0038697216659784317, -0.004313104785978794, 0.040236495435237885, -0.03389382362365723, -0.030019959434866905, -0.036544132977724075, 0.022947974503040314, 0.01961623877286911, -0.016382865607738495, 0.015932494774460793, 0.01144596841186285, 0.04053071141242981, 0.04723746329545975, 0.0138853145763278, 0.03417489305138588, 0.021196620538830757, -0.023006664589047432, 0.0009023069869726896, 0.03343358635902405, -0.009426068514585495, 0.02517014369368553, 0.03267519921064377, 0.020898647606372833, 0.031895484775304794, 0.04196685552597046, 0.04020461067557335, 0.041617248207330704, 0.00868588499724865, -0.02272874303162098, 0.031090572476387024, 0.01022660918533802, 0.02673887088894844, 0.0438571572303772, -0.00495597068220377, 0.0061728572472929955, -0.0019242421258240938, 0.012823301367461681, 0.03348337858915329, 0.029706748202443123, 0.022099243476986885, 0.008788779377937317, 0.01283723022788763, 0.04879887029528618, 0.02051902562379837, -0.0020841003861278296, -0.03572872281074524, -0.09283328056335449, -0.05029915273189545, -0.027403485029935837, 0.042295850813388824, 0.038722798228263855, 0.05607428774237633, 0.05113507807254791, 0.0495733842253685, 0.0600975938141346, 0.054920442402362823, 0.007179021369665861, -0.059302426874637604, -0.07560838758945465, -0.09536520391702652, -0.01941688545048237, 0.01766904443502426, 0.05039791390299797, 0.058264605700969696, 0.049853160977363586, 0.02950352616608143, 0.0534038171172142, 0.044640105217695236, -0.025731053203344345, -0.056616105139255524, -0.07314836978912354, -0.05430925637483597, 0.017009826377034187, 0.006041207350790501, 0.008763518184423447, 0.05582907423377037, 0.028870465233922005, 0.027573149651288986, -0.0005431288154795766, 0.026398001238703728, 0.0007738480344414711, -0.002578024286776781, -0.05523200333118439, -0.00870485045015812, 0.0247783325612545, 0.022344060242176056, 0.037282299250364304, -0.008576828055083752, -0.0036969613283872604, 0.02041763812303543, 0.012091604992747307, 0.024419166147708893, 0.012960013933479786, 0.0365053154528141, 0.002712635323405266, 0.014183038845658302, 0.001255992567166686, 0.008726931177079678, 0.013746178708970547, -0.040571339428424835, -0.008794836699962616, 0.016277791932225227, 0.012906757183372974, 0.029577668756246567, 0.009646331891417503, 0.05517588183283806, 0.0180159043520689, -0.0016278557013720274, 0.006394798401743174, -0.04599180072546005, -0.006311309058219194, -0.08186237514019012, -0.0113285006955266, 0.018353495746850967, 0.012447508051991463, -0.05066164955496788, -0.0196912232786417, 0.0026859696954488754, -0.0222819522023201, -0.05469129607081413, -0.02798423543572426, -0.08168134093284607, -0.10297679901123047, -0.08682631701231003, 0.00025296048261225224, -0.042326055467128754, -0.027180790901184082, -0.001417759689502418, -0.015378636308014393, -0.06057470291852951, -0.04332883283495903, -0.02369779348373413, -0.0016791140660643578, -0.03114580735564232, -0.00950753316283226, -0.030441733077168465, -0.026863038539886475, 0.011924292892217636, -0.02397080324590206, -0.018688928335905075, -0.009515300393104553, 0.012285641394555569, -0.00022762056323699653, 0.0097880307585001, -0.0007633328204974532, -0.004530544858425856, 0.040105316787958145, -0.02447141334414482, -0.04704666882753372, -0.01518290862441063, -0.028199169784784317, -0.010682281106710434, -0.021813150495290756, 0.006203204859048128, 0.029832379892468452, 0.024948937818408012, 0.0006908602081239223, 0.030075760558247566, 0.007025172933936119, 0.026614606380462646, -0.04918204993009567, -0.0036347077693790197, 0.024492574855685234, -0.020264381542801857, 0.042222920805215836, 0.02330930344760418, 0.04403824731707573, 0.01821640320122242, 0.007254182826727629, 0.016733963042497635, 0.021819952875375748, 0.02964632585644722, -0.01477150060236454, -0.0013291339855641127, 0.03121265582740307, 0.01439102366566658, 0.04284974932670593, 0.012914502061903477, -0.026062987744808197, -0.038502514362335205, -0.0067975823767483234, 0.02961411140859127, 0.04593655839562416, 0.047527413815259933, -0.05183492228388786, 0.020047632977366447, 0.02229495532810688, 0.026899220421910286, 0.022289134562015533, -0.027160843834280968, -0.08110958337783813, -0.08273761719465256, 0.002329176291823387, 0.05465542525053024, 0.044355642050504684, 0.04809096083045006, -0.05798434838652611, 0.05156135931611061, 0.05770569667220116, 0.0476367324590683, 0.018128208816051483, -0.028880810365080833, -0.09093032777309418, -0.06506157666444778, -0.01071601640433073, 0.015949513763189316, 0.03886927291750908, 0.0443723127245903, -0.043173760175704956, 0.028287582099437714, 0.019053837284445763, 0.05090898647904396, 0.0013296047691255808, -0.04790854826569557, -0.05783497542142868, -0.03546898066997528, 0.0018621888011693954, 0.033454474061727524, 0.02293667569756508, 0.03228530287742615, -0.02855123206973076, 0.011197341606020927, 0.0009766296716406941, 0.016355885192751884, 0.011088660918176174, -0.0033298979979008436, -0.030856052413582802, -0.024253055453300476, 0.0023233131505548954, 0.001502470811828971, 0.0013894003350287676, -0.0032365964725613594, -0.02784721739590168, -0.02396874688565731, 0.022117560729384422, 0.03968172147870064, 0.03619172424077988, 0.008474798873066902, -0.017637740820646286, 0.013915385119616985, -0.008921176195144653, 0.006895280908793211, -0.021517189219594002, -0.05664543807506561, -0.0353853665292263, 0.025250794366002083, 0.013401799835264683, 0.02911842241883278, 0.0278457161039114, 0.028096647933125496, -0.004737689159810543, -0.015651393681764603, -0.02172042615711689, -0.0602494478225708, -0.034209709614515305, -0.06404311209917068, -0.04029003530740738, -0.05247804895043373, 0.0011601254809647799, -0.04171585664153099, -0.01733400858938694, 0.018409334123134613, -0.005672929808497429, -0.04180153086781502, -0.07049927860498428, -0.08215191960334778, -0.08613181859254837, -0.041894879192113876, -0.11617454886436462, -0.01728590577840805, -0.02827230840921402, -0.03026190958917141, -0.03443482518196106, 0.04473558068275452, 0.016851074993610382, 0.04795268550515175, -0.025244606658816338, 0.00512280547991395, -0.21023429930210114, -0.037958502769470215, -0.030818933621048927, -0.018463140353560448, -0.03174228221178055, -0.025813570246100426, -0.0740017369389534, -0.03962603211402893, -0.05906407907605171, 0.011142703704535961, -0.04799751192331314, -0.004648878239095211, -0.17010441422462463, -0.03966396301984787, -0.009737282060086727, 0.013285301625728607, -0.04131811857223511, -0.036310404539108276, -0.13818207383155823, -0.03828369826078415, -0.05801818519830704, -0.0541655458509922, -0.03488724306225777, 0.04468236863613129, -0.08129487186670303, -0.0977252796292305, -0.0177867840975523, 0.022686608135700226, -0.005077525041997433, 0.010830353945493698, -0.01953236013650894, -0.011102842167019844, 0.01699841022491455, -0.003801089944317937, 0.10732781887054443, 0.21873021125793457, 0.17068420350551605, -0.008234325796365738, 0.0034215678460896015, 0.06700035184621811, 0.00606060354039073, 0.010577733628451824, -0.06206359714269638, -0.08985649794340134, 0.012963964603841305, 0.1147475466132164, 0.10768277943134308, 0.18428555130958557, 0.17326369881629944, -0.06372617185115814, 0.0326807014644146, 0.08275453746318817, 0.013871808536350727, -0.007360271643847227, -0.018395865336060524, -0.12081602215766907, 0.002956881420686841, 0.16485194861888885, 0.13613690435886383, 0.25074076652526855, 0.20434916019439697, -0.08607790619134903, 0.04097684845328331, 0.0816914439201355, 0.02219228260219097, -0.0018303625984117389, 0.03038005158305168, -0.17005133628845215, -0.056867048144340515, 0.0709574744105339, 0.06632372736930847, 0.17986229062080383, 0.1604291796684265, -0.04205205664038658, 0.06277363747358322, 0.01969301514327526, 0.07371046394109726, 0.07074245065450668, 0.03224486485123634, -0.09650526195764542, -0.019398219883441925, -0.0003708747390192002, 0.05905508995056152, 0.10000742971897125, -0.00032682964229024947, 0.046539291739463806, 0.07448810338973999, 0.06101851910352707, 0.03175807371735573, 0.1530548632144928, 0.16855323314666748, -0.17063122987747192, -0.14190994203090668, -0.09803774207830429, -0.09109317511320114, -0.03048580512404442, -0.13043317198753357, 0.057477086782455444, 0.05301980301737785, 0.021327542141079903, 0.03797196224331856, 0.10966020077466965, 0.15819315612316132, -0.11249935626983643, -0.296510249376297, -0.21377818286418915, -0.23448128998279572, -0.2077743113040924, -0.24269437789916992, -0.029331982135772705, 0.008340477012097836, 0.0028584327083081007, -0.019231826066970825, -0.03196294233202934, 0.029046766459941864, -0.06264711916446686, -0.201947420835495, -0.2527047395706177, -0.3166128396987915, -0.30042117834091187, -0.2560725808143616, 0.0011141784489154816, -0.03581592068076134, 0.012847128324210644, 0.0557689294219017, 0.06008903309702873, 0.03413468599319458, 0.034383680671453476, -0.06573323905467987, -0.08808209002017975, -0.22149193286895752, -0.1945602148771286, -0.15907317399978638, -0.061667945235967636, 0.01837637834250927, -0.022815868258476257, -0.0003546322404872626, -0.015643760561943054, -0.0072067598812282085, -0.024344973266124725, -0.010159973055124283, -0.04387568682432175, -0.07260280102491379, -0.03027915395796299, -0.020245108753442764, -0.009523735381662846, -0.0053692967630922794, -0.0006330391042865813, -0.02286968193948269, -0.002305992180481553, -0.04421619698405266, 0.0010165654821321368, -0.007191118784248829, 0.017954787239432335, -0.0004608298768289387, 0.026126982644200325, 0.008271146565675735, -0.023638896644115448, 0.010107256472110748, -0.02401697263121605, -0.003890171181410551, -0.01948196068406105, -0.039154477417469025, 0.020520677790045738, 0.028317708522081375, 0.041528038680553436, 0.0361240953207016, 0.02163536101579666, 0.01765720173716545, -0.0008150639478117228, -0.009143670089542866, 0.007494217250496149, -0.0271657295525074, -0.010130914859473705, 0.008898916654288769, 0.0065127830021083355, 0.028384840115904808, 0.03339504078030586, 0.055583033710718155, 0.04619258642196655, 0.034584201872348785, 0.009162557311356068, 0.006892076693475246, -0.033303629606962204, -0.026433154940605164, -0.022925999015569687, 0.027223743498325348, 0.02883096970617771, 0.01381634920835495, 0.03206242248415947, 0.0006707389838993549, 0.04662040248513222, 0.05559295788407326, 0.019333526492118835, -0.01284440141171217, -0.023052992299199104, -0.004112746100872755, 0.03528063744306564, 0.02461947500705719, -0.013262305408716202, -0.07112603634595871, -0.05710431560873985, -0.036937493830919266, 0.034049469977617264, 0.057986851781606674, 0.04592043161392212, -0.005706979893147945, 0.0023928985465317965, 0.031164992600679398, 0.030930401757359505, 0.040234021842479706, -0.01859000325202942, -0.049191784113645554, -0.0953916683793068, -0.02497248537838459, 0.02199092134833336, 0.04768194258213043, 0.051020000129938126, 0.0016298018163070083, 0.02838161215186119, 0.050243619829416275, 0.040505990386009216, 0.024938644841313362, -0.0553550086915493, -0.0774393081665039, -0.05835234746336937, -0.03533560037612915, 0.035831768065690994, 0.038309141993522644, 0.03143535554409027, -0.031318921595811844, -0.007103885989636183, -0.009570548310875893, 0.013625429943203926, 0.046457238495349884, -0.029684534296393394, -0.028594914823770523, -0.0088632982224226, 0.010805337689816952, 0.026937834918498993, -0.007959759794175625, 0.01738930493593216, -0.014857042580842972, -0.011208612471818924, -0.018120110034942627, 0.015498721040785313, 0.05026179924607277, 0.01484699361026287, 0.01134324911981821, -0.012154662981629372, 0.0037982547655701637, -0.004482724703848362, -0.013007942587137222, -0.0009493588586337864, 0.008320515044033527, 0.01671455055475235, 0.025488130748271942, 0.03357712924480438, 0.0276432354003191, 0.028408175334334373, 0.033718306571245193, 0.025380723178386688, -0.00032030875445343554, -0.029527897015213966, -0.03804948180913925, -0.03317473828792572, 0.015852881595492363, -0.006890513002872467, -0.0076706185936927795, -0.02921157516539097, -0.0446181446313858, -0.036478906869888306, -0.030385302379727364, -0.04232590273022652, -0.011634759604930878, -0.043606117367744446, -0.03691507503390312, -0.029923195019364357, -0.13561062514781952, 0.02963906340301037, 0.005945752840489149, -0.036145273596048355, -0.024545324966311455, 0.017162440344691277, 0.0050848075188696384, -0.0013157390058040619, 0.018059613183140755, -0.004530648700892925, -0.0028499688487499952, 0.0030146033968776464, -0.033131156116724014, -0.012034527957439423, -0.015985047444701195, -0.0283625740557909, -0.020269449800252914, -0.03708183392882347, -0.0017835050821304321, 0.0252149049192667, 0.014493170194327831, 0.030648929998278618, 0.01726541481912136, 0.015644708648324013, -0.055101800709962845, -0.014960051514208317, -0.005499569233506918, -0.03665097802877426, -0.009619488380849361, -0.00454156706109643, 0.024543659761548042, 0.0002694428258109838, -0.016647201031446457, -0.018259314820170403, -0.00702684884890914, -0.012079364620149136, -0.04296313598752022, -0.004895729012787342, -0.03746652975678444, -0.010939767584204674, 0.049234788864851, 0.0019110674038529396, -0.020338358357548714, -0.009927911683917046, 0.007849927991628647, 0.010834813117980957, 0.046487197279930115, 0.019037136808037758, -0.037668295204639435, -0.03661106526851654, 0.0015615529846400023, 0.02957897260785103, 0.001995287835597992, -0.07272633165121078, -0.10386498272418976, -0.10221003741025925, -0.028931276872754097, -0.008042994886636734, 0.017618244513869286, 0.013121579773724079, -0.07810832560062408, -0.05655432492494583, 0.00907121691852808, 0.01376044936478138, 0.004020631313323975, -0.04655993729829788, -0.11599057167768478, -0.08728165924549103, -0.006874344311654568, -0.00409625144675374, 0.04366914927959442, 0.05236150696873665, 0.007074039429426193, -0.0333254300057888, 0.02771495282649994, 0.007889307104051113, 0.027601661160588264, -0.019740162417292595, -0.11911096423864365, -0.1047382652759552, 0.0182914137840271, 0.024992123246192932, 0.041716694831848145, 0.05571315810084343, -0.06680391728878021, -0.007958462461829185, 0.02507884055376053, 0.04691024497151375, 0.046908389776945114, 0.016098959371447563, -0.0253166351467371, -0.019578490406274796, 0.017114778980612755, -0.013875186443328857, 0.001012671971693635, 0.04039100185036659, -0.1196535974740982, 0.0020825089886784554, 0.031715553253889084, 0.07577044516801834, 0.03178749978542328, 0.012953453697264194, -0.008537368848919868, 0.006675229873508215, 0.018738623708486557, -0.04420504346489906, -0.0006997677264735103, -0.022072454914450645, -0.1275404840707779, 0.029334768652915955, 0.04182480275630951, 0.08251380920410156, 0.027300862595438957, 0.02212687022984028, 0.010813622735440731, 0.025385858491063118, -0.0021705215331166983, -0.037969134747982025, 0.00939296092838049, -0.07035408914089203, -0.014285443350672722, -0.05893021076917648, 0.027698582038283348, 0.0012955486308783293, -0.04716227576136589, -0.09048186987638474, -0.12836019694805145, -0.06906656920909882, -0.10155099630355835, -0.0691881850361824, -0.10599219053983688, -0.1415596306324005, 0.0012174881994724274, -0.002592383651062846, 0.005659046117216349, 0.03377583995461464, -0.03585280105471611, -0.052167486399412155, -0.10115036368370056, -0.08164115995168686, -0.07688666880130768, -0.054788485169410706, -0.06664149463176727, -0.13502137362957, -0.14838914573192596, -0.016148626804351807, 0.009394840337336063, -0.020923230797052383, -0.009875314310193062, 0.003051801584661007, -0.035690777003765106, -0.05110141634941101, -0.06348203867673874, -0.08602333068847656, -0.12981271743774414, -0.03384286165237427, -0.06815947592258453, 0.0044178953394293785, -0.028949184343218803, 0.015205536037683487, -0.028159156441688538, 0.012874689884483814, 0.03566164895892143, 0.013376578688621521, 0.019645577296614647, 0.018417762592434883, -0.032824527472257614, -0.06227414309978485, -0.07304200530052185, 0.035776492208242416, -0.021736500784754753, -0.013055060058832169, -0.03527453541755676, 0.017867697402834892, 0.058522745966911316, 0.00811570230871439, 0.044473614543676376, 0.022769728675484657, 0.04892333969473839, -0.014272589236497879, -0.03733590617775917, -0.010540901683270931, -0.02194437012076378, -0.002028020564466715, 0.009694387204945087, -0.009830343537032604, -0.0023967407178133726, 0.07840953767299652, 0.04344481602311134, 0.024708358570933342, -0.011969920247793198, -0.05710459128022194, -0.04126158356666565, 0.028898119926452637, 0.006654608063399792, 0.006917690858244896, 0.0038806230295449495, -0.06991785019636154, -0.05697609484195709, -0.05108059570193291, -0.0015028113266453147, 0.02777433954179287, -0.004046232905238867, -0.04512544348835945, -0.0735662505030632, 0.035534027963876724, 0.002906772308051586, 0.0004092063754796982, -0.010721025988459587, -0.1408836841583252, -0.19391652941703796, -0.14657656848430634, -0.08316509425640106, -0.005191992036998272, 0.023781200870871544, -0.03997822850942612, -0.01113229338079691, -0.026483075693249702, 0.01751629263162613, 0.009572544135153294, -0.054092541337013245, -0.15306150913238525, -0.12953200936317444, -0.1646016538143158, -0.08506368100643158, -0.05346246063709259, 0.008149925619363785, -0.020366299897432327, 0.060284990817308426, -0.001402820460498333, -0.016246920451521873, -0.04086972400546074, -0.05434150621294975, -0.0863567441701889, -0.1215522512793541, -0.05832795798778534, -0.019499924033880234, -0.023676767945289612, -0.06272852420806885, -0.026511330157518387, 0.015084157697856426, -0.0006567215314134955, -0.019037703052163124, 0.015209252946078777, -0.011963402852416039, -0.04381915554404259, -0.03449200466275215, -0.007759132422506809, -0.005837678909301758, -0.023989012464880943, -0.08331027626991272, -0.09750302135944366, -0.051508285105228424, 0.0034623872488737106, -0.024121681228280067, -0.01842428185045719, 0.01895447075366974, 0.0586254820227623, 0.03540940210223198, 0.044774703681468964, -0.03662404045462608, -0.018907813355326653, -0.06184086203575134, -0.08596829324960709, -0.05821812152862549, -0.06409391015768051, 0.00372405257076025, 0.02390182390809059, 0.04025889188051224, 0.027160106226801872, 0.06032782793045044, 0.03129705786705017, -0.003399457549676299, -0.013810265809297562, -0.08587754517793655, -0.06894280016422272, -0.03479693830013275, -0.11604806035757065, -0.13580626249313354, -0.12740519642829895, -0.12872327864170074, -0.12688931822776794, -0.1062094122171402, -0.12545497715473175, -0.17601251602172852, -0.1479349434375763, -0.16074366867542267, -0.09315302222967148, -0.09504877030849457, -0.1170467883348465, -0.07580024003982544, -0.0678444653749466, -0.015552284196019173, -0.026401832699775696, 0.0071557145565748215, -0.030433733016252518, -0.030183443799614906, 0.01553772110491991, 0.00925755500793457, -0.057439811527729034, 0.0015626525273546576, -0.07659274339675903, -0.048490457236766815, -0.1081848070025444, -0.10337299853563309, -0.04268306493759155, -0.032686252146959305, -0.04540981724858284, -0.0439927764236927, -0.03709127753973007, -0.04535675793886185, -0.06065535172820091, 0.013285543769598007, -0.04597925394773483, -0.01260878425091505, -0.0953078418970108, -0.025862034410238266, -0.054300058633089066, 0.0015033544041216373, 0.04799056053161621, 0.022533202543854713, 0.016119858250021935, -0.011191804893314838, 0.03133998438715935, 0.05228199064731598, -0.018765222281217575, -0.028168465942144394, 0.012145021930336952, -0.0227540023624897, 0.040722738951444626, 0.039974015206098557, 0.04781793802976608, 0.0620918795466423, 0.06212739646434784, -0.002804555231705308, 0.038368891924619675, -0.04569118097424507, -0.022829486057162285, -0.03563511744141579, 0.002779953181743622, 0.021957281976938248, 0.049650609493255615, 0.03721082583069801, 0.0165935717523098, 0.04649234190583229, 0.045562464743852615, 0.02638937719166279, 0.04756196215748787, -0.01371534913778305, -0.039482876658439636, -0.02843317948281765, 0.022426147013902664, -0.0359492227435112, 0.0017193041276186705, -0.03518994152545929, -0.10264623165130615, -0.01588437333703041, 0.0013241419801488519, 0.036150041967630386, 0.0447024405002594, -0.013106528669595718, -0.014782445505261421, 0.002144864061847329, 0.012608369812369347, 0.022058824077248573, -0.03375941514968872, -0.18368104100227356, -0.1422102153301239, -0.032247260212898254, 0.0030229617841541767, 0.028953032568097115, 0.04822985827922821, 0.05543405935168266, -0.02022251859307289, -0.027931105345487595, 0.04737052693963051, -0.0012801361735910177, -0.07400307804346085, -0.0907626822590828, -0.09106212854385376, -0.057596366852521896, -0.011475391685962677, 0.02064557373523712, 0.012151251547038555, 0.06799934804439545, -0.0013036079471930861, 0.025144513696432114, 0.06247010827064514, 0.021646669134497643, -0.03720511496067047, -0.07025991380214691, -0.03440012410283089, -0.003400917397812009, -0.012150275520980358, -0.00998844113200903, -0.0002765099052339792, -0.008273754268884659, -0.016473565250635147, -0.01197773963212967, 0.040583591908216476, 0.04681897908449173, 0.005506034009158611, -0.0284443162381649, -0.06753187626600266, -0.047917336225509644, 0.012396691367030144, -0.017546631395816803, -0.013933648355305195, -0.05293135344982147, 0.01638481393456459, 0.030063170939683914, 0.03497335687279701, 0.09155340492725372, 0.09466347843408585, 0.021152228116989136, 0.0044917757622897625, -0.021597588434815407, -0.04309894144535065, -0.07522784173488617, -0.0536608025431633, 0.026978440582752228, -0.11877194046974182, -0.031049832701683044, -0.05956292897462845, 0.040572941303253174, 0.024584850296378136, 0.0036248897667974234, 0.02541002258658409, -0.030991671606898308, -0.03948919475078583, -0.07803026586771011, -0.06541578471660614, -0.12164603918790817, -0.012833137065172195, 0.015854762867093086, -0.003529059002175927, 0.01983024738729, 0.014397158287465572, 0.014761865139007568, 0.019314130768179893, 9.622116522223223e-06, 0.007118738256394863, -0.02865203469991684, -0.08846314996480942, -0.032569944858551025, 0.026879807934165, -0.021507330238819122, -0.045741837471723557, -0.033025674521923065, -0.015006909146904945, 0.013005813583731651, -0.0009138378081843257, -0.023015854880213737, -0.007254885975271463, 0.03436477109789848, 0.03589741140604019, -0.04146905243396759, -0.02662837691605091, -0.013507144525647163, -0.023380205035209656, -0.01824520155787468, -0.027090521529316902, 0.02821188233792782, 0.06668085604906082, 0.030993325635790825, 0.02797996997833252, 0.004505937919020653, 0.0599648579955101, -0.046984415501356125, 0.011372366920113564, 0.008844561874866486, 0.021905232220888138, -0.02744096890091896, -0.0551246739923954, -0.015233926475048065, -0.012674769386649132, 0.0018204320222139359, 0.051636677235364914, -0.001788718393072486, 0.05185696482658386, -0.02974397875368595, -0.021403156220912933, 0.037885986268520355, -0.021782461553812027, -0.05776882916688919, -0.12561653554439545, -0.20631708204746246, -0.18271008133888245, -0.018011299893260002, -0.011360871605575085, 0.01706167683005333, 0.04963171109557152, -0.016928737983107567, -0.04912732541561127, 0.014879148453474045, 0.014108773320913315, -0.10367121547460556, -0.15413382649421692, -0.1970570832490921, -0.18048380315303802, -0.10341636836528778, -0.03422815725207329, -0.009905697777867317, 0.0629454031586647, 0.038576170802116394, -0.05201026797294617, -0.06905829161405563, -0.10785937309265137, -0.15611153841018677, -0.1000315397977829, -0.035452648997306824, -0.07734201848506927, -0.11098016053438187, -0.07305968552827835, -0.020879238843917847, 0.05699888616800308, 0.05920520797371864, -0.05124989524483681, -0.06553320586681366, -0.0851198360323906, -0.03953083977103233, 0.010093607008457184, 0.04023616388440132, -0.021500859409570694, -0.10748560726642609, -0.060930583626031876, -0.06715713441371918, -0.014524984173476696, -0.060294754803180695, -0.120333731174469, -0.1100822389125824, -0.024117760360240936, 0.035825464874506, 0.07483595609664917, 0.06218508630990982, -0.04115309566259384, -0.013834267854690552, -0.05073822662234306, -0.08942370861768723, -0.08388693630695343, -0.10678954422473907, -0.13917668163776398, -0.11217831075191498, 0.021110229194164276, 0.06238369271159172, 0.09382978081703186, 0.09302901476621628, -0.025696134194731712, -0.03016132488846779, -0.04597605764865875, -0.0654592365026474, -0.08396434038877487, -0.012374981306493282, -0.17115652561187744, -0.1400834321975708, 0.004820176400244236, 0.06538645178079605, 0.09228041023015976, 0.05866597592830658, 0.018975429236888885, -0.06161031872034073, -0.17508237063884735, -0.11137276142835617, -0.021341677755117416, 0.013939899392426014, -0.0450056754052639, -0.06804300844669342, -0.026077013462781906, 0.02677309885621071, -0.020761800929903984, -0.04897285997867584, -0.0760364979505539, -0.05606091767549515, -0.014222354628145695, -0.1003476083278656, -0.06420379132032394, 0.02501920983195305, -0.08830489218235016, -0.13090354204177856, -0.09191175550222397, 0.055611420422792435, 0.005548201501369476, -0.03708326444029808, -0.14085792005062103, -0.10142719745635986, -0.08354990929365158, -0.09148743748664856, -0.09995348006486893, -0.05714121833443642, -0.12444999068975449, -0.17450401186943054, -0.15929673612117767, -0.0016587567515671253, -0.004250558093190193, 0.04721568152308464, -0.04991142824292183, -0.05504590645432472, -0.02915809117257595, 0.004099931567907333, 0.0410652831196785, -0.09731904417276382, -0.12055272608995438, -0.13985329866409302, -0.12800218164920807, -0.026055919006466866, -0.0018012861255556345, 0.03374835103750229, -0.013475927524268627, 0.028322692960500717, -0.04317820444703102, 0.04594050720334053, 0.07138974964618683, -0.0591689869761467, -0.14188125729560852, -0.08600593358278275, -0.06741205602884293, 0.06845247000455856, 0.03818095102906227, -0.045231252908706665, 0.0416986346244812, 0.05702364072203636, 0.03769997879862785, 0.03966798633337021, 0.0705016478896141, -0.036178067326545715, -0.12063249945640564, -0.060176074504852295, 0.05603732913732529, 0.054817236959934235, 0.00455821817740798, 0.047904714941978455, 0.04632549360394478, 0.10538278520107269, 0.0697358101606369, 0.07819537818431854, 0.08993631601333618, -0.018001295626163483, -0.09709767252206802, 0.08880221843719482, 0.10170133411884308, 0.09214802831411362, 0.12769070267677307, 0.11610925197601318, -0.020835813134908676, 0.045601170510053635, 0.07115615159273148, 0.047301601618528366, 0.09946558624505997, -0.05293801426887512, 0.019203685224056244, 0.1523696333169937, 0.16070158779621124, 0.1276344358921051, 0.18923111259937286, 0.00340515305288136, -0.025635575875639915, 0.05066545307636261, 0.020789239555597305, 0.036313679069280624, 0.0877247154712677, -0.015052019618451595, 0.11691869795322418, 0.10460791736841202, 0.11656741797924042, 0.11142393946647644, 0.16767838597297668, -0.06808261573314667, -0.07174203544855118, -0.0038231564685702324, 0.012651748023927212, 0.026252927258610725, 0.08780235797166824, 0.06983499228954315, 0.2170765995979309, 0.10741496831178665, 0.11917957663536072, 0.09069550037384033, 0.06664081662893295, -0.10098748654127121, -0.04518844187259674, -0.03536258265376091, 0.004455097019672394, 0.026504145935177803, 0.061098143458366394, 0.03400706127285957, 0.08173353970050812, 0.04027021676301956, 0.12972767651081085, 0.09364864975214005, -0.03765156865119934, -0.07031740248203278, -0.08093945682048798, -0.03404102474451065, -0.02837716042995453, -0.01206643134355545, -0.004201400093734264, 0.04924899339675903, 0.0603923536837101, 0.00816961470991373, 0.098399817943573, -0.008652589283883572, -0.09800578653812408, -0.13618937134742737, -0.10273006558418274, -0.09288299828767776, -0.08545487374067307, -0.04628211632370949, -0.03129473328590393, -0.015902260318398476, 0.035485729575157166, -0.08608408272266388, 0.02031191997230053, -0.043771035969257355, -0.16523592174053192, -0.14766517281532288, -0.11145834624767303, -0.08177325874567032, -0.12222722917795181, -0.09906075894832611, -0.13924540579319], [0.11408077925443649, 0.013295484706759453, -0.056843191385269165, -0.03802589327096939, -0.03830774873495102, 0.02753598615527153, 0.026167791336774826, 0.01827368326485157, 0.040673062205314636, 0.068123959004879, 0.031675785779953, -0.05459199845790863, 0.07516064494848251, -0.07651770114898682, -0.1280752420425415, -0.07006260752677917, -0.12706626951694489, -0.039737552404403687, -0.04637490585446358, -0.002540523186326027, 0.1153060793876648, 0.1113966628909111, -0.028848251327872276, -0.16046936810016632, -0.059308990836143494, -0.0396941602230072, -0.10285723954439163, -0.12028665840625763, -0.23647238314151764, -0.15355560183525085, -0.08362891525030136, 0.1660311371088028, 0.17294572293758392, 0.07097023725509644, 0.04115049168467522, -0.026239775121212006, -0.11013791710138321, 0.02016889862716198, -0.04754368215799332, -0.16240644454956055, -0.20105673372745514, -0.05342844873666763, 0.005230494774878025, 0.017547156661748886, -0.034959644079208374, 0.085019052028656, 0.012051505036652088, 0.00047888539847917855, -0.02064632810652256, -0.004420528654009104, 0.026129554957151413, -0.034779760986566544, -0.06474684923887253, 0.0383724682033062, -0.051911305636167526, -0.18793314695358276, -0.12206438928842545, 0.017427748069167137, 0.000804615905508399, 0.020767908543348312, 0.02555866353213787, -0.07733174413442612, 0.1106366291642189, 0.01126060076057911, 0.06711612641811371, 0.06726469099521637, -0.07594822347164154, -0.0777755081653595, -0.06945495307445526, 0.0300432201474905, 0.009073232300579548, 0.04057583585381508, -0.1047116070985794, -0.0947781652212143, 0.00424229959025979, -0.04731060191988945, -0.03766820952296257, -0.016798673197627068, -0.1083175390958786, 0.011691717430949211, 0.02427740953862667, -0.010227011516690254, 0.006382032297551632, 0.06888558715581894, -0.2463744431734085, -0.061284035444259644, 0.01751069724559784, -0.0522351935505867, -0.20463959872722626, -0.07858816534280777, 0.07229205220937729, 0.12386555969715118, 0.018361123278737068, -0.06496245414018631, 0.02237737737596035, -0.1004590094089508, 0.03758779168128967, 0.14731517434120178, 0.1564524620771408, -0.037793803960084915, -0.04807722195982933, 0.01585470512509346, 0.006296268664300442, 0.06342568248510361, -0.07711303979158401, -0.15638796985149384, -0.09030737727880478, -0.14566482603549957, 0.13608504831790924, 0.08370660245418549, 0.05623992159962654, -0.05032194033265114, -0.18312765657901764, -0.08611532300710678, -0.13150179386138916, -0.21509045362472534, -0.23824648559093475, -0.15894566476345062, -0.08633109927177429, -0.059235651046037674, -0.08474157750606537, -0.20125506818294525, -0.01760353147983551, -0.035713423043489456, 0.0039541758596897125, -0.07674076408147812, -0.1638939082622528, -0.1668306291103363, -0.03248938173055649, -0.00533696822822094, 0.00681203743442893, -0.045604005455970764, 0.008804808370769024, -0.05936351791024208, 0.08609887212514877, 0.05190926045179367, 0.06907854229211807, -0.04850471764802933, -0.009932003915309906, 0.013621201738715172, -0.05433385446667671, 0.06258359551429749, 0.0606905072927475, -0.154762402176857, 0.07414891570806503, 0.05934826284646988, -0.018545417115092278, -0.043259281665086746, -0.06537865847349167, -0.22747260332107544, -0.07992877066135406, 0.006578654050827026, 0.04845317080616951, 0.06613686680793762, 0.08555757999420166, 0.0791599228978157, 0.13397622108459473, 0.1059308722615242, 0.055050965398550034, -0.03621894121170044, -0.21039554476737976, -0.3178167939186096, -0.21251463890075684, -0.252567321062088, -0.22152099013328552, -0.19299471378326416, -0.19543321430683136, -0.14304132759571075, 0.11246896535158157, 0.0036746403202414513, -0.026513908058404922, -0.015742450952529907, -0.1746777594089508, -0.27579835057258606, -0.2524765431880951, -0.28572890162467957, -0.23396524786949158, -0.21767520904541016, -0.19879892468452454, -0.1881495863199234, -0.010820534080266953, 0.06445396691560745, 0.06022529676556587, 0.022501783445477486, -0.04190221428871155, -0.1871308982372284, -0.15443815290927887, -0.15116994082927704, -0.19067077338695526, -0.157195582985878, -0.1063130795955658, -0.13660790026187897, -0.09035106003284454, -0.018780376762151718, -0.004741574637591839, 0.08672237396240234, -0.015725934877991676, -0.1587619036436081, -0.17588679492473602, -0.1341087520122528, -0.2160455882549286, -0.12857674062252045, -0.04773746803402901, 0.0009253296302631497, 0.01621233858168125, 0.04003167897462845, -0.0337069071829319, -0.0384284146130085, -0.09259187430143356, -0.23275676369667053, -0.14822861552238464, -0.1595838963985443, -0.18791110813617706, 0.0017995405942201614, 0.051668863743543625, 0.07735490053892136, 0.09918702393770218, 0.06213919445872307, 0.08239024877548218, -0.07403743267059326, -0.14712603390216827, -0.12310369312763214, -0.1236870065331459, -0.29867422580718994, -0.23503008484840393, -0.030389688909053802, 0.07620466500520706, 0.06613832712173462, 0.033947691321372986, -0.016925537958741188, -0.0017329833935946226, -0.1406618356704712, -0.032965995371341705, -0.029380274936556816, -0.0683688223361969, -0.3111951947212219, -0.10156933963298798, 0.07717889547348022, 0.06943143159151077, 0.0949387475848198, -0.057762861251831055, 0.006115904077887535, 0.004410963039845228, -0.1119224801659584, -0.06446737051010132, -0.125135138630867, -0.19280867278575897, -0.16116131842136383, 0.06018340215086937, 0.13605046272277832, 0.1305621713399887, 0.05165821686387062, -0.014888904057443142, -0.017189307138323784, 0.02475515939295292, -0.023454921320080757, -0.06955274194478989, -0.06881287693977356, 0.006599617190659046, 0.0037995909806340933, 0.09649182111024857, 0.11692805588245392, 0.08473886549472809, 0.16489802300930023, 0.08287528157234192, 0.04380887746810913, 0.0441826656460762, 0.03510821983218193, 0.0305137000977993, 0.018511049449443817, 0.0678897351026535, 0.06932378560304642, 0.03099280595779419, -0.04866211116313934, -0.027937307953834534, 0.07486982643604279, 0.0240955650806427, -0.03899974003434181, -0.026377854868769646, -0.033615369349718094, -0.016561204567551613, -0.00921922829002142, -0.04855068027973175, -0.1230059489607811, -0.010963761247694492, 0.03380853310227394, -0.02688787132501602, -0.016843164339661598, 0.06433345377445221, 0.042469050735235214, 0.06977356970310211, 0.04822390899062157, 0.1175551638007164, 0.09952055662870407, 0.11486370861530304, 0.12725883722305298, 0.09280171990394592, 0.07146388292312622, 0.03917080536484718, 0.03224065527319908, 0.05926310643553734, 0.05331731215119362, 0.04534495994448662, 0.0824863389134407, 0.17030496895313263, 0.24666935205459595, 0.16635537147521973, 0.19880732893943787, 0.10298213362693787, 0.08931852877140045, 0.07610083371400833, 0.03350771963596344, 0.04862445220351219, 0.060715992003679276, 0.0789199247956276, 0.013635881245136261, 0.11887158453464508, 0.1235380545258522, 0.17778487503528595, 0.14166127145290375, 0.0688772201538086, 0.07412822544574738, 0.06592951714992523, 0.03783436864614487, 0.06981299817562103, 0.0643935278058052, 0.05861429497599602, -0.10899712890386581, -0.07536720484495163, -0.1125207394361496, 0.09880534559488297, 0.029278678819537163, 0.031309910118579865, 0.029549403116106987, 0.026584167033433914, 0.08033112436532974, 0.060231465846300125, 0.06970325857400894, 0.040623459964990616, -0.014149750582873821, -0.07365874946117401, -0.1253652423620224, 0.05373716354370117, 0.001339676440693438, 0.03731856122612953, 0.021291663870215416, 0.0903191938996315, 0.08544596284627914, 0.04208898916840553, 0.09896430373191833, 0.028251199051737785, 0.07205037027597427, 0.13805465400218964, -0.0025796920526772738, 0.15493512153625488, 0.06128285825252533, 0.02037842757999897, -0.0033807295840233564, 0.07839292287826538, 0.03138122707605362, 0.04364106431603432, 0.08569513261318207, 0.04560508206486702, 0.05964518338441849, 0.29062196612358093, 0.06867899745702744, 0.088132843375206, 0.08816028386354446, -0.017279835417866707, -0.025967299938201904, 0.046570178121328354, 0.0033437565434724092, 0.03925876319408417, 0.07642693817615509, 0.04018775001168251, 0.10220243781805038, 0.16761797666549683, 0.16350771486759186, 0.08210412412881851, 0.05352376773953438, -0.034163832664489746, -0.0124417869374156, -0.054532937705516815, -0.0049399458803236485, 0.04946758225560188, 0.02474764734506607, 0.031139081344008446, -0.012494778260588646, 0.11513946205377579, 0.1381421536207199, 0.040203437209129333, -0.06109049543738365, -0.05612983927130699, 0.014898876659572124, -0.0013072661822661757, 0.0580587200820446, 0.052741244435310364, 0.030649220570921898, 0.05646061524748802, 0.1138230487704277, 0.166789248585701, 0.06393010169267654, -0.05311715602874756, -0.08785340934991837, -0.02903500758111477, 0.0634530633687973, 0.011152777820825577, 0.029649149626493454, 0.04558755084872246, 0.07311882078647614, 0.10347384214401245, 0.14589348435401917, 0.17007897794246674, 0.008556555025279522, 0.005220544524490833, -0.03511523827910423, -0.015414477325975895, 0.05834522843360901, 0.024452650919556618, 0.05353936180472374, 0.061247568577528, 0.04924539104104042, 0.08073574304580688, 0.08948396146297455, 0.03966193646192551, -0.00876274798065424, 0.051610130816698074, 0.006572910118848085, -0.027455952018499374, 0.05938636511564255, 0.055218569934368134, 0.04202815517783165, 0.152121901512146, 0.09467951953411102, 0.07155950367450714, -0.043838705867528915, -0.12884190678596497, -0.06284711509943008, -0.001454498153179884, 0.02857055887579918, -0.01926584728062153, 0.0696595087647438, 0.07396292686462402, 0.05633532255887985, 0.07057741284370422, -0.04942956939339638, -0.10429420322179794, -0.15218615531921387, -0.28370365500450134, -0.2240418642759323, -0.1353129893541336, -0.16778282821178436, -0.12144317477941513, -0.0035682839807122946, -0.06415802240371704, -0.19170139729976654, 0.1405823826789856, 0.06532365083694458, -0.014918241649866104, -0.08159681409597397, -0.24210646748542786, -0.22089692950248718, -0.1564544439315796, -0.19181297719478607, -0.11861895024776459, -0.0678137019276619, -0.10087034851312637, -0.15902690589427948, -0.0004833471029996872, -0.06510233134031296, -0.13881483674049377, -0.09868299961090088, -0.1462918221950531, -0.16812719404697418, -0.1728321760892868, -0.08221397548913956, -0.08249694854021072, -0.06555775552988052, -0.0890599861741066, -0.1354059875011444, -0.1537826508283615, 0.02375156059861183, 0.05912125110626221, 0.06281384825706482, -0.08816149830818176, -0.1676197052001953, -0.05797043815255165, -0.0415215939283371, -0.07791150361299515, -0.07196461409330368, -0.04161610081791878, -0.08130829781293869, -0.09479068964719772, -0.11240947246551514, -0.014263909310102463, 0.03125470131635666, -0.0842142105102539, -0.1592639833688736, -0.08874577283859253, -0.025764569640159607, -0.07260923832654953, 0.013555104844272137, 0.030804406851530075, -0.010748696513473988, 0.10845811665058136, 0.05811992660164833, 0.016077173873782158, -0.015048426575958729, -0.19760289788246155, -0.17881278693675995, -0.055562011897563934, -0.029052872210741043, -0.08854222297668457, -0.022724635899066925, 0.0662195011973381, 0.04570841044187546, -0.04925583302974701, 0.05102965980768204, 0.11556405574083328, -0.052292272448539734, -0.0866478979587555, -0.07682466506958008, -0.03249744325876236, -0.10022201389074326, -0.09781661629676819, -0.0618305429816246, -0.022031040862202644, 0.057139620184898376, 0.18500053882598877, 0.08030733466148376, 0.08453000336885452, -0.03935648500919342, -0.07407034188508987, -0.013181695714592934, -0.006731032393872738, -0.06478054821491241, -0.028759684413671494, 0.013177593238651752, 0.04034647345542908, -0.00631853798404336, -0.053164154291152954, 0.042828209698200226, 0.1003718376159668, 0.06830066442489624, 0.016578055918216705, -0.011777712032198906, 0.0035441615618765354, -0.0035716944839805365, 0.08624620735645294, 0.07474630326032639, 0.049877312034368515, 0.1233421042561531, 0.0530259869992733, 0.07732852548360825, 0.07540681958198547, 0.03320721536874771, 0.010405809618532658, -0.05201985687017441, -0.04037287086248398, 0.04130761697888374, 0.0572599396109581, 0.05784674733877182, 0.06405429542064667, 0.01764286868274212, 0.058210454881191254, 0.016522839665412903, 0.0015078913420438766, 0.046707019209861755, 0.0006764757563360035, -0.004361359402537346, -0.014181574806571007, 0.007434851489961147, 0.025100188329815865, 0.05968983843922615, -0.025041142478585243, -0.1155199185013771, -0.03399231284856796, -0.01506548561155796, -0.09647920727729797, -0.029123663902282715, -0.006779033690690994, 0.060180164873600006, 0.08442247658967972, -0.020188888534903526, 0.0028248520102351904, 0.03328718617558479, -0.029788637533783913, -0.07223141938447952, -0.10937981307506561, 0.005690771155059338, -0.06553460657596588, -0.058893825858831406, -0.013563765212893486, -0.01770203374326229, -0.006336187478154898, -0.02595801278948784, -0.008724596351385117, 0.0026547701563686132, -0.004099404904991388, -0.08699481934309006, -0.00610676035284996, -0.04583650454878807, -0.0365019254386425, -0.035392142832279205, -0.021722350269556046, 0.0048754531890153885, -0.012108661234378815, -0.005161671433597803, -0.001028908183798194, -0.026280885562300682, -0.02358139678835869, -0.05057823657989502, -0.020362425595521927, -0.051055774092674255, 0.0005354004097171128, -0.056077271699905396, -0.02629927732050419, 0.0006130828405730426, 0.029190847650170326, 0.02778581716120243, -0.04822692275047302, -0.014615547843277454, -0.03357681259512901, -0.042959000915288925, 0.008988232351839542, -0.018458480015397072, -0.04631203040480614, -0.016673676669597626, -0.009425772354006767, 0.008942235261201859, 0.05804763734340668, 0.031288206577301025, -0.018763218075037003, -0.017440441995859146, -0.021806325763463974, -0.0257063377648592, -0.032249219715595245, -0.07340250164270401, -0.09647863358259201, -0.038383305072784424, -0.047768499702215195, 0.06273234635591507, 0.030533326789736748, 0.051322028040885925, -0.009503367356956005, 0.00224106851965189, 0.00015113357221707702, -0.03269869089126587, -0.08422636985778809, -0.028545277193188667, -0.04158203303813934, -0.07187404483556747, -0.06836950778961182, 0.010614589788019657, 0.012617784552276134, 0.00843079760670662, -0.021243629977107048, -0.052114006131887436, -0.046864431351423264, -0.006213870830833912, -0.14048175513744354, -0.16586577892303467, -0.06488025933504105, -0.03892579674720764, -0.07012976706027985, -0.007733614183962345, 0.011504915542900562, 0.006662980653345585, -0.040057066828012466, -0.055345505475997925, -0.03385566920042038, 0.029169945046305656, -0.03591396287083626, -0.10046882182359695, -0.010176707059144974, -0.028874311596155167, -0.025255408138036728, -0.01579350419342518, 0.027496837079524994, 0.01801902987062931, -0.02462940476834774, -0.046980440616607666, 0.00224771024659276, 0.015347867272794247, -0.04088020697236061, 0.02109086513519287, -0.0497957207262516, -0.01760435663163662, -0.0005834036273881793, 0.0035892350133508444, 0.022337233647704124, 0.0029213789384812117, 0.030273590236902237, 0.04055120795965195, -0.012505266815423965, 0.04799545928835869, 0.041309092193841934, 0.041590481996536255, 0.013735370710492134, 0.010271803475916386, 0.017204035073518753, -0.0038052049931138754, 0.02035396173596382, 0.04284392297267914, 0.056907232850790024, 0.04876931756734848, 0.03682109713554382, -0.03644745051860809, -0.0024681224022060633, -0.0071147349663078785, 0.008942154236137867, -0.02864030748605728, -0.0365535132586956, -0.0019035001751035452, -0.021290427073836327, -0.0005094804218970239, 0.013364344835281372, -0.02056596614420414, 0.01349013764411211, -0.12964512407779694, 0.09891583025455475, -0.009252508170902729, -0.0773802176117897, -0.024106912314891815, 0.017330681905150414, 0.08139720559120178, 0.04162755236029625, -0.028051791712641716, 0.11378471553325653, 0.050816863775253296, 0.017304614186286926, -0.11281297355890274, 0.06964557617902756, -0.03553173691034317, -0.08433008939027786, -0.02764887921512127, -0.02253117598593235, -0.0817178264260292, -0.021117104217410088, -0.04859074205160141, -0.06624852865934372, -0.017090393230319023, -0.09270927309989929, -0.18393513560295105, -0.04636669531464577, -0.06068766117095947, 0.056447211652994156, -0.02367538772523403, -0.05009623244404793, -0.011029604822397232, -0.04224001243710518, -0.13226476311683655, -0.20608355104923248, -0.05780983716249466, 0.00195827498100698, -0.05542617291212082, -0.1489318460226059, 0.045838240534067154, 0.05816549062728882, -0.12228942662477493, -0.02593887411057949, -0.03788071870803833, -0.10600083321332932, -0.1775696575641632, -0.16428242623806, 0.002699711127206683, 0.04664430394768715, -0.06101733818650246, -0.090160071849823, -0.007127817720174789, -0.05892384424805641, -0.09657894819974899, -0.018095603212714195, -0.08781671524047852, -0.05920067057013512, -0.14652399718761444, -0.055056095123291016, -0.019650857895612717, -0.004910234361886978, -0.036995384842157364, -0.029321471229195595, -0.009771274402737617, 0.022409304976463318, -0.07158467918634415, -0.1123148500919342, -0.0858062133193016, -0.07908673584461212, -0.08740516752004623, -0.04334024712443352, 0.017563458532094955, 0.0549299530684948, -0.055150363594293594, -0.09567206352949142, -0.024509701877832413, -0.0015504509210586548, -0.06338754296302795, -0.14500194787979126, -0.08409059047698975, -0.07689052075147629, -0.06796012073755264, -0.07934162765741348, -0.05534781515598297, 0.030691159889101982, 0.09340813755989075, -0.2317788302898407, -0.10043434798717499, -0.011163508519530296, -0.0699521079659462, -0.21394068002700806, -0.16711780428886414, -0.037730924785137177, 0.005337625741958618, -0.1576714962720871, -0.1056879535317421, 0.07780376821756363, 0.06938908994197845, -0.03997109457850456, 0.04655013978481293, 0.04372641071677208, -0.12410841882228851, -0.2256094068288803, -0.23927971720695496, -0.017492514103651047, -0.03289279341697693, -0.14101193845272064, -0.018301106989383698, -0.029258690774440765, -0.019642364233732224, 0.15091219544410706, 0.06718570739030838, -0.05444538593292236, -0.19048509001731873, -0.2512603998184204, -0.24229764938354492, -0.13620592653751373, -0.12301551550626755, -0.003479527775198221, 0.006477706134319305, -0.05014032870531082, 0.06640856713056564, -0.10566437244415283, -0.1156032457947731, -0.024022765457630157, -0.1198384091258049, -0.14651349186897278, -0.12640908360481262, -0.07801553606987, -0.07472409307956696, 0.02346816658973694, 0.01544874720275402, -0.02438419871032238, 0.03381411358714104, -0.10068235546350479, -0.027903767302632332, 0.054938483983278275, 0.06310273706912994, 0.0185675248503685, -0.014475179836153984, 0.047708410769701004, 0.008275800384581089, -0.012001190334558487, 0.0590670220553875, -0.03097699023783207, -0.1799747347831726, 0.08723574876785278, 0.07606281340122223, 0.038135986775159836, 0.030679872259497643, 0.07179244607686996, 0.09157968312501907, 0.09489849954843521, 0.09857748448848724, 0.1408124566078186, 0.11636553704738617, 0.08430351316928864, 0.06244362145662308, 0.07283748686313629, 0.006674535572528839, -0.04458770900964737, -0.01702188327908516, 0.005805762484669685, 0.044253621250391006, 0.06904946267604828, 0.14559383690357208, 0.19940811395645142, 0.12744183838367462, 0.04438720643520355, 0.016447361558675766, 0.024807080626487732, 0.007069876417517662, -0.0504075326025486, -0.1351771503686905, -0.07658164948225021, -0.0036949622444808483, 0.043926507234573364, 0.10865981876850128, 0.08696616441011429, 0.07713232189416885, 0.027241138741374016, 0.003963320516049862, 0.04752722382545471, 0.037530817091464996, -0.0783909261226654, -0.16896459460258484, -0.06498535722494125, 0.051598601043224335, 0.08620146661996841, -0.09955768287181854, -0.09434609860181808, 0.024080373346805573, 0.029696200042963028, 0.049650367349386215, 0.0712234154343605, -0.0019543722737580538, -0.008004496805369854, -0.030165331438183784, 0.0774516835808754, 0.187856063246727, 0.0503586009144783, -0.20844748616218567, -0.1582118421792984, 0.00988333486020565, 0.05312696099281311, 0.04613903909921646, 0.07158713042736053, 0.029101302847266197, 0.07701805233955383, 0.037917181849479675, 0.1398710310459137, 0.198200061917305, -0.024753987789154053, -0.2455909699201584, -0.09709225594997406, 0.061150819063186646, 0.08608599007129669, 0.08653324097394943, 0.03580661118030548, 0.02373773604631424, 0.050264377146959305, 0.04255196079611778, 0.104562908411026, 0.19319316744804382, -0.03669086843729019, -0.043704599142074585, 0.03264698013663292, 0.06470448523759842, 0.11854241043329239, 0.09718086570501328, -0.017281314358115196, -0.015271060168743134, 0.04150034114718437, -8.644627087051049e-05, 0.04218156635761261, 0.07592654973268509, 0.08472545444965363, 0.07056353241205215, -0.004823250696063042, -0.010356300510466099, 0.06514029949903488, 0.039999544620513916, -0.0110427001491189, 0.07665196061134338, 0.06542892754077911, 0.011241181753575802, 0.06406818330287933, 0.04860368371009827, 0.1590430587530136, -0.036584481596946716, -0.1597982794046402, -0.017199521884322166, 0.05794671177864075, -0.0009047294734045863, 0.10378624498844147, 0.06248703971505165, 0.0659601017832756, 0.13029558956623077, 0.02738764137029648, 0.03989431634545326, -0.1666705459356308, -0.31426218152046204, -0.1669113039970398, -0.03283891826868057, -0.0068520437926054, 0.06480985134840012, 0.037663865834474564, 0.00011684057972161099, 0.1506647914648056, 0.08593133836984634, -0.025117268785834312, -0.1866101771593094, -0.20810538530349731, -0.16264283657073975, -0.08721429854631424, 0.03336378186941147, 0.08365823328495026, 0.06420569121837616, 0.06800323724746704, 0.06758435815572739, 0.10784345120191574, 0.061812758445739746, 0.028467562049627304, 0.0008500184630975127, 0.022423328831791878, 0.01340244896709919, -0.0007651089108549058, 0.06033838540315628, 0.06994885951280594, 0.030700068920850754, 0.029172586277127266, 0.01124168187379837, -0.0849500298500061, -0.07769308984279633, -0.02437485009431839, -0.015260739251971245, -0.022448699921369553, 0.0032520124223083258, 0.012840953655540943, -0.012477332726120949, -0.029627826064825058, -0.0339985266327858, 0.04654349014163017, 0.006337304133921862, -0.06298208981752396, -0.04913049191236496, -0.022458454594016075, -0.018770623952150345, -0.031629327684640884, -0.011583533138036728, -0.01686719059944153, -0.021258093416690826, 0.014242109842598438, -0.04424286633729935, 0.026794135570526123, 0.0017943214625120163, -0.04860296472907066, -0.06572884321212769, -0.022321445867419243, -0.01243932917714119, 0.05306832864880562, 0.013861116021871567, -0.03753632307052612, -0.031034214422106743, -0.0038846933748573065, -0.05762360990047455, -0.044633567333221436, -0.01740219257771969, -0.01903999224305153, -0.03899959847331047, -0.030958974733948708, 0.021933062002062798, 0.04403369501233101, 0.04494080692529678, -0.013871705159544945, -0.015350056812167168, -0.015775863081216812, -0.04347731173038483, -0.06458994746208191, -0.0004741225275211036, -0.044163528829813004, -0.03952883556485176, -0.03610876575112343, 0.04864777252078056, 0.06821051985025406, 0.0663587674498558, 0.0019475017907097936, 0.001970010343939066, -0.023232299834489822, -0.05150873214006424, -0.034542765468358994, -0.014664066955447197, -0.0338488444685936, -0.06149923801422119, -0.022350860759615898, 0.021443819627165794, 0.038137517869472504, 0.05389949679374695, -0.047813937067985535, -0.004747465718537569, -0.031172599643468857, -0.06538297235965729, -0.03169647976756096, -0.05909473076462746, -0.06854764372110367, -0.03226631134748459, -0.011377084068953991, 0.009967944584786892, 0.060899555683135986, -0.020976342260837555, -0.04742767661809921, -0.060750555247068405, -0.06184394657611847, -0.04178328067064285, -0.06315552443265915, -0.0726405531167984, -0.05944022163748741, -0.07063058763742447, -0.00785234197974205, 0.020637016743421555, 0.04067155346274376, -0.013529149815440178, -0.0679403766989708, -0.05109041929244995, -0.0054232715629041195, 0.04006669297814369, -0.06764443963766098, -0.051369789987802505, -0.060223523527383804, -0.01300322450697422, -0.008394214324653149, 0.05918503180146217, 0.03796040639281273, -0.0018852930516004562, -0.006407464854419231, 0.001966002630069852, 0.018740735948085785, 0.10223133862018585, 0.010943903587758541, -0.011999238282442093, -0.02983955852687359, -0.0006162044010125101, 0.00037925897049717605, 0.022360244765877724, 0.00794612430036068, 0.0036186655052006245, 0.007854299619793892, 0.0188895333558321, -0.0057766190730035305, 0.06388414651155472, -0.01750047877430916, -0.02619788609445095, 0.02082773484289646, 0.002538321539759636, 0.006084965076297522, -0.00924371276050806, -0.017241427674889565, -0.019790712743997574, 0.0033431686460971832, 0.01704024337232113, -0.016897888854146004, -0.02830825001001358, 0.05736805126070976, -0.006708904169499874, -0.023234989494085312, -0.028049586340785027, -0.051268428564071655, -0.07733796536922455, -0.08140350878238678, -0.10677137970924377, -0.04024815931916237, -0.03235083073377609, -0.07899729907512665, -0.08247514814138412, 0.02148118056356907, 0.056773897260427475, 0.001431665732525289, -0.06969156861305237, -0.02419222518801689, 0.005931028630584478, 0.03202129155397415, 0.016485704109072685, -0.018280601128935814, 0.04158352315425873, 0.01779802329838276, -0.0042811851017177105, 0.02885683812201023, 0.0643782690167427, -0.06954693794250488, -0.06449653953313828, -0.009882391430437565, 0.009748343378305435, 0.03017311915755272, 0.004933762364089489, 0.03754286468029022, 0.002522106049582362, 0.00013932261208537966, -0.05543522909283638, 0.03439345210790634, 0.002706951228901744, -0.03447655215859413, -0.015913445502519608, -0.0391586534678936, -0.04352742061018944, 0.007018879987299442, 0.007065498270094395, 0.0013560582883656025, -0.024990003556013107, 0.010409441776573658, -0.029936283826828003, 0.006064319517463446, -0.036903172731399536, 0.0074485004879534245, -0.020779218524694443, -0.014756644144654274, -0.01688661426305771, 0.06444951891899109, 0.031146381050348282, 0.015502702444791794, -0.012394505552947521, 0.012871949933469296, -0.07742412388324738, -0.01029977761209011, -0.05426919832825661, -0.00558887142688036, -0.02866682969033718, -0.004496598616242409, 0.03167383000254631, 0.060975879430770874, 0.05053232982754707, -0.013102395460009575, 0.013306969776749611, -0.0006013478268869221, -0.08804123103618622, 0.04948458820581436, -0.021747328341007233, -0.05120084807276726, -0.06476457417011261, -0.04692493751645088, 0.05024011805653572, 0.05041908100247383, 0.040792316198349, -0.003791548777371645, -0.008260546252131462, -0.025615280494093895, -0.06261887401342392, 0.046636827290058136, -0.04104584455490112, -0.06780814379453659, -0.05062655359506607, -0.07661958783864975, 0.033279214054346085, 0.04462501034140587, 0.018487483263015747, -0.04164716601371765, -0.058033183217048645, -0.04445855692028999, -0.038482971489429474, -0.04179040715098381, -0.1071614995598793, -0.07264832407236099, -0.04448883607983589, -0.04623241350054741, 0.010699523612856865, 0.07669027149677277, -0.004516079090535641, -0.06324435025453568, -0.05055111274123192, -0.023182624951004982, 0.058931708335876465, -0.026241924613714218, -0.06595446169376373, -0.014608506113290787, -0.05238679423928261, 0.0004964366089552641, 0.04491756856441498, 0.05538078770041466, -0.013212819583714008, -0.026039546355605125, -0.028570016846060753, 0.0008587964111939073, 0.07705572992563248, 0.024006903171539307, -0.02805817499756813, -0.020085711032152176, -0.017839103937149048, -0.011994704604148865, 0.0307186096906662, 0.041188061237335205, 0.011057935655117035, 0.008621303364634514, -0.00609272625297308, -0.01847894676029682, 0.0758415162563324, 0.08117613941431046, 0.007027310784906149, -0.035340964794158936, -0.005779937840998173, 6.490411124104867e-06, 0.02958117611706257, 0.015450762584805489, -0.0017546082381159067, 0.0035012715961784124, 0.04598047956824303, -0.036084722727537155, 0.04727162793278694, -0.006941106636077166, -0.0288636963814497, -0.03640024736523628, -0.002715972950682044, 0.0021839358378201723, -0.01830849051475525, -0.03270624205470085, -0.06409615278244019, 0.02076626755297184, 0.035742998123168945, -0.03771040588617325, -0.04349308833479881, 0.09964244067668915, -0.024863140657544136, -0.048394810408353806, 0.02172214724123478, 0.09331933408975601, 0.12832610309123993, 0.040867194533348083, 0.09502562880516052, 0.17456717789173126, 0.1049867644906044, -0.12273240834474564, -0.012621919624507427, 0.0745064839720726, -0.06316615641117096, -0.1301742047071457, 0.028538642451167107, 0.07246696203947067, 0.07490437477827072, 0.08643556386232376, 0.2507554888725281, 0.26643356680870056, 0.21695862710475922, -0.1023983508348465, -0.02046371065080166, 0.03122120164334774, 0.007343672215938568, -0.03857465833425522, -0.026235925033688545, 0.009037169627845287, 0.02255682460963726, 0.08844064921140671, 0.1700611561536789, 0.009747251868247986, -0.007558018434792757, -0.14313699305057526, -0.07050144672393799, -0.02947446145117283, 0.0054503208957612514, -0.07692848145961761, -0.04492984712123871, -0.021181266754865646, 0.03108018822968006, 0.1006331592798233, 0.06003684177994728, -0.16095085442066193, -0.15033093094825745, -0.13350798189640045, 0.001779430196620524, -0.035210344940423965, 0.008417963050305843, -0.02156972512602806, -0.08320119231939316, -0.023709917441010475, 0.03210488334298134, 0.13513115048408508, 0.07333815097808838, -0.0534614659845829, -0.15973885357379913, -0.13184353709220886, -0.007877389900386333, -0.057127945125103, -0.11122435331344604, -0.04734356701374054, -0.09743957221508026, 0.009885763749480247, 0.08695890754461288, 0.06641356647014618, 0.06966891884803772, 0.11745604127645493, -0.007233482785522938, -0.07006202638149261, 0.05553890019655228, 0.024376248940825462, -0.13404427468776703, -0.047063760459423065, -0.09472746402025223, -0.01728982664644718, 0.15254013240337372, 0.07694372534751892, 0.028998497873544693, 0.10054565221071243, -0.1051526591181755, 0.026290100067853928, 0.06108871474862099, -0.2148047685623169, -0.09696783125400543, -0.09805990755558014, -0.10422278940677643, -0.0025266751181334257, 0.2793087959289551, 0.21255242824554443, -0.18281178176403046, -0.2284996211528778, -0.2536856532096863, 0.07440731674432755, 0.0753440260887146, -0.07686404138803482, -0.06748741865158081, -0.07325846701860428, -0.07867386192083359, 0.014160406775772572, 0.25003471970558167, 0.11727110296487808, -0.0869656503200531, -0.1387047916650772, -0.027364391833543777, 0.08154403418302536, 0.05489754304289818, -0.03166937455534935, -0.06489165127277374, -0.0541825108230114, -0.032259877771139145, 0.021738294512033463, 0.13219650089740753, 0.07524725794792175, 0.042693063616752625, 0.07920221239328384, 0.087459497153759, 0.13145150244235992, 0.16770605742931366, 0.005264847073704004, -0.014685709029436111, 0.0023391901049762964, 0.052103377878665924, 0.06869222968816757, 0.07380367070436478, 0.0012782062403857708, 0.06712879240512848, 0.10384389758110046, 0.056193411350250244, 0.108893483877182, 0.14830969274044037, 0.05307644233107567, -0.017261676490306854, 0.0197940431535244, 0.03451564162969589, 0.030661681666970253, 0.06580736488103867, -0.03477632626891136, 0.05969854071736336, 0.13828332722187042, -0.0857435017824173, -0.06597501784563065, -0.009128465317189693, 0.048281021416187286, 0.03984691947698593, 0.050088826566934586, 0.06304661929607391, 0.023777084425091743, 0.00797013659030199, 0.006339896935969591, 0.015643760561943054, 0.028837457299232483, 0.022615255787968636, 0.046124525368213654, 0.048539020121097565, 0.05872122943401337, 0.0674842894077301, 0.07440601289272308, 0.06749536097049713, 0.02104467898607254, -0.02057996392250061, -0.0031945505179464817, -0.00887857936322689, -0.004560502246022224, 0.020373323932290077, 0.016950689256191254, 0.03486726060509682, 0.03831516206264496, 0.06686217337846756, 0.07852602750062943, -0.02640412002801895, -0.009326714091002941, -0.02078370563685894, -0.01751636527478695, -0.038113292306661606, 0.0017504385905340314, 0.03003559447824955, -0.0018765482818707824, 0.005063711199909449, 0.06026747077703476, 0.06684224307537079, 0.04277210310101509, -0.05304722860455513, -0.026902703568339348, -0.03163496032357216, 0.0052511002868413925, 0.014189537614583969, -0.011870600283145905, 0.012311907485127449, 0.012371757067739964, -0.000576297752559185, 0.05308319628238678, 0.0577787384390831, 0.024427063763141632, -0.03754368796944618, -0.052200332283973694, -0.01947949267923832, 0.05172809585928917, 0.04362517222762108, 0.013437801972031593, -0.011928660795092583, 0.007825296372175217, 0.03154398128390312, 0.0520331896841526, 0.0446866936981678, 0.041286736726760864, -0.06898938864469528, -0.1005539819598198, -0.026991741731762886, 0.051733143627643585, 0.040672753006219864, -0.0241870004683733, 0.0051694875583052635, 0.008044073358178139, 0.027613742277026176, 0.046203698962926865, 0.04301267862319946, 0.0015427288599312305, -0.009267861023545265, -0.07259022444486618, 0.03835197538137436, 0.01988227851688862, -0.000437651586253196, -0.0482933409512043, -0.060189228504896164, -0.008804816752672195, 0.025193676352500916, 0.0545196570456028, 0.03154069185256958, -0.03405807912349701, -0.06627451628446579, -0.08481282740831375, 0.005562597885727882, 0.03500094264745712, 0.002551182173192501, -0.05916910618543625, -0.014438641257584095, 0.007006969302892685, 0.06836839020252228, 0.019764529541134834, -0.020244834944605827, -0.037725526839494705, -0.04008627310395241, -0.016791868954896927, -0.016222158446907997, 0.017253614962100983, -0.026533737778663635, -0.00382721284404397, -0.004663738887757063, 0.03726005181670189, 0.09483426064252853, 0.08690835535526276, 0.01573224924504757, 0.01070141140371561, -0.021268460899591446, 0.010243745520710945, 0.01104651764035225, -0.013228257186710835, -0.005572367925196886, 0.039342328906059265, 0.049026038497686386, 0.05381923168897629, 0.06488005071878433, 0.04991071671247482, 0.052968259900808334, 0.03239436447620392, -0.012706049717962742, 0.012392171658575535, -0.008136890828609467, 0.006299840752035379, 0.016603341326117516, 0.06758974492549896, 0.08099059015512466, 0.043696388602256775, 0.061349838972091675, 0.046911753714084625, 0.041025467216968536, -0.0007551999879069626, 0.019777745008468628, -0.007258591707795858, -0.003221390303224325, 0.0008380627259612083, -0.01522801909595728, 0.038803402334451675, 0.07688429206609726, 0.03283168002963066, 0.044690269976854324, 0.11907981336116791, 0.052447378635406494, 0.020311705768108368, -0.02253532223403454, -0.08011119067668915, -0.03164084628224373, -0.022416794672608376, 0.012778390198946, -0.00931165087968111, 0.014592770487070084, 0.008570017293095589, -0.033535491675138474, 0.030574189499020576, 0.009153686463832855, 0.00568277295678854, 0.0003561034973245114, -0.05348757281899452, -0.047885529696941376, -0.037334293127059937, -0.02016536332666874, -0.025262784212827682, 0.005962160415947437, -0.005469226278364658, -0.05220106616616249, 0.01806178130209446, -0.0007580258534289896, 0.05915879085659981, 0.021201400086283684, -0.024871857836842537, -0.036358729004859924, 0.032642245292663574, 0.000993335503153503, -0.007712832186371088, -0.012391271069645882, -0.0012525679776445031, -0.08613463491201401, -0.09678296744823456, 0.01591169275343418, 0.0034843592438846827, 0.015304257161915302, -0.05104859173297882, -0.06812034547328949, -0.0005083601572550833, -0.0043039582669734955, -0.06202257052063942, -0.06990407407283783, 0.01806464046239853, -0.07173559069633484, 0.0007391482940874994, 0.07246963679790497, -0.019047213718295097, -0.05583227053284645, -0.10088121891021729, -0.08870366215705872, 0.006540973670780659, -0.00638194102793932, -0.07960564643144608, -0.07311424612998962, -0.0023823550436645746, -0.05099128186702728, -0.018112067133188248, -0.027634043246507645, 0.0052589247934520245, -0.04804612323641777, -0.16616612672805786, -0.09359145164489746, 0.015089346095919609, -0.020668575540184975, -0.0579351969063282, -0.07468697428703308, -0.08783752471208572, -0.10048892349004745, 0.0022544777020812035, -0.03780442103743553, -0.0384402796626091, -0.0753951147198677, -0.15591120719909668, 0.042588576674461365, 0.018672537058591843, 0.004720752127468586, -0.07411352545022964, -0.028188778087496758, -0.026677081361413002, -0.015467430464923382, -0.16576643288135529, -0.05927739292383194, -0.045475978404283524, -0.07366622984409332, -0.07949285209178925, -0.023421261459589005, 0.025523096323013306, -0.013349718414247036, -0.03177351877093315, -0.025249797850847244, 0.015107909217476845, 0.06967155635356903, 0.13230004906654358, 0.07583983987569809, 0.02171601727604866, 0.002363491104915738, 0.03503330424427986, 0.022153476253151894, 0.06855455785989761, -0.032270364463329315, 0.00242544780485332, 0.04802032187581062, 0.01428802590817213, 0.07110629975795746, 0.10365689545869827, 0.04689471423625946, 0.00976935401558876, -0.06628025323152542, -0.023792944848537445, -0.03261652588844299, -0.02617463283240795, -0.051364410668611526, 0.0042327395640313625, -0.005701176822185516, -0.048887014389038086, -0.013201067224144936, -0.06411053985357285, -0.11111084371805191, -0.09728800505399704, -0.09811322391033173, -0.029682209715247154, -0.10480604320764542, -0.07200810313224792, -0.12917901575565338, -0.0441276989877224, 0.04366712272167206, -0.039809487760066986, 0.03841375932097435, -0.0011108546750620008, 0.07053074240684509, 0.0518655963242054, 0.028782278299331665, -0.059068463742733, -0.017773481085896492, -0.022382616996765137, 0.009453050792217255, 0.039536889642477036, 0.09128636121749878, -0.05623919516801834, -0.04910733550786972, 0.08890753239393234, 0.016579553484916687, -0.037601906806230545, -0.002102912636473775, -0.04717074707150459, 0.04039325937628746, -0.05444324016571045, -0.034857019782066345, -0.015688970685005188, 0.008432707749307156, -0.029140258207917213, -0.11869963258504868, 0.10242785513401031, 0.031864020973443985, -0.03082416206598282, 0.0147101990878582, -0.028057340532541275, -0.03279577195644379, -0.0467352494597435, -0.05488234758377075, -0.06407427787780762, -0.03972802683711052, -0.0241079218685627, -0.010861393064260483, -0.010554362088441849, 0.06380870193243027, -0.03766615688800812, -0.031572893261909485, -0.08253737539052963, -0.07850372046232224, -0.09406799077987671, -0.06203625723719597, -0.09576158225536346, -0.04260452091693878, -0.04291126877069473, -0.09034472703933716, -0.04382191598415375, 0.009078044444322586, 0.006745966151356697, 0.020191878080368042, -0.042702607810497284, 0.020574893802404404, -0.01061325240880251, -0.10744346678256989, -0.08950649201869965, -0.07975918799638748, -0.0870305746793747, -0.13358651101589203, -0.04107111692428589, -0.06973832845687866, -0.04431649670004845, -0.07530336081981659, -0.07703159749507904, 0.045611921697854996, -0.0117152975872159, -0.07166081666946411, -0.1063690334558487, -0.09118392318487167, -0.029111748561263084, -0.05008247494697571, 0.07324949651956558, -0.08536026626825333, 0.06395845115184784, -0.0981227308511734, -0.06790346652269363, 0.009281393140554428, -0.07386542856693268, -0.12678763270378113, -0.22272732853889465, -0.13953940570354462, -0.06378231197595596, -0.006980782840400934, -0.004877897910773754, -0.12197016924619675, -0.019154690206050873, -0.08152104169130325, -0.09231198579072952, -0.030081257224082947, -0.11298064887523651, -0.16597653925418854, -0.23268389701843262, -0.21878722310066223, -0.07553032785654068, -0.08273179084062576, -0.18734648823738098, -0.08399739116430283, -0.05056353285908699, -0.10461260378360748, -0.12022905051708221, -0.032738570123910904, -0.08875153958797455, -0.11308863759040833, -0.1710508167743683, -0.06129336357116699, 0.06321047991514206, 0.03695940971374512, -0.049445103853940964, -0.04586109519004822, -0.03728212043642998, 0.019578076899051666, -0.03254634886980057, -0.026329586282372475, -0.0392422080039978, -0.08124034106731415, -0.006445902865380049, 0.08206305652856827, 0.07764355838298798, 0.06889211386442184, 0.08431826531887054, 0.03769925609230995, 0.04867004603147507, 0.04619796201586723, -0.004809353034943342, 0.01551444735378027, -0.023058023303747177, 0.015450739301741123, 0.07376083731651306, 0.06567122042179108, 